~o
<STREAMINFO> 1 39
<VECSIZE> 39<NULLD><MFCC_D_A_0><DIAGC>
~h "a"
<BEGINHMM>
<NUMSTATES> 5
<STATE> 2
<MEAN> 39
 -8.343518e+00 -1.016004e+01 -7.616066e+00 -1.083647e+01 -3.939215e+00 -1.200321e+01 -3.767991e+00 -1.004844e+01 -2.130127e+00 -1.773644e+01 2.430060e-01 -8.043983e+00 6.936812e+01 1.092877e-01 -3.239125e-02 -5.135093e-02 -7.398625e-02 -4.775095e-02 2.089192e-02 1.823450e-02 -2.532720e-01 -2.800040e-02 -2.073922e-01 -3.427185e-03 -1.375445e-01 4.311243e-01 -5.094541e-03 -7.932297e-04 -1.902478e-03 8.533130e-03 9.431760e-04 3.891395e-03 -5.261322e-03 6.968249e-03 -1.511696e-03 7.439548e-03 -2.224602e-03 1.658975e-03 -1.151707e-02
<VARIANCE> 39
 3.686778e+01 5.984719e+01 4.383412e+01 5.455984e+01 4.498856e+01 5.055903e+01 2.993708e+01 8.831257e+01 4.132761e+01 8.931187e+01 2.479873e+01 3.378015e+01 1.812700e+02 1.600622e+00 3.611310e+00 2.301879e+00 3.556554e+00 3.245093e+00 4.652871e+00 2.846194e+00 3.434264e+00 2.781739e+00 4.776287e+00 2.134198e+00 2.361906e+00 6.389719e+00 2.813190e-01 5.129954e-01 3.120060e-01 5.769500e-01 5.085390e-01 7.833990e-01 5.376014e-01 6.103354e-01 4.803515e-01 7.880219e-01 3.785699e-01 4.227015e-01 7.668759e-01
<GCONST> 1.290658e+02
<STATE> 3
<MEAN> 39
 -7.977639e+00 -1.027504e+01 -7.837308e+00 -1.103373e+01 -4.111289e+00 -1.188414e+01 -3.754786e+00 -1.094861e+01 -2.253447e+00 -1.844486e+01 2.031498e-01 -8.548851e+00 7.089020e+01 8.640022e-02 -2.786785e-02 -5.850004e-02 -3.981039e-02 -4.446770e-02 3.367807e-02 -2.753622e-03 -2.218063e-01 -3.555528e-02 -1.724013e-01 -1.232745e-02 -1.260866e-01 3.758279e-01 -6.286412e-03 1.968575e-03 -1.518729e-03 8.696823e-03 7.220214e-04 2.913691e-03 -5.322948e-03 8.407363e-03 -2.219066e-03 9.740520e-03 -2.332109e-03 3.499430e-03 -1.526851e-02
<VARIANCE> 39
 3.519215e+01 6.097441e+01 4.363354e+01 5.187029e+01 4.591698e+01 4.974744e+01 3.020857e+01 8.085899e+01 4.333824e+01 8.697717e+01 2.481434e+01 3.317171e+01 1.682650e+02 1.653270e+00 3.696750e+00 2.299762e+00 3.621562e+00 3.202634e+00 4.563266e+00 2.896616e+00 3.335725e+00 2.863971e+00 4.911365e+00 2.121837e+00 2.339150e+00 6.754735e+00 2.857269e-01 5.161843e-01 3.056847e-01 5.907658e-01 4.916219e-01 7.704398e-01 5.442322e-01 5.894166e-01 4.927993e-01 8.037923e-01 3.738827e-01 4.144073e-01 8.283141e-01
<GCONST> 1.290047e+02
<STATE> 4
<MEAN> 39
 -7.637444e+00 -1.028453e+01 -8.202890e+00 -1.107336e+01 -4.388770e+00 -1.163849e+01 -3.936817e+00 -1.213757e+01 -2.570287e+00 -1.921129e+01 5.354571e-02 -9.211656e+00 7.276344e+01 4.207584e-02 3.155092e-03 -5.921082e-02 4.109185e-03 -3.989949e-02 3.714938e-02 -3.321387e-02 -1.674253e-01 -5.345861e-02 -1.029944e-01 -2.647123e-02 -9.583146e-02 2.727926e-01 -7.207604e-03 5.381098e-03 7.862826e-04 6.268497e-03 4.057756e-04 -2.482824e-04 -4.398358e-03 8.662547e-03 -3.199196e-03 1.108614e-02 -2.156069e-03 5.116086e-03 -1.627464e-02
<VARIANCE> 39
 3.419964e+01 6.617902e+01 4.231395e+01 4.851905e+01 4.704719e+01 4.795442e+01 3.167282e+01 7.009380e+01 4.658476e+01 8.358289e+01 2.500681e+01 3.156504e+01 1.443595e+02 1.858844e+00 3.856308e+00 2.261049e+00 3.734214e+00 3.100232e+00 4.368281e+00 3.024992e+00 3.166943e+00 3.029890e+00 5.148544e+00 2.111663e+00 2.286998e+00 7.082189e+00 3.096228e-01 5.155412e-01 2.942856e-01 6.143494e-01 4.617957e-01 7.453802e-01 5.659747e-01 5.548901e-01 5.164431e-01 8.275465e-01 3.686867e-01 3.985470e-01 9.025642e-01
<GCONST> 1.289739e+02
<TRANSP> 5
 0.000000e+00 1.000000e+00 0.000000e+00 0.000000e+00 0.000000e+00
 0.000000e+00 7.416234e-01 2.583766e-01 0.000000e+00 0.000000e+00
 0.000000e+00 0.000000e+00 7.416241e-01 2.583759e-01 0.000000e+00
 0.000000e+00 0.000000e+00 0.000000e+00 8.637647e-01 1.362353e-01
 0.000000e+00 0.000000e+00 0.000000e+00 0.000000e+00 0.000000e+00
<ENDHMM>
~h "b"
<BEGINHMM>
<NUMSTATES> 5
<STATE> 2
<MEAN> 39
 -1.034342e+01 -9.906035e+00 -7.017596e+00 -9.014837e+00 -3.154206e+00 -1.195879e+01 -4.512036e+00 -5.779520e+00 -1.834164e+00 -1.414788e+01 9.623981e-02 -5.968105e+00 6.223772e+01 1.490624e-01 1.174257e-02 -3.632708e-02 -1.544805e-01 -4.945257e-02 -3.345035e-02 7.575808e-02 -2.730621e-01 -6.745500e-03 -2.640364e-01 2.997843e-02 -1.196081e-01 4.770794e-01 1.740851e-04 -1.326769e-03 1.601768e-03 -1.430608e-03 -3.441697e-03 2.572530e-03 2.879733e-04 -1.016885e-02 -3.445472e-03 5.184640e-04 -1.936170e-03 -3.925784e-03 7.350168e-03
<VARIANCE> 39
 4.010734e+01 6.096672e+01 3.925568e+01 6.106150e+01 4.072127e+01 4.988364e+01 3.138511e+01 1.069752e+02 3.595154e+01 8.575558e+01 2.509456e+01 3.037794e+01 1.823037e+02 1.556568e+00 3.011432e+00 2.087405e+00 3.122447e+00 3.056800e+00 4.344316e+00 2.738761e+00 3.559109e+00 2.669873e+00 4.158169e+00 2.160477e+00 2.307034e+00 4.448444e+00 2.804273e-01 4.320108e-01 3.084134e-01 5.054031e-01 5.095097e-01 7.399738e-01 5.286600e-01 6.401670e-01 4.698189e-01 7.026244e-01 3.936027e-01 4.273192e-01 5.098512e-01
<GCONST> 1.270678e+02
<STATE> 3
<MEAN> 39
 -9.772659e+00 -9.894127e+00 -7.141613e+00 -9.612638e+00 -3.366745e+00 -1.205884e+01 -4.223347e+00 -6.916673e+00 -1.885363e+00 -1.515576e+01 1.895604e-01 -6.470595e+00 6.414133e+01 1.471942e-01 -1.427484e-03 -3.333361e-02 -1.504084e-01 -5.583920e-02 -2.282114e-02 7.045758e-02 -2.957828e-01 -1.518538e-02 -2.604781e-01 2.168197e-02 -1.332475e-01 4.967465e-01 -9.873088e-04 -3.929608e-03 5.386244e-04 1.955737e-03 -1.150072e-03 2.921666e-03 -1.838977e-03 -4.421843e-03 -1.865324e-03 1.145478e-03 -2.052021e-03 -3.332389e-03 3.947933e-03
<VARIANCE> 39
 4.048024e+01 6.022329e+01 4.115603e+01 6.076326e+01 4.166154e+01 5.065966e+01 3.091123e+01 1.049579e+02 3.678933e+01 8.890927e+01 2.496461e+01 3.207618e+01 1.911468e+02 1.570021e+00 3.227852e+00 2.176250e+00 3.260269e+00 3.158462e+00 4.552261e+00 2.758405e+00 3.589200e+00 2.660937e+00 4.343119e+00 2.171543e+00 2.348542e+00 4.991521e+00 2.831777e-01 4.658150e-01 3.152151e-01 5.264487e-01 5.205616e-01 7.710707e-01 5.296796e-01 6.466920e-01 4.641015e-01 7.315409e-01 3.934040e-01 4.310922e-01 5.737004e-01
<GCONST> 1.280799e+02
<STATE> 4
<MEAN> 39
 -8.909453e+00 -1.002212e+01 -7.352864e+00 -1.040257e+01 -3.749977e+00 -1.207957e+01 -3.899988e+00 -8.805550e+00 -2.042223e+00 -1.673882e+01 2.617941e-01 -7.379203e+00 6.724534e+01 1.304575e-01 -2.386233e-02 -4.160145e-02 -1.133787e-01 -5.214501e-02 2.806362e-03 4.318179e-02 -2.838080e-01 -2.166625e-02 -2.357284e-01 6.155388e-03 -1.419723e-01 4.751355e-01 -3.288407e-03 -3.162780e-03 -1.514213e-03 6.709956e-03 7.244377e-04 3.949586e-03 -4.568428e-03 3.497205e-03 -1.092289e-03 4.431668e-03 -2.199908e-03 -6.465284e-04 -5.259174e-03
<VARIANCE> 39
 3.898008e+01 5.954891e+01 4.315183e+01 5.752465e+01 4.390676e+01 5.069128e+01 3.018269e+01 9.693384e+01 3.883327e+01 9.078770e+01 2.495194e+01 3.386161e+01 1.910497e+02 1.572079e+00 3.479820e+00 2.265322e+00 3.443913e+00 3.266994e+00 4.663394e+00 2.818467e+00 3.516977e+00 2.700478e+00 4.619350e+00 2.147249e+00 2.389936e+00 5.845128e+00 2.803664e-01 5.011529e-01 3.141429e-01 5.560804e-01 5.243348e-01 7.875992e-01 5.361990e-01 6.283433e-01 4.696634e-01 7.677974e-01 3.826942e-01 4.340308e-01 6.855021e-01
<GCONST> 1.289162e+02
<TRANSP> 5
 0.000000e+00 1.000000e+00 0.000000e+00 0.000000e+00 0.000000e+00
 0.000000e+00 7.416238e-01 2.583763e-01 0.000000e+00 0.000000e+00
 0.000000e+00 0.000000e+00 7.416238e-01 2.583762e-01 0.000000e+00
 0.000000e+00 0.000000e+00 0.000000e+00 8.637652e-01 1.362348e-01
 0.000000e+00 0.000000e+00 0.000000e+00 0.000000e+00 0.000000e+00
<ENDHMM>
~h "e"
<BEGINHMM>
<NUMSTATES> 5
<STATE> 2
<MEAN> 39
 -6.157684e+00 -4.212111e+00 -1.480471e+01 -1.319985e+01 4.179345e+00 -1.052881e+01 -6.669766e+00 -1.805386e+01 2.313745e+00 -1.427754e+01 -2.196737e+00 -1.158852e+01 7.250600e+01 3.603016e-02 -4.704988e-02 -9.815812e-03 1.255622e-02 2.698111e-02 -1.108256e-01 -1.654777e-02 2.995022e-04 5.015666e-02 -9.370206e-02 3.210166e-03 -1.490684e-03 1.201492e-02 1.311876e-03 3.518531e-03 1.833162e-02 -1.140158e-04 -1.451473e-02 -1.791918e-03 -3.868428e-03 1.398272e-03 -1.006641e-02 -2.697180e-03 -3.536826e-03 1.076869e-03 -6.045516e-04
<VARIANCE> 39
 4.605770e+01 5.420243e+01 1.048867e+02 4.919785e+01 7.707020e+01 6.518446e+01 4.162544e+01 8.880440e+01 9.108968e+01 1.551412e+02 4.924549e+01 4.704928e+01 3.812030e+01 4.248853e+00 3.260032e+00 4.426481e+00 4.090022e+00 3.241606e+00 3.551545e+00 3.993640e+00 7.529004e+00 7.055038e+00 8.973622e+00 3.064669e+00 3.000052e+00 2.834638e+00 6.811748e-01 5.350498e-01 6.613415e-01 6.159781e-01 5.196910e-01 6.206152e-01 7.904376e-01 1.159562e+00 1.145868e+00 1.344211e+00 5.203840e-01 4.956990e-01 4.886137e-01
<GCONST> 1.397453e+02
<STATE> 3
<MEAN> 39
 -6.006662e+00 -4.372174e+00 -1.472108e+01 -1.314995e+01 4.188864e+00 -1.097324e+01 -6.761591e+00 -1.804833e+01 2.441272e+00 -1.466034e+01 -2.207875e+00 -1.158656e+01 7.254769e+01 4.202257e-02 -3.422051e-02 5.951728e-02 1.311347e-02 -2.880189e-02 -1.137344e-01 -3.124869e-02 4.861888e-03 1.131507e-02 -1.050862e-01 -7.899656e-03 7.064195e-04 9.345748e-03 1.709001e-03 2.920290e-03 1.646448e-02 4.177367e-04 -1.356643e-02 6.335065e-04 -3.461516e-03 8.916422e-04 -9.458009e-03 -2.686669e-03 -2.092939e-03 1.245542e-04 -8.584904e-04
<VARIANCE> 39
 4.277199e+01 5.062117e+01 1.035214e+02 4.878290e+01 7.540555e+01 6.551221e+01 4.195847e+01 8.549748e+01 8.995702e+01 1.532399e+02 4.895394e+01 4.735056e+01 3.830929e+01 3.967079e+00 3.226196e+00 4.639134e+00 4.215041e+00 3.396009e+00 3.725649e+00 4.072313e+00 7.475893e+00 7.162749e+00 8.972738e+00 3.212756e+00 3.150792e+00 2.936532e+00 6.482643e-01 5.450196e-01 6.816719e-01 6.441166e-01 5.513818e-01 6.618468e-01 8.160251e-01 1.167443e+00 1.155933e+00 1.366558e+00 5.450327e-01 5.235372e-01 5.088468e-01
<GCONST> 1.401393e+02
<STATE> 4
<MEAN> 39
 -5.734377e+00 -4.495624e+00 -1.415520e+01 -1.303809e+01 3.797868e+00 -1.153196e+01 -6.974220e+00 -1.804240e+01 2.345030e+00 -1.514249e+01 -2.351212e+00 -1.150349e+01 7.259232e+01 5.247264e-02 -1.854239e-02 1.374701e-01 1.703006e-02 -9.486456e-02 -1.010233e-01 -4.826529e-02 7.513588e-03 -3.695466e-02 -1.157940e-01 -1.334203e-02 -1.785227e-03 1.639837e-03 1.978790e-03 2.416118e-03 1.251741e-02 9.081782e-04 -1.098861e-02 3.408794e-03 -2.549177e-03 7.252834e-04 -7.825343e-03 -1.255833e-03 -3.967439e-04 -5.656681e-04 -1.729145e-03
<VARIANCE> 39
 3.913548e+01 4.798588e+01 1.052874e+02 4.788804e+01 7.521604e+01 6.393319e+01 4.310513e+01 8.080265e+01 9.004736e+01 1.474210e+02 4.994292e+01 4.816076e+01 3.868466e+01 3.624105e+00 3.174824e+00 5.060260e+00 4.336850e+00 3.709789e+00 3.967797e+00 4.172668e+00 7.279523e+00 7.252667e+00 8.759034e+00 3.463288e+00 3.381618e+00 3.028161e+00 6.083353e-01 5.495319e-01 7.361595e-01 6.800003e-01 6.166563e-01 7.217194e-01 8.477452e-01 1.156135e+00 1.162813e+00 1.372722e+00 5.811480e-01 5.679527e-01 5.258414e-01
<GCONST> 1.407623e+02
<TRANSP> 5
 0.000000e+00 1.000000e+00 0.000000e+00 0.000000e+00 0.000000e+00
 0.000000e+00 7.473190e-01 2.526810e-01 0.000000e+00 0.000000e+00
 0.000000e+00 0.000000e+00 7.473195e-01 2.526804e-01 0.000000e+00
 0.000000e+00 0.000000e+00 0.000000e+00 8.712760e-01 1.287241e-01
 0.000000e+00 0.000000e+00 0.000000e+00 0.000000e+00 0.000000e+00
<ENDHMM>
~h "g"
<BEGINHMM>
<NUMSTATES> 5
<STATE> 2
<MEAN> 39
 -4.297586e+00 -1.145575e+00 -5.733017e+00 -1.622258e+01 -6.975545e+00 -1.266366e+01 -4.157529e+00 -1.652815e+01 -7.077279e+00 -6.689182e+00 -9.969557e+00 -3.583682e+00 6.767277e+01 1.279471e-01 1.720057e-01 7.911115e-03 1.656340e-02 -6.583363e-02 -3.509430e-02 1.956588e-02 -1.762188e-03 -9.184021e-02 1.008907e-01 -7.966062e-02 8.976320e-02 -9.239082e-02 -1.180360e-03 -2.410863e-03 -9.144701e-04 5.992101e-03 8.243107e-03 4.228383e-03 -6.269641e-03 1.408432e-03 1.021258e-02 -1.245676e-02 1.370052e-02 -1.177676e-02 4.338116e-03
<VARIANCE> 39
 4.635383e+01 6.908747e+01 1.496796e+02 7.825580e+01 1.007890e+02 5.969996e+01 5.694865e+01 6.382876e+01 7.454318e+01 7.767313e+01 7.909406e+01 7.274489e+01 5.110552e+01 2.597384e+00 2.886395e+00 8.918200e+00 6.463438e+00 7.172097e+00 6.076123e+00 5.748002e+00 5.999292e+00 5.015053e+00 4.875044e+00 4.101326e+00 4.262666e+00 3.111136e+00 4.425920e-01 4.349818e-01 1.474271e+00 9.998698e-01 1.297505e+00 1.188785e+00 1.112671e+00 1.054719e+00 9.558874e-01 9.478776e-01 7.202393e-01 7.812593e-01 4.444912e-01
<GCONST> 1.456994e+02
<STATE> 3
<MEAN> 39
 -3.797462e+00 -4.780388e-01 -5.709438e+00 -1.611201e+01 -7.175891e+00 -1.277779e+01 -4.121655e+00 -1.652756e+01 -7.369199e+00 -6.376141e+00 -1.019066e+01 -3.309081e+00 6.733408e+01 1.196075e-01 1.560460e-01 6.557345e-03 4.093832e-02 -3.223398e-02 -1.921312e-02 -6.418718e-03 5.257810e-03 -4.883925e-02 4.908554e-02 -2.317102e-02 4.128347e-02 -7.318118e-02 -3.234817e-03 -6.114528e-03 5.390333e-04 6.171137e-03 8.369027e-03 3.377215e-03 -6.710551e-03 2.302852e-03 1.126173e-02 -1.346539e-02 1.469711e-02 -1.245025e-02 5.379044e-03
<VARIANCE> 39
 4.302231e+01 6.926267e+01 1.509778e+02 7.718504e+01 9.425128e+01 5.710171e+01 5.626534e+01 5.896582e+01 7.020234e+01 6.984326e+01 7.458793e+01 7.072372e+01 4.962363e+01 2.452388e+00 2.931498e+00 9.304511e+00 6.493695e+00 7.243620e+00 6.047943e+00 5.588265e+00 5.686457e+00 4.903149e+00 4.812469e+00 3.996069e+00 4.289592e+00 3.108022e+00 4.302953e-01 4.401824e-01 1.541326e+00 1.039463e+00 1.334828e+00 1.207132e+00 1.088356e+00 1.024545e+00 9.415791e-01 9.601985e-01 6.983129e-01 7.855951e-01 4.423015e-01
<GCONST> 1.450365e+02
<STATE> 4
<MEAN> 39
 -3.167067e+00 3.460360e-01 -5.672399e+00 -1.576180e+01 -7.261419e+00 -1.282985e+01 -4.276569e+00 -1.642547e+01 -7.485220e+00 -6.275372e+00 -1.012111e+01 -3.248617e+00 6.699170e+01 9.384938e-02 1.094294e-01 1.470756e-02 7.478528e-02 1.269738e-02 -4.591008e-03 -4.250300e-02 2.002271e-02 1.362129e-02 -2.642746e-02 5.506330e-02 -2.486609e-02 -4.212530e-02 -5.641152e-03 -1.061572e-02 2.413345e-03 5.645121e-03 7.219886e-03 1.935119e-03 -6.261902e-03 3.348496e-03 1.085450e-02 -1.345298e-02 1.380419e-02 -1.129183e-02 5.887735e-03
<VARIANCE> 39
 3.833618e+01 6.918838e+01 1.518986e+02 7.516179e+01 8.756171e+01 5.408838e+01 5.626268e+01 5.347517e+01 6.703080e+01 6.341781e+01 6.988962e+01 6.887283e+01 4.706731e+01 2.294435e+00 3.004057e+00 9.771554e+00 6.446503e+00 7.340264e+00 5.991296e+00 5.393551e+00 5.299537e+00 4.813493e+00 4.765586e+00 3.821666e+00 4.276781e+00 3.032773e+00 4.164686e-01 4.461536e-01 1.613676e+00 1.080418e+00 1.372627e+00 1.228236e+00 1.054488e+00 9.875970e-01 9.328690e-01 9.797029e-01 6.654836e-01 7.833118e-01 4.296502e-01
<GCONST> 1.441568e+02
<TRANSP> 5
 0.000000e+00 1.000000e+00 0.000000e+00 0.000000e+00 0.000000e+00
 0.000000e+00 7.497384e-01 2.502617e-01 0.000000e+00 0.000000e+00
 0.000000e+00 0.000000e+00 7.497382e-01 2.502618e-01 0.000000e+00
 0.000000e+00 0.000000e+00 0.000000e+00 8.735512e-01 1.264488e-01
 0.000000e+00 0.000000e+00 0.000000e+00 0.000000e+00 0.000000e+00
<ENDHMM>
~h "h"
<BEGINHMM>
<NUMSTATES> 5
<STATE> 2
<MEAN> 39
 -6.092980e+00 -2.396892e+00 -9.518560e+00 -1.504989e+01 -1.316850e+00 -8.187544e+00 -7.036269e+00 -1.649447e+01 -1.295366e+00 -1.424302e+01 -3.175625e+00 -1.073247e+01 7.047575e+01 3.922246e-02 -7.091980e-02 -1.349036e-01 1.039695e-03 5.760001e-02 -2.147506e-02 4.089654e-02 3.747737e-03 5.143083e-02 -1.920468e-02 1.417889e-02 2.104070e-02 -3.575921e-02 6.038424e-04 5.934310e-03 1.214666e-02 1.817841e-04 -9.136613e-03 -8.604476e-03 -3.408771e-03 2.559227e-03 -9.309462e-03 9.324595e-03 -9.525376e-03 6.923093e-03 -2.190362e-03
<VARIANCE> 39
 6.527121e+01 7.754838e+01 1.298519e+02 6.175618e+01 9.412655e+01 7.064819e+01 5.468082e+01 1.021040e+02 1.095751e+02 1.379554e+02 7.703758e+01 5.525981e+01 4.742928e+01 5.428054e+00 3.157815e+00 5.155217e+00 3.943249e+00 3.857156e+00 3.871141e+00 4.509309e+00 7.354565e+00 6.459422e+00 7.178490e+00 3.652601e+00 2.905182e+00 2.236579e+00 8.182909e-01 4.187193e-01 8.379677e-01 5.770761e-01 5.895994e-01 6.520141e-01 8.010604e-01 1.095818e+00 1.103678e+00 1.114094e+00 6.119796e-01 5.038935e-01 3.339506e-01
<GCONST> 1.425767e+02
<STATE> 3
<MEAN> 39
 -5.934093e+00 -2.631906e+00 -9.960560e+00 -1.504471e+01 -1.159485e+00 -8.336281e+00 -6.899059e+00 -1.646180e+01 -1.165213e+00 -1.424493e+01 -3.192289e+00 -1.059552e+01 7.031673e+01 4.177494e-02 -4.725207e-02 -8.633655e-02 3.296976e-03 2.138682e-02 -5.455363e-02 2.838297e-02 1.161267e-02 1.521624e-02 1.597660e-02 -2.229906e-02 4.721013e-02 -4.310843e-02 6.874185e-04 5.750569e-03 1.206782e-02 9.011435e-04 -8.885783e-03 -7.801382e-03 -2.803756e-03 1.296014e-03 -8.605261e-03 7.954372e-03 -8.485663e-03 6.043116e-03 -1.302876e-03
<VARIANCE> 39
 6.273776e+01 7.270154e+01 1.287121e+02 6.221565e+01 9.663116e+01 7.328262e+01 5.469957e+01 1.023317e+02 1.079745e+02 1.361052e+02 7.692936e+01 5.773890e+01 4.841284e+01 5.167959e+00 3.124959e+00 5.254924e+00 4.142410e+00 4.014100e+00 4.031141e+00 4.659441e+00 7.553880e+00 6.441749e+00 7.129973e+00 3.734708e+00 2.983775e+00 2.340883e+00 7.890533e-01 4.273282e-01 8.398486e-01 6.113736e-01 6.187275e-01 6.848516e-01 8.370646e-01 1.139129e+00 1.095645e+00 1.112897e+00 6.326426e-01 5.183430e-01 3.517389e-01
<GCONST> 1.431341e+02
<STATE> 4
<MEAN> 39
 -5.660978e+00 -2.754845e+00 -1.022200e+01 -1.499977e+01 -1.251299e+00 -8.735476e+00 -6.786583e+00 -1.637319e+01 -1.260092e+00 -1.395332e+01 -3.514700e+00 -1.017443e+01 7.003870e+01 4.636149e-02 -1.656657e-02 -2.268228e-02 1.121193e-02 -2.459934e-02 -9.244288e-02 1.533655e-02 1.313154e-02 -2.794150e-02 5.368747e-02 -6.186146e-02 7.473429e-02 -4.680615e-02 9.756964e-04 4.716451e-03 1.013290e-02 1.651203e-03 -7.112376e-03 -5.504441e-03 -1.878437e-03 -4.195492e-04 -6.175692e-03 4.794470e-03 -5.378227e-03 3.609026e-03 6.756251e-05
<VARIANCE> 39
 5.928461e+01 6.765536e+01 1.284291e+02 6.328695e+01 9.994429e+01 7.600334e+01 5.542770e+01 1.000590e+02 1.060632e+02 1.328771e+02 7.760770e+01 6.114125e+01 4.994353e+01 4.817396e+00 3.096475e+00 5.467415e+00 4.438893e+00 4.274211e+00 4.287643e+00 4.847301e+00 7.659660e+00 6.348864e+00 6.975917e+00 3.853776e+00 3.125818e+00 2.494045e+00 7.516200e-01 4.406293e-01 8.579882e-01 6.656792e-01 6.735119e-01 7.444239e-01 8.853906e-01 1.177660e+00 1.073453e+00 1.104763e+00 6.603428e-01 5.470356e-01 3.763058e-01
<GCONST> 1.439315e+02
<TRANSP> 5
 0.000000e+00 1.000000e+00 0.000000e+00 0.000000e+00 0.000000e+00
 0.000000e+00 7.490201e-01 2.509799e-01 0.000000e+00 0.000000e+00
 0.000000e+00 0.000000e+00 7.490202e-01 2.509798e-01 0.000000e+00
 0.000000e+00 0.000000e+00 0.000000e+00 8.730338e-01 1.269662e-01
 0.000000e+00 0.000000e+00 0.000000e+00 0.000000e+00 0.000000e+00
<ENDHMM>
~h "i"
<BEGINHMM>
<NUMSTATES> 5
<STATE> 2
<MEAN> 39
 -8.856650e+00 -1.562003e+00 -3.596641e+00 -1.344615e+01 -6.476720e+00 -1.257859e+01 -7.485699e+00 -1.394379e+01 -4.986571e+00 -1.171863e+01 -4.443007e+00 -8.146410e+00 7.241700e+01 -5.432328e-03 4.106670e-02 -5.759954e-02 2.295069e-02 3.822013e-02 4.057933e-02 -2.258184e-03 -4.658154e-02 2.082141e-02 -5.109239e-03 1.049576e-03 -2.106760e-02 8.288231e-04 7.248281e-04 -4.391310e-03 -3.797832e-03 -4.811032e-04 3.593671e-03 -1.459248e-03 1.190520e-03 2.549449e-03 3.058859e-03 -4.670191e-03 4.146460e-03 -1.112661e-03 -1.387300e-03
<VARIANCE> 39
 8.828690e+01 1.160589e+02 9.055802e+01 7.313216e+01 6.483483e+01 6.758093e+01 6.597581e+01 6.038038e+01 7.603863e+01 1.333632e+02 6.791416e+01 4.034516e+01 5.328492e+01 5.537075e+00 3.628846e+00 4.056872e+00 3.503045e+00 3.578808e+00 4.556533e+00 3.603309e+00 3.767778e+00 4.645427e+00 6.220764e+00 3.019918e+00 2.653622e+00 2.340757e+00 7.529892e-01 4.478338e-01 6.463948e-01 5.257479e-01 5.719227e-01 7.579779e-01 6.015844e-01 6.134349e-01 8.009396e-01 8.916831e-01 4.888259e-01 4.602872e-01 3.178462e-01
<GCONST> 1.378772e+02
<STATE> 3
<MEAN> 39
 -8.864877e+00 -1.438241e+00 -3.855427e+00 -1.336427e+01 -6.292819e+00 -1.242846e+01 -7.486971e+00 -1.410465e+01 -4.877737e+00 -1.178089e+01 -4.405544e+00 -8.240000e+00 7.240759e+01 1.689387e-04 2.362205e-02 -7.011244e-02 1.736611e-02 5.123440e-02 3.452439e-02 3.717911e-04 -3.687704e-02 3.219268e-02 -2.328272e-02 1.557572e-02 -2.627954e-02 -3.104158e-03 1.764836e-03 -4.007963e-03 -2.418802e-03 -1.931722e-03 2.837407e-03 -1.594520e-03 9.175699e-05 2.536513e-03 2.410027e-03 -3.985211e-03 2.961454e-03 -1.181141e-03 -1.057921e-03
<VARIANCE> 39
 9.090891e+01 1.139354e+02 9.229497e+01 7.359669e+01 6.629018e+01 6.877747e+01 6.531594e+01 6.199532e+01 7.847010e+01 1.329571e+02 6.748182e+01 4.090025e+01 5.023206e+01 5.744512e+00 3.657509e+00 4.122554e+00 3.556126e+00 3.578958e+00 4.523648e+00 3.657252e+00 3.910166e+00 4.794275e+00 6.288654e+00 3.060000e+00 2.658516e+00 2.282751e+00 7.808435e-01 4.502818e-01 6.644520e-01 5.323962e-01 5.740297e-01 7.519238e-01 6.101592e-01 6.294065e-01 8.259924e-01 9.062599e-01 4.963776e-01 4.622696e-01 3.167105e-01
<GCONST> 1.382794e+02
<STATE> 4
<MEAN> 39
 -8.803854e+00 -1.281271e+00 -4.272353e+00 -1.331497e+01 -5.992448e+00 -1.222890e+01 -7.551804e+00 -1.423777e+01 -4.664667e+00 -1.194405e+01 -4.319037e+00 -8.401395e+00 7.234791e+01 1.726791e-02 2.452862e-03 -7.421917e-02 -1.977762e-03 6.227754e-02 2.544107e-02 -4.650847e-03 -2.221389e-02 4.149621e-02 -4.027351e-02 2.392959e-02 -3.219457e-02 -9.209070e-03 2.716351e-03 -2.520669e-03 3.155073e-04 -3.306298e-03 1.008488e-03 -1.609899e-03 -1.394275e-03 2.380739e-03 6.871903e-04 -1.515955e-03 3.290622e-04 -5.224065e-04 -1.248966e-03
<VARIANCE> 39
 9.325722e+01 1.104716e+02 9.529619e+01 7.399835e+01 6.974926e+01 7.090762e+01 6.488010e+01 6.531963e+01 8.199485e+01 1.336277e+02 6.701611e+01 4.193492e+01 4.671698e+01 5.914547e+00 3.676526e+00 4.211848e+00 3.635065e+00 3.629257e+00 4.498833e+00 3.767823e+00 4.161169e+00 4.971053e+00 6.407104e+00 3.106951e+00 2.683833e+00 2.190085e+00 8.041184e-01 4.507649e-01 6.843352e-01 5.430426e-01 5.826082e-01 7.479256e-01 6.279402e-01 6.608341e-01 8.522860e-01 9.225026e-01 5.061256e-01 4.667135e-01 3.123871e-01
<GCONST> 1.388803e+02
<TRANSP> 5
 0.000000e+00 1.000000e+00 0.000000e+00 0.000000e+00 0.000000e+00
 0.000000e+00 7.499729e-01 2.500271e-01 0.000000e+00 0.000000e+00
 0.000000e+00 0.000000e+00 7.499737e-01 2.500264e-01 0.000000e+00
 0.000000e+00 0.000000e+00 0.000000e+00 8.740256e-01 1.259744e-01
 0.000000e+00 0.000000e+00 0.000000e+00 0.000000e+00 0.000000e+00
<ENDHMM>
~h "j"
<BEGINHMM>
<NUMSTATES> 5
<STATE> 2
<MEAN> 39
 -1.097241e+01 -8.790493e+00 -4.524988e+00 -1.077471e+01 -3.791610e+00 -1.373527e+01 -3.762933e+00 -7.668027e+00 -2.376967e+00 -1.202356e+01 1.368132e-01 -6.284560e+00 6.469086e+01 8.729748e-02 7.404041e-02 2.330736e-03 -7.471167e-02 -4.789763e-02 -9.247398e-02 2.282966e-02 -2.167406e-01 -2.153116e-02 -1.166321e-01 -3.097974e-02 -6.488510e-02 3.478091e-01 -7.041320e-05 9.332026e-03 -1.838539e-03 -1.894822e-03 1.056990e-03 1.415134e-03 -3.513005e-03 -7.790411e-03 -1.405748e-04 8.396869e-03 -3.601687e-03 -1.502367e-03 -1.867839e-03
<VARIANCE> 39
 4.327562e+01 6.796339e+01 4.557170e+01 6.097581e+01 5.046449e+01 5.939618e+01 2.939597e+01 1.042495e+02 4.081723e+01 9.190658e+01 3.283369e+01 3.539910e+01 1.865210e+02 1.992621e+00 3.613821e+00 3.382149e+00 3.428308e+00 4.069120e+00 4.973711e+00 2.971510e+00 3.375880e+00 3.356838e+00 4.309984e+00 2.732149e+00 2.638642e+00 3.572216e+00 3.034747e-01 5.369048e-01 5.230544e-01 6.054466e-01 6.452717e-01 8.341078e-01 5.896996e-01 6.009468e-01 6.399044e-01 6.599989e-01 5.306510e-01 4.955479e-01 3.988241e-01
<GCONST> 1.320638e+02
<STATE> 3
<MEAN> 39
 -1.062317e+01 -8.396961e+00 -4.540607e+00 -1.112147e+01 -3.954836e+00 -1.409086e+01 -3.712674e+00 -8.632427e+00 -2.442915e+00 -1.239857e+01 -1.899409e-02 -6.570933e+00 6.607285e+01 8.344633e-02 1.062966e-01 2.515772e-04 -8.686299e-02 -4.354279e-02 -8.935798e-02 1.041875e-02 -2.476643e-01 -2.003481e-02 -7.722703e-02 -4.380157e-02 -7.031005e-02 3.439250e-01 -1.238699e-03 7.990200e-03 -2.961053e-04 -3.011951e-03 1.254241e-03 5.530909e-04 -3.351564e-03 -7.483233e-03 5.737308e-04 1.081631e-02 -3.227211e-03 -1.086947e-03 -1.665316e-03
<VARIANCE> 39
 4.499071e+01 6.846114e+01 4.734550e+01 5.766390e+01 5.172834e+01 6.078189e+01 2.936187e+01 1.027838e+02 4.198217e+01 9.771943e+01 3.146504e+01 3.781849e+01 1.857382e+02 2.362604e+00 3.794730e+00 3.664406e+00 3.365488e+00 4.242508e+00 5.428102e+00 2.961020e+00 3.437303e+00 3.504605e+00 4.444889e+00 2.608629e+00 2.785706e+00 3.845129e+00 3.492500e-01 5.700088e-01 5.709944e-01 5.972189e-01 6.767433e-01 9.211257e-01 5.818173e-01 6.076095e-01 6.715019e-01 6.623016e-01 5.110323e-01 5.243242e-01 4.237643e-01
<GCONST> 1.333634e+02
<STATE> 4
<MEAN> 39
 -1.014310e+01 -7.417878e+00 -4.546437e+00 -1.177602e+01 -4.178580e+00 -1.467308e+01 -3.792985e+00 -1.049986e+01 -2.475624e+00 -1.250521e+01 -4.498580e-01 -7.090726e+00 6.823389e+01 6.669287e-02 1.430805e-01 3.375653e-03 -9.624909e-02 -3.610230e-02 -8.739123e-02 -1.312190e-02 -2.765519e-01 -1.348550e-02 8.733561e-03 -6.350819e-02 -6.534458e-02 3.209163e-01 -3.201328e-03 4.944102e-03 9.548044e-04 3.857141e-05 9.886648e-04 1.476485e-04 -3.568971e-03 -2.393098e-03 6.194079e-04 1.386863e-02 -2.903671e-03 1.878941e-03 -5.823129e-03
<VARIANCE> 39
 5.213088e+01 7.005376e+01 5.109788e+01 5.180873e+01 5.395414e+01 6.230718e+01 2.941323e+01 9.666633e+01 4.555224e+01 1.074754e+02 2.993830e+01 4.214258e+01 1.723535e+02 3.255105e+00 4.009414e+00 4.200357e+00 3.331308e+00 4.705381e+00 6.069187e+00 2.901154e+00 3.567616e+00 3.887151e+00 4.518136e+00 2.430229e+00 3.048729e+00 4.205929e+00 4.569287e-01 6.116270e-01 6.627129e-01 5.962959e-01 7.673107e-01 1.054087e+00 5.619206e-01 6.228210e-01 7.486575e-01 6.503614e-01 4.790774e-01 5.741138e-01 4.581932e-01
<GCONST> 1.355653e+02
<TRANSP> 5
 0.000000e+00 1.000000e+00 0.000000e+00 0.000000e+00 0.000000e+00
 0.000000e+00 7.465590e-01 2.534410e-01 0.000000e+00 0.000000e+00
 0.000000e+00 0.000000e+00 7.465585e-01 2.534415e-01 0.000000e+00
 0.000000e+00 0.000000e+00 0.000000e+00 8.697846e-01 1.302154e-01
 0.000000e+00 0.000000e+00 0.000000e+00 0.000000e+00 0.000000e+00
<ENDHMM>
~h "l"
<BEGINHMM>
<NUMSTATES> 5
<STATE> 2
<MEAN> 39
 -1.331410e+01 -9.347643e+00 -5.913477e+00 -7.597577e+00 -2.261529e+00 -1.137828e+01 -4.828965e+00 -2.208445e+00 -2.097478e+00 -9.443090e+00 -1.431222e-01 -4.539489e+00 5.626908e+01 1.285867e-01 -7.139115e-02 2.922470e-02 -1.991319e-01 1.569555e-02 -1.458820e-01 9.432400e-02 -1.449514e-01 2.318485e-02 -1.981489e-01 5.949532e-02 -5.982914e-02 4.572626e-01 1.835203e-03 3.914704e-03 -6.664861e-03 4.258164e-03 -3.718262e-03 7.569208e-03 -3.173488e-03 -7.602115e-03 1.893433e-03 -4.160272e-03 -5.303453e-03 1.943422e-03 -2.035324e-03
<VARIANCE> 39
 4.373555e+01 6.369399e+01 3.539851e+01 6.276628e+01 3.942442e+01 6.015091e+01 3.768217e+01 9.304317e+01 3.831463e+01 6.386392e+01 3.115858e+01 2.564593e+01 1.355651e+02 1.763964e+00 2.166070e+00 2.130069e+00 2.871235e+00 2.366657e+00 3.542601e+00 2.554256e+00 3.390248e+00 2.678280e+00 2.976582e+00 2.395967e+00 2.244807e+00 2.284172e+00 2.984856e-01 2.980005e-01 3.666216e-01 4.851994e-01 4.023420e-01 5.776373e-01 4.725499e-01 6.127583e-01 4.824447e-01 5.244283e-01 4.586265e-01 4.273257e-01 2.822319e-01
<GCONST> 1.235512e+02
<STATE> 3
<MEAN> 39
 -1.279881e+01 -9.587654e+00 -5.886816e+00 -8.292254e+00 -2.261804e+00 -1.186999e+01 -4.517294e+00 -2.826849e+00 -2.000635e+00 -1.025057e+01 2.091050e-02 -4.742601e+00 5.800530e+01 1.321763e-01 -5.327512e-02 1.862535e-03 -1.702115e-01 -4.844548e-03 -1.184850e-01 7.433054e-02 -1.617973e-01 2.202064e-02 -2.064528e-01 3.767329e-02 -5.017295e-02 4.348951e-01 8.481662e-04 4.925909e-03 -6.554260e-03 7.697006e-03 -5.919932e-03 6.858926e-03 -4.857465e-03 -3.872188e-03 -1.020211e-03 -1.300170e-03 -5.752133e-03 2.435091e-03 -5.706706e-03
<VARIANCE> 39
 4.659189e+01 6.503708e+01 3.591060e+01 6.359628e+01 3.854490e+01 5.974266e+01 3.720914e+01 9.663107e+01 3.921565e+01 6.719940e+01 3.202744e+01 2.692542e+01 1.427608e+02 1.749261e+00 2.285533e+00 2.112726e+00 2.903064e+00 2.354060e+00 3.689874e+00 2.489075e+00 3.360230e+00 2.680302e+00 3.077420e+00 2.408442e+00 2.333209e+00 2.392655e+00 2.906393e-01 3.136410e-01 3.583078e-01 4.859324e-01 3.968836e-01 5.891058e-01 4.582050e-01 6.076536e-01 4.769919e-01 5.364861e-01 4.569379e-01 4.400277e-01 2.799229e-01
<GCONST> 1.240325e+02
<STATE> 4
<MEAN> 39
 -1.192667e+01 -9.707256e+00 -5.909415e+00 -9.220534e+00 -2.562653e+00 -1.243892e+01 -4.053333e+00 -4.027821e+00 -2.059748e+00 -1.155136e+01 7.306051e-02 -5.006891e+00 6.093481e+01 1.338168e-01 -4.859296e-03 -1.611295e-02 -1.232032e-01 -4.982864e-02 -7.348174e-02 5.084475e-02 -1.807289e-01 -8.358150e-03 -1.936232e-01 4.355618e-03 -4.132003e-02 4.013649e-01 2.686145e-04 7.163335e-03 -1.891440e-03 6.023588e-03 -6.580236e-03 5.970990e-03 -2.942006e-03 -3.232714e-03 -4.599203e-03 1.888481e-03 -4.571727e-03 1.053202e-03 -3.637616e-03
<VARIANCE> 39
 4.987712e+01 6.706594e+01 3.693991e+01 6.367348e+01 3.919215e+01 6.003521e+01 3.845279e+01 1.019010e+02 4.122973e+01 7.471975e+01 3.318061e+01 2.929291e+01 1.584751e+02 1.721387e+00 2.508918e+00 2.073761e+00 2.952129e+00 2.372371e+00 4.117617e+00 2.451629e+00 3.289078e+00 2.705915e+00 3.290583e+00 2.412036e+00 2.460288e+00 2.630896e+00 2.789834e-01 3.453596e-01 3.357607e-01 4.951548e-01 4.009111e-01 6.374855e-01 4.474313e-01 5.999775e-01 4.780016e-01 5.568973e-01 4.535132e-01 4.565893e-01 2.855816e-01
<GCONST> 1.251814e+02
<TRANSP> 5
 0.000000e+00 1.000000e+00 0.000000e+00 0.000000e+00 0.000000e+00
 0.000000e+00 7.487869e-01 2.512131e-01 0.000000e+00 0.000000e+00
 0.000000e+00 0.000000e+00 7.487872e-01 2.512129e-01 0.000000e+00
 0.000000e+00 0.000000e+00 0.000000e+00 8.727976e-01 1.272024e-01
 0.000000e+00 0.000000e+00 0.000000e+00 0.000000e+00 0.000000e+00
<ENDHMM>
~h "n"
<BEGINHMM>
<NUMSTATES> 5
<STATE> 2
<MEAN> 39
 -5.418953e+00 -6.017551e+00 -4.279146e+00 -9.639494e+00 -4.973773e+00 -1.163414e+01 -6.921764e+00 -1.208095e+01 -3.423774e+00 -1.372478e+01 -2.821180e+00 -6.694094e+00 6.559166e+01 -1.237593e-01 -1.189854e-01 3.181608e-02 1.418513e-01 -2.868887e-02 1.077074e-01 4.208525e-02 1.696420e-01 -3.290782e-02 3.288675e-02 7.008998e-02 7.813405e-02 -2.393005e-01 -4.570940e-03 3.466027e-03 -3.881092e-03 1.534825e-03 1.088266e-03 3.359857e-03 8.461676e-04 2.014890e-03 -4.088543e-04 6.930165e-03 -1.022797e-03 1.667346e-03 -1.009468e-02
<VARIANCE> 39
 3.943743e+01 8.958730e+01 9.290770e+01 5.084658e+01 6.262182e+01 5.935982e+01 5.568854e+01 6.091242e+01 7.406542e+01 8.407586e+01 5.200682e+01 5.068688e+01 1.116581e+02 1.812418e+00 3.112343e+00 7.103547e+00 3.315225e+00 5.306239e+00 4.325344e+00 4.354138e+00 3.534309e+00 4.719723e+00 3.911128e+00 3.450516e+00 3.531566e+00 2.973785e+00 3.214842e-01 4.317637e-01 1.069343e+00 6.509273e-01 8.994665e-01 9.042452e-01 7.379938e-01 6.665974e-01 7.815279e-01 7.100185e-01 5.637409e-01 6.365241e-01 3.795601e-01
<GCONST> 1.374129e+02
<STATE> 3
<MEAN> 39
 -5.938190e+00 -6.477651e+00 -4.171682e+00 -9.068721e+00 -5.079324e+00 -1.118318e+01 -6.750166e+00 -1.139555e+01 -3.552763e+00 -1.356149e+01 -2.545990e+00 -6.376220e+00 6.458883e+01 -1.407884e-01 -1.033466e-01 1.587316e-02 1.472420e-01 -2.388857e-02 1.200964e-01 4.423971e-02 1.764520e-01 -3.424200e-02 6.058077e-02 6.494447e-02 8.449024e-02 -2.787026e-01 -3.640767e-03 5.165172e-03 -4.107196e-03 1.017285e-03 1.482712e-03 2.694778e-03 -3.274874e-04 8.953151e-04 -7.925159e-05 7.060234e-03 -1.973846e-03 1.415424e-03 -9.573692e-03
<VARIANCE> 39
 3.992805e+01 8.801160e+01 8.600510e+01 4.965442e+01 5.892351e+01 5.912614e+01 5.384967e+01 6.031078e+01 6.945888e+01 8.313190e+01 4.883583e+01 4.856824e+01 1.245065e+02 1.625911e+00 3.006882e+00 6.709709e+00 3.074833e+00 5.038048e+00 4.117579e+00 4.178916e+00 3.331374e+00 4.460706e+00 3.698982e+00 3.299777e+00 3.381917e+00 2.909855e+00 2.890511e-01 4.126915e-01 1.012308e+00 6.051597e-01 8.525212e-01 8.609148e-01 7.052093e-01 6.327590e-01 7.445181e-01 6.714480e-01 5.420099e-01 6.105496e-01 3.649847e-01
<GCONST> 1.357235e+02
<STATE> 4
<MEAN> 39
 -6.706496e+00 -6.918069e+00 -4.094238e+00 -8.306072e+00 -5.199620e+00 -1.047917e+01 -6.551488e+00 -1.049332e+01 -3.750047e+00 -1.312414e+01 -2.270470e+00 -5.902550e+00 6.303064e+01 -1.567422e-01 -7.720446e-02 -3.407506e-03 1.496807e-01 -1.586862e-02 1.326167e-01 4.131877e-02 1.785750e-01 -3.378139e-02 9.373205e-02 5.422647e-02 8.986601e-02 -3.212238e-01 -2.273237e-03 6.289526e-03 -3.410363e-03 1.758750e-04 1.403500e-03 1.937745e-03 -1.319780e-03 -4.742513e-04 -1.309795e-05 6.551351e-03 -2.842075e-03 9.591939e-04 -7.655461e-03
<VARIANCE> 39
 4.056837e+01 8.496162e+01 7.689610e+01 4.750190e+01 5.408202e+01 5.867268e+01 5.087927e+01 5.871197e+01 6.293186e+01 8.215411e+01 4.449623e+01 4.526659e+01 1.403098e+02 1.402613e+00 2.854830e+00 6.112606e+00 2.755665e+00 4.645533e+00 3.820164e+00 3.898722e+00 3.072439e+00 4.099744e+00 3.415895e+00 3.080868e+00 3.163874e+00 2.769660e+00 2.490002e-01 3.854485e-01 9.241641e-01 5.420463e-01 7.840704e-01 7.964671e-01 6.546039e-01 5.876789e-01 6.942195e-01 6.207335e-01 5.121790e-01 5.750436e-01 3.408420e-01
<GCONST> 1.330968e+02
<TRANSP> 5
 0.000000e+00 1.000000e+00 0.000000e+00 0.000000e+00 0.000000e+00
 0.000000e+00 7.497230e-01 2.502771e-01 0.000000e+00 0.000000e+00
 0.000000e+00 0.000000e+00 7.497218e-01 2.502783e-01 0.000000e+00
 0.000000e+00 0.000000e+00 0.000000e+00 8.736550e-01 1.263451e-01
 0.000000e+00 0.000000e+00 0.000000e+00 0.000000e+00 0.000000e+00
<ENDHMM>
~h "o"
<BEGINHMM>
<NUMSTATES> 5
<STATE> 2
<MEAN> 39
 -1.360964e+01 -1.016432e+01 -7.264188e+00 -7.444633e+00 7.329111e-01 -1.179125e+01 -7.032900e+00 -1.634871e+00 -3.406239e-02 -8.335610e+00 -4.972086e-01 -4.754329e+00 5.516121e+01 1.859117e-01 1.491305e-01 -9.849091e-02 -1.940311e-01 -1.589671e-02 6.039435e-02 3.894019e-02 -2.722942e-01 -2.236249e-02 -4.713753e-02 2.586270e-02 -6.729674e-02 1.750847e-01 1.065580e-02 1.409763e-02 3.950360e-04 -7.684420e-03 -1.714144e-02 7.705906e-03 7.439770e-03 -1.349905e-02 -8.429908e-03 -3.712276e-03 -3.132404e-03 2.886376e-03 4.538551e-04
<VARIANCE> 39
 3.649780e+01 6.040918e+01 3.152224e+01 5.600566e+01 5.033143e+01 5.354387e+01 3.702022e+01 7.706114e+01 4.697108e+01 5.057548e+01 2.791512e+01 2.217468e+01 7.081461e+01 1.610095e+00 1.841674e+00 1.780106e+00 2.572029e+00 2.522429e+00 2.754513e+00 2.482316e+00 2.995892e+00 2.858162e+00 3.080853e+00 2.166241e+00 2.089248e+00 1.911945e+00 2.697320e-01 2.651443e-01 2.910928e-01 4.214734e-01 4.137976e-01 4.441608e-01 4.478452e-01 5.590960e-01 5.061204e-01 5.292159e-01 4.036604e-01 4.088380e-01 2.427908e-01
<GCONST> 1.197055e+02
<STATE> 3
<MEAN> 39
 -1.275574e+01 -9.458964e+00 -7.629404e+00 -8.305795e+00 4.895964e-01 -1.152338e+01 -6.786158e+00 -2.861579e+00 -1.918383e-01 -8.602555e+00 -4.483163e-01 -4.989590e+00 5.594275e+01 2.257082e-01 1.852239e-01 -9.168250e-02 -2.283252e-01 -6.984542e-02 6.587726e-02 6.806876e-02 -3.242479e-01 -4.103096e-02 -7.714643e-02 1.169888e-02 -5.928292e-02 2.138094e-01 9.939368e-03 8.114122e-03 1.932555e-03 -8.714937e-03 -1.286123e-02 -2.071914e-04 7.153978e-03 -1.320293e-02 -3.792103e-03 -8.517056e-03 -3.667495e-03 1.833162e-03 1.200276e-02
<VARIANCE> 39
 4.239254e+01 6.309402e+01 3.300645e+01 6.426992e+01 5.139527e+01 5.611037e+01 3.716151e+01 8.244389e+01 4.675486e+01 5.475466e+01 2.831228e+01 2.354682e+01 8.511456e+01 1.826046e+00 2.059751e+00 1.907709e+00 2.974253e+00 2.739839e+00 2.952144e+00 2.533246e+00 3.145528e+00 2.948486e+00 3.246597e+00 2.276497e+00 2.200760e+00 2.110554e+00 2.993109e-01 2.944416e-01 2.990704e-01 4.748309e-01 4.457393e-01 4.664548e-01 4.621277e-01 5.837222e-01 5.150340e-01 5.488520e-01 4.218585e-01 4.270087e-01 2.454333e-01
<GCONST> 1.222169e+02
<STATE> 4
<MEAN> 39
 -1.095615e+01 -8.121524e+00 -8.101682e+00 -1.016599e+01 -2.840443e-01 -1.139604e+01 -6.099109e+00 -5.498348e+00 -4.576991e-01 -9.555209e+00 -4.929843e-01 -5.391347e+00 5.831894e+01 2.586040e-01 1.824187e-01 -6.693864e-02 -2.632094e-01 -1.148347e-01 8.192484e-03 9.584861e-02 -3.834238e-01 -3.079978e-02 -1.467859e-01 -7.346387e-03 -6.149974e-02 3.541310e-01 3.638950e-03 -1.743471e-03 3.920045e-03 -4.041906e-03 -5.206789e-03 -9.159457e-03 3.323561e-03 -7.265645e-03 2.277330e-03 -1.015118e-02 -2.192488e-03 -5.767763e-04 2.067569e-02
<VARIANCE> 39
 5.296088e+01 6.722377e+01 3.832647e+01 8.047713e+01 5.328272e+01 6.124165e+01 3.719917e+01 9.439491e+01 4.724931e+01 6.443860e+01 3.037897e+01 2.615955e+01 1.238836e+02 2.205199e+00 2.526269e+00 2.254410e+00 3.757981e+00 3.154829e+00 3.348615e+00 2.593625e+00 3.376344e+00 3.141224e+00 3.513578e+00 2.554920e+00 2.420431e+00 2.431373e+00 3.486116e-01 3.581132e-01 3.216733e-01 5.820015e-01 5.082355e-01 5.197859e-01 4.875653e-01 6.217725e-01 5.413240e-01 5.815388e-01 4.739143e-01 4.647493e-01 2.475739e-01
<GCONST> 1.268092e+02
<TRANSP> 5
 0.000000e+00 1.000000e+00 0.000000e+00 0.000000e+00 0.000000e+00
 0.000000e+00 7.446995e-01 2.553005e-01 0.000000e+00 0.000000e+00
 0.000000e+00 0.000000e+00 7.446997e-01 2.553003e-01 0.000000e+00
 0.000000e+00 0.000000e+00 0.000000e+00 8.675429e-01 1.324571e-01
 0.000000e+00 0.000000e+00 0.000000e+00 0.000000e+00 0.000000e+00
<ENDHMM>
~h "q"
<BEGINHMM>
<NUMSTATES> 5
<STATE> 2
<MEAN> 39
 -7.844560e+00 -7.216883e-02 -1.517019e+00 -1.510497e+01 -6.718229e+00 -1.335409e+01 -9.605241e+00 -1.280824e+01 -6.242218e+00 -1.063771e+01 -5.970121e+00 -7.982992e+00 7.095041e+01 6.378650e-02 7.313164e-02 1.791573e-02 -3.632130e-02 8.700492e-03 1.177009e-01 -3.436916e-02 -8.777359e-02 7.112911e-03 3.482419e-02 -6.727343e-02 -3.557764e-02 -3.593201e-02 -3.779533e-03 -4.389322e-03 -8.800809e-03 6.376189e-03 3.395850e-03 3.645509e-03 6.523129e-03 -2.846785e-03 5.386204e-03 -4.119697e-03 5.918636e-03 -1.447155e-03 1.929954e-03
<VARIANCE> 39
 7.313898e+01 1.275411e+02 9.516709e+01 7.078296e+01 6.892397e+01 6.215557e+01 7.193107e+01 5.716703e+01 7.140973e+01 1.580913e+02 8.338628e+01 3.963225e+01 5.511636e+01 5.187868e+00 3.722887e+00 4.192599e+00 3.302506e+00 3.805823e+00 4.446706e+00 3.719720e+00 3.486668e+00 4.471124e+00 7.271226e+00 3.054386e+00 2.838616e+00 1.961502e+00 7.313647e-01 4.164906e-01 6.502928e-01 5.000070e-01 5.833653e-01 7.619223e-01 6.051857e-01 5.889490e-01 7.693433e-01 9.656204e-01 4.656815e-01 4.805270e-01 2.580874e-01
<GCONST> 1.377536e+02
<STATE> 3
<MEAN> 39
 -7.626584e+00 1.798773e-01 -1.524765e+00 -1.519049e+01 -6.653579e+00 -1.285537e+01 -9.686880e+00 -1.317979e+01 -6.167203e+00 -1.053452e+01 -6.186876e+00 -8.137558e+00 7.082117e+01 4.767702e-02 5.173824e-02 -2.051576e-02 -1.056276e-02 2.500776e-02 1.293206e-01 -7.420521e-03 -9.675273e-02 3.102852e-02 1.441312e-02 -3.973059e-02 -4.199957e-02 -2.713117e-02 -3.928265e-03 -6.065781e-03 -1.015629e-02 6.204784e-03 4.502135e-03 2.332550e-03 6.751982e-03 -1.862540e-03 6.369248e-03 -5.916553e-03 7.549129e-03 -1.870023e-03 2.452842e-03
<VARIANCE> 39
 7.251781e+01 1.246301e+02 9.856925e+01 6.975919e+01 6.880235e+01 6.152079e+01 7.050240e+01 5.861470e+01 7.542079e+01 1.565387e+02 8.390978e+01 4.001534e+01 5.419379e+01 5.380786e+00 3.673651e+00 4.348360e+00 3.275306e+00 3.711624e+00 4.284454e+00 3.673016e+00 3.607804e+00 4.646944e+00 7.285712e+00 3.116261e+00 2.820704e+00 2.024383e+00 7.635260e-01 4.154135e-01 6.886951e-01 4.934334e-01 5.709075e-01 7.381632e-01 5.965047e-01 5.979382e-01 8.031156e-01 9.868875e-01 4.736644e-01 4.788382e-01 2.697780e-01
<GCONST> 1.380303e+02
<STATE> 4
<MEAN> 39
 -7.419853e+00 4.166937e-01 -1.885641e+00 -1.509838e+01 -6.450580e+00 -1.199734e+01 -9.617889e+00 -1.378362e+01 -5.838595e+00 -1.057076e+01 -6.281240e+00 -8.441894e+00 7.070630e+01 2.473382e-02 8.219920e-03 -8.439101e-02 2.287939e-02 5.671520e-02 1.349723e-01 3.154611e-02 -1.002719e-01 7.103024e-02 -2.653658e-02 9.913560e-03 -5.220525e-02 -1.114362e-02 -3.160384e-03 -7.440970e-03 -1.034422e-02 4.577873e-03 5.267440e-03 1.877644e-04 5.927596e-03 -9.405702e-05 6.542260e-03 -7.087890e-03 8.288781e-03 -1.824931e-03 2.738368e-03
<VARIANCE> 39
 7.390419e+01 1.193072e+02 1.044082e+02 6.851318e+01 6.956230e+01 6.045638e+01 6.846490e+01 6.265350e+01 8.299850e+01 1.524048e+02 8.305963e+01 4.050854e+01 5.245722e+01 5.706202e+00 3.590949e+00 4.574613e+00 3.258019e+00 3.568583e+00 4.033934e+00 3.631078e+00 3.877714e+00 4.952134e+00 7.224349e+00 3.197204e+00 2.773805e+00 2.118207e+00 8.136335e-01 4.154955e-01 7.490871e-01 4.874613e-01 5.543631e-01 6.991206e-01 5.900773e-01 6.221684e-01 8.582947e-01 1.010120e+00 4.884059e-01 4.743528e-01 2.900371e-01
<GCONST> 1.385304e+02
<TRANSP> 5
 0.000000e+00 1.000000e+00 0.000000e+00 0.000000e+00 0.000000e+00
 0.000000e+00 7.501302e-01 2.498698e-01 0.000000e+00 0.000000e+00
 0.000000e+00 0.000000e+00 7.501297e-01 2.498703e-01 0.000000e+00
 0.000000e+00 0.000000e+00 0.000000e+00 8.742111e-01 1.257889e-01
 0.000000e+00 0.000000e+00 0.000000e+00 0.000000e+00 0.000000e+00
<ENDHMM>
~h "s"
<BEGINHMM>
<NUMSTATES> 5
<STATE> 2
<MEAN> 39
 -9.920964e+00 -9.775103e+00 -6.608205e+00 -1.010270e+01 -3.207335e+00 -1.364341e+01 -4.405301e+00 -6.331760e+00 -2.158510e+00 -1.412763e+01 4.852867e-02 -6.537392e+00 6.655730e+01 7.599080e-02 1.508437e-01 4.481764e-02 -1.415434e-01 -1.624675e-01 3.856191e-02 6.284837e-02 -2.705015e-01 -1.308338e-01 -1.467572e-01 -5.260088e-02 -7.103493e-02 4.261962e-01 -4.637988e-03 3.670207e-03 1.738522e-03 4.637946e-03 -5.210963e-03 6.115302e-03 -5.930627e-04 -1.420169e-03 -5.887041e-03 8.942278e-03 -7.074954e-04 -6.718070e-04 -1.634701e-03
<VARIANCE> 39
 3.869271e+01 6.080551e+01 3.057011e+01 5.640427e+01 4.022002e+01 6.764479e+01 3.817556e+01 1.133600e+02 4.020312e+01 8.626406e+01 2.320061e+01 3.478148e+01 1.708427e+02 2.074351e+00 3.231595e+00 2.157608e+00 3.302214e+00 2.420862e+00 5.901623e+00 2.552058e+00 3.144165e+00 2.365541e+00 4.246286e+00 2.383673e+00 2.770057e+00 3.320004e+00 3.215626e-01 4.770200e-01 3.041023e-01 5.260512e-01 3.716948e-01 9.374520e-01 4.401813e-01 5.671279e-01 3.998501e-01 6.121926e-01 4.909519e-01 4.906698e-01 2.945700e-01
<GCONST> 1.269599e+02
<STATE> 3
<MEAN> 39
 -9.674549e+00 -9.154240e+00 -6.434092e+00 -1.058496e+01 -3.881160e+00 -1.345043e+01 -4.174599e+00 -7.389304e+00 -2.709062e+00 -1.458932e+01 -1.567390e-01 -6.820884e+00 6.817238e+01 5.495209e-02 1.581617e-01 4.732884e-02 -1.200076e-01 -1.743795e-01 4.747464e-02 5.848416e-02 -2.636301e-01 -1.473586e-01 -1.086031e-01 -4.898980e-02 -7.548709e-02 4.153023e-01 -5.804096e-03 1.332984e-03 2.683010e-04 5.805274e-03 -2.335577e-03 1.101667e-03 -9.587625e-04 3.256522e-03 -3.972667e-03 1.031716e-02 1.281158e-03 -1.303229e-03 -3.834986e-03
<VARIANCE> 39
 3.964543e+01 6.105399e+01 3.061556e+01 5.508474e+01 4.175014e+01 7.026243e+01 3.762577e+01 1.021502e+02 4.126506e+01 9.036771e+01 2.343068e+01 3.519793e+01 1.686662e+02 2.344555e+00 3.412106e+00 2.238570e+00 3.420781e+00 2.527917e+00 6.126742e+00 2.664735e+00 3.069474e+00 2.361510e+00 4.501748e+00 2.480074e+00 2.724546e+00 3.417179e+00 3.608894e-01 4.930451e-01 3.233925e-01 5.260007e-01 3.838154e-01 9.684629e-01 4.533864e-01 5.445495e-01 4.013039e-01 6.392978e-01 5.166063e-01 4.795579e-01 3.021422e-01
<GCONST> 1.278254e+02
<STATE> 4
<MEAN> 39
 -9.484701e+00 -8.122767e+00 -6.193284e+00 -1.112697e+01 -5.009988e+00 -1.321079e+01 -3.854748e+00 -8.815952e+00 -3.722657e+00 -1.490633e+01 -4.388382e-01 -7.323905e+00 7.057218e+01 1.854767e-02 1.586862e-01 3.573967e-02 -8.132525e-02 -1.734665e-01 1.988404e-02 4.959298e-02 -2.148233e-01 -1.616700e-01 -4.653379e-02 -3.608140e-02 -7.899152e-02 3.686177e-01 -6.121431e-03 -5.162915e-04 -1.750901e-03 5.916117e-03 1.209585e-03 -5.305522e-03 -1.205617e-03 9.697765e-03 -2.288353e-03 9.679803e-03 1.922020e-03 -1.943336e-04 -9.236386e-03
<VARIANCE> 39
 4.259726e+01 6.321716e+01 3.078975e+01 5.384920e+01 4.447052e+01 7.237221e+01 3.725070e+01 8.160712e+01 4.438945e+01 9.617416e+01 2.385162e+01 3.473443e+01 1.521221e+02 2.883642e+00 3.623201e+00 2.414543e+00 3.560659e+00 2.731384e+00 6.165413e+00 2.808362e+00 2.974924e+00 2.353341e+00 4.999799e+00 2.558062e+00 2.591013e+00 3.416721e+00 4.398943e-01 5.019449e-01 3.618885e-01 5.177703e-01 4.058142e-01 9.688675e-01 4.672025e-01 5.133834e-01 3.975756e-01 7.012134e-01 5.398969e-01 4.507416e-01 3.049521e-01
<GCONST> 1.287938e+02
<TRANSP> 5
 0.000000e+00 1.000000e+00 0.000000e+00 0.000000e+00 0.000000e+00
 0.000000e+00 7.418312e-01 2.581688e-01 0.000000e+00 0.000000e+00
 0.000000e+00 0.000000e+00 7.418312e-01 2.581688e-01 0.000000e+00
 0.000000e+00 0.000000e+00 0.000000e+00 8.641478e-01 1.358523e-01
 0.000000e+00 0.000000e+00 0.000000e+00 0.000000e+00 0.000000e+00
<ENDHMM>
~h "t"
<BEGINHMM>
<NUMSTATES> 5
<STATE> 2
<MEAN> 39
 -5.396088e+00 -4.591680e+00 -1.316593e+01 -1.294914e+01 3.121619e+00 -1.214302e+01 -7.316721e+00 -1.797012e+01 2.031155e+00 -1.599649e+01 -2.353126e+00 -1.160945e+01 7.256210e+01 6.490391e-02 -5.572085e-03 2.062491e-01 2.330612e-02 -1.570421e-01 -7.602713e-02 -6.122142e-02 1.393900e-02 -8.013150e-02 -1.201553e-01 -1.319995e-02 -5.375545e-03 -1.083085e-02 1.754527e-03 1.948658e-03 7.493060e-03 1.257275e-03 -7.419763e-03 5.637653e-03 -1.045129e-03 1.049011e-03 -5.255072e-03 1.787802e-03 7.613911e-04 -2.687994e-04 -2.983298e-03
<VARIANCE> 39
 3.513953e+01 4.632409e+01 1.105591e+02 4.644616e+01 7.609406e+01 6.101629e+01 4.446999e+01 7.339304e+01 9.231247e+01 1.404271e+02 5.115329e+01 4.816775e+01 3.926712e+01 3.256532e+00 3.115691e+00 5.702199e+00 4.448924e+00 4.033078e+00 4.252682e+00 4.279887e+00 6.838720e+00 7.440123e+00 8.550957e+00 3.803221e+00 3.665764e+00 3.070213e+00 5.653790e-01 5.498446e-01 8.249284e-01 7.259629e-01 6.823990e-01 7.959357e-01 8.753374e-01 1.115438e+00 1.181263e+00 1.375170e+00 6.309408e-01 6.248323e-01 5.265349e-01
<GCONST> 1.413759e+02
<STATE> 3
<MEAN> 39
 -5.127480e+00 -4.597019e+00 -1.230820e+01 -1.284855e+01 2.458705e+00 -1.240477e+01 -7.567050e+00 -1.791138e+01 1.678028e+00 -1.645825e+01 -2.397036e+00 -1.163486e+01 7.249683e+01 7.117508e-02 1.601940e-03 2.302027e-01 2.840138e-02 -1.819234e-01 -5.309353e-02 -6.348592e-02 1.910772e-02 -9.773362e-02 -1.099155e-01 -9.439429e-03 -5.425073e-03 -2.394939e-02 1.178589e-03 1.549933e-03 4.037510e-03 1.390498e-03 -4.689565e-03 5.924467e-03 1.322959e-04 1.682821e-03 -3.107869e-03 3.802710e-03 1.121931e-03 5.297217e-04 -3.729217e-03
<VARIANCE> 39
 3.313963e+01 4.667056e+01 1.147715e+02 4.515664e+01 7.737605e+01 5.835601e+01 4.547726e+01 6.927151e+01 9.422748e+01 1.339049e+02 5.267978e+01 4.846645e+01 3.968065e+01 3.050517e+00 3.070497e+00 6.219146e+00 4.478607e+00 4.320963e+00 4.422916e+00 4.347346e+00 6.504773e+00 7.506845e+00 8.270303e+00 4.036431e+00 3.843325e+00 3.045097e+00 5.401840e-01 5.417380e-01 9.001965e-01 7.531155e-01 7.385380e-01 8.431765e-01 8.894286e-01 1.077201e+00 1.184184e+00 1.352558e+00 6.607614e-01 6.619467e-01 5.154588e-01
<GCONST> 1.417011e+02
<STATE> 4
<MEAN> 39
 -4.708596e+00 -4.520350e+00 -1.103732e+01 -1.264671e+01 1.406210e+00 -1.257159e+01 -7.909101e+00 -1.782538e+01 1.069503e+00 -1.686748e+01 -2.488533e+00 -1.159238e+01 7.230074e+01 7.476035e-02 8.835573e-03 2.399202e-01 3.582569e-02 -1.967000e-01 -2.311089e-02 -5.922750e-02 3.077511e-02 -1.088630e-01 -8.450185e-02 -2.258282e-03 -2.990197e-05 -4.696661e-02 -1.374318e-04 4.176433e-04 -8.285305e-05 1.581031e-03 -1.193394e-03 5.090283e-03 1.705742e-03 2.872106e-03 -1.890574e-04 5.485161e-03 1.212707e-03 1.976037e-03 -4.252141e-03
<VARIANCE> 39
 3.097167e+01 4.895383e+01 1.198865e+02 4.321203e+01 7.937093e+01 5.448663e+01 4.691845e+01 6.517171e+01 9.675040e+01 1.233254e+02 5.529037e+01 4.932792e+01 4.058028e+01 2.797466e+00 3.024447e+00 6.998201e+00 4.475737e+00 4.818957e+00 4.619118e+00 4.444926e+00 6.045254e+00 7.516644e+00 7.756535e+00 4.335890e+00 4.049648e+00 2.979534e+00 5.066895e-01 5.253866e-01 1.014967e+00 7.847638e-01 8.315579e-01 9.012094e-01 9.058231e-01 1.018935e+00 1.177282e+00 1.296977e+00 6.951665e-01 7.077606e-01 4.938026e-01
<GCONST> 1.420380e+02
<TRANSP> 5
 0.000000e+00 1.000000e+00 0.000000e+00 0.000000e+00 0.000000e+00
 0.000000e+00 7.473105e-01 2.526896e-01 0.000000e+00 0.000000e+00
 0.000000e+00 0.000000e+00 7.473100e-01 2.526900e-01 0.000000e+00
 0.000000e+00 0.000000e+00 0.000000e+00 8.712566e-01 1.287434e-01
 0.000000e+00 0.000000e+00 0.000000e+00 0.000000e+00 0.000000e+00
<ENDHMM>
~h "u"
<BEGINHMM>
<NUMSTATES> 5
<STATE> 2
<MEAN> 39
 -2.686093e+00 8.201842e-01 -5.535075e+00 -1.523841e+01 -7.041694e+00 -1.284689e+01 -4.605091e+00 -1.629752e+01 -7.233037e+00 -6.660671e+00 -9.579305e+00 -3.569450e+00 6.682068e+01 5.431707e-02 3.334950e-02 3.390749e-02 1.072730e-01 5.273667e-02 4.963466e-03 -8.013665e-02 4.419404e-02 7.800718e-02 -1.088623e-01 1.379482e-01 -9.074301e-02 -4.865117e-03 -7.434139e-03 -1.469522e-02 3.452981e-03 4.568162e-03 5.131536e-03 2.366590e-04 -4.387027e-03 4.314791e-03 8.894882e-03 -1.233547e-02 1.138034e-02 -8.372649e-03 5.425596e-03
<VARIANCE> 39
 3.314401e+01 6.837812e+01 1.508075e+02 7.244902e+01 8.238226e+01 5.147752e+01 5.760530e+01 4.908979e+01 6.756310e+01 6.206845e+01 6.960596e+01 6.889817e+01 4.432241e+01 2.181007e+00 3.088921e+00 1.020299e+01 6.306892e+00 7.399485e+00 5.892837e+00 5.259326e+00 4.935351e+00 4.750836e+00 4.742794e+00 3.674389e+00 4.222409e+00 2.923548e+00 4.103054e-01 4.557860e-01 1.670828e+00 1.109567e+00 1.386634e+00 1.236012e+00 1.022769e+00 9.497866e-01 9.240956e-01 9.993019e-01 6.295218e-01 7.679785e-01 4.128123e-01
<GCONST> 1.434024e+02
<STATE> 3
<MEAN> 39
 -2.521071e+00 8.590541e-01 -5.377314e+00 -1.478068e+01 -6.796822e+00 -1.282403e+01 -4.953039e+00 -1.609614e+01 -6.866407e+00 -7.173634e+00 -8.965260e+00 -3.979621e+00 6.683315e+01 2.382793e-02 -2.768284e-02 4.751133e-02 1.236461e-01 7.020576e-02 5.239641e-03 -9.471654e-02 6.208711e-02 1.095753e-01 -1.554055e-01 1.785648e-01 -1.189684e-01 1.489695e-02 -7.722552e-03 -1.593312e-02 2.916018e-03 3.585174e-03 3.427916e-03 -1.580924e-04 -2.314380e-03 4.660782e-03 6.574371e-03 -1.067122e-02 8.559778e-03 -5.244059e-03 4.130919e-03
<VARIANCE> 39
 3.063542e+01 6.939549e+01 1.489609e+02 7.008084e+01 8.126054e+01 5.049425e+01 5.908026e+01 4.753867e+01 6.941749e+01 6.444160e+01 7.023618e+01 6.883537e+01 4.327293e+01 2.117710e+00 3.134582e+00 1.034745e+01 6.127122e+00 7.441608e+00 5.824796e+00 5.224247e+00 4.747129e+00 4.748453e+00 4.720725e+00 3.584968e+00 4.162556e+00 2.829976e+00 4.045807e-01 4.603222e-01 1.678148e+00 1.106547e+00 1.383895e+00 1.236855e+00 1.007158e+00 9.294488e-01 9.234978e-01 1.002968e+00 6.088890e-01 7.545545e-01 3.982329e-01
<GCONST> 1.430193e+02
<STATE> 4
<MEAN> 39
 -2.488839e+00 5.656209e-01 -5.093260e+00 -1.402862e+01 -6.405768e+00 -1.277305e+01 -5.509485e+00 -1.567088e+01 -6.227103e+00 -8.112268e+00 -7.968971e+00 -4.631985e+00 6.691959e+01 -1.844963e-02 -1.135625e-01 6.038379e-02 1.392169e-01 8.225357e-02 6.881861e-03 -1.000133e-01 8.749723e-02 1.333958e-01 -2.042057e-01 2.101594e-01 -1.325924e-01 2.874367e-02 -7.335247e-03 -1.565487e-02 1.257014e-03 2.360184e-03 1.023292e-03 4.629302e-04 8.415708e-04 4.905409e-03 2.690154e-03 -7.318065e-03 4.267881e-03 -4.752705e-04 1.218819e-03
<VARIANCE> 39
 2.861652e+01 7.417715e+01 1.445886e+02 6.603752e+01 8.090847e+01 5.024266e+01 6.135208e+01 4.682653e+01 7.164347e+01 6.940807e+01 6.968497e+01 6.725736e+01 4.389766e+01 2.019793e+00 3.183437e+00 1.033549e+01 5.764316e+00 7.451992e+00 5.699714e+00 5.207672e+00 4.520422e+00 4.768793e+00 4.652995e+00 3.457264e+00 4.050272e+00 2.716120e+00 3.905677e-01 4.637789e-01 1.647253e+00 1.072454e+00 1.360183e+00 1.225030e+00 9.856869e-01 9.016847e-01 9.273698e-01 9.911981e-01 5.839566e-01 7.322462e-01 3.778496e-01
<GCONST> 1.424612e+02
<TRANSP> 5
 0.000000e+00 1.000000e+00 0.000000e+00 0.000000e+00 0.000000e+00
 0.000000e+00 7.497269e-01 2.502731e-01 0.000000e+00 0.000000e+00
 0.000000e+00 0.000000e+00 7.497271e-01 2.502729e-01 0.000000e+00
 0.000000e+00 0.000000e+00 0.000000e+00 8.735279e-01 1.264721e-01
 0.000000e+00 0.000000e+00 0.000000e+00 0.000000e+00 0.000000e+00
<ENDHMM>
~h "w"
<BEGINHMM>
<NUMSTATES> 5
<STATE> 2
<MEAN> 39
 -1.559548e+01 -1.096547e+01 -5.919050e+00 -4.956657e+00 -5.452785e-01 -1.170756e+01 -7.160577e+00 1.434515e+00 -5.501471e-01 -7.572948e+00 -1.085809e+00 -3.465046e+00 5.187428e+01 4.354265e-02 -1.666038e-01 -2.373338e-03 -1.525088e-01 2.431188e-01 -1.719879e-01 2.104425e-02 -7.325574e-02 1.400077e-01 -1.369386e-01 6.845555e-02 -1.105708e-01 3.873242e-01 9.028203e-03 2.442517e-02 -1.796675e-02 -1.361711e-03 -5.397550e-03 2.226797e-02 -1.191872e-02 -1.537712e-02 -3.192691e-03 1.650433e-02 -5.640197e-03 -1.640149e-03 -1.472826e-02
<VARIANCE> 39
 2.076547e+01 5.822923e+01 3.121397e+01 3.977686e+01 4.999393e+01 5.311395e+01 3.731073e+01 7.319513e+01 5.321274e+01 4.307830e+01 2.914681e+01 1.887708e+01 5.351472e+01 1.118787e+00 1.652971e+00 1.942747e+00 2.167392e+00 2.114153e+00 2.490461e+00 2.701644e+00 2.704140e+00 2.814975e+00 2.669226e+00 2.142394e+00 1.823076e+00 1.653176e+00 2.096015e-01 2.533703e-01 3.369274e-01 3.895531e-01 3.706852e-01 4.559158e-01 4.991982e-01 5.051527e-01 5.245953e-01 4.881268e-01 4.190022e-01 3.682042e-01 2.625837e-01
<GCONST> 1.166174e+02
<STATE> 3
<MEAN> 39
 -1.532384e+01 -1.127000e+01 -6.144695e+00 -5.524650e+00 2.396388e-01 -1.211084e+01 -7.200104e+00 9.621849e-01 -1.267052e-01 -7.897261e+00 -8.721435e-01 -3.875705e+00 5.308516e+01 7.416697e-02 -6.277627e-02 -6.552936e-02 -1.430538e-01 1.922875e-01 -9.027617e-02 -1.403245e-02 -1.270694e-01 1.010973e-01 -7.335897e-02 5.482715e-02 -1.030647e-01 2.921112e-01 7.599751e-03 2.710551e-02 -1.521916e-02 2.225123e-03 -1.455713e-02 2.124584e-02 -7.531823e-03 -1.373811e-02 -1.089373e-02 1.581617e-02 -2.851607e-03 2.058274e-03 -2.541498e-02
<VARIANCE> 39
 2.324252e+01 5.602634e+01 3.083163e+01 4.102886e+01 4.893876e+01 5.073650e+01 3.617305e+01 7.062172e+01 5.015618e+01 4.296022e+01 2.861896e+01 1.891653e+01 5.219444e+01 1.151291e+00 1.547365e+00 1.776945e+00 1.985866e+00 2.102715e+00 2.443123e+00 2.462470e+00 2.676141e+00 2.729680e+00 2.697467e+00 2.073253e+00 1.828216e+00 1.630840e+00 2.097466e-01 2.291064e-01 3.091455e-01 3.506573e-01 3.609610e-01 4.343381e-01 4.473960e-01 5.020283e-01 5.055102e-01 4.863687e-01 4.008709e-01 3.664252e-01 2.477789e-01
<GCONST> 1.154378e+02
<STATE> 4
<MEAN> 39
 -1.437652e+01 -1.074218e+01 -6.807680e+00 -6.692439e+00 7.936306e-01 -1.206025e+01 -7.156153e+00 -4.930601e-01 4.659414e-02 -8.184924e+00 -5.709705e-01 -4.437456e+00 5.451543e+01 1.425019e-01 8.674501e-02 -9.851003e-02 -1.633298e-01 5.626945e-02 2.218534e-02 9.089205e-03 -2.180542e-01 1.479453e-02 -3.624117e-02 3.622498e-02 -7.931766e-02 1.826336e-01 9.675504e-03 1.974706e-02 -3.489627e-03 -4.026826e-03 -1.876514e-02 1.452348e-02 4.259832e-03 -1.276075e-02 -1.144518e-02 3.420744e-03 -2.343287e-03 3.191070e-03 -1.247176e-02
<VARIANCE> 39
 3.139844e+01 5.806127e+01 3.105908e+01 4.935932e+01 4.945376e+01 5.165244e+01 3.645111e+01 7.390438e+01 4.768399e+01 4.733075e+01 2.794225e+01 2.088681e+01 6.119904e+01 1.416594e+00 1.668084e+00 1.723672e+00 2.247436e+00 2.325968e+00 2.596862e+00 2.421848e+00 2.843389e+00 2.772699e+00 2.917499e+00 2.094092e+00 1.981143e+00 1.751435e+00 2.430397e-01 2.418730e-01 2.917457e-01 3.792954e-01 3.863558e-01 4.311108e-01 4.360102e-01 5.329515e-01 4.987029e-01 5.096605e-01 3.952658e-01 3.910193e-01 2.408567e-01
<GCONST> 1.175384e+02
<TRANSP> 5
 0.000000e+00 1.000000e+00 0.000000e+00 0.000000e+00 0.000000e+00
 0.000000e+00 7.446985e-01 2.553014e-01 0.000000e+00 0.000000e+00
 0.000000e+00 0.000000e+00 7.446984e-01 2.553016e-01 0.000000e+00
 0.000000e+00 0.000000e+00 0.000000e+00 8.675418e-01 1.324582e-01
 0.000000e+00 0.000000e+00 0.000000e+00 0.000000e+00 0.000000e+00
<ENDHMM>
~h "x"
<BEGINHMM>
<NUMSTATES> 5
<STATE> 2
<MEAN> 39
 -9.937482e+00 -5.673479e+00 -5.158155e+00 -1.208552e+01 -6.500495e+00 -1.333649e+01 -4.454830e+00 -1.310691e+01 -3.443722e+00 -1.386269e+01 -1.592755e+00 -7.827632e+00 7.359949e+01 -3.746936e-02 1.270632e-01 1.471015e-02 1.084672e-02 -5.685629e-02 -2.304070e-02 -5.218917e-02 -8.815829e-02 -6.371387e-02 6.109331e-02 -6.895922e-02 -3.813771e-03 1.388630e-01 -3.222835e-03 1.357173e-03 8.564633e-04 3.488910e-03 2.785085e-03 -2.643958e-03 -1.300151e-03 9.275821e-03 -1.854567e-03 5.280179e-03 -3.500043e-04 4.986794e-03 -1.341856e-02
<VARIANCE> 39
 7.517518e+01 9.667217e+01 6.304584e+01 6.480678e+01 5.544360e+01 6.827527e+01 4.851841e+01 6.367660e+01 5.844229e+01 1.073692e+02 3.911774e+01 3.925433e+01 8.895477e+01 3.635915e+00 3.501910e+00 3.232890e+00 3.512467e+00 3.560454e+00 5.201173e+00 3.284935e+00 3.350655e+00 3.629413e+00 4.595788e+00 2.520417e+00 2.498707e+00 3.320066e+00 4.734305e-01 4.863669e-01 4.503582e-01 5.406221e-01 5.704387e-01 8.375566e-01 5.753534e-01 5.826992e-01 6.204791e-01 6.674913e-01 4.462975e-01 4.363226e-01 3.837177e-01
<GCONST> 1.336846e+02
<STATE> 3
<MEAN> 39
 -1.011346e+01 -5.150888e+00 -5.091788e+00 -1.200746e+01 -6.699781e+00 -1.345415e+01 -4.677618e+00 -1.336051e+01 -3.716249e+00 -1.357213e+01 -1.869716e+00 -7.789302e+00 7.401499e+01 -4.553959e-02 1.315092e-01 1.864491e-02 2.056290e-02 -4.589235e-02 -3.428019e-02 -5.667308e-02 -5.391004e-02 -7.063862e-02 7.606720e-02 -6.924766e-02 1.367712e-02 8.909021e-02 -1.423270e-03 9.557888e-04 1.067988e-03 1.767120e-03 2.695712e-03 -2.897767e-03 -1.183474e-03 8.111940e-03 -1.560290e-03 2.873270e-03 1.077574e-04 3.908403e-03 -1.181307e-02
<VARIANCE> 39
 8.144707e+01 1.008153e+02 6.404868e+01 6.666833e+01 5.608546e+01 6.944625e+01 5.081139e+01 5.944661e+01 5.946304e+01 1.089426e+02 4.063835e+01 3.901127e+01 7.486344e+01 4.003046e+00 3.511933e+00 3.238909e+00 3.551878e+00 3.585724e+00 5.205853e+00 3.349310e+00 3.320782e+00 3.709873e+00 4.693433e+00 2.576262e+00 2.496044e+00 3.111143e+00 5.149884e-01 4.810187e-01 4.559860e-01 5.440772e-01 5.772839e-01 8.387820e-01 5.838572e-01 5.752878e-01 6.331632e-01 6.811384e-01 4.530150e-01 4.356431e-01 3.730888e-01
<GCONST> 1.340103e+02
<STATE> 4
<MEAN> 39
 -1.046393e+01 -4.175317e+00 -4.909547e+00 -1.182590e+01 -6.981073e+00 -1.373112e+01 -5.122768e+00 -1.346779e+01 -4.217519e+00 -1.297378e+01 -2.332819e+00 -7.573886e+00 7.428009e+01 -3.800882e-02 1.316896e-01 2.640486e-02 1.730504e-02 -2.868936e-02 -4.960178e-02 -6.512588e-02 -1.150251e-02 -7.594295e-02 7.644860e-02 -6.542809e-02 2.689976e-02 2.839657e-02 1.741992e-03 -3.526487e-04 1.415242e-03 -1.530629e-03 2.540811e-03 -2.248613e-03 -1.436349e-03 5.491899e-03 -4.619349e-04 -8.437218e-04 6.765252e-04 1.101139e-03 -8.014577e-03
<VARIANCE> 39
 9.136724e+01 1.062048e+02 6.532373e+01 7.092858e+01 5.773249e+01 7.129789e+01 5.517442e+01 5.533143e+01 6.009072e+01 1.116541e+02 4.346727e+01 3.869507e+01 5.748626e+01 4.575082e+00 3.562422e+00 3.264512e+00 3.641401e+00 3.674201e+00 5.278817e+00 3.476049e+00 3.295888e+00 3.833245e+00 4.913932e+00 2.671697e+00 2.524823e+00 2.706920e+00 5.789547e-01 4.728091e-01 4.698954e-01 5.534787e-01 5.964208e-01 8.512028e-01 6.009980e-01 5.702687e-01 6.534318e-01 7.065650e-01 4.659110e-01 4.411553e-01 3.418247e-01
<GCONST> 1.346266e+02
<TRANSP> 5
 0.000000e+00 1.000000e+00 0.000000e+00 0.000000e+00 0.000000e+00
 0.000000e+00 7.498060e-01 2.501940e-01 0.000000e+00 0.000000e+00
 0.000000e+00 0.000000e+00 7.498047e-01 2.501953e-01 0.000000e+00
 0.000000e+00 0.000000e+00 0.000000e+00 8.738335e-01 1.261665e-01
 0.000000e+00 0.000000e+00 0.000000e+00 0.000000e+00 0.000000e+00
<ENDHMM>
~h "y"
<BEGINHMM>
<NUMSTATES> 5
<STATE> 2
<MEAN> 39
 -1.389648e+01 -9.221165e+00 -5.219469e+00 -6.996936e+00 -3.212692e+00 -1.073056e+01 -4.865867e+00 -1.958759e+00 -2.437537e+00 -7.154183e+00 -3.893230e-01 -3.974829e+00 5.396811e+01 1.096240e-01 -1.391583e-01 1.106123e-01 -2.443658e-01 -3.018959e-03 -2.188097e-01 1.291558e-01 -1.491219e-01 3.595597e-02 -8.962343e-02 3.729154e-02 -7.274034e-02 4.828694e-01 1.161528e-03 2.424184e-03 -3.842304e-03 1.987208e-03 -4.201338e-03 2.000835e-04 -4.478562e-03 -4.283120e-03 3.094746e-03 -6.384565e-03 1.729400e-03 -1.557231e-03 -2.715088e-03
<VARIANCE> 39
 3.299413e+01 6.557761e+01 3.971022e+01 6.059423e+01 4.132350e+01 5.658931e+01 3.459012e+01 9.291330e+01 3.765926e+01 4.883148e+01 3.046862e+01 2.195014e+01 1.030357e+02 1.366826e+00 2.222497e+00 2.262296e+00 3.120516e+00 3.003977e+00 2.787133e+00 2.548900e+00 3.326138e+00 2.863939e+00 3.013374e+00 2.086935e+00 1.909399e+00 2.522348e+00 2.470588e-01 3.211814e-01 3.660946e-01 5.338574e-01 5.184318e-01 4.856928e-01 4.985211e-01 6.108379e-01 5.522764e-01 5.326840e-01 4.033983e-01 3.836084e-01 3.568764e-01
<GCONST> 1.225691e+02
<STATE> 3
<MEAN> 39
 -1.347999e+01 -9.678606e+00 -4.850836e+00 -7.869679e+00 -3.266413e+00 -1.154293e+01 -4.440423e+00 -2.620928e+00 -2.271923e+00 -7.616902e+00 -2.287157e-01 -4.282279e+00 5.576360e+01 1.034240e-01 -1.071809e-01 8.943048e-02 -2.119285e-01 -1.644317e-02 -1.995648e-01 1.011654e-01 -1.699838e-01 4.203856e-02 -1.218993e-01 4.072977e-02 -7.764234e-02 4.436441e-01 -2.116899e-03 8.633444e-03 -5.087452e-03 8.543028e-03 -3.190474e-03 5.814614e-03 -6.915967e-03 -5.386265e-03 1.510812e-03 -7.495177e-03 6.985883e-04 -1.514767e-03 -1.003923e-02
<VARIANCE> 39
 3.509417e+01 6.911998e+01 4.245955e+01 6.529040e+01 4.389614e+01 5.431411e+01 3.537341e+01 1.013370e+02 3.872958e+01 5.217204e+01 3.003489e+01 2.324525e+01 1.105915e+02 1.350495e+00 2.425793e+00 2.418880e+00 3.371763e+00 3.324764e+00 2.925844e+00 2.646238e+00 3.432841e+00 2.948370e+00 3.177373e+00 2.127546e+00 1.950570e+00 2.560852e+00 2.365341e-01 3.426879e-01 3.746156e-01 5.719947e-01 5.669352e-01 5.064763e-01 5.130007e-01 6.172889e-01 5.592343e-01 5.460660e-01 4.052500e-01 3.910682e-01 3.435726e-01
<GCONST> 1.240451e+02
<STATE> 4
<MEAN> 39
 -1.286418e+01 -9.954451e+00 -4.342857e+00 -9.060838e+00 -3.511295e+00 -1.258165e+01 -3.978186e+00 -4.182549e+00 -1.972990e+00 -8.790569e+00 -4.090071e-03 -4.948021e+00 5.873997e+01 9.631174e-02 -1.487956e-02 5.420051e-02 -1.609079e-01 -4.008074e-02 -1.333713e-01 4.986470e-02 -2.324699e-01 4.019274e-02 -1.630796e-01 2.384333e-02 -9.551138e-02 4.014626e-01 -9.766859e-04 1.144892e-02 -4.150977e-03 5.837297e-03 -3.048477e-03 8.749817e-03 -6.180338e-03 -8.273644e-03 -8.491450e-05 -4.427638e-03 -2.224507e-03 -2.727442e-03 -3.909716e-03
<VARIANCE> 39
 3.863340e+01 7.644115e+01 4.702300e+01 7.033728e+01 4.864749e+01 5.181137e+01 3.672122e+01 1.141231e+02 4.160854e+01 6.112735e+01 2.975416e+01 2.683932e+01 1.329248e+02 1.334568e+00 2.858098e+00 2.733191e+00 3.545189e+00 3.784317e+00 3.233089e+00 2.873003e+00 3.521383e+00 3.116785e+00 3.457657e+00 2.227410e+00 2.041799e+00 2.708906e+00 2.194196e-01 4.048082e-01 3.945610e-01 5.879900e-01 6.294891e-01 5.551978e-01 5.458833e-01 6.309946e-01 5.726810e-01 5.581063e-01 4.163061e-01 4.033380e-01 3.197940e-01
<GCONST> 1.266112e+02
<TRANSP> 5
 0.000000e+00 1.000000e+00 0.000000e+00 0.000000e+00 0.000000e+00
 0.000000e+00 7.519212e-01 2.480788e-01 0.000000e+00 0.000000e+00
 0.000000e+00 0.000000e+00 7.519213e-01 2.480787e-01 0.000000e+00
 0.000000e+00 0.000000e+00 0.000000e+00 8.761072e-01 1.238927e-01
 0.000000e+00 0.000000e+00 0.000000e+00 0.000000e+00 0.000000e+00
<ENDHMM>
~h "z"
<BEGINHMM>
<NUMSTATES> 5
<STATE> 2
<MEAN> 39
 -3.466383e+00 -1.667051e+00 -8.889613e+00 -1.354557e+01 -3.810427e+00 -8.780801e+00 -9.059423e+00 -1.465247e+01 -1.823977e+00 -1.580128e+01 -2.221526e+00 -1.098973e+01 6.764339e+01 1.102490e-02 -8.981820e-02 8.305760e-02 1.228826e-01 -2.327677e-02 -1.933788e-01 1.527050e-02 -6.044883e-02 4.077492e-02 1.406192e-01 -1.446889e-02 4.395744e-02 5.997475e-02 5.624241e-04 -3.261228e-04 -3.886817e-04 -3.399035e-03 2.179648e-03 2.328741e-03 5.233011e-03 -2.226611e-03 4.455485e-03 3.573309e-04 3.022104e-03 -2.221575e-03 1.263311e-03
<VARIANCE> 39
 5.508585e+01 6.967097e+01 1.081974e+02 5.345586e+01 5.649778e+01 7.866745e+01 6.080310e+01 7.614362e+01 1.031840e+02 8.471523e+01 6.680183e+01 4.057990e+01 5.434842e+01 5.844100e+00 3.653547e+00 6.418010e+00 4.503396e+00 4.328277e+00 5.044127e+00 5.052632e+00 6.410412e+00 6.459222e+00 5.937445e+00 5.047421e+00 3.402593e+00 2.734197e+00 1.049428e+00 4.867292e-01 9.549596e-01 8.708587e-01 6.942003e-01 9.319402e-01 8.847508e-01 1.071441e+00 9.509594e-01 9.951618e-01 8.611557e-01 6.317898e-01 3.286109e-01
<GCONST> 1.437692e+02
<STATE> 3
<MEAN> 39
 -3.418508e+00 -2.027138e+00 -8.561578e+00 -1.307983e+01 -3.888606e+00 -9.534037e+00 -8.966473e+00 -1.490627e+01 -1.633382e+00 -1.524111e+01 -2.262924e+00 -1.082355e+01 6.788631e+01 1.431189e-02 -8.870120e-02 8.294157e-02 1.077699e-01 -1.610072e-02 -1.819387e-01 3.463873e-02 -6.562395e-02 5.545120e-02 1.392915e-01 -3.857016e-03 3.632267e-02 6.121057e-02 1.044294e-03 1.078572e-03 7.977068e-04 -4.062819e-03 1.156257e-03 3.318783e-03 4.332252e-03 -4.769201e-06 2.274340e-03 -1.198339e-03 1.909396e-03 -1.389845e-03 -1.073657e-03
<VARIANCE> 39
 5.263223e+01 7.043032e+01 1.107197e+02 5.093128e+01 5.964709e+01 7.626255e+01 6.002992e+01 7.062918e+01 1.055265e+02 8.626816e+01 6.800683e+01 4.094084e+01 5.457596e+01 5.663793e+00 3.737755e+00 6.792438e+00 4.555058e+00 4.641338e+00 5.298345e+00 5.094904e+00 6.000857e+00 6.601299e+00 5.817368e+00 5.136636e+00 3.548810e+00 2.778721e+00 1.034536e+00 4.976703e-01 1.010926e+00 8.905387e-01 7.398470e-01 9.909960e-01 8.966997e-01 1.009274e+00 9.534676e-01 9.685650e-01 8.666569e-01 6.627839e-01 3.285444e-01
<GCONST> 1.441094e+02
<STATE> 4
<MEAN> 39
 -3.326093e+00 -2.472187e+00 -8.066571e+00 -1.253836e+01 -3.965736e+00 -1.046157e+01 -8.725307e+00 -1.528028e+01 -1.348414e+00 -1.446392e+01 -2.320740e+00 -1.056335e+01 6.814533e+01 1.942211e-02 -8.108101e-02 9.010590e-02 8.532197e-02 -1.271866e-02 -1.598003e-01 5.250906e-02 -5.671404e-02 5.938653e-02 1.250523e-01 1.660537e-03 3.503989e-02 4.779684e-02 8.249462e-04 1.782500e-03 2.170694e-03 -3.693881e-03 4.507083e-05 3.994492e-03 2.615995e-03 2.825017e-03 -8.610827e-04 -3.513185e-03 1.949802e-04 3.742439e-04 -3.419136e-03
<VARIANCE> 39
 4.830425e+01 7.140559e+01 1.149207e+02 4.725786e+01 6.507212e+01 7.301673e+01 5.888299e+01 6.507479e+01 1.073333e+02 8.768644e+01 6.866422e+01 4.157898e+01 5.421170e+01 5.222152e+00 3.801312e+00 7.347372e+00 4.562233e+00 5.119582e+00 5.635611e+00 5.128310e+00 5.540807e+00 6.754346e+00 5.595094e+00 5.143115e+00 3.730675e+00 2.800989e+00 9.711779e-01 5.075489e-01 1.091312e+00 9.054682e-01 8.098763e-01 1.074084e+00 9.070113e-01 9.337708e-01 9.582165e-01 9.210858e-01 8.539992e-01 7.068478e-01 3.271568e-01
<GCONST> 1.442937e+02
<TRANSP> 5
 0.000000e+00 1.000000e+00 0.000000e+00 0.000000e+00 0.000000e+00
 0.000000e+00 7.499350e-01 2.500650e-01 0.000000e+00 0.000000e+00
 0.000000e+00 0.000000e+00 7.499352e-01 2.500648e-01 0.000000e+00
 0.000000e+00 0.000000e+00 0.000000e+00 8.741720e-01 1.258281e-01
 0.000000e+00 0.000000e+00 0.000000e+00 0.000000e+00 0.000000e+00
<ENDHMM>
~h "ai"
<BEGINHMM>
<NUMSTATES> 5
<STATE> 2
<MEAN> 39
 -1.125055e+01 -9.344645e+00 -5.061777e+00 -6.141534e+00 -4.587582e+00 -8.837160e+00 -4.677975e+00 -5.136600e+00 -3.931317e+00 -1.095738e+01 -5.201294e-01 -4.027219e+00 5.709867e+01 -8.064418e-02 1.117351e-01 -4.843266e-02 4.643879e-02 -2.866451e-02 9.338227e-02 3.117358e-02 2.649580e-02 -4.755639e-02 1.406502e-01 -1.349890e-02 4.702298e-02 -2.137347e-01 4.149699e-03 1.167249e-02 -4.937183e-04 -3.103481e-03 3.592719e-04 -4.523016e-04 -5.826229e-03 -8.478954e-03 1.782342e-03 1.014930e-03 -5.539410e-03 -2.915592e-03 3.205710e-03
<VARIANCE> 39
 3.353112e+01 6.052002e+01 3.292368e+01 4.398774e+01 3.175772e+01 5.311642e+01 3.264818e+01 5.435775e+01 3.578077e+01 7.660455e+01 2.775013e+01 2.695076e+01 1.625723e+02 1.064701e+00 2.106606e+00 2.334150e+00 2.013349e+00 2.155641e+00 3.014100e+00 2.348379e+00 2.407824e+00 2.445539e+00 2.640723e+00 2.195629e+00 2.176955e+00 2.596794e+00 1.718060e-01 2.800829e-01 3.936366e-01 3.463607e-01 3.761478e-01 5.262993e-01 4.142222e-01 4.452850e-01 4.499343e-01 4.548577e-01 4.063363e-01 4.020945e-01 2.642305e-01
<GCONST> 1.183845e+02
<STATE> 3
<MEAN> 39
 -1.155553e+01 -8.834383e+00 -5.248671e+00 -5.968652e+00 -4.715393e+00 -8.462861e+00 -4.583987e+00 -5.080058e+00 -4.125368e+00 -1.039222e+01 -6.004424e-01 -3.861034e+00 5.627095e+01 -6.461352e-02 1.527104e-01 -4.705256e-02 3.119651e-02 -2.763781e-02 8.977997e-02 9.768020e-03 -8.050895e-03 -4.016026e-02 1.417218e-01 -3.342739e-02 3.366488e-02 -1.936153e-01 4.494343e-03 6.713045e-03 1.126871e-03 -4.526604e-03 -8.146820e-05 -8.331995e-04 -4.493997e-03 -8.561444e-03 2.122804e-03 -2.192630e-03 -4.651184e-03 -3.776718e-03 8.916823e-03
<VARIANCE> 39
 3.034957e+01 5.696094e+01 2.942576e+01 4.379882e+01 2.901456e+01 5.181005e+01 3.003415e+01 5.096089e+01 3.332927e+01 7.608421e+01 2.630017e+01 2.591389e+01 1.669900e+02 1.013559e+00 1.959306e+00 2.015659e+00 1.957914e+00 1.939747e+00 2.982730e+00 2.164712e+00 2.311614e+00 2.331636e+00 2.608788e+00 2.093565e+00 2.103057e+00 2.428422e+00 1.631652e-01 2.647750e-01 3.434642e-01 3.353428e-01 3.429322e-01 5.139858e-01 3.898286e-01 4.291287e-01 4.344829e-01 4.463183e-01 3.934002e-01 3.923586e-01 2.402623e-01
<GCONST> 1.162608e+02
<STATE> 4
<MEAN> 39
 -1.182262e+01 -7.949058e+00 -5.369098e+00 -5.927273e+00 -4.986706e+00 -8.002527e+00 -4.546569e+00 -5.360398e+00 -4.385693e+00 -9.748347e+00 -8.148286e-01 -3.784870e+00 5.570321e+01 -4.944460e-02 1.750241e-01 -3.624038e-02 9.907938e-03 -3.184862e-02 8.274166e-02 -1.133727e-02 -4.544286e-02 -3.120991e-02 1.321855e-01 -5.104272e-02 1.244524e-02 -1.456955e-01 3.649453e-03 2.890687e-04 2.103554e-03 -4.660439e-03 -6.326220e-04 -1.556502e-03 -3.102132e-03 -6.463175e-03 2.509490e-03 -4.326233e-03 -2.970516e-03 -4.305395e-03 1.222064e-02
<VARIANCE> 39
 2.782595e+01 5.267298e+01 2.639006e+01 4.331945e+01 2.653252e+01 5.070044e+01 2.846885e+01 4.724889e+01 3.017734e+01 7.744012e+01 2.501893e+01 2.547355e+01 1.799290e+02 9.815651e-01 1.799128e+00 1.700132e+00 1.866474e+00 1.740164e+00 2.971142e+00 2.024331e+00 2.202219e+00 2.204375e+00 2.596077e+00 1.972425e+00 2.020369e+00 2.210435e+00 1.566710e-01 2.483583e-01 2.891187e-01 3.197434e-01 3.116881e-01 5.078996e-01 3.719106e-01 4.120105e-01 4.183716e-01 4.409790e-01 3.766673e-01 3.807373e-01 2.143469e-01
<GCONST> 1.140861e+02
<TRANSP> 5
 0.000000e+00 1.000000e+00 0.000000e+00 0.000000e+00 0.000000e+00
 0.000000e+00 7.491099e-01 2.508901e-01 0.000000e+00 0.000000e+00
 0.000000e+00 0.000000e+00 7.491112e-01 2.508887e-01 0.000000e+00
 0.000000e+00 0.000000e+00 0.000000e+00 8.729751e-01 1.270250e-01
 0.000000e+00 0.000000e+00 0.000000e+00 0.000000e+00 0.000000e+00
<ENDHMM>
~h "an"
<BEGINHMM>
<NUMSTATES> 5
<STATE> 2
<MEAN> 39
 -9.478564e+00 -7.370305e+00 -6.062941e+00 -1.146217e+01 -5.814177e+00 -1.326514e+01 -3.631563e+00 -9.756500e+00 -4.512116e+00 -1.507675e+01 -5.584629e-01 -7.691929e+00 7.223048e+01 -1.228699e-02 1.519481e-01 2.744613e-02 -5.566936e-02 -1.587753e-01 -1.458637e-02 4.419645e-02 -1.526083e-01 -1.719061e-01 -4.192758e-03 -2.773830e-02 -7.517184e-02 3.093613e-01 -5.482671e-03 -4.360291e-04 -2.626824e-03 5.514095e-03 3.092882e-03 -7.521105e-03 -1.476952e-03 1.206549e-02 -1.623544e-03 8.186609e-03 9.275577e-04 1.618093e-03 -1.385038e-02
<VARIANCE> 39
 4.614243e+01 6.536750e+01 3.065848e+01 5.311858e+01 4.489506e+01 7.303021e+01 3.779022e+01 6.446707e+01 4.759069e+01 9.929921e+01 2.402516e+01 3.396936e+01 1.294406e+02 3.361958e+00 3.757459e+00 2.500520e+00 3.664955e+00 2.843708e+00 6.004630e+00 2.945130e+00 2.904164e+00 2.387561e+00 5.362393e+00 2.579141e+00 2.483667e+00 3.256972e+00 5.093306e-01 5.055898e-01 3.821395e-01 5.191610e-01 4.153413e-01 9.308559e-01 4.834945e-01 4.947527e-01 3.998887e-01 7.486931e-01 5.486382e-01 4.238204e-01 2.924946e-01
<GCONST> 1.290806e+02
<STATE> 3
<MEAN> 39
 -9.570514e+00 -6.783179e+00 -5.991347e+00 -1.162548e+01 -6.393915e+00 -1.340585e+01 -3.480929e+00 -1.022586e+01 -5.184011e+00 -1.502787e+01 -6.566789e-01 -7.955376e+00 7.328141e+01 -3.113058e-02 1.505660e-01 1.716037e-02 -3.722632e-02 -1.430705e-01 -4.606267e-02 3.725540e-02 -1.029224e-01 -1.767309e-01 2.114366e-02 -2.596346e-02 -6.413879e-02 2.488415e-01 -4.364968e-03 -9.418960e-05 -2.690390e-03 4.476811e-03 4.355723e-03 -8.033184e-03 -2.056622e-03 1.250902e-02 -9.971291e-04 5.870460e-03 -1.052243e-05 3.397101e-03 -1.639714e-02
<VARIANCE> 39
 4.951123e+01 6.812776e+01 3.046684e+01 5.294872e+01 4.519680e+01 7.291392e+01 3.777532e+01 5.402743e+01 5.030661e+01 1.012158e+02 2.433273e+01 3.270199e+01 1.094369e+02 3.760420e+00 3.837943e+00 2.562485e+00 3.730577e+00 2.930661e+00 5.790082e+00 3.017789e+00 2.835682e+00 2.423518e+00 5.668411e+00 2.562210e+00 2.379201e+00 3.075660e+00 5.669436e-01 5.018649e-01 3.971170e-01 5.204566e-01 4.242045e-01 8.911526e-01 4.906614e-01 4.790896e-01 4.007376e-01 7.906699e-01 5.462075e-01 4.011401e-01 2.796480e-01
<GCONST> 1.290788e+02
<STATE> 4
<MEAN> 39
 -9.812703e+00 -5.814846e+00 -5.982710e+00 -1.173937e+01 -7.171694e+00 -1.387304e+01 -3.352977e+00 -1.050824e+01 -6.287190e+00 -1.477852e+01 -8.423030e-01 -8.211854e+00 7.437920e+01 -4.719342e-02 1.504200e-01 3.731241e-03 -1.928181e-02 -1.090682e-01 -9.031555e-02 1.812546e-02 -3.144909e-02 -1.775272e-01 3.650323e-02 -3.042259e-02 -3.252339e-02 1.439372e-01 -1.825662e-03 -1.178625e-04 -1.711060e-03 2.153173e-03 5.881646e-03 -6.301663e-03 -3.258071e-03 1.023648e-02 3.775597e-04 1.699175e-03 -1.294461e-03 5.144205e-03 -1.669165e-02
<VARIANCE> 39
 5.539630e+01 7.453191e+01 3.006531e+01 5.388094e+01 4.565651e+01 7.219097e+01 3.712689e+01 4.285948e+01 5.522616e+01 1.026699e+02 2.519213e+01 3.028312e+01 8.021944e+01 4.391731e+00 3.960621e+00 2.609320e+00 3.819817e+00 3.044606e+00 5.374612e+00 3.061703e+00 2.710016e+00 2.529453e+00 6.135242e+00 2.488715e+00 2.222162e+00 2.716267e+00 6.578320e-01 4.897145e-01 4.122403e-01 5.248362e-01 4.374449e-01 8.229743e-01 4.930730e-01 4.556887e-01 4.059895e-01 8.547581e-01 5.270351e-01 3.705045e-01 2.551083e-01
<GCONST> 1.288126e+02
<TRANSP> 5
 0.000000e+00 1.000000e+00 0.000000e+00 0.000000e+00 0.000000e+00
 0.000000e+00 7.418307e-01 2.581693e-01 0.000000e+00 0.000000e+00
 0.000000e+00 0.000000e+00 7.418308e-01 2.581692e-01 0.000000e+00
 0.000000e+00 0.000000e+00 0.000000e+00 8.641466e-01 1.358534e-01
 0.000000e+00 0.000000e+00 0.000000e+00 0.000000e+00 0.000000e+00
<ENDHMM>
~h "ao"
<BEGINHMM>
<NUMSTATES> 5
<STATE> 2
<MEAN> 39
 -7.191040e+00 -3.768626e+00 -6.032822e+00 -1.284805e+01 -3.281251e+00 -1.104496e+01 -7.273410e+00 -1.362944e+01 -2.116315e+00 -1.263739e+01 -3.063075e+00 -9.134722e+00 6.826726e+01 4.559187e-02 -6.849705e-02 -6.238453e-02 -8.804974e-04 2.852762e-02 -3.518984e-03 5.742257e-02 -8.386824e-02 7.732563e-02 -9.634868e-02 6.572743e-02 -4.660963e-02 8.919840e-02 1.833497e-04 2.801836e-03 4.047455e-04 -3.855420e-04 -1.715255e-03 -3.417849e-04 -2.075575e-03 1.665019e-03 -2.309123e-03 1.366250e-03 -2.530270e-03 1.913030e-03 -2.006239e-03
<VARIANCE> 39
 6.732972e+01 9.656158e+01 1.106617e+02 6.574091e+01 7.279142e+01 6.152149e+01 5.629110e+01 1.082924e+02 9.592365e+01 1.191833e+02 6.764833e+01 4.725773e+01 8.870961e+01 4.647963e+00 3.313720e+00 5.363161e+00 3.838169e+00 4.058670e+00 3.979214e+00 3.923719e+00 5.058831e+00 5.863389e+00 6.162696e+00 3.569560e+00 2.939878e+00 2.640427e+00 7.193146e-01 4.499429e-01 8.546592e-01 6.332209e-01 6.566978e-01 7.171898e-01 6.939730e-01 7.981810e-01 9.725606e-01 9.679438e-01 5.852978e-01 5.302241e-01 3.640054e-01
<GCONST> 1.414824e+02
<STATE> 3
<MEAN> 39
 -7.003482e+00 -4.008652e+00 -6.284225e+00 -1.285669e+01 -3.185295e+00 -1.105829e+01 -7.067403e+00 -1.396053e+01 -1.830275e+00 -1.300894e+01 -2.830514e+00 -9.305492e+00 6.861343e+01 4.675295e-02 -5.707698e-02 -5.835303e-02 -3.564088e-03 2.055693e-02 -6.940343e-03 4.842693e-02 -7.499275e-02 6.540928e-02 -8.718493e-02 5.207770e-02 -3.661422e-02 8.152626e-02 1.059871e-04 2.954771e-03 1.521430e-03 -4.661442e-04 -2.183536e-03 -1.133877e-03 -2.478867e-03 2.566162e-03 -3.553874e-03 2.681250e-03 -4.074074e-03 3.075940e-03 -2.137593e-03
<VARIANCE> 39
 6.621457e+01 9.260332e+01 1.113922e+02 6.473130e+01 7.409705e+01 6.314032e+01 5.539827e+01 1.067463e+02 9.633501e+01 1.170041e+02 6.582420e+01 4.800687e+01 8.614364e+01 4.522381e+00 3.341950e+00 5.553309e+00 3.903208e+00 4.220689e+00 4.074776e+00 4.030874e+00 5.198357e+00 5.957082e+00 6.093263e+00 3.606741e+00 2.982315e+00 2.721359e+00 6.993814e-01 4.592851e-01 8.771570e-01 6.457545e-01 6.818150e-01 7.369549e-01 7.129722e-01 8.191202e-01 9.821895e-01 9.565616e-01 5.923728e-01 5.375327e-01 3.717829e-01
<GCONST> 1.417829e+02
<STATE> 4
<MEAN> 39
 -6.708982e+00 -4.209904e+00 -6.605726e+00 -1.290494e+01 -3.155540e+00 -1.110717e+01 -6.855467e+00 -1.443297e+01 -1.542227e+00 -1.344122e+01 -2.676686e+00 -9.442777e+00 6.914727e+01 4.521372e-02 -3.827313e-02 -4.555104e-02 -3.833697e-03 6.330248e-03 -1.647249e-02 3.212884e-02 -5.630537e-02 3.937180e-02 -6.276287e-02 2.267815e-02 -1.354227e-02 6.634692e-02 -6.825099e-04 2.525209e-03 2.836762e-03 4.204750e-04 -2.384946e-03 -1.867913e-03 -2.523124e-03 3.763648e-03 -4.707708e-03 3.970277e-03 -4.920037e-03 4.335476e-03 -2.890267e-03
<VARIANCE> 39
 6.447340e+01 8.686544e+01 1.128763e+02 6.401493e+01 7.687362e+01 6.628342e+01 5.463314e+01 1.023691e+02 9.629472e+01 1.139710e+02 6.302727e+01 4.914393e+01 8.252122e+01 4.310552e+00 3.384490e+00 5.784364e+00 4.001554e+00 4.461200e+00 4.252878e+00 4.194224e+00 5.408813e+00 5.994643e+00 5.970364e+00 3.621557e+00 3.053149e+00 2.852795e+00 6.643260e-01 4.735838e-01 8.996142e-01 6.621073e-01 7.184175e-01 7.715881e-01 7.405080e-01 8.536046e-01 9.805039e-01 9.349106e-01 5.971705e-01 5.492412e-01 3.863183e-01
<GCONST> 1.421532e+02
<TRANSP> 5
 0.000000e+00 1.000000e+00 0.000000e+00 0.000000e+00 0.000000e+00
 0.000000e+00 7.499790e-01 2.500210e-01 0.000000e+00 0.000000e+00
 0.000000e+00 0.000000e+00 7.499759e-01 2.500241e-01 0.000000e+00
 0.000000e+00 0.000000e+00 0.000000e+00 8.740537e-01 1.259463e-01
 0.000000e+00 0.000000e+00 0.000000e+00 0.000000e+00 0.000000e+00
<ENDHMM>
~h "ch"
<BEGINHMM>
<NUMSTATES> 5
<STATE> 2
<MEAN> 39
 -6.121591e+00 -3.517354e+00 -4.255914e+00 -1.163154e+01 -5.384871e+00 -1.341235e+01 -7.897198e+00 -1.475903e+01 -3.004975e+00 -1.179348e+01 -5.078197e+00 -8.236546e+00 7.070891e+01 3.701204e-02 -4.174047e-03 5.753083e-02 1.447217e-02 -2.682478e-02 -1.299224e-01 1.097086e-02 5.005876e-02 -6.221854e-02 1.476442e-02 -1.997683e-03 4.759052e-02 -3.478307e-02 2.672652e-03 6.906418e-03 7.421098e-03 -5.501138e-03 -2.321744e-03 -1.763805e-03 -3.987780e-03 1.717615e-03 -7.597205e-03 6.187694e-04 -4.058218e-03 1.751823e-03 -2.119928e-03
<VARIANCE> 39
 8.927989e+01 7.215482e+01 9.917780e+01 7.529670e+01 5.239818e+01 6.662869e+01 5.680685e+01 8.786773e+01 1.175887e+02 9.549646e+01 5.215541e+01 4.516302e+01 4.672137e+01 7.111254e+00 3.413532e+00 5.422312e+00 5.199216e+00 3.669091e+00 3.758585e+00 4.047831e+00 5.263227e+00 6.748770e+00 5.864112e+00 3.710362e+00 3.032592e+00 4.248603e+00 9.973897e-01 5.546069e-01 9.475901e-01 8.756102e-01 6.942853e-01 7.148166e-01 6.169367e-01 7.534534e-01 1.097970e+00 9.645755e-01 6.317189e-01 5.190993e-01 7.583518e-01
<GCONST> 1.431517e+02
<STATE> 3
<MEAN> 39
 -5.954246e+00 -3.481080e+00 -3.972980e+00 -1.160961e+01 -5.511957e+00 -1.394842e+01 -7.883069e+00 -1.454821e+01 -3.308824e+00 -1.172561e+01 -5.118978e+00 -8.029604e+00 7.055415e+01 4.772308e-02 2.111297e-02 8.413989e-02 -7.035752e-03 -3.441416e-02 -1.327327e-01 -4.005917e-03 5.465904e-02 -8.929985e-02 1.367502e-02 -1.601810e-02 5.302449e-02 -4.246781e-02 2.532804e-03 5.023037e-03 5.122948e-03 -5.067919e-03 -1.178009e-03 7.019545e-04 -3.146200e-03 3.145225e-04 -5.212027e-03 -1.533177e-03 -2.407289e-03 7.164531e-04 -1.532158e-03
<VARIANCE> 39
 8.697105e+01 7.067893e+01 1.008883e+02 7.547960e+01 5.396723e+01 6.761813e+01 5.635997e+01 8.634103e+01 1.163675e+02 9.060110e+01 4.946875e+01 4.517164e+01 4.623167e+01 6.796645e+00 3.432019e+00 5.496317e+00 5.330698e+00 3.902517e+00 3.836713e+00 4.144966e+00 5.291997e+00 6.593892e+00 5.672608e+00 3.674428e+00 3.143844e+00 4.267324e+00 9.532604e-01 5.634600e-01 9.358989e-01 9.112677e-01 7.400374e-01 7.394282e-01 6.327326e-01 7.719542e-01 1.064982e+00 9.447101e-01 6.307451e-01 5.403938e-01 7.589141e-01
<GCONST> 1.432346e+02
<STATE> 4
<MEAN> 39
 -5.625490e+00 -3.231903e+00 -3.457177e+00 -1.170147e+01 -5.750250e+00 -1.469353e+01 -7.984620e+00 -1.428612e+01 -3.883469e+00 -1.163703e+01 -5.288168e+00 -7.688488e+00 7.028143e+01 5.968402e-02 4.172150e-02 1.028112e-01 -3.048030e-02 -3.747223e-02 -1.184426e-01 -1.921296e-02 5.186638e-02 -1.080861e-01 -1.239847e-03 -2.423957e-02 5.481486e-02 -4.922272e-02 1.604993e-03 1.421921e-03 1.142431e-03 -3.503601e-03 5.268701e-04 4.318662e-03 -1.796011e-03 -1.100886e-03 -1.025831e-03 -4.094931e-03 2.525920e-04 -5.275293e-04 -8.694363e-04
<VARIANCE> 39
 8.176100e+01 7.131825e+01 1.034596e+02 7.438528e+01 5.706647e+01 6.773373e+01 5.626511e+01 8.292351e+01 1.129710e+02 8.436649e+01 4.664196e+01 4.505206e+01 4.576242e+01 6.224387e+00 3.480211e+00 5.704817e+00 5.408523e+00 4.298033e+00 3.972831e+00 4.250890e+00 5.266539e+00 6.317814e+00 5.423801e+00 3.609763e+00 3.305448e+00 4.211531e+00 8.755465e-01 5.741825e-01 9.345387e-01 9.469161e-01 8.124512e-01 7.791201e-01 6.500409e-01 7.904471e-01 1.013638e+00 9.222084e-01 6.253296e-01 5.721051e-01 7.378383e-01
<GCONST> 1.432102e+02
<TRANSP> 5
 0.000000e+00 1.000000e+00 0.000000e+00 0.000000e+00 0.000000e+00
 0.000000e+00 7.521133e-01 2.478867e-01 0.000000e+00 0.000000e+00
 0.000000e+00 0.000000e+00 7.521126e-01 2.478874e-01 0.000000e+00
 0.000000e+00 0.000000e+00 0.000000e+00 8.760556e-01 1.239444e-01
 0.000000e+00 0.000000e+00 0.000000e+00 0.000000e+00 0.000000e+00
<ENDHMM>
~h "ei"
<BEGINHMM>
<NUMSTATES> 5
<STATE> 2
<MEAN> 39
 -6.138985e+00 -3.552040e+00 -6.074321e+00 -1.584833e+01 -5.132379e+00 -1.152911e+01 -5.087808e+00 -1.646631e+01 -4.748519e+00 -9.492299e+00 -7.446950e+00 -6.131175e+00 6.942883e+01 9.086835e-02 1.014521e-01 3.059738e-02 -5.213241e-02 -1.415224e-01 -9.429961e-02 8.352353e-02 -4.407782e-04 -1.666651e-01 2.157946e-01 -1.994634e-01 1.980077e-01 -1.111141e-01 4.399245e-03 9.667694e-03 5.953973e-04 2.116355e-03 -4.068110e-04 1.755923e-03 -2.124281e-03 -5.274781e-04 -1.909986e-03 -4.229549e-04 1.833204e-04 -7.606421e-04 -1.865910e-03
<VARIANCE> 39
 5.703936e+01 6.373648e+01 1.400262e+02 7.949645e+01 1.237771e+02 6.798082e+01 6.151800e+01 8.511441e+01 1.004458e+02 1.194164e+02 9.874014e+01 8.103905e+01 5.028759e+01 3.580470e+00 2.853375e+00 7.414157e+00 5.943206e+00 6.630834e+00 5.874536e+00 6.269017e+00 7.152681e+00 5.744220e+00 5.475125e+00 4.367746e+00 3.943887e+00 2.797284e+00 5.478232e-01 4.162991e-01 1.197574e+00 8.154447e-01 1.076551e+00 1.060591e+00 1.166400e+00 1.152521e+00 1.048921e+00 9.530159e-01 7.649896e-01 7.133146e-01 4.095213e-01
<GCONST> 1.474179e+02
<STATE> 3
<MEAN> 39
 -5.744715e+00 -3.077107e+00 -5.950222e+00 -1.603784e+01 -5.695415e+00 -1.189502e+01 -4.772202e+00 -1.647166e+01 -5.423036e+00 -8.638648e+00 -8.233353e+00 -5.351923e+00 6.897317e+01 1.075597e-01 1.360797e-01 2.912152e-02 -4.111583e-02 -1.370032e-01 -8.450957e-02 7.364052e-02 -3.012146e-03 -1.671194e-01 2.062158e-01 -1.907113e-01 1.884201e-01 -1.157087e-01 3.717721e-03 7.340906e-03 -1.134319e-03 3.420625e-03 2.715555e-03 3.217220e-03 -3.115446e-03 -5.044465e-04 1.860755e-03 -4.483571e-03 4.511809e-03 -4.302472e-03 -2.459002e-04
<VARIANCE> 39
 5.460998e+01 6.489088e+01 1.429142e+02 7.981599e+01 1.200514e+02 6.671119e+01 6.046571e+01 8.014708e+01 9.393201e+01 1.092148e+02 9.514844e+01 8.002392e+01 5.149185e+01 3.271734e+00 2.837860e+00 7.764010e+00 6.133276e+00 6.816657e+00 5.982042e+00 6.190397e+00 6.924444e+00 5.525609e+00 5.269810e+00 4.331931e+00 4.046759e+00 2.911715e+00 5.121531e-01 4.208519e-01 1.261253e+00 8.637793e-01 1.139409e+00 1.101590e+00 1.164955e+00 1.137537e+00 1.020975e+00 9.422009e-01 7.620361e-01 7.365087e-01 4.234551e-01
<GCONST> 1.472274e+02
<STATE> 4
<MEAN> 39
 -5.047356e+00 -2.130552e+00 -5.818653e+00 -1.619170e+01 -6.460302e+00 -1.228904e+01 -4.444421e+00 -1.644920e+01 -6.341944e+00 -7.524513e+00 -9.229913e+00 -4.358162e+00 6.831030e+01 1.232738e-01 1.652572e-01 1.844661e-02 -1.588704e-02 -1.089202e-01 -6.397579e-02 5.183776e-02 -4.985722e-03 -1.408416e-01 1.652926e-01 -1.477607e-01 1.499852e-01 -1.103682e-01 1.730594e-03 2.992323e-03 -1.900647e-03 4.935270e-03 6.158522e-03 4.275583e-03 -4.647120e-03 1.180686e-04 6.528350e-03 -9.079816e-03 9.628743e-03 -8.525347e-03 2.043022e-03
<VARIANCE> 39
 5.108992e+01 6.743398e+01 1.468454e+02 7.943779e+01 1.120475e+02 6.354654e+01 5.861432e+01 7.229427e+01 8.404080e+01 9.329301e+01 8.703627e+01 7.649179e+01 5.194732e+01 2.896466e+00 2.844382e+00 8.303148e+00 6.333668e+00 7.044213e+00 6.069435e+00 6.004374e+00 6.507604e+00 5.252975e+00 5.033162e+00 4.227526e+00 4.170534e+00 3.018244e+00 4.706397e-01 4.262762e-01 1.360414e+00 9.302581e-01 1.227170e+00 1.154550e+00 1.149224e+00 1.104363e+00 9.862376e-01 9.371080e-01 7.466592e-01 7.654855e-01 4.350953e-01
<GCONST> 1.466165e+02
<TRANSP> 5
 0.000000e+00 1.000000e+00 0.000000e+00 0.000000e+00 0.000000e+00
 0.000000e+00 7.497470e-01 2.502530e-01 0.000000e+00 0.000000e+00
 0.000000e+00 0.000000e+00 7.497464e-01 2.502536e-01 0.000000e+00
 0.000000e+00 0.000000e+00 0.000000e+00 8.735701e-01 1.264299e-01
 0.000000e+00 0.000000e+00 0.000000e+00 0.000000e+00 0.000000e+00
<ENDHMM>
~h "er"
<BEGINHMM>
<NUMSTATES> 5
<STATE> 2
<MEAN> 39
 -8.503763e+00 -1.147630e+01 -6.482073e+00 -1.184610e+01 -3.537450e+00 -1.194603e+01 -3.198352e+00 -1.008277e+01 -1.567322e+00 -1.601927e+01 -1.071117e-01 -7.005152e+00 6.915979e+01 1.350021e-01 -1.644430e-01 -8.050369e-02 -9.603005e-02 -2.127915e-02 5.240764e-02 5.284766e-02 -2.539353e-01 1.775032e-02 -2.502639e-01 -4.375365e-04 -1.219095e-01 4.949316e-01 -1.670986e-03 -6.204929e-03 -6.516071e-03 6.068367e-03 2.861982e-03 6.958582e-03 -1.208260e-03 7.547888e-03 -7.794451e-04 6.255979e-03 -2.468199e-03 8.813280e-05 -1.072857e-02
<VARIANCE> 39
 3.351344e+01 6.578693e+01 4.752805e+01 6.272522e+01 3.537539e+01 5.924398e+01 2.762688e+01 9.936330e+01 3.978474e+01 9.013664e+01 3.105962e+01 3.463346e+01 1.994306e+02 1.199023e+00 2.959264e+00 2.487667e+00 3.269738e+00 2.718783e+00 3.924472e+00 2.770200e+00 3.450027e+00 2.477721e+00 3.202980e+00 2.527902e+00 2.122598e+00 4.166929e+00 1.961468e-01 4.155057e-01 3.145190e-01 5.010604e-01 4.337188e-01 6.165383e-01 5.158752e-01 5.823537e-01 4.322115e-01 4.964419e-01 4.730048e-01 3.765072e-01 4.719513e-01
<GCONST> 1.256758e+02
<STATE> 3
<MEAN> 39
 -7.997598e+00 -1.216972e+01 -6.847916e+00 -1.215852e+01 -3.597905e+00 -1.168797e+01 -3.002223e+00 -1.098899e+01 -1.518313e+00 -1.689886e+01 -1.412950e-01 -7.468621e+00 7.094838e+01 1.245063e-01 -1.766031e-01 -9.780638e-02 -7.078359e-02 -1.337243e-02 7.038693e-02 4.840172e-02 -2.199456e-01 8.412445e-03 -2.107454e-01 -1.358851e-02 -1.137286e-01 4.367522e-01 -3.113399e-03 -1.572135e-03 -3.688235e-03 6.429615e-03 1.713803e-03 3.226065e-03 -1.017246e-03 9.165383e-03 -3.037385e-03 1.108664e-02 -3.605617e-03 2.771843e-03 -1.594410e-02
<VARIANCE> 39
 3.150933e+01 6.617754e+01 4.776251e+01 5.596689e+01 3.549474e+01 6.117165e+01 2.853090e+01 9.015402e+01 4.140861e+01 8.728008e+01 3.128856e+01 3.528307e+01 1.829730e+02 1.197149e+00 2.992010e+00 2.407130e+00 3.186846e+00 2.587346e+00 3.949427e+00 2.834428e+00 3.443898e+00 2.495641e+00 3.182543e+00 2.504157e+00 2.083618e+00 4.380366e+00 1.935029e-01 4.196055e-01 3.016578e-01 4.950159e-01 4.076587e-01 6.066594e-01 5.181659e-01 5.837610e-01 4.358988e-01 4.778083e-01 4.646445e-01 3.665250e-01 5.210800e-01
<GCONST> 1.252762e+02
<STATE> 4
<MEAN> 39
 -7.362326e+00 -1.316739e+01 -7.431728e+00 -1.241919e+01 -3.746833e+00 -1.128969e+01 -2.722614e+00 -1.207310e+01 -1.668296e+00 -1.778434e+01 -3.869317e-01 -8.030348e+00 7.310385e+01 9.302432e-02 -1.378681e-01 -9.205288e-02 -2.811476e-02 -1.712151e-02 5.038685e-02 3.824439e-02 -1.555763e-01 -2.549219e-02 -1.117015e-01 -4.717841e-02 -7.365555e-02 3.097020e-01 -5.512348e-03 7.914819e-03 1.653259e-03 6.249399e-03 -8.338263e-04 -4.685497e-03 -1.442717e-03 1.011113e-02 -5.565596e-03 1.483620e-02 -4.821250e-03 6.518980e-03 -1.925707e-02
<VARIANCE> 39
 3.147658e+01 6.981329e+01 4.646288e+01 4.767247e+01 3.552898e+01 6.570679e+01 3.028696e+01 7.564137e+01 4.482801e+01 7.938775e+01 3.289637e+01 3.521081e+01 1.491180e+02 1.356818e+00 3.123952e+00 2.247299e+00 3.209280e+00 2.368938e+00 4.056354e+00 2.898728e+00 3.406475e+00 2.557328e+00 3.117671e+00 2.540850e+00 2.047498e+00 4.600466e+00 2.068819e-01 4.320326e-01 2.868479e-01 5.117235e-01 3.700942e-01 5.958764e-01 5.112567e-01 5.844447e-01 4.472308e-01 4.514006e-01 4.664352e-01 3.559987e-01 5.957753e-01
<GCONST> 1.250614e+02
<TRANSP> 5
 0.000000e+00 1.000000e+00 0.000000e+00 0.000000e+00 0.000000e+00
 0.000000e+00 7.452845e-01 2.547154e-01 0.000000e+00 0.000000e+00
 0.000000e+00 0.000000e+00 7.452840e-01 2.547160e-01 0.000000e+00
 0.000000e+00 0.000000e+00 0.000000e+00 8.678981e-01 1.321019e-01
 0.000000e+00 0.000000e+00 0.000000e+00 0.000000e+00 0.000000e+00
<ENDHMM>
~h "iu"
<BEGINHMM>
<NUMSTATES> 5
<STATE> 2
<MEAN> 39
 -5.257573e+00 -5.996573e+00 -4.068821e+00 -1.057344e+01 -4.820199e+00 -1.279749e+01 -6.871256e+00 -1.268080e+01 -2.878875e+00 -1.448567e+01 -2.553511e+00 -7.161112e+00 6.757970e+01 -1.042186e-01 -1.670472e-01 1.404165e-02 1.292673e-01 -2.150900e-02 8.447465e-02 3.001545e-02 1.241224e-01 -1.528206e-02 -4.014384e-02 5.910330e-02 7.452266e-02 -1.091138e-01 -7.095084e-03 -2.877301e-04 -1.415200e-03 4.219334e-03 -2.443159e-03 5.755236e-03 3.206050e-03 5.318307e-03 -4.912832e-03 1.044279e-02 -1.055308e-03 4.414361e-03 -1.241285e-02
<VARIANCE> 39
 3.948155e+01 8.873605e+01 9.160498e+01 4.761208e+01 6.625812e+01 5.959383e+01 5.841565e+01 6.106182e+01 7.359155e+01 8.214297e+01 4.936695e+01 5.007653e+01 9.929036e+01 1.884173e+00 3.358868e+00 7.368014e+00 3.291030e+00 5.769837e+00 4.815782e+00 4.471143e+00 3.637613e+00 4.787194e+00 3.993205e+00 3.400036e+00 3.708866e+00 3.090385e+00 3.183025e-01 4.684167e-01 1.083010e+00 6.493651e-01 9.585755e-01 9.838833e-01 7.489699e-01 6.918362e-01 8.023397e-01 7.097781e-01 5.568138e-01 6.701210e-01 3.773192e-01
<GCONST> 1.380633e+02
<STATE> 3
<MEAN> 39
 -5.717019e+00 -6.658674e+00 -4.021411e+00 -1.003422e+01 -4.915152e+00 -1.242496e+01 -6.735622e+00 -1.215564e+01 -2.961056e+00 -1.457489e+01 -2.323218e+00 -6.841279e+00 6.706529e+01 -1.320797e-01 -1.636472e-01 9.114112e-03 1.454694e-01 -3.131196e-02 1.067709e-01 4.281975e-02 1.450119e-01 -3.474338e-02 4.732135e-03 5.477465e-02 9.139367e-02 -1.615767e-01 -6.726452e-03 3.250540e-03 -1.038126e-03 3.356705e-03 -2.502826e-03 5.301550e-03 3.155732e-03 4.641199e-03 -4.990403e-03 1.293162e-02 -1.276454e-03 3.676733e-03 -1.449801e-02
<VARIANCE> 39
 4.057523e+01 8.851254e+01 8.435805e+01 4.677574e+01 6.255910e+01 6.080522e+01 5.729714e+01 5.982862e+01 6.855836e+01 8.189745e+01 4.651892e+01 4.859596e+01 1.116130e+02 1.811124e+00 3.314903e+00 6.903965e+00 2.984223e+00 5.467318e+00 4.608900e+00 4.321790e+00 3.447316e+00 4.507241e+00 3.765524e+00 3.252772e+00 3.578746e+00 3.126453e+00 2.976989e-01 4.564748e-01 1.017483e+00 5.857837e-01 9.072741e-01 9.379529e-01 7.161300e-01 6.576507e-01 7.663071e-01 6.672685e-01 5.361106e-01 6.432913e-01 3.768712e-01
<GCONST> 1.366320e+02
<STATE> 4
<MEAN> 39
 -6.493808e+00 -7.346261e+00 -3.965091e+00 -9.246741e+00 -5.127841e+00 -1.176148e+01 -6.523924e+00 -1.140212e+01 -3.225275e+00 -1.426541e+01 -2.121527e+00 -6.304237e+00 6.600862e+01 -1.645389e-01 -1.362268e-01 3.088912e-03 1.600524e-01 -3.975056e-02 1.320735e-01 5.621466e-02 1.668506e-01 -5.472435e-02 7.463103e-02 4.852216e-02 1.066626e-01 -2.404863e-01 -5.325381e-03 7.840368e-03 -1.416552e-03 1.717342e-03 -1.439102e-03 3.975131e-03 2.080099e-03 3.003239e-03 -3.788925e-03 1.401915e-02 -1.630961e-03 2.178048e-03 -1.550042e-02
<VARIANCE> 39
 4.314872e+01 8.749506e+01 7.475863e+01 4.580818e+01 5.712740e+01 6.292899e+01 5.448088e+01 5.861679e+01 6.173037e+01 8.329588e+01 4.317583e+01 4.580676e+01 1.302515e+02 1.787033e+00 3.225092e+00 6.211763e+00 2.624635e+00 5.001060e+00 4.306652e+00 4.040568e+00 3.180865e+00 4.154124e+00 3.478823e+00 3.042993e+00 3.343613e+00 3.084021e+00 2.802677e-01 4.360123e-01 9.228846e-01 5.094199e-01 8.319619e-01 8.675975e-01 6.628784e-01 6.071317e-01 7.223865e-01 6.140009e-01 5.080592e-01 6.001868e-01 3.677830e-01
<GCONST> 1.345020e+02
<TRANSP> 5
 0.000000e+00 1.000000e+00 0.000000e+00 0.000000e+00 0.000000e+00
 0.000000e+00 7.496887e-01 2.503113e-01 0.000000e+00 0.000000e+00
 0.000000e+00 0.000000e+00 7.496868e-01 2.503132e-01 0.000000e+00
 0.000000e+00 0.000000e+00 0.000000e+00 8.736292e-01 1.263708e-01
 0.000000e+00 0.000000e+00 0.000000e+00 0.000000e+00 0.000000e+00
<ENDHMM>
~h "si"
<BEGINHMM>
<NUMSTATES> 5
<STATE> 2
<MEAN> 39
 -1.093270e+01 -7.605109e+00 -5.587175e+00 -1.020268e+01 -5.553557e+00 -1.347466e+01 -3.486625e+00 -1.015476e+01 -2.272282e+00 -1.433491e+01 -5.465746e-01 -6.839576e+00 6.957850e+01 2.303776e-03 1.702128e-01 -6.438232e-02 6.049200e-04 -1.344166e-01 1.680653e-02 -8.379253e-02 -2.201049e-01 -3.561377e-02 -9.626821e-02 -4.461028e-02 -4.908167e-02 3.591635e-01 -1.277422e-02 1.704930e-03 9.214946e-04 1.010908e-02 3.049528e-05 1.687012e-03 -5.332025e-03 1.098131e-02 -3.412424e-03 1.391443e-02 -4.307882e-04 3.877375e-03 -1.267519e-02
<VARIANCE> 39
 6.473769e+01 7.764567e+01 4.754065e+01 6.346863e+01 5.542630e+01 5.568034e+01 4.758897e+01 8.318932e+01 5.216323e+01 1.063201e+02 2.725207e+01 4.650919e+01 1.285006e+02 2.526081e+00 3.846821e+00 2.957850e+00 3.443304e+00 3.568250e+00 5.455112e+00 3.766210e+00 3.551271e+00 3.653502e+00 4.676989e+00 2.338779e+00 2.685099e+00 3.090737e+00 3.356881e-01 5.826779e-01 4.498969e-01 5.472472e-01 5.743182e-01 8.983097e-01 6.858022e-01 6.169993e-01 6.199225e-01 6.185163e-01 4.442926e-01 4.620458e-01 2.750652e-01
<GCONST> 1.327248e+02
<STATE> 3
<MEAN> 39
 -1.106305e+01 -6.882244e+00 -5.852294e+00 -1.007994e+01 -6.105963e+00 -1.339196e+01 -3.902997e+00 -1.092697e+01 -2.464125e+00 -1.457150e+01 -7.382581e-01 -6.992408e+00 7.089752e+01 -4.815982e-02 1.736227e-01 -6.067748e-02 4.153504e-02 -1.311963e-01 2.167598e-02 -1.041856e-01 -1.698566e-01 -4.927401e-02 -4.121909e-02 -4.705052e-02 -2.911692e-02 3.019594e-01 -1.174147e-02 9.202331e-04 8.573581e-04 9.755397e-03 8.971056e-04 1.010713e-03 -4.800018e-03 1.245169e-02 -3.420237e-03 1.312075e-02 -7.976120e-04 5.218905e-03 -1.466981e-02
<VARIANCE> 39
 6.941814e+01 7.496037e+01 4.668108e+01 6.534232e+01 5.617638e+01 5.684162e+01 4.973495e+01 7.644347e+01 5.486853e+01 1.084019e+02 2.731376e+01 4.827463e+01 1.131956e+02 2.835353e+00 3.781713e+00 2.956367e+00 3.455633e+00 3.488711e+00 5.622747e+00 3.870105e+00 3.556622e+00 3.699159e+00 4.784884e+00 2.388967e+00 2.700253e+00 2.863549e+00 3.688520e-01 5.736604e-01 4.507130e-01 5.431008e-01 5.520240e-01 9.238955e-01 7.007111e-01 6.101155e-01 6.185504e-01 6.313710e-01 4.538487e-01 4.579086e-01 2.554819e-01
<GCONST> 1.328986e+02
<STATE> 4
<MEAN> 39
 -1.177697e+01 -5.575801e+00 -6.290831e+00 -9.469208e+00 -7.039363e+00 -1.317944e+01 -4.810518e+00 -1.167950e+01 -2.956864e+00 -1.446181e+01 -1.144162e+00 -6.960726e+00 7.257331e+01 -1.036658e-01 1.751125e-01 -5.368991e-02 9.914181e-02 -1.189632e-01 2.346978e-02 -1.280217e-01 -7.872208e-02 -7.283504e-02 2.893845e-02 -5.473306e-02 1.193355e-02 1.898134e-01 -6.409155e-03 -6.417395e-07 1.389915e-03 6.625399e-03 1.734850e-03 -1.457926e-04 -2.422398e-03 1.196152e-02 -2.979620e-03 8.540047e-03 -1.056565e-03 5.621759e-03 -1.510107e-02
<VARIANCE> 39
 7.833585e+01 7.032162e+01 4.335765e+01 6.859705e+01 5.762778e+01 5.987879e+01 5.226684e+01 6.721936e+01 5.958352e+01 1.087521e+02 2.752981e+01 5.038724e+01 8.324669e+01 3.432739e+00 3.484739e+00 2.814536e+00 3.419504e+00 3.347124e+00 5.848831e+00 3.943033e+00 3.537219e+00 3.741690e+00 4.855724e+00 2.480622e+00 2.724430e+00 2.340600e+00 4.331464e-01 5.278636e-01 4.325067e-01 5.253302e-01 5.179175e-01 9.517528e-01 7.071784e-01 5.950177e-01 6.146759e-01 6.465088e-01 4.716454e-01 4.545732e-01 2.119867e-01
<GCONST> 1.325050e+02
<TRANSP> 5
 0.000000e+00 1.000000e+00 0.000000e+00 0.000000e+00 0.000000e+00
 0.000000e+00 7.583238e-01 2.416762e-01 0.000000e+00 0.000000e+00
 0.000000e+00 0.000000e+00 7.583236e-01 2.416764e-01 0.000000e+00
 0.000000e+00 0.000000e+00 0.000000e+00 8.834258e-01 1.165742e-01
 0.000000e+00 0.000000e+00 0.000000e+00 0.000000e+00 0.000000e+00
<ENDHMM>
~h "un"
<BEGINHMM>
<NUMSTATES> 5
<STATE> 2
<MEAN> 39
 -5.246276e+00 -2.993876e+00 -2.758751e+00 -1.195360e+01 -5.960584e+00 -1.536571e+01 -8.107433e+00 -1.393042e+01 -4.586753e+00 -1.173626e+01 -5.405534e+00 -7.368372e+00 6.996643e+01 6.687235e-02 3.931649e-02 9.977647e-02 -4.903796e-02 -2.892802e-02 -8.219108e-02 -2.628216e-02 4.293304e-02 -1.035349e-01 -3.401231e-02 -1.420390e-02 4.757932e-02 -5.356948e-02 -2.717518e-04 -3.076664e-03 -3.831324e-03 -6.428325e-04 2.327339e-03 7.847088e-03 -1.493852e-04 -1.805654e-03 4.083753e-03 -5.688729e-03 3.136768e-03 -1.358493e-03 -6.441745e-04
<VARIANCE> 39
 7.451099e+01 7.390156e+01 1.056539e+02 7.290608e+01 5.987917e+01 6.520930e+01 5.676163e+01 7.616719e+01 1.085751e+02 7.813905e+01 4.470384e+01 4.511238e+01 4.592731e+01 5.572611e+00 3.556318e+00 6.007781e+00 5.450448e+00 4.714868e+00 4.113931e+00 4.408689e+00 5.127800e+00 6.072239e+00 5.144021e+00 3.562150e+00 3.547501e+00 4.096088e+00 7.935866e-01 5.836680e-01 9.417887e-01 9.797016e-01 8.823834e-01 8.237516e-01 6.799065e-01 8.059489e-01 9.666236e-01 8.935871e-01 6.221874e-01 6.183755e-01 6.996269e-01
<GCONST> 1.430816e+02
<STATE> 3
<MEAN> 39
 -4.979568e+00 -2.852867e+00 -2.379308e+00 -1.215257e+01 -6.065194e+00 -1.564163e+01 -8.217273e+00 -1.376971e+01 -4.979021e+00 -1.190865e+01 -5.445726e+00 -7.182819e+00 6.974674e+01 6.331414e-02 2.233293e-02 8.023445e-02 -4.809354e-02 -1.825812e-02 -4.753233e-02 -2.527028e-02 3.630704e-02 -8.281132e-02 -5.728045e-02 9.599932e-04 4.197768e-02 -5.662545e-02 -1.888302e-03 -5.567322e-03 -6.337710e-03 1.835335e-03 3.036930e-03 9.315709e-03 7.464602e-04 -1.167352e-03 6.591021e-03 -5.400260e-03 4.349016e-03 -1.153367e-03 -1.182203e-03
<VARIANCE> 39
 6.877659e+01 7.709167e+01 1.063419e+02 7.077417e+01 6.179330e+01 6.349823e+01 5.715054e+01 7.190057e+01 1.050301e+02 7.526453e+01 4.416701e+01 4.517601e+01 4.704199e+01 5.087125e+00 3.614417e+00 6.253301e+00 5.385772e+00 4.983147e+00 4.196539e+00 4.473296e+00 4.992476e+00 5.914957e+00 4.987090e+00 3.529571e+00 3.688691e+00 3.987006e+00 7.318264e-01 5.869001e-01 9.563507e-01 9.855622e-01 9.240331e-01 8.507889e-01 6.933663e-01 8.065059e-01 9.385273e-01 8.792467e-01 6.178324e-01 6.465836e-01 6.638708e-01
<GCONST> 1.428630e+02
<STATE> 4
<MEAN> 39
 -4.643618e+00 -2.742144e+00 -2.037375e+00 -1.234867e+01 -6.173752e+00 -1.576715e+01 -8.391568e+00 -1.362277e+01 -5.363258e+00 -1.224633e+01 -5.441202e+00 -6.914954e+00 6.940219e+01 4.704177e-02 -1.545132e-02 4.179233e-02 -3.004506e-02 -1.877763e-03 8.502739e-03 -1.861395e-02 3.417676e-02 -4.320994e-02 -8.376338e-02 2.776912e-02 3.737116e-02 -6.620433e-02 -4.137741e-03 -7.982688e-03 -8.171994e-03 5.098523e-03 3.266034e-03 1.009120e-02 1.905244e-03 6.731260e-04 8.208813e-03 -3.688926e-03 5.227177e-03 -3.559983e-04 -2.668992e-03
<VARIANCE> 39
 6.060677e+01 8.382250e+01 1.067154e+02 6.684514e+01 6.464964e+01 6.193139e+01 5.746735e+01 6.679096e+01 9.918387e+01 7.245639e+01 4.453477e+01 4.531509e+01 5.030785e+01 4.383888e+00 3.708630e+00 6.608962e+00 5.186752e+00 5.347781e+00 4.289426e+00 4.495493e+00 4.764841e+00 5.684630e+00 4.783226e+00 3.491741e+00 3.826073e+00 3.818399e+00 6.398722e-01 5.888400e-01 9.826519e-01 9.715698e-01 9.772238e-01 8.828208e-01 7.012564e-01 7.949157e-01 9.023188e-01 8.612925e-01 6.099713e-01 6.763500e-01 6.081311e-01
<GCONST> 1.424046e+02
<TRANSP> 5
 0.000000e+00 1.000000e+00 0.000000e+00 0.000000e+00 0.000000e+00
 0.000000e+00 7.521029e-01 2.478971e-01 0.000000e+00 0.000000e+00
 0.000000e+00 0.000000e+00 7.521020e-01 2.478980e-01 0.000000e+00
 0.000000e+00 0.000000e+00 0.000000e+00 8.760341e-01 1.239659e-01
 0.000000e+00 0.000000e+00 0.000000e+00 0.000000e+00 0.000000e+00
<ENDHMM>
~h "wu"
<BEGINHMM>
<NUMSTATES> 5
<STATE> 2
<MEAN> 39
 -8.210730e+00 -8.047327e+00 -8.552375e+00 -1.165312e+01 -2.795266e+00 -1.355919e+01 -4.098814e+00 -9.010361e+00 -1.049399e-02 -1.483509e+01 4.793053e-01 -6.502520e+00 6.683809e+01 1.923440e-01 1.330972e-01 -9.183768e-02 -2.196517e-01 -6.066707e-02 4.211465e-02 1.458948e-02 -3.339419e-01 9.479068e-03 -1.506688e-01 -2.143732e-02 -1.023873e-01 4.032859e-01 3.810085e-03 4.533845e-04 -3.037073e-03 -7.427678e-03 4.030778e-03 -3.600593e-03 -1.144440e-03 1.379191e-03 -2.777231e-03 -5.658727e-04 -5.363512e-04 -5.813830e-04 2.804511e-03
<VARIANCE> 39
