~o
<STREAMINFO> 1 39
<VECSIZE> 39<NULLD><MFCC_D_A_0><DIAGC>
~h "a"
<BEGINHMM>
<NUMSTATES> 5
<STATE> 2
<MEAN> 39
 -2.302785e+00 -6.818323e+00 -1.153872e+01 -1.773287e+01 -2.544058e+00 -2.034026e+01 -2.787768e+00 -1.112718e+01 1.334291e+00 -2.196617e+01 6.036165e-02 -9.083442e+00 7.567741e+01 -3.968330e-01 -2.571525e+00 -1.014212e+00 -3.472016e-01 1.254329e+00 2.328667e+00 7.128297e-01 -1.031980e+00 1.574974e+00 -2.427760e+00 4.628089e-01 -9.203436e-01 2.944426e+00 -5.655758e-01 -7.176275e-02 2.513911e-01 7.623116e-01 -9.435449e-02 1.104721e+00 -2.376788e-01 -1.742805e-01 -3.307253e-01 7.739788e-02 1.460288e-01 2.584406e-01 -7.703444e-01
<VARIANCE> 39
 1.552985e+01 8.081705e+01 2.395817e+01 5.950085e+01 2.940170e+01 7.804149e+01 2.833779e+01 5.715866e+01 1.409916e+01 2.568005e+01 1.686795e+01 1.697846e+01 3.380110e+01 1.143272e+00 1.645303e+00 2.527715e+00 2.770345e+00 2.833502e+00 3.775564e+00 4.828023e+00 3.823885e+00 3.234785e+00 4.292243e+00 1.664385e+00 2.393071e+00 3.954895e+00 3.052632e-01 6.450355e-01 2.365583e-01 4.847669e-01 5.012176e-01 1.034306e+00 5.489932e-01 5.644777e-01 5.250089e-01 9.525407e-01 3.721485e-01 3.781820e-01 5.881099e-01
<GCONST> 1.207203e+02
<STATE> 3
<MEAN> 39
 -4.970121e+00 -1.252970e+01 -1.305756e+01 -1.521175e+01 1.128654e+00 -1.136301e+01 -4.267092e+00 -1.667985e+01 4.916709e+00 -2.568931e+01 1.437314e+00 -1.181688e+01 8.090376e+01 -1.643437e-01 -5.549719e-01 -3.204586e-01 4.802615e-01 4.006040e-01 1.097217e+00 -2.333475e-01 -5.498127e-01 -7.373899e-03 -2.502952e-01 3.725280e-01 -3.356615e-01 4.113029e-01 5.290848e-02 2.707160e-01 1.632280e-01 -7.430024e-03 -1.971658e-01 -2.300488e-01 -4.026890e-02 2.111003e-01 -1.943343e-01 3.250849e-01 -2.988395e-02 5.525566e-02 -2.901589e-01
<VARIANCE> 39
 4.125723e+00 2.458275e+01 1.494767e+01 2.436026e+01 1.857815e+01 4.138417e+01 2.628551e+01 3.784264e+01 3.198217e+01 2.543392e+01 1.737463e+01 2.690606e+01 9.999479e+00 4.272957e-01 1.869729e+00 1.328133e+00 1.310430e+00 1.583761e+00 4.089974e+00 2.002313e+00 2.808632e+00 2.180315e+00 2.368279e+00 1.221728e+00 2.001022e+00 1.045971e+00 5.980685e-02 2.750643e-01 1.485375e-01 2.425169e-01 1.784989e-01 4.012589e-01 3.633653e-01 4.426333e-01 3.184361e-01 5.136362e-01 1.856989e-01 3.759743e-01 2.547189e-01
<GCONST> 9.966331e+01
<STATE> 4
<MEAN> 39
 -5.748953e+00 -1.450025e+01 -9.972871e+00 -1.032117e+01 -3.860381e+00 -9.804158e+00 -5.252074e+00 -1.492394e+01 -2.660756e+00 -2.261614e+01 8.378986e-01 -1.128937e+01 7.717880e+01 -5.217532e-02 -7.554028e-03 1.720827e-01 -1.237785e-02 -3.028482e-01 -1.623172e-01 1.163250e-01 1.371542e-02 -3.153089e-01 -3.187354e-02 -2.007889e-01 8.134657e-02 -5.819352e-02 3.701228e-03 8.123447e-02 5.272368e-02 -8.295591e-02 -5.655309e-02 -7.846618e-02 1.123347e-01 7.347414e-03 -6.478642e-02 4.959828e-02 -7.529613e-02 2.882664e-02 -3.265124e-02
<VARIANCE> 39
 6.928241e+00 3.418152e+01 2.867873e+01 2.431404e+01 3.538294e+01 1.767722e+01 3.395164e+01 3.502898e+01 3.726762e+01 5.182755e+01 2.204041e+01 1.962940e+01 9.689464e+01 7.683013e-01 2.225985e+00 1.667284e+00 2.721887e+00 2.216274e+00 1.746771e+00 3.066335e+00 2.555985e+00 3.085256e+00 4.476948e+00 2.100012e+00 2.007904e+00 8.516999e+00 1.693162e-01 3.583069e-01 2.257172e-01 4.726245e-01 2.790185e-01 3.621742e-01 4.338794e-01 4.848261e-01 5.204491e-01 8.988869e-01 3.409507e-01 3.414176e-01 1.257885e+00
<GCONST> 1.155170e+02
<TRANSP> 5
 0.000000e+00 1.000000e+00 0.000000e+00 0.000000e+00 0.000000e+00
 0.000000e+00 4.968690e-01 5.031310e-01 0.000000e+00 0.000000e+00
 0.000000e+00 0.000000e+00 8.667722e-01 1.332277e-01 0.000000e+00
 0.000000e+00 0.000000e+00 0.000000e+00 9.640325e-01 3.596745e-02
 0.000000e+00 0.000000e+00 0.000000e+00 0.000000e+00 0.000000e+00
<ENDHMM>
~h "b"
<BEGINHMM>
<NUMSTATES> 5
<STATE> 2
<MEAN> 39
 -1.043973e+01 -6.617070e+00 -6.550971e+00 -7.853038e+00 -7.750615e+00 -7.385631e+00 -4.579643e+00 -3.564970e+00 -4.056346e+00 -7.542288e+00 -1.617702e+00 -2.175380e+00 5.487476e+01 9.125444e-02 -1.439278e-01 -4.575208e-03 -2.257655e-01 -2.734170e-01 -1.359265e+00 -1.632522e-01 1.315565e+00 6.992939e-01 -2.196191e+00 6.129937e-01 4.822603e-01 1.488826e+00 4.230616e-01 2.684917e-01 -8.213242e-02 -1.623569e-01 3.827276e-01 -9.033641e-01 -1.192947e-01 -6.303207e-01 1.180946e-01 -9.324784e-01 8.081229e-02 -4.166079e-01 9.240904e-01
<VARIANCE> 39
 9.817131e+00 8.051915e+00 2.556805e+01 4.355703e+01 4.529910e+01 4.769838e+01 3.076896e+01 6.037893e+01 3.434808e+01 3.348380e+01 2.447228e+01 3.508224e+01 1.176321e+02 1.327739e+00 2.858053e+00 2.059309e+00 2.946559e+00 2.993815e+00 3.041868e+00 2.786196e+00 2.596925e+00 3.400874e+00 7.675222e+00 3.136772e+00 2.412470e+00 2.852384e+00 2.884067e-01 6.610909e-01 1.625117e-01 3.884048e-01 8.200317e-01 3.570294e-01 7.382259e-01 9.311715e-01 6.356339e-01 1.016503e+00 5.440095e-01 5.788953e-01 1.132870e+00
<GCONST> 1.230065e+02
<STATE> 3
<MEAN> 39
 -1.118275e+01 -5.086109e+00 -4.167022e+00 -8.176414e+00 -7.425985e+00 -1.429667e+01 -4.370698e+00 -2.354295e+00 -2.541716e+00 -1.558340e+01 2.163045e+00 -2.597117e+00 5.948406e+01 2.077242e+00 9.342540e-01 -1.030235e+00 -9.219608e-01 8.547555e-01 -3.413884e+00 -4.450518e-01 -2.084863e+00 2.804299e-01 -3.122681e+00 5.914216e-02 -1.144826e+00 3.367897e+00 6.401780e-01 -1.329747e-01 -5.590626e-01 -4.722835e-01 3.854998e-01 -1.247378e-01 -5.165315e-02 -9.074717e-01 1.500839e-01 2.601687e-01 -4.508677e-01 -5.566528e-01 7.348239e-01
<VARIANCE> 39
 1.270175e+01 2.167814e+01 2.361636e+01 5.056619e+01 3.240385e+01 4.958791e+01 3.732369e+01 1.026028e+02 2.631416e+01 6.748168e+01 4.252304e+01 4.876744e+01 1.189893e+02 2.908235e+00 5.634069e+00 1.793132e+00 5.297949e+00 4.149363e+00 4.938789e+00 3.456453e+00 5.544308e+00 1.880260e+00 4.767881e+00 4.192322e+00 2.022161e+00 4.231654e+00 2.517170e-01 7.386826e-01 2.210417e-01 6.666249e-01 4.260461e-01 7.477766e-01 7.367064e-01 8.650382e-01 3.269252e-01 1.770449e+00 1.024717e+00 7.739143e-01 6.098090e-01
<GCONST> 1.302402e+02
<STATE> 4
<MEAN> 39
 -2.342178e+00 -5.983505e-01 -8.375751e+00 -1.429636e+01 -6.239044e+00 -2.199489e+01 -5.210237e+00 -1.031750e+01 -3.895300e+00 -1.861653e+01 -4.799008e-01 -5.927677e+00 6.773805e+01 2.247298e+00 -8.068494e-01 -1.858280e+00 -2.400713e+00 1.297557e+00 -1.858335e+00 2.829561e-01 -1.735684e+00 1.065091e+00 -1.789161e+00 -1.761969e-01 -1.747836e+00 4.462033e+00 -7.706332e-01 -9.955271e-01 -2.034945e-02 1.029358e-01 2.615083e-01 1.443937e+00 2.996626e-01 3.997636e-01 4.384615e-01 1.100524e-01 1.729147e-01 3.549358e-02 -9.074391e-02
<VARIANCE> 39
 2.959844e+01 6.129660e+01 4.183958e+01 4.732255e+01 3.057154e+01 8.582097e+01 4.815897e+01 6.163700e+01 2.668954e+01 5.836068e+01 2.279883e+01 1.965276e+01 6.982626e+01 2.888832e+00 6.335652e+00 1.566473e+00 5.813910e+00 3.565579e+00 5.392963e+00 4.384375e+00 3.905956e+00 2.398083e+00 7.155692e+00 3.571867e+00 2.522157e+00 5.069394e+00 5.601043e-01 7.505522e-01 3.477517e-01 5.293449e-01 6.313232e-01 9.156644e-01 1.076261e+00 9.449176e-01 3.695087e-01 1.099855e+00 5.024391e-01 3.117962e-01 4.099274e-01
<GCONST> 1.311825e+02
<TRANSP> 5
 0.000000e+00 1.000000e+00 0.000000e+00 0.000000e+00 0.000000e+00
 0.000000e+00 5.273043e-01 4.726957e-01 0.000000e+00 0.000000e+00
 0.000000e+00 0.000000e+00 3.795428e-01 6.204572e-01 0.000000e+00
 0.000000e+00 0.000000e+00 0.000000e+00 4.187272e-01 5.812728e-01
 0.000000e+00 0.000000e+00 0.000000e+00 0.000000e+00 0.000000e+00
<ENDHMM>
~h "e"
<BEGINHMM>
<NUMSTATES> 5
<STATE> 2
<MEAN> 39
 -1.353493e+01 -5.564518e-01 -2.651668e+01 -8.458572e+00 1.625307e+01 -4.181638e+00 -7.411209e+00 -4.559769e+00 -8.026128e-01 3.157248e+00 4.146094e-01 -1.141211e+01 6.901041e+01 -1.165481e+00 -2.864062e-01 -1.551225e+00 9.948759e-01 6.470643e-01 -4.997598e-01 1.857038e+00 1.559610e+00 1.436667e+00 2.833294e+00 1.615763e-01 1.563641e+00 4.043941e-01 5.224866e-01 -8.071829e-02 3.120690e-01 -1.193539e-01 -4.819113e-01 3.439032e-03 -2.930284e-01 -1.221034e+00 -1.363840e-01 -1.118750e+00 -1.274074e-01 -2.282015e-01 -3.121363e-01
<VARIANCE> 39
 7.625267e+00 8.519199e+00 1.217666e+01 1.867592e+01 1.912999e+01 1.854906e+01 1.951216e+01 4.130472e+01 2.884712e+01 2.772336e+01 1.892945e+01 2.119882e+01 1.482337e+01 1.236956e+00 7.427436e-01 1.323258e+00 1.472765e+00 1.921136e+00 1.405284e+00 2.328409e+00 5.688135e+00 3.683715e+00 5.223592e+00 1.692634e+00 1.936516e+00 1.069149e+00 1.835737e-01 1.660078e-01 2.502269e-01 2.866965e-01 4.138235e-01 2.200180e-01 4.791675e-01 6.119412e-01 8.817115e-01 5.127251e-01 4.318950e-01 3.348796e-01 2.158962e-01
<GCONST> 1.035778e+02
<STATE> 3
<MEAN> 39
 -1.066416e+01 -1.078557e+00 -2.750100e+01 -8.360504e+00 1.383809e+01 -1.018768e+01 -6.948171e+00 -1.345088e+01 2.542297e+00 1.467444e+00 -3.200298e+00 -7.513281e+00 6.709986e+01 1.324094e+00 2.227140e-01 7.004806e-01 -1.178428e+00 -7.499685e-01 -1.450473e+00 -1.519651e-01 -2.081636e+00 1.121373e+00 -1.433600e+00 -6.839147e-01 4.476371e-01 4.023136e-01 1.732714e-01 -6.463902e-02 3.451703e-01 -4.136932e-01 -1.302144e-01 -2.596388e-02 -1.741871e-02 -8.735340e-02 1.660379e-01 -4.548325e-01 1.687108e-02 -1.888181e-01 2.439564e-01
<VARIANCE> 39
 4.889516e+01 2.434580e+01 2.619260e+01 4.994004e+01 2.342001e+01 4.911327e+01 2.487393e+01 1.262350e+02 3.412650e+01 5.665830e+01 2.967382e+01 2.380567e+01 1.852897e+01 4.734432e+00 3.317197e+00 3.379926e+00 6.374678e+00 1.919492e+00 3.657434e+00 3.553010e+00 8.618991e+00 3.612617e+00 7.064361e+00 2.098826e+00 2.034417e+00 3.626680e+00 1.047351e+00 8.739662e-01 4.030003e-01 7.166176e-01 4.348295e-01 7.801608e-01 8.643825e-01 2.123489e+00 7.299678e-01 1.005624e+00 3.930830e-01 3.258955e-01 5.935094e-01
<GCONST> 1.305661e+02
<STATE> 4
<MEAN> 39
 -3.481303e+00 -4.526402e+00 -1.469878e+01 -2.012020e+01 4.275079e+00 -1.869669e+01 -3.750552e+00 -1.869011e+01 1.263695e+01 -1.292836e+01 -7.482233e+00 -7.909472e+00 7.563661e+01 -7.370891e-01 -1.472347e+00 1.376102e+00 2.780813e-01 -1.305712e+00 1.442610e-02 1.280922e+00 1.693721e+00 5.860252e-01 -1.093642e+00 2.570420e-01 -4.816607e-01 8.417426e-01 -1.505404e-01 8.100090e-02 -8.075416e-02 7.209259e-01 -4.151889e-02 2.152643e-02 -9.945584e-02 9.019899e-02 -6.045527e-01 4.591608e-02 3.892060e-02 1.144900e-01 -3.239443e-01
<VARIANCE> 39
 1.124014e+01 1.774681e+01 2.384148e+01 3.986092e+01 4.139211e+01 1.726348e+01 2.021511e+01 3.566268e+01 4.851371e+01 3.689381e+01 3.502594e+01 4.005237e+01 2.220011e+01 1.203208e+00 2.380848e+00 1.269502e+00 3.962415e+00 1.847976e+00 3.010072e+00 2.146287e+00 1.956809e+00 5.402445e+00 3.287891e+00 1.528813e+00 2.565468e+00 3.987898e+00 4.390867e-01 6.594073e-01 2.302236e-01 5.013682e-01 3.835397e-01 8.183119e-01 5.808989e-01 8.595519e-01 6.903554e-01 8.227295e-01 2.872432e-01 6.430391e-01 8.159421e-01
<GCONST> 1.185542e+02
<TRANSP> 5
 0.000000e+00 1.000000e+00 0.000000e+00 0.000000e+00 0.000000e+00
 0.000000e+00 5.778817e-01 4.221183e-01 0.000000e+00 0.000000e+00
 0.000000e+00 0.000000e+00 8.948352e-01 1.051648e-01 0.000000e+00
 0.000000e+00 0.000000e+00 0.000000e+00 8.460836e-01 1.539164e-01
 0.000000e+00 0.000000e+00 0.000000e+00 0.000000e+00 0.000000e+00
<ENDHMM>
~h "g"
<BEGINHMM>
<NUMSTATES> 5
<STATE> 2
<MEAN> 39
 -8.781230e+00 -6.490147e+00 7.791454e+00 -2.605512e+01 -1.680988e+01 -1.431215e+01 -3.843280e+00 -1.908924e+01 -1.102726e+01 -1.295802e+00 -1.651545e+01 -4.142563e+00 7.622047e+01 2.718839e-01 -1.383185e-01 -2.267396e-01 6.042905e-01 4.261948e-01 -1.020569e+00 7.598697e-01 -5.188180e-01 1.233213e-01 -6.322408e-02 -2.043381e-01 5.194868e-01 -2.633941e-01 1.398135e-01 8.886365e-02 -2.601343e-01 5.200420e-01 1.920734e-01 -2.439017e-01 -1.284305e-01 2.321804e-02 -9.260058e-03 -2.589778e-01 -6.185472e-04 2.761137e-01 -3.125188e-01
<VARIANCE> 39
 3.766234e+00 1.642806e+01 1.138000e+01 1.507907e+01 1.636411e+01 3.235530e+01 4.094074e+01 2.572168e+01 2.022646e+01 2.645504e+01 1.486394e+01 1.193510e+01 5.134676e+00 3.400490e-01 5.304201e-01 1.595723e+00 2.284591e+00 1.332368e+00 2.232806e+00 1.805166e+00 1.700247e+00 1.565670e+00 1.869761e+00 1.001987e+00 1.813702e+00 3.657292e-01 5.651302e-02 1.282538e-01 3.043821e-01 2.183644e-01 3.919881e-01 3.886073e-01 5.117300e-01 3.759261e-01 3.330908e-01 3.042438e-01 2.968806e-01 2.334847e-01 7.058831e-02
<GCONST> 9.095631e+01
<STATE> 3
<MEAN> 39
 -4.273008e+00 -4.769084e+00 -1.300294e+00 -1.201684e+01 -9.150324e+00 -2.081784e+01 -4.567630e+00 -2.038520e+01 -9.314777e+00 -5.743389e+00 -1.841790e+01 8.317243e-01 6.533992e+01 3.289810e-01 6.959651e-01 -1.813676e+00 1.974993e+00 1.173433e+00 1.479620e+00 -1.245108e+00 5.908951e-01 6.477364e-01 -4.440882e-01 8.034793e-01 -6.962021e-01 -3.055045e+00 -2.032091e-01 -5.169835e-02 7.340647e-03 -6.869794e-01 -4.366832e-01 9.027529e-01 2.182303e-01 2.169051e-01 -6.411921e-02 3.345445e-01 5.556877e-01 -4.081168e-01 -2.653522e-02
<VARIANCE> 39
 7.139430e+00 1.664519e+01 3.713277e+01 3.039366e+01 6.183178e+01 6.097599e+01 4.187427e+01 3.508590e+01 2.938940e+01 2.604929e+01 3.076966e+01 3.755186e+01 5.190512e+01 1.553512e+00 1.304076e+00 4.483194e+00 4.284555e+00 1.067807e+01 1.018299e+01 4.359784e+00 5.048317e+00 3.772607e+00 4.024670e+00 5.255415e+00 5.311646e+00 1.443063e+00 2.850992e-01 2.712897e-01 1.169637e+00 6.367519e-01 2.027400e+00 1.992314e+00 1.315564e+00 9.792660e-01 8.531714e-01 7.297274e-01 8.518934e-01 1.483179e+00 7.239112e-01
<GCONST> 1.327434e+02
<STATE> 4
<MEAN> 39
 -2.128248e+00 7.629465e-01 -1.567164e+01 -1.678169e+01 -6.678518e+00 -1.055723e+01 -3.608030e-01 -1.460355e+01 -1.014928e+01 -4.422133e+00 -1.210783e+01 2.232707e+00 5.833841e+01 9.284368e-01 1.600444e+00 -1.327693e+00 -1.380123e+00 2.573662e-01 -2.532527e-02 6.470577e-01 1.977938e-01 -9.005935e-01 3.444782e-01 -3.705254e-01 9.748180e-01 7.195073e-01 1.192268e-01 1.765223e-01 2.883649e-01 -7.865769e-02 -4.405778e-02 -3.293557e-01 -1.312651e-01 -2.609400e-01 -9.405497e-02 3.254576e-02 -3.117339e-01 6.274855e-02 4.042188e-01
<VARIANCE> 39
 2.195156e+01 4.028671e+01 9.653820e+01 5.906137e+01 4.982222e+01 3.555025e+01 4.599158e+01 3.673413e+01 4.196025e+01 2.635482e+01 3.147857e+01 4.126584e+01 2.452028e+01 2.549057e+00 3.138456e+00 1.552083e+01 6.851536e+00 6.986486e+00 6.216044e+00 6.778074e+00 4.897175e+00 5.364398e+00 3.162396e+00 4.576621e+00 4.785370e+00 4.539300e+00 5.359856e-01 5.342401e-01 3.164207e+00 1.599477e+00 1.682388e+00 1.169595e+00 1.437695e+00 8.625898e-01 1.289139e+00 6.523367e-01 7.509719e-01 1.083113e+00 8.113684e-01
<GCONST> 1.415237e+02
<TRANSP> 5
 0.000000e+00 1.000000e+00 0.000000e+00 0.000000e+00 0.000000e+00
 0.000000e+00 8.895646e-01 1.104353e-01 0.000000e+00 0.000000e+00
 0.000000e+00 0.000000e+00 8.072799e-01 1.927200e-01 0.000000e+00
 0.000000e+00 0.000000e+00 0.000000e+00 8.886284e-01 1.113716e-01
 0.000000e+00 0.000000e+00 0.000000e+00 0.000000e+00 0.000000e+00
<ENDHMM>
~h "h"
<BEGINHMM>
<NUMSTATES> 5
<STATE> 2
<MEAN> 39
 -1.931536e+00 -1.244640e+01 -1.507384e+01 -1.722065e+01 4.397016e+00 -4.798529e+00 -3.314800e+00 -2.584511e+01 1.053776e+01 -2.392414e+01 7.849721e-01 -1.602019e+01 7.771037e+01 3.441043e-01 5.699474e-01 -7.155687e-01 -7.958173e-01 5.224113e-01 9.641191e-01 -1.580427e-01 -1.124238e+00 7.406088e-01 1.850268e-01 7.729247e-01 -3.853957e-01 -3.348120e-01 -9.437703e-03 2.772115e-01 1.485271e-01 -1.054628e-02 -1.948553e-01 -8.201118e-02 -9.819467e-02 1.887505e-01 -4.397714e-01 -8.809800e-02 5.821141e-02 1.061529e-01 -1.290352e-01
<VARIANCE> 39
 4.403618e+00 1.168738e+01 9.928996e+00 1.899152e+01 1.243423e+01 1.757184e+01 1.244565e+01 2.710805e+01 2.020547e+01 2.131890e+01 2.631477e+01 1.900997e+01 6.189460e+00 1.331458e-01 8.810330e-01 5.118620e-01 5.396569e-01 1.430208e+00 7.001333e-01 9.317257e-01 1.641858e+00 2.515221e+00 1.436321e+00 1.046006e+00 1.125197e+00 1.533489e-01 2.447398e-02 8.529921e-02 1.136026e-01 9.845109e-02 1.627085e-01 1.252232e-01 1.869591e-01 2.036888e-01 2.992134e-01 2.648952e-01 1.909465e-01 1.977075e-01 2.555186e-02
<GCONST> 7.543307e+01
<STATE> 3
<MEAN> 39
 4.098724e-01 -3.379384e+00 -1.854992e+01 -2.327425e+01 4.203623e+00 9.629202e-01 -7.241149e+00 -2.874958e+01 9.245995e+00 -2.754108e+01 6.931336e+00 -1.662112e+01 7.275970e+01 2.951195e-01 1.894345e+00 1.616278e-01 3.785273e-01 -2.728701e-03 2.161137e-01 -2.015854e+00 6.402519e-02 -1.870804e+00 -6.964393e-01 9.403381e-02 4.885222e-02 -1.570665e+00 -2.642824e-01 -8.440839e-02 2.686248e-01 8.011296e-01 3.049611e-01 -2.938806e-01 -3.318831e-01 3.356622e-01 -7.138620e-01 6.544957e-01 -5.475178e-01 -8.765462e-02 -2.961116e-01
<VARIANCE> 39
 3.921794e+00 1.273341e+01 7.215950e+00 1.606744e+01 1.150387e+01 1.032261e+01 2.228267e+01 1.352911e+01 2.149175e+01 2.923803e+01 3.215495e+01 1.891263e+01 7.639960e+00 2.031888e-01 5.197728e-01 7.612818e-01 2.053926e+00 1.298191e+00 1.000344e+00 1.888551e+00 1.233359e+00 2.498041e+00 1.720942e+00 1.807264e+00 1.141074e+00 4.442173e-01 1.361788e-01 1.245566e-01 1.414293e-01 1.921654e-01 2.505517e-01 1.949439e-01 3.410889e-01 5.233983e-01 3.315746e-01 5.086941e-01 3.656241e-01 2.554862e-01 5.717702e-02
<GCONST> 8.695382e+01
<STATE> 4
<MEAN> 39
 -3.999431e+00 -9.274673e-02 -1.712245e+01 -1.397620e+01 1.024263e+01 -2.890867e+00 -1.583333e+01 -2.165430e+01 -2.123446e+00 -1.898812e+01 1.923976e+00 -1.833578e+01 6.636899e+01 -2.678219e+00 -2.443478e-01 -5.591809e-01 2.428186e+00 1.863006e+00 -1.815419e+00 1.998157e-01 4.475795e+00 -1.347913e+00 4.324594e+00 -1.611507e+00 3.473994e-01 -5.974895e-01 -4.399296e-01 -5.179609e-01 -4.148650e-01 -9.611481e-02 -2.011600e-01 -2.965856e-01 1.166221e+00 8.944010e-01 9.249040e-01 5.104716e-01 2.072085e-01 5.232718e-01 5.926902e-01
<VARIANCE> 39
 3.704127e+01 1.162430e+01 1.787176e+01 3.219658e+01 4.170972e+01 3.071254e+01 3.118766e+01 1.041111e+02 4.158693e+01 1.151825e+02 3.724329e+01 2.034732e+01 9.347748e+00 2.333188e+00 2.338563e+00 3.144325e+00 2.204603e+00 3.102942e+00 4.090953e+00 8.287816e+00 8.181099e+00 9.369572e+00 6.129255e+00 3.744756e+00 3.860708e+00 3.040975e+00 7.036132e-01 2.465989e-01 4.854499e-01 4.368798e-01 9.567522e-01 4.417996e-01 7.507076e-01 2.048002e+00 1.035107e+00 2.150495e+00 7.955206e-01 6.622796e-01 2.471037e-01
<GCONST> 1.299309e+02
<TRANSP> 5
 0.000000e+00 1.000000e+00 0.000000e+00 0.000000e+00 0.000000e+00
 0.000000e+00 9.107444e-01 8.925559e-02 0.000000e+00 0.000000e+00
 0.000000e+00 0.000000e+00 7.184720e-01 2.815280e-01 0.000000e+00
 0.000000e+00 0.000000e+00 0.000000e+00 7.232338e-01 2.767662e-01
 0.000000e+00 0.000000e+00 0.000000e+00 0.000000e+00 0.000000e+00
<ENDHMM>
~h "i"
<BEGINHMM>
<NUMSTATES> 5
<STATE> 2
<MEAN> 39
 -1.775174e+01 7.745756e+00 -5.685708e+00 -3.962870e+00 -7.877553e+00 -1.088018e+01 -8.461741e+00 -1.436005e+01 -9.440509e+00 -9.911306e+00 -7.159395e+00 -9.262012e+00 6.853528e+01 -3.985892e+00 5.534668e-03 -2.538081e+00 1.058377e+00 5.678346e-01 1.681113e+00 1.411226e+00 1.662221e+00 2.187414e+00 1.489031e+00 1.581812e+00 9.079973e-01 7.882699e-01 4.979148e-01 -1.784480e-01 4.423756e-01 -6.825336e-01 -2.434915e-01 -2.404283e-01 1.562477e-01 1.499849e-01 2.450165e-01 4.224462e-01 3.239814e-01 4.915172e-01 4.875149e-02
<VARIANCE> 39
 5.613265e+01 5.936568e+01 4.162055e+01 3.566347e+01 3.358212e+01 3.142522e+01 2.193948e+01 3.180984e+01 3.099107e+01 3.104021e+01 2.481192e+01 2.532175e+01 2.355635e+01 4.993159e+00 3.185752e+00 5.729843e+00 3.736659e+00 3.347484e+00 3.123084e+00 3.621560e+00 3.167301e+00 4.016110e+00 3.340348e+00 4.495744e+00 2.692890e+00 3.721307e+00 7.947363e-01 1.162462e+00 9.908369e-01 5.655583e-01 6.143082e-01 5.078244e-01 5.599121e-01 6.350639e-01 6.927304e-01 7.588917e-01 6.039164e-01 5.930671e-01 4.341522e-01
<GCONST> 1.287327e+02
<STATE> 3
<MEAN> 39
 -2.646873e+01 8.516245e+00 -8.663222e+00 -4.003396e+00 -7.538936e+00 -6.779622e+00 -4.532452e+00 -9.143045e+00 -3.006291e+00 -4.773544e+00 -1.712994e+00 -5.629853e+00 7.041184e+01 -5.387919e-01 -6.523339e-01 3.467178e-01 -6.088573e-01 -5.159225e-03 3.031248e-01 1.027702e+00 7.007720e-01 9.413450e-01 1.204203e+00 1.311017e+00 7.393292e-01 8.142386e-01 1.501182e+00 -3.653064e-01 9.337014e-01 -2.868419e-01 -1.222497e-01 -4.939131e-01 -2.959849e-01 -3.677835e-01 -7.602432e-01 -5.411391e-01 -3.190561e-01 -3.014719e-01 -9.160717e-02
<VARIANCE> 39
 2.923089e+01 2.573676e+01 2.187923e+01 3.076792e+01 2.559083e+01 2.734901e+01 2.044396e+01 2.378874e+01 2.464946e+01 2.071610e+01 1.984601e+01 1.626150e+01 1.307963e+01 6.751971e+00 3.570054e+00 3.676180e+00 2.197024e+00 2.541381e+00 2.443759e+00 2.244516e+00 2.547415e+00 3.107829e+00 2.400849e+00 2.305834e+00 1.890968e+00 1.507179e+00 1.057094e+00 5.789006e-01 8.171839e-01 4.949845e-01 5.791632e-01 4.936992e-01 4.274884e-01 4.882185e-01 6.864629e-01 6.256798e-01 4.517712e-01 3.694501e-01 3.078123e-01
<GCONST> 1.168387e+02
<STATE> 4
<MEAN> 39
 -1.551780e+01 2.797298e+00 -3.438622e+00 -8.489523e+00 -6.724374e+00 -1.328548e+01 -4.314287e+00 -1.432860e+01 -4.097987e+00 -2.051744e+00 -2.110695e+00 -4.571406e+00 7.235273e+01 1.474923e+00 -7.064648e-01 1.276286e+00 -6.576360e-02 -2.973377e-01 -3.342670e-01 1.168696e-01 4.059881e-03 -7.821379e-01 -9.838778e-01 1.319492e-01 -2.735251e-01 1.043069e-01 2.695314e-01 -1.078827e-01 -1.799762e-01 -1.027520e-01 -5.321775e-03 -1.818642e-01 -1.656686e-01 -1.060282e-01 -2.517866e-01 -6.652031e-01 -2.818269e-01 -1.950436e-01 -1.372098e-02
<VARIANCE> 39
 1.418122e+02 3.831120e+01 5.441640e+01 3.338477e+01 4.117619e+01 8.780369e+01 3.627696e+01 7.352142e+01 3.950377e+01 3.746021e+01 4.092182e+01 2.257146e+01 1.398699e+01 1.359673e+01 4.651305e+00 8.083640e+00 3.500987e+00 5.551245e+00 6.982692e+00 2.995561e+00 4.666710e+00 7.450661e+00 5.688768e+00 3.011870e+00 2.626787e+00 9.965562e-01 1.432752e+00 5.787226e-01 1.440020e+00 5.803630e-01 1.086958e+00 1.319154e+00 6.734657e-01 8.499669e-01 1.373174e+00 1.322832e+00 6.030532e-01 6.011477e-01 2.212585e-01
<GCONST> 1.377362e+02
<TRANSP> 5
 0.000000e+00 1.000000e+00 0.000000e+00 0.000000e+00 0.000000e+00
 0.000000e+00 5.750093e-01 4.249907e-01 0.000000e+00 0.000000e+00
 0.000000e+00 0.000000e+00 7.060109e-01 2.939891e-01 0.000000e+00
 0.000000e+00 0.000000e+00 0.000000e+00 7.277436e-01 2.722563e-01
 0.000000e+00 0.000000e+00 0.000000e+00 0.000000e+00 0.000000e+00
<ENDHMM>
~h "j"
<BEGINHMM>
<NUMSTATES> 5
<STATE> 2
<MEAN> 39
 -8.711271e+00 -8.266225e+00 -1.616061e-01 -1.637562e+01 -1.128444e+01 -1.736480e+01 -1.550235e-01 -1.201177e+01 -2.803766e+00 -9.950741e+00 1.722851e+00 -6.882496e+00 7.528818e+01 2.882601e-01 -1.620610e+00 -2.299678e+00 8.670918e-01 1.702304e+00 -2.758906e-01 4.751237e-01 5.625283e-01 2.449859e-01 -4.035432e+00 1.483819e-01 -1.453112e-01 1.295773e+00 2.647710e-01 3.971338e-01 -1.582660e-01 -1.425627e-01 6.914690e-01 -1.409374e-01 -4.969943e-01 -5.578607e-01 1.072330e-01 -6.359410e-01 -1.972773e-01 -3.127591e-01 -9.525849e-02
<VARIANCE> 39
 9.004993e+00 2.145398e+01 4.167685e+01 5.529847e+01 4.496944e+01 2.728069e+01 2.800668e+01 5.467051e+01 8.210938e+00 7.330020e+01 1.484393e+01 2.870591e+01 1.761093e+02 4.842498e-01 5.029778e+00 4.384189e+00 2.128515e+00 4.109270e+00 3.042403e+00 4.314785e+00 4.555370e+00 1.880457e+00 4.772695e+00 1.795962e+00 2.054629e+00 7.513111e-01 2.298778e-01 4.560752e-01 3.585330e-01 5.268424e-01 6.673287e-01 4.198104e-01 1.133816e+00 3.870721e-01 4.557443e-01 1.048907e+00 4.263884e-01 3.595501e-01 6.982940e-01
<GCONST> 1.196070e+02
<STATE> 3
<MEAN> 39
 -8.118409e+00 -1.114588e+01 -7.461308e+00 -1.304159e+01 -2.703408e+00 -1.556093e+01 -1.811268e+00 -1.251501e+01 -5.817841e-01 -2.383091e+01 5.457585e-01 -7.674086e+00 7.528757e+01 1.091286e+00 2.540444e-01 -1.602939e+00 -6.579287e-01 1.967720e+00 -1.822298e-01 -1.398478e+00 -1.820271e+00 1.333441e+00 -2.814168e+00 1.360263e-01 -1.438317e+00 1.360064e+00 2.377617e-01 3.128467e-01 1.188943e-01 -5.174171e-01 -2.679240e-01 9.887104e-02 -8.855633e-02 -2.729239e-01 2.812957e-01 1.041032e+00 1.037268e-01 -4.339476e-01 1.368898e-01
<VARIANCE> 39
 1.209298e+01 5.307550e+01 2.715279e+01 4.107647e+01 3.528007e+01 2.994114e+01 1.979312e+01 4.826237e+01 2.749903e+01 6.451324e+01 1.984460e+01 3.251447e+01 1.875315e+02 2.329118e+00 4.279057e+00 9.370233e-01 4.124965e+00 3.194469e+00 7.379313e+00 3.324693e+00 2.219757e+00 2.484235e+00 5.195357e+00 1.475504e+00 1.352830e+00 4.306949e+00 2.186772e-01 3.061764e-01 4.086922e-01 2.646535e-01 4.755465e-01 3.527871e-01 6.089149e-01 4.978418e-01 4.213223e-01 9.678048e-01 4.208173e-01 3.295371e-01 3.727816e-01
<GCONST> 1.199208e+02
<STATE> 4
<MEAN> 39
 -3.601471e+00 -8.050261e+00 -1.307662e+01 -1.780740e+01 2.146236e+00 -1.406820e+01 -5.700639e+00 -1.955508e+01 5.701989e+00 -2.459616e+01 2.204837e+00 -1.416614e+01 7.804819e+01 7.011149e-01 5.574819e-02 -7.731192e-01 -8.374726e-01 6.587999e-01 -7.177643e-03 -4.828555e-01 -6.902745e-01 1.193483e+00 6.197882e-02 4.194282e-01 -1.060973e+00 1.031852e+00 -2.512068e-01 -2.910750e-01 2.503012e-01 2.889546e-01 -2.437609e-01 1.788282e-01 1.827723e-01 3.394553e-01 -1.637977e-01 4.442072e-01 -2.269365e-01 3.170231e-01 -2.067669e-01
<VARIANCE> 39
 9.683686e+00 7.390178e+01 2.384038e+01 2.740176e+01 2.609960e+01 8.398473e+01 1.431952e+01 5.192771e+01 5.035696e+01 1.932629e+01 2.765489e+01 3.466958e+01 5.680393e+01 1.795056e+00 2.930929e+00 9.320269e-01 3.201575e+00 1.577180e+00 4.667647e+00 1.873685e+00 1.876896e+00 1.771689e+00 3.583528e+00 3.220649e+00 1.232886e+00 5.107305e+00 3.153819e-01 5.919619e-01 1.332915e-01 4.381160e-01 2.653139e-01 1.136501e+00 3.707040e-01 3.591036e-01 3.767155e-01 5.354746e-01 4.759528e-01 3.096628e-01 1.155090e-01
<GCONST> 1.142794e+02
<TRANSP> 5
 0.000000e+00 1.000000e+00 0.000000e+00 0.000000e+00 0.000000e+00
 0.000000e+00 5.802942e-01 4.197058e-01 0.000000e+00 0.000000e+00
 0.000000e+00 0.000000e+00 4.922678e-01 5.077322e-01 0.000000e+00
 0.000000e+00 0.000000e+00 0.000000e+00 7.873168e-01 2.126832e-01
 0.000000e+00 0.000000e+00 0.000000e+00 0.000000e+00 0.000000e+00
<ENDHMM>
~h "l"
<BEGINHMM>
<NUMSTATES> 5
<STATE> 2
<MEAN> 39
 -1.672324e+01 -7.683421e+00 -2.959295e+00 -6.954452e+00 -3.940935e+00 -1.224539e+01 -2.975322e+00 -8.305225e-01 -3.620870e+00 -5.897017e+00 -7.213168e-01 -3.140197e+00 5.585986e+01 3.490605e-02 -7.403526e-01 4.354337e-01 -1.992851e-01 -9.959138e-02 -1.101508e+00 2.184422e-01 8.224863e-01 -6.318361e-03 -5.564297e-01 3.371422e-01 1.461958e-01 1.064131e+00 4.870643e-02 -3.871099e-02 -5.113213e-02 -8.656345e-04 4.064119e-02 5.357097e-02 -4.923096e-02 1.026496e-03 -3.564654e-02 -3.245454e-02 8.726369e-02 -3.076742e-02 -1.232557e-01
<VARIANCE> 39
 4.519193e+01 4.422240e+01 5.079586e+01 6.435244e+01 4.938082e+01 5.247225e+01 5.078759e+01 7.698950e+01 4.310004e+01 5.946808e+01 2.310511e+01 2.620051e+01 9.344362e+01 4.132946e+00 2.987303e+00 5.123919e+00 5.727497e+00 3.914069e+00 4.499658e+00 5.131909e+00 4.339461e+00 3.320790e+00 4.049759e+00 2.622656e+00 2.993897e+00 5.212460e+00 8.001402e-01 5.202564e-01 9.540259e-01 1.117387e+00 7.487310e-01 8.567119e-01 1.031488e+00 8.820772e-01 6.752998e-01 7.650881e-01 5.568293e-01 5.626561e-01 9.961269e-01
<GCONST> 1.372921e+02
<STATE> 3
<MEAN> 39
 -1.734168e+01 -1.809319e+01 -3.620800e+00 -6.857337e+00 1.100103e+00 -1.541699e+01 -2.948174e+00 5.288122e+00 -5.023640e-02 -1.217793e+01 4.042395e+00 -5.813799e+00 5.935180e+01 -2.263037e-02 1.967957e-02 -8.279334e-02 2.795112e-02 1.537610e-01 8.601983e-02 1.214045e-01 -5.008521e-02 -1.182647e-01 -3.737861e-02 -4.681334e-03 -1.747671e-02 -7.727709e-02 6.148447e-02 1.349887e-01 -4.759110e-02 2.239522e-02 -9.786317e-02 3.523165e-02 -2.580002e-02 -7.610288e-02 -4.254406e-02 7.583760e-02 -8.962364e-02 6.165688e-02 -4.122804e-02
<VARIANCE> 39
 1.714071e+01 2.101450e+01 1.959355e+01 2.842820e+01 2.493069e+01 2.234672e+01 4.187757e+01 4.745788e+01 2.988036e+01 2.835352e+01 2.582137e+01 2.297703e+01 3.492781e+01 5.420510e-01 9.748943e-01 1.186510e+00 1.493735e+00 1.833380e+00 1.871735e+00 1.944475e+00 3.081575e+00 2.358413e+00 2.250966e+00 2.104391e+00 2.108502e+00 6.701015e-01 7.855457e-02 1.248900e-01 1.900073e-01 2.880416e-01 3.066406e-01 3.116669e-01 3.448728e-01 5.875204e-01 4.542337e-01 4.337710e-01 3.921634e-01 3.500217e-01 7.545362e-02
<GCONST> 1.025333e+02
<STATE> 4
<MEAN> 39
 -9.789407e+00 -8.403434e+00 -6.560033e+00 -9.560388e+00 -2.280544e+00 -1.753332e+01 -3.553656e+00 -4.183918e+00 -1.261586e+00 -1.526139e+01 4.327559e-02 -3.162211e+00 6.441812e+01 4.042754e-01 4.430462e-01 -8.461340e-02 -1.283507e-01 -5.901122e-01 2.669019e-01 9.454625e-02 -5.821894e-01 -2.556147e-01 -2.993548e-01 -5.473111e-02 2.811810e-01 4.679404e-01 -2.229750e-02 -1.926227e-01 -1.959743e-02 6.998114e-02 1.707063e-02 3.608699e-01 2.480965e-02 -1.183626e-01 -9.221926e-03 2.447529e-02 6.295624e-02 -1.432508e-01 -5.884774e-02
<VARIANCE> 39
 4.328386e+01 4.338878e+01 1.740401e+01 4.295124e+01 2.209152e+01 8.339625e+01 3.425222e+01 8.375065e+01 3.726688e+01 7.087681e+01 2.415944e+01 2.128684e+01 1.488741e+02 1.647755e+00 4.723291e+00 1.630658e+00 2.914705e+00 2.175632e+00 9.084254e+00 3.154632e+00 3.123107e+00 3.264916e+00 3.425726e+00 2.511782e+00 3.122900e+00 4.881120e+00 2.914142e-01 6.020963e-01 2.792808e-01 6.171944e-01 4.204243e-01 1.176755e+00 5.604989e-01 6.360058e-01 6.216278e-01 6.001058e-01 4.254917e-01 4.583641e-01 3.441452e-01
<GCONST> 1.264581e+02
<TRANSP> 5
 0.000000e+00 1.000000e+00 0.000000e+00 0.000000e+00 0.000000e+00
 0.000000e+00 8.015652e-01 1.984349e-01 0.000000e+00 0.000000e+00
 0.000000e+00 0.000000e+00 8.959369e-01 1.040631e-01 0.000000e+00
 0.000000e+00 0.000000e+00 0.000000e+00 6.336280e-01 3.663720e-01
 0.000000e+00 0.000000e+00 0.000000e+00 0.000000e+00 0.000000e+00
<ENDHMM>
~h "n"
<BEGINHMM>
<NUMSTATES> 5
<STATE> 2
<MEAN> 39
 -2.633231e+00 -5.354909e+00 -7.613599e+00 -1.084848e+01 -1.769202e+00 -1.752653e+01 -7.412595e+00 -1.320302e+01 -1.480145e+00 -1.543327e+01 -4.248840e+00 -9.067873e+00 7.164893e+01 -7.105230e-02 -7.127250e-01 -1.110341e+00 -6.160625e-01 1.500931e+00 9.504158e-01 2.952513e-01 -4.163625e-01 -1.238322e-01 -3.081212e-01 7.900532e-01 -7.046292e-01 4.275895e-01 1.022940e-02 3.650277e-01 7.339503e-01 -2.079499e-01 -6.072150e-01 6.624702e-01 -5.981725e-02 -4.803440e-01 -8.528886e-02 2.328923e-01 2.469672e-01 1.597811e-01 -3.171175e-01
<VARIANCE> 39
 9.363006e+00 4.625289e+01 7.356197e+01 1.794570e+01 5.375940e+01 3.465377e+01 3.514127e+01 4.765271e+01 8.722099e+01 7.638940e+01 2.809731e+01 3.959490e+01 2.842447e+01 1.681465e+00 5.707349e+00 1.202606e+01 2.914438e+00 8.899812e+00 3.607081e+00 7.168908e+00 5.038029e+00 7.724491e+00 3.888174e+00 4.960715e+00 6.662856e+00 3.223974e+00 2.237775e-01 4.430799e-01 9.499016e-01 7.623919e-01 1.038196e+00 8.374450e-01 9.884853e-01 7.878084e-01 1.691457e+00 8.318848e-01 5.548068e-01 7.392894e-01 2.838809e-01
<GCONST> 1.351650e+02
<STATE> 3
<MEAN> 39
 -2.767262e+00 -7.970741e+00 -1.004741e+01 -1.276904e+01 8.431883e-01 -1.397196e+01 -5.731404e+00 -1.484175e+01 -2.131958e+00 -1.803140e+01 -7.303520e-01 -9.788693e+00 7.316420e+01 -1.734373e-01 -5.510910e-01 2.900803e-02 -5.559914e-01 4.737902e-01 1.828428e+00 5.340412e-01 -8.806012e-01 2.157170e-02 -5.460363e-01 1.277347e+00 -3.149022e-01 1.237401e-02 6.209043e-02 3.129992e-01 6.393251e-01 3.357957e-01 -5.945172e-01 -5.198202e-02 -3.573186e-01 -1.296237e-02 4.080252e-01 1.776433e-01 -3.278530e-01 2.933633e-01 -3.405870e-01
<VARIANCE> 39
 1.273773e+01 7.343489e+01 6.220135e+01 1.933360e+01 3.402657e+01 3.189350e+01 2.780571e+01 7.402640e+01 6.912002e+01 7.237695e+01 2.994123e+01 3.770586e+01 2.900915e+01 7.067160e-01 4.139491e+00 4.056590e+00 2.121933e+00 3.386734e+00 1.504271e+00 3.055616e+00 1.888433e+00 2.773871e+00 2.599455e+00 2.936375e+00 4.401118e+00 1.420312e+00 1.569268e-01 4.122984e-01 5.398914e-01 2.477290e-01 4.349378e-01 4.369542e-01 7.291041e-01 8.086689e-01 7.688678e-01 7.710131e-01 4.613275e-01 6.122690e-01 3.511507e-01
<GCONST> 1.208643e+02
<STATE> 4
<MEAN> 39
 -4.467771e+00 -1.038090e+01 -5.408285e+00 -1.126053e+01 -1.589388e+00 -9.215667e+00 -5.584596e+00 -1.433290e+01 -4.259305e+00 -1.767150e+01 -5.076289e-01 -8.807115e+00 7.086092e+01 -2.057694e-01 -2.396355e-01 2.405235e-01 1.754582e-01 1.221943e-01 1.001153e+00 3.256576e-01 -3.402753e-01 6.261675e-01 2.859938e-01 5.091031e-01 2.364514e-02 -3.582806e-01 4.509630e-02 2.358850e-01 -2.350602e-02 2.336028e-01 -1.776490e-01 -6.076686e-01 -2.693112e-01 2.161226e-01 3.994818e-01 2.110184e-01 -2.958849e-01 1.433987e-01 -1.407638e-01
<VARIANCE> 39
 2.907669e+01 1.139067e+02 1.525486e+02 4.016264e+01 5.391003e+01 7.310898e+01 3.419729e+01 6.826817e+01 8.028040e+01 6.072058e+01 3.348252e+01 3.640245e+01 5.182979e+01 5.999162e-01 1.796414e+00 3.149023e+00 1.890593e+00 1.984877e+00 1.911424e+00 2.744382e+00 2.275938e+00 2.716750e+00 3.254000e+00 2.129548e+00 2.695130e+00 8.360397e-01 1.789909e-01 4.452324e-01 8.864821e-01 3.782373e-01 3.708573e-01 4.498765e-01 5.706033e-01 5.431873e-01 4.160995e-01 5.777258e-01 5.672835e-01 6.845338e-01 2.554281e-01
<GCONST> 1.225344e+02
<TRANSP> 5
 0.000000e+00 1.000000e+00 0.000000e+00 0.000000e+00 0.000000e+00
 0.000000e+00 4.267726e-01 5.732273e-01 0.000000e+00 0.000000e+00
 0.000000e+00 0.000000e+00 2.150566e-01 7.849434e-01 0.000000e+00
 0.000000e+00 0.000000e+00 0.000000e+00 2.838243e-01 7.161757e-01
 0.000000e+00 0.000000e+00 0.000000e+00 0.000000e+00 0.000000e+00
<ENDHMM>
~h "o"
<BEGINHMM>
<NUMSTATES> 5
<STATE> 2
<MEAN> 39
 -1.239905e+01 -1.138250e+01 -1.172927e+01 -3.163521e+00 4.108220e+00 -8.503586e+00 -1.226617e+01 -1.423187e+00 1.683850e+00 -5.138324e+00 -2.105427e+00 -6.418077e+00 5.093859e+01 3.569230e-01 1.038443e+00 -1.341813e-01 -2.592920e-01 -7.556411e-01 1.739296e+00 4.228824e-01 -1.550041e+00 -7.947908e-01 1.611323e+00 -3.782326e-01 3.158551e-01 -8.528126e-01 -1.586901e-01 1.150508e-01 2.680221e-01 -1.697699e-01 -2.037384e-01 1.217174e-02 3.790960e-01 -6.164524e-02 -1.233220e-01 -1.066354e-01 1.684225e-01 1.209955e-01 2.743910e-02
<VARIANCE> 39
 3.377797e+00 1.504867e+01 1.796250e+01 1.547276e+01 2.877262e+01 2.470032e+01 2.346992e+01 2.539760e+01 2.333160e+01 2.309316e+01 2.275971e+01 1.759192e+01 7.812596e+00 4.941025e-01 5.313280e-01 1.138590e+00 1.370588e+00 1.360427e+00 1.802768e+00 1.726415e+00 1.943338e+00 2.113246e+00 2.441249e+00 1.991364e+00 1.640509e+00 3.109628e-01 4.860095e-02 7.685044e-02 1.579015e-01 2.510497e-01 2.148242e-01 3.222376e-01 3.348981e-01 4.000365e-01 3.781416e-01 4.058589e-01 3.432007e-01 3.015670e-01 1.810051e-02
<GCONST> 8.974622e+01
<STATE> 3
<MEAN> 39
 -1.265146e+01 -6.204783e+00 -9.156261e+00 -5.519624e+00 -1.937985e-02 -2.742722e+00 -7.034467e+00 -5.722931e+00 -3.294536e+00 -1.507912e+00 -1.729562e+00 -3.829526e+00 4.825050e+01 -1.093554e-01 9.898422e-01 6.922112e-01 -5.770465e-01 -1.237211e+00 5.231529e-01 1.162366e+00 -4.139751e-01 -1.029158e+00 -1.095900e-01 -6.523687e-02 5.995139e-01 -3.893096e-01 7.211925e-02 1.134692e-02 7.838373e-02 -1.167020e-01 -1.985891e-02 -4.241617e-01 -1.129161e-01 2.025978e-01 8.813636e-02 -4.824023e-01 3.266651e-02 -3.769711e-02 2.467664e-01
<VARIANCE> 39
 4.539577e+00 9.266508e+00 2.225907e+01 1.562411e+01 2.297579e+01 1.306657e+01 2.217058e+01 1.412948e+01 1.936928e+01 1.410402e+01 1.300143e+01 1.412906e+01 3.930166e+00 5.027980e-01 7.664572e-01 1.489883e+00 1.279066e+00 1.583063e+00 1.971575e+00 1.992462e+00 2.069001e+00 2.033826e+00 2.266165e+00 1.803644e+00 1.573041e+00 4.931166e-01 2.742454e-01 1.762346e-01 3.789786e-01 3.597250e-01 3.531195e-01 3.823396e-01 3.963953e-01 5.548238e-01 3.395473e-01 4.074538e-01 3.370027e-01 2.941066e-01 7.048097e-02
<GCONST> 9.354034e+01
<STATE> 4
<MEAN> 39
 -2.132793e+00 1.852636e-01 -1.353376e+01 -2.060234e+01 -2.229969e+00 -7.446024e+00 -5.703595e+00 -1.495809e+01 -2.052578e+00 -1.159313e+01 -1.560626e+00 -4.748645e+00 6.496860e+01 5.746634e-01 -2.288014e-01 -1.723582e-01 -6.770516e-01 1.484135e-01 -8.865507e-01 -8.602491e-02 -6.636026e-01 8.837847e-01 -1.072925e+00 -2.712945e-01 -4.263712e-01 1.864504e+00 -1.608748e-01 -1.610895e-01 1.342438e-01 2.340037e-01 6.992876e-02 -1.583927e-01 3.467253e-02 2.403699e-01 6.904808e-02 -7.826220e-03 -5.263951e-02 8.349843e-02 -7.800701e-02
<VARIANCE> 39
 6.127539e+01 5.210215e+01 4.108133e+01 8.523573e+01 4.387471e+01 2.970628e+01 2.283896e+01 5.622047e+01 7.094727e+01 6.175640e+01 3.921587e+01 4.289768e+01 1.470475e+02 6.007401e+00 6.005925e+00 4.003210e+00 7.863919e+00 4.611994e+00 3.580599e+00 2.325049e+00 5.208230e+00 4.160995e+00 4.226099e+00 4.248265e+00 4.059618e+00 2.549615e+00 7.636756e-01 7.168402e-01 4.789981e-01 9.389309e-01 7.816565e-01 6.286240e-01 4.309376e-01 9.056883e-01 8.007184e-01 8.211737e-01 8.497152e-01 9.261544e-01 3.137298e-01
<GCONST> 1.371538e+02
<TRANSP> 5
 0.000000e+00 1.000000e+00 0.000000e+00 0.000000e+00 0.000000e+00
 0.000000e+00 7.709671e-01 2.290329e-01 0.000000e+00 0.000000e+00
 0.000000e+00 0.000000e+00 7.748324e-01 2.251676e-01 0.000000e+00
 0.000000e+00 0.000000e+00 0.000000e+00 8.270401e-01 1.729598e-01
 0.000000e+00 0.000000e+00 0.000000e+00 0.000000e+00 0.000000e+00
<ENDHMM>
~h "q"
<BEGINHMM>
<NUMSTATES> 5
<STATE> 2
<MEAN> 39
 -5.176725e+00 1.126593e+01 8.242395e+00 -1.909945e+01 -1.401507e+01 -7.802316e+00 -1.971160e+01 -1.174555e+01 -1.364825e+01 1.342381e+00 -1.893298e+01 -4.291237e+00 6.614888e+01 1.165809e+00 -3.909644e-01 -8.500260e-01 1.678552e+00 -5.528309e-01 -3.459337e-01 -2.736612e-01 7.499909e-02 -1.202726e-01 9.487495e-02 -9.885352e-02 2.730125e-01 -7.323922e-01 1.879971e-01 2.914391e-02 -1.297495e-01 1.229713e-01 2.034359e-01 -4.483211e-01 2.924368e-01 -1.844762e-01 1.282024e-01 -2.563176e-01 2.931002e-01 -1.969142e-01 -1.385298e-01
<VARIANCE> 39
 9.027127e+00 3.789582e+01 1.160248e+01 2.831374e+01 2.776253e+01 3.680627e+01 4.217355e+01 3.814781e+01 2.598475e+01 2.929709e+01 3.142820e+01 2.882805e+01 9.290093e+00 8.762584e-01 1.394546e+00 9.503264e-01 2.106380e+00 1.598912e+00 2.848936e+00 2.348652e+00 1.946207e+00 1.690741e+00 2.267088e+00 1.674748e+00 1.342144e+00 6.164404e-01 1.010749e-01 1.783142e-01 1.588787e-01 3.631662e-01 3.585724e-01 4.943437e-01 3.855191e-01 3.869868e-01 3.613414e-01 4.634491e-01 2.897935e-01 2.659041e-01 6.063429e-02
<GCONST> 1.012384e+02
<STATE> 3
<MEAN> 39
 2.222788e+00 9.599793e+00 3.740854e+00 -1.235515e+01 -1.271885e+01 -1.420634e+01 -1.708091e+01 -1.421324e+01 -1.258395e+01 -2.297509e+00 -1.613099e+01 -4.562581e+00 6.187535e+01 1.050514e+00 3.074978e-01 -4.525888e-01 8.357007e-01 8.113747e-01 -1.233781e+00 4.009400e-01 -6.511776e-01 1.396713e-01 -1.963028e+00 1.069063e+00 -8.580467e-01 -1.052032e+00 -6.789799e-01 1.428008e-01 2.694798e-01 -1.877355e-01 1.985680e-01 3.950568e-01 -1.411410e-02 -1.085224e-02 -1.059266e-01 -4.027894e-01 -3.549665e-03 -3.222909e-01 1.864094e-01
<VARIANCE> 39
 9.025690e+00 2.064546e+01 9.919332e+00 1.365572e+01 2.594700e+01 3.003395e+01 2.152811e+01 3.114704e+01 2.146481e+01 4.909624e+01 2.692057e+01 2.173336e+01 6.867135e+00 1.255013e+00 1.294975e+00 1.348735e+00 1.564034e+00 1.475561e+00 3.633334e+00 2.450508e+00 2.166240e+00 1.961388e+00 3.778528e+00 2.211025e+00 1.648266e+00 4.820762e-01 3.271942e-01 2.474985e-01 2.966965e-01 3.658090e-01 3.284833e-01 5.346075e-01 4.461087e-01 4.427098e-01 3.840294e-01 7.926645e-01 4.871871e-01 3.038820e-01 9.363193e-02
<GCONST> 1.038219e+02
<STATE> 4
<MEAN> 39
 -1.506680e+00 1.085421e+01 4.857218e+00 -9.234592e+00 -8.358350e+00 -1.441116e+01 -1.555410e+01 -1.689018e+01 -1.450652e+01 -1.146831e+01 -1.328337e+01 -1.075384e+01 5.995879e+01 -4.075816e+00 -4.745772e-01 -1.536834e+00 1.515501e+00 1.376593e+00 9.001905e-01 1.576776e+00 3.926627e-01 4.506785e-01 -9.832243e-01 9.043022e-01 -1.403054e+00 1.071054e+00 -1.338484e+00 -3.267085e-01 -1.082044e+00 6.317263e-02 -1.979500e-01 3.717544e-01 6.090205e-01 5.582581e-01 8.495317e-01 1.033019e+00 5.322362e-01 5.731930e-01 8.396360e-01
<VARIANCE> 39
 3.398139e+01 2.094109e+01 2.770959e+01 2.063375e+01 2.745456e+01 1.632088e+01 1.902655e+01 1.812247e+01 2.364956e+01 2.717495e+01 2.222393e+01 2.207751e+01 8.106295e+00 5.374044e+00 3.896055e+00 7.712060e+00 2.488127e+00 2.375813e+00 2.204210e+00 2.952969e+00 3.293297e+00 4.206370e+00 6.710536e+00 3.316792e+00 3.574678e+00 3.523191e+00 5.178761e-01 5.107384e-01 9.570863e-01 5.159224e-01 5.387036e-01 3.866171e-01 3.814362e-01 4.619730e-01 6.884980e-01 6.975706e-01 6.331530e-01 6.463006e-01 2.642725e-01
<GCONST> 1.199959e+02
<TRANSP> 5
 0.000000e+00 1.000000e+00 0.000000e+00 0.000000e+00 0.000000e+00
 0.000000e+00 7.737255e-01 2.262745e-01 0.000000e+00 0.000000e+00
 0.000000e+00 0.000000e+00 7.577607e-01 2.422393e-01 0.000000e+00
 0.000000e+00 0.000000e+00 0.000000e+00 7.067156e-01 2.932844e-01
 0.000000e+00 0.000000e+00 0.000000e+00 0.000000e+00 0.000000e+00
<ENDHMM>
~h "s"
<BEGINHMM>
<NUMSTATES> 5
<STATE> 2
<MEAN> 39
 -1.278119e+01 -6.897661e+00 -3.110081e+00 -6.671181e+00 -5.025659e+00 -9.276890e+00 -4.011853e+00 -1.890656e+00 -2.566682e+00 -1.084849e+01 -1.866120e+00 -1.270175e-01 5.326501e+01 1.987221e+00 1.514289e+00 1.499745e-01 -9.621944e-01 1.224929e+00 -2.088709e+00 -1.802023e-01 -1.152534e+00 -4.081778e-01 -3.275011e+00 -2.308842e-01 3.008806e-01 2.292944e+00 9.032308e-01 4.962723e-01 -3.800372e-01 -1.038511e+00 1.021150e-01 -7.635412e-01 -2.641871e-01 -9.367126e-01 -2.615340e-02 -1.701611e-01 -6.115317e-02 -6.481436e-01 1.161318e+00
<VARIANCE> 39
 1.423460e+01 1.474781e+01 1.074637e+01 2.622907e+01 1.258708e+01 3.838983e+01 2.995074e+01 4.539397e+01 1.760584e+01 2.879521e+01 2.937028e+01 3.912900e+01 1.121113e+02 2.808472e+00 4.006570e+00 3.052438e+00 5.158765e+00 3.422703e+00 4.751151e+00 2.000411e+00 5.354744e+00 2.176969e+00 2.638937e+00 1.900043e+00 2.482652e+00 2.783500e+00 2.547217e-01 2.992027e-01 2.833945e-01 6.579391e-01 4.418868e-01 1.088665e+00 3.231438e-01 3.301714e-01 3.396262e-01 5.895036e-01 4.915300e-01 4.353639e-01 3.974011e-01
<GCONST> 1.174198e+02
<STATE> 3
<MEAN> 39
 -9.753380e-01 7.732620e-01 -8.608554e+00 -1.782692e+01 -3.053065e+00 -1.802901e+01 -5.261264e+00 -1.179903e+01 -2.743549e+00 -1.716314e+01 -8.173854e-01 -4.428032e+00 6.575579e+01 1.744739e+00 -4.238422e-01 -1.707247e+00 -2.322047e+00 1.186762e+00 -2.148928e+00 1.569540e-01 -1.448949e+00 1.367899e+00 -1.423550e+00 4.094382e-01 -1.742865e+00 4.043184e+00 -7.639569e-01 -9.439594e-01 -2.015685e-02 4.946497e-01 -6.294939e-02 9.196184e-01 1.781699e-01 1.143625e-01 3.908159e-01 3.569889e-01 8.021398e-02 -1.719884e-01 -8.520944e-02
<VARIANCE> 39
 2.315723e+01 3.999672e+01 6.609536e+01 6.586721e+01 3.361611e+01 1.141289e+02 3.429448e+01 6.493821e+01 6.776369e+01 2.269910e+01 1.712663e+01 6.022100e+01 7.094474e+01 4.478799e+00 4.932949e+00 1.505657e+00 6.022215e+00 3.335424e+00 9.331540e+00 2.199117e+00 4.181764e+00 2.292662e+00 3.062002e+00 2.992441e+00 1.967993e+00 3.816954e+00 4.037035e-01 7.290345e-01 4.432186e-01 8.138807e-01 7.152795e-01 1.786088e+00 7.588736e-01 7.692794e-01 6.310863e-01 4.778069e-01 5.351149e-01 7.444091e-01 4.239368e-01
<GCONST> 1.318913e+02
<STATE> 4
<MEAN> 39
 -3.557916e+00 -9.014970e+00 -1.033156e+01 -1.596902e+01 -7.552112e-01 -2.058334e+01 -3.874525e+00 -1.360317e+01 3.810917e+00 -2.206833e+01 -1.589816e+00 -7.783629e+00 7.863143e+01 -4.862327e-01 -1.360992e+00 -1.500290e-01 5.450477e-01 -4.897154e-02 1.378890e+00 3.473231e-01 -5.259377e-01 4.362164e-02 -1.155076e+00 4.382664e-02 -3.491762e-01 1.114560e+00 -6.045862e-02 1.408633e-01 1.352368e-01 1.736214e-01 -8.109922e-02 2.700341e-01 -8.425708e-02 1.053617e-02 -2.301459e-01 1.090375e-01 1.207959e-01 1.818661e-02 -3.470064e-01
<VARIANCE> 39
 4.530859e+00 3.492427e+01 2.164284e+01 2.256572e+01 1.422486e+01 7.205157e+01 3.118378e+01 2.619231e+01 3.398799e+01 3.517953e+01 1.828510e+01 4.835337e+01 9.221644e+00 2.824688e-01 3.816237e+00 1.813437e+00 1.381562e+00 1.605753e+00 9.909863e+00 2.680939e+00 4.508101e+00 2.508662e+00 2.635810e+00 2.907809e+00 5.665536e+00 2.307757e+00 1.316373e-01 5.653241e-01 2.211805e-01 3.150750e-01 2.831184e-01 1.426419e+00 3.888449e-01 6.384191e-01 3.628007e-01 5.896243e-01 5.889279e-01 7.929607e-01 2.691972e-01
<GCONST> 1.132647e+02
<TRANSP> 5
 0.000000e+00 1.000000e+00 0.000000e+00 0.000000e+00 0.000000e+00
 0.000000e+00 4.654954e-01 5.345045e-01 0.000000e+00 0.000000e+00
 0.000000e+00 0.000000e+00 7.037846e-01 2.962154e-01 0.000000e+00
 0.000000e+00 0.000000e+00 0.000000e+00 8.571651e-01 1.428349e-01
 0.000000e+00 0.000000e+00 0.000000e+00 0.000000e+00 0.000000e+00
<ENDHMM>
~h "t"
<BEGINHMM>
<NUMSTATES> 5
<STATE> 2
<MEAN> 39
 -8.403195e+00 -6.640468e+00 -7.670532e+00 -1.035593e+01 -1.267213e+00 -1.889209e+01 -1.397259e+00 -1.198708e+01 3.486347e+00 -1.817358e+01 -4.621318e+00 -6.531406e+00 7.377383e+01 -6.765954e-01 -7.615523e-02 8.375283e-01 1.550907e+00 6.437923e-02 7.474158e-01 -3.788673e-01 2.163560e-01 -2.364661e+00 -7.460868e-01 1.503289e-01 3.496008e-01 -3.710471e-01 1.896941e-01 -6.015383e-03 -1.655777e-01 -2.655597e-01 2.969208e-01 1.210262e-01 -3.214015e-01 -5.067337e-01 -3.742005e-02 -2.539300e-01 -5.618599e-02 -3.060431e-01 6.289568e-02
<VARIANCE> 39
 2.840709e+01 2.747403e+01 2.340232e+01 4.024259e+01 2.154016e+01 6.250029e+01 3.323592e+01 3.958780e+01 8.596061e+01 6.871515e+01 3.142953e+01 2.606150e+01 3.115207e+01 2.895600e+00 4.951936e+00 2.650748e+00 2.230801e+00 3.401653e+00 6.399402e+00 6.300043e+00 6.543107e+00 6.924627e+00 1.440754e+01 4.276963e+00 3.599511e+00 5.148251e+00 7.224019e-01 1.188436e+00 5.164742e-01 4.287520e-01 4.440052e-01 1.331441e+00 1.566888e+00 1.372006e+00 1.783063e+00 3.097246e+00 8.871141e-01 5.571917e-01 1.138186e+00
<GCONST> 1.383314e+02
<STATE> 3
<MEAN> 39
 -5.470785e+00 -1.045835e+01 -1.415897e+01 -1.250373e+01 3.664476e+00 -1.073989e+01 -9.133683e+00 -2.343430e+01 1.923299e+00 -2.812768e+01 2.000490e+00 -1.718711e+01 7.812375e+01 7.724693e-01 1.142178e-01 -8.583723e-01 -7.358974e-01 9.691529e-02 1.916674e-01 -7.997060e-01 -7.496377e-01 9.362720e-01 -3.119443e-01 8.944836e-01 -9.382820e-01 9.641390e-02 -6.845006e-02 1.148192e-01 1.620793e-01 6.095571e-02 -1.454589e-01 -1.407839e-01 1.384161e-01 3.753716e-01 1.268414e-02 3.810750e-01 -1.300461e-01 3.253723e-01 -1.377343e-01
<VARIANCE> 39
 1.099609e+01 9.512426e+00 3.641675e+01 2.156362e+01 1.215585e+01 2.542125e+01 2.633142e+01 2.769835e+01 5.522073e+01 2.077587e+01 5.008376e+01 3.206358e+01 6.921197e+00 6.191496e-01 1.118458e+00 2.805813e+00 1.503178e+00 1.518246e+00 2.483312e+00 2.160393e+00 4.108155e+00 4.199187e+00 3.436305e+00 3.470261e+00 2.988372e+00 7.242973e-01 9.718665e-02 1.330034e-01 5.269859e-01 3.049269e-01 2.943752e-01 4.653506e-01 4.283724e-01 3.875783e-01 1.010858e+00 6.411662e-01 8.257727e-01 4.788447e-01 4.883027e-02
<GCONST> 1.066068e+02
<STATE> 4
<MEAN> 39
 -1.824014e+00 -2.067412e+00 -2.466664e-01 -1.345797e+01 -5.635430e+00 -1.243834e+01 -1.095395e+01 -1.630476e+01 -6.748622e+00 -1.410762e+01 -5.406403e+00 -1.121622e+01 6.912278e+01 -1.873725e-01 5.240085e-01 1.728419e+00 3.472055e-01 -1.303534e+00 -3.136330e-01 8.135465e-01 7.889628e-01 -1.253142e+00 1.359732e+00 -1.134161e+00 8.962374e-01 -6.021172e-01 4.332663e-02 -7.593232e-02 -3.808386e-01 1.272577e-01 1.581648e-01 2.654985e-02 4.705264e-02 -8.974478e-02 2.591963e-01 -1.992398e-01 2.394910e-01 -2.110254e-01 6.251440e-02
<VARIANCE> 39
 1.782886e+01 2.613011e+01 1.268193e+02 4.167611e+01 6.319751e+01 4.266725e+01 5.290132e+01 2.685665e+01 9.079576e+01 9.742765e+01 6.102814e+01 3.374466e+01 2.738277e+01 2.612649e+00 2.218471e+00 1.024829e+01 6.971928e+00 5.039017e+00 6.597969e+00 5.781098e+00 3.357056e+00 9.234157e+00 6.590227e+00 5.486834e+00 5.135437e+00 2.862284e+00 5.943376e-01 3.264461e-01 2.103837e+00 1.510966e+00 1.504909e+00 1.299196e+00 1.239026e+00 6.376724e-01 1.320265e+00 1.035734e+00 7.214130e-01 9.501321e-01 3.641653e-01
<GCONST> 1.414514e+02
<TRANSP> 5
 0.000000e+00 1.000000e+00 0.000000e+00 0.000000e+00 0.000000e+00
 0.000000e+00 8.721889e-01 1.278111e-01 0.000000e+00 0.000000e+00
 0.000000e+00 0.000000e+00 9.206643e-01 7.933573e-02 0.000000e+00
 0.000000e+00 0.000000e+00 0.000000e+00 9.110493e-01 8.895070e-02
 0.000000e+00 0.000000e+00 0.000000e+00 0.000000e+00 0.000000e+00
<ENDHMM>
~h "u"
<BEGINHMM>
<NUMSTATES> 5
<STATE> 2
<MEAN> 39
 3.638468e+00 1.047899e+01 -1.542822e+01 -2.307422e+01 -6.833531e+00 -9.305210e+00 -8.729141e-01 -1.909799e+01 -1.311800e+01 -4.680754e+00 -1.587536e+01 5.179916e+00 6.693858e+01 -2.394929e-01 -6.893371e-01 2.242618e-01 6.509842e-01 5.720204e-01 5.864548e-01 -5.902300e-01 -6.395188e-01 8.017060e-01 2.352712e-01 6.592069e-01 -6.208722e-01 3.130477e-01 -2.170727e-01 -3.911658e-01 1.811073e-01 4.786774e-01 1.307233e-01 -1.995320e-01 -1.885088e-01 2.285664e-01 1.702102e-01 1.303255e-01 2.356669e-01 -3.632212e-01 -1.612117e-01
<VARIANCE> 39
 6.485557e+00 1.746997e+01 1.932186e+01 2.031295e+01 2.210392e+01 3.991194e+01 1.817488e+01 2.122092e+01 3.716661e+01 3.240718e+01 3.616619e+01 2.402122e+01 6.227525e+00 5.367163e-01 1.806960e+00 1.710816e+00 3.460148e+00 3.219740e+00 3.792014e+00 2.985806e+00 2.629563e+00 3.189034e+00 5.578004e+00 3.328387e+00 3.348863e+00 5.866107e-01 1.246723e-01 2.343110e-01 6.236702e-01 3.466977e-01 7.198667e-01 9.603042e-01 5.073833e-01 8.381095e-01 6.784981e-01 1.092506e+00 5.756772e-01 6.095622e-01 1.147516e-01
<GCONST> 1.120733e+02
<STATE> 3
<MEAN> 39
 -1.027747e+00 3.024292e+00 -5.487027e-01 -9.924059e+00 -7.067865e+00 -1.172058e+01 -9.945593e+00 -1.478754e+01 -8.476393e+00 -1.631487e+00 -8.196222e+00 -8.295576e+00 6.466150e+01 -7.703069e-01 -2.451035e-01 3.102332e+00 9.261287e-01 -1.696615e+00 -6.346703e-01 -2.831451e-01 1.569390e+00 -6.587923e-02 -5.973365e-01 7.160091e-01 -1.650702e+00 -2.573593e-01 2.361153e-02 2.672986e-01 8.616587e-02 -4.890520e-01 -4.362186e-01 3.736126e-01 4.649189e-01 -8.595560e-02 -1.035902e-01 -5.296555e-01 -5.682258e-02 4.747505e-01 7.070513e-03
<VARIANCE> 39
 1.316501e+01 2.117464e+01 1.265003e+02 5.203174e+01 6.368880e+01 4.126621e+01 2.146403e+01 4.825942e+01 2.833108e+01 4.261674e+01 2.635228e+01 3.302785e+01 1.879001e+01 2.202345e+00 2.953495e+00 8.332705e+00 8.464856e+00 7.505934e+00 7.032179e+00 4.126076e+00 6.142264e+00 2.486281e+00 6.123598e+00 2.107653e+00 4.325676e+00 1.665151e+00 5.170502e-01 5.519873e-01 2.473436e+00 1.437292e+00 2.197701e+00 1.457535e+00 6.673378e-01 1.370838e+00 4.766400e-01 1.649391e+00 3.822530e-01 4.770251e-01 3.056791e-01
<GCONST> 1.344474e+02
<STATE> 4
<MEAN> 39
 -4.557491e+00 1.845109e+00 6.112185e+00 -9.743720e+00 -1.277582e+01 -1.354497e+01 -5.247846e+00 -1.332687e+01 -7.290050e+00 -6.571109e+00 -4.323928e+00 -9.990981e+00 6.704686e+01 6.689791e-02 -5.203165e-01 -1.236117e+00 -1.084463e-02 8.348087e-01 -5.964432e-01 3.822721e-01 -2.083530e-01 1.169928e+00 -3.449700e-01 2.753395e-01 -1.013950e-01 5.768495e-01 1.713606e-01 5.483291e-02 -6.010642e-01 -1.367687e-01 5.374414e-01 8.377369e-02 -1.660787e-01 -2.349539e-01 1.601568e-01 1.394376e-01 -2.623542e-02 -3.733248e-02 -1.442183e-02
<VARIANCE> 39
 2.089639e+01 2.435701e+01 9.625526e+01 4.911111e+01 5.877332e+01 4.601738e+01 5.309457e+01 2.517181e+01 5.208775e+01 3.479344e+01 2.414456e+01 1.974041e+01 2.455835e+01 3.547176e+00 2.794880e+00 1.703198e+01 8.817755e+00 1.163317e+01 6.683339e+00 7.164140e+00 3.563032e+00 7.390604e+00 5.706470e+00 2.238877e+00 1.876684e+00 2.171560e+00 7.347121e-01 5.008841e-01 2.402997e+00 2.086732e+00 1.939358e+00 1.531568e+00 1.640674e+00 7.892781e-01 1.358676e+00 1.228410e+00 4.473843e-01 4.347073e-01 3.251470e-01
<GCONST> 1.389042e+02
<TRANSP> 5
 0.000000e+00 1.000000e+00 0.000000e+00 0.000000e+00 0.000000e+00
 0.000000e+00 8.995658e-01 1.004341e-01 0.000000e+00 0.000000e+00
 0.000000e+00 0.000000e+00 8.389140e-01 1.610860e-01 0.000000e+00
 0.000000e+00 0.000000e+00 0.000000e+00 9.080843e-01 9.191567e-02
 0.000000e+00 0.000000e+00 0.000000e+00 0.000000e+00 0.000000e+00
<ENDHMM>
~h "w"
<BEGINHMM>
<NUMSTATES> 5
<STATE> 2
<MEAN> 39
 -1.634358e+01 -9.687065e+00 -3.657069e+00 -6.306144e+00 -5.738423e+00 -1.209784e+01 -3.607233e+00 -8.611306e-01 -3.753150e+00 -4.312106e+00 -2.122634e+00 -3.036275e+00 5.327034e+01 9.426635e-03 -1.050764e+00 2.209619e-01 -1.321926e-01 2.888985e-01 -8.023382e-01 4.490137e-02 7.956975e-01 3.828320e-01 -4.137537e-01 1.897432e-02 4.727232e-02 7.480530e-01 1.924602e-02 1.165217e-02 -8.476120e-02 5.955603e-02 1.027919e-01 1.000298e-01 -1.179915e-01 2.226450e-02 5.113748e-02 -1.015796e-01 1.782297e-02 -2.347129e-02 -1.518180e-01
<VARIANCE> 39
 2.448020e+01 6.516590e+01 4.476263e+01 5.166199e+01 4.250095e+01 5.267440e+01 6.107161e+01 6.663116e+01 5.596515e+01 3.176802e+01 2.787800e+01 2.383966e+01 5.758176e+01 3.078816e+00 3.534933e+00 4.182693e+00 5.171278e+00 3.631814e+00 4.866367e+00 6.182241e+00 4.183857e+00 4.208088e+00 3.742353e+00 2.840226e+00 2.645770e+00 5.541387e+00 6.262387e-01 7.068858e-01 6.944706e-01 9.616119e-01 6.217020e-01 9.393251e-01 1.151048e+00 8.416652e-01 8.051385e-01 7.270150e-01 5.650945e-01 5.355281e-01 1.034474e+00
<GCONST> 1.354455e+02
<STATE> 3
<MEAN> 39
 -1.670729e+01 -1.728060e+01 -5.383611e+00 -4.914266e+00 4.126614e+00 -1.715141e+01 -8.368006e+00 6.720692e+00 4.063259e+00 -1.269441e+01 1.685099e+00 -4.552559e+00 5.626434e+01 -7.119721e-02 3.884124e-02 -1.919617e-01 -4.433887e-02 4.890724e-01 2.449725e-02 -8.395981e-02 -2.364929e-01 1.944396e-01 -2.324578e-01 2.861784e-01 -2.629362e-01 1.539068e-01 4.365816e-02 5.155560e-02 -4.245041e-02 1.265899e-02 -7.720895e-02 4.754639e-02 -2.428677e-03 -6.655010e-02 -5.158141e-02 1.129603e-01 -5.193813e-02 -1.515984e-04 -2.568949e-02
<VARIANCE> 39
 1.248050e+01 8.389626e+00 2.101043e+01 3.044047e+01 2.507477e+01 1.403032e+01 2.906425e+01 3.111628e+01 3.085296e+01 2.748049e+01 2.941243e+01 2.085541e+01 1.321682e+01 2.760046e-01 3.916297e-01 8.626916e-01 1.267325e+00 1.641742e+00 1.280510e+00 1.742871e+00 1.947866e+00 2.533922e+00 2.282041e+00 2.058561e+00 1.502329e+00 2.553038e-01 3.583583e-02 8.449399e-02 1.417736e-01 2.269420e-01 2.899249e-01 2.664151e-01 3.248869e-01 4.011931e-01 5.226499e-01 4.187677e-01 3.923604e-01 3.102996e-01 3.237527e-02
<GCONST> 9.166067e+01
<STATE> 4
<MEAN> 39
 -1.671747e+01 -1.440324e+01 -8.516656e+00 -6.597869e+00 7.901509e+00 -1.492611e+01 -9.405285e+00 3.199470e+00 4.005401e+00 -9.973518e+00 2.303945e+00 -7.603184e+00 5.640178e+01 6.391158e-01 3.998789e-01 -7.521271e-01 4.642285e-01 7.408777e-02 6.958209e-01 -7.603239e-01 -4.314406e-01 -3.024734e-01 7.220242e-01 -5.468309e-01 -2.142164e-01 -6.212852e-01 9.785034e-02 1.243886e-01 -1.910625e-02 6.558700e-03 -9.514150e-02 2.549811e-01 1.897728e-02 -1.514846e-01 -1.629025e-01 2.209153e-01 -1.215851e-01 1.157437e-01 -1.377114e-01
<VARIANCE> 39
 1.258152e+01 3.233211e+01 2.277864e+01 3.089444e+01 2.092830e+01 1.999751e+01 3.498406e+01 2.318361e+01 4.564413e+01 4.584587e+01 2.890442e+01 2.064753e+01 2.110026e+01 4.394646e-01 5.340574e-01 9.858216e-01 1.403541e+00 1.288611e+00 1.641625e+00 1.767179e+00 1.887312e+00 2.139743e+00 1.929487e+00 1.808472e+00 1.807199e+00 3.495393e-01 6.317858e-02 9.454046e-02 1.660864e-01 2.679040e-01 2.874962e-01 3.164323e-01 3.482252e-01 4.247556e-01 4.075246e-01 4.090244e-01 3.135918e-01 3.720051e-01 3.008603e-02
<GCONST> 9.645905e+01
<TRANSP> 5
 0.000000e+00 1.000000e+00 0.000000e+00 0.000000e+00 0.000000e+00
 0.000000e+00 8.783722e-01 1.216278e-01 0.000000e+00 0.000000e+00
 0.000000e+00 0.000000e+00 9.354504e-01 6.454963e-02 0.000000e+00
 0.000000e+00 0.000000e+00 0.000000e+00 7.688949e-01 2.311051e-01
 0.000000e+00 0.000000e+00 0.000000e+00 0.000000e+00 0.000000e+00
<ENDHMM>
~h "x"
<BEGINHMM>
<NUMSTATES> 5
<STATE> 2
<MEAN> 39
 -5.814244e+00 -9.099369e+00 -5.612801e+00 -1.490191e+01 -7.622192e+00 -1.614598e+01 -1.305889e+00 -1.543221e+01 -7.395440e+00 -1.821288e+01 -3.596809e+00 -7.854856e+00 7.825683e+01 -6.075163e-02 6.702186e-01 4.104834e-01 -1.983619e-01 -4.573153e-01 -2.726595e-01 2.005764e-01 -2.689120e-01 -3.043097e-01 5.492487e-01 -4.653966e-02 -1.448860e-01 -3.106690e-01 -1.179951e-01 2.909820e-01 7.276410e-02 1.603195e-01 -5.191300e-02 -2.128847e-02 -2.763266e-01 6.365855e-02 2.906683e-02 1.381525e-01 6.967536e-02 3.398582e-03 -1.205853e-01
<VARIANCE> 39
 1.484561e+01 7.462832e+01 4.560545e+01 2.354260e+01 3.926739e+01 6.973249e+01 4.213350e+01 3.205794e+01 4.795753e+01 7.227009e+01 5.585873e+01 3.280564e+01 2.230223e+01 7.007166e-01 2.243008e+00 2.362337e+00 2.208385e+00 2.144390e+00 3.764098e+00 2.796114e+00 1.950188e+00 2.830868e+00 3.039617e+00 2.589058e+00 1.776250e+00 7.572811e-01 1.598851e-01 2.595114e-01 2.571836e-01 3.888422e-01 3.172017e-01 5.227185e-01 5.658463e-01 3.550150e-01 4.073325e-01 5.175674e-01 3.914491e-01 3.894481e-01 1.040898e-01
<GCONST> 1.142603e+02
<STATE> 3
<MEAN> 39
 -6.829955e+00 -1.011972e-01 1.180289e+00 -1.595222e+01 -1.286767e+01 -1.937769e+01 -5.010854e+00 -1.636012e+01 -1.156118e+01 -1.132363e+01 -5.518414e+00 -6.692981e+00 7.404029e+01 -9.815230e-01 2.032763e+00 2.519604e-01 1.170692e+00 -4.895223e-01 4.972959e-01 -1.069738e+00 -3.495848e-01 -5.506514e-01 1.862880e-01 3.233247e-02 -1.878342e-01 -8.149010e-01 -4.845763e-01 2.003258e-01 -4.627450e-01 7.031127e-01 3.177901e-01 5.518299e-01 -2.103336e-01 7.156212e-02 1.806867e-01 -1.646273e-01 -6.056798e-02 -9.811385e-02 -3.295655e-02
<VARIANCE> 39
 2.227020e+01 5.821717e+01 3.416964e+01 3.054333e+01 3.391401e+01 7.207130e+01 4.596594e+01 2.913106e+01 3.986658e+01 4.297907e+01 5.969064e+01 3.115834e+01 1.884260e+01 1.654483e+00 4.982136e+00 2.837069e+00 3.660849e+00 1.965602e+00 3.870068e+00 3.948127e+00 2.050307e+00 3.199147e+00 3.719797e+00 3.142731e+00 2.681971e+00 1.197688e+00 2.450553e-01 3.640850e-01 3.163543e-01 6.296974e-01 4.543434e-01 7.546020e-01 7.247211e-01 5.043978e-01 6.174021e-01 5.602350e-01 7.670893e-01 4.909914e-01 1.976557e-01
<GCONST> 1.222994e+02
<STATE> 4
<MEAN> 39
 -1.305733e+01 7.198706e+00 -1.853060e+00 -7.369406e+00 -1.244595e+01 -1.394839e+01 -7.792116e+00 -1.609800e+01 -1.036267e+01 -1.081908e+01 -4.967943e+00 -6.545631e+00 7.190539e+01 -2.259919e+00 1.672764e+00 -1.155008e+00 2.472790e+00 8.881291e-01 2.005782e+00 -6.943727e-01 3.082926e-01 1.755784e-01 -2.431756e-02 -5.437493e-01 -5.354089e-01 -6.232466e-01 -2.111062e-01 -5.657663e-01 -3.271782e-01 -1.208964e-01 3.786938e-01 1.243700e-01 3.429118e-01 3.638755e-01 3.334591e-01 2.623814e-01 -4.517995e-02 1.143714e-01 6.504592e-02
<VARIANCE> 39
 6.335451e+01 4.527289e+01 3.508810e+01 5.554989e+01 3.811040e+01 6.807732e+01 2.323269e+01 3.865285e+01 3.562074e+01 3.091589e+01 3.514668e+01 2.013614e+01 1.631531e+01 3.967566e+00 5.147734e+00 2.215872e+00 4.959476e+00 2.755421e+00 5.152982e+00 3.548791e+00 3.448340e+00 3.501445e+00 3.771686e+00 3.629101e+00 3.435212e+00 1.653476e+00 3.253268e-01 5.563476e-01 4.291825e-01 5.907897e-01 5.687901e-01 6.725482e-01 5.881150e-01 7.613267e-01 5.553635e-01 4.985646e-01 5.295613e-01 4.269256e-01 1.683541e-01
<GCONST> 1.250128e+02
<TRANSP> 5
 0.000000e+00 1.000000e+00 0.000000e+00 0.000000e+00 0.000000e+00
 0.000000e+00 7.397217e-01 2.602783e-01 0.000000e+00 0.000000e+00
 0.000000e+00 0.000000e+00 6.513661e-01 3.486339e-01 0.000000e+00
 0.000000e+00 0.000000e+00 0.000000e+00 4.582036e-01 5.417964e-01
 0.000000e+00 0.000000e+00 0.000000e+00 0.000000e+00 0.000000e+00
<ENDHMM>
~h "y"
<BEGINHMM>
<NUMSTATES> 5
<STATE> 2
<MEAN> 39
 -1.560504e+01 -1.273040e+01 -3.822099e+00 -4.463548e+00 -3.378780e+00 -1.273614e+01 -4.860626e+00 2.695540e+00 -3.110574e+00 -7.836765e+00 7.723634e-01 -3.221606e+00 5.317863e+01 -5.581144e-02 -1.486786e-01 2.150306e-01 -3.028728e-01 -1.633664e-02 -1.509376e-01 2.350541e-01 -8.786857e-02 7.456614e-02 6.654215e-02 5.940368e-02 -9.514328e-02 4.254865e-01 3.535651e-02 -5.285233e-03 -1.466493e-02 -5.195447e-02 -4.806835e-05 2.297815e-02 1.814814e-02 -1.202075e-02 2.132387e-02 2.357326e-02 -2.448138e-03 -1.969686e-02 1.135840e-02
<VARIANCE> 39
 1.638153e+01 5.464938e+01 2.682640e+01 2.904680e+01 2.745633e+01 4.913773e+01 2.961289e+01 7.023543e+01 3.428767e+01 4.570342e+01 2.934355e+01 1.656992e+01 3.407648e+01 1.243649e+00 2.124084e+00 1.988250e+00 2.859229e+00 2.450622e+00 2.740629e+00 2.520264e+00 3.905069e+00 2.875489e+00 3.152051e+00 1.978258e+00 1.746210e+00 3.214144e+00 2.182388e-01 3.267212e-01 3.495357e-01 4.967867e-01 4.018272e-01 4.539173e-01 4.519781e-01 7.050401e-01 5.500262e-01 5.796829e-01 3.530703e-01 3.536002e-01 4.890988e-01
<GCONST> 1.173883e+02
<STATE> 3
<MEAN> 39
 -1.704788e+01 -1.551523e+01 -7.561334e-01 -7.584729e+00 -3.270206e+00 -1.296750e+01 -7.289939e-01 1.526285e+00 -1.370140e+00 -7.187527e+00 2.084911e+00 -3.356528e+00 5.703805e+01 1.013592e-01 2.466373e-01 -7.215349e-02 1.324213e-01 1.633810e-02 2.521650e-01 -1.064894e-01 -1.782594e-01 -1.975100e-02 7.171111e-03 -1.106943e-01 5.055841e-02 -2.736209e-01 5.126129e-02 1.252998e-01 -2.654955e-03 -2.242787e-02 1.598508e-02 -1.920197e-02 -5.757456e-02 -1.093715e-01 -3.350928e-02 -4.646523e-02 -2.240367e-02 -2.397824e-02 5.141571e-03
<VARIANCE> 39
 1.020224e+01 4.527121e+01 1.939079e+01 3.154439e+01 3.736716e+01 3.555404e+01 3.127757e+01 3.251844e+01 3.769225e+01 3.868166e+01 2.362552e+01 1.781823e+01 3.594429e+01 6.293957e-01 1.898665e+00 1.578969e+00 2.011278e+00 2.648417e+00 1.982732e+00 2.178652e+00 2.815875e+00 2.787301e+00 2.459059e+00 1.905777e+00 1.723273e+00 1.184452e+00 1.711517e-01 2.076522e-01 3.490925e-01 4.277516e-01 4.601057e-01 3.940124e-01 4.160790e-01 5.512503e-01 5.139931e-01 4.366408e-01 3.619681e-01 3.599333e-01 2.306966e-01
<GCONST> 1.099262e+02
<STATE> 4
<MEAN> 39
 -1.610900e+01 -5.063230e+00 -2.888914e+00 -6.931744e+00 -3.059511e+00 -6.162826e+00 -3.931374e+00 -5.621951e+00 -3.285367e+00 -5.259720e+00 -1.448846e+00 -3.385053e+00 5.094711e+01 1.039959e+00 1.833020e+00 1.060379e+00 -1.550057e+00 -5.485595e-01 -1.285216e+00 -6.266601e-01 -1.748938e+00 -7.023958e-01 -3.946776e-01 -2.195222e-01 -5.015998e-01 1.420947e+00 4.971820e-01 3.230242e-01 2.699791e-01 -6.924496e-01 -5.987465e-01 -7.808450e-01 -9.937014e-02 -5.109916e-01 -2.489220e-01 -1.266921e-01 1.687594e-04 -1.519734e-01 8.232051e-01
<VARIANCE> 39
 1.936949e+01 5.120278e+01 2.650468e+01 2.252577e+01 3.049497e+01 3.075568e+01 2.441873e+01 2.784892e+01 2.531894e+01 2.887235e+01 1.950262e+01 1.656195e+01 3.102520e+01 3.819380e+00 4.466453e+00 5.324922e+00 4.843388e+00 5.320562e+00 7.038328e+00 2.893291e+00 5.450886e+00 3.556299e+00 2.356498e+00 1.820923e+00 2.073851e+00 4.341224e+00 5.359610e-01 7.151996e-01 8.321649e-01 6.266785e-01 9.925908e-01 8.728623e-01 4.403423e-01 9.458970e-01 5.826077e-01 3.672076e-01 3.452489e-01 4.250351e-01 7.683871e-01
<GCONST> 1.251782e+02
<TRANSP> 5
 0.000000e+00 1.000000e+00 0.000000e+00 0.000000e+00 0.000000e+00
 0.000000e+00 8.931903e-01 1.068098e-01 0.000000e+00 0.000000e+00
 0.000000e+00 0.000000e+00 9.103637e-01 8.963630e-02 0.000000e+00
 0.000000e+00 0.000000e+00 0.000000e+00 7.474651e-01 2.525349e-01
 0.000000e+00 0.000000e+00 0.000000e+00 0.000000e+00 0.000000e+00
<ENDHMM>
~h "z"
<BEGINHMM>
<NUMSTATES> 5
<STATE> 2
<MEAN> 39
 -9.782654e+00 7.378777e+00 -1.112463e+00 -4.867099e+00 -8.821539e+00 -1.487533e+01 -1.309444e+01 -1.520059e+01 -1.257962e+01 -1.094942e+01 -9.328667e+00 -9.754134e+00 6.092279e+01 -3.763313e+00 -6.975657e-01 -1.908495e+00 2.078459e+00 -3.234742e-01 2.726170e-01 2.127717e+00 5.940191e-01 3.647265e-02 1.467043e+00 8.294470e-01 2.220174e-01 8.039016e-01 3.563306e-01 -6.095169e-01 -2.684979e-01 -5.411518e-01 1.333347e-01 1.390191e-01 -3.115769e-01 4.758490e-01 4.160535e-01 -1.040879e-01 2.542487e-01 4.194407e-01 5.098040e-01
<VARIANCE> 39
 8.449075e+01 2.210468e+01 5.773039e+01 4.463284e+01 2.901021e+01 1.758063e+01 4.292242e+01 3.186913e+01 2.946161e+01 3.030774e+01 2.803117e+01 1.471812e+01 1.528422e+01 5.200464e+00 2.978662e+00 6.274323e+00 4.641117e+00 3.846693e+00 3.022026e+00 4.238102e+00 4.944637e+00 4.310234e+00 3.185312e+00 3.828292e+00 2.592556e+00 1.611764e+00 2.484348e+00 4.740357e-01 1.473459e+00 1.172253e+00 8.831986e-01 8.358254e-01 9.010762e-01 9.071243e-01 8.044013e-01 1.003813e+00 1.009095e+00 3.783614e-01 2.771144e-01
<GCONST> 1.308071e+02
<STATE> 3
<MEAN> 39
 -1.207266e+01 -3.636801e+00 -1.135713e+01 -8.184154e+00 -5.689677e+00 -1.528234e+01 -9.536199e+00 -9.419128e+00 -5.972335e+00 -1.212418e+01 -6.119197e+00 -5.051633e+00 7.105762e+01 2.454080e+00 -3.030997e+00 -2.009775e+00 -2.431705e+00 1.781503e+00 -3.028872e-01 5.872459e-01 -1.083346e-01 2.178147e+00 -2.244787e+00 3.646849e-01 -3.905196e-02 2.808562e+00 3.680782e-01 2.334625e-02 1.392871e-01 6.946772e-03 2.449346e-01 2.935697e-01 2.298782e-01 -7.172790e-01 1.997705e-01 -3.932096e-01 1.156558e-01 -6.324134e-01 -7.088085e-02
<VARIANCE> 39
 9.186083e+01 4.956038e+01 5.023349e+01 8.385835e+01 3.437983e+01 3.884027e+01 2.886903e+01 2.658964e+01 5.466794e+01 6.977882e+01 2.309344e+01 1.908109e+01 4.420421e+01 1.264584e+01 2.754832e+00 4.022270e+00 8.347170e+00 3.999621e+00 5.670028e+00 5.057088e+00 5.741165e+00 4.861260e+00 7.039948e+00 3.407050e+00 4.424953e+00 1.789369e+00 3.663332e+00 8.215218e-01 1.057237e+00 2.644820e+00 7.227123e-01 1.415522e+00 1.101266e+00 7.858399e-01 1.094674e+00 1.762637e+00 8.472511e-01 5.433966e-01 6.024026e-01
<GCONST> 1.421756e+02
<STATE> 4
<MEAN> 39
 -3.216169e+00 -5.049442e+00 -7.283083e+00 -1.200564e+01 -5.069530e+00 -1.061064e+01 -6.450236e+00 -1.680221e+01 2.957934e-01 -1.122175e+01 1.194656e-01 -1.289580e+01 7.000183e+01 4.329121e-02 3.183042e-01 5.368339e-01 2.144063e-01 -4.242186e-01 -2.219294e-01 2.591283e-01 -4.668549e-02 -2.756357e-02 4.898057e-01 5.863234e-03 -4.921556e-04 -2.906129e-01 2.876566e-02 4.498216e-02 -1.542848e-01 4.261091e-02 6.894783e-02 -9.636758e-02 -9.245421e-02 4.781090e-02 7.175684e-02 -2.591279e-02 -2.595692e-02 5.420743e-02 -5.041615e-02
<VARIANCE> 39
 2.183287e+01 7.103246e+01 1.680673e+02 3.089351e+01 9.049250e+01 6.917565e+01 4.073514e+01 4.621737e+01 1.245386e+02 1.158359e+02 8.209336e+01 3.572800e+01 5.826842e+01 2.935305e+00 3.409975e+00 9.180151e+00 4.882050e+00 5.306841e+00 7.244129e+00 5.050580e+00 4.443058e+00 8.239528e+00 5.057771e+00 6.140829e+00 3.920540e+00 2.411194e+00 6.645865e-01 5.326493e-01 1.570790e+00 1.053635e+00 1.059660e+00 1.249578e+00 1.030196e+00 6.762491e-01 1.024573e+00 7.781064e-01 8.690388e-01 6.894243e-01 3.110622e-01
<GCONST> 1.436221e+02
<TRANSP> 5
 0.000000e+00 1.000000e+00 0.000000e+00 0.000000e+00 0.000000e+00
 0.000000e+00 7.978243e-01 2.021758e-01 0.000000e+00 0.000000e+00
 0.000000e+00 0.000000e+00 7.979549e-01 2.020451e-01 0.000000e+00
 0.000000e+00 0.000000e+00 0.000000e+00 9.520138e-01 4.798613e-02
 0.000000e+00 0.000000e+00 0.000000e+00 0.000000e+00 0.000000e+00
<ENDHMM>
~h "ai"
<BEGINHMM>
<NUMSTATES> 5
<STATE> 2
<MEAN> 39
 -7.502254e+00 -1.872405e+01 -4.440134e+00 -6.970387e+00 -6.768538e+00 -9.581058e+00 -2.109170e+00 -8.616158e+00 -3.507213e+00 -1.978831e+01 2.751220e+00 -7.260308e+00 7.174689e+01 -4.127434e-01 5.832267e-02 4.804317e-01 4.568839e-01 -7.548584e-01 7.462546e-01 -1.363046e-02 2.621434e-01 -9.052801e-02 6.579139e-01 1.168003e-01 2.940074e-01 -1.329405e+00 -2.294503e-02 1.803211e-01 -3.663593e-02 2.853361e-02 2.119705e-02 -7.772271e-02 -4.372195e-02 1.015918e-01 -1.504272e-01 9.479398e-02 -1.447376e-01 1.220552e-01 -2.268006e-01
<VARIANCE> 39
 2.074262e+01 1.481074e+01 3.153226e+01 2.423214e+01 2.925868e+01 4.411908e+01 1.659024e+01 2.661492e+01 2.764283e+01 2.956135e+01 1.836740e+01 2.039019e+01 8.334245e+01 1.051271e+00 1.152905e+00 2.024067e+00 1.370161e+00 1.267225e+00 1.881041e+00 1.339995e+00 1.697159e+00 2.218350e+00 1.732260e+00 1.973494e+00 1.717834e+00 2.298413e+00 1.830713e-01 2.268258e-01 4.195923e-01 2.832205e-01 2.821075e-01 3.886552e-01 2.538503e-01 2.946773e-01 3.476183e-01 3.446145e-01 3.453053e-01 3.545097e-01 3.180009e-01
<GCONST> 1.051702e+02
<STATE> 3
<MEAN> 39
 -1.311309e+01 -1.478469e+01 -1.131314e+00 -1.215771e+00 -9.186750e+00 -5.751202e+00 -1.345369e+00 -2.718539e+00 -7.855257e+00 -1.140093e+01 8.082055e-01 -1.562490e+00 5.460540e+01 -2.204169e-01 1.256961e+00 -6.310653e-01 5.154781e-01 3.269961e-01 -1.658233e-01 1.219816e-01 2.023527e-01 -4.605075e-01 1.186157e+00 -1.280834e-01 6.434412e-01 -1.717441e+00 4.618083e-02 1.645105e-01 -1.531939e-01 -2.091889e-01 1.867119e-01 -3.261912e-02 -1.323550e-01 -1.521624e-01 9.279647e-02 -5.370951e-02 8.100477e-02 -1.765182e-01 1.757564e-01
<VARIANCE> 39
 1.479849e+01 2.982764e+01 4.834409e+01 3.480420e+01 2.536009e+01 4.036598e+01 2.222570e+01 3.945576e+01 3.390696e+01 3.432394e+01 2.297831e+01 2.228091e+01 3.071047e+01 1.343543e+00 2.164162e+00 4.100441e+00 2.776570e+00 2.376523e+00 3.366320e+00 1.898196e+00 2.636342e+00 2.936537e+00 2.523748e+00 2.510556e+00 2.418116e+00 3.100222e+00 1.947985e-01 3.721899e-01 6.460648e-01 3.851763e-01 4.284375e-01 4.868025e-01 3.717140e-01 5.056946e-01 6.204500e-01 4.647342e-01 4.906960e-01 4.290208e-01 3.499750e-01
<GCONST> 1.166469e+02
<STATE> 4
<MEAN> 39
 -1.305155e+01 -8.615032e+00 -5.288117e+00 -1.687618e+00 -6.129807e+00 -6.754692e+00 -3.050671e+00 -2.730443e+00 -7.175159e+00 -7.449634e+00 2.099649e-01 -9.412384e-01 4.951093e+01 -4.434983e-02 1.216204e+00 -2.597153e-01 -2.604626e-01 3.410283e-01 -1.803919e-01 -3.713860e-01 -2.066302e-01 1.236062e-01 4.980133e-01 -4.612748e-02 3.593399e-02 -6.329343e-01 7.270533e-02 -9.142195e-02 1.710175e-01 -1.937903e-01 -2.875185e-02 -1.149515e-01 -1.077503e-01 -1.286064e-03 1.707578e-01 -2.839492e-01 -3.906642e-02 -1.174180e-01 3.552887e-01
<VARIANCE> 39
 4.949327e+00 1.903484e+01 1.484840e+01 2.065646e+01 1.424281e+01 2.670914e+01 1.854156e+01 2.535958e+01 2.361830e+01 2.738885e+01 1.968436e+01 1.543917e+01 2.287708e+01 4.305367e-01 1.660841e+00 1.692379e+00 1.768818e+00 1.563459e+00 2.699555e+00 2.002070e+00 2.355494e+00 2.622183e+00 3.101369e+00 2.122242e+00 1.814563e+00 8.852583e-01 1.220642e-01 2.486102e-01 2.542769e-01 3.037538e-01 2.678509e-01 5.811682e-01 3.601956e-01 4.274209e-01 4.559565e-01 5.450981e-01 4.355776e-01 3.483443e-01 1.859362e-01
<GCONST> 1.016891e+02
<TRANSP> 5
 0.000000e+00 1.000000e+00 0.000000e+00 0.000000e+00 0.000000e+00
 0.000000e+00 8.754723e-01 1.245278e-01 0.000000e+00 0.000000e+00
 0.000000e+00 0.000000e+00 7.142853e-01 2.857147e-01 0.000000e+00
 0.000000e+00 0.000000e+00 0.000000e+00 7.641663e-01 2.358337e-01
 0.000000e+00 0.000000e+00 0.000000e+00 0.000000e+00 0.000000e+00
<ENDHMM>
~h "an"
<BEGINHMM>
<NUMSTATES> 5
<STATE> 2
<MEAN> 39
 -5.981788e+00 -1.526738e+01 -9.770350e+00 -1.280846e+01 -2.281413e+00 -9.713813e+00 -8.417817e-01 -1.524418e+01 -1.168349e+00 -2.728968e+01 2.323368e+00 -1.195572e+01 8.232873e+01 -1.205686e-01 3.805144e-01 3.704416e-01 1.288386e-02 -7.341596e-01 1.828987e-01 9.698867e-02 1.560038e-01 -4.612741e-01 3.813820e-01 2.735230e-01 -3.241642e-01 -1.874313e-01 2.007314e-02 3.247200e-01 1.741733e-01 -9.958506e-02 -2.626376e-01 -3.171486e-01 2.445655e-02 1.531253e-01 -8.597540e-02 3.708939e-01 -2.089386e-01 1.443238e-01 -1.685296e-01
<VARIANCE> 39
 2.008677e+00 5.316909e+00 6.187743e+00 1.164025e+01 1.661945e+01 1.774834e+01 1.592260e+01 1.870458e+01 2.766465e+01 7.717799e+00 1.305750e+01 9.616496e+00 4.803679e+00 1.063632e-01 8.644640e-01 8.668948e-01 1.021753e+00 1.094465e+00 2.203596e+00 1.242410e+00 1.157313e+00 1.603594e+00 1.364850e+00 9.559013e-01 1.512157e+00 2.533744e-01 2.695388e-02 9.425712e-02 8.290016e-02 1.598143e-01 9.916393e-02 3.506628e-01 2.232897e-01 2.577984e-01 2.176147e-01 2.772470e-01 1.724896e-01 2.052778e-01 2.734036e-02
<GCONST> 7.372534e+01
<STATE> 3
<MEAN> 39
 -6.905732e+00 -7.922782e+00 -2.842806e+00 -1.606330e+01 -1.346988e+01 -1.202516e+01 1.856306e+00 -1.556242e+01 -6.977876e+00 -1.552223e+01 2.631857e-01 -1.490926e+01 7.930693e+01 9.708405e-03 2.047717e+00 1.173446e+00 -5.107777e-02 -1.496958e+00 -1.213667e+00 -1.220410e+00 -3.796919e-01 -1.064102e+00 2.451163e+00 -4.991580e-01 5.587859e-01 -1.060213e+00 -6.221522e-02 1.915575e-01 -8.733480e-02 4.169201e-01 1.934423e-01 9.469663e-02 -6.040460e-01 -1.754012e-02 -9.406763e-02 -2.040428e-01 1.556065e-01 3.255701e-01 -1.596796e-01
<VARIANCE> 39
 2.727531e+00 1.554168e+01 8.388166e+00 9.168819e+00 1.595654e+01 2.965758e+01 2.749677e+01 1.496179e+01 1.549391e+01 4.095259e+01 1.401899e+01 1.212263e+01 8.039375e+00 1.100181e-01 5.292821e-01 2.322560e-01 1.479093e+00 5.285135e-01 9.206117e-01 3.359241e+00 1.062943e+00 1.164073e+00 1.536098e+00 2.622969e+00 1.826665e+00 1.771533e-01 1.201312e-01 4.595852e-02 6.246230e-02 1.893579e-01 1.085726e-01 5.118988e-01 2.905148e-01 2.838519e-01 2.296592e-01 3.884294e-01 6.366079e-01 3.197284e-01 1.080217e-02
<GCONST> 7.911781e+01
<STATE> 4
<MEAN> 39
 -1.394747e+01 -2.226344e+00 -6.125949e+00 -8.329763e+00 -9.324151e+00 -1.171672e+01 -6.334296e+00 -7.750892e+00 -8.233627e+00 -8.567233e+00 -2.282676e+00 -5.720248e+00 7.346407e+01 4.256152e-02 -4.728463e-01 -3.950079e-01 -1.354005e-01 4.474103e-01 -2.688347e-01 3.429784e-01 4.220531e-01 -8.623195e-02 -6.227546e-01 -3.931852e-03 2.108410e-01 2.536075e-01 2.410175e-02 -2.376851e-01 -5.615806e-02 -1.159118e-01 1.329085e-01 -2.177510e-02 2.040890e-01 -8.660150e-02 3.843743e-02 -1.927899e-01 5.138660e-02 -1.256659e-01 1.195236e-01
<VARIANCE> 39
 7.343184e+01 4.207653e+01 1.940712e+01 5.122764e+01 3.282883e+01 8.304460e+01 2.842755e+01 2.894639e+01 2.657751e+01 8.083569e+01 2.566169e+01 1.487449e+01 2.038634e+01 9.189566e+00 4.249580e+00 1.719482e+00 5.363408e+00 3.669824e+00 7.184269e+00 3.269309e+00 2.424517e+00 2.403152e+00 9.829926e+00 3.833566e+00 1.922043e+00 2.235397e+00 1.362269e+00 5.906429e-01 3.549573e-01 6.315901e-01 6.080725e-01 1.068817e+00 5.185064e-01 4.250432e-01 4.434355e-01 1.279929e+00 8.681411e-01 3.232800e-01 2.422709e-01
<GCONST> 1.281524e+02
<TRANSP> 5
 0.000000e+00 1.000000e+00 0.000000e+00 0.000000e+00 0.000000e+00
 0.000000e+00 8.866148e-01 1.133852e-01 0.000000e+00 0.000000e+00
 0.000000e+00 0.000000e+00 7.830485e-01 2.169514e-01 0.000000e+00
 0.000000e+00 0.000000e+00 0.000000e+00 9.425637e-01 5.743631e-02
 0.000000e+00 0.000000e+00 0.000000e+00 0.000000e+00 0.000000e+00
<ENDHMM>
~h "ao"
<BEGINHMM>
<NUMSTATES> 5
<STATE> 2
<MEAN> 39
 -5.951635e+00 2.795273e-01 2.649755e+00 -1.081914e+01 -8.689821e+00 -1.344855e+01 -5.510375e+00 -1.204513e+01 -1.132660e+01 -1.250038e+01 -2.972023e+00 -8.118382e+00 6.884357e+01 2.093828e+00 -1.075634e+00 -7.383053e-01 -1.496251e+00 -9.747002e-02 -1.474221e+00 -4.348465e-01 -1.433627e+00 -3.516678e-01 -3.332686e+00 -6.082219e-01 -9.368602e-01 1.568726e+00 -6.114991e-01 -2.706105e-01 -1.112299e+00 -1.423066e-01 3.992973e-01 3.479948e-01 1.326067e-01 -2.425807e-01 1.232042e+00 2.842043e-02 9.161919e-02 -1.024662e-01 3.288421e-01
<VARIANCE> 39
 2.943657e+01 4.455794e+01 5.849083e+01 3.987766e+01 3.912177e+01 3.673377e+01 4.357293e+01 3.266962e+01 4.994619e+01 6.474191e+01 2.893743e+01 2.024301e+01 6.204422e+01 6.286033e+00 5.610894e+00 1.159759e+01 7.530664e+00 7.233756e+00 5.197530e+00 4.153728e+00 4.381246e+00 9.322377e+00 1.063223e+01 2.867949e+00 1.878442e+00 5.439766e+00 8.539143e-01 8.242521e-01 1.575377e+00 1.053223e+00 1.185820e+00 8.490462e-01 9.740039e-01 9.255767e-01 1.417340e+00 1.198737e+00 4.791844e-01 4.869480e-01 4.429263e-01
<GCONST> 1.405782e+02
<STATE> 3
<MEAN> 39
 -4.168348e+00 -3.747122e+00 -4.003882e+00 -1.618732e+01 -7.273108e+00 -1.492810e+01 -4.618527e+00 -1.557192e+01 -5.729474e+00 -1.874953e+01 -2.473295e+00 -9.894521e+00 7.344782e+01 6.672396e-01 -1.975862e+00 -2.566934e+00 -8.765771e-01 1.319364e+00 1.438540e-01 3.931822e-01 -1.138776e+00 3.160555e+00 -1.666540e+00 2.550984e-01 -8.864496e-01 1.915875e+00 -4.682557e-01 -9.924395e-02 -2.033553e-01 4.156141e-01 4.368882e-01 8.016039e-01 2.068632e-01 1.067790e-01 7.104576e-01 8.184735e-01 2.719446e-01 -6.471800e-02 -3.527857e-01
<VARIANCE> 39
 2.122297e+01 5.719250e+01 9.498570e+01 6.830798e+01 4.577818e+01 4.901592e+01 2.294762e+01 3.640801e+01 7.676426e+01 9.160372e+01 2.635321e+01 2.031407e+01 3.071245e+01 1.808583e+00 3.543943e+00 5.566999e+00 3.773496e+00 7.533194e+00 3.584110e+00 3.821846e+00 4.462192e+00 6.824249e+00 4.815917e+00 2.477402e+00 2.379493e+00 4.618325e+00 5.480350e-01 9.392391e-01 1.228781e+00 1.199044e+00 6.860213e-01 7.101830e-01 5.890503e-01 1.196928e+00 1.770144e+00 1.200610e+00 4.105477e-01 3.742720e-01 2.896249e-01
<GCONST> 1.346942e+02
<STATE> 4
<MEAN> 39
 -2.726063e+00 -7.906462e+00 -1.107579e+01 -1.670985e+01 -6.206017e-01 -1.209330e+01 -3.811650e+00 -2.199453e+01 6.342824e+00 -1.935781e+01 5.124381e-01 -1.371668e+01 7.647276e+01 1.507456e-01 -1.622784e-01 -4.236636e-01 -1.750627e-02 4.763386e-01 3.057117e-01 -3.256232e-01 -3.547890e-01 8.162615e-01 1.782051e-01 1.176954e-01 -2.065596e-01 -4.364145e-02 -4.367743e-02 1.700250e-01 3.271819e-01 1.372477e-01 -1.795363e-01 -6.093986e-02 -1.113669e-01 1.859603e-01 -4.078161e-01 1.825374e-01 -1.609916e-01 1.902381e-01 -2.158493e-01
<VARIANCE> 39
 1.083791e+01 3.919389e+01 7.175541e+01 3.326363e+01 5.998029e+01 6.173046e+01 2.987903e+01 4.015892e+01 6.064383e+01 8.059142e+01 3.436007e+01 3.214685e+01 1.793729e+01 5.158237e-01 2.968526e+00 4.711605e+00 2.935484e+00 4.257208e+00 4.090012e+00 3.461447e+00 4.307425e+00 6.583390e+00 4.618250e+00 4.410779e+00 3.093540e+00 1.073115e+00 6.599145e-02 3.190875e-01 4.652931e-01 5.493191e-01 7.055854e-01 6.762532e-01 5.801713e-01 5.700125e-01 7.399001e-01 7.983988e-01 6.495463e-01 5.470349e-01 1.273347e-01
<GCONST> 1.232193e+02
<TRANSP> 5
 0.000000e+00 1.000000e+00 0.000000e+00 0.000000e+00 0.000000e+00
 0.000000e+00 5.584640e-01 4.415361e-01 0.000000e+00 0.000000e+00
 0.000000e+00 0.000000e+00 5.363052e-01 4.636948e-01 0.000000e+00
 0.000000e+00 0.000000e+00 0.000000e+00 8.283759e-01 1.716241e-01
 0.000000e+00 0.000000e+00 0.000000e+00 0.000000e+00 0.000000e+00
<ENDHMM>
~h "ch"
<BEGINHMM>
<NUMSTATES> 5
<STATE> 2
<MEAN> 39
 3.153572e-01 -4.676167e+00 -9.573881e+00 -7.663250e+00 -1.754183e+00 -8.426443e+00 -1.596258e+01 -1.780740e+01 -2.157090e+00 -6.600507e+00 -8.029893e+00 -1.037717e+01 6.291056e+01 -1.929785e+00 7.673337e-02 -3.011674e-01 2.096695e+00 -4.650956e-01 -6.380502e-01 5.483600e-01 2.323229e+00 -1.568406e+00 1.248536e+00 1.713702e-01 8.197981e-01 -9.310168e-01 -8.072312e-01 -3.013330e-01 -3.413003e-01 -3.038990e-01 3.245667e-03 7.207587e-02 5.931422e-01 1.873077e-01 6.799712e-01 -3.764933e-01 6.025220e-01 1.108122e-01 8.258182e-01
<VARIANCE> 39
 2.481143e+01 2.597453e+01 2.395602e+01 5.420702e+01 2.109898e+01 2.811353e+01 2.144162e+01 4.883079e+01 5.084842e+01 2.119568e+01 2.278558e+01 1.968832e+01 5.017526e+01 4.818222e+00 5.618254e+00 5.316657e+00 8.155943e+00 3.346139e+00 4.110813e+00 4.160037e+00 2.340784e+00 8.870928e+00 3.098384e+00 3.906723e+00 2.570983e+00 1.199201e+01 2.656585e-01 1.032554e+00 9.215381e-01 1.534870e+00 7.547016e-01 9.257726e-01 3.905220e-01 4.281094e-01 1.177886e+00 6.913666e-01 3.933075e-01 5.379539e-01 2.116991e+00
<GCONST> 1.316260e+02
<STATE> 3
<MEAN> 39
 -2.355727e+01 -1.092425e+01 -1.062674e+01 -2.335570e-01 -7.056055e+00 -1.317627e+01 -5.828921e+00 -1.203181e+00 3.037297e+00 -3.087618e+00 -2.731958e+00 -2.820115e+00 7.401935e+01 -1.288863e+00 -5.485394e-01 1.307615e+00 8.341545e-01 -4.746457e-01 -6.688208e-01 7.213839e-01 1.216003e+00 9.224445e-01 -3.732088e-01 -2.596925e-01 4.984062e-01 7.477570e-01 1.318052e+00 4.484661e-01 3.768674e-01 -1.550661e-01 2.920075e-01 5.973741e-03 -3.218462e-01 -6.881534e-01 -5.814395e-01 -4.661291e-01 -4.519673e-01 -3.100072e-01 -8.420670e-01
<VARIANCE> 39
 3.971199e+01 1.003642e+01 3.670887e+01 2.140292e+01 2.330372e+01 1.388289e+01 2.161507e+01 2.422558e+01 2.304035e+01 1.747069e+01 1.363816e+01 1.385116e+01 1.979326e+01 1.477196e+01 1.569618e+00 3.653988e+00 1.855024e+00 3.025525e+00 2.067770e+00 2.673629e+00 3.779825e+00 3.368367e+00 2.753563e+00 2.433260e+00 1.993703e+00 9.422604e+00 9.361634e-01 3.582845e-01 1.046818e+00 4.187021e-01 4.938933e-01 4.893597e-01 4.457627e-01 6.248147e-01 5.606412e-01 4.643295e-01 4.245155e-01 3.516066e-01 9.980807e-01
<GCONST> 1.179843e+02
<STATE> 4
<MEAN> 39
 -1.338357e+01 -9.019928e+00 -3.236603e+00 1.048135e+00 -4.337076e+00 -1.553106e+01 -5.176367e+00 -4.397716e+00 1.688504e-02 -1.156237e+01 -7.752636e+00 -3.517571e+00 6.831827e+01 4.384174e+00 1.955325e+00 1.823163e+00 -1.294821e+00 -9.852503e-02 -2.457589e+00 -1.337393e-01 -3.902933e+00 -3.178363e+00 -2.606092e+00 -1.322432e+00 -6.133211e-01 -1.562193e-01 -1.528438e-01 1.848748e-01 -1.666040e-01 -8.936108e-01 -5.137303e-01 -5.396832e-01 2.518535e-01 -5.670886e-01 -2.809157e-01 2.909408e-01 5.024979e-01 1.968192e-02 8.829890e-01
<VARIANCE> 39
 5.237278e+01 2.395425e+01 3.578721e+01 3.301926e+01 3.588832e+01 2.224002e+01 2.760266e+01 9.331370e+01 4.054409e+01 4.631430e+01 2.705451e+01 2.079732e+01 1.083274e+01 3.008352e+00 2.233819e+00 1.841780e+00 4.371943e+00 2.158611e+00 2.452723e+00 1.894878e+00 7.255462e+00 4.061012e+00 3.345375e+00 2.236706e+00 1.651139e+00 2.101250e+00 7.583828e-01 6.463692e-01 4.008215e-01 6.331338e-01 3.059985e-01 4.749683e-01 5.343910e-01 1.493512e+00 9.997768e-01 7.293661e-01 5.789746e-01 4.071063e-01 2.851169e-01
<GCONST> 1.223581e+02
<TRANSP> 5
 0.000000e+00 1.000000e+00 0.000000e+00 0.000000e+00 0.000000e+00
 0.000000e+00 8.647382e-01 1.352618e-01 0.000000e+00 0.000000e+00
 0.000000e+00 0.000000e+00 8.537623e-01 1.462377e-01 0.000000e+00
 0.000000e+00 0.000000e+00 0.000000e+00 6.581732e-01 3.418268e-01
 0.000000e+00 0.000000e+00 0.000000e+00 0.000000e+00 0.000000e+00
<ENDHMM>
~h "ei"
<BEGINHMM>
<NUMSTATES> 5
<STATE> 2
<MEAN> 39
 -1.826707e+01 -1.001300e+01 -1.365346e+01 -2.135997e+00 6.453476e+00 -1.966983e+01 -8.744085e-01 1.048339e+00 2.845738e+00 -6.999023e+00 -3.901941e-01 -6.418447e+00 6.964745e+01 -9.430434e-01 -1.164669e+00 2.586928e+00 2.987119e-01 -3.409464e+00 -5.798049e-03 2.756747e+00 4.746298e-01 -4.882216e-01 2.724570e-02 5.721745e-01 2.207429e+00 -1.547314e-01 7.211812e-01 4.122464e-01 8.521417e-01 -8.148659e-01 -5.339878e-01 1.033794e+00 -8.058370e-01 -1.496397e+00 -6.724190e-01 -3.068605e-01 -9.940002e-02 -4.592856e-01 -2.396804e-01
<VARIANCE> 39
 9.234877e+00 1.371223e+01 3.461919e+01 1.632928e+01 7.367150e+01 3.940768e+01 4.789252e+01 3.462316e+01 2.402585e+01 2.269038e+01 2.018806e+01 3.520376e+01 1.254635e+01 1.722722e+00 1.367751e+00 4.549172e+00 3.968191e+00 2.617999e+00 8.924059e+00 4.034415e+00 9.801293e+00 4.193598e+00 3.371488e+00 2.166613e+00 4.444702e+00 1.368324e+00 2.426788e-01 3.704277e-01 3.582476e-01 3.065433e-01 8.583897e-01 8.487915e-01 9.933109e-01 7.435918e-01 6.445187e-01 9.974905e-01 8.942211e-01 7.236917e-01 2.803780e-01
<GCONST> 1.220597e+02
<STATE> 3
<MEAN> 39
 -1.605024e+01 -1.001949e+01 6.163954e+00 -8.145490e+00 -1.019589e+01 -1.098928e+01 1.420755e-01 -9.959661e+00 -5.030662e+00 -6.229621e+00 -1.290329e+00 -3.327058e+00 6.658955e+01 3.037711e+00 2.272091e+00 3.779276e+00 -3.598978e+00 -4.006330e+00 6.958032e-01 -4.051568e+00 -4.588300e+00 -3.583944e+00 7.703204e-01 -3.433258e+00 2.646632e-01 9.151164e-01 3.307498e-01 3.226179e-01 -1.278070e+00 -7.065440e-01 3.346895e-01 -8.146590e-01 -5.350199e-01 3.831383e-01 -6.371170e-02 1.414802e-01 -9.851422e-01 -8.912903e-02 8.909360e-01
<VARIANCE> 39
 2.610025e+01 2.921337e+01 4.509929e+01 2.689680e+01 3.751081e+01 4.043803e+01 8.551380e+01 6.009850e+01 4.645314e+01 1.927409e+01 2.932618e+01 2.420886e+01 8.671312e+00 1.566832e+00 1.430487e+00 4.017297e+00 2.985836e+00 2.965307e+00 4.906213e+00 4.946120e+00 3.061833e+00 3.168664e+00 1.828535e+00 3.565399e+00 3.010683e+00 2.377540e+00 6.857617e-01 7.221889e-01 6.384409e-01 3.931900e-01 4.970790e-01 6.323942e-01 2.445209e+00 1.441343e+00 1.121209e+00 3.957832e-01 7.256986e-01 5.893778e-01 1.880323e-01
<GCONST> 1.251738e+02
<STATE> 4
<MEAN> 39
 -7.991406e+00 -5.001620e+00 6.662184e+00 -2.298064e+01 -1.997214e+01 -1.214277e+01 -9.043124e+00 -1.710648e+01 -1.454693e+01 -3.642388e+00 -1.506391e+01 -2.406261e+00 7.443259e+01 5.494597e-01 1.184040e-01 -5.471535e-01 -3.502851e+00 -1.047035e+00 1.421162e-01 1.291005e-01 -2.615913e-01 -6.357272e-01 8.791051e-01 -2.549015e+00 -5.603926e-01 2.084745e+00 -8.880948e-01 -6.186603e-01 -3.665361e-01 9.582084e-01 1.153104e+00 3.296348e-02 1.153025e+00 9.186248e-01 1.094334e+00 -2.457512e-02 1.041519e+00 -2.538820e-01 -3.929970e-01
<VARIANCE> 39
 4.560755e+00 1.496157e+01 1.334517e+01 2.133024e+01 2.077974e+01 2.060314e+01 3.460985e+01 2.892916e+01 2.219431e+01 1.810391e+01 2.070180e+01 2.628071e+01 8.477788e+00 2.082654e+00 1.882751e+00 1.922508e+00 3.559410e+00 3.257927e+00 2.516171e+00 5.178876e+00 4.027846e+00 4.203169e+00 1.722534e+00 4.454490e+00 2.283593e+00 1.395769e+00 2.199365e-01 2.626532e-01 6.446933e-01 4.013852e-01 3.759788e-01 4.948616e-01 9.514460e-01 1.054162e+00 4.256505e-01 2.885990e-01 4.018451e-01 4.394814e-01 2.144916e-01
<GCONST> 1.107643e+02
<TRANSP> 5
 0.000000e+00 1.000000e+00 0.000000e+00 0.000000e+00 0.000000e+00
 0.000000e+00 8.295980e-01 1.704020e-01 0.000000e+00 0.000000e+00
 0.000000e+00 0.000000e+00 6.509814e-01 3.490187e-01 0.000000e+00
 0.000000e+00 0.000000e+00 0.000000e+00 6.560001e-01 3.439999e-01
 0.000000e+00 0.000000e+00 0.000000e+00 0.000000e+00 0.000000e+00
<ENDHMM>
~h "er"
<BEGINHMM>
<NUMSTATES> 5
<STATE> 2
<MEAN> 39
 -6.455480e+00 5.849481e-03 -3.280137e+00 -1.601543e+01 -8.005118e+00 -1.572970e+01 -5.863767e+00 -1.043352e+01 -2.197929e+00 -1.490456e+01 1.346092e+00 -5.642802e+00 6.425316e+01 2.109588e+00 3.218224e-01 -1.096952e+00 -2.416990e+00 3.160517e-01 -1.385145e+00 2.662895e-01 -1.324717e+00 6.808061e-01 -2.309849e+00 2.593634e-01 -1.240861e+00 3.404180e+00 -5.970487e-02 -6.093748e-01 -3.755402e-01 1.748792e-02 3.997104e-01 4.083290e-01 2.944172e-01 -1.701418e-01 -4.772951e-02 4.501520e-02 -1.009514e-01 1.499602e-02 1.996697e-01
<VARIANCE> 39
 5.264156e+01 4.160752e+01 6.936983e+01 1.065988e+02 4.743768e+01 6.823750e+01 2.746708e+01 1.000990e+02 3.302563e+01 7.319038e+01 2.122553e+01 3.118693e+01 1.112219e+02 3.355528e+00 6.081939e+00 2.268965e+00 5.088342e+00 4.594692e+00 4.642568e+00 4.050450e+00 4.747603e+00 2.455060e+00 4.225170e+00 2.212371e+00 1.728712e+00 3.561529e+00 8.820652e-01 7.143089e-01 2.665008e-01 9.932672e-01 9.608103e-01 1.030203e+00 7.151189e-01 6.375946e-01 6.103187e-01 9.648399e-01 3.915634e-01 4.552095e-01 5.750193e-01
<GCONST> 1.343116e+02
<STATE> 3
<MEAN> 39
 -3.529736e+00 -9.211308e+00 -8.448767e+00 -2.085849e+01 -3.362617e+00 -1.533607e+01 -2.168164e-01 -1.625139e+01 1.431377e+00 -2.100180e+01 2.977232e+00 -1.035632e+01 7.927301e+01 -1.136943e-01 -2.208762e+00 -1.860407e+00 1.084910e+00 2.057030e+00 1.115893e+00 -1.228704e-01 -2.635174e-01 6.098467e-01 -1.607278e+00 -5.323715e-01 -5.240160e-01 1.500698e+00 -2.241519e-01 2.035268e-01 2.469889e-01 3.540652e-01 -1.513207e-01 1.554764e-01 -6.094815e-01 1.028629e-01 -2.988747e-02 4.039887e-01 -3.031944e-01 5.692424e-02 -4.083493e-01
<VARIANCE> 39
 1.555974e+01 6.562529e+01 5.225671e+01 4.507856e+01 5.544139e+01 3.355710e+01 3.819461e+01 2.868248e+01 1.892606e+01 4.461533e+01 2.050298e+01 1.468526e+01 2.117835e+01 7.752051e-01 1.775945e+00 2.354978e+00 2.253733e+00 3.365511e+00 2.360464e+00 6.410320e+00 3.148675e+00 2.126556e+00 5.374287e+00 3.272203e+00 2.125205e+00 1.776919e+00 1.436878e-01 3.710172e-01 1.502938e-01 5.265654e-01 6.877229e-01 5.953627e-01 8.853337e-01 5.967622e-01 3.042699e-01 7.769293e-01 5.310323e-01 4.314774e-01 1.253992e-01
<GCONST> 1.164224e+02
<STATE> 4
<MEAN> 39
 -4.421998e+00 -1.790531e+01 -1.093130e+01 -1.329970e+01 -1.177978e+00 -8.705359e+00 -2.501728e+00 -1.488678e+01 5.978456e-01 -2.086446e+01 -1.511379e+00 -9.129512e+00 7.922388e+01 6.371872e-02 -1.869962e-01 6.892462e-02 1.193768e-01 -1.687193e-01 -1.207535e-01 1.956615e-01 1.206170e-01 -3.548511e-01 1.645477e-01 -2.320267e-01 1.622214e-01 -4.666708e-02 8.899033e-03 7.407361e-02 5.911135e-02 -5.305421e-02 -4.855435e-02 -9.426834e-02 4.805122e-02 1.918305e-02 -4.792292e-02 9.695180e-03 5.676663e-02 1.276958e-02 -4.260704e-02
<VARIANCE> 39
 7.061485e+00 3.179476e+01 2.101984e+01 1.967962e+01 2.186285e+01 5.163144e+01 2.599030e+01 3.381305e+01 4.460299e+01 4.491050e+01 3.479951e+01 3.185861e+01 3.790796e+01 4.853783e-01 1.722617e+00 9.694973e-01 1.466412e+00 1.449607e+00 3.222158e+00 1.993316e+00 3.123895e+00 2.417295e+00 2.211408e+00 2.332807e+00 1.832234e+00 4.072362e+00 8.977510e-02 3.416913e-01 1.502950e-01 2.395127e-01 2.216279e-01 3.524604e-01 3.600628e-01 5.323063e-01 4.169322e-01 3.252020e-01 4.332955e-01 2.891239e-01 7.589925e-01
<GCONST> 1.078871e+02
<TRANSP> 5
 0.000000e+00 1.000000e+00 0.000000e+00 0.000000e+00 0.000000e+00
 0.000000e+00 6.854360e-01 3.145639e-01 0.000000e+00 0.000000e+00
 0.000000e+00 0.000000e+00 7.832319e-01 2.167682e-01 0.000000e+00
 0.000000e+00 0.000000e+00 0.000000e+00 9.692478e-01 3.075222e-02
 0.000000e+00 0.000000e+00 0.000000e+00 0.000000e+00 0.000000e+00
<ENDHMM>
~h "iu"
<BEGINHMM>
<NUMSTATES> 5
<STATE> 2
<MEAN> 39
 -1.145773e+00 6.706349e-01 -9.095726e+00 -1.446171e+01 2.543572e+00 -1.521856e+01 -1.261606e+01 -1.824664e+01 4.346169e+00 -1.812880e+01 -4.081007e+00 -8.601892e+00 6.889568e+01 5.790851e-02 1.083238e-01 2.137357e+00 6.063887e-01 -1.449697e+00 -5.900600e-01 -1.318484e+00 8.894880e-01 -3.051269e-01 -6.491119e-01 -1.373510e+00 1.221843e+00 -6.260115e-01 3.246133e-02 -5.258423e-02 1.709681e-01 1.132015e-01 -3.245426e-01 2.583745e-02 7.625042e-02 9.546858e-02 -2.072769e-01 1.218848e-01 -5.785159e-02 1.270719e-01 -2.795067e-02
<VARIANCE> 39
 7.335376e+00 2.363549e+01 1.014362e+02 2.363167e+01 8.168275e+01 5.348555e+01 4.819078e+01 3.934321e+01 3.501634e+01 4.174348e+01 6.126334e+01 7.237350e+01 2.267959e+01 8.765634e-01 1.262495e+00 5.465875e+00 1.867158e+00 6.824812e+00 7.116634e+00 2.555456e+00 3.638469e+00 3.240346e+00 3.365622e+00 3.084754e+00 5.729630e+00 1.421865e+00 1.853731e-01 3.312035e-01 1.205633e+00 3.631175e-01 1.213256e+00 1.802312e+00 6.220167e-01 8.737303e-01 5.910146e-01 6.097273e-01 7.257940e-01 1.188156e+00 3.462397e-01
<GCONST> 1.278275e+02
<STATE> 3
<MEAN> 39
 2.764368e-01 1.173133e+00 3.961515e+00 -1.054118e+01 -1.037306e+01 -1.567303e+01 -1.853712e+01 -1.338964e+01 -1.201479e+00 -1.889225e+01 -9.553110e+00 -6.136682e-01 6.503090e+01 -3.967798e-01 -1.397308e+00 -9.263528e-01 1.514579e-01 6.072259e-02 -7.514096e-01 1.502369e+00 1.104709e+00 -1.690178e+00 2.866046e-02 3.659398e-01 4.090971e-02 1.296744e+00 -2.914205e-01 -7.525679e-01 -9.481264e-01 -1.619123e-01 9.219344e-01 -1.787246e-01 8.477601e-01 1.411312e-01 -1.363209e-01 -2.511936e-01 4.589717e-01 -5.138584e-01 7.079148e-01
<VARIANCE> 39
 1.094477e+01 3.326106e+01 3.822970e+01 1.487716e+01 3.205164e+01 3.508601e+01 4.805428e+01 2.647294e+01 3.529428e+01 2.291482e+01 2.204239e+01 2.431684e+01 2.754857e+01 1.492814e+00 5.993299e+00 9.315902e+00 1.287095e+00 8.002233e+00 6.143208e+00 8.025736e+00 3.512786e+00 3.292944e+00 2.697143e+00 3.019136e+00 3.391908e+00 5.153280e+00 2.238912e-01 5.592500e-01 9.259115e-01 2.443761e-01 7.484855e-01 1.225341e+00 9.464183e-01 6.835354e-01 7.114898e-01 5.471994e-01 5.074728e-01 6.016725e-01 4.749479e-01
<GCONST> 1.254865e+02
<STATE> 4
<MEAN> 39
 -3.815398e+00 -1.436771e+01 -4.589765e+00 -9.210896e+00 -5.332132e+00 -1.528687e+01 -4.824800e+00 -9.744748e+00 -7.045735e+00 -1.998154e+01 -2.236320e+00 -5.816404e+00 7.496088e+01 -6.470879e-01 -1.715201e+00 -6.170415e-01 3.417900e-02 4.650486e-01 6.275799e-01 1.299580e+00 3.556474e-01 -6.766612e-01 -3.724924e-01 8.655441e-01 -7.269490e-01 6.516783e-01 -2.009476e-02 1.466968e-01 3.911136e-01 -2.771701e-03 -1.604724e-01 3.454027e-01 -2.712409e-01 -1.704133e-01 2.276565e-01 -1.211891e-03 -2.756969e-02 -4.812246e-02 -3.176731e-01
<VARIANCE> 39
 6.077083e+00 4.786409e+01 1.900332e+01 1.546194e+01 2.369098e+01 4.219142e+01 2.827099e+01 1.909137e+01 2.519035e+01 2.622385e+01 2.484174e+01 2.805881e+01 2.051786e+01 9.182296e-01 5.058686e+00 5.448059e+00 1.368614e+00 4.706149e+00 2.746358e+00 6.556211e+00 3.046646e+00 3.397580e+00 2.837485e+00 2.692244e+00 2.875199e+00 5.641419e+00 1.281553e-01 3.490991e-01 3.674479e-01 2.283483e-01 4.090499e-01 6.104631e-01 4.052089e-01 4.476631e-01 6.346711e-01 4.703783e-01 5.283362e-01 4.789785e-01 2.157404e-01
<GCONST> 1.146376e+02
<TRANSP> 5
 0.000000e+00 1.000000e+00 0.000000e+00 0.000000e+00 0.000000e+00
 0.000000e+00 8.505636e-01 1.494365e-01 0.000000e+00 0.000000e+00
 0.000000e+00 0.000000e+00 7.685862e-01 2.314138e-01 0.000000e+00
 0.000000e+00 0.000000e+00 0.000000e+00 6.156715e-01 3.843285e-01
 0.000000e+00 0.000000e+00 0.000000e+00 0.000000e+00 0.000000e+00
<ENDHMM>
~h "si"
<BEGINHMM>
<NUMSTATES> 5
<STATE> 2
<MEAN> 39
 -6.548230e+00 -7.018665e+00 -4.764901e+00 -1.517516e+01 -7.431977e+00 -2.053716e+01 -1.445810e+00 -8.866972e+00 -3.090948e+00 -1.652028e+01 -1.056537e+00 -6.121051e+00 7.290662e+01 8.099632e-01 -1.524416e+00 -1.605288e+00 -2.141927e-01 1.231306e+00 -7.934034e-02 8.234582e-01 -4.149614e-01 5.956993e-01 -3.156198e+00 1.267494e-01 -7.532513e-01 2.276938e+00 -9.872694e-02 4.174255e-03 1.047378e-02 2.570426e-01 2.258572e-01 5.645999e-01 -2.667846e-01 -4.002196e-01 2.462199e-02 -7.572748e-02 5.767390e-02 5.452430e-02 -2.712446e-01
<VARIANCE> 39
 1.786603e+01 5.132314e+01 2.352973e+01 4.381666e+01 4.068415e+01 5.538904e+01 4.807683e+01 2.966555e+01 3.943214e+01 7.358767e+01 2.769341e+01 5.925344e+01 1.257294e+02 1.749493e+00 4.931785e+00 2.590801e+00 4.949616e+00 4.784572e+00 8.605781e+00 4.655015e+00 2.851691e+00 3.390941e+00 4.711062e+00 2.650086e+00 3.108278e+00 4.274861e+00 3.104029e-01 1.068691e+00 2.359790e-01 8.314515e-01 5.773851e-01 9.939433e-01 1.178076e+00 6.417844e-01 8.889329e-01 9.549501e-01 4.734471e-01 6.846486e-01 6.641815e-01
<GCONST> 1.327056e+02
<STATE> 3
<MEAN> 39
 -4.757378e+00 -1.296232e+01 -1.063814e+01 -1.496632e+01 -2.411690e+00 -1.223036e+01 -1.646242e+00 -1.808640e+01 2.986396e+00 -2.600032e+01 1.122070e+00 -1.391258e+01 8.036944e+01 2.928635e-02 4.911952e-01 1.542729e-01 3.289494e-02 -1.893508e-01 -1.019064e-01 -4.873916e-01 -1.828461e-01 2.156624e-02 2.941873e-01 -1.119588e-01 -1.122578e-01 -3.067918e-01 -3.108947e-02 2.380989e-01 2.231337e-01 1.119421e-02 -2.130550e-01 -2.492206e-01 -1.055275e-01 1.584196e-01 -2.300137e-01 3.228785e-01 -7.895656e-02 1.684474e-01 -1.243321e-01
<VARIANCE> 39
 3.106771e+00 1.606859e+01 2.072357e+01 2.278756e+01 5.160842e+01 1.944425e+01 3.907036e+01 4.174233e+01 6.136691e+01 3.167557e+01 1.563115e+01 2.334565e+01 7.998884e+00 1.523603e-01 9.343089e-01 1.443636e+00 1.294461e+00 2.182265e+00 3.314239e+00 1.927188e+00 2.616906e+00 3.135409e+00 2.287395e+00 1.434837e+00 1.955832e+00 2.547756e-01 2.624079e-02 1.048037e-01 1.360516e-01 2.478438e-01 1.857612e-01 3.019333e-01 3.309784e-01 3.154431e-01 2.890877e-01 3.761988e-01 2.287876e-01 3.121880e-01 2.416704e-02
<GCONST> 9.250513e+01
<STATE> 4
<MEAN> 39
 -1.672309e+01 -1.062078e+00 -6.671664e+00 -3.590786e+00 -1.021758e+01 -1.315743e+01 -9.608702e+00 -8.554073e+00 -7.192829e+00 -9.868698e+00 -3.564968e+00 -2.756906e+00 7.201849e+01 -1.898980e-01 3.127865e-01 1.857296e-03 4.397252e-01 -2.677535e-01 1.795394e-02 -2.236714e-01 7.207713e-02 -3.305033e-01 1.869882e-01 -1.430821e-01 4.208259e-01 -1.118395e-01 -2.702407e-02 -2.363359e-02 -3.463224e-02 -3.701547e-02 1.885974e-02 1.024806e-01 9.417091e-02 -6.958824e-02 6.355300e-02 -5.342918e-02 5.519488e-02 -1.172603e-01 3.267813e-02
<VARIANCE> 39
 8.267585e+01 1.774903e+01 1.734274e+01 3.084331e+01 2.797214e+01 8.345942e+01 3.766426e+01 3.388274e+01 3.060080e+01 6.247212e+01 3.092702e+01 2.915109e+01 8.723143e+00 5.863548e+00 2.040803e+00 1.628311e+00 3.076146e+00 2.339366e+00 7.108719e+00 4.216296e+00 3.364496e+00 3.664038e+00 4.969477e+00 3.209679e+00 2.366922e+00 5.539287e-01 7.039549e-01 3.473897e-01 3.133852e-01 4.539596e-01 4.042324e-01 1.212236e+00 7.702442e-01 5.697973e-01 6.497912e-01 6.687435e-01 6.176357e-01 4.299597e-01 6.071554e-02
<GCONST> 1.207231e+02
<TRANSP> 5
 0.000000e+00 1.000000e+00 0.000000e+00 0.000000e+00 0.000000e+00
 0.000000e+00 8.078119e-01 1.921882e-01 0.000000e+00 0.000000e+00
 0.000000e+00 0.000000e+00 9.309788e-01 6.902120e-02 0.000000e+00
 0.000000e+00 0.000000e+00 0.000000e+00 9.638350e-01 3.616501e-02
 0.000000e+00 0.000000e+00 0.000000e+00 0.000000e+00 0.000000e+00
<ENDHMM>
~h "un"
<BEGINHMM>
<NUMSTATES> 5
<STATE> 2
<MEAN> 39
 -4.022899e+00 -4.939140e+00 -3.652245e-01 -8.803392e+00 -9.288867e+00 -2.652631e+01 -2.087395e+00 -1.555886e+01 -8.231128e+00 -1.528902e+01 -7.291793e+00 -4.417184e+00 7.407462e+01 5.923557e-01 2.642039e-01 5.017382e-01 -3.226955e+00 -1.057046e+00 -8.542519e-01 2.029757e+00 -1.042452e+00 -9.412926e-01 4.491198e-02 1.331402e+00 1.190475e-02 1.543711e+00 -1.173732e+00 -3.275645e-01 1.815278e-03 1.051444e-01 1.432833e-01 1.129674e+00 1.456849e-01 1.131303e+00 5.680262e-01 8.130644e-01 2.595587e-01 1.133213e-01 -3.037436e-01
<VARIANCE> 39
 3.563421e+00 1.238640e+01 1.049138e+01 2.897257e+01 1.728372e+01 1.487328e+01 3.335479e+01 2.105639e+01 1.666606e+01 1.333374e+01 2.767815e+01 1.314390e+01 8.479241e+00 3.622726e+00 2.123031e+00 1.367875e+00 1.789189e+00 1.328290e+00 4.762756e+00 3.036461e+00 6.272360e+00 3.346162e+00 2.659365e+00 2.394722e+00 2.084355e+00 1.300088e+00 5.074489e-01 4.736224e-01 3.995047e-01 5.070674e-01 2.893760e-01 3.703238e-01 8.287841e-01 9.058535e-01 6.659719e-01 2.662375e-01 6.642099e-01 3.113316e-01 3.710108e-01
<GCONST> 1.086659e+02
<STATE> 3
<MEAN> 39
 -5.401606e+00 -2.015682e-01 6.338712e+00 -1.674750e+01 -1.006880e+01 -2.153694e+01 -2.325187e+00 -1.448985e+01 -1.268899e+01 -9.342333e+00 -4.542242e+00 -3.565472e+00 7.111877e+01 5.162947e-01 1.208182e+00 8.795869e-01 -3.208212e-01 -1.032378e-01 3.140531e-01 -1.474825e+00 3.858299e-01 -8.532898e-01 8.384804e-01 -1.637290e-01 -1.184364e-01 -1.234877e+00 2.574849e-01 2.602796e-02 -1.570884e-01 3.955028e-01 2.155761e-02 -1.135338e-01 -3.715056e-01 1.325694e-01 6.182411e-02 -1.487143e-01 -2.208440e-01 -2.048495e-01 -2.112730e-01
<VARIANCE> 39
 1.184995e+01 2.211834e+01 1.440025e+01 1.851181e+01 1.659764e+01 2.491090e+01 5.884628e+01 2.007112e+01 2.393764e+01 2.276533e+01 1.654060e+01 1.735081e+01 2.217038e+01 1.551657e+00 8.970572e-01 1.213093e+00 2.643331e+00 9.481728e-01 2.413045e+00 4.013022e+00 2.180311e+00 2.333036e+00 2.290337e+00 1.322980e+00 1.929132e+00 8.574801e-01 2.178438e-01 2.630168e-01 2.212224e-01 3.115484e-01 1.894764e-01 4.871551e-01 7.472393e-01 4.492919e-01 4.978305e-01 5.097107e-01 2.472593e-01 4.124133e-01 1.800212e-01
<GCONST> 1.035634e+02
<STATE> 4
<MEAN> 39
 -1.175266e+00 5.883478e+00 7.882503e+00 -1.749183e+01 -1.256811e+01 -1.879984e+01 -1.107236e+01 -1.308861e+01 -1.521946e+01 -6.837496e+00 -9.710711e+00 -8.711112e+00 6.625371e+01 -1.248959e-01 -6.599705e-01 -9.764135e-01 2.759801e-01 3.488279e-01 2.287164e-01 3.469943e-01 -2.712142e-01 9.088939e-01 -6.384076e-01 -9.423089e-02 -1.737276e-01 6.363737e-01 -3.245116e-02 -1.055868e-01 -3.565747e-01 2.728426e-02 3.707430e-01 1.312691e-02 3.850155e-02 -1.223572e-01 3.439403e-01 -1.012472e-01 8.635221e-02 -7.575859e-02 9.727199e-02
<VARIANCE> 39
 2.519189e+01 3.699004e+01 3.806429e+01 5.800810e+01 3.816959e+01 2.984229e+01 4.176507e+01 3.424927e+01 3.632726e+01 4.879329e+01 3.452785e+01 3.743345e+01 3.032105e+01 3.267999e+00 4.411788e+00 1.027913e+01 1.012984e+01 9.465918e+00 3.776889e+00 4.776176e+00 3.988874e+00 6.630340e+00 7.548784e+00 3.432598e+00 4.979175e+00 1.997846e+00 5.473213e-01 7.429189e-01 1.482292e+00 2.123424e+00 1.935136e+00 8.208917e-01 9.127654e-01 8.448142e-01 8.409582e-01 1.438993e+00 5.804523e-01 9.504951e-01 2.532966e-01
<GCONST> 1.385282e+02
<TRANSP> 5
 0.000000e+00 1.000000e+00 0.000000e+00 0.000000e+00 0.000000e+00
 0.000000e+00 6.967571e-01 3.032429e-01 0.000000e+00 0.000000e+00
 0.000000e+00 0.000000e+00 8.735198e-01 1.264802e-01 0.000000e+00
 0.000000e+00 0.000000e+00 0.000000e+00 9.310771e-01 6.892293e-02
 0.000000e+00 0.000000e+00 0.000000e+00 0.000000e+00 0.000000e+00
<ENDHMM>
~h "wu"
<BEGINHMM>
<NUMSTATES> 5
<STATE> 2
<MEAN> 39
 -1.133656e+01 -5.123900e+00 -4.602966e+00 -6.145813e+00 -5.804855e+00 -1.171540e+01 -4.711400e+00 -3.176971e+00 -2.366674e+00 -1.464351e+01 1.616774e+00 7.674747e-01 5.746994e+01 1.943780e+00 1.316250e+00 -2.563016e-01 -8.822330e-01 9.592061e-01 -2.774799e+00 -3.493458e-01 -1.182895e+00 7.637249e-01 -3.318431e+00 1.186110e-01 -1.485221e-01 2.850883e+00 5.839937e-01 1.694320e-01 -2.389219e-01 -8.815824e-01 9.652477e-02 -4.447865e-01 -2.246416e-01 -8.367746e-01 1.635809e-01 2.996278e-01 -2.387952e-01 -8.016714e-01 8.358589e-01
<VARIANCE> 39
