~o
<STREAMINFO> 1 39
<VECSIZE> 39<NULLD><MFCC_D_A_0><DIAGC>
~s "silst"
<MEAN> 39
 -1.462729e+01 -3.718930e+00 -5.836070e+00 -4.483598e+00 -4.428822e+00 -5.571401e+00 -6.405603e+00 -3.600794e+00 -5.026416e+00 -3.572097e+00 -2.165334e+00 -2.750647e+00 4.587932e+01 2.230154e-02 -1.441033e-01 -1.541390e-02 7.197168e-02 1.244535e-01 -4.620201e-01 -1.539408e-01 6.008477e-02 8.024819e-02 -2.942433e-01 1.353853e-01 1.230949e-01 2.551910e-01 2.601352e-02 -8.571819e-02 5.340870e-02 2.350712e-02 3.524251e-02 -2.046646e-01 7.753319e-02 1.757965e-01 2.184554e-02 -2.626984e-01 3.399932e-02 1.020699e-01 1.948844e-01
<VARIANCE> 39
 9.375584e+00 1.183416e+01 1.648701e+01 2.141545e+01 2.266087e+01 2.310925e+01 2.205979e+01 2.397323e+01 2.732049e+01 1.943850e+01 2.084374e+01 1.546957e+01 8.586968e+00 6.791112e-01 1.251256e+00 1.456534e+00 2.000538e+00 1.420916e+00 3.046173e+00 2.463950e+00 2.996378e+00 2.753844e+00 2.847161e+00 2.245300e+00 1.929229e+00 6.541845e-01 1.604594e-01 2.821068e-01 2.763945e-01 3.520377e-01 3.089537e-01 5.627671e-01 4.706557e-01 5.796748e-01 5.492209e-01 5.968344e-01 4.610950e-01 4.007650e-01 1.452529e-01
<GCONST> 1.032509e+02
~h "a"
<BEGINHMM>
<NUMSTATES> 5
<STATE> 2
<MEAN> 39
 -4.199445e+00 -1.373478e+01 -1.210014e+01 -1.354805e+01 -1.799579e+00 -1.681273e+01 -2.173133e+00 -1.250761e+01 2.371087e+00 -2.389296e+01 -5.126746e-01 -1.002873e+01 7.980311e+01 -5.810527e-01 -2.749901e+00 -5.937189e-01 -9.035021e-03 7.979645e-01 2.264848e+00 6.972189e-01 -2.347914e+00 5.270459e-01 -2.764127e+00 6.503049e-01 -1.000164e+00 2.876937e+00 -3.719715e-01 5.205531e-01 2.552811e-01 7.376391e-01 -5.735848e-02 3.855007e-01 -4.752989e-01 1.709770e-01 -6.687535e-01 3.636948e-01 1.143054e-01 3.306712e-01 -1.308299e+00
<VARIANCE> 39
 5.838073e+00 4.151967e+01 9.712729e+00 1.014597e+01 2.171980e+01 6.631586e+01 1.714983e+01 5.739251e+01 1.598811e+01 2.044213e+01 9.454806e+00 1.602532e+01 2.438086e+01 9.360918e-01 1.195438e+00 1.633330e+00 1.320644e+00 1.694062e+00 5.346468e+00 2.973794e+00 2.443320e+00 3.209338e+00 2.552842e+00 1.197361e+00 1.402807e+00 2.954331e+00 2.671496e-01 4.473316e-01 2.463105e-01 1.695370e-01 3.061613e-01 9.995491e-01 3.481039e-01 6.847569e-01 4.098009e-01 6.865094e-01 2.646570e-01 2.520006e-01 8.488335e-01
<GCONST> 1.066419e+02
<STATE> 3
<MEAN> 39
 -6.330187e+00 -1.752185e+01 -1.157838e+01 -1.003839e+01 -2.009393e+00 -9.991463e+00 -4.051369e+00 -1.550230e+01 -1.812297e+00 -2.633682e+01 2.359986e+00 -1.245696e+01 8.252089e+01 -1.298518e-01 6.581617e-02 3.490315e-01 5.039291e-02 -5.389655e-01 9.782320e-02 3.909646e-02 1.863305e-01 -5.262673e-01 -3.515261e-02 1.941080e-01 -2.546783e-01 -9.011604e-02 6.121243e-02 2.119730e-01 1.414826e-01 -1.644205e-01 -2.198964e-01 -2.015435e-01 1.473908e-01 1.827364e-01 -4.609369e-02 1.804985e-01 -1.371470e-01 1.256501e-01 -1.943643e-01
<VARIANCE> 39
 2.041956e+00 1.026783e+01 9.958220e+00 1.363923e+01 1.717754e+01 9.223742e+00 4.179402e+01 2.740337e+01 1.740516e+01 1.759778e+01 9.905565e+00 1.030642e+01 2.524246e+00 1.619375e-01 3.350678e-01 5.346378e-01 1.081717e+00 1.045516e+00 1.252972e+00 1.425118e+00 1.280461e+00 6.440306e-01 8.280690e-01 5.915578e-01 9.121214e-01 1.861085e-01 3.905403e-02 9.869906e-02 8.705396e-02 1.292873e-01 9.039146e-02 1.628090e-01 2.400622e-01 3.244556e-01 1.569944e-01 2.516422e-01 1.095751e-01 1.726242e-01 1.237053e-01
<GCONST> 7.139388e+01
<STATE> 4
<MEAN> 39
 -5.948782e+00 -1.374549e+01 -8.551136e+00 -9.718204e+00 -5.877874e+00 -1.106076e+01 -5.163423e+00 -1.430974e+01 -3.567895e+00 -2.236826e+01 5.952365e-01 -1.052613e+01 7.591283e+01 -2.425114e-02 -3.080507e-02 -6.216846e-02 3.754533e-02 -1.235929e-02 -6.758744e-02 -8.143163e-02 -2.095430e-01 -1.001286e-01 -2.087536e-01 -2.598521e-01 2.212653e-01 -2.985824e-02 -4.430166e-03 8.736539e-02 2.922613e-02 -8.470892e-02 -2.394825e-02 -2.721479e-02 1.520170e-01 -4.656818e-03 -1.184455e-01 5.415882e-02 -9.818293e-02 2.967196e-02 -2.190638e-02
<VARIANCE> 39
 6.819560e+00 3.895963e+01 3.656375e+01 2.722460e+01 3.865601e+01 1.890374e+01 2.960483e+01 3.085704e+01 3.669937e+01 5.813878e+01 2.567552e+01 2.043958e+01 1.173052e+02 9.038234e-01 2.726143e+00 2.110805e+00 3.635209e+00 2.854467e+00 2.322413e+00 3.585373e+00 2.686548e+00 3.735231e+00 6.373856e+00 3.018127e+00 2.274841e+00 1.062167e+01 2.075654e-01 4.679110e-01 2.663118e-01 6.675911e-01 3.816704e-01 5.256040e-01 4.856080e-01 5.075017e-01 6.359290e-01 1.351965e+00 5.192467e-01 4.205791e-01 1.497419e+00
<GCONST> 1.224882e+02
<TRANSP> 5
 0.000000e+00 1.000000e+00 0.000000e+00 0.000000e+00 0.000000e+00
 0.000000e+00 6.164081e-01 3.835920e-01 0.000000e+00 0.000000e+00
 0.000000e+00 0.000000e+00 9.010401e-01 9.895995e-02 0.000000e+00
 0.000000e+00 0.000000e+00 0.000000e+00 9.176739e-01 8.232611e-02
 0.000000e+00 0.000000e+00 0.000000e+00 0.000000e+00 0.000000e+00
<ENDHMM>
~h "b"
<BEGINHMM>
<NUMSTATES> 5
<STATE> 2
<MEAN> 39
 -6.662585e+00 -6.531079e+00 -9.418840e+00 -7.785779e+00 -4.443746e+00 -5.122517e+00 -7.647094e+00 -8.758033e+00 -4.487818e+00 -1.021127e+01 -2.821809e+00 -4.649954e+00 5.511264e+01 -7.825382e-01 -3.308645e-01 2.322257e-01 2.374565e-01 -4.472659e-01 -4.579268e-01 1.697614e-01 1.734853e+00 -1.391121e-01 -8.084774e-04 -9.912312e-02 1.218670e+00 5.165499e-02 2.453710e-01 -2.395387e-01 -2.182832e-01 -3.690054e-01 2.590511e-01 -6.483803e-01 1.568749e-01 -4.715645e-01 5.750809e-01 -7.319275e-01 2.731295e-01 -4.600583e-01 1.573408e+00
<VARIANCE> 39
 2.152858e+01 8.976014e+00 1.519286e+01 1.280732e+01 3.146141e+01 1.819462e+01 2.699092e+01 7.994872e+01 3.565658e+01 3.187227e+01 2.332277e+01 3.530464e+01 2.945330e+01 1.139149e+00 1.444925e+00 1.791270e+00 3.090478e+00 2.232583e+00 3.232761e+00 2.272231e+00 2.024848e+00 5.421107e+00 8.153615e+00 2.757841e+00 1.878467e+00 1.181388e+01 3.375069e-01 5.453666e-01 3.317211e-01 2.544866e-01 4.300901e-01 4.258670e-01 4.916203e-01 9.564830e-01 7.171179e-01 9.946972e-01 3.447984e-01 5.035475e-01 1.198173e+00
<GCONST> 1.184617e+02
<STATE> 3
<MEAN> 39
 -1.173983e+01 -4.565481e+00 -4.763736e+00 -5.871166e+00 -5.677718e+00 -1.371223e+01 -5.373309e+00 1.063659e-01 -2.200006e+00 -1.464007e+01 2.425526e+00 -1.778380e+00 5.803985e+01 1.780447e+00 3.007563e-01 -8.023037e-01 -1.290231e+00 7.099220e-01 -3.555345e+00 -2.439174e-01 -2.022495e+00 8.229008e-01 -2.627163e+00 8.394001e-02 -1.738467e+00 4.902985e+00 6.973021e-01 -4.560160e-01 -6.372159e-01 -3.922298e-01 2.982855e-01 -1.183636e-01 1.170798e-02 -1.078328e+00 1.360649e-01 -6.136566e-03 -4.458022e-01 -6.428736e-01 8.343311e-01
<VARIANCE> 39
 1.210685e+01 1.401322e+01 1.396177e+01 2.159276e+01 2.077917e+01 3.877514e+01 2.910460e+01 5.290893e+01 3.410172e+01 8.141877e+01 4.709824e+01 3.004117e+01 4.273914e+01 1.830751e+00 5.648921e+00 1.575230e+00 2.619409e+00 1.636119e+00 4.565370e+00 4.133045e+00 6.241621e+00 2.876010e+00 3.610160e+00 4.484944e+00 1.848789e+00 6.423972e+00 1.792788e-01 6.982495e-01 2.565899e-01 6.572810e-01 4.394359e-01 7.375493e-01 5.196907e-01 8.901811e-01 4.920092e-01 2.477498e+00 9.369273e-01 6.451758e-01 4.001681e-01
<GCONST> 1.238431e+02
<STATE> 4
<MEAN> 39
 -2.346266e+00 -4.539609e+00 -1.103874e+01 -1.148117e+01 -3.600549e+00 -2.227836e+01 -7.168606e+00 -7.088350e+00 -2.835059e+00 -1.850436e+01 -1.572693e+00 -5.399124e+00 6.989509e+01 1.896077e+00 -2.071616e+00 -1.721797e+00 -2.209192e+00 7.904159e-01 -1.743200e+00 8.904068e-01 -2.167058e+00 1.475273e+00 -1.490331e+00 -6.817567e-02 -2.371208e+00 5.851636e+00 -7.819993e-01 -9.636919e-01 1.770427e-01 2.825634e-01 1.192264e-03 1.598401e+00 4.073919e-01 1.162965e-01 1.624898e-01 -2.150154e-01 2.343223e-01 4.870365e-02 -5.343471e-01
<VARIANCE> 39
 9.366382e+00 4.941292e+01 1.793212e+01 1.391918e+01 1.616262e+01 1.329115e+02 3.077213e+01 2.557219e+01 2.302684e+01 6.056174e+01 1.185518e+01 9.484186e+00 3.605310e+01 1.751978e+00 4.863086e+00 1.435581e+00 1.272515e+00 2.235879e+00 4.798614e+00 4.107888e+00 4.532818e+00 3.587866e+00 7.850389e+00 2.881925e+00 1.587017e+00 3.140513e+00 3.508679e-01 4.394297e-01 2.894269e-01 3.992847e-01 4.036210e-01 1.357459e+00 9.479226e-01 1.145630e+00 5.006930e-01 1.131816e+00 4.078917e-01 2.997226e-01 7.003155e-01
<GCONST> 1.196951e+02
<TRANSP> 5
 0.000000e+00 1.000000e+00 0.000000e+00 0.000000e+00 0.000000e+00
 0.000000e+00 7.359616e-01 2.640385e-01 0.000000e+00 0.000000e+00
 0.000000e+00 0.000000e+00 4.221333e-01 5.778667e-01 0.000000e+00
 0.000000e+00 0.000000e+00 0.000000e+00 3.563324e-01 6.436676e-01
 0.000000e+00 0.000000e+00 0.000000e+00 0.000000e+00 0.000000e+00
<ENDHMM>
~h "e"
<BEGINHMM>
<NUMSTATES> 5
<STATE> 2
<MEAN> 39
 -1.435166e+01 -1.488075e+00 -2.798526e+01 -7.483825e+00 1.607053e+01 -5.916466e+00 -6.268308e+00 -4.422350e+00 5.520955e-02 4.207022e+00 -3.448249e-01 -1.019008e+01 6.893587e+01 -8.423583e-01 -6.635259e-01 -1.300727e+00 8.649169e-01 4.386932e-03 -5.906523e-01 1.371428e+00 8.180237e-01 1.358636e+00 1.883569e+00 -6.747094e-02 1.456655e+00 -1.014063e-02 5.440140e-01 2.883145e-02 4.184208e-01 -1.580183e-01 -3.358341e-01 7.935077e-02 -4.188553e-01 -1.170526e+00 -1.376915e-01 -9.767618e-01 -1.016606e-01 -1.827768e-01 -3.407333e-01
<VARIANCE> 39
 7.228033e+00 9.540174e+00 1.571199e+01 2.213824e+01 1.720018e+01 2.390250e+01 2.293161e+01 3.172268e+01 3.270435e+01 2.672285e+01 1.988431e+01 2.360922e+01 1.189170e+01 1.019907e+00 9.159460e-01 1.591261e+00 1.605280e+00 1.984030e+00 1.621076e+00 2.824931e+00 7.034524e+00 3.275501e+00 5.624871e+00 2.122859e+00 1.922056e+00 1.585157e+00 2.238153e-01 2.218240e-01 2.506192e-01 3.271992e-01 4.581091e-01 2.710450e-01 5.273216e-01 6.558322e-01 7.470678e-01 5.995099e-01 4.574694e-01 3.637457e-01 1.543565e-01
<GCONST> 1.064623e+02
<STATE> 3
<MEAN> 39
 -9.006109e+00 -9.342134e-01 -2.701364e+01 -7.734592e+00 1.261338e+01 -1.105635e+01 -8.536847e+00 -1.776252e+01 2.553371e+00 1.711452e-01 -4.518914e+00 -6.564330e+00 6.511194e+01 2.992790e+00 1.439235e+00 1.922895e+00 -2.316921e+00 -1.060535e+00 -2.176308e+00 -1.153395e+00 -4.081723e+00 8.347450e-01 -3.121319e+00 -9.961964e-01 2.846017e-02 8.412224e-01 1.120868e-01 -3.440882e-02 2.874670e-01 -7.924824e-01 -9.517314e-02 -3.060372e-01 3.966035e-01 3.605258e-01 5.310497e-01 -3.307872e-01 1.033187e-01 -1.403418e-01 8.243732e-01
<VARIANCE> 39
 5.516824e+01 3.462809e+01 3.008426e+01 4.158525e+01 2.591807e+01 5.557127e+01 2.698644e+01 1.029031e+02 2.989665e+01 5.414249e+01 2.750439e+01 2.307844e+01 1.666187e+01 2.804218e+00 2.503201e+00 1.752281e+00 5.442090e+00 2.068305e+00 4.272334e+00 2.533810e+00 4.438931e+00 3.575622e+00 4.278317e+00 2.175471e+00 1.721304e+00 4.568868e+00 1.483982e+00 1.288988e+00 5.046796e-01 5.713945e-01 4.437017e-01 9.654313e-01 8.674574e-01 2.278071e+00 6.193901e-01 1.090618e+00 3.611139e-01 3.346379e-01 3.252782e-01
<GCONST> 1.282014e+02
<STATE> 4
<MEAN> 39
 -2.888719e+00 -4.592727e+00 -1.636344e+01 -2.193159e+01 6.246465e+00 -1.901277e+01 -3.904719e+00 -2.049273e+01 1.455568e+01 -1.357616e+01 -6.760058e+00 -9.350497e+00 7.644137e+01 -5.476631e-01 -1.713445e+00 1.392839e+00 -1.021983e-01 -1.407976e+00 -6.754102e-01 1.433940e+00 1.705851e+00 1.048136e+00 -1.674345e+00 3.387246e-02 -3.593670e-01 1.120091e+00 -1.763070e-01 2.013746e-01 -4.038659e-03 8.624229e-01 -7.867538e-02 2.499342e-02 -2.064667e-01 1.802782e-01 -8.159640e-01 1.522931e-01 2.093664e-02 2.447419e-01 -5.806741e-01
<VARIANCE> 39
 4.856317e+00 2.456195e+01 1.444576e+01 1.991722e+01 2.704273e+01 8.537457e+00 2.151896e+01 3.289289e+01 2.704643e+01 4.124073e+01 3.589611e+01 3.776339e+01 9.364783e+00 3.804624e-01 1.076219e+00 7.090222e-01 5.220287e+00 1.599768e+00 2.111104e+00 1.498748e+00 1.287260e+00 4.727678e+00 1.511872e+00 9.640115e-01 2.559142e+00 1.091589e+00 3.772288e-01 7.791714e-01 1.238640e-01 3.279121e-01 2.896914e-01 6.763248e-01 5.081330e-01 9.380238e-01 5.465696e-01 4.909106e-01 2.119845e-01 6.078863e-01 1.572485e-01
<GCONST> 1.038245e+02
<TRANSP> 5
 0.000000e+00 1.000000e+00 0.000000e+00 0.000000e+00 0.000000e+00
 0.000000e+00 8.502490e-01 1.497509e-01 0.000000e+00 0.000000e+00
 0.000000e+00 0.000000e+00 7.979037e-01 2.020963e-01 0.000000e+00
 0.000000e+00 0.000000e+00 0.000000e+00 8.581384e-01 1.418616e-01
 0.000000e+00 0.000000e+00 0.000000e+00 0.000000e+00 0.000000e+00
<ENDHMM>
~h "g"
<BEGINHMM>
<NUMSTATES> 5
<STATE> 2
<MEAN> 39
 -8.890368e+00 -6.438687e+00 7.755734e+00 -2.619423e+01 -1.690291e+01 -1.393555e+01 -4.158744e+00 -1.891574e+01 -1.118307e+01 -1.155895e+00 -1.652589e+01 -4.262683e+00 7.634146e+01 2.304834e-01 -1.943540e-01 -1.492549e-01 5.470281e-01 3.883944e-01 -9.872566e-01 7.684605e-01 -5.810677e-01 1.059816e-01 3.721964e-02 -1.797378e-01 4.541859e-01 -2.201799e-01 1.515911e-01 8.791830e-02 -2.425765e-01 5.225014e-01 1.778316e-01 -2.905090e-01 -1.025469e-01 1.171261e-02 -8.579022e-03 -2.678903e-01 -1.066053e-03 2.998680e-01 -3.038706e-01
<VARIANCE> 39
 3.635179e+00 1.652793e+01 1.136943e+01 1.429008e+01 1.663624e+01 3.081865e+01 4.097340e+01 2.588741e+01 2.102929e+01 2.589479e+01 1.529691e+01 1.124657e+01 4.729108e+00 3.045079e-01 5.108921e-01 1.483023e+00 1.989175e+00 1.193022e+00 2.135580e+00 1.647139e+00 1.652242e+00 1.538200e+00 1.688056e+00 9.525862e-01 1.748715e+00 2.836411e-01 4.595048e-02 1.175952e-01 3.175504e-01 2.075380e-01 3.750360e-01 3.266247e-01 4.906337e-01 3.488975e-01 3.261020e-01 2.999161e-01 2.937775e-01 2.137566e-01 6.669832e-02
<GCONST> 8.882801e+01
<STATE> 3
<MEAN> 39
 -4.037564e+00 -4.923133e+00 -1.670535e+00 -1.235795e+01 -8.446303e+00 -2.083808e+01 -4.423499e+00 -2.125878e+01 -9.337128e+00 -5.431472e+00 -1.852396e+01 1.027531e+00 6.607125e+01 3.056063e-01 5.899054e-01 -1.707278e+00 2.171811e+00 1.149399e+00 1.619657e+00 -1.335466e+00 5.682058e-01 5.974976e-01 -3.124323e-01 8.689497e-01 -8.088155e-01 -3.203934e+00 -2.609457e-01 -6.352514e-02 1.293809e-01 -6.673457e-01 -5.915208e-01 9.000139e-01 2.044557e-01 3.361571e-01 -8.326130e-02 2.827819e-01 5.753072e-01 -4.419556e-01 -9.044578e-02
<VARIANCE> 39
 7.498353e+00 1.799881e+01 4.365565e+01 3.344880e+01 6.241744e+01 5.962154e+01 4.260464e+01 3.078213e+01 3.146641e+01 2.733199e+01 2.766024e+01 3.389130e+01 4.388608e+01 1.614985e+00 1.527442e+00 4.594626e+00 3.265567e+00 1.078703e+01 1.125797e+01 3.791347e+00 4.826003e+00 3.980928e+00 4.564875e+00 5.949083e+00 5.380571e+00 1.039514e+00 2.243410e-01 2.872186e-01 1.042873e+00 6.739801e-01 1.883671e+00 1.954249e+00 1.392617e+00 1.015107e+00 9.426743e-01 7.769759e-01 7.756022e-01 1.311280e+00 6.320461e-01
<GCONST> 1.321746e+02
<STATE> 4
<MEAN> 39
 -2.454434e+00 5.893376e-01 -1.552323e+01 -1.655078e+01 -7.156480e+00 -1.009615e+01 -1.790128e-01 -1.390863e+01 -9.996463e+00 -4.569172e+00 -1.158348e+01 2.024640e+00 5.776573e+01 1.005328e+00 1.705879e+00 -1.310751e+00 -1.455046e+00 2.722549e-01 -2.509249e-01 6.834713e-01 1.974838e-01 -1.004384e+00 1.456751e-01 -4.335996e-01 1.125063e+00 8.362303e-01 1.970221e-01 2.354983e-01 2.176754e-01 -8.236182e-02 6.337293e-02 -3.941256e-01 -1.870545e-01 -3.610915e-01 -1.140058e-01 6.488134e-02 -3.809867e-01 8.729817e-02 4.629325e-01
<VARIANCE> 39
 2.178749e+01 3.577180e+01 1.051186e+02 5.557297e+01 5.255601e+01 3.230114e+01 4.586392e+01 3.205464e+01 3.792065e+01 2.608556e+01 2.676627e+01 4.322178e+01 2.274222e+01 2.485496e+00 2.873688e+00 1.622832e+01 6.756425e+00 6.811495e+00 4.971421e+00 7.015236e+00 5.081707e+00 5.444572e+00 3.052665e+00 3.812835e+00 4.363725e+00 3.514512e+00 5.102992e-01 4.690920e-01 3.363823e+00 1.589956e+00 1.632150e+00 1.058070e+00 1.398484e+00 7.409275e-01 1.181156e+00 6.208099e-01 6.923566e-01 1.147588e+00 8.158100e-01
<GCONST> 1.395369e+02
<TRANSP> 5
 0.000000e+00 1.000000e+00 0.000000e+00 0.000000e+00 0.000000e+00
 0.000000e+00 8.879690e-01 1.120310e-01 0.000000e+00 0.000000e+00
 0.000000e+00 0.000000e+00 8.205695e-01 1.794306e-01 0.000000e+00
 0.000000e+00 0.000000e+00 0.000000e+00 8.856165e-01 1.143835e-01
 0.000000e+00 0.000000e+00 0.000000e+00 0.000000e+00 0.000000e+00
<ENDHMM>
~h "h"
<BEGINHMM>
<NUMSTATES> 5
<STATE> 2
<MEAN> 39
 -1.732528e+00 -1.239201e+01 -1.543801e+01 -1.763910e+01 5.053186e+00 -4.248868e+00 -3.310509e+00 -2.681848e+01 1.124930e+01 -2.335593e+01 1.238046e+00 -1.631268e+01 7.767573e+01 3.400035e-01 7.372775e-01 -6.153564e-01 -8.033593e-01 3.216477e-01 8.859428e-01 -1.193936e-01 -1.002293e+00 4.005193e-01 1.566306e-01 8.389621e-01 -2.733560e-01 -3.792453e-01 -1.333316e-02 2.353262e-01 8.717324e-02 -1.901932e-02 -2.136209e-01 -7.387210e-02 -8.287851e-02 2.426702e-01 -3.586646e-01 -1.993854e-01 3.797148e-02 1.073038e-01 -1.023236e-01
<VARIANCE> 39
 3.925792e+00 1.090641e+01 7.788553e+00 1.780883e+01 9.677921e+00 1.466347e+01 1.215533e+01 1.890198e+01 1.593107e+01 1.947119e+01 2.513184e+01 1.826788e+01 5.661010e+00 1.191742e-01 5.379552e-01 3.859465e-01 4.892975e-01 1.122218e+00 5.981777e-01 8.478883e-01 1.471654e+00 1.508948e+00 1.364604e+00 9.634536e-01 9.816006e-01 1.039141e-01 2.198897e-02 6.785320e-02 8.242175e-02 8.729179e-02 1.490916e-01 1.151909e-01 1.821148e-01 1.705911e-01 2.556925e-01 1.697797e-01 1.784584e-01 1.845352e-01 1.680599e-02
<GCONST> 6.855558e+01
<STATE> 3
<MEAN> 39
 4.657457e-01 -3.315145e+00 -1.873179e+01 -2.322579e+01 4.099233e+00 1.060359e+00 -7.418049e+00 -2.887442e+01 9.229020e+00 -2.779977e+01 7.065326e+00 -1.674367e+01 7.272658e+01 2.768790e-01 1.914118e+00 1.552641e-01 4.092263e-01 1.371115e-03 2.119477e-01 -1.971937e+00 1.116113e-01 -1.972123e+00 -6.677993e-01 -2.463073e-03 5.606518e-02 -1.612679e+00 -2.854065e-01 -8.898801e-02 2.618948e-01 7.624513e-01 3.151127e-01 -2.905281e-01 -2.730595e-01 4.052022e-01 -6.914559e-01 6.769799e-01 -5.420718e-01 -8.394851e-02 -2.842811e-01
<VARIANCE> 39
 3.819080e+00 1.451214e+01 6.503758e+00 1.507223e+01 1.182035e+01 1.052507e+01 2.290232e+01 1.343672e+01 2.018723e+01 2.971639e+01 3.210902e+01 1.845354e+01 7.759596e+00 2.021596e-01 4.808765e-01 7.877700e-01 2.393431e+00 1.238533e+00 1.088099e+00 1.918933e+00 1.313871e+00 2.936564e+00 1.729694e+00 2.061911e+00 1.147275e+00 5.354262e-01 1.628100e-01 1.433722e-01 1.336283e-01 1.961781e-01 2.482916e-01 2.239203e-01 3.919626e-01 6.169306e-01 3.134919e-01 5.742608e-01 3.801437e-01 2.519122e-01 5.523261e-02
<GCONST> 8.838342e+01
<STATE> 4
<MEAN> 39
 -2.963362e+00 1.270533e+00 -1.634024e+01 -1.416016e+01 8.816425e+00 -1.627360e+00 -1.567361e+01 -2.291202e+01 -3.552023e+00 -2.097264e+01 1.701967e+00 -1.837767e+01 6.520535e+01 -2.924959e+00 -2.156051e-01 -6.418638e-01 2.292286e+00 2.022233e+00 -1.277403e+00 3.109908e-02 5.105720e+00 -1.798417e+00 4.580783e+00 -1.561500e+00 -3.117082e-01 -8.122434e-01 -5.673074e-01 -5.956522e-01 -6.354997e-01 -3.124611e-01 -9.969745e-02 -2.248654e-01 1.208897e+00 1.156548e+00 1.179377e+00 7.201638e-01 3.496566e-01 4.434104e-01 7.533890e-01
<VARIANCE> 39
 2.566896e+01 1.199988e+01 1.352497e+01 2.672367e+01 4.145661e+01 2.454109e+01 3.196653e+01 7.185883e+01 3.316048e+01 7.475887e+01 2.783747e+01 2.123306e+01 7.794044e+00 1.869133e+00 1.893771e+00 2.848940e+00 2.461273e+00 2.435681e+00 4.928047e+00 6.811168e+00 7.905911e+00 7.375614e+00 4.912833e+00 3.747841e+00 3.059985e+00 2.335907e+00 5.181036e-01 1.854348e-01 3.054136e-01 4.741325e-01 8.171622e-01 4.298631e-01 6.841317e-01 1.342401e+00 7.470015e-01 1.529228e+00 6.764194e-01 6.834610e-01 1.227176e-01
<GCONST> 1.226312e+02
<TRANSP> 5
 0.000000e+00 1.000000e+00 0.000000e+00 0.000000e+00 0.000000e+00
 0.000000e+00 8.954695e-01 1.045304e-01 0.000000e+00 0.000000e+00
 0.000000e+00 0.000000e+00 7.573758e-01 2.426242e-01 0.000000e+00
 0.000000e+00 0.000000e+00 0.000000e+00 7.214859e-01 2.785142e-01
 0.000000e+00 0.000000e+00 0.000000e+00 0.000000e+00 0.000000e+00
<ENDHMM>
~h "i"
<BEGINHMM>
<NUMSTATES> 5
<STATE> 2
<MEAN> 39
 -1.769978e+01 7.494548e+00 -5.428025e+00 -3.729412e+00 -6.687399e+00 -1.035629e+01 -7.948755e+00 -1.354533e+01 -9.138533e+00 -1.007975e+01 -7.358215e+00 -9.934427e+00 6.743797e+01 -4.492353e+00 -3.655649e-01 -3.128072e+00 7.941517e-01 4.836111e-01 1.757027e+00 1.900620e+00 2.027438e+00 2.604818e+00 1.827596e+00 2.077896e+00 1.146372e+00 1.114390e+00 4.949281e-01 -6.476773e-02 4.658461e-01 -7.054833e-01 -4.189711e-01 -2.994721e-01 1.251017e-02 5.315604e-02 2.412815e-01 4.989178e-01 3.367235e-01 5.648330e-01 1.190712e-01
<VARIANCE> 39
 4.204286e+01 6.236959e+01 3.853696e+01 2.776014e+01 2.785269e+01 2.561904e+01 2.214304e+01 2.504671e+01 2.411230e+01 2.647403e+01 1.993842e+01 2.544432e+01 3.050077e+01 4.809670e+00 2.846415e+00 4.850122e+00 2.918838e+00 3.041207e+00 2.403625e+00 2.883762e+00 2.417170e+00 3.476644e+00 2.772829e+00 3.366154e+00 2.231787e+00 4.137836e+00 9.513292e-01 1.135641e+00 1.004232e+00 5.231270e-01 4.896739e-01 4.694109e-01 4.762876e-01 5.203465e-01 5.926630e-01 7.958430e-01 5.500202e-01 5.963531e-01 6.670403e-01
<GCONST> 1.247162e+02
<STATE> 3
<MEAN> 39
 -2.728096e+01 8.688890e+00 -8.397128e+00 -2.684288e+00 -7.736268e+00 -5.776973e+00 -4.361704e+00 -8.624561e+00 -2.469003e+00 -4.848922e+00 -1.324563e+00 -5.364985e+00 7.028507e+01 -4.813797e-01 -5.545244e-01 2.817409e-01 -5.202215e-01 3.230892e-02 2.781574e-01 8.857957e-01 6.459406e-01 8.241466e-01 1.010844e+00 1.047711e+00 5.600157e-01 6.345063e-01 1.403235e+00 -3.130597e-01 7.911437e-01 -3.606924e-01 -1.445007e-01 -5.316316e-01 -2.574256e-01 -4.052621e-01 -7.161385e-01 -4.881367e-01 -2.742586e-01 -2.819899e-01 5.980074e-03
<VARIANCE> 39
 1.206700e+01 2.224888e+01 1.812540e+01 2.619917e+01 2.235463e+01 2.564580e+01 1.997990e+01 2.123897e+01 2.142617e+01 1.902293e+01 1.591037e+01 1.468583e+01 1.096289e+01 5.314222e+00 3.132753e+00 2.838178e+00 2.213681e+00 2.068510e+00 2.105842e+00 1.984429e+00 2.203600e+00 2.589523e+00 2.103191e+00 2.159419e+00 1.762119e+00 1.497864e+00 9.154362e-01 4.972395e-01 7.252945e-01 4.519194e-01 5.012751e-01 4.710660e-01 4.066334e-01 4.436992e-01 6.127746e-01 5.286700e-01 4.107446e-01 3.348790e-01 2.684340e-01
<GCONST> 1.112417e+02
<STATE> 4
<MEAN> 39
 -1.628860e+01 2.940970e+00 -3.780235e+00 -8.622058e+00 -6.584942e+00 -1.235423e+01 -3.540565e+00 -1.356210e+01 -3.461164e+00 -1.635082e+00 -1.018484e+00 -4.735505e+00 7.285429e+01 2.382594e+00 -9.671428e-01 1.456913e+00 -3.697017e-01 -3.890069e-01 -6.858281e-01 -7.707537e-02 -2.528654e-01 -1.150537e+00 -1.065086e+00 5.017833e-02 -2.233803e-01 1.494962e-01 3.727726e-01 -1.935458e-01 -1.103300e-01 -1.499681e-01 -6.426758e-02 -3.548451e-01 -1.934932e-01 -1.431307e-01 -3.108324e-01 -7.626151e-01 -3.073982e-01 -2.145986e-01 -2.229108e-02
<VARIANCE> 39
 1.418713e+02 4.302104e+01 4.820649e+01 3.170973e+01 3.736279e+01 8.036464e+01 3.328310e+01 6.864235e+01 3.464571e+01 3.242763e+01 3.094373e+01 2.037962e+01 1.858978e+01 1.171760e+01 4.541793e+00 7.420988e+00 3.482088e+00 5.438757e+00 6.458202e+00 2.670267e+00 4.601798e+00 6.746568e+00 4.907784e+00 2.628376e+00 2.398817e+00 1.079141e+00 1.686904e+00 6.151110e-01 1.289832e+00 6.921127e-01 1.063887e+00 1.323499e+00 5.916834e-01 7.885347e-01 1.251302e+00 1.199309e+00 5.598330e-01 5.423386e-01 3.199771e-01
<GCONST> 1.361496e+02
<TRANSP> 5
 0.000000e+00 1.000000e+00 0.000000e+00 0.000000e+00 0.000000e+00
 0.000000e+00 5.531012e-01 4.468988e-01 0.000000e+00 0.000000e+00
 0.000000e+00 0.000000e+00 7.711340e-01 2.288660e-01 0.000000e+00
 0.000000e+00 0.000000e+00 0.000000e+00 7.034388e-01 2.965612e-01
 0.000000e+00 0.000000e+00 0.000000e+00 0.000000e+00 0.000000e+00
<ENDHMM>
~h "j"
<BEGINHMM>
<NUMSTATES> 5
<STATE> 2
<MEAN> 39
 -7.792719e+00 -8.156615e+00 1.003798e+00 -1.803594e+01 -1.232305e+01 -1.967754e+01 1.286681e+00 -1.403710e+01 -2.161265e+00 -1.080977e+01 2.450038e+00 -9.751838e+00 7.875217e+01 2.496485e-01 -1.674289e+00 -1.934384e+00 5.942806e-01 1.886964e+00 1.048599e-01 5.683255e-01 6.730375e-01 -6.536108e-02 -3.652433e+00 -4.126639e-02 -1.806674e-01 9.840676e-01 1.197480e-01 1.263727e-01 -1.943579e-01 3.928667e-02 7.043763e-01 -1.037651e-02 -6.751596e-01 -3.978343e-01 9.233904e-02 -5.028870e-01 -3.036291e-01 8.832261e-02 -1.102459e-01
<VARIANCE> 39
 7.307873e+00 1.814440e+01 3.471651e+01 3.308737e+01 3.533349e+01 1.312504e+01 4.161881e+01 5.456718e+01 6.561265e+00 7.595048e+01 1.376259e+01 4.599792e+01 7.839516e+01 3.497246e-01 4.144301e+00 4.157884e+00 2.344548e+00 4.143880e+00 2.698842e+00 5.090074e+00 3.229419e+00 1.897642e+00 5.575204e+00 1.810598e+00 2.135651e+00 5.807762e-01 1.660055e-01 5.090113e-01 3.710888e-01 4.266099e-01 4.695127e-01 3.933159e-01 1.532312e+00 5.760922e-01 4.994875e-01 8.045628e-01 3.007781e-01 7.588568e-01 3.496151e-01
<GCONST> 1.159641e+02
<STATE> 3
<MEAN> 39
 -7.151564e+00 -1.062760e+01 -7.195150e+00 -1.346852e+01 -2.574046e+00 -1.851045e+01 -1.642151e+00 -1.142003e+01 -2.500250e+00 -2.583089e+01 -2.413245e-02 -7.299899e+00 7.663586e+01 9.603441e-01 -9.355520e-02 -1.583846e+00 -4.250988e-01 2.209428e+00 -2.719923e-01 -2.170884e+00 -1.446830e+00 1.407709e+00 -2.492489e+00 -1.036332e-01 -6.526768e-01 1.542004e+00 3.534496e-02 2.218257e-01 1.473424e-01 -3.177394e-01 -4.304330e-01 3.498938e-01 -1.505553e-01 -1.986020e-01 5.444801e-01 1.242977e+00 6.601004e-02 -4.499230e-01 -2.377744e-02
<VARIANCE> 39
 1.156503e+01 7.320044e+01 1.691594e+01 3.187085e+01 1.185623e+01 3.227678e+01 2.558820e+01 3.618701e+01 2.390282e+01 2.907335e+01 1.816382e+01 2.549270e+01 1.270005e+02 2.160921e+00 2.429973e+00 7.623041e-01 3.596649e+00 2.822867e+00 1.175617e+01 1.790346e+00 1.455948e+00 2.249934e+00 4.106663e+00 1.390377e+00 3.303478e+00 5.228443e+00 2.085980e-01 6.751546e-01 3.311982e-01 2.822801e-01 2.827951e-01 5.656188e-01 5.432046e-01 6.150955e-01 3.082180e-01 5.122043e-01 3.841637e-01 2.967912e-01 2.229199e-01
<GCONST> 1.147641e+02
<STATE> 4
<MEAN> 39
 -4.526586e+00 -1.211689e+01 -1.331284e+01 -1.692287e+01 3.162701e+00 -1.182459e+01 -6.681356e+00 -2.083809e+01 7.944679e+00 -2.496986e+01 3.739913e-01 -1.571772e+01 8.140470e+01 3.825022e-01 4.668274e-01 -3.528802e-01 -1.499805e-01 1.683196e-01 3.245070e-02 -3.614751e-01 -4.270349e-01 8.041513e-01 6.738702e-01 -1.374008e-01 -5.644646e-01 -1.976225e-01 -4.208682e-02 3.078006e-03 3.065935e-01 1.295314e-01 -3.768803e-01 -3.658623e-01 3.202557e-01 2.806898e-01 -2.653664e-01 2.888127e-01 -1.331484e-01 3.161282e-01 -1.019298e-01
<VARIANCE> 39
 3.146642e+00 2.115009e+01 9.766678e+00 9.728515e+00 1.021869e+01 3.397481e+01 1.117525e+01 3.051266e+01 2.278529e+01 1.321377e+01 1.486320e+01 2.574637e+01 8.969211e+00 1.333100e-01 4.993754e-01 8.006242e-01 1.090153e+00 1.130053e+00 2.846017e+00 1.134072e+00 2.058085e+00 1.464654e+00 1.228738e+00 1.645231e+00 1.670467e+00 1.086870e+00 6.996366e-02 2.007562e-01 7.527880e-02 1.971187e-01 1.200354e-01 6.211404e-01 2.038371e-01 2.172253e-01 2.074879e-01 2.894686e-01 2.222567e-01 3.313518e-01 3.158924e-02
<GCONST> 8.374622e+01
<TRANSP> 5
 0.000000e+00 1.000000e+00 0.000000e+00 0.000000e+00 0.000000e+00
 0.000000e+00 6.509408e-01 3.490592e-01 0.000000e+00 0.000000e+00
 0.000000e+00 0.000000e+00 5.690980e-01 4.309020e-01 0.000000e+00
 0.000000e+00 0.000000e+00 0.000000e+00 8.395563e-01 1.604437e-01
 0.000000e+00 0.000000e+00 0.000000e+00 0.000000e+00 0.000000e+00
<ENDHMM>
~h "l"
<BEGINHMM>
<NUMSTATES> 5
<STATE> 2
<MEAN> 39
 -1.634411e+01 -7.670655e+00 -2.829591e+00 -7.843643e+00 -4.567709e+00 -1.270587e+01 -2.462101e+00 -1.757519e+00 -3.370213e+00 -5.832837e+00 -7.059670e-01 -3.365165e+00 5.764323e+01 2.915242e-02 -8.117030e-01 3.572974e-01 -1.179492e-01 -6.342725e-02 -1.213923e+00 1.400149e-01 8.372433e-01 1.342837e-01 -6.468019e-01 2.707923e-01 2.346676e-01 1.026493e+00 3.263371e-02 -4.145494e-02 -3.610478e-02 2.226189e-03 6.681423e-02 6.659424e-02 -5.380680e-02 2.738895e-02 -5.942723e-02 -8.787182e-02 9.592691e-02 -2.743389e-03 -1.366370e-01
<VARIANCE> 39
 5.136261e+01 4.359312e+01 5.042178e+01 6.048859e+01 4.963787e+01 5.764261e+01 4.574789e+01 7.038840e+01 4.483117e+01 6.105005e+01 2.483011e+01 2.680163e+01 1.071960e+02 4.353239e+00 3.087202e+00 5.187678e+00 5.827123e+00 4.151399e+00 4.737350e+00 5.432770e+00 4.604522e+00 3.426572e+00 4.043186e+00 2.537083e+00 3.051333e+00 6.018594e+00 8.356522e-01 5.696508e-01 9.490670e-01 1.106696e+00 7.828969e-01 9.314678e-01 1.026464e+00 8.602355e-01 6.661162e-01 8.213808e-01 5.769637e-01 5.636970e-01 1.058886e+00
<GCONST> 1.384129e+02
<STATE> 3
<MEAN> 39
 -1.731512e+01 -1.869417e+01 -3.630649e+00 -6.465673e+00 1.484542e+00 -1.582648e+01 -3.125721e+00 5.824280e+00 2.183252e-01 -1.286185e+01 4.141119e+00 -6.017132e+00 5.940615e+01 -1.927618e-03 -1.922395e-02 -7.976036e-02 5.897784e-02 1.340287e-01 7.368316e-02 1.519944e-01 1.038758e-02 -2.012003e-01 -2.840767e-02 -3.688778e-02 3.242684e-02 -3.470013e-02 7.414427e-02 1.598036e-01 -6.365719e-02 2.908172e-02 -1.292735e-01 5.762392e-02 -3.572885e-02 -9.822813e-02 -6.783182e-02 1.120066e-01 -9.543310e-02 7.586639e-02 -7.016846e-02
<VARIANCE> 39
 1.759166e+01 1.385181e+01 2.025828e+01 3.222613e+01 2.256786e+01 1.905365e+01 4.605479e+01 4.977214e+01 2.959808e+01 2.539829e+01 2.541473e+01 2.205105e+01 3.636632e+01 4.656317e-01 6.713010e-01 1.162195e+00 1.448524e+00 1.706852e+00 1.775108e+00 1.836273e+00 2.661208e+00 2.274449e+00 2.235004e+00 2.084898e+00 2.267116e+00 5.285121e-01 5.171994e-02 9.960671e-02 1.684245e-01 2.642897e-01 2.726017e-01 2.942352e-01 3.431333e-01 5.714923e-01 4.453084e-01 4.401225e-01 3.921905e-01 3.479732e-01 5.111638e-02
<GCONST> 9.946706e+01
<STATE> 4
<MEAN> 39
 -8.526814e+00 -7.715566e+00 -6.820708e+00 -1.046667e+01 -2.499005e+00 -1.923215e+01 -4.146306e+00 -5.168923e+00 -7.752376e-01 -1.608302e+01 -1.107533e+00 -2.825305e+00 6.678951e+01 3.268177e-01 4.901307e-01 -5.593397e-02 -8.431137e-03 -4.141093e-01 2.789467e-01 1.036040e-01 -5.348473e-01 -5.161742e-01 -2.929637e-01 1.563656e-01 3.244198e-01 2.844783e-01 -2.167829e-02 -2.045455e-01 -5.053731e-02 -1.323273e-02 8.110312e-02 4.228746e-01 5.783465e-02 -1.602666e-01 8.322689e-02 -4.076308e-02 1.121004e-01 -2.649702e-01 6.575853e-02
<VARIANCE> 39
 3.740364e+01 3.490315e+01 1.622609e+01 4.264985e+01 2.088480e+01 8.045647e+01 2.425267e+01 8.530862e+01 5.011265e+01 6.716589e+01 2.537051e+01 2.000200e+01 1.515267e+02 1.332665e+00 4.156969e+00 1.608273e+00 2.739457e+00 2.186005e+00 8.918265e+00 2.590057e+00 2.991420e+00 3.249122e+00 3.477373e+00 2.257164e+00 3.195381e+00 3.627598e+00 2.416744e-01 5.377307e-01 2.799593e-01 5.221686e-01 3.875050e-01 1.108429e+00 4.104178e-01 5.711344e-01 6.110185e-01 6.067565e-01 3.910216e-01 5.132244e-01 2.774165e-01
<GCONST> 1.235862e+02
<TRANSP> 5
 0.000000e+00 1.000000e+00 0.000000e+00 0.000000e+00 0.000000e+00
 0.000000e+00 8.013652e-01 1.986348e-01 0.000000e+00 0.000000e+00
 0.000000e+00 0.000000e+00 8.973688e-01 1.026313e-01 0.000000e+00
 0.000000e+00 0.000000e+00 0.000000e+00 7.573599e-01 2.426401e-01
 0.000000e+00 0.000000e+00 0.000000e+00 0.000000e+00 0.000000e+00
<ENDHMM>
~h "n"
<BEGINHMM>
<NUMSTATES> 5
<STATE> 2
<MEAN> 39
 -2.829754e+00 -7.549177e+00 -8.588181e+00 -9.603879e+00 -2.145148e+00 -1.910149e+01 -4.910219e+00 -1.266936e+01 4.525422e-01 -1.606800e+01 -4.503612e+00 -9.572320e+00 7.423304e+01 4.946207e-01 -7.754194e-01 -3.249794e+00 -5.474260e-01 3.509771e+00 1.426909e+00 -4.839981e-01 -1.688494e+00 2.248524e+00 -1.572964e-01 1.336649e+00 -2.235928e+00 3.696839e-01 -7.326280e-02 8.633212e-01 1.128568e+00 -6.736684e-01 -8.189811e-01 9.107745e-01 -7.946622e-02 -7.011795e-01 -5.780938e-01 7.187404e-01 2.527627e-01 1.531619e-01 -5.283099e-01
<VARIANCE> 39
 5.356692e+00 3.111193e+01 2.229763e+01 1.475331e+01 2.268892e+01 1.304081e+01 1.875280e+01 3.449387e+01 8.074731e+01 6.544991e+01 2.375780e+01 3.563042e+01 1.085710e+01 1.131737e+00 4.206095e+00 5.333216e+00 2.768751e+00 4.269119e+00 2.148854e+00 4.932997e+00 3.608777e+00 5.781075e+00 3.617846e+00 2.922410e+00 1.552424e+00 9.809489e-01 1.416004e-01 1.821195e-01 2.304710e-01 8.944061e-01 6.262691e-01 3.841526e-01 1.081136e+00 4.850703e-01 2.109008e+00 6.123735e-01 5.792106e-01 6.412634e-01 1.778939e-01
<GCONST> 1.165631e+02
<STATE> 3
<MEAN> 39
 -1.596491e+00 -6.031361e+00 -1.362761e+01 -1.267087e+01 2.654183e+00 -1.464704e+01 -4.657234e+00 -1.793077e+01 1.660604e+00 -1.424634e+01 5.687658e-01 -1.277734e+01 7.343667e+01 1.160085e-01 2.300383e-01 -9.886826e-01 -1.109468e+00 1.053540e+00 1.881062e+00 6.623012e-01 -1.520202e+00 -3.312025e-02 -3.971530e-01 1.836153e+00 -2.139536e-01 -1.404192e-01 -7.036098e-02 2.436649e-01 8.443315e-01 1.927737e-01 -8.018916e-01 -1.883410e-01 -1.425344e-01 3.966098e-01 -6.612465e-02 -2.567256e-01 -4.824828e-01 6.854144e-01 -2.401376e-01
<VARIANCE> 39
 8.079200e+00 6.075856e+01 2.764707e+01 1.479548e+01 1.682172e+01 1.469061e+01 1.541394e+01 6.180829e+01 6.637700e+01 8.279443e+01 2.780783e+01 3.563528e+01 1.700978e+01 3.079454e-01 2.849562e+00 1.405247e+00 2.027718e+00 1.242061e+00 1.068489e+00 1.199073e+00 1.454836e+00 2.625874e+00 1.674580e+00 2.009071e+00 3.183158e+00 3.485112e-01 1.271112e-01 3.273427e-01 1.370334e-01 1.786261e-01 2.030210e-01 2.022026e-01 5.154048e-01 5.736611e-01 7.910236e-01 8.080134e-01 3.071487e-01 3.677282e-01 1.929582e-01
<GCONST> 1.030644e+02
<STATE> 4
<MEAN> 39
 -1.329273e+00 -3.665833e+00 -1.474370e+01 -1.577318e+01 3.892866e+00 -1.107284e+01 -4.272552e+00 -2.030026e+01 1.792317e+00 -1.691860e+01 2.114797e+00 -1.032564e+01 7.231573e+01 -1.417422e-01 -9.664871e-02 -2.441637e-02 -2.367203e-01 6.153557e-01 4.625581e-01 -5.576364e-01 -2.221982e-01 8.169932e-01 -8.324291e-01 7.985657e-02 -2.894460e-01 -6.512927e-02 -6.314157e-02 -1.244978e-01 3.107637e-01 5.320206e-01 -1.129619e-01 -8.166015e-01 -5.070942e-01 5.121657e-01 2.538720e-01 1.235237e-01 -6.601405e-01 -1.543361e-01 -2.716906e-03
<VARIANCE> 39
 8.665277e+00 8.299763e+01 3.135836e+01 2.467672e+01 2.322501e+01 2.418225e+01 1.804756e+01 6.281036e+01 4.998552e+01 5.052468e+01 3.864983e+01 4.051992e+01 2.110444e+01 1.689218e-01 1.118496e+00 4.458262e-01 1.443302e+00 9.987163e-01 1.457605e+00 1.777014e+00 1.291312e+00 1.393779e+00 2.410335e+00 1.397069e+00 2.318461e+00 1.517237e-01 7.077555e-02 3.018413e-01 1.336170e-01 1.759365e-01 1.932372e-01 2.912722e-01 2.011279e-01 3.545531e-01 2.976895e-01 4.197096e-01 3.648200e-01 6.439221e-01 8.940756e-02
<GCONST> 9.705341e+01
<TRANSP> 5
 0.000000e+00 1.000000e+00 0.000000e+00 0.000000e+00 0.000000e+00
 0.000000e+00 4.045893e-01 5.954106e-01 0.000000e+00 0.000000e+00
 0.000000e+00 0.000000e+00 3.947711e-01 6.052289e-01 0.000000e+00
 0.000000e+00 0.000000e+00 0.000000e+00 5.029396e-01 4.970604e-01
 0.000000e+00 0.000000e+00 0.000000e+00 0.000000e+00 0.000000e+00
<ENDHMM>
~h "o"
<BEGINHMM>
<NUMSTATES> 5
<STATE> 2
<MEAN> 39
 -1.182194e+01 -1.239474e+01 -1.308768e+01 -2.323882e+00 5.034350e+00 -9.086648e+00 -1.342242e+01 -9.508182e-01 2.348491e+00 -5.533191e+00 -2.594307e+00 -6.207630e+00 5.118658e+01 3.241475e-01 1.220533e+00 -8.725587e-02 -3.484806e-01 -9.193711e-01 1.823032e+00 5.444916e-01 -1.714487e+00 -8.614590e-01 1.768230e+00 -4.743402e-01 2.922594e-01 -9.151614e-01 -2.105314e-01 1.500924e-01 3.868427e-01 -2.359034e-01 -2.323181e-01 -3.933080e-02 4.266332e-01 1.005609e-03 -1.693136e-01 -1.694099e-01 2.601455e-01 7.018349e-02 4.222346e-02
<VARIANCE> 39
 2.205361e+00 7.487076e+00 1.174663e+01 1.415012e+01 1.763474e+01 2.097158e+01 1.597722e+01 2.854201e+01 1.715286e+01 2.308120e+01 2.183660e+01 1.777285e+01 4.211618e+00 3.779140e-01 4.919867e-01 1.065495e+00 1.305873e+00 1.247072e+00 1.577263e+00 1.993729e+00 1.893422e+00 2.335313e+00 2.215473e+00 1.778926e+00 1.779577e+00 2.500001e-01 4.605269e-02 7.612350e-02 1.705200e-01 2.522755e-01 1.788222e-01 3.150633e-01 3.260858e-01 4.894811e-01 3.865444e-01 4.799296e-01 2.897028e-01 2.896929e-01 1.945919e-02
<GCONST> 8.546017e+01
<STATE> 3
<MEAN> 39
 -1.308574e+01 -5.315255e+00 -7.872627e+00 -5.628971e+00 -1.983381e+00 -2.590470e+00 -5.857093e+00 -5.605155e+00 -4.089222e+00 -2.125051e+00 -2.036998e+00 -3.531144e+00 4.749203e+01 -1.683553e-01 7.490378e-01 7.340584e-01 -4.582248e-01 -9.578513e-01 2.771784e-01 9.875291e-01 1.807489e-03 -7.297695e-01 -3.514503e-01 4.191026e-02 4.792216e-01 -2.280690e-01 1.928829e-01 6.899349e-04 -1.246329e-01 -1.181774e-01 6.803398e-02 -3.326658e-01 -2.121892e-01 3.968060e-02 1.453804e-01 -3.298069e-01 6.956634e-03 -7.025906e-02 2.548527e-01
<VARIANCE> 39
 3.475199e+00 4.825482e+00 1.337946e+01 1.263388e+01 1.689938e+01 1.113244e+01 1.620916e+01 1.417639e+01 1.704907e+01 1.495914e+01 1.215618e+01 1.402155e+01 2.880946e+00 3.561146e-01 6.853802e-01 1.451541e+00 1.284073e+00 1.532373e+00 1.532718e+00 1.726623e+00 1.964717e+00 2.016581e+00 1.687253e+00 1.720256e+00 1.536127e+00 3.464521e-01 2.492321e-01 2.062239e-01 2.706505e-01 3.319985e-01 3.330741e-01 3.921629e-01 3.655551e-01 6.074763e-01 3.520593e-01 4.185841e-01 3.173563e-01 3.038935e-01 7.905579e-02
<GCONST> 8.875392e+01
<STATE> 4
<MEAN> 39
 -1.146112e+00 1.185268e+00 -1.376353e+01 -2.192876e+01 -1.924064e+00 -8.632235e+00 -5.328990e+00 -1.633925e+01 -1.043539e+00 -1.334890e+01 -2.759262e-01 -6.045374e+00 6.621853e+01 6.476559e-01 -4.021367e-01 -3.170438e-01 -6.594188e-01 3.500040e-01 -9.918653e-01 -1.914011e-01 -8.249915e-01 1.005504e+00 -9.624649e-01 -2.936981e-01 -7.105347e-01 2.125015e+00 -1.825576e-01 -1.595773e-01 1.693171e-01 2.464867e-01 -1.572089e-02 -1.292789e-01 8.679070e-02 2.450569e-01 8.577876e-03 3.855915e-02 -1.001749e-01 1.141798e-01 -8.448423e-02
<VARIANCE> 39
 4.930511e+01 5.242664e+01 3.487352e+01 7.823454e+01 5.428704e+01 3.283850e+01 2.316219e+01 5.963239e+01 6.293429e+01 5.586919e+01 4.609311e+01 4.705576e+01 1.308308e+02 6.314258e+00 6.541114e+00 3.487427e+00 9.671771e+00 5.483147e+00 4.147721e+00 2.404813e+00 5.622876e+00 3.546932e+00 4.409216e+00 4.926565e+00 3.797612e+00 2.539907e+00 8.509763e-01 8.119411e-01 4.838521e-01 1.157791e+00 9.400360e-01 7.895541e-01 4.777316e-01 9.029514e-01 7.833009e-01 7.628856e-01 8.693521e-01 9.578905e-01 4.220202e-01
<GCONST> 1.388138e+02
<TRANSP> 5
 0.000000e+00 1.000000e+00 0.000000e+00 0.000000e+00 0.000000e+00
 0.000000e+00 7.828436e-01 2.171565e-01 0.000000e+00 0.000000e+00
 0.000000e+00 0.000000e+00 8.454213e-01 1.545787e-01 0.000000e+00
 0.000000e+00 0.000000e+00 0.000000e+00 8.958084e-01 1.041916e-01
 0.000000e+00 0.000000e+00 0.000000e+00 0.000000e+00 0.000000e+00
<ENDHMM>
~h "q"
<BEGINHMM>
<NUMSTATES> 5
<STATE> 2
<MEAN> 39
 -5.650383e+00 1.171636e+01 8.655761e+00 -1.995443e+01 -1.365835e+01 -7.223266e+00 -1.995662e+01 -1.183215e+01 -1.399844e+01 1.654950e+00 -1.922520e+01 -4.096691e+00 6.652446e+01 1.276919e+00 -6.259200e-01 -9.241468e-01 1.818336e+00 -6.855175e-01 -1.387278e-01 -3.692006e-01 1.761057e-01 -2.423598e-01 1.940459e-01 -2.000908e-01 3.638927e-01 -7.536191e-01 2.240162e-01 1.126947e-02 -1.531118e-01 1.922137e-01 1.528499e-01 -5.015194e-01 2.926029e-01 -2.165926e-01 1.610051e-01 -2.421996e-01 3.031903e-01 -1.927512e-01 -1.600141e-01
<VARIANCE> 39
 7.395895e+00 2.997656e+01 1.145881e+01 2.541299e+01 2.647193e+01 3.493783e+01 3.684546e+01 3.566449e+01 2.214768e+01 2.721491e+01 2.584143e+01 2.631116e+01 7.240880e+00 6.669911e-01 9.939482e-01 8.370885e-01 1.629514e+00 1.377643e+00 2.730692e+00 2.189374e+00 1.849027e+00 1.676629e+00 2.243137e+00 1.765001e+00 1.304391e+00 4.856449e-01 7.138529e-02 1.614451e-01 1.404753e-01 2.774557e-01 3.735773e-01 4.298412e-01 3.694777e-01 3.543986e-01 3.370168e-01 4.840593e-01 2.774281e-01 2.556734e-01 3.618399e-02
<GCONST> 9.637682e+01
<STATE> 3
<MEAN> 39
 2.629049e+00 9.384180e+00 3.490876e+00 -1.200406e+01 -1.245880e+01 -1.469436e+01 -1.674233e+01 -1.465204e+01 -1.242279e+01 -2.485967e+00 -1.581300e+01 -4.535539e+00 6.176757e+01 9.358366e-01 4.254788e-01 -3.366236e-01 7.226588e-01 8.853891e-01 -1.234475e+00 4.135152e-01 -6.114765e-01 1.253643e-01 -2.095327e+00 1.053589e+00 -9.220055e-01 -1.045080e+00 -7.550631e-01 1.343243e-01 2.920447e-01 -2.058544e-01 1.776497e-01 4.863417e-01 -4.409799e-02 2.975796e-02 -1.440562e-01 -3.849143e-01 -5.767660e-02 -3.300218e-01 2.122682e-01
<VARIANCE> 39
 6.726192e+00 2.100143e+01 9.596026e+00 1.200264e+01 2.682060e+01 2.691660e+01 2.160555e+01 3.140676e+01 2.088975e+01 4.737886e+01 2.905777e+01 2.193776e+01 6.375325e+00 1.182683e+00 1.253253e+00 1.405984e+00 1.390507e+00 1.457144e+00 3.733383e+00 2.545547e+00 2.214175e+00 2.011461e+00 3.788488e+00 2.321593e+00 1.716783e+00 4.834242e-01 3.184063e-01 2.679203e-01 3.053676e-01 3.925078e-01 3.379594e-01 4.662043e-01 4.704683e-01 4.598190e-01 3.775167e-01 7.984165e-01 5.052217e-01 3.121516e-01 8.497469e-02
<GCONST> 1.033836e+02
<STATE> 4
<MEAN> 39
 -2.207730e-01 1.126673e+01 6.215676e+00 -9.899508e+00 -8.563649e+00 -1.493343e+01 -1.621937e+01 -1.695405e+01 -1.495686e+01 -1.183552e+01 -1.393324e+01 -1.063696e+01 5.942718e+01 -4.014235e+00 -5.775937e-01 -1.276549e+00 1.573288e+00 1.568371e+00 8.956880e-01 1.546306e+00 1.912741e-01 2.006196e-01 -1.190147e+00 6.687254e-01 -1.615804e+00 1.052760e+00 -1.489009e+00 -3.983053e-01 -1.330779e+00 1.682324e-01 -1.477675e-01 4.225109e-01 6.752539e-01 5.980247e-01 9.401837e-01 1.111456e+00 5.823943e-01 5.618629e-01 9.051867e-01
<VARIANCE> 39
 2.225781e+01 1.333542e+01 2.071234e+01 1.662993e+01 2.686887e+01 1.325042e+01 1.465005e+01 1.513106e+01 2.307307e+01 2.336455e+01 1.929792e+01 1.873879e+01 4.555078e+00 4.226654e+00 3.915246e+00 7.310184e+00 2.505099e+00 2.287499e+00 2.049357e+00 2.859993e+00 3.271010e+00 3.970896e+00 6.179002e+00 3.289774e+00 3.341006e+00 3.329051e+00 3.727211e-01 4.477676e-01 7.692158e-01 4.471909e-01 5.272791e-01 3.359492e-01 3.423275e-01 4.091227e-01 6.494138e-01 5.668281e-01 5.676233e-01 5.764717e-01 1.667784e-01
<GCONST> 1.140182e+02
<TRANSP> 5
 0.000000e+00 1.000000e+00 0.000000e+00 0.000000e+00 0.000000e+00
 0.000000e+00 8.017868e-01 1.982132e-01 0.000000e+00 0.000000e+00
 0.000000e+00 0.000000e+00 7.590429e-01 2.409571e-01 0.000000e+00
 0.000000e+00 0.000000e+00 0.000000e+00 6.395612e-01 3.604388e-01
 0.000000e+00 0.000000e+00 0.000000e+00 0.000000e+00 0.000000e+00
<ENDHMM>
~h "s"
<BEGINHMM>
<NUMSTATES> 5
<STATE> 2
<MEAN> 39
 -1.330969e+01 -6.188357e+00 -2.376130e+00 -6.038938e+00 -5.325439e+00 -9.838467e+00 -3.677534e+00 -1.741375e+00 -4.142001e+00 -9.159158e+00 -8.745992e-01 1.297991e+00 5.263738e+01 2.015774e+00 1.612966e+00 2.180025e-02 -1.259158e+00 9.251226e-01 -2.709008e+00 4.295535e-03 -9.538997e-01 -6.963284e-01 -2.883797e+00 -1.335636e-01 5.567623e-01 2.515866e+00 8.881353e-01 4.503750e-01 -4.086154e-01 -9.842058e-01 1.964595e-01 -8.179809e-01 -2.646736e-01 -7.417136e-01 1.092392e-01 -2.598647e-01 -1.885954e-01 -7.034623e-01 1.123065e+00
<VARIANCE> 39
 9.032269e+00 1.072398e+01 1.219324e+01 2.456942e+01 2.057021e+01 2.931686e+01 2.268428e+01 3.826003e+01 2.350776e+01 2.638733e+01 2.152415e+01 2.765016e+01 8.750567e+01 3.040440e+00 3.522566e+00 3.133455e+00 6.545104e+00 2.932630e+00 6.581085e+00 2.313580e+00 5.426201e+00 2.035078e+00 3.425202e+00 1.839029e+00 2.461705e+00 3.044222e+00 1.818292e-01 3.577757e-01 2.572946e-01 5.926591e-01 4.924141e-01 7.669759e-01 3.333035e-01 4.386143e-01 3.701077e-01 5.817456e-01 4.385904e-01 3.859372e-01 3.710397e-01
<GCONST> 1.160457e+02
<STATE> 3
<MEAN> 39
 -2.646663e-01 1.725751e+00 -8.370896e+00 -1.945063e+01 -3.574419e+00 -1.971112e+01 -5.891284e+00 -1.168480e+01 -3.295351e+00 -1.655364e+01 -9.865704e-01 -3.609789e+00 6.654618e+01 1.490823e+00 -9.754177e-01 -1.850867e+00 -2.100110e+00 1.121857e+00 -1.447150e+00 2.221001e-01 -1.676105e+00 1.556918e+00 -1.359785e+00 4.679178e-01 -1.752781e+00 4.240674e+00 -9.149639e-01 -1.158693e+00 3.973865e-02 7.876939e-01 -8.596526e-04 1.269056e+00 2.625869e-01 5.911800e-02 3.313773e-01 2.521710e-01 1.015321e-01 -2.432808e-01 -2.241781e-01
<VARIANCE> 39
 1.418073e+01 2.726785e+01 5.815206e+01 5.809349e+01 3.517125e+01 1.272316e+02 2.530032e+01 5.583429e+01 4.983844e+01 2.424208e+01 1.505473e+01 2.903441e+01 5.165392e+01 4.321358e+00 4.763690e+00 1.142894e+00 5.412174e+00 3.367442e+00 8.549610e+00 3.001664e+00 2.446391e+00 1.790097e+00 3.736489e+00 2.683883e+00 1.413146e+00 3.357536e+00 2.903072e-01 4.363022e-01 4.135430e-01 5.623896e-01 7.482762e-01 2.010033e+00 6.788207e-01 7.527265e-01 5.457837e-01 3.358738e-01 5.266145e-01 4.084778e-01 4.155385e-01
<GCONST> 1.252869e+02
<STATE> 4
<MEAN> 39
 -3.785313e+00 -9.813950e+00 -1.011680e+01 -1.556351e+01 -1.103948e+00 -1.983478e+01 -3.231515e+00 -1.370717e+01 3.823700e+00 -2.241521e+01 -1.300266e+00 -8.397325e+00 7.908798e+01 -4.391143e-01 -1.365680e+00 -2.029127e-01 6.883991e-01 1.116105e-01 1.297283e+00 4.015510e-01 -3.289559e-01 -3.125086e-02 -1.336031e+00 2.593780e-02 -4.483427e-01 9.248011e-01 -6.494190e-03 2.569692e-01 1.311969e-01 6.806408e-02 -7.029967e-02 1.035063e-01 -1.938039e-01 2.778564e-04 -2.027171e-01 1.510136e-01 1.019884e-01 8.222258e-02 -3.123984e-01
<VARIANCE> 39
 4.636416e+00 3.019115e+01 2.624197e+01 1.526107e+01 1.585355e+01 6.486959e+01 3.571904e+01 3.188270e+01 3.413807e+01 3.464152e+01 1.888305e+01 5.245392e+01 7.512139e+00 3.018263e-01 3.433245e+00 1.908398e+00 1.241422e+00 2.148239e+00 9.892716e+00 2.490289e+00 4.810067e+00 2.330195e+00 2.937783e+00 2.933412e+00 5.814308e+00 1.423702e+00 6.864477e-02 4.407724e-01 2.157026e-01 2.017728e-01 2.912571e-01 1.028816e+00 4.556319e-01 7.143992e-01 3.872202e-01 6.508312e-01 5.681651e-01 8.834621e-01 2.413309e-01
<GCONST> 1.116770e+02
<TRANSP> 5
 0.000000e+00 1.000000e+00 0.000000e+00 0.000000e+00 0.000000e+00
 0.000000e+00 5.826441e-01 4.173559e-01 0.000000e+00 0.000000e+00
 0.000000e+00 0.000000e+00 7.005292e-01 2.994709e-01 0.000000e+00
 0.000000e+00 0.000000e+00 0.000000e+00 8.643098e-01 1.356902e-01
 0.000000e+00 0.000000e+00 0.000000e+00 0.000000e+00 0.000000e+00
<ENDHMM>
~h "t"
<BEGINHMM>
<NUMSTATES> 5
<STATE> 2
<MEAN> 39
 -8.806567e+00 -6.279856e+00 -6.644334e+00 -8.652616e+00 -1.347421e+00 -1.787221e+01 -2.288356e+00 -1.220479e+01 3.720695e-01 -1.847727e+01 -5.172477e+00 -5.807504e+00 7.309489e+01 -5.091836e-01 -3.681447e-02 6.391242e-01 1.170786e+00 2.937541e-01 9.862397e-01 -7.319580e-01 -3.194452e-01 -2.344177e+00 -8.020779e-01 1.769844e-01 -1.192789e-01 -2.742194e-01 1.449868e-01 -1.612736e-01 -3.155680e-01 -3.938996e-01 1.890393e-01 1.521806e-01 -1.456097e-01 -3.921637e-01 2.870695e-01 -1.030036e-01 2.384985e-02 -4.033476e-01 2.337851e-01
<VARIANCE> 39
 2.916395e+01 2.659491e+01 2.198906e+01 2.888382e+01 2.517152e+01 6.590137e+01 3.439341e+01 4.056558e+01 6.625471e+01 7.861938e+01 3.255513e+01 2.310781e+01 3.308923e+01 3.813363e+00 4.861887e+00 2.982713e+00 3.001001e+00 3.069821e+00 5.759783e+00 6.627175e+00 8.600000e+00 6.464606e+00 1.482348e+01 4.358856e+00 4.150302e+00 6.468544e+00 7.753172e-01 9.455991e-01 6.066285e-01 4.066542e-01 5.876045e-01 1.341655e+00 1.488409e+00 1.449992e+00 1.488605e+00 3.195294e+00 9.099943e-01 4.452415e-01 1.205981e+00
<GCONST> 1.391366e+02
<STATE> 3
<MEAN> 39
 -4.448679e+00 -1.016862e+01 -1.555842e+01 -1.359168e+01 3.740555e+00 -1.035485e+01 -1.011119e+01 -2.401084e+01 3.508080e+00 -2.814867e+01 3.289954e+00 -1.831489e+01 7.813414e+01 6.317099e-01 2.071120e-01 -6.168192e-01 -5.613918e-01 -2.816116e-02 -4.635820e-02 -5.013927e-01 -1.459961e-01 1.055122e+00 1.743886e-01 6.144543e-01 -4.057294e-01 -6.838050e-02 -1.228594e-01 1.053517e-01 3.698141e-01 1.602000e-01 -1.458845e-01 -1.526509e-01 1.873517e-01 4.147013e-01 -2.065001e-01 3.403139e-01 -2.543267e-01 4.351681e-01 -1.523776e-01
<VARIANCE> 39
 8.610942e+00 1.164459e+01 2.407750e+01 1.585655e+01 1.183896e+01 2.400850e+01 2.672967e+01 2.087583e+01 4.571729e+01 1.970926e+01 4.821490e+01 2.342643e+01 6.626596e+00 4.470563e-01 9.772825e-01 3.674693e+00 1.640463e+00 1.415299e+00 3.104211e+00 1.721275e+00 3.210723e+00 3.621635e+00 1.676759e+00 5.176053e+00 4.126144e+00 6.626801e-01 6.738858e-02 1.261415e-01 4.212329e-01 2.293420e-01 2.913088e-01 4.699780e-01 3.924888e-01 2.947402e-01 1.000216e+00 5.137665e-01 8.529839e-01 4.559798e-01 3.316906e-02
<GCONST> 1.022738e+02
<STATE> 4
<MEAN> 39
 -1.428989e+00 2.850007e-01 1.907747e+00 -1.286471e+01 -5.628752e+00 -1.241826e+01 -1.256205e+01 -1.522129e+01 -9.733225e+00 -1.193503e+01 -7.523951e+00 -9.868315e+00 6.701276e+01 -5.025206e-01 6.895130e-01 2.392201e+00 -3.852120e-01 -1.614878e+00 6.204847e-01 7.211586e-01 2.411549e-01 -1.515542e+00 1.988346e+00 -1.078442e+00 4.935292e-01 -5.227808e-01 -3.262920e-02 -2.037738e-01 -4.252170e-01 1.255796e-01 -6.512661e-02 5.497754e-03 2.703285e-01 -1.186885e-01 3.967636e-01 -3.312983e-01 4.079834e-01 -2.553528e-01 2.314108e-01
<VARIANCE> 39
 2.122738e+01 3.859071e+01 8.892404e+01 4.682251e+01 3.801176e+01 4.419053e+01 3.005620e+01 2.441286e+01 6.430702e+01 7.995402e+01 3.844820e+01 2.426612e+01 2.769178e+01 3.503963e+00 2.413358e+00 6.206928e+00 6.493792e+00 4.998328e+00 4.173460e+00 5.635937e+00 3.275340e+00 6.862765e+00 3.476278e+00 3.713816e+00 4.513166e+00 3.754849e+00 7.676716e-01 4.053678e-01 2.093940e+00 1.816934e+00 1.069852e+00 1.300986e+00 9.444044e-01 6.470478e-01 9.350368e-01 1.052808e+00 5.229727e-01 8.037703e-01 4.453208e-01
<GCONST> 1.368636e+02
<TRANSP> 5
 0.000000e+00 1.000000e+00 0.000000e+00 0.000000e+00 0.000000e+00
 0.000000e+00 8.931803e-01 1.068196e-01 0.000000e+00 0.000000e+00
 0.000000e+00 0.000000e+00 9.204350e-01 7.956497e-02 0.000000e+00
 0.000000e+00 0.000000e+00 0.000000e+00 9.129240e-01 8.707593e-02
 0.000000e+00 0.000000e+00 0.000000e+00 0.000000e+00 0.000000e+00
<ENDHMM>
~h "u"
<BEGINHMM>
<NUMSTATES> 5
<STATE> 2
<MEAN> 39
 3.763509e+00 1.080315e+01 -1.539365e+01 -2.350677e+01 -7.141444e+00 -9.673943e+00 -7.543017e-01 -1.897241e+01 -1.334914e+01 -4.785083e+00 -1.629595e+01 5.349020e+00 6.703898e+01 -2.375947e-01 -6.402550e-01 9.309009e-02 4.694663e-01 5.651219e-01 6.975363e-01 -4.556992e-01 -6.842079e-01 8.667554e-01 2.377452e-01 6.087690e-01 -4.879565e-01 3.889550e-01 -2.358592e-01 -4.276326e-01 1.257167e-01 5.157436e-01 2.092556e-01 -1.557564e-01 -1.804816e-01 1.984544e-01 2.118531e-01 1.593953e-01 2.756787e-01 -3.593931e-01 -1.846034e-01
<VARIANCE> 39
 6.183803e+00 1.637220e+01 1.727174e+01 1.811319e+01 2.033459e+01 4.204232e+01 1.680455e+01 1.967956e+01 3.842533e+01 3.121440e+01 3.712706e+01 2.317920e+01 5.624741e+00 4.945731e-01 1.732380e+00 1.519737e+00 3.364246e+00 3.229111e+00 3.345537e+00 2.837195e+00 2.397470e+00 2.712243e+00 5.462840e+00 3.549210e+00 3.085378e+00 7.794220e-01 1.364559e-01 2.469744e-01 5.069328e-01 3.179194e-01 6.163049e-01 1.024619e+00 5.070347e-01 7.837238e-01 7.142797e-01 1.041296e+00 5.775031e-01 6.084645e-01 1.160411e-01
<GCONST> 1.106874e+02
<STATE> 3
<MEAN> 39
 -2.404756e-01 2.296416e+00 -2.506937e+00 -7.942340e+00 -7.164933e+00 -1.233044e+01 -9.471969e+00 -1.473841e+01 -7.916511e+00 -2.684756e+00 -8.015480e+00 -8.311656e+00 6.453742e+01 -5.902378e-01 -1.308737e-01 3.112882e+00 1.099110e+00 -1.508325e+00 -6.637771e-01 -6.290055e-01 1.692248e+00 -2.527634e-02 -7.727782e-01 7.478880e-01 -1.684280e+00 -5.203498e-01 -7.245180e-02 3.739543e-01 2.914516e-01 -7.705513e-01 -3.971701e-01 5.102819e-01 3.294493e-01 -9.049412e-02 -1.653360e-01 -4.154511e-01 -1.344129e-01 4.704306e-01 1.427373e-02
<VARIANCE> 39
 9.579502e+00 1.843055e+01 9.294252e+01 3.395536e+01 6.249608e+01 4.295189e+01 2.211613e+01 5.439991e+01 2.794545e+01 4.720851e+01 2.650358e+01 3.617084e+01 2.091534e+01 2.081472e+00 2.777100e+00 8.158021e+00 7.483940e+00 7.309817e+00 6.823427e+00 3.265529e+00 5.514800e+00 2.580248e+00 6.382626e+00 2.170475e+00 4.284029e+00 1.051845e+00 5.195923e-01 4.342237e-01 2.074240e+00 8.042321e-01 2.048363e+00 1.173624e+00 5.747436e-01 1.470584e+00 4.393464e-01 1.629617e+00 3.554213e-01 5.093296e-01 3.291241e-01
<GCONST> 1.313123e+02
<STATE> 4
<MEAN> 39
 -5.762924e+00 3.735322e+00 1.122626e+01 -1.222448e+01 -1.492607e+01 -1.130585e+01 -5.371097e+00 -1.380500e+01 -1.055222e+01 -5.396642e+00 -3.773751e+00 -9.909386e+00 6.606672e+01 -3.615208e-01 -8.375913e-01 -5.470321e-01 1.756120e-01 -1.679547e-01 -9.877354e-01 1.274278e+00 6.675471e-02 6.772526e-01 -2.992933e-01 2.981831e-01 2.770431e-01 9.787841e-01 3.536255e-01 -2.418037e-01 -1.147595e+00 3.734986e-01 7.415195e-01 -3.663856e-01 -1.640181e-01 -2.899242e-02 5.676202e-01 -1.179243e-01 -9.807742e-02 -7.934060e-02 6.045553e-02
<VARIANCE> 39
 2.120848e+01 2.117917e+01 4.800636e+01 6.094037e+01 4.635932e+01 3.966498e+01 6.433282e+01 2.122102e+01 2.424096e+01 3.736435e+01 2.255290e+01 1.923265e+01 2.031214e+01 4.155447e+00 3.155655e+00 1.603782e+01 1.100345e+01 9.260741e+00 7.538011e+00 6.651462e+00 2.728461e+00 5.878626e+00 6.075571e+00 2.233896e+00 1.497210e+00 2.496741e+00 8.174152e-01 3.940752e-01 2.245411e+00 2.287507e+00 2.230707e+00 1.348212e+00 2.060656e+00 6.484514e-01 9.656355e-01 1.255186e+00 4.455868e-01 3.431510e-01 3.459621e-01
<GCONST> 1.361307e+02
<TRANSP> 5
 0.000000e+00 1.000000e+00 0.000000e+00 0.000000e+00 0.000000e+00
 0.000000e+00 8.979369e-01 1.020631e-01 0.000000e+00 0.000000e+00
 0.000000e+00 0.000000e+00 8.542742e-01 1.457258e-01 0.000000e+00
 0.000000e+00 0.000000e+00 0.000000e+00 8.790066e-01 1.209935e-01
 0.000000e+00 0.000000e+00 0.000000e+00 0.000000e+00 0.000000e+00
<ENDHMM>
~h "w"
<BEGINHMM>
<NUMSTATES> 5
<STATE> 2
<MEAN> 39
 -1.636228e+01 -9.653183e+00 -3.691212e+00 -6.676609e+00 -5.857694e+00 -1.215370e+01 -3.624809e+00 -8.417299e-01 -3.692277e+00 -4.352711e+00 -2.094277e+00 -2.983994e+00 5.351776e+01 1.171049e-02 -1.094341e+00 2.310221e-01 -1.269485e-01 2.860039e-01 -7.960563e-01 3.654869e-02 8.427612e-01 4.072205e-01 -4.344415e-01 1.658490e-02 4.547845e-02 7.809914e-01 2.313059e-02 2.223724e-03 -7.993793e-02 7.540476e-02 1.145408e-01 9.477227e-02 -9.265690e-02 1.917319e-02 4.531305e-02 -1.069662e-01 1.987081e-02 -2.859516e-02 -1.489295e-01
<VARIANCE> 39
 2.602061e+01 6.785513e+01 4.570701e+01 4.824713e+01 4.095264e+01 5.320033e+01 6.243210e+01 6.688529e+01 5.309972e+01 3.275069e+01 2.750937e+01 2.404017e+01 5.825927e+01 3.142729e+00 3.538304e+00 4.237227e+00 5.257493e+00 3.555255e+00 4.946859e+00 6.065470e+00 4.172534e+00 4.182760e+00 3.819815e+00 2.784015e+00 2.651982e+00 5.978032e+00 6.477453e-01 7.283410e-01 7.024106e-01 9.861119e-01 6.128231e-01 9.818894e-01 1.161551e+00 8.402088e-01 7.936026e-01 7.406568e-01 5.519799e-01 5.348148e-01 1.096589e+00
<GCONST> 1.357549e+02
<STATE> 3
<MEAN> 39
 -1.681212e+01 -1.754125e+01 -5.150188e+00 -5.133797e+00 3.864411e+00 -1.731778e+01 -7.946842e+00 6.878721e+00 4.214023e+00 -1.280618e+01 1.857946e+00 -4.546966e+00 5.647004e+01 -1.218555e-01 2.619447e-02 -1.358644e-01 -1.007054e-01 5.206536e-01 -3.192816e-02 -7.332876e-03 -2.320835e-01 2.173118e-01 -2.892444e-01 3.704050e-01 -2.890806e-01 2.230757e-01 4.088195e-02 4.692392e-02 -4.618956e-02 1.483653e-02 -7.458857e-02 4.435702e-02 -2.987406e-03 -6.469706e-02 -5.190414e-02 1.060798e-01 -4.167139e-02 1.585642e-03 -2.126652e-02
<VARIANCE> 39
 1.199228e+01 7.186105e+00 2.135345e+01 3.333963e+01 2.409672e+01 1.374147e+01 2.970164e+01 3.166975e+01 3.244562e+01 2.671534e+01 2.854545e+01 2.158345e+01 1.413383e+01 2.676655e-01 3.747582e-01 8.730515e-01 1.276963e+00 1.720978e+00 1.335195e+00 1.775611e+00 1.909639e+00 2.586313e+00 2.220819e+00 2.006998e+00 1.518749e+00 2.193370e-01 3.631807e-02 8.106101e-02 1.496176e-01 2.293456e-01 2.983677e-01 2.813738e-01 3.258764e-01 3.969142e-01 5.225347e-01 4.148517e-01 3.916693e-01 3.119609e-01 3.129333e-02
<GCONST> 9.157677e+01
<STATE> 4
<MEAN> 39
 -1.692873e+01 -1.431204e+01 -8.130170e+00 -6.056295e+00 8.504821e+00 -1.513973e+01 -1.017550e+01 3.631368e+00 3.712777e+00 -1.036290e+01 2.639236e+00 -7.197041e+00 5.614454e+01 6.831285e-01 3.349253e-01 -8.047571e-01 5.330551e-01 1.268276e-01 7.233417e-01 -8.503808e-01 -4.261829e-01 -2.793497e-01 6.441437e-01 -5.914361e-01 -9.698145e-02 -6.567271e-01 1.020957e-01 1.158122e-01 -3.342468e-02 1.657692e-02 -1.459473e-01 2.469670e-01 2.068244e-02 -1.632360e-01 -1.179647e-01 2.322624e-01 -1.867515e-01 1.154461e-01 -1.366658e-01
<VARIANCE> 39
 1.249270e+01 3.004806e+01 2.231250e+01 2.401974e+01 1.844862e+01 2.004940e+01 2.738384e+01 2.723185e+01 4.146852e+01 4.658207e+01 2.753230e+01 2.129980e+01 1.547373e+01 4.550196e-01 5.408558e-01 9.956105e-01 1.282858e+00 1.220366e+00 1.598391e+00 1.672377e+00 1.894233e+00 2.104847e+00 2.060953e+00 1.850747e+00 1.772788e+00 3.401746e-01 6.154419e-02 9.989629e-02 1.627398e-01 2.454111e-01 2.810869e-01 3.013913e-01 3.190323e-01 4.301915e-01 4.310851e-01 4.252020e-01 3.163884e-01 3.767793e-01 2.958165e-02
<GCONST> 9.522662e+01
<TRANSP> 5
 0.000000e+00 1.000000e+00 0.000000e+00 0.000000e+00 0.000000e+00
 0.000000e+00 8.778974e-01 1.221026e-01 0.000000e+00 0.000000e+00
 0.000000e+00 0.000000e+00 9.304276e-01 6.957247e-02 0.000000e+00
 0.000000e+00 0.000000e+00 0.000000e+00 8.091434e-01 1.908565e-01
 0.000000e+00 0.000000e+00 0.000000e+00 0.000000e+00 0.000000e+00
<ENDHMM>
~h "x"
<BEGINHMM>
<NUMSTATES> 5
<STATE> 2
<MEAN> 39
 -5.223631e+00 -8.671511e+00 -5.410829e+00 -1.508816e+01 -8.848514e+00 -1.794165e+01 -1.983189e+00 -1.589254e+01 -8.280243e+00 -1.580455e+01 -5.876867e+00 -6.353233e+00 7.812451e+01 8.088882e-02 7.042787e-01 4.779673e-01 -3.672742e-01 -3.091640e-01 -6.501585e-01 1.632056e-01 -2.593456e-01 -3.651587e-01 6.787089e-01 2.645389e-02 1.574391e-02 -3.222029e-01 -1.613668e-01 3.483537e-01 1.143368e-01 1.999291e-01 -2.576542e-02 3.582436e-02 -3.036567e-01 5.304886e-02 4.511012e-02 9.857749e-02 1.224106e-01 -3.947835e-02 -1.555959e-01
<VARIANCE> 39
 1.414385e+01 7.390788e+01 5.578942e+01 2.235121e+01 4.006043e+01 6.058363e+01 5.344481e+01 3.910445e+01 3.898854e+01 8.679436e+01 6.053704e+01 3.093357e+01 1.423118e+01 5.228136e-01 2.472821e+00 3.143288e+00 2.160157e+00 2.887501e+00 3.148862e+00 3.780785e+00 2.462543e+00 3.191429e+00 3.212956e+00 3.116285e+00 1.794307e+00 5.422031e-01 1.577924e-01 2.327108e-01 3.186089e-01 4.110686e-01 4.201460e-01 5.964514e-01 6.868848e-01 4.758721e-01 4.750898e-01 6.203146e-01 4.572188e-01 3.886439e-01 7.267842e-02
<GCONST> 1.161516e+02
<STATE> 3
<MEAN> 39
 -5.559069e+00 -7.404278e-02 1.914321e+00 -1.442353e+01 -1.180300e+01 -2.177472e+01 -6.523087e+00 -1.736866e+01 -1.206035e+01 -8.174277e+00 -6.043842e+00 -4.580019e+00 7.321201e+01 -1.479055e+00 2.308985e+00 8.274186e-01 1.405199e+00 -9.142928e-01 7.052844e-01 -9.819655e-01 -4.571730e-01 -4.782839e-01 -4.997899e-01 2.167419e-01 -6.261508e-01 -6.657929e-01 -7.379396e-01 4.521196e-01 -5.499729e-01 7.501552e-01 2.172587e-01 8.482413e-01 -2.277428e-02 9.008776e-02 1.675642e-01 -4.481780e-01 -1.241846e-01 -3.710298e-01 -5.581318e-02
<VARIANCE> 39
 1.863844e+01 3.602943e+01 3.927613e+01 3.200943e+01 4.946305e+01 7.901144e+01 5.054784e+01 3.331229e+01 3.770635e+01 6.674099e+01 7.078542e+01 3.908825e+01 1.123579e+01 1.972771e+00 4.068253e+00 4.346198e+00 3.471926e+00 2.872108e+00 4.250947e+00 4.364598e+00 2.731002e+00 4.114830e+00 4.555080e+00 3.855995e+00 2.541739e+00 1.344555e+00 1.937383e-01 3.375103e-01 6.880736e-01 6.779947e-01 8.531627e-01 7.572092e-01 8.098409e-01 5.486331e-01 7.698690e-01 6.504298e-01 9.431248e-01 5.961320e-01 9.465478e-02
<GCONST> 1.261217e+02
<STATE> 4
<MEAN> 39
 -1.391508e+01 9.960419e+00 4.438074e-01 -6.046571e+00 -1.421215e+01 -1.500707e+01 -1.005488e+01 -1.904289e+01 -1.302089e+01 -1.329111e+01 -5.368320e+00 -8.860475e+00 7.176665e+01 -3.310839e+00 2.200145e+00 -1.484742e+00 3.169409e+00 1.160007e+00 2.759440e+00 -1.352438e-01 5.323673e-01 3.610525e-01 -4.112383e-01 -3.182864e-01 -1.018420e+00 -7.943908e-01 -2.199859e-01 -8.827165e-01 -5.531066e-01 -2.462639e-01 5.677600e-01 1.809015e-01 6.032093e-01 8.565524e-01 6.845526e-01 6.145827e-01 1.258803e-01 4.916532e-01 1.427212e-02
<VARIANCE> 39
 1.923450e+01 2.171679e+01 2.314699e+01 3.851943e+01 1.945390e+01 3.843229e+01 2.142379e+01 2.102474e+01 1.914905e+01 2.326949e+01 2.416938e+01 1.700048e+01 6.122873e+00 2.351833e+00 2.891396e+00 1.777907e+00 2.685828e+00 2.151250e+00 3.962167e+00 3.688610e+00 3.002634e+00 3.050534e+00 4.016593e+00 3.986986e+00 3.767431e+00 1.343785e+00 2.542910e-01 3.948205e-01 4.970181e-01 5.650074e-01 3.845318e-01 4.649953e-01 4.528884e-01 3.772956e-01 5.500342e-01 5.100130e-01 5.427311e-01 4.962189e-01 8.238877e-02
<GCONST> 1.125643e+02
<TRANSP> 5
 0.000000e+00 1.000000e+00 0.000000e+00 0.000000e+00 0.000000e+00
 0.000000e+00 7.836078e-01 2.163922e-01 0.000000e+00 0.000000e+00
 0.000000e+00 0.000000e+00 6.307314e-01 3.692686e-01 0.000000e+00
 0.000000e+00 0.000000e+00 0.000000e+00 5.872137e-01 4.127863e-01
 0.000000e+00 0.000000e+00 0.000000e+00 0.000000e+00 0.000000e+00
<ENDHMM>
~h "y"
<BEGINHMM>
<NUMSTATES> 5
<STATE> 2
<MEAN> 39
 -1.566388e+01 -8.854486e+00 -3.347163e+00 -8.215576e+00 -6.162302e+00 -1.020769e+01 -3.787868e+00 -2.162324e+00 -4.492390e+00 -2.942624e+00 -1.620988e+00 -3.159251e+00 5.565454e+01 -4.160848e-02 -1.058817e+00 4.735892e-01 -4.464255e-01 -2.161617e-01 -8.841001e-01 3.525298e-01 6.894908e-01 8.974261e-02 -1.837268e-01 3.354957e-01 7.270300e-02 1.135721e+00 7.254865e-03 -5.098753e-02 -8.428270e-02 1.104331e-01 1.322056e-01 6.868033e-02 -5.557077e-02 3.641511e-02 1.062392e-01 -1.384290e-01 4.923444e-02 -1.425022e-02 -1.756236e-01
<VARIANCE> 39
 3.436861e+01 4.980690e+01 4.094670e+01 4.849795e+01 3.857641e+01 5.107145e+01 4.453138e+01 6.382837e+01 3.593623e+01 4.499130e+01 2.273600e+01 1.711696e+01 8.091664e+01 3.028851e+00 3.383339e+00 4.595018e+00 4.798327e+00 4.975069e+00 3.508165e+00 4.091678e+00 5.147677e+00 4.280274e+00 5.130027e+00 2.025356e+00 2.124975e+00 6.430606e+00 5.975966e-01 6.324888e-01 8.057930e-01 9.329903e-01 8.117328e-01 7.835692e-01 7.892214e-01 1.098284e+00 7.940924e-01 9.608920e-01 3.625465e-01 4.650345e-01 1.196113e+00
<GCONST> 1.340119e+02
<STATE> 3
<MEAN> 39
 -1.675845e+01 -1.686946e+01 -1.629655e+00 -5.511328e+00 -2.366089e+00 -1.485387e+01 -1.861011e+00 3.868801e+00 -1.576887e+00 -9.755976e+00 2.849820e+00 -3.705175e+00 5.626095e+01 4.025157e-02 4.081830e-01 -3.802374e-02 8.933578e-02 -5.542304e-02 3.735667e-01 1.000269e-02 -4.090654e-01 -4.499692e-02 1.709697e-01 -1.111802e-01 2.255757e-02 -3.069621e-01 2.404757e-02 1.105062e-01 -2.102074e-02 -4.660236e-02 3.516564e-03 5.805776e-02 -4.589336e-02 -8.215266e-02 -2.037019e-02 4.174615e-02 -3.659748e-02 -2.199871e-03 -5.408168e-03
<VARIANCE> 39
 9.151967e+00 2.900822e+01 1.896440e+01 2.638879e+01 3.131985e+01 2.919981e+01 3.010287e+01 4.086497e+01 3.856982e+01 3.312015e+01 2.391420e+01 1.872743e+01 2.806399e+01 3.709224e-01 1.262018e+00 1.081015e+00 1.619304e+00 2.222021e+00 1.817140e+00 1.882359e+00 2.548856e+00 2.866365e+00 2.142540e+00 1.922876e+00 1.697482e+00 5.723856e-01 7.076765e-02 1.310714e-01 1.771449e-01 2.949286e-01 3.419271e-01 3.150425e-01 3.632827e-01 4.783490e-01 5.226920e-01 3.631161e-01 3.632281e-01 3.303518e-01 4.851152e-02
<GCONST> 1.007855e+02
<STATE> 4
<MEAN> 39
 -1.470634e+01 -2.645993e+00 -2.837323e+00 -6.241231e+00 -3.755023e+00 -5.460464e+00 -5.332599e+00 -6.850828e+00 -4.188636e+00 -4.069200e+00 -2.358126e+00 -3.171006e+00 4.939386e+01 8.662763e-01 1.914055e+00 1.162403e+00 -1.826643e+00 -3.905362e-01 -1.177764e+00 -6.748028e-01 -1.825908e+00 -6.475711e-01 -2.700105e-01 -2.233859e-01 -5.594755e-01 1.420699e+00 4.147027e-01 2.040587e-01 3.564627e-01 -7.226830e-01 -5.463651e-01 -8.207611e-01 -2.002187e-02 -4.407622e-01 -1.982380e-01 -1.494099e-01 2.935690e-02 -1.932664e-01 8.923346e-01
<VARIANCE> 39
 1.523296e+01 1.563924e+01 2.609225e+01 2.054159e+01 2.438693e+01 2.320390e+01 1.997993e+01 2.505817e+01 1.762431e+01 1.633858e+01 1.516203e+01 1.553183e+01 2.722989e+01 3.207519e+00 3.463296e+00 5.141356e+00 4.723744e+00 4.629872e+00 7.229917e+00 2.432603e+00 4.435923e+00 2.841015e+00 2.493005e+00 1.974318e+00 1.883523e+00 4.333916e+00 3.672335e-01 7.463873e-01 7.169864e-01 5.267007e-01 9.226973e-01 6.903217e-01 4.059518e-01 7.476720e-01 4.224364e-01 3.647390e-01 3.673072e-01 3.475051e-01 5.230990e-01
<GCONST> 1.181539e+02
<TRANSP> 5
 0.000000e+00 1.000000e+00 0.000000e+00 0.000000e+00 0.000000e+00
 0.000000e+00 7.914608e-01 2.085392e-01 0.000000e+00 0.000000e+00
 0.000000e+00 0.000000e+00 9.385179e-01 6.148211e-02 0.000000e+00
 0.000000e+00 0.000000e+00 0.000000e+00 7.969026e-01 2.030974e-01
 0.000000e+00 0.000000e+00 0.000000e+00 0.000000e+00 0.000000e+00
<ENDHMM>
~h "z"
<BEGINHMM>
<NUMSTATES> 5
<STATE> 2
<MEAN> 39
 -1.145239e+01 6.966474e+00 -2.519976e+00 -3.803388e+00 -8.857688e+00 -1.442481e+01 -1.230113e+01 -1.493097e+01 -1.247163e+01 -1.057381e+01 -8.410076e+00 -9.710135e+00 6.129893e+01 -3.833488e+00 -9.034731e-01 -1.982245e+00 2.027601e+00 -2.153728e-01 3.800293e-01 2.045653e+00 7.907293e-01 1.016218e-01 1.415380e+00 9.811825e-01 4.612635e-01 9.587322e-01 6.384861e-01 -5.505192e-01 -1.241589e-01 -7.350691e-01 1.759739e-01 1.496626e-02 -4.388966e-01 4.495371e-01 4.277871e-01 -2.174423e-01 6.515340e-02 4.428442e-01 4.650470e-01
<VARIANCE> 39
 8.270515e+01 2.427659e+01 5.808716e+01 4.170540e+01 2.929117e+01 2.037788e+01 4.161842e+01 3.308205e+01 2.987289e+01 2.611536e+01 3.297375e+01 1.360147e+01 1.570444e+01 4.573752e+00 3.045623e+00 5.927112e+00 4.236327e+00 3.928946e+00 2.853298e+00 4.123320e+00 4.615337e+00 4.180145e+00 3.068427e+00 3.774968e+00 2.565832e+00 1.689833e+00 2.689666e+00 5.804278e-01 1.545498e+00 1.211583e+00 9.160915e-01 9.524280e-01 7.439077e-01 9.107544e-01 8.373391e-01 9.480031e-01 1.143874e+00 3.460785e-01 3.001177e-01
<GCONST> 1.309660e+02
<STATE> 3
<MEAN> 39
 -1.009215e+01 -5.184191e+00 -1.249435e+01 -1.037094e+01 -4.877971e+00 -1.646132e+01 -9.479198e+00 -9.162678e+00 -4.479209e+00 -1.374492e+01 -7.092754e+00 -4.316094e+00 7.271092e+01 3.294300e+00 -3.188615e+00 -2.047956e+00 -2.812366e+00 2.046957e+00 -5.464734e-01 7.096508e-01 -5.781144e-01 2.452980e+00 -2.976350e+00 2.277727e-01 -5.382611e-01 2.847829e+00 -1.061577e-01 5.990401e-02 1.091059e-01 4.256713e-01 2.381132e-01 5.935655e-01 4.165792e-01 -8.780665e-01 8.761173e-02 -2.100731e-01 3.622562e-01 -8.148530e-01 -1.473865e-01
<VARIANCE> 39
 9.003302e+01 3.786564e+01 4.419002e+01 7.450192e+01 3.162568e+01 3.713305e+01 2.965561e+01 2.261402e+01 5.280821e+01 7.628082e+01 2.088789e+01 1.576100e+01 3.757387e+01 7.855819e+00 2.273535e+00 3.381567e+00 7.154500e+00 3.249517e+00 6.533481e+00 5.663798e+00 5.626735e+00 4.376361e+00 5.455000e+00 3.421568e+00 4.290323e+00 1.713489e+00 3.299038e+00 7.572048e-01 9.473869e-01 2.272288e+00 6.311349e-01 1.376876e+00 9.585272e-01 6.076531e-01 1.141375e+00 2.006894e+00 6.601473e-01 3.694085e-01 6.430877e-01
<GCONST> 1.381726e+02
<STATE> 4
<MEAN> 39
 -1.918512e+00 -9.170130e+00 -1.472371e+01 -1.176306e+01 -2.825928e-01 -7.894044e+00 -6.041849e+00 -1.969713e+01 6.793756e+00 -1.736583e+01 3.730170e+00 -1.439839e+01 7.210995e+01 1.838181e-02 7.665430e-01 9.668481e-01 3.738757e-01 -6.509249e-01 1.033388e-01 -3.367977e-01 1.631224e-01 -4.949686e-01 1.049519e+00 4.998438e-02 -1.006284e-02 -1.005147e+00 -6.659214e-02 2.247964e-01 1.913616e-01 -4.271037e-02 -1.637193e-01 -1.333064e-01 -1.241845e-01 1.871906e-01 -2.737420e-01 1.705873e-01 -1.575122e-01 1.510248e-01 -7.776431e-02
<VARIANCE> 39
 8.393111e+00 3.736840e+01 5.386318e+01 1.553190e+01 4.940956e+01 5.281431e+01 3.077249e+01 4.817387e+01 6.464693e+01 6.837576e+01 6.448599e+01 3.334042e+01 6.454203e+01 1.016798e+00 1.458990e+00 3.703709e+00 1.497298e+00 2.833565e+00 6.474910e+00 2.490011e+00 5.176771e+00 7.085810e+00 3.274898e+00 7.325772e+00 4.274159e+00 1.297725e+00 2.028837e-01 3.268543e-01 5.185031e-01 3.327502e-01 4.711671e-01 8.936994e-01 4.763511e-01 5.889132e-01 6.903112e-01 5.626910e-01 9.599463e-01 6.282681e-01 2.554192e-01
<GCONST> 1.245573e+02
<TRANSP> 5
 0.000000e+00 1.000000e+00 0.000000e+00 0.000000e+00 0.000000e+00
 0.000000e+00 8.212933e-01 1.787067e-01 0.000000e+00 0.000000e+00
 0.000000e+00 0.000000e+00 8.076506e-01 1.923494e-01 0.000000e+00
 0.000000e+00 0.000000e+00 0.000000e+00 9.433528e-01 5.664711e-02
 0.000000e+00 0.000000e+00 0.000000e+00 0.000000e+00 0.000000e+00
<ENDHMM>
~h "ai"
<BEGINHMM>
<NUMSTATES> 5
<STATE> 2
<MEAN> 39
 -5.600677e+00 -1.866592e+01 -5.752618e+00 -8.587813e+00 -5.659654e+00 -1.148594e+01 -1.929125e+00 -9.770156e+00 -3.127909e+00 -2.082937e+01 2.484525e+00 -8.311392e+00 7.582780e+01 -2.707983e-01 1.429986e-01 3.108633e-01 2.428611e-01 -9.588272e-01 6.794841e-01 -2.216731e-01 1.981960e-01 -4.573085e-02 5.152718e-01 1.542683e-01 8.031926e-02 -1.215673e+00 -1.085510e-01 2.048948e-01 2.049579e-02 3.584303e-02 -4.269611e-04 2.292033e-02 -7.883722e-02 1.220106e-01 -1.828572e-01 6.996556e-02 -1.586401e-01 1.483737e-01 -3.397685e-01
<VARIANCE> 39
 6.495727e+00 1.272570e+01 1.158251e+01 1.691020e+01 2.538369e+01 2.042013e+01 1.661365e+01 2.484640e+01 2.032112e+01 2.351473e+01 1.586569e+01 1.794837e+01 3.764005e+01 5.537489e-01 9.132968e-01 7.202821e-01 1.072338e+00 9.025487e-01 1.200930e+00 1.070299e+00 1.482435e+00 1.733845e+00 1.375069e+00 1.684283e+00 1.449508e+00 1.900225e+00 8.213871e-02 1.304929e-01 1.158962e-01 2.382789e-01 2.167408e-01 2.617719e-01 2.097418e-01 2.399305e-01 2.319935e-01 2.724553e-01 2.728776e-01 3.239194e-01 1.471289e-01
<GCONST> 9.001001e+01
<STATE> 3
<MEAN> 39
 -1.291057e+01 -1.661641e+01 6.947147e-01 -1.903707e+00 -1.024138e+01 -3.323052e+00 -2.468253e+00 -4.815155e+00 -7.931518e+00 -1.398048e+01 8.665440e-01 -2.771167e+00 5.719995e+01 -5.914041e-01 5.735064e-01 3.203336e-01 8.055534e-01 1.822569e-01 3.635303e-01 3.657880e-01 3.117471e-01 -4.947706e-01 1.111592e+00 -1.537050e-01 8.147123e-01 -1.649393e+00 1.297680e-01 1.132930e-01 -2.175745e-01 -1.517396e-01 1.619671e-01 -2.578795e-01 -2.068941e-03 -5.098899e-02 8.254692e-02 3.113055e-02 1.108157e-01 -9.860684e-02 2.123268e-01
<VARIANCE> 39
 1.775547e+01 2.998613e+01 7.322838e+01 3.246847e+01 2.376591e+01 4.585723e+01 2.631403e+01 3.752102e+01 4.407374e+01 4.282769e+01 2.701853e+01 2.356088e+01 3.435420e+01 1.809554e+00 2.711974e+00 5.986146e+00 2.617293e+00 2.221938e+00 4.273051e+00 2.300700e+00 2.755437e+00 3.400108e+00 3.054562e+00 2.746966e+00 2.437788e+00 3.294444e+00 2.901991e-01 4.548936e-01 1.041655e+00 4.666673e-01 4.581156e-01 6.420021e-01 4.624001e-01 5.308580e-01 6.981841e-01 5.864650e-01 5.479245e-01 4.555037e-01 4.714538e-01
<GCONST> 1.226199e+02
<STATE> 4
<MEAN> 39
 -1.303178e+01 -9.273824e+00 -4.913716e+00 -9.863024e-01 -6.574340e+00 -7.100290e+00 -2.309739e+00 -2.437823e+00 -7.966941e+00 -7.930902e+00 5.128894e-01 -8.482879e-01 4.978915e+01 -3.046700e-02 1.566094e+00 -4.291414e-01 -4.368171e-01 5.128750e-01 -3.013699e-03 -5.822967e-01 -2.599407e-01 3.742521e-01 8.403296e-01 -2.896606e-01 -1.831771e-01 -8.866358e-01 9.530200e-03 -1.599064e-01 1.933471e-01 -1.622123e-01 -2.660280e-02 1.244592e-01 -1.182072e-01 -5.888421e-02 1.857547e-01 -1.371056e-01 -9.565285e-02 -1.337266e-01 2.565891e-01
<VARIANCE> 39
 4.211876e+00 1.549541e+01 1.604160e+01 1.986518e+01 1.418793e+01 2.497301e+01 1.547567e+01 2.621552e+01 2.501869e+01 2.538203e+01 1.914909e+01 1.478899e+01 2.719703e+01 3.244286e-01 1.297802e+00 1.871997e+00 1.590315e+00 1.575853e+00 2.263460e+00 1.854469e+00 2.149049e+00 2.649007e+00 2.202508e+00 2.080608e+00 1.646591e+00 4.226186e-01 6.963374e-02 2.025644e-01 2.566265e-01 2.848367e-01 2.752407e-01 4.024053e-01 3.178989e-01 3.444015e-01 4.818112e-01 4.369475e-01 4.103521e-01 3.178139e-01 1.472339e-01
<GCONST> 9.711220e+01
<TRANSP> 5
 0.000000e+00 1.000000e+00 0.000000e+00 0.000000e+00 0.000000e+00
 0.000000e+00 8.706449e-01 1.293551e-01 0.000000e+00 0.000000e+00
 0.000000e+00 0.000000e+00 8.212216e-01 1.787784e-01 0.000000e+00
 0.000000e+00 0.000000e+00 0.000000e+00 7.615196e-01 2.384804e-01
 0.000000e+00 0.000000e+00 0.000000e+00 0.000000e+00 0.000000e+00
<ENDHMM>
~h "an"
<BEGINHMM>
<NUMSTATES> 5
<STATE> 2
<MEAN> 39
 -6.006309e+00 -1.547208e+01 -9.930956e+00 -1.273340e+01 -2.425076e+00 -9.164446e+00 -7.453302e-01 -1.552913e+01 -1.180951e+00 -2.729120e+01 2.551290e+00 -1.240584e+01 8.250578e+01 -1.260543e-01 3.623695e-01 3.987719e-01 -1.358643e-01 -6.905935e-01 1.949933e-01 2.009443e-01 1.150952e-01 -2.979223e-01 4.083616e-01 2.118132e-01 -4.519581e-01 -1.650558e-01 2.966073e-02 2.903757e-01 1.947636e-01 -1.424281e-01 -2.479957e-01 -3.595732e-01 9.429471e-02 1.830125e-01 -9.229638e-02 3.675125e-01 -2.000448e-01 1.704483e-01 -1.467580e-01
<VARIANCE> 39
 2.119356e+00 4.670732e+00 6.636428e+00 1.174595e+01 1.752535e+01 1.023611e+01 1.579143e+01 1.640104e+01 3.033364e+01 7.341577e+00 1.277307e+01 8.736979e+00 4.031617e+00 9.701924e-02 4.460150e-01 8.635751e-01 8.021182e-01 1.145943e+00 1.504307e+00 1.160716e+00 9.821143e-01 1.454151e+00 1.355567e+00 9.746900e-01 1.063913e+00 1.352907e-01 2.001482e-02 8.357384e-02 7.895428e-02 1.207506e-01 9.908218e-02 1.997894e-01 1.673893e-01 2.077939e-01 2.176427e-01 2.865733e-01 1.564686e-01 1.820173e-01 2.119294e-02
<GCONST> 6.795528e+01
<STATE> 3
<MEAN> 39
 -6.956988e+00 -7.428974e+00 -2.535669e+00 -1.628598e+01 -1.371526e+01 -1.229930e+01 1.416648e+00 -1.582179e+01 -7.298071e+00 -1.469842e+01 1.283844e-01 -1.471477e+01 7.913515e+01 5.440595e-02 2.042791e+00 1.164023e+00 7.758861e-02 -1.386730e+00 -1.364910e+00 -1.386332e+00 -2.667239e-01 -1.115783e+00 2.192991e+00 -2.603447e-01 8.610669e-01 -1.109586e+00 -5.364488e-02 1.962691e-01 -1.412759e-01 5.094265e-01 2.518355e-01 1.331408e-01 -5.870455e-01 3.674412e-02 -5.745264e-02 -2.351249e-01 1.324932e-01 3.412666e-01 -1.562089e-01
<VARIANCE> 39
 2.014569e+00 1.887959e+01 9.326902e+00 9.619980e+00 2.037007e+01 2.286400e+01 2.871590e+01 1.300381e+01 1.952185e+01 4.002552e+01 1.459200e+01 9.418585e+00 7.267482e+00 1.273411e-01 3.821198e-01 2.545932e-01 1.351390e+00 5.393121e-01 8.683656e-01 3.232125e+00 1.260333e+00 1.233994e+00 1.789013e+00 2.518870e+00 2.191562e+00 1.688861e-01 8.098282e-02 6.895838e-02 8.071565e-02 2.529305e-01 1.283280e-01 3.728550e-01 3.131096e-01 3.004665e-01 2.666595e-01 3.275999e-01 5.801823e-01 2.272774e-01 1.991759e-02
<GCONST> 7.986177e+01
<STATE> 4
<MEAN> 39
 -1.515235e+01 -1.072897e+00 -6.179229e+00 -7.056559e+00 -9.527117e+00 -1.011244e+01 -7.227191e+00 -7.857910e+00 -7.145034e+00 -7.368510e+00 -2.818538e+00 -5.683977e+00 7.260339e+01 6.934175e-02 -5.700276e-01 -5.169408e-01 -1.804364e-01 4.709821e-01 -2.817089e-01 3.719067e-01 6.336943e-01 1.308687e-02 -6.792170e-01 -1.733476e-01 3.131049e-01 3.441729e-01 4.936301e-02 -3.294906e-01 -7.008149e-02 -1.963224e-01 1.544226e-01 -4.910995e-02 2.756116e-01 -9.718098e-02 1.440459e-02 -2.917450e-01 5.961666e-02 -1.615048e-01 1.925774e-01
<VARIANCE> 39
 7.376498e+01 3.207758e+01 1.958754e+01 4.621999e+01 3.106211e+01 7.354909e+01 2.461119e+01 2.744225e+01 2.394602e+01 7.390144e+01 2.516864e+01 1.345323e+01 1.659391e+01 1.053503e+01 4.323905e+00 1.765580e+00 6.148088e+00 3.708335e+00 8.259919e+00 3.323127e+00 2.397445e+00 2.612380e+00 1.095650e+01 4.129379e+00 1.869321e+00 2.347466e+00 1.540019e+00 5.805697e-01 3.862836e-01 6.199911e-01 6.227599e-01 1.273640e+00 5.249242e-01 4.465332e-01 4.793624e-01 1.243080e+00 9.779864e-01 3.634602e-01 2.209121e-01
<GCONST> 1.282825e+02
<TRANSP> 5
 0.000000e+00 1.000000e+00 0.000000e+00 0.000000e+00 0.000000e+00
 0.000000e+00 8.796709e-01 1.203292e-01 0.000000e+00 0.000000e+00
 0.000000e+00 0.000000e+00 8.060146e-01 1.939854e-01 0.000000e+00
 0.000000e+00 0.000000e+00 0.000000e+00 9.337620e-01 6.623805e-02
 0.000000e+00 0.000000e+00 0.000000e+00 0.000000e+00 0.000000e+00
<ENDHMM>
~h "ao"
<BEGINHMM>
<NUMSTATES> 5
<STATE> 2
<MEAN> 39
 -6.749410e+00 2.142192e+00 7.157769e+00 -1.307817e+01 -1.219037e+01 -1.453518e+01 -5.404571e+00 -1.351820e+01 -1.259282e+01 -7.473459e+00 -3.754432e+00 -9.043476e+00 6.821648e+01 1.330674e+00 -1.172788e+00 -2.838221e-01 -8.078927e-01 -6.630497e-01 -1.624401e+00 5.141038e-01 -7.238523e-01 -3.274485e-01 -2.652688e+00 -2.755582e-01 -4.613996e-01 1.739486e+00 -2.172169e-01 -5.252497e-01 -1.461268e+00 2.149435e-01 6.657913e-01 1.220358e-01 5.011483e-02 6.285977e-02 1.331100e+00 -2.781641e-01 7.979682e-02 -5.102451e-02 1.927349e-01
<VARIANCE> 39
 2.693431e+01 3.729995e+01 5.325496e+01 5.817239e+01 5.409220e+01 3.930513e+01 5.177050e+01 3.615830e+01 2.566475e+01 7.396902e+01 3.230541e+01 1.967239e+01 3.644867e+01 6.734673e+00 5.206260e+00 1.125879e+01 9.840015e+00 6.089708e+00 5.830711e+00 6.793673e+00 4.230872e+00 7.913412e+00 1.106112e+01 3.541234e+00 2.496745e+00 4.979187e+00 1.054880e+00 8.400611e-01 1.496954e+00 1.332046e+00 1.549965e+00 1.178092e+00 1.503205e+00 9.085036e-01 8.456342e-01 8.951170e-01 4.803246e-01 5.228914e-01 3.543237e-01
<GCONST> 1.416590e+02
<STATE> 3
<MEAN> 39
 -5.110670e+00 -6.676356e+00 -2.215666e+00 -1.568282e+01 -9.408280e+00 -1.698329e+01 -2.254303e+00 -1.418780e+01 -6.609087e+00 -1.920226e+01 -2.101046e+00 -9.726850e+00 7.642817e+01 8.299569e-01 -2.628296e+00 -3.634201e+00 -9.890100e-02 1.943417e+00 8.528677e-02 5.410961e-01 -4.200965e-01 3.747916e+00 -2.594703e+00 6.555808e-02 -7.875605e-01 1.698827e+00 -4.118724e-01 2.509057e-01 -1.761967e-01 2.949075e-01 7.313226e-01 8.131648e-01 -1.381472e-01 -1.890275e-01 8.161272e-01 8.213015e-01 1.715344e-01 -1.123990e-01 -4.631330e-01
<VARIANCE> 39
 1.000110e+01 2.864980e+01 4.898692e+01 5.709586e+01 3.811347e+01 2.377329e+01 2.262651e+01 2.614799e+01 4.506352e+01 8.668884e+01 2.117731e+01 1.925947e+01 1.518677e+01 9.205422e-01 1.967059e+00 2.995741e+00 3.552258e+00 5.016796e+00 2.932109e+00 3.867465e+00 4.242002e+00 5.596791e+00 3.962966e+00 2.147205e+00 1.938666e+00 2.002372e+00 4.403219e-01 4.831983e-01 7.039913e-01 1.018111e+00 5.880868e-01 5.047643e-01 8.314314e-01 9.522781e-01 1.434018e+00 1.417358e+00 4.222602e-01 4.697501e-01 2.670075e-01
<GCONST> 1.235719e+02
<STATE> 4
<MEAN> 39
 -2.990456e+00 -1.086505e+01 -1.154071e+01 -1.628657e+01 -2.327535e-01 -1.085745e+01 -4.028907e+00 -2.110291e+01 7.008874e+00 -2.273694e+01 -7.994509e-01 -1.372350e+01 7.809032e+01 3.204144e-01 -2.040781e-01 -6.655599e-01 -2.195016e-02 7.482998e-01 4.893515e-01 -5.433428e-01 -8.039340e-01 1.367159e+00 5.192065e-01 -5.883078e-02 -3.539114e-01 -1.305238e-01 -2.240960e-02 3.205519e-01 3.809415e-01 7.777605e-03 -2.051526e-01 1.770093e-02 -1.364552e-01 -2.168770e-02 -5.485812e-01 4.409027e-01 -1.101002e-02 7.892466e-02 -2.431415e-01
<VARIANCE> 39
 7.818447e+00 2.310426e+01 4.000982e+01 3.172690e+01 3.693687e+01 5.868437e+01 3.016027e+01 4.274348e+01 4.454163e+01 6.071445e+01 2.865539e+01 2.657471e+01 1.164176e+01 4.913545e-01 1.978313e+00 4.948639e+00 2.362931e+00 5.353158e+00 3.137389e+00 3.009840e+00 3.404936e+00 7.444182e+00 4.029574e+00 3.286440e+00 2.889882e+00 6.977665e-01 4.295322e-02 2.671199e-01 2.653196e-01 5.627608e-01 4.379941e-01 6.179282e-01 4.724358e-01 5.264447e-01 5.925295e-01 6.785816e-01 5.710717e-01 3.728951e-01 8.453891e-02
<GCONST> 1.147306e+02
<TRANSP> 5
 0.000000e+00 1.000000e+00 0.000000e+00 0.000000e+00 0.000000e+00
 0.000000e+00 6.588422e-01 3.411578e-01 0.000000e+00 0.000000e+00
 0.000000e+00 0.000000e+00 5.669196e-01 4.330805e-01 0.000000e+00
 0.000000e+00 0.000000e+00 0.000000e+00 7.869678e-01 2.130322e-01
 0.000000e+00 0.000000e+00 0.000000e+00 0.000000e+00 0.000000e+00
<ENDHMM>
~h "ch"
<BEGINHMM>
<NUMSTATES> 5
<STATE> 2
<MEAN> 39
 4.548109e-01 -4.643317e+00 -9.380912e+00 -7.599708e+00 -1.597824e+00 -8.235766e+00 -1.581632e+01 -1.763376e+01 -2.153371e+00 -6.556446e+00 -7.969059e+00 -1.023629e+01 6.258614e+01 -1.923439e+00 2.896967e-03 -3.957563e-01 2.064719e+00 -4.758567e-01 -6.642174e-01 5.335521e-01 2.284655e+00 -1.548020e+00 1.260757e+00 1.951255e-01 8.152733e-01 -8.534721e-01 -8.344110e-01 -2.954708e-01 -3.502221e-01 -2.940978e-01 -2.359298e-02 4.264871e-02 5.777934e-01 1.669913e-01 6.825199e-01 -3.859705e-01 5.964418e-01 9.534276e-02 8.706174e-01
<VARIANCE> 39
 2.096101e+01 2.547003e+01 2.110671e+01 5.613295e+01 2.142337e+01 2.814009e+01 2.348253e+01 5.432792e+01 5.090371e+01 2.198440e+01 2.318685e+01 2.043415e+01 4.760271e+01 4.681606e+00 5.841516e+00 5.468520e+00 8.152453e+00 3.326728e+00 4.148435e+00 4.088450e+00 2.351030e+00 8.934714e+00 3.145791e+00 3.987510e+00 2.554558e+00 1.248560e+01 2.461359e-01 1.026264e+00 8.675039e-01 1.546902e+00 7.678517e-01 9.344448e-01 4.123577e-01 4.418732e-01 1.153330e+00 6.962137e-01 4.037994e-01 5.479046e-01 2.033424e+00
<GCONST> 1.316724e+02
<STATE> 3
<MEAN> 39
 -2.412139e+01 -1.084324e+01 -1.091546e+01 -4.798239e-01 -7.500432e+00 -1.328997e+01 -5.756770e+00 -1.224008e+00 2.908373e+00 -3.135734e+00 -2.604539e+00 -2.854110e+00 7.483826e+01 -1.542569e+00 -5.705839e-01 1.395097e+00 8.949152e-01 -5.551600e-01 -6.882972e-01 7.735476e-01 1.460708e+00 1.124731e+00 -2.420317e-01 -2.694776e-01 5.130677e-01 8.063347e-01 1.385747e+00 4.154820e-01 3.931840e-01 -1.045630e-01 3.687736e-01 7.380203e-02 -3.446460e-01 -6.516349e-01 -5.622466e-01 -4.285302e-01 -4.765765e-01 -3.074151e-01 -1.000520e+00
<VARIANCE> 39
 3.115475e+01 9.769711e+00 4.022056e+01 2.159394e+01 1.960133e+01 1.226696e+01 2.298179e+01 2.616546e+01 2.236399e+01 1.746334e+01 1.382934e+01 1.360698e+01 1.057143e+01 1.404850e+01 1.180948e+00 3.097961e+00 1.833689e+00 2.919568e+00 1.931699e+00 2.796886e+00 2.972095e+00 2.555785e+00 2.444381e+00 2.312750e+00 2.031072e+00 9.058291e+00 8.131929e-01 3.452366e-01 1.129480e+00 3.723431e-01 4.145171e-01 4.406337e-01 4.376473e-01 6.556980e-01 5.248688e-01 4.629513e-01 4.400110e-01 3.557542e-01 7.311964e-01
<GCONST> 1.149160e+02
<STATE> 4
<MEAN> 39
 -1.413821e+01 -9.508114e+00 -3.504208e+00 1.497793e+00 -4.077794e+00 -1.536139e+01 -5.421891e+00 -4.275580e+00 4.776126e-01 -1.074297e+01 -7.398455e+00 -3.416574e+00 6.815079e+01 4.445479e+00 1.994117e+00 1.934591e+00 -1.106728e+00 5.070915e-02 -2.192121e+00 -2.343203e-01 -3.945385e+00 -3.250735e+00 -2.638201e+00 -1.302952e+00 -6.284153e-01 -3.924137e-01 -2.386755e-02 2.996627e-01 -1.455882e-01 -9.712259e-01 -5.479188e-01 -5.963065e-01 2.515110e-01 -6.333659e-01 -3.768731e-01 1.648295e-01 4.552196e-01 3.459875e-03 9.070508e-01
<VARIANCE> 39
 4.954874e+01 2.395060e+01 3.959943e+01 3.150405e+01 3.517921e+01 2.008043e+01 2.618890e+01 8.485629e+01 4.745251e+01 4.949825e+01 2.189112e+01 2.087771e+01 9.036288e+00 2.648091e+00 2.109727e+00 1.710085e+00 4.052365e+00 2.416441e+00 3.127306e+00 1.785302e+00 6.300366e+00 3.589222e+00 3.275131e+00 2.336426e+00 1.536219e+00 2.075747e+00 7.300153e-01 6.538318e-01 4.159046e-01 5.904721e-01 2.944742e-01 4.412046e-01 4.794457e-01 1.349721e+00 1.072801e+00 8.313534e-01 4.861284e-01 4.398535e-01 2.294880e-01
<GCONST> 1.210620e+02
<TRANSP> 5
 0.000000e+00 1.000000e+00 0.000000e+00 0.000000e+00 0.000000e+00
 0.000000e+00 8.663623e-01 1.336377e-01 0.000000e+00 0.000000e+00
 0.000000e+00 0.000000e+00 8.458548e-01 1.541452e-01 0.000000e+00
 0.000000e+00 0.000000e+00 0.000000e+00 6.872119e-01 3.127881e-01
 0.000000e+00 0.000000e+00 0.000000e+00 0.000000e+00 0.000000e+00
<ENDHMM>
~h "ei"
<BEGINHMM>
<NUMSTATES> 5
<STATE> 2
<MEAN> 39
 -1.776472e+01 -9.458146e+00 -1.477638e+01 -2.781435e+00 7.673381e+00 -1.938565e+01 -2.328030e+00 5.717875e-01 2.979043e+00 -6.594110e+00 -6.172463e-01 -7.653892e+00 6.978522e+01 -1.264915e+00 -1.339606e+00 2.041752e+00 6.310472e-01 -3.089591e+00 -5.104142e-01 3.061696e+00 1.152521e+00 -7.487321e-02 2.342600e-01 4.972361e-01 2.413334e+00 2.730735e-02 6.838559e-01 3.457131e-01 9.078829e-01 -7.121162e-01 -6.126862e-01 1.044186e+00 -6.219773e-01 -1.482266e+00 -6.186050e-01 -5.054548e-01 5.442090e-02 -3.106691e-01 -3.025876e-01
<VARIANCE> 39
 1.022213e+01 1.465786e+01 3.259603e+01 2.143456e+01 7.594401e+01 4.061280e+01 5.277800e+01 3.912225e+01 2.484136e+01 2.459825e+01 2.081203e+01 4.290730e+01 1.193873e+01 1.248375e+00 1.044267e+00 4.514052e+00 3.924320e+00 3.113487e+00 9.606771e+00 2.812978e+00 9.847413e+00 4.245183e+00 3.702060e+00 2.379355e+00 4.210177e+00 1.550818e+00 2.268878e-01 3.541971e-01 2.999712e-01 3.686228e-01 8.964580e-01 7.368376e-01 9.988281e-01 7.861949e-01 6.778873e-01 1.165942e+00 8.052630e-01 9.051726e-01 2.056076e-01
<GCONST> 1.224364e+02
<STATE> 3
<MEAN> 39
 -1.696339e+01 -1.077986e+01 4.795918e+00 -7.185867e+00 -8.799763e+00 -1.107256e+01 1.544030e+00 -8.491899e+00 -3.749392e+00 -6.627639e+00 -5.148393e-01 -3.224185e+00 6.637479e+01 2.955019e+00 2.180272e+00 4.231355e+00 -3.368337e+00 -4.085101e+00 9.015495e-01 -3.816356e+00 -4.675869e+00 -3.577205e+00 6.534786e-01 -3.056112e+00 2.735434e-01 6.417199e-01 5.101517e-01 4.744630e-01 -1.146256e+00 -8.165505e-01 2.087639e-01 -8.232616e-01 -8.233050e-01 1.163180e-01 -2.545512e-01 1.642142e-01 -1.128987e+00 -1.308796e-01 9.264284e-01
<VARIANCE> 39
 2.261360e+01 2.573991e+01 5.311094e+01 2.253712e+01 3.713265e+01 3.870848e+01 7.275331e+01 6.147414e+01 4.369095e+01 1.967470e+01 2.481726e+01 2.192063e+01 8.257086e+00 1.511264e+00 1.311182e+00 3.938718e+00 2.964697e+00 2.851256e+00 4.688885e+00 5.163274e+00 2.605723e+00 3.065758e+00 2.012711e+00 4.067387e+00 3.134011e+00 2.303597e+00 6.362392e-01 6.502210e-01 6.914090e-01 3.249274e-01 4.795168e-01 6.291286e-01 2.178982e+00 1.509853e+00 1.009364e+00 4.156254e-01 5.837436e-01 5.330679e-01 1.722965e-01
<GCONST> 1.233295e+02
<STATE> 4
<MEAN> 39
 -7.807839e+00 -4.819329e+00 7.081510e+00 -2.251921e+01 -1.974724e+01 -1.271548e+01 -8.913383e+00 -1.740237e+01 -1.406285e+01 -4.264033e+00 -1.461721e+01 -2.378437e+00 7.397290e+01 7.481904e-01 3.214968e-01 -5.166991e-01 -3.768913e+00 -1.292250e+00 1.987052e-01 -1.235946e-02 -2.993949e-01 -8.248733e-01 7.963278e-01 -2.752875e+00 -4.636559e-01 2.194990e+00 -9.572970e-01 -6.911979e-01 -4.830509e-01 9.400765e-01 1.182797e+00 8.682909e-02 1.235738e+00 1.029826e+00 1.117024e+00 1.883308e-02 1.037475e+00 -2.798645e-01 -3.446791e-01
<VARIANCE> 39
 4.491076e+00 1.426907e+01 1.522283e+01 2.335714e+01 2.135865e+01 2.204966e+01 4.037555e+01 2.819097e+01 2.301560e+01 1.861724e+01 1.988362e+01 2.821085e+01 9.124795e+00 2.408387e+00 2.068318e+00 2.040267e+00 2.959712e+00 3.417428e+00 2.825288e+00 6.428584e+00 4.437756e+00 4.541421e+00 1.809530e+00 4.384764e+00 2.384242e+00 1.312850e+00 1.485045e-01 2.125609e-01 6.621234e-01 4.449558e-01 3.941137e-01 5.003869e-01 9.142934e-01 1.030093e+00 4.685507e-01 3.246475e-01 4.078566e-01 4.708930e-01 2.419916e-01
<GCONST> 1.119386e+02
<TRANSP> 5
 0.000000e+00 1.000000e+00 0.000000e+00 0.000000e+00 0.000000e+00
 0.000000e+00 8.371311e-01 1.628690e-01 0.000000e+00 0.000000e+00
 0.000000e+00 0.000000e+00 6.691803e-01 3.308197e-01 0.000000e+00
 0.000000e+00 0.000000e+00 0.000000e+00 6.626332e-01 3.373667e-01
 0.000000e+00 0.000000e+00 0.000000e+00 0.000000e+00 0.000000e+00
<ENDHMM>
~h "er"
<BEGINHMM>
<NUMSTATES> 5
<STATE> 2
<MEAN> 39
 -7.563312e+00 -4.297072e+00 -1.158648e+00 -1.392544e+01 -7.461350e+00 -1.666594e+01 -6.611624e+00 -1.112991e+01 -1.183742e+00 -1.488260e+01 1.725235e+00 -5.813611e+00 6.860419e+01 1.218609e+00 -4.745291e-01 -6.565298e-01 -1.624185e+00 1.693422e-01 -5.722117e-01 -8.947469e-02 -8.618408e-01 6.648482e-01 -1.460287e+00 9.786725e-02 -1.125081e+00 2.938302e+00 5.489851e-02 -5.410935e-01 -4.021541e-01 1.064772e-01 1.921697e-01 2.660905e-01 5.168313e-01 -1.709268e-01 -7.291919e-02 -7.939561e-02 -1.856305e-01 -3.751147e-02 2.179305e-01
<VARIANCE> 39
 2.829444e+01 6.540626e+01 7.733764e+01 8.401001e+01 3.878439e+01 8.286636e+01 3.167447e+01 1.260795e+02 3.274973e+01 7.921783e+01 2.361632e+01 2.681021e+01 9.243226e+01 2.579990e+00 4.826832e+00 2.858938e+00 3.896457e+00 2.998309e+00 4.732746e+00 6.177432e+00 5.082914e+00 2.579338e+00 4.644267e+00 2.015890e+00 1.446217e+00 4.799998e+00 5.675477e-01 5.281180e-01 3.423496e-01 7.212689e-01 6.713113e-01 1.129238e+00 8.711051e-01 8.722625e-01 6.112168e-01 7.877350e-01 4.089906e-01 3.404532e-01 7.676359e-01
<GCONST> 1.332172e+02
<STATE> 3
<MEAN> 39
 -4.920555e+00 -1.317193e+01 -6.954093e+00 -1.846179e+01 -4.975000e+00 -1.534810e+01 1.302398e+00 -1.529340e+01 6.269753e-01 -2.154796e+01 1.870160e+00 -1.069383e+01 8.112186e+01 1.664396e-02 -1.958590e+00 -2.237695e+00 1.278131e+00 2.237764e+00 1.218922e+00 -1.994188e-01 4.925668e-03 3.078908e-01 -2.123727e+00 -6.752760e-01 -1.470351e-01 1.176018e+00 -1.483450e-01 4.486634e-01 2.386921e-01 1.621164e-01 2.685735e-02 1.065729e-01 -8.365173e-01 -6.211568e-02 -2.448127e-02 4.902371e-01 -1.772310e-01 1.602118e-01 -3.900658e-01
<VARIANCE> 39
 8.294115e+00 4.620819e+01 4.008553e+01 3.868101e+01 5.130085e+01 3.172851e+01 2.812149e+01 2.414233e+01 2.086709e+01 4.519431e+01 1.497118e+01 9.920855e+00 1.093871e+01 4.700673e-01 1.732854e+00 2.023780e+00 1.035327e+00 2.819549e+00 2.617546e+00 6.711536e+00 3.174081e+00 2.341442e+00 5.439317e+00 2.570749e+00 1.343302e+00 1.385685e+00 6.825907e-02 2.145270e-01 1.580302e-01 3.455033e-01 7.486550e-01 3.884368e-01 7.444603e-01 5.689825e-01 3.294891e-01 8.167450e-01 3.611698e-01 3.250859e-01 1.109909e-01
<GCONST> 1.079535e+02
<STATE> 4
<MEAN> 39
 -4.710413e+00 -1.793333e+01 -1.115552e+01 -1.333162e+01 -9.871081e-01 -7.291747e+00 -3.295525e+00 -1.516480e+01 7.356434e-01 -2.033113e+01 -8.130720e-01 -9.862866e+00 7.867332e+01 1.032017e-01 -1.986529e-01 -3.891304e-02 1.287000e-01 -1.128248e-01 -2.718442e-02 1.330063e-01 -6.729361e-02 -2.799098e-01 1.518077e-01 -3.285717e-01 1.388475e-01 -2.973910e-02 1.999861e-02 5.104798e-02 5.812401e-02 -4.755015e-02 -8.626749e-02 -1.257112e-01 9.335191e-02 3.762906e-02 -6.145132e-02 -1.042118e-02 -1.362472e-02 1.311215e-02 -4.817478e-02
<VARIANCE> 39
 8.005313e+00 3.065825e+01 2.553343e+01 2.293222e+01 2.329129e+01 3.776125e+01 2.310396e+01 3.532460e+01 4.625260e+01 4.468223e+01 2.860998e+01 3.214858e+01 4.381527e+01 5.895955e-01 1.693676e+00 9.132860e-01 1.872529e+00 1.510369e+00 2.958900e+00 1.886382e+00 3.256003e+00 2.512895e+00 2.277988e+00 2.122247e+00 1.764777e+00 4.394962e+00 1.080640e-01 3.559266e-01 1.594712e-01 3.331427e-01 2.246004e-01 3.642857e-01 3.418476e-01 5.439737e-01 4.188515e-01 3.317249e-01 3.868559e-01 2.545355e-01 8.163496e-01
<GCONST> 1.087944e+02
<TRANSP> 5
 0.000000e+00 1.000000e+00 0.000000e+00 0.000000e+00 0.000000e+00
 0.000000e+00 7.428961e-01 2.571039e-01 0.000000e+00 0.000000e+00
 0.000000e+00 0.000000e+00 7.232451e-01 2.767549e-01 0.000000e+00
 0.000000e+00 0.000000e+00 0.000000e+00 9.613053e-01 3.869475e-02
 0.000000e+00 0.000000e+00 0.000000e+00 0.000000e+00 0.000000e+00
<ENDHMM>
~h "iu"
<BEGINHMM>
<NUMSTATES> 5
<STATE> 2
<MEAN> 39
 -1.824540e+00 -7.018645e-01 -1.278696e+01 -1.415668e+01 7.014738e+00 -1.811311e+01 -1.154420e+01 -1.695313e+01 5.959915e+00 -2.001470e+01 -3.481674e+00 -1.147580e+01 7.036506e+01 -1.242562e-02 1.885425e-02 3.012166e+00 9.851186e-01 -1.801823e+00 -1.175523e+00 -1.610316e+00 1.560262e+00 -7.962239e-01 -9.027579e-01 -2.272789e+00 2.035678e+00 -7.841682e-01 2.058475e-01 2.180137e-01 7.455384e-01 3.710384e-02 -9.987689e-01 7.285559e-01 -1.170368e-01 -3.247926e-01 -3.258350e-01 3.314176e-01 6.759627e-02 5.935516e-01 -3.814467e-01
<VARIANCE> 39
 5.017745e+00 1.743129e+01 4.302591e+01 1.730275e+01 2.876375e+01 4.972888e+01 2.249418e+01 4.422957e+01 3.296006e+01 3.746938e+01 5.374528e+01 6.443056e+01 9.199144e+00 7.922983e-01 1.217787e+00 4.765113e+00 1.288319e+00 6.734638e+00 7.724370e+00 2.133058e+00 4.008204e+00 2.975295e+00 3.304922e+00 2.372196e+00 6.297722e+00 1.553290e+00 1.320283e-01 1.962505e-01 5.515848e-01 2.753416e-01 5.348493e-01 1.484639e+00 3.644282e-01 9.435873e-01 5.649166e-01 5.637733e-01 7.536508e-01 1.077409e+00 1.369221e-01
<GCONST> 1.175471e+02
<STATE> 3
<MEAN> 39
 5.586726e-01 2.752498e+00 5.608556e+00 -1.052771e+01 -1.083387e+01 -1.335376e+01 -2.059017e+01 -1.550208e+01 8.508148e-01 -1.905166e+01 -9.813924e+00 -7.802373e-01 6.329106e+01 -3.385647e-02 -4.976091e-01 3.284041e-01 2.342003e-01 -1.191358e+00 -2.408419e-01 3.744419e-01 7.229125e-01 -1.159404e+00 3.911680e-01 -2.997766e-02 3.254765e-01 4.145434e-01 -3.158717e-01 -7.489293e-01 -1.274525e+00 -1.727005e-01 1.085033e+00 -6.096938e-01 1.022353e+00 4.023489e-01 -2.602172e-01 -1.850026e-01 3.976384e-01 -5.407739e-01 8.738267e-01
<VARIANCE> 39
 1.072374e+01 2.442102e+01 1.946645e+01 1.624154e+01 2.198087e+01 2.801738e+01 2.637384e+01 2.069166e+01 2.827730e+01 2.273396e+01 2.179412e+01 2.403950e+01 1.250152e+01 1.471384e+00 3.636730e+00 9.037134e+00 1.432877e+00 7.187334e+00 7.004783e+00 7.372247e+00 3.651854e+00 3.147521e+00 2.359871e+00 2.042528e+00 3.170809e+00 4.203115e+00 2.247108e-01 4.538370e-01 4.535878e-01 2.825390e-01 4.972137e-01 8.770444e-01 6.208645e-01 5.309990e-01 5.906883e-01 5.418670e-01 4.910368e-01 6.032633e-01 2.147219e-01
<GCONST> 1.175677e+02
<STATE> 4
<MEAN> 39
 -2.749954e+00 -7.341335e+00 -6.352802e+00 -1.130766e+01 -4.711763e+00 -2.204181e+01 -8.239535e+00 -7.381937e+00 -8.565762e+00 -1.935500e+01 -6.483217e+00 -1.956901e+00 7.455617e+01 -1.303761e+00 -4.416765e+00 -3.250585e+00 -5.352749e-01 2.804848e+00 -4.982289e-01 4.167211e+00 1.448994e+00 -2.334802e+00 -1.546881e+00 2.336615e+00 -1.286166e+00 3.565402e+00 5.774613e-02 6.610811e-03 8.002958e-01 7.821514e-02 -2.461230e-01 1.120880e+00 -4.228121e-01 -7.691749e-01 8.172696e-01 -2.305173e-01 2.641486e-01 -4.313706e-01 -4.940810e-01
<VARIANCE> 39
 6.652359e+00 2.423003e+01 1.815489e+01 1.096686e+01 2.200373e+01 1.750747e+01 2.356373e+01 2.351471e+01 2.643823e+01 2.718069e+01 2.015581e+01 2.127146e+01 1.156431e+01 8.051951e-01 2.914883e+00 3.989563e+00 1.651068e+00 4.077544e+00 3.610300e+00 3.495042e+00 3.176353e+00 2.926716e+00 3.036546e+00 2.548141e+00 3.679215e+00 1.660237e+00 1.418323e-01 4.518121e-01 4.720696e-01 2.492964e-01 5.330899e-01 4.429359e-01 6.185272e-01 4.370240e-01 5.876443e-01 4.921285e-01 5.421902e-01 4.706125e-01 2.240584e-01
<GCONST> 1.104338e+02
<TRANSP> 5
 0.000000e+00 1.000000e+00 0.000000e+00 0.000000e+00 0.000000e+00
 0.000000e+00 7.800028e-01 2.199972e-01 0.000000e+00 0.000000e+00
 0.000000e+00 0.000000e+00 8.138922e-01 1.861078e-01 0.000000e+00
 0.000000e+00 0.000000e+00 0.000000e+00 4.628482e-01 5.371518e-01
 0.000000e+00 0.000000e+00 0.000000e+00 0.000000e+00 0.000000e+00
<ENDHMM>
~h "si"
<BEGINHMM>
<NUMSTATES> 5
<STATE> 2
<MEAN> 39
 -6.451494e+00 -5.362145e+00 -3.466180e+00 -1.506767e+01 -7.007717e+00 -2.069964e+01 -2.253165e+00 -9.997801e+00 -3.992310e+00 -1.627669e+01 -5.536283e-01 -6.107252e+00 7.315498e+01 6.706596e-01 -1.232364e+00 -1.187828e+00 -2.979743e-01 9.700031e-01 1.553690e-01 4.679298e-01 -6.921142e-01 4.953979e-01 -2.435155e+00 3.990116e-01 -7.408487e-01 2.082608e+00 -8.403162e-02 -2.130001e-01 -1.234539e-01 2.256923e-01 8.242285e-02 4.920526e-01 -1.276777e-01 -3.183662e-01 1.649788e-01 1.484980e-02 4.777086e-02 -8.018876e-02 -1.347234e-01
<VARIANCE> 39
 1.685413e+01 6.204857e+01 4.709011e+01 3.741823e+01 3.869184e+01 3.684711e+01 4.695728e+01 3.741771e+01 3.512685e+01 9.026519e+01 3.060163e+01 4.979881e+01 9.897227e+01 1.834982e+00 5.920242e+00 2.554081e+00 4.830107e+00 4.196492e+00 8.709627e+00 5.464164e+00 2.375904e+00 3.035839e+00 5.644448e+00 3.108456e+00 3.042335e+00 4.633287e+00 3.010850e-01 9.273900e-01 3.985602e-01 7.808986e-01 5.990349e-01 9.798429e-01 1.221762e+00 4.146389e-01 7.184333e-01 8.935035e-01 3.942599e-01 6.686962e-01 6.014362e-01
<GCONST> 1.325640e+02
<STATE> 3
<MEAN> 39
 -4.807008e+00 -1.267786e+01 -1.050581e+01 -1.488289e+01 -2.617940e+00 -1.214372e+01 -1.782443e+00 -1.807399e+01 2.979800e+00 -2.567694e+01 9.609954e-01 -1.389298e+01 8.024169e+01 2.565074e-02 5.730026e-01 2.667800e-01 -1.096704e-02 -2.763084e-01 -2.534391e-01 -4.792880e-01 -1.041168e-01 -2.364917e-02 4.461400e-01 -1.080664e-01 -6.317365e-02 -3.439716e-01 -2.667451e-02 2.128090e-01 2.161885e-01 1.709264e-02 -2.027957e-01 -2.569321e-01 -9.282701e-02 1.609440e-01 -2.406459e-01 2.756759e-01 -5.646330e-02 1.724690e-01 -1.158244e-01
<VARIANCE> 39
 3.079738e+00 1.828682e+01 2.275724e+01 2.296305e+01 5.405257e+01 1.903078e+01 4.022149e+01 4.275161e+01 6.363492e+01 3.576666e+01 1.703171e+01 2.460648e+01 9.210241e+00 1.516234e-01 7.922407e-01 1.368822e+00 1.213002e+00 1.979167e+00 3.142732e+00 1.812288e+00 2.494004e+00 3.088182e+00 1.870855e+00 1.347451e+00 2.068966e+00 2.215578e-01 2.590420e-02 9.812520e-02 1.331621e-01 2.475096e-01 1.819070e-01 2.747141e-01 3.206482e-01 3.107808e-01 2.853687e-01 3.800172e-01 2.544248e-01 3.137543e-01 1.926326e-02
<GCONST> 9.194897e+01
<STATE> 4
<MEAN> 39
 -1.770405e+01 -1.183223e+00 -6.820015e+00 -3.315619e+00 -9.794680e+00 -1.230128e+01 -9.525688e+00 -8.156494e+00 -7.000949e+00 -8.838723e+00 -3.251070e+00 -2.866846e+00 7.180579e+01 -1.202089e-01 2.096401e-01 -4.235101e-02 4.438274e-01 -2.248270e-01 -5.414902e-02 -3.508100e-01 1.621733e-01 -2.928993e-01 1.481014e-01 -2.517423e-01 5.375612e-01 -9.410712e-02 7.557548e-03 -4.927742e-02 -4.948164e-02 -6.819245e-02 1.885125e-02 8.809882e-02 1.233629e-01 -5.694156e-02 8.916324e-02 -8.418144e-02 3.857248e-02 -9.625217e-02 5.372679e-02
<VARIANCE> 39
 8.241090e+01 1.660649e+01 1.840016e+01 3.061871e+01 2.788401e+01 8.468832e+01 3.838447e+01 3.365637e+01 2.968451e+01 5.657341e+01 3.207035e+01 2.725640e+01 8.864800e+00 6.435357e+00 2.102376e+00 1.710450e+00 3.317487e+00 2.503275e+00 7.629508e+00 4.386007e+00 3.433770e+00 3.824959e+00 5.330347e+00 3.348811e+00 2.278701e+00 5.992004e-01 7.648636e-01 3.653548e-01 3.360160e-01 4.817473e-01 4.349120e-01 1.328405e+00 8.107558e-01 5.859421e-01 6.698924e-01 7.016655e-01 6.485423e-01 4.333507e-01 6.221738e-02
<GCONST> 1.218925e+02
<TRANSP> 5
 0.000000e+00 1.000000e+00 0.000000e+00 0.000000e+00 0.000000e+00
 0.000000e+00 8.180628e-01 1.819371e-01 0.000000e+00 0.000000e+00
 0.000000e+00 0.000000e+00 9.307962e-01 6.920377e-02 0.000000e+00
 0.000000e+00 0.000000e+00 0.000000e+00 9.592330e-01 4.076695e-02
 0.000000e+00 0.000000e+00 0.000000e+00 0.000000e+00 0.000000e+00
<ENDHMM>
~h "sp"
<BEGINHMM>
<NUMSTATES> 3
<STATE> 2
~s "silst"
<TRANSP> 3
 0.000000e+00 7.029573e-02 9.297043e-01
 0.000000e+00 7.694049e-01 2.305950e-01
 0.000000e+00 0.000000e+00 0.000000e+00
<ENDHMM>
~h "un"
<BEGINHMM>
<NUMSTATES> 5
<STATE> 2
<MEAN> 39
 -3.791518e+00 -4.536738e+00 -5.626757e-01 -8.986761e+00 -9.601449e+00 -2.658492e+01 -2.391792e+00 -1.582412e+01 -8.241870e+00 -1.482992e+01 -7.503729e+00 -3.919834e+00 7.416754e+01 5.193707e-01 1.380138e-01 3.489962e-01 -3.260092e+00 -1.047967e+00 -8.234366e-01 2.170586e+00 -9.194062e-01 -9.157946e-01 8.404586e-02 1.373155e+00 1.500447e-01 1.621093e+00 -1.219383e+00 -3.729785e-01 4.106880e-02 2.190993e-01 1.816648e-01 1.174888e+00 1.970557e-01 1.169456e+00 5.759008e-01 7.526820e-01 2.545536e-01 4.360282e-02 -3.162512e-01
<VARIANCE> 39
 2.714701e+00 1.301719e+01 9.356835e+00 2.299829e+01 1.865806e+01 1.486697e+01 3.087185e+01 2.062981e+01 1.704403e+01 1.458776e+01 3.017919e+01 1.544085e+01 8.591939e+00 3.463378e+00 1.830276e+00 1.193245e+00 1.784415e+00 1.295439e+00 4.890594e+00 2.449102e+00 5.960212e+00 3.165854e+00 2.987886e+00 2.059395e+00 2.153026e+00 1.102914e+00 4.183520e-01 4.344036e-01 3.722909e-01 4.917397e-01 2.953798e-01 2.947696e-01 7.576627e-01 7.768004e-01 5.861931e-01 3.068963e-01 6.915599e-01 3.420791e-01 3.555239e-01
<GCONST> 1.069051e+02
<STATE> 3
<MEAN> 39
 -4.915142e+00 4.363484e-01 6.547178e+00 -1.665645e+01 -1.014840e+01 -2.137811e+01 -3.432369e+00 -1.396373e+01 -1.276800e+01 -9.316155e+00 -4.928236e+00 -3.843555e+00 7.019348e+01 7.121147e-01 1.128525e+00 7.394453e-01 -1.251840e-01 -7.363228e-02 2.168189e-01 -1.632650e+00 4.773873e-01 -7.418056e-01 5.576000e-01 -2.533333e-01 -3.598492e-01 -1.322716e+00 2.494988e-01 1.636918e-02 -1.664721e-01 3.057012e-01 -3.884966e-03 -1.186795e-01 -2.969844e-01 6.480478e-02 8.706167e-03 -1.153107e-01 -1.770670e-01 -2.172037e-01 -1.434370e-01
<VARIANCE> 39
 1.440631e+01 2.581124e+01 1.323284e+01 1.743703e+01 1.677412e+01 2.426207e+01 6.503913e+01 2.082619e+01 2.405671e+01 2.691081e+01 1.862834e+01 1.657427e+01 2.451970e+01 1.626161e+00 9.219655e-01 1.417790e+00 2.543060e+00 9.885375e-01 2.409950e+00 3.475890e+00 2.207862e+00 2.479973e+00 2.969257e+00 1.428035e+00 2.100799e+00 6.610422e-01 2.005978e-01 2.681620e-01 2.093068e-01 3.113795e-01 1.900340e-01 4.408753e-01 7.764926e-01 4.493661e-01 5.214317e-01 5.974237e-01 2.647481e-01 4.057536e-01 1.888374e-01
<GCONST> 1.046866e+02
<STATE> 4
<MEAN> 39
 -9.463458e-01 7.033323e+00 9.072643e+00 -1.850821e+01 -1.301405e+01 -1.847483e+01 -1.164544e+01 -1.324286e+01 -1.631544e+01 -5.595509e+00 -1.002643e+01 -9.539611e+00 6.557500e+01 -4.391255e-01 -6.552737e-01 -4.765138e-01 3.137497e-02 -2.045100e-01 3.500425e-01 7.896628e-01 -4.315453e-01 4.981985e-01 -4.020333e-01 1.513661e-02 2.228913e-01 8.630611e-01 -2.773847e-02 -2.424129e-01 -4.713885e-01 2.417070e-01 3.971204e-01 -1.117043e-01 8.915159e-02 -1.412576e-02 4.277511e-01 -2.909482e-01 7.624238e-02 3.393706e-02 1.409721e-01
<VARIANCE> 39
