~o
<STREAMINFO> 1 39
<VECSIZE> 39<NULLD><MFCC_D_A_0><DIAGC>
~s "silst"
<MEAN> 39
 -1.472923e+01 -3.593876e+00 -5.616883e+00 -4.606693e+00 -4.269247e+00 -5.372409e+00 -6.092632e+00 -3.752653e+00 -5.178890e+00 -3.438508e+00 -1.909046e+00 -2.673712e+00 4.597246e+01 1.475658e-03 -6.411559e-02 3.859257e-02 3.766411e-02 1.182128e-01 -4.247788e-01 -1.390075e-01 -2.879139e-02 4.298367e-03 -2.660491e-01 1.707183e-01 1.459849e-01 2.230369e-01 4.229031e-02 -9.057537e-02 4.137647e-02 -1.708228e-03 1.243372e-02 -2.694453e-01 4.751670e-02 1.771482e-01 2.677147e-02 -2.922973e-01 1.679753e-02 1.026868e-01 2.355895e-01
<VARIANCE> 39
 9.687063e+00 1.176336e+01 1.745208e+01 2.127956e+01 2.341751e+01 2.188247e+01 2.138956e+01 2.150424e+01 2.673041e+01 2.006626e+01 2.062888e+01 1.581052e+01 8.763506e+00 7.078035e-01 1.264878e+00 1.527539e+00 2.055447e+00 1.474052e+00 2.877959e+00 2.442656e+00 2.758249e+00 2.667964e+00 3.004147e+00 2.264039e+00 1.968806e+00 6.733343e-01 1.699788e-01 3.103017e-01 2.855312e-01 3.984390e-01 3.219766e-01 5.154720e-01 4.721482e-01 5.611238e-01 5.361580e-01 6.168630e-01 4.603730e-01 4.024068e-01 1.784212e-01
<GCONST> 1.037538e+02
~h "a"
<BEGINHMM>
<NUMSTATES> 5
<STATE> 2
<MEAN> 39
 -4.469796e+00 -1.530144e+01 -1.222698e+01 -1.342892e+01 -2.276220e+00 -1.450208e+01 -2.242191e+00 -1.320430e+01 1.798304e+00 -2.436685e+01 -3.674664e-01 -9.861304e+00 8.061639e+01 -6.130084e-01 -2.355062e+00 -5.846279e-01 1.653215e-01 1.069889e+00 1.839094e+00 4.457257e-01 -2.330557e+00 2.266219e-01 -2.697445e+00 8.306766e-01 -1.070654e+00 2.634943e+00 -2.768226e-01 6.341860e-01 2.966113e-01 6.597773e-01 -2.674757e-02 1.699710e-01 -4.933905e-01 2.543522e-01 -6.185991e-01 6.031382e-01 3.183769e-02 3.242265e-01 -1.370132e+00
<VARIANCE> 39
 5.354424e+00 3.298832e+01 1.043548e+01 8.353944e+00 2.145658e+01 4.815472e+01 2.052204e+01 4.984345e+01 2.034266e+01 2.321207e+01 1.004207e+01 1.556585e+01 2.290615e+01 8.573006e-01 1.443227e+00 1.592892e+00 1.230846e+00 1.964330e+00 5.029147e+00 3.011140e+00 2.241842e+00 2.572102e+00 3.216916e+00 1.039458e+00 1.475553e+00 3.582367e+00 2.186906e-01 2.980407e-01 2.759307e-01 1.479472e-01 3.227247e-01 8.254322e-01 3.279698e-01 6.317596e-01 4.148577e-01 6.765810e-01 2.725936e-01 2.430968e-01 8.107677e-01
<GCONST> 1.054135e+02
<STATE> 3
<MEAN> 39
 -6.334031e+00 -1.803364e+01 -1.175325e+01 -9.683830e+00 -1.617893e+00 -1.016125e+01 -4.891324e+00 -1.591228e+01 -1.725073e+00 -2.626515e+01 2.463280e+00 -1.249483e+01 8.238732e+01 -1.048943e-01 1.372743e-01 3.253078e-01 3.955969e-02 -5.949424e-01 -3.765374e-04 7.066213e-02 2.612029e-01 -5.388742e-01 -7.840402e-02 1.008602e-01 -1.748516e-01 -1.562518e-01 6.077473e-02 2.035875e-01 1.373847e-01 -1.968169e-01 -2.515942e-01 -1.568434e-01 2.207779e-01 1.574926e-01 -5.873186e-02 1.472882e-01 -1.586855e-01 1.270081e-01 -1.562652e-01
<VARIANCE> 39
 1.962513e+00 1.026019e+01 7.511850e+00 1.268732e+01 1.750544e+01 8.699488e+00 4.416216e+01 2.696938e+01 1.596683e+01 1.665063e+01 9.902643e+00 9.666420e+00 2.249243e+00 1.348169e-01 2.819096e-01 4.283203e-01 9.800154e-01 1.141161e+00 9.585249e-01 1.722745e+00 1.186956e+00 6.864147e-01 9.059114e-01 6.504962e-01 9.590529e-01 1.251824e-01 3.957498e-02 9.173354e-02 7.075562e-02 1.200426e-01 9.551673e-02 1.515934e-01 2.749836e-01 3.191483e-01 1.537981e-01 2.529058e-01 1.136827e-01 1.659254e-01 8.380900e-02
<GCONST> 6.919051e+01
<STATE> 4
<MEAN> 39
 -5.918398e+00 -1.333225e+01 -8.817764e+00 -9.454447e+00 -5.981609e+00 -1.099969e+01 -4.897111e+00 -1.443485e+01 -3.227632e+00 -2.238172e+01 4.512004e-01 -1.057057e+01 7.581796e+01 -2.446079e-02 -8.683024e-03 -2.999284e-02 -1.830682e-04 -1.937191e-02 -8.883940e-02 -6.815115e-02 -2.463460e-01 -8.093121e-02 -1.967003e-01 -2.704691e-01 1.874277e-01 -2.666014e-02 -5.452700e-03 8.313314e-02 3.052125e-02 -8.538557e-02 -2.421030e-02 -3.759345e-02 1.317779e-01 2.663151e-03 -1.190622e-01 5.872482e-02 -9.341253e-02 2.959330e-02 -2.329393e-02
<VARIANCE> 39
 7.170534e+00 3.876443e+01 3.488094e+01 2.790710e+01 3.630620e+01 1.927078e+01 2.861077e+01 3.148408e+01 3.588375e+01 5.845970e+01 2.804632e+01 2.064526e+01 1.189901e+02 9.294711e-01 2.888829e+00 2.174772e+00 3.817819e+00 2.783785e+00 2.239005e+00 3.705957e+00 2.501221e+00 3.716069e+00 6.289261e+00 3.372435e+00 2.311793e+00 1.069746e+01 2.113830e-01 4.921326e-01 2.779632e-01 6.811845e-01 3.748937e-01 5.014089e-01 4.583756e-01 4.621497e-01 6.441725e-01 1.341672e+00 5.785742e-01 4.418423e-01 1.509055e+00
<GCONST> 1.228154e+02
<TRANSP> 5
 0.000000e+00 1.000000e+00 0.000000e+00 0.000000e+00 0.000000e+00
 0.000000e+00 6.547194e-01 3.452807e-01 0.000000e+00 0.000000e+00
 0.000000e+00 0.000000e+00 8.973067e-01 1.026932e-01 0.000000e+00
 0.000000e+00 0.000000e+00 0.000000e+00 9.031007e-01 9.689930e-02
 0.000000e+00 0.000000e+00 0.000000e+00 0.000000e+00 0.000000e+00
<ENDHMM>
~h "b"
<BEGINHMM>
<NUMSTATES> 5
<STATE> 2
<MEAN> 39
 -5.811117e+00 -6.541440e+00 -9.541352e+00 -8.555018e+00 -4.487973e+00 -4.769284e+00 -7.908350e+00 -1.000769e+01 -4.186674e+00 -1.015472e+01 -3.011909e+00 -5.727006e+00 5.634134e+01 -8.060037e-01 -2.927152e-01 2.150716e-01 3.847075e-01 -4.794601e-01 -2.824139e-01 1.969985e-01 1.792327e+00 -2.442294e-01 5.042087e-01 -2.339175e-01 1.317394e+00 -2.394466e-01 2.110806e-01 -3.170547e-01 -2.449142e-01 -3.598393e-01 2.435611e-01 -5.937541e-01 2.189298e-01 -4.873416e-01 5.553506e-01 -7.840582e-01 2.728745e-01 -4.227147e-01 1.600585e+00
<VARIANCE> 39
 2.001785e+01 9.352394e+00 1.793926e+01 1.493159e+01 3.373763e+01 1.530484e+01 2.610748e+01 8.133298e+01 4.093433e+01 2.751210e+01 2.148619e+01 3.079287e+01 3.653514e+01 1.102278e+00 1.455957e+00 1.988433e+00 3.060735e+00 2.227631e+00 2.687943e+00 2.118378e+00 2.096501e+00 6.210188e+00 7.511744e+00 2.328060e+00 1.494535e+00 1.275087e+01 3.765109e-01 4.558304e-01 3.228980e-01 2.680231e-01 4.144271e-01 4.802831e-01 4.199008e-01 9.033193e-01 7.197505e-01 9.524857e-01 3.340927e-01 5.146050e-01 1.380571e+00
<GCONST> 1.181129e+02
<STATE> 3
<MEAN> 39
 -1.136126e+01 -4.978413e+00 -4.948471e+00 -6.471741e+00 -6.283125e+00 -1.233004e+01 -5.243052e+00 3.088238e-01 -2.111999e+00 -1.349196e+01 1.848948e+00 -1.280161e+00 5.764814e+01 1.651768e+00 5.507496e-02 -7.664737e-01 -1.239618e+00 4.743125e-01 -3.242676e+00 -5.597965e-02 -1.858576e+00 8.685790e-01 -2.808138e+00 2.524916e-01 -1.608256e+00 4.895653e+00 6.358135e-01 -4.498610e-01 -5.927972e-01 -2.620572e-01 3.653729e-01 -2.402103e-01 -2.445472e-02 -1.118367e+00 1.225684e-01 -1.862689e-01 -3.634517e-01 -6.847866e-01 8.753088e-01
<VARIANCE> 39
 1.166525e+01 1.457481e+01 1.449428e+01 1.873154e+01 1.725615e+01 3.430309e+01 2.869201e+01 5.344801e+01 3.431772e+01 8.788349e+01 4.548800e+01 3.225023e+01 4.830430e+01 1.857195e+00 4.848642e+00 1.874972e+00 2.363378e+00 1.628183e+00 4.539573e+00 3.965396e+00 6.490785e+00 3.063276e+00 3.972715e+00 5.177591e+00 1.990518e+00 6.560553e+00 1.687069e-01 7.005443e-01 2.737584e-01 5.727723e-01 4.503077e-01 7.713396e-01 5.442752e-01 1.065842e+00 4.687979e-01 2.850472e+00 9.582517e-01 6.725580e-01 4.622242e-01
<GCONST> 1.244521e+02
<STATE> 4
<MEAN> 39
 -2.097781e+00 -5.649405e+00 -1.096704e+01 -1.131206e+01 -4.340443e+00 -2.088576e+01 -6.835861e+00 -7.058754e+00 -2.271408e+00 -1.726375e+01 -1.903067e+00 -5.157498e+00 7.030595e+01 1.661051e+00 -2.339010e+00 -1.725447e+00 -2.036582e+00 8.139786e-01 -1.620531e+00 8.853442e-01 -2.208996e+00 1.567442e+00 -1.793920e+00 3.905527e-02 -2.366966e+00 5.912224e+00 -7.941681e-01 -8.586121e-01 1.981343e-01 2.532406e-01 7.809713e-02 1.523703e+00 3.343550e-01 1.027909e-01 5.937141e-02 -3.673045e-01 2.741720e-01 -1.641656e-02 -5.545923e-01
<VARIANCE> 39
 7.626731e+00 4.524639e+01 1.693988e+01 1.356485e+01 2.084899e+01 1.243985e+02 3.466115e+01 2.652870e+01 1.958968e+01 5.474220e+01 1.167058e+01 1.083185e+01 3.534491e+01 1.757565e+00 4.533529e+00 1.686084e+00 9.728234e-01 2.387696e+00 5.005630e+00 4.191153e+00 4.634153e+00 3.902553e+00 9.052241e+00 2.769404e+00 1.712694e+00 3.501112e+00 3.354723e-01 3.698052e-01 2.782367e-01 3.811184e-01 4.949159e-01 1.396398e+00 9.657196e-01 1.297027e+00 4.528651e-01 1.179303e+00 4.176081e-01 3.437743e-01 7.205396e-01
<GCONST> 1.200460e+02
<TRANSP> 5
 0.000000e+00 1.000000e+00 0.000000e+00 0.000000e+00 0.000000e+00
 0.000000e+00 7.312722e-01 2.687278e-01 0.000000e+00 0.000000e+00
 0.000000e+00 0.000000e+00 4.381185e-01 5.618815e-01 0.000000e+00
 0.000000e+00 0.000000e+00 0.000000e+00 3.507012e-01 6.492988e-01
 0.000000e+00 0.000000e+00 0.000000e+00 0.000000e+00 0.000000e+00
<ENDHMM>
~h "e"
<BEGINHMM>
<NUMSTATES> 5
<STATE> 2
<MEAN> 39
 -1.445005e+01 -1.742846e+00 -2.836020e+01 -7.286117e+00 1.574236e+01 -6.283638e+00 -6.125914e+00 -4.726359e+00 2.530904e-01 4.449449e+00 -4.987084e-01 -9.743929e+00 6.877680e+01 -7.336835e-01 -6.599463e-01 -1.182451e+00 7.946069e-01 -8.753375e-04 -5.224346e-01 1.148357e+00 5.428518e-01 1.268843e+00 1.622030e+00 -1.542808e-01 1.406785e+00 -1.758373e-01 6.020052e-01 1.157165e-01 4.739424e-01 -1.855005e-01 -3.023292e-01 4.627770e-02 -4.433556e-01 -1.166413e+00 -1.518296e-01 -9.777694e-01 -1.163161e-01 -2.020892e-01 -2.873302e-01
<VARIANCE> 39
 7.041453e+00 1.029835e+01 1.650284e+01 2.207439e+01 1.861628e+01 2.508791e+01 2.272661e+01 3.215488e+01 3.341208e+01 2.599696e+01 1.968029e+01 2.571148e+01 1.189480e+01 1.058930e+00 9.313115e-01 1.694589e+00 1.688236e+00 1.975099e+00 1.738381e+00 3.180357e+00 7.325642e+00 3.201385e+00 5.870723e+00 2.123720e+00 1.910046e+00 1.730493e+00 2.486256e-01 2.894639e-01 2.757859e-01 3.174874e-01 4.550373e-01 2.801226e-01 5.318993e-01 6.490594e-01 7.323957e-01 6.049806e-01 4.502354e-01 3.604172e-01 1.795454e-01
<GCONST> 1.078303e+02
<STATE> 3
<MEAN> 39
 -8.073831e+00 -4.782753e-01 -2.626502e+01 -7.983614e+00 1.265408e+01 -1.120533e+01 -9.104483e+00 -1.924246e+01 2.610343e+00 -8.325018e-01 -4.913670e+00 -6.782126e+00 6.473412e+01 3.449093e+00 1.795673e+00 2.257541e+00 -2.687308e+00 -1.227091e+00 -2.543786e+00 -1.192330e+00 -4.444257e+00 8.795556e-01 -3.495978e+00 -9.994788e-01 -1.175691e-01 1.248087e+00 -4.278614e-02 -1.804298e-01 1.771527e-01 -8.627571e-01 -1.218976e-01 -3.218527e-01 5.622230e-01 5.865314e-01 6.642863e-01 -2.322800e-01 1.642884e-01 -1.004010e-01 9.288779e-01
<VARIANCE> 39
 5.565969e+01 3.635512e+01 2.885386e+01 4.317268e+01 2.687338e+01 6.097707e+01 2.580933e+01 9.663599e+01 2.876939e+01 5.262873e+01 2.764940e+01 2.238584e+01 1.685338e+01 1.794398e+00 1.882292e+00 1.082215e+00 4.938569e+00 1.905077e+00 3.598155e+00 2.683752e+00 3.830883e+00 3.800716e+00 3.818979e+00 2.324569e+00 1.622153e+00 4.000451e+00 1.486527e+00 1.281182e+00 4.566455e-01 5.970965e-01 4.629010e-01 1.075978e+00 7.137460e-01 2.155332e+00 5.044250e-01 1.077688e+00 3.338761e-01 3.308989e-01 2.823078e-01
<GCONST> 1.257543e+02
<STATE> 4
<MEAN> 39
 -2.889664e+00 -4.556767e+00 -1.637708e+01 -2.190386e+01 6.239970e+00 -1.900971e+01 -3.912983e+00 -2.050963e+01 1.450167e+01 -1.356492e+01 -6.740050e+00 -9.317240e+00 7.642295e+01 -5.390874e-01 -1.699254e+00 1.383173e+00 -1.152287e-01 -1.404356e+00 -6.973285e-01 1.420640e+00 1.694486e+00 1.041519e+00 -1.675040e+00 3.168082e-02 -3.393338e-01 1.118312e+00 -1.812885e-01 1.965170e-01 -3.913429e-03 8.597419e-01 -7.103585e-02 3.160837e-02 -2.053330e-01 1.837351e-01 -8.130690e-01 1.560064e-01 1.957075e-02 2.420594e-01 -5.821294e-01
<VARIANCE> 39
 4.946579e+00 2.511831e+01 1.466125e+01 1.993469e+01 2.723495e+01 8.690890e+00 2.196296e+01 3.335536e+01 2.749752e+01 4.176473e+01 3.605584e+01 3.768274e+01 9.577307e+00 3.883472e-01 1.092262e+00 7.216373e-01 5.288663e+00 1.588817e+00 2.148499e+00 1.527130e+00 1.292902e+00 4.829034e+00 1.502613e+00 9.640721e-01 2.585417e+00 1.108040e+00 3.843594e-01 7.927295e-01 1.236425e-01 3.261932e-01 2.924000e-01 6.748811e-01 5.225487e-01 9.448174e-01 5.546356e-01 4.898068e-01 2.138644e-01 6.045619e-01 1.576924e-01
<GCONST> 1.042242e+02
<TRANSP> 5
 0.000000e+00 1.000000e+00 0.000000e+00 0.000000e+00 0.000000e+00
 0.000000e+00 8.638910e-01 1.361089e-01 0.000000e+00 0.000000e+00
 0.000000e+00 0.000000e+00 7.634346e-01 2.365653e-01 0.000000e+00
 0.000000e+00 0.000000e+00 0.000000e+00 8.596919e-01 1.403082e-01
 0.000000e+00 0.000000e+00 0.000000e+00 0.000000e+00 0.000000e+00
<ENDHMM>
~h "g"
<BEGINHMM>
<NUMSTATES> 5
<STATE> 2
<MEAN> 39
 -8.903068e+00 -6.435842e+00 7.747830e+00 -2.620251e+01 -1.690927e+01 -1.391261e+01 -4.180143e+00 -1.890329e+01 -1.120041e+01 -1.160495e+00 -1.653228e+01 -4.267481e+00 7.634707e+01 2.262790e-01 -1.966233e-01 -1.440291e-01 5.378510e-01 3.844414e-01 -9.796690e-01 7.686163e-01 -5.815995e-01 1.101897e-01 4.294401e-02 -1.791953e-01 4.441196e-01 -2.153663e-01 1.510272e-01 8.656565e-02 -2.400055e-01 5.236394e-01 1.780172e-01 -2.920309e-01 -1.005130e-01 1.194953e-02 -7.622079e-03 -2.668516e-01 3.283450e-03 3.003789e-01 -3.040955e-01
<VARIANCE> 39
 3.594148e+00 1.652901e+01 1.139013e+01 1.422608e+01 1.662502e+01 3.067797e+01 4.080958e+01 2.586577e+01 2.115082e+01 2.590568e+01 1.528965e+01 1.120439e+01 4.717337e+00 3.063735e-01 5.095444e-01 1.477509e+00 1.980091e+00 1.184109e+00 2.129070e+00 1.646055e+00 1.651988e+00 1.537513e+00 1.681544e+00 9.491718e-01 1.739167e+00 2.841969e-01 4.614997e-02 1.175571e-01 3.189795e-01 2.080879e-01 3.746735e-01 3.254498e-01 4.888498e-01 3.490940e-01 3.269915e-01 2.995036e-01 2.971651e-01 2.133052e-01 6.679578e-02
<GCONST> 8.879146e+01
<STATE> 3
<MEAN> 39
 -4.004625e+00 -4.944008e+00 -1.624917e+00 -1.251834e+01 -8.398168e+00 -2.105622e+01 -4.354088e+00 -2.135550e+01 -9.327688e+00 -5.441104e+00 -1.866175e+01 1.132905e+00 6.634907e+01 3.360055e-01 6.019526e-01 -1.747899e+00 2.225438e+00 1.255270e+00 1.588699e+00 -1.382671e+00 5.074787e-01 6.155755e-01 -3.088875e-01 8.312834e-01 -7.996527e-01 -3.211950e+00 -2.781361e-01 -6.637716e-02 1.643247e-01 -6.405233e-01 -6.141537e-01 9.459283e-01 1.814322e-01 3.393062e-01 -9.093420e-02 2.942333e-01 5.999581e-01 -4.792846e-01 -1.278732e-01
<VARIANCE> 39
 7.541512e+00 1.825614e+01 4.437028e+01 3.329644e+01 6.315293e+01 5.830094e+01 4.322055e+01 3.038072e+01 3.181052e+01 2.751344e+01 2.703846e+01 3.361782e+01 4.207421e+01 1.595361e+00 1.540976e+00 4.573908e+00 3.176970e+00 1.046634e+01 1.144124e+01 3.699336e+00 4.691852e+00 3.991651e+00 4.619658e+00 6.004352e+00 5.508923e+00 1.059965e+00 2.129818e-01 2.879939e-01 9.880033e-01 6.622298e-01 1.868031e+00 1.875596e+00 1.401693e+00 1.020409e+00 9.402430e-01 7.741748e-01 7.546438e-01 1.266653e+00 5.890973e-01
<GCONST> 1.318087e+02
<STATE> 4
<MEAN> 39
 -2.564165e+00 4.056896e-01 -1.532823e+01 -1.634945e+01 -7.195199e+00 -1.004536e+01 -2.569349e-01 -1.392630e+01 -9.904819e+00 -4.573447e+00 -1.151053e+01 1.913090e+00 5.766533e+01 9.701204e-01 1.673511e+00 -1.298824e+00 -1.427122e+00 2.293727e-01 -2.026545e-01 6.982946e-01 2.543461e-01 -9.930613e-01 1.238472e-01 -3.932462e-01 1.112124e+00 7.707275e-01 2.105606e-01 2.433902e-01 2.017761e-01 -1.077533e-01 6.643021e-02 -4.173227e-01 -1.760961e-01 -3.600940e-01 -1.211230e-01 5.927821e-02 -3.945897e-01 1.059238e-01 4.817404e-01
<VARIANCE> 39
 2.132486e+01 3.446159e+01 1.070967e+02 5.629707e+01 5.270947e+01 3.177378e+01 4.621872e+01 3.228233e+01 3.686987e+01 2.610480e+01 2.592549e+01 4.343920e+01 2.225937e+01 2.525037e+00 2.888019e+00 1.616789e+01 6.749400e+00 6.968544e+00 5.057310e+00 6.982292e+00 5.186787e+00 5.441187e+00 3.044592e+00 3.893608e+00 4.363874e+00 3.611263e+00 4.994051e-01 4.583185e-01 3.384966e+00 1.617162e+00 1.636331e+00 1.052865e+00 1.407019e+00 7.426144e-01 1.163682e+00 6.244270e-01 6.810276e-01 1.158139e+00 8.219641e-01
<GCONST> 1.395273e+02
<TRANSP> 5
 0.000000e+00 1.000000e+00 0.000000e+00 0.000000e+00 0.000000e+00
 0.000000e+00 8.880346e-01 1.119654e-01 0.000000e+00 0.000000e+00
 0.000000e+00 0.000000e+00 8.171076e-01 1.828924e-01 0.000000e+00
 0.000000e+00 0.000000e+00 0.000000e+00 8.862450e-01 1.137550e-01
 0.000000e+00 0.000000e+00 0.000000e+00 0.000000e+00 0.000000e+00
<ENDHMM>
~h "h"
<BEGINHMM>
<NUMSTATES> 5
<STATE> 2
<MEAN> 39
 -1.646199e+00 -1.224178e+01 -1.560119e+01 -1.783871e+01 5.215121e+00 -4.017274e+00 -3.326663e+00 -2.713421e+01 1.145122e+01 -2.323824e+01 1.469712e+00 -1.640394e+01 7.760915e+01 3.346807e-01 7.963246e-01 -5.901543e-01 -8.058680e-01 2.372992e-01 8.668869e-01 -1.126862e-01 -9.306405e-01 2.958027e-01 9.573093e-02 8.572921e-01 -2.250727e-01 -3.987345e-01 -1.420758e-02 2.235102e-01 7.281612e-02 -1.723204e-02 -2.079272e-01 -6.474842e-02 -8.911173e-02 2.503044e-01 -3.353376e-01 -2.208265e-01 2.815610e-02 1.046357e-01 -1.005780e-01
<VARIANCE> 39
 3.875381e+00 1.099833e+01 7.368416e+00 1.771107e+01 9.191154e+00 1.413206e+01 1.215352e+01 1.695784e+01 1.491667e+01 1.933389e+01 2.516526e+01 1.810169e+01 5.653133e+00 1.176196e-01 4.802962e-01 3.649615e-01 4.884695e-01 9.989479e-01 5.805652e-01 8.322861e-01 1.424104e+00 1.289126e+00 1.336571e+00 9.600581e-01 9.209223e-01 9.861140e-02 2.086640e-02 6.200717e-02 7.571671e-02 8.608533e-02 1.474665e-01 1.113792e-01 1.835237e-01 1.644350e-01 2.381086e-01 1.582047e-01 1.714023e-01 1.808932e-01 1.571948e-02
<GCONST> 6.694722e+01
<STATE> 3
<MEAN> 39
 4.777607e-01 -3.252457e+00 -1.873932e+01 -2.323216e+01 4.074510e+00 1.039871e+00 -7.483946e+00 -2.887211e+01 9.134760e+00 -2.782797e+01 7.046890e+00 -1.675183e+01 7.267569e+01 2.683192e-01 1.918560e+00 1.688542e-01 4.488535e-01 9.913538e-03 2.027764e-01 -1.998443e+00 1.091082e-01 -2.012566e+00 -6.487468e-01 -2.284355e-02 4.838816e-02 -1.629364e+00 -2.944863e-01 -9.547924e-02 2.612069e-01 7.704695e-01 3.233093e-01 -2.913603e-01 -2.646253e-01 4.199083e-01 -6.912019e-01 6.984927e-01 -5.471366e-01 -8.403513e-02 -2.820798e-01
<VARIANCE> 39
 3.793705e+00 1.463092e+01 6.593585e+00 1.512668e+01 1.184694e+01 1.072713e+01 2.314676e+01 1.336414e+01 2.034889e+01 2.984915e+01 3.224524e+01 1.847511e+01 7.844884e+00 2.104872e-01 4.834065e-01 7.888390e-01 2.440373e+00 1.249238e+00 1.095469e+00 1.928590e+00 1.329897e+00 2.952261e+00 1.749580e+00 2.096935e+00 1.163465e+00 5.357591e-01 1.673862e-01 1.464864e-01 1.367698e-01 1.937604e-01 2.494402e-01 2.269907e-01 3.993005e-01 6.356622e-01 3.170319e-01 5.771939e-01 3.813168e-01 2.548989e-01 5.785709e-02
<GCONST> 8.880897e+01
<STATE> 4
<MEAN> 39
 -2.864843e+00 1.465725e+00 -1.627056e+01 -1.425042e+01 8.603717e+00 -1.336057e+00 -1.561612e+01 -2.292861e+01 -3.766009e+00 -2.126031e+01 1.781585e+00 -1.836918e+01 6.510608e+01 -2.940590e+00 -1.968533e-01 -6.619461e-01 2.238413e+00 2.043420e+00 -1.163741e+00 8.717034e-03 5.159900e+00 -1.850034e+00 4.610340e+00 -1.540063e+00 -3.860587e-01 -8.486773e-01 -5.764484e-01 -6.070423e-01 -6.654427e-01 -3.332161e-01 -8.338305e-02 -2.261984e-01 1.212063e+00 1.160023e+00 1.214144e+00 7.604913e-01 3.592453e-01 4.246790e-01 7.671399e-01
<VARIANCE> 39
 2.416267e+01 1.139329e+01 1.278111e+01 2.572800e+01 4.041960e+01 2.311045e+01 3.238216e+01 7.092822e+01 3.253659e+01 6.890659e+01 2.747278e+01 2.106222e+01 7.748310e+00 1.824798e+00 1.838400e+00 2.898519e+00 2.554064e+00 2.396505e+00 4.803139e+00 6.544874e+00 7.875945e+00 7.012125e+00 4.871415e+00 3.793066e+00 2.915009e+00 2.186953e+00 5.018545e-01 1.737505e-01 2.553912e-01 4.743945e-01 7.811971e-01 4.327204e-01 6.729689e-01 1.338278e+00 7.072526e-01 1.371900e+00 6.690317e-01 6.704801e-01 1.136714e-01
<GCONST> 1.213615e+02
<TRANSP> 5
 0.000000e+00 1.000000e+00 0.000000e+00 0.000000e+00 0.000000e+00
 0.000000e+00 8.909496e-01 1.090504e-01 0.000000e+00 0.000000e+00
 0.000000e+00 0.000000e+00 7.555498e-01 2.444501e-01 0.000000e+00
 0.000000e+00 0.000000e+00 0.000000e+00 7.174484e-01 2.825516e-01
 0.000000e+00 0.000000e+00 0.000000e+00 0.000000e+00 0.000000e+00
<ENDHMM>
~h "i"
<BEGINHMM>
<NUMSTATES> 5
<STATE> 2
<MEAN> 39
 -1.758742e+01 7.360579e+00 -5.486957e+00 -3.904463e+00 -6.508782e+00 -1.037321e+01 -7.898645e+00 -1.342812e+01 -9.008970e+00 -9.931067e+00 -7.349808e+00 -9.907504e+00 6.732935e+01 -4.538235e+00 -3.803500e-01 -3.148738e+00 7.724822e-01 4.384240e-01 1.716322e+00 1.921553e+00 2.003339e+00 2.628048e+00 1.834424e+00 2.139225e+00 1.152824e+00 1.181967e+00 4.980578e-01 -3.417061e-02 4.847576e-01 -6.896653e-01 -4.284423e-01 -3.006962e-01 -7.415579e-03 3.343245e-02 2.182738e-01 4.808239e-01 3.226877e-01 5.532407e-01 1.159318e-01
<VARIANCE> 39
 4.323167e+01 6.297155e+01 3.972622e+01 2.748683e+01 2.765482e+01 2.568239e+01 2.230061e+01 2.511048e+01 2.423063e+01 2.680547e+01 2.063661e+01 2.583671e+01 3.104399e+01 4.858358e+00 2.907299e+00 4.912646e+00 2.911018e+00 3.066109e+00 2.341490e+00 2.910073e+00 2.430614e+00 3.545224e+00 2.781892e+00 3.270783e+00 2.269889e+00 4.170184e+00 9.905246e-01 1.126800e+00 1.049888e+00 5.309463e-01 4.953960e-01 4.678286e-01 4.710860e-01 5.265145e-01 5.979678e-01 8.042849e-01 5.488932e-01 5.984724e-01 6.818406e-01
<GCONST> 1.250644e+02
<STATE> 3
<MEAN> 39
 -2.741536e+01 8.718070e+00 -8.373569e+00 -2.511943e+00 -7.738407e+00 -5.695147e+00 -4.386100e+00 -8.602854e+00 -2.479888e+00 -4.862589e+00 -1.341838e+00 -5.331068e+00 7.016707e+01 -4.632431e-01 -5.380708e-01 2.743360e-01 -5.405056e-01 2.321928e-02 2.555214e-01 8.599637e-01 6.316915e-01 8.235155e-01 1.004375e+00 1.032371e+00 5.501939e-01 6.229075e-01 1.415025e+00 -3.190095e-01 7.751053e-01 -3.847796e-01 -1.587474e-01 -5.562008e-01 -2.461338e-01 -4.040039e-01 -7.058397e-01 -4.850408e-01 -2.614521e-01 -2.794183e-01 3.381539e-02
<VARIANCE> 39
 1.141134e+01 2.175464e+01 1.755030e+01 2.506021e+01 2.213510e+01 2.520719e+01 1.989760e+01 2.110618e+01 2.152170e+01 1.905540e+01 1.592694e+01 1.469582e+01 1.030566e+01 5.209527e+00 3.047639e+00 2.722091e+00 2.228914e+00 2.038576e+00 2.155608e+00 1.970602e+00 2.223933e+00 2.512710e+00 2.096185e+00 2.125701e+00 1.756212e+00 1.478684e+00 9.059186e-01 4.935048e-01 7.063074e-01 4.439697e-01 4.969325e-01 4.858997e-01 4.011317e-01 4.393140e-01 6.094701e-01 5.219918e-01 4.086554e-01 3.341146e-01 2.689585e-01
<GCONST> 1.107713e+02
<STATE> 4
<MEAN> 39
 -1.633656e+01 2.972161e+00 -3.809498e+00 -8.649461e+00 -6.647313e+00 -1.208948e+01 -3.414781e+00 -1.323828e+01 -3.458802e+00 -1.830507e+00 -8.947978e-01 -4.793612e+00 7.300436e+01 2.523676e+00 -1.067962e+00 1.492892e+00 -4.583141e-01 -4.325862e-01 -7.901813e-01 -6.088648e-02 -2.678708e-01 -1.187314e+00 -1.125971e+00 4.859879e-02 -2.300652e-01 2.047767e-01 3.587541e-01 -2.043680e-01 -1.117626e-01 -1.462259e-01 -5.474615e-02 -3.592592e-01 -1.873253e-01 -1.418198e-01 -3.102944e-01 -7.762986e-01 -3.147442e-01 -2.255289e-01 -3.234045e-02
<VARIANCE> 39
 1.382009e+02 4.262923e+01 4.844348e+01 3.051309e+01 3.630107e+01 7.822300e+01 3.305571e+01 6.751531e+01 3.394118e+01 3.243187e+01 3.025382e+01 2.008846e+01 1.961706e+01 1.173738e+01 4.560590e+00 7.147365e+00 3.634106e+00 5.405603e+00 6.596478e+00 2.712140e+00 4.459851e+00 6.592197e+00 5.037663e+00 2.639529e+00 2.380885e+00 1.194283e+00 1.684022e+00 6.237956e-01 1.311761e+00 6.817700e-01 1.025030e+00 1.276475e+00 6.058521e-01 7.827414e-01 1.227807e+00 1.170633e+00 5.533018e-01 5.306700e-01 3.351307e-01
<GCONST> 1.360359e+02
<TRANSP> 5
 0.000000e+00 1.000000e+00 0.000000e+00 0.000000e+00 0.000000e+00
 0.000000e+00 5.506416e-01 4.493584e-01 0.000000e+00 0.000000e+00
 0.000000e+00 0.000000e+00 7.690471e-01 2.309529e-01 0.000000e+00
 0.000000e+00 0.000000e+00 0.000000e+00 7.208890e-01 2.791110e-01
 0.000000e+00 0.000000e+00 0.000000e+00 0.000000e+00 0.000000e+00
<ENDHMM>
~h "j"
<BEGINHMM>
<NUMSTATES> 5
<STATE> 2
<MEAN> 39
 -7.714168e+00 -8.149939e+00 1.203901e+00 -1.750756e+01 -1.217664e+01 -1.977846e+01 1.561983e+00 -1.462108e+01 -2.070508e+00 -1.077388e+01 2.800434e+00 -9.686600e+00 7.862628e+01 1.615257e-01 -1.321852e+00 -1.544625e+00 3.623539e-01 1.728930e+00 1.104976e-01 3.155347e-01 4.813666e-01 -2.365730e-01 -3.261574e+00 6.875604e-02 -1.019370e-01 8.491040e-01 1.325062e-01 8.275748e-02 -2.417126e-01 -4.203567e-02 6.980783e-01 -1.139162e-02 -7.316835e-01 -3.327920e-01 1.456029e-01 -4.261578e-01 -3.699094e-01 5.781736e-02 -6.499616e-02
<VARIANCE> 39
 7.589492e+00 1.781439e+01 3.558680e+01 3.374269e+01 3.328951e+01 1.582319e+01 4.204022e+01 6.048352e+01 7.421424e+00 7.161124e+01 1.436207e+01 4.601798e+01 7.755394e+01 4.378726e-01 4.871333e+00 5.392814e+00 2.845166e+00 4.812807e+00 2.574829e+00 5.416190e+00 3.589351e+00 2.117165e+00 8.142513e+00 2.298093e+00 2.155422e+00 6.504130e-01 1.625915e-01 4.966134e-01 4.167486e-01 4.752340e-01 4.564648e-01 3.955471e-01 1.609624e+00 6.550749e-01 4.705805e-01 7.033834e-01 3.741668e-01 7.763337e-01 3.129902e-01
<GCONST> 1.185945e+02
<STATE> 3
<MEAN> 39
 -6.772791e+00 -9.186897e+00 -7.049040e+00 -1.323084e+01 -2.345532e+00 -2.030870e+01 -2.007287e+00 -1.095004e+01 -2.794189e+00 -2.517777e+01 9.684231e-01 -6.846136e+00 7.573777e+01 1.014147e+00 -2.441055e-01 -1.585832e+00 -5.643122e-01 2.038795e+00 -5.750099e-01 -2.011136e+00 -1.244694e+00 1.477676e+00 -2.370645e+00 6.182710e-02 -6.670144e-01 1.850705e+00 -7.607764e-02 6.407987e-02 1.382640e-01 -2.250326e-01 -4.190652e-01 6.065382e-01 -7.869349e-02 -1.435810e-01 5.166861e-01 1.221590e+00 -4.973145e-02 -3.757741e-01 -1.043256e-01
<VARIANCE> 39
 1.254456e+01 8.369265e+01 1.567919e+01 3.075200e+01 1.189912e+01 5.996105e+01 2.720287e+01 3.218789e+01 2.413181e+01 3.192677e+01 2.311126e+01 2.376827e+01 1.214192e+02 2.066175e+00 2.459353e+00 7.811893e-01 3.695833e+00 2.966895e+00 1.089670e+01 2.152646e+00 1.962306e+00 2.177620e+00 4.257449e+00 1.786584e+00 3.054488e+00 5.495256e+00 3.132210e-01 8.463677e-01 3.078613e-01 3.752112e-01 2.465765e-01 9.951431e-01 6.240900e-01 6.101764e-01 3.032402e-01 5.252967e-01 4.655560e-01 3.379671e-01 2.855305e-01
<GCONST> 1.183461e+02
<STATE> 4
<MEAN> 39
 -4.534572e+00 -1.221175e+01 -1.325776e+01 -1.691996e+01 3.134200e+00 -1.180115e+01 -6.634507e+00 -2.066925e+01 7.883134e+00 -2.492022e+01 2.994971e-01 -1.574002e+01 8.146516e+01 3.236584e-01 4.442813e-01 -3.047192e-01 -1.171537e-01 1.447046e-01 1.647555e-01 -3.035986e-01 -3.899386e-01 8.024986e-01 6.982472e-01 -2.219839e-01 -5.398281e-01 -2.586510e-01 -3.142808e-02 2.439907e-02 3.172425e-01 1.265160e-01 -3.834101e-01 -3.750163e-01 3.314698e-01 2.479105e-01 -2.799781e-01 2.638347e-01 -1.361040e-01 3.076559e-01 -9.954800e-02
<VARIANCE> 39
 3.080596e+00 1.895955e+01 1.018263e+01 9.451135e+00 1.088350e+01 2.814044e+01 1.148144e+01 3.401537e+01 2.161968e+01 1.281295e+01 1.511058e+01 2.488226e+01 7.829545e+00 9.582313e-02 6.737131e-01 7.915969e-01 8.902126e-01 1.201925e+00 2.766412e+00 1.279265e+00 2.058576e+00 1.466003e+00 1.150675e+00 1.426449e+00 1.714653e+00 6.749085e-01 5.249718e-02 1.627156e-01 7.998832e-02 1.944639e-01 1.265415e-01 5.403678e-01 2.062107e-01 2.365412e-01 2.101579e-01 2.683349e-01 2.600761e-01 3.464256e-01 2.790552e-02
<GCONST> 8.222810e+01
<TRANSP> 5
 0.000000e+00 1.000000e+00 0.000000e+00 0.000000e+00 0.000000e+00
 0.000000e+00 6.520520e-01 3.479480e-01 0.000000e+00 0.000000e+00
 0.000000e+00 0.000000e+00 5.972962e-01 4.027038e-01 0.000000e+00
 0.000000e+00 0.000000e+00 0.000000e+00 8.432260e-01 1.567740e-01
 0.000000e+00 0.000000e+00 0.000000e+00 0.000000e+00 0.000000e+00
<ENDHMM>
~h "l"
<BEGINHMM>
<NUMSTATES> 5
<STATE> 2
<MEAN> 39
 -1.629735e+01 -7.826859e+00 -2.871138e+00 -7.911865e+00 -4.493380e+00 -1.278350e+01 -2.435308e+00 -1.699589e+00 -3.302779e+00 -5.943169e+00 -6.469605e-01 -3.465071e+00 5.788665e+01 2.273320e-02 -8.341199e-01 3.463445e-01 -9.352411e-02 -6.222686e-02 -1.212655e+00 1.509387e-01 8.409007e-01 1.517569e-01 -6.721606e-01 2.698132e-01 2.212789e-01 1.027641e+00 3.343061e-02 -2.957010e-02 -4.006350e-02 5.301390e-03 5.986949e-02 7.564289e-02 -5.380790e-02 1.965350e-02 -6.717638e-02 -8.376121e-02 9.273499e-02 1.072007e-02 -1.499156e-01
<VARIANCE> 39
 5.204554e+01 4.394674e+01 5.127698e+01 6.142574e+01 5.000772e+01 5.653683e+01 4.629928e+01 7.177029e+01 4.670056e+01 6.258813e+01 2.480680e+01 2.763828e+01 1.073976e+02 4.359283e+00 3.045243e+00 5.160805e+00 5.861873e+00 4.247042e+00 4.749593e+00 5.392424e+00 4.698320e+00 3.380270e+00 4.087010e+00 2.584679e+00 3.059130e+00 6.000937e+00 8.289509e-01 5.762276e-01 9.415886e-01 1.098776e+00 7.810383e-01 9.240198e-01 1.009555e+00 8.535033e-01 6.793100e-01 8.157620e-01 5.808296e-01 5.783308e-01 1.041741e+00
<GCONST> 1.386074e+02
<STATE> 3
<MEAN> 39
 -1.730555e+01 -1.873692e+01 -3.628309e+00 -6.461331e+00 1.523186e+00 -1.580498e+01 -3.096960e+00 5.810937e+00 2.369196e-01 -1.292362e+01 4.161098e+00 -6.065608e+00 5.945094e+01 2.950935e-03 -1.603180e-02 -8.136872e-02 6.171342e-02 1.173382e-01 8.069175e-02 1.585422e-01 1.836470e-02 -2.100260e-01 -1.491143e-02 -5.248191e-02 5.264874e-02 -3.495044e-02 7.509986e-02 1.639327e-01 -6.464076e-02 2.734707e-02 -1.339557e-01 5.039570e-02 -3.616158e-02 -9.519871e-02 -7.256027e-02 1.155543e-01 -9.289769e-02 8.410789e-02 -7.335061e-02
<VARIANCE> 39
 1.778326e+01 1.331900e+01 2.027744e+01 3.270611e+01 2.221964e+01 1.890755e+01 4.618333e+01 5.017634e+01 2.985292e+01 2.505845e+01 2.551201e+01 2.190491e+01 3.713487e+01 4.678383e-01 6.616203e-01 1.167297e+00 1.459179e+00 1.726581e+00 1.847093e+00 1.827360e+00 2.654324e+00 2.271099e+00 2.226932e+00 2.050851e+00 2.291501e+00 5.215862e-01 4.997220e-02 1.012820e-01 1.666276e-01 2.623442e-01 2.711427e-01 2.900032e-01 3.388166e-01 5.690407e-01 4.442001e-01 4.380971e-01 3.972250e-01 3.496255e-01 5.098980e-02
<GCONST> 9.941212e+01
<STATE> 4
<MEAN> 39
 -8.195045e+00 -7.641908e+00 -6.964436e+00 -1.060309e+01 -2.525482e+00 -1.940194e+01 -4.150921e+00 -5.426560e+00 -7.687903e-01 -1.667163e+01 -1.340331e+00 -2.808913e+00 6.733625e+01 3.119096e-01 3.790463e-01 -9.941661e-02 -1.422256e-02 -3.691796e-01 2.285175e-01 1.886045e-01 -5.706134e-01 -4.877636e-01 -3.337850e-01 1.769667e-01 2.740305e-01 3.818836e-01 -2.882463e-02 -2.127321e-01 -5.622917e-02 -2.301507e-03 9.967506e-02 4.105178e-01 4.665731e-02 -1.634362e-01 7.626013e-02 -6.686388e-02 1.240047e-01 -2.711926e-01 7.731476e-02
<VARIANCE> 39
 3.467250e+01 3.279324e+01 1.503601e+01 4.396059e+01 1.984021e+01 7.830398e+01 2.454347e+01 7.973493e+01 4.909017e+01 6.905431e+01 2.824377e+01 2.034921e+01 1.534189e+02 1.338889e+00 4.236181e+00 1.533052e+00 2.753301e+00 2.131500e+00 8.774693e+00 2.567678e+00 2.833564e+00 3.308143e+00 3.611709e+00 2.287045e+00 3.238170e+00 3.777926e+00 2.446478e-01 5.340316e-01 2.704244e-01 5.226575e-01 3.686537e-01 1.098103e+00 4.281914e-01 5.509346e-01 5.896967e-01 6.309279e-01 3.864663e-01 4.850710e-01 2.872171e-01
<GCONST> 1.233002e+02
<TRANSP> 5
 0.000000e+00 1.000000e+00 0.000000e+00 0.000000e+00 0.000000e+00
 0.000000e+00 8.005756e-01 1.994244e-01 0.000000e+00 0.000000e+00
 0.000000e+00 0.000000e+00 8.970325e-01 1.029675e-01 0.000000e+00
 0.000000e+00 0.000000e+00 0.000000e+00 7.861513e-01 2.138487e-01
 0.000000e+00 0.000000e+00 0.000000e+00 0.000000e+00 0.000000e+00
<ENDHMM>
~h "n"
<BEGINHMM>
<NUMSTATES> 5
<STATE> 2
<MEAN> 39
 -2.995806e+00 -7.933954e+00 -8.066228e+00 -9.367789e+00 -2.593687e+00 -1.916872e+01 -4.623926e+00 -1.223133e+01 4.174644e-01 -1.653236e+01 -4.453985e+00 -9.319514e+00 7.435526e+01 5.604596e-01 -8.239298e-01 -3.314453e+00 -3.909928e-01 3.572755e+00 1.400498e+00 -6.732861e-01 -1.696124e+00 2.572226e+00 -1.555803e-01 1.186728e+00 -2.321603e+00 3.280285e-01 -5.629844e-02 9.124633e-01 1.100493e+00 -7.332499e-01 -7.639304e-01 9.578475e-01 -1.426282e-01 -7.808108e-01 -5.760509e-01 8.425963e-01 2.319881e-01 9.505108e-02 -5.489852e-01
<VARIANCE> 39
 5.281744e+00 3.197642e+01 1.964170e+01 1.528115e+01 2.254420e+01 1.297699e+01 1.831844e+01 3.101166e+01 8.091396e+01 6.273266e+01 2.410548e+01 3.203218e+01 1.130299e+01 1.079529e+00 3.722580e+00 6.060377e+00 2.621802e+00 4.730773e+00 2.221474e+00 4.845151e+00 3.540167e+00 5.473125e+00 3.493193e+00 2.804524e+00 1.485308e+00 7.717540e-01 1.439346e-01 1.646069e-01 2.282481e-01 9.424818e-01 6.438871e-01 3.802640e-01 1.057705e+00 4.244553e-01 2.093026e+00 5.395486e-01 6.107081e-01 5.838203e-01 1.664848e-01
<GCONST> 1.154179e+02
<STATE> 3
<MEAN> 39
 -1.625275e+00 -6.243318e+00 -1.347710e+01 -1.229946e+01 2.397890e+00 -1.492829e+01 -4.822190e+00 -1.771499e+01 1.940925e+00 -1.407872e+01 7.828411e-02 -1.307846e+01 7.348820e+01 1.870015e-01 2.960582e-01 -1.156226e+00 -1.130924e+00 1.170469e+00 1.889323e+00 5.985234e-01 -1.671981e+00 -1.819603e-03 -1.435423e-01 1.905016e+00 -3.483180e-01 -1.706537e-01 -8.943833e-02 2.750739e-01 8.549286e-01 1.338200e-01 -8.412580e-01 -1.581715e-01 -3.885196e-02 3.820943e-01 -2.318581e-01 -2.560230e-01 -3.804119e-01 7.660238e-01 -2.316129e-01
<VARIANCE> 39
 7.990611e+00 6.047720e+01 2.647941e+01 1.475084e+01 1.668465e+01 1.404898e+01 1.581188e+01 5.861955e+01 6.708157e+01 8.308501e+01 2.831615e+01 3.508621e+01 1.671984e+01 3.058463e-01 2.668114e+00 1.536581e+00 2.130873e+00 1.556205e+00 1.033002e+00 1.112952e+00 1.567031e+00 2.586296e+00 1.734218e+00 2.040879e+00 2.916089e+00 3.229014e-01 1.242112e-01 2.897804e-01 1.616178e-01 1.923605e-01 2.009090e-01 1.946533e-01 5.514925e-01 5.215251e-01 8.717742e-01 7.766039e-01 3.486792e-01 3.419250e-01 1.626131e-01
<GCONST> 1.030095e+02
<STATE> 4
<MEAN> 39
 -1.113850e+00 -2.875457e+00 -1.525753e+01 -1.594042e+01 4.471641e+00 -1.085022e+01 -4.712425e+00 -2.103493e+01 2.707335e+00 -1.640368e+01 2.369480e+00 -1.083621e+01 7.190391e+01 -1.646255e-01 -4.710677e-02 -2.665047e-02 -1.812367e-01 6.960313e-01 2.165879e-01 -7.113600e-01 -5.895743e-02 7.688503e-01 -9.098874e-01 -7.468205e-02 -3.269321e-01 -6.854966e-02 -8.476478e-02 -1.625579e-01 3.485608e-01 5.248306e-01 -1.459762e-01 -8.584476e-01 -4.408317e-01 5.904013e-01 1.755672e-01 4.514258e-02 -6.975163e-01 -8.010063e-02 2.166765e-02
<VARIANCE> 39
 7.825914e+00 7.397990e+01 2.843189e+01 2.474810e+01 2.278640e+01 2.426595e+01 1.940822e+01 5.713880e+01 4.730279e+01 4.980169e+01 3.953820e+01 4.238337e+01 1.950096e+01 1.828187e-01 9.953803e-01 4.572574e-01 1.603017e+00 1.031700e+00 2.064869e+00 1.820068e+00 1.552031e+00 1.435444e+00 2.334647e+00 1.668955e+00 2.461468e+00 1.460478e-01 6.195162e-02 2.535580e-01 1.463474e-01 1.717528e-01 1.980634e-01 2.875975e-01 2.149947e-01 3.393533e-01 3.285467e-01 4.310189e-01 3.544217e-01 6.280762e-01 6.957114e-02
<GCONST> 9.711621e+01
<TRANSP> 5
 0.000000e+00 1.000000e+00 0.000000e+00 0.000000e+00 0.000000e+00
 0.000000e+00 3.910330e-01 6.089669e-01 0.000000e+00 0.000000e+00
 0.000000e+00 0.000000e+00 3.989344e-01 6.010656e-01 0.000000e+00
 0.000000e+00 0.000000e+00 0.000000e+00 5.750365e-01 4.249635e-01
 0.000000e+00 0.000000e+00 0.000000e+00 0.000000e+00 0.000000e+00
<ENDHMM>
~h "o"
<BEGINHMM>
<NUMSTATES> 5
<STATE> 2
<MEAN> 39
 -1.177360e+01 -1.218233e+01 -1.310723e+01 -2.499563e+00 4.958223e+00 -8.701222e+00 -1.329373e+01 -1.307296e+00 2.122687e+00 -5.195020e+00 -2.607980e+00 -6.184578e+00 5.107502e+01 2.845789e-01 1.247480e+00 -1.524823e-02 -3.814106e-01 -9.965586e-01 1.792814e+00 6.296526e-01 -1.720540e+00 -9.149052e-01 1.711543e+00 -4.152016e-01 3.473256e-01 -9.148556e-01 -2.178500e-01 1.403452e-01 3.975291e-01 -2.132189e-01 -2.318161e-01 -7.941273e-02 4.182589e-01 3.586013e-02 -1.534672e-01 -2.160951e-01 2.631248e-01 6.866608e-02 4.597160e-02
<VARIANCE> 39
 2.432771e+00 7.629124e+00 1.271542e+01 1.496144e+01 1.673009e+01 2.302007e+01 1.571360e+01 2.950729e+01 1.695761e+01 2.412221e+01 2.096896e+01 1.744251e+01 4.155476e+00 3.840551e-01 4.869253e-01 1.139899e+00 1.294602e+00 1.290133e+00 1.565764e+00 2.037201e+00 1.874312e+00 2.354829e+00 2.232749e+00 1.784184e+00 1.847761e+00 2.555510e-01 5.181848e-02 7.599161e-02 1.862451e-01 2.650850e-01 1.781949e-01 3.364513e-01 3.191067e-01 5.034283e-01 3.931870e-01 5.005835e-01 2.841336e-01 2.954074e-01 2.161692e-02
<GCONST> 8.639754e+01
<STATE> 3
<MEAN> 39
 -1.338918e+01 -4.908881e+00 -7.467198e+00 -5.767179e+00 -2.507624e+00 -2.903391e+00 -5.690878e+00 -5.530653e+00 -4.297244e+00 -2.549485e+00 -1.961598e+00 -3.270144e+00 4.739882e+01 -9.115182e-02 6.110281e-01 5.960304e-01 -3.971016e-01 -7.885969e-01 2.362072e-01 8.524999e-01 6.018971e-02 -5.923736e-01 -4.039233e-01 -5.986217e-03 3.778166e-01 -1.333455e-01 2.583141e-01 2.270600e-02 -1.657754e-01 -1.533019e-01 5.884258e-02 -2.707152e-01 -1.962398e-01 -2.370726e-02 1.535396e-01 -2.780085e-01 -8.957979e-03 -8.766513e-02 2.653048e-01
<VARIANCE> 39
 4.175676e+00 4.892178e+00 1.094442e+01 1.226320e+01 1.514808e+01 1.239327e+01 1.511321e+01 1.434061e+01 1.685960e+01 1.500116e+01 1.289406e+01 1.432495e+01 2.805429e+00 4.941360e-01 7.475475e-01 1.460896e+00 1.351362e+00 1.580617e+00 1.582368e+00 1.771600e+00 1.785515e+00 1.990829e+00 1.702942e+00 1.649351e+00 1.508302e+00 3.663600e-01 2.519608e-01 2.458083e-01 2.392750e-01 3.798799e-01 3.595243e-01 4.383819e-01 3.660504e-01 6.069392e-01 3.437465e-01 4.365284e-01 3.134422e-01 3.099416e-01 9.307724e-02
<GCONST> 8.973708e+01
<STATE> 4
<MEAN> 39
 -7.225368e-01 1.111456e+00 -1.378577e+01 -2.231995e+01 -1.778917e+00 -9.152089e+00 -5.158682e+00 -1.711756e+01 -5.841377e-01 -1.358203e+01 -4.562315e-01 -6.373763e+00 6.664762e+01 6.837744e-01 -4.264463e-01 -3.129503e-01 -6.498239e-01 3.914219e-01 -1.101962e+00 -1.293118e-01 -9.107299e-01 1.007488e+00 -8.992124e-01 -3.191179e-01 -7.417899e-01 2.192416e+00 -2.107748e-01 -1.587249e-01 2.195915e-01 2.682636e-01 -6.161409e-02 -1.237324e-01 1.002274e-01 2.589912e-01 -3.521760e-02 5.150095e-02 -8.979370e-02 1.374817e-01 -9.468925e-02
<VARIANCE> 39
 4.361354e+01 4.968830e+01 3.314436e+01 7.496626e+01 5.574321e+01 3.496193e+01 2.173481e+01 6.102692e+01 5.947246e+01 5.221358e+01 4.524855e+01 4.597070e+01 1.202880e+02 6.133468e+00 6.435729e+00 3.620447e+00 1.019388e+01 5.685250e+00 3.898572e+00 2.223966e+00 5.981392e+00 3.594408e+00 4.718103e+00 5.088037e+00 3.590915e+00 2.464727e+00 7.910835e-01 8.197870e-01 4.851087e-01 1.170494e+00 9.929944e-01 7.447271e-01 4.551325e-01 9.473294e-01 8.774909e-01 7.997837e-01 9.266630e-01 8.867162e-01 4.217910e-01
<GCONST> 1.384652e+02
<TRANSP> 5
 0.000000e+00 1.000000e+00 0.000000e+00 0.000000e+00 0.000000e+00
 0.000000e+00 7.905605e-01 2.094395e-01 0.000000e+00 0.000000e+00
 0.000000e+00 0.000000e+00 8.670316e-01 1.329684e-01 0.000000e+00
 0.000000e+00 0.000000e+00 0.000000e+00 9.152117e-01 8.478826e-02
 0.000000e+00 0.000000e+00 0.000000e+00 0.000000e+00 0.000000e+00
<ENDHMM>
~h "q"
<BEGINHMM>
<NUMSTATES> 5
<STATE> 2
<MEAN> 39
 -5.749990e+00 1.159145e+01 8.720215e+00 -2.030844e+01 -1.358033e+01 -7.102360e+00 -1.983924e+01 -1.201515e+01 -1.392724e+01 1.717070e+00 -1.924800e+01 -3.886755e+00 6.673083e+01 1.282596e+00 -6.624340e-01 -9.254356e-01 1.833654e+00 -6.715100e-01 -1.150219e-01 -3.835927e-01 1.811626e-01 -2.665371e-01 1.990224e-01 -2.340590e-01 4.025212e-01 -7.556766e-01 2.320435e-01 6.190298e-03 -1.579679e-01 2.139892e-01 1.413936e-01 -5.080717e-01 2.783240e-01 -2.170783e-01 1.594212e-01 -2.341576e-01 3.028713e-01 -1.972789e-01 -1.675345e-01
<VARIANCE> 39
 7.399048e+00 2.909865e+01 1.159948e+01 2.458954e+01 2.584635e+01 3.412838e+01 3.744662e+01 3.543073e+01 2.218850e+01 2.540314e+01 2.558640e+01 2.449217e+01 6.817662e+00 6.420768e-01 9.561539e-01 8.324633e-01 1.531123e+00 1.351568e+00 2.744979e+00 2.196650e+00 1.814377e+00 1.677253e+00 2.239232e+00 1.758086e+00 1.290525e+00 4.671895e-01 6.983572e-02 1.638104e-01 1.387485e-01 2.652584e-01 3.717603e-01 4.253915e-01 3.786481e-01 3.497821e-01 3.344046e-01 4.862679e-01 2.733169e-01 2.497106e-01 3.336708e-02
<GCONST> 9.565991e+01
<STATE> 3
<MEAN> 39
 2.617821e+00 9.378162e+00 3.489403e+00 -1.201752e+01 -1.246865e+01 -1.465949e+01 -1.676301e+01 -1.465481e+01 -1.243685e+01 -2.467136e+00 -1.581884e+01 -4.523516e+00 6.178248e+01 9.322211e-01 4.298225e-01 -3.385385e-01 7.296825e-01 8.772431e-01 -1.233186e+00 4.166782e-01 -6.098278e-01 1.194505e-01 -2.097115e+00 1.052252e+00 -9.295613e-01 -1.044011e+00 -7.558780e-01 1.327585e-01 2.890732e-01 -2.052153e-01 1.802362e-01 4.837282e-01 -4.014529e-02 2.832335e-02 -1.416601e-01 -3.847347e-01 -5.576957e-02 -3.312194e-01 2.127897e-01
<VARIANCE> 39
 6.792466e+00 2.101877e+01 9.640315e+00 1.201091e+01 2.685909e+01 2.711399e+01 2.171045e+01 3.156621e+01 2.102092e+01 4.737329e+01 2.927082e+01 2.197349e+01 6.395821e+00 1.202063e+00 1.260913e+00 1.418205e+00 1.405439e+00 1.466457e+00 3.733737e+00 2.538073e+00 2.217877e+00 2.018460e+00 3.817509e+00 2.318408e+00 1.742998e+00 4.827403e-01 3.236311e-01 2.702040e-01 3.056911e-01 3.948850e-01 3.389702e-01 4.691947e-01 4.711711e-01 4.617674e-01 3.789544e-01 7.991390e-01 5.066329e-01 3.121806e-01 8.652341e-02
<GCONST> 1.035794e+02
<STATE> 4
<MEAN> 39
 -1.148098e-01 1.131699e+01 6.298401e+00 -9.928362e+00 -8.620704e+00 -1.495068e+01 -1.625520e+01 -1.693669e+01 -1.496571e+01 -1.183010e+01 -1.394624e+01 -1.060461e+01 5.936779e+01 -3.995169e+00 -5.819361e-01 -1.239036e+00 1.575098e+00 1.592222e+00 8.891761e-01 1.537112e+00 1.707931e-01 1.673175e-01 -1.201369e+00 6.456280e-01 -1.625835e+00 1.040186e+00 -1.502221e+00 -4.064046e-01 -1.344064e+00 1.734866e-01 -1.426695e-01 4.265410e-01 6.805858e-01 5.999899e-01 9.435863e-01 1.112647e+00 5.815203e-01 5.561249e-01 9.116783e-01
<VARIANCE> 39
 2.126160e+01 1.281421e+01 2.032621e+01 1.632462e+01 2.659277e+01 1.312274e+01 1.448197e+01 1.496373e+01 2.315469e+01 2.291500e+01 1.930574e+01 1.826863e+01 4.210950e+00 4.137553e+00 3.893306e+00 7.228729e+00 2.512196e+00 2.250530e+00 2.056492e+00 2.867317e+00 3.255846e+00 3.846299e+00 6.107805e+00 3.285986e+00 3.299427e+00 3.294141e+00 3.599651e-01 4.388117e-01 7.645597e-01 4.396222e-01 5.243729e-01 3.300538e-01 3.390213e-01 3.996358e-01 6.482857e-01 5.548599e-01 5.630176e-01 5.660041e-01 1.608710e-01
<GCONST> 1.133950e+02
<TRANSP> 5
 0.000000e+00 1.000000e+00 0.000000e+00 0.000000e+00 0.000000e+00
 0.000000e+00 8.021128e-01 1.978872e-01 0.000000e+00 0.000000e+00
 0.000000e+00 0.000000e+00 7.611672e-01 2.388327e-01 0.000000e+00
 0.000000e+00 0.000000e+00 0.000000e+00 6.320547e-01 3.679453e-01
 0.000000e+00 0.000000e+00 0.000000e+00 0.000000e+00 0.000000e+00
<ENDHMM>
~h "s"
<BEGINHMM>
<NUMSTATES> 5
<STATE> 2
<MEAN> 39
 -1.316555e+01 -6.399570e+00 -2.685773e+00 -5.998805e+00 -5.241520e+00 -9.941968e+00 -3.488388e+00 -1.860507e+00 -4.117079e+00 -9.556218e+00 -1.050852e+00 9.835644e-01 5.255336e+01 2.020566e+00 1.584983e+00 5.714924e-02 -1.250165e+00 1.010216e+00 -2.688679e+00 7.500504e-02 -9.732033e-01 -6.536906e-01 -2.916340e+00 -1.188105e-01 5.629758e-01 2.501278e+00 8.794313e-01 4.764154e-01 -3.800279e-01 -9.988998e-01 2.011534e-01 -8.005107e-01 -3.138559e-01 -7.181956e-01 1.063412e-01 -2.173973e-01 -1.663506e-01 -6.508649e-01 1.128188e+00
<VARIANCE> 39
 1.048639e+01 1.079529e+01 8.451954e+00 2.391823e+01 1.952459e+01 3.250122e+01 2.380255e+01 4.083149e+01 2.343310e+01 2.445899e+01 2.177761e+01 3.389743e+01 8.525375e+01 2.981910e+00 3.721218e+00 2.972077e+00 6.505561e+00 2.845355e+00 6.599945e+00 2.637912e+00 5.325605e+00 2.082953e+00 3.452299e+00 1.841064e+00 2.414496e+00 3.055201e+00 1.961968e-01 3.096976e-01 2.712156e-01 5.738218e-01 5.132636e-01 7.902793e-01 2.819046e-01 4.712555e-01 3.698245e-01 5.503704e-01 4.399860e-01 4.574651e-01 3.568121e-01
<GCONST> 1.161665e+02
<STATE> 3
<MEAN> 39
 -3.257987e-01 1.429530e+00 -8.317382e+00 -1.946419e+01 -3.372799e+00 -1.983689e+01 -5.736003e+00 -1.162585e+01 -3.111258e+00 -1.689080e+01 -1.060116e+00 -3.554459e+00 6.679253e+01 1.455331e+00 -1.013464e+00 -1.798684e+00 -2.070164e+00 1.171751e+00 -1.375417e+00 2.678938e-01 -1.623785e+00 1.566784e+00 -1.339721e+00 4.697855e-01 -1.702495e+00 4.229219e+00 -9.219635e-01 -1.122688e+00 4.071622e-02 7.973737e-01 -2.213351e-02 1.303350e+00 2.259947e-01 5.655308e-02 3.060654e-01 2.737293e-01 1.070920e-01 -2.330837e-01 -2.403260e-01
<VARIANCE> 39
 1.438904e+01 3.134557e+01 5.690466e+01 5.719670e+01 3.393185e+01 1.255244e+02 2.910163e+01 5.547041e+01 5.042654e+01 2.267402e+01 1.460316e+01 2.892891e+01 5.413647e+01 4.351126e+00 4.772481e+00 1.129023e+00 5.354134e+00 3.432731e+00 8.791541e+00 3.177660e+00 2.700544e+00 1.786875e+00 3.588269e+00 2.643242e+00 1.464527e+00 3.302133e+00 2.716520e-01 4.887780e-01 4.075621e-01 5.529755e-01 7.297972e-01 1.945263e+00 7.649267e-01 7.396579e-01 5.792084e-01 3.200822e-01 5.216170e-01 4.263162e-01 4.225328e-01
<GCONST> 1.257166e+02
<STATE> 4
<MEAN> 39
 -3.777830e+00 -9.799904e+00 -1.029571e+01 -1.539978e+01 -9.995405e-01 -1.977887e+01 -3.372769e+00 -1.367794e+01 3.815527e+00 -2.264180e+01 -1.266915e+00 -8.252568e+00 7.911553e+01 -4.584203e-01 -1.328343e+00 -1.979482e-01 7.240300e-01 6.431843e-02 1.344477e+00 3.045006e-01 -3.594172e-01 -6.492408e-02 -1.280769e+00 5.561810e-03 -4.200129e-01 9.089993e-01 1.822227e-03 2.766000e-01 1.264692e-01 6.302394e-02 -8.392484e-02 8.262887e-02 -1.845943e-01 -1.903412e-03 -2.008253e-01 1.686200e-01 1.039644e-01 7.247658e-02 -3.178860e-01
<VARIANCE> 39
 4.511338e+00 3.115638e+01 2.311151e+01 1.523836e+01 1.353469e+01 6.649175e+01 3.467565e+01 3.188317e+01 3.454868e+01 3.408358e+01 1.914260e+01 5.145200e+01 7.712247e+00 2.738086e-01 3.431656e+00 1.907460e+00 1.257363e+00 2.054989e+00 1.006449e+01 2.347506e+00 4.864899e+00 2.355435e+00 2.793713e+00 3.037833e+00 5.966573e+00 1.406318e+00 6.410308e-02 4.563643e-01 2.202524e-01 1.951044e-01 2.782190e-01 1.020271e+00 4.293168e-01 7.335285e-01 3.895464e-01 6.627202e-01 5.840826e-01 8.993728e-01 2.410999e-01
<GCONST> 1.111894e+02
<TRANSP> 5
 0.000000e+00 1.000000e+00 0.000000e+00 0.000000e+00 0.000000e+00
 0.000000e+00 5.856724e-01 4.143275e-01 0.000000e+00 0.000000e+00
 0.000000e+00 0.000000e+00 7.057095e-01 2.942905e-01 0.000000e+00
 0.000000e+00 0.000000e+00 0.000000e+00 8.598930e-01 1.401070e-01
 0.000000e+00 0.000000e+00 0.000000e+00 0.000000e+00 0.000000e+00
<ENDHMM>
~h "t"
<BEGINHMM>
<NUMSTATES> 5
<STATE> 2
<MEAN> 39
 -8.817485e+00 -6.401502e+00 -6.575469e+00 -8.554940e+00 -1.193877e+00 -1.771904e+01 -2.545939e+00 -1.247934e+01 -9.488019e-02 -1.892324e+01 -5.200528e+00 -5.972437e+00 7.320490e+01 -4.134640e-01 -5.742184e-02 5.328334e-01 1.029218e+00 2.771804e-01 9.137045e-01 -7.687626e-01 -4.631374e-01 -2.235983e+00 -8.428013e-01 1.982047e-01 -2.229765e-01 -2.171159e-01 1.315709e-01 -1.576434e-01 -3.477950e-01 -4.027617e-01 1.640468e-01 1.613502e-01 -9.438695e-02 -3.450051e-01 3.503533e-01 -3.603756e-02 5.295496e-02 -3.904931e-01 2.335149e-01
<VARIANCE> 39
 2.816627e+01 2.610478e+01 2.144769e+01 2.775844e+01 2.517339e+01 6.435152e+01 3.540736e+01 4.104660e+01 6.718291e+01 8.088806e+01 3.183878e+01 2.352571e+01 3.221614e+01 3.920704e+00 4.737852e+00 3.141251e+00 3.373076e+00 3.040233e+00 5.740835e+00 6.488550e+00 8.854002e+00 6.529552e+00 1.437541e+01 4.243081e+00 4.264570e+00 6.313450e+00 7.543724e-01 9.104821e-01 6.129200e-01 3.962226e-01 5.863870e-01 1.306761e+00 1.486156e+00 1.448272e+00 1.508883e+00 3.207453e+00 9.085518e-01 4.443649e-01 1.156015e+00
<GCONST> 1.390272e+02
<STATE> 3
<MEAN> 39
 -4.194377e+00 -1.005674e+01 -1.588365e+01 -1.379780e+01 3.803182e+00 -1.031132e+01 -1.031251e+01 -2.409169e+01 4.003438e+00 -2.803741e+01 3.574467e+00 -1.851331e+01 7.806672e+01 5.688595e-01 2.341215e-01 -4.623677e-01 -4.590231e-01 -6.077532e-02 -1.010032e-01 -4.169145e-01 4.118229e-02 9.897392e-01 2.946098e-01 4.710997e-01 -2.158516e-01 -1.264335e-01 -1.226765e-01 1.109348e-01 4.351033e-01 1.767973e-01 -1.590212e-01 -1.547324e-01 1.672662e-01 3.950332e-01 -3.026214e-01 3.159818e-01 -2.795934e-01 4.433667e-01 -1.629671e-01
<VARIANCE> 39
 8.377295e+00 1.267173e+01 2.095291e+01 1.500340e+01 1.202929e+01 2.410152e+01 2.696325e+01 2.051554e+01 4.044146e+01 2.027152e+01 4.595770e+01 2.131300e+01 7.106371e+00 3.956199e-01 9.394199e-01 4.115426e+00 1.655123e+00 1.449318e+00 3.320523e+00 1.740480e+00 2.921017e+00 3.942741e+00 1.622264e+00 5.885952e+00 4.519662e+00 6.253862e-01 6.676167e-02 1.293200e-01 3.657042e-01 2.244963e-01 3.179938e-01 4.704695e-01 3.826645e-01 2.978753e-01 9.296786e-01 4.683118e-01 8.279055e-01 4.556208e-01 3.230564e-02
<GCONST> 1.018661e+02
<STATE> 4
<MEAN> 39
 -9.443523e-01 2.802304e-01 1.331419e+00 -1.217192e+01 -5.149939e+00 -1.302807e+01 -1.284464e+01 -1.469956e+01 -1.013801e+01 -1.249106e+01 -7.559658e+00 -9.583065e+00 6.666799e+01 -4.761651e-01 8.741171e-01 2.544614e+00 -6.039559e-01 -1.395044e+00 9.153727e-01 3.446352e-01 1.839767e-01 -1.660443e+00 2.207938e+00 -1.185201e+00 3.734363e-01 -6.944444e-01 -1.201730e-01 -1.858936e-01 -2.828205e-01 -3.596382e-02 -1.376046e-01 1.355099e-01 2.751094e-01 -2.157389e-01 4.144558e-01 -2.272420e-01 4.097994e-01 -2.837941e-01 2.829010e-01
<VARIANCE> 39
 1.965829e+01 3.835994e+01 6.878116e+01 4.377263e+01 2.688173e+01 4.108810e+01 2.873350e+01 2.227648e+01 6.017038e+01 6.623779e+01 3.504535e+01 2.386996e+01 2.839025e+01 3.785973e+00 2.194828e+00 6.034096e+00 6.279017e+00 4.582754e+00 3.337116e+00 4.258465e+00 3.201092e+00 6.971382e+00 2.917486e+00 2.951142e+00 4.402184e+00 3.681058e+00 7.203358e-01 4.069035e-01 1.721876e+00 1.597933e+00 9.539711e-01 1.121958e+00 9.844391e-01 5.649783e-01 8.216588e-01 8.101205e-01 5.190048e-01 8.510361e-01 4.599637e-01
<GCONST> 1.333845e+02
<TRANSP> 5
 0.000000e+00 1.000000e+00 0.000000e+00 0.000000e+00 0.000000e+00
 0.000000e+00 8.972077e-01 1.027923e-01 0.000000e+00 0.000000e+00
 0.000000e+00 0.000000e+00 9.201594e-01 7.984053e-02 0.000000e+00
 0.000000e+00 0.000000e+00 0.000000e+00 9.030544e-01 9.694562e-02
 0.000000e+00 0.000000e+00 0.000000e+00 0.000000e+00 0.000000e+00
<ENDHMM>
~h "u"
<BEGINHMM>
<NUMSTATES> 5
<STATE> 2
<MEAN> 39
 3.783766e+00 1.085307e+01 -1.539978e+01 -2.353073e+01 -7.204437e+00 -9.759520e+00 -7.389659e-01 -1.891529e+01 -1.342231e+01 -4.804085e+00 -1.635976e+01 5.341255e+00 6.702171e+01 -2.193561e-01 -6.076087e-01 8.530787e-02 4.289377e-01 5.470582e-01 6.991687e-01 -4.457438e-01 -6.983912e-01 8.463956e-01 2.337320e-01 5.903764e-01 -4.701129e-01 4.090281e-01 -2.397560e-01 -4.318370e-01 1.109315e-01 5.155814e-01 2.234875e-01 -1.458533e-01 -1.770484e-01 1.933803e-01 2.230909e-01 1.651227e-01 2.828780e-01 -3.559186e-01 -1.848247e-01
<VARIANCE> 39
 6.166316e+00 1.625095e+01 1.721753e+01 1.797730e+01 2.004692e+01 4.237322e+01 1.680811e+01 1.922208e+01 3.851325e+01 3.097436e+01 3.700541e+01 2.320943e+01 5.661046e+00 5.280461e-01 1.804877e+00 1.530538e+00 3.348010e+00 3.229416e+00 3.300342e+00 2.809177e+00 2.381182e+00 2.740829e+00 5.428340e+00 3.555476e+00 3.037197e+00 8.308643e-01 1.397473e-01 2.482787e-01 4.989301e-01 3.176276e-01 5.925407e-01 1.030754e+00 5.134333e-01 7.724771e-01 7.245871e-01 1.029789e+00 5.727180e-01 6.076790e-01 1.165068e-01
<GCONST> 1.107430e+02
<STATE> 3
<MEAN> 39
 -1.444087e-01 2.176848e+00 -2.675668e+00 -7.562604e+00 -7.628877e+00 -1.218953e+01 -9.226176e+00 -1.490559e+01 -7.808296e+00 -2.921092e+00 -7.842833e+00 -8.341290e+00 6.460226e+01 -5.374219e-01 -9.076802e-02 3.024861e+00 1.052085e+00 -1.425920e+00 -6.207737e-01 -6.208835e-01 1.625430e+00 -1.232589e-02 -7.830512e-01 7.674142e-01 -1.638512e+00 -5.710433e-01 -9.453908e-02 3.735333e-01 2.906730e-01 -8.123978e-01 -3.144226e-01 4.907557e-01 2.994284e-01 -7.622656e-02 -1.715914e-01 -3.755499e-01 -1.496229e-01 4.382161e-01 2.737659e-02
<VARIANCE> 39
 9.839316e+00 1.689532e+01 8.700050e+01 3.354197e+01 6.404632e+01 4.184287e+01 2.171777e+01 5.352669e+01 2.666846e+01 4.731640e+01 2.676729e+01 3.696841e+01 2.031988e+01 2.142000e+00 2.761073e+00 8.240068e+00 7.524293e+00 7.329568e+00 6.850428e+00 3.263671e+00 5.451742e+00 2.547220e+00 6.324464e+00 2.150628e+00 4.241969e+00 1.056938e+00 5.523576e-01 4.203048e-01 2.139288e+00 7.586731e-01 2.084574e+00 1.176965e+00 5.592709e-01 1.451153e+00 4.328635e-01 1.631739e+00 3.421690e-01 5.132915e-01 3.416041e-01
<GCONST> 1.310670e+02
<STATE> 4
<MEAN> 39
 -6.000659e+00 3.970561e+00 1.183301e+01 -1.283079e+01 -1.470797e+01 -1.125264e+01 -5.514573e+00 -1.375635e+01 -1.079039e+01 -5.197870e+00 -3.847786e+00 -9.837761e+00 6.600403e+01 -4.211947e-01 -9.004036e-01 -5.337681e-01 2.004136e-01 -2.359097e-01 -1.041449e+00 1.353800e+00 6.514290e-02 6.497353e-01 -2.322029e-01 2.852073e-01 2.941363e-01 1.075948e+00 3.869617e-01 -2.740840e-01 -1.193386e+00 4.690827e-01 6.865005e-01 -4.015853e-01 -1.393222e-01 -1.682644e-02 5.976158e-01 -1.613262e-01 -8.384074e-02 -7.034310e-02 5.538378e-02
<VARIANCE> 39
 1.966728e+01 2.171801e+01 4.343346e+01 5.802177e+01 5.017256e+01 3.998775e+01 6.697916e+01 2.148383e+01 2.430178e+01 3.791097e+01 2.297845e+01 1.944394e+01 2.056155e+01 4.170897e+00 3.130177e+00 1.605859e+01 1.127777e+01 9.187215e+00 7.566766e+00 6.621143e+00 2.797400e+00 5.823612e+00 6.131101e+00 2.251861e+00 1.550931e+00 2.328675e+00 7.794621e-01 3.803257e-01 2.165801e+00 2.213115e+00 2.373508e+00 1.314885e+00 2.132840e+00 6.388463e-01 9.700759e-01 1.252595e+00 4.634100e-01 3.572400e-01 3.345452e-01
<GCONST> 1.360936e+02
<TRANSP> 5
 0.000000e+00 1.000000e+00 0.000000e+00 0.000000e+00 0.000000e+00
 0.000000e+00 8.982638e-01 1.017362e-01 0.000000e+00 0.000000e+00
 0.000000e+00 0.000000e+00 8.600860e-01 1.399140e-01 0.000000e+00
 0.000000e+00 0.000000e+00 0.000000e+00 8.741600e-01 1.258400e-01
 0.000000e+00 0.000000e+00 0.000000e+00 0.000000e+00 0.000000e+00
<ENDHMM>
~h "w"
<BEGINHMM>
<NUMSTATES> 5
<STATE> 2
<MEAN> 39
 -1.648588e+01 -9.664098e+00 -3.466724e+00 -6.885109e+00 -5.980991e+00 -1.243969e+01 -3.363678e+00 -8.479300e-01 -3.873658e+00 -4.354547e+00 -1.991269e+00 -2.966189e+00 5.377683e+01 4.772128e-02 -1.107529e+00 1.793533e-01 -1.381298e-01 2.648740e-01 -7.729061e-01 1.201283e-02 8.206865e-01 4.357584e-01 -4.250701e-01 2.058458e-02 2.032774e-02 7.792576e-01 2.768885e-02 5.723941e-03 -8.129922e-02 9.731657e-02 1.213417e-01 1.119980e-01 -1.007704e-01 9.674344e-03 4.345965e-02 -1.112916e-01 1.625470e-02 -2.917558e-02 -1.713312e-01
<VARIANCE> 39
 2.607631e+01 6.860603e+01 4.424328e+01 4.789204e+01 4.095522e+01 5.289823e+01 6.149843e+01 6.774183e+01 5.261739e+01 3.326352e+01 2.784317e+01 2.450876e+01 5.766601e+01 3.176440e+00 3.528455e+00 4.270096e+00 5.359427e+00 3.597788e+00 5.042830e+00 6.165344e+00 4.155423e+00 4.251742e+00 3.879502e+00 2.779286e+00 2.672078e+00 6.135497e+00 6.553662e-01 7.234620e-01 7.199898e-01 9.903213e-01 6.194354e-01 9.805185e-01 1.166151e+00 8.455530e-01 8.126063e-01 7.464964e-01 5.492489e-01 5.358390e-01 1.105242e+00
<GCONST> 1.359794e+02
<STATE> 3
<MEAN> 39
 -1.685719e+01 -1.757497e+01 -5.063713e+00 -5.173503e+00 3.808178e+00 -1.732713e+01 -7.885620e+00 6.909368e+00 4.136130e+00 -1.282447e+01 1.877395e+00 -4.569163e+00 5.648914e+01 -1.283756e-01 2.279134e-02 -1.255380e-01 -1.081988e-01 5.275760e-01 -3.001890e-02 -5.336636e-03 -2.419934e-01 2.189342e-01 -2.916330e-01 3.654543e-01 -2.855662e-01 2.277672e-01 4.191249e-02 4.710506e-02 -4.585895e-02 1.358955e-02 -7.205752e-02 4.429131e-02 -4.869947e-03 -6.126515e-02 -5.047642e-02 1.080973e-01 -4.045847e-02 5.614237e-03 -2.078885e-02
<VARIANCE> 39
 1.180123e+01 7.213302e+00 2.077956e+01 3.316355e+01 2.447283e+01 1.373692e+01 2.911880e+01 3.185734e+01 3.309861e+01 2.617147e+01 2.811994e+01 2.162148e+01 1.401609e+01 2.691634e-01 3.774091e-01 8.854459e-01 1.281321e+00 1.709970e+00 1.364093e+00 1.773249e+00 1.898545e+00 2.593342e+00 2.207049e+00 2.001616e+00 1.508332e+00 2.188660e-01 3.632201e-02 8.074088e-02 1.500522e-01 2.250309e-01 2.983215e-01 2.864764e-01 3.250187e-01 3.940025e-01 5.209852e-01 4.114006e-01 3.906949e-01 3.104105e-01 3.112167e-02
<GCONST> 9.149724e+01
<STATE> 4
<MEAN> 39
 -1.685591e+01 -1.433873e+01 -8.165050e+00 -5.977648e+00 8.521151e+00 -1.509511e+01 -1.028167e+01 3.689787e+00 3.764091e+00 -1.039890e+01 2.671245e+00 -7.142640e+00 5.610578e+01 6.817625e-01 3.352165e-01 -8.022408e-01 5.326548e-01 1.196759e-01 7.411360e-01 -8.437684e-01 -4.347473e-01 -2.824838e-01 6.529834e-01 -5.987329e-01 -8.669794e-02 -6.583562e-01 9.813435e-02 1.142202e-01 -3.071475e-02 1.567887e-02 -1.538613e-01 2.411322e-01 3.164170e-02 -1.683419e-01 -1.229351e-01 2.324776e-01 -1.914383e-01 1.121234e-01 -1.347231e-01
<VARIANCE> 39
 1.253066e+01 2.941875e+01 2.224204e+01 2.399040e+01 1.804576e+01 2.025920e+01 2.730903e+01 2.681941e+01 4.077945e+01 4.640463e+01 2.766967e+01 2.132122e+01 1.503249e+01 4.527287e-01 5.441111e-01 9.905285e-01 1.281142e+00 1.229124e+00 1.609917e+00 1.650782e+00 1.895228e+00 2.107243e+00 2.084588e+00 1.857004e+00 1.756901e+00 3.426733e-01 6.217722e-02 9.987551e-02 1.622291e-01 2.448206e-01 2.767508e-01 2.989473e-01 3.247814e-01 4.295209e-01 4.321970e-01 4.234930e-01 3.150567e-01 3.767262e-01 2.931249e-02
<GCONST> 9.512362e+01
<TRANSP> 5
 0.000000e+00 1.000000e+00 0.000000e+00 0.000000e+00 0.000000e+00
 0.000000e+00 8.740663e-01 1.259337e-01 0.000000e+00 0.000000e+00
 0.000000e+00 0.000000e+00 9.301125e-01 6.988755e-02 0.000000e+00
 0.000000e+00 0.000000e+00 0.000000e+00 8.146044e-01 1.853956e-01
 0.000000e+00 0.000000e+00 0.000000e+00 0.000000e+00 0.000000e+00
<ENDHMM>
~h "x"
<BEGINHMM>
<NUMSTATES> 5
<STATE> 2
<MEAN> 39
 -5.385641e+00 -8.325690e+00 -4.973708e+00 -1.523540e+01 -9.075713e+00 -1.789468e+01 -2.169190e+00 -1.586170e+01 -8.552811e+00 -1.560508e+01 -5.895297e+00 -6.521774e+00 7.800738e+01 8.077879e-02 7.246078e-01 4.624166e-01 -3.561063e-01 -2.867657e-01 -6.137504e-01 1.145734e-01 -2.658887e-01 -3.643395e-01 6.571488e-01 -3.158787e-03 2.889398e-02 -3.357598e-01 -1.731200e-01 3.554397e-01 9.523661e-02 2.292520e-01 -2.248695e-02 4.988956e-02 -2.964777e-01 4.912039e-02 5.560774e-02 7.993378e-02 1.177818e-01 -2.775281e-02 -1.565528e-01
<VARIANCE> 39
 1.437386e+01 7.584161e+01 5.835149e+01 2.260377e+01 4.097974e+01 5.975247e+01 5.308308e+01 3.908288e+01 3.885297e+01 8.520869e+01 5.945829e+01 3.070372e+01 1.421420e+01 5.155157e-01 2.540879e+00 2.995687e+00 2.144574e+00 2.765414e+00 3.067351e+00 3.776924e+00 2.426855e+00 3.099992e+00 3.206959e+00 3.105580e+00 1.776751e+00 5.568463e-01 1.604542e-01 2.321542e-01 3.295549e-01 4.187399e-01 4.205253e-01 5.860306e-01 6.796947e-01 4.753712e-01 4.537065e-01 6.259499e-01 4.746915e-01 3.752600e-01 7.398878e-02
<GCONST> 1.160794e+02
<STATE> 3
<MEAN> 39
 -5.364797e+00 -1.365090e-01 1.851207e+00 -1.377495e+01 -1.190013e+01 -2.262107e+01 -6.592141e+00 -1.748321e+01 -1.174797e+01 -7.869282e+00 -5.855328e+00 -4.012494e+00 7.312119e+01 -1.626627e+00 2.450357e+00 8.883610e-01 1.500164e+00 -9.856979e-01 8.037750e-01 -9.180816e-01 -4.298830e-01 -4.906104e-01 -6.131024e-01 2.665859e-01 -7.170570e-01 -6.779320e-01 -7.777972e-01 4.472590e-01 -5.913139e-01 7.265411e-01 2.413913e-01 9.282913e-01 9.798750e-03 1.003984e-01 1.516657e-01 -4.631421e-01 -1.303414e-01 -4.272577e-01 -4.824722e-02
<VARIANCE> 39
 1.634258e+01 3.348196e+01 3.999466e+01 3.313683e+01 4.876529e+01 7.491575e+01 5.309957e+01 3.336272e+01 3.960120e+01 6.848700e+01 7.159287e+01 3.721648e+01 9.826789e+00 2.040511e+00 3.865488e+00 4.621041e+00 3.536841e+00 2.925687e+00 4.488990e+00 4.532278e+00 2.764621e+00 4.375899e+00 4.490061e+00 3.929127e+00 2.794615e+00 1.435677e+00 1.844543e-01 3.562116e-01 7.336656e-01 7.260811e-01 8.999417e-01 6.939462e-01 8.243724e-01 5.494103e-01 8.390008e-01 6.668094e-01 9.411017e-01 6.110970e-01 8.982974e-02
<GCONST> 1.264718e+02
<STATE> 4
<MEAN> 39
 -1.435688e+01 1.024548e+01 3.032358e-01 -5.810155e+00 -1.403287e+01 -1.463687e+01 -1.012098e+01 -1.903085e+01 -1.304018e+01 -1.341431e+01 -5.611555e+00 -9.128840e+00 7.173608e+01 -3.301095e+00 2.059268e+00 -1.554898e+00 3.086531e+00 1.194153e+00 2.751589e+00 -4.032501e-02 6.507259e-01 4.559797e-01 -3.302118e-01 -2.794936e-01 -8.925582e-01 -7.665071e-01 -1.794956e-01 -8.970479e-01 -5.112311e-01 -2.830620e-01 5.231190e-01 1.484517e-01 6.002968e-01 8.585227e-01 6.897179e-01 6.459642e-01 1.661164e-01 5.314822e-01 1.942946e-02
<VARIANCE> 39
 1.937830e+01 2.071831e+01 2.279512e+01 4.079045e+01 1.905881e+01 3.803847e+01 2.092512e+01 2.025114e+01 1.877800e+01 2.236417e+01 2.440002e+01 1.681808e+01 6.036492e+00 2.244841e+00 2.988848e+00 1.737535e+00 2.749091e+00 2.154133e+00 3.937625e+00 3.661456e+00 3.145700e+00 3.034632e+00 4.060570e+00 3.874852e+00 3.707472e+00 1.250152e+00 2.633436e-01 3.879099e-01 4.591336e-01 5.867342e-01 3.806506e-01 4.541542e-01 4.530869e-01 3.616235e-01 5.436306e-01 5.223787e-01 5.548021e-01 4.973941e-01 8.136199e-02
<GCONST> 1.122342e+02
<TRANSP> 5
 0.000000e+00 1.000000e+00 0.000000e+00 0.000000e+00 0.000000e+00
 0.000000e+00 7.925851e-01 2.074150e-01 0.000000e+00 0.000000e+00
 0.000000e+00 0.000000e+00 6.050596e-01 3.949404e-01 0.000000e+00
 0.000000e+00 0.000000e+00 0.000000e+00 6.038564e-01 3.961435e-01
 0.000000e+00 0.000000e+00 0.000000e+00 0.000000e+00 0.000000e+00
<ENDHMM>
~h "y"
<BEGINHMM>
<NUMSTATES> 5
<STATE> 2
<MEAN> 39
 -1.538456e+01 -8.852268e+00 -3.118386e+00 -8.740891e+00 -6.469066e+00 -1.077753e+01 -3.163175e+00 -2.932415e+00 -4.451540e+00 -3.006469e+00 -1.870236e+00 -3.372294e+00 5.704965e+01 -3.091565e-02 -1.058196e+00 6.004781e-01 -3.600236e-01 -4.492947e-01 -9.306092e-01 4.559405e-01 7.576749e-01 -3.642052e-02 -1.508669e-01 3.840365e-01 1.843513e-01 1.133904e+00 -9.305190e-03 -1.523910e-02 -6.947833e-02 7.949504e-02 1.561089e-01 1.219204e-01 -1.104287e-01 -1.104978e-02 8.959860e-02 -1.146901e-01 8.754932e-02 -2.225097e-02 -2.245729e-01
<VARIANCE> 39
 3.992683e+01 4.844072e+01 4.096323e+01 4.705035e+01 3.871762e+01 5.882876e+01 4.425465e+01 6.530200e+01 3.665965e+01 4.787022e+01 2.378296e+01 1.631547e+01 9.412595e+01 3.124593e+00 3.546974e+00 5.374701e+00 5.039706e+00 5.920764e+00 3.555889e+00 4.301448e+00 5.176937e+00 5.040017e+00 5.098787e+00 2.059026e+00 2.291179e+00 6.686219e+00 6.125633e-01 6.879737e-01 8.257949e-01 1.038338e+00 8.260334e-01 8.681327e-01 8.098081e-01 1.174801e+00 8.139316e-01 9.973516e-01 4.108110e-01 4.763344e-01 1.199297e+00
<GCONST> 1.359784e+02
<STATE> 3
<MEAN> 39
 -1.669166e+01 -1.736977e+01 -1.681410e+00 -5.306193e+00 -2.188734e+00 -1.553456e+01 -1.895564e+00 4.358330e+00 -1.483454e+00 -1.024862e+01 2.992780e+00 -3.803489e+00 5.667523e+01 1.943932e-02 3.809264e-01 5.633204e-02 8.393235e-02 -1.162884e-01 3.510078e-01 5.674692e-02 -4.053451e-01 -1.152132e-01 1.849063e-01 -6.606721e-02 2.262970e-02 -2.828249e-01 2.064222e-02 1.263736e-01 -2.943102e-02 -6.264538e-02 1.094182e-03 8.435445e-02 -6.256893e-02 -1.013973e-01 -1.171225e-02 6.589144e-02 -3.489840e-02 -1.972882e-03 -2.298451e-02
<VARIANCE> 39
 9.981699e+00 2.254517e+01 1.932883e+01 2.747835e+01 3.105359e+01 2.617009e+01 3.113199e+01 4.475087e+01 3.908496e+01 3.105252e+01 2.321080e+01 1.914966e+01 2.847776e+01 3.908019e-01 1.235711e+00 1.272465e+00 1.616905e+00 2.314759e+00 1.844809e+00 1.831329e+00 2.546243e+00 2.995969e+00 2.186462e+00 1.963015e+00 1.731186e+00 5.765192e-01 6.018323e-02 1.240035e-01 1.645605e-01 3.048861e-01 3.497713e-01 3.169131e-01 3.724066e-01 4.818957e-01 5.284893e-01 3.659965e-01 3.580704e-01 3.352253e-01 3.982181e-02
<GCONST> 1.005989e+02
<STATE> 4
<MEAN> 39
 -1.475949e+01 -3.110366e+00 -2.268076e+00 -6.148021e+00 -4.214383e+00 -6.082177e+00 -5.163582e+00 -6.904304e+00 -4.407106e+00 -3.882224e+00 -2.309545e+00 -3.203218e+00 4.984265e+01 5.145275e-01 1.809833e+00 1.157042e+00 -1.592078e+00 -1.607952e-01 -8.738455e-01 -7.755883e-01 -1.646088e+00 -6.170055e-01 2.055520e-02 -1.978967e-01 -4.427374e-01 1.063424e+00 3.114358e-01 1.281474e-01 3.442588e-01 -5.945967e-01 -4.265983e-01 -7.524426e-01 -1.294651e-02 -3.177589e-01 -1.725728e-01 -1.146892e-01 2.175394e-02 -2.001299e-01 7.893138e-01
<VARIANCE> 39
 1.509865e+01 1.632471e+01 2.547440e+01 2.220857e+01 2.643199e+01 2.662926e+01 2.199158e+01 2.967153e+01 1.776728e+01 1.671165e+01 1.529020e+01 1.576834e+01 4.247238e+01 2.582914e+00 3.181661e+00 5.085534e+00 4.415276e+00 4.511292e+00 7.349229e+00 2.487018e+00 4.029067e+00 2.835532e+00 2.175403e+00 2.114105e+00 1.868044e+00 4.307238e+00 3.454907e-01 6.597472e-01 7.186636e-01 5.589486e-01 1.006220e+00 7.112779e-01 4.618471e-01 7.060925e-01 4.680055e-01 3.141184e-01 3.882133e-01 3.567743e-01 5.400668e-01
<GCONST> 1.188085e+02
<TRANSP> 5
 0.000000e+00 1.000000e+00 0.000000e+00 0.000000e+00 0.000000e+00
 0.000000e+00 7.833047e-01 2.166954e-01 0.000000e+00 0.000000e+00
 0.000000e+00 0.000000e+00 9.379421e-01 6.205788e-02 0.000000e+00
 0.000000e+00 0.000000e+00 0.000000e+00 8.118939e-01 1.881061e-01
 0.000000e+00 0.000000e+00 0.000000e+00 0.000000e+00 0.000000e+00
<ENDHMM>
~h "z"
<BEGINHMM>
<NUMSTATES> 5
<STATE> 2
<MEAN> 39
 -1.193409e+01 6.870953e+00 -2.684296e+00 -3.636178e+00 -8.818365e+00 -1.436440e+01 -1.206944e+01 -1.476426e+01 -1.237218e+01 -1.038097e+01 -8.300994e+00 -9.530950e+00 6.139733e+01 -3.729766e+00 -9.567746e-01 -1.944544e+00 1.930717e+00 -1.845832e-01 3.456839e-01 2.003899e+00 8.298352e-01 1.142219e-01 1.389048e+00 9.677317e-01 5.107560e-01 9.950337e-01 7.226579e-01 -5.565616e-01 -1.218572e-01 -7.759556e-01 1.823815e-01 -1.493606e-02 -4.638672e-01 4.187531e-01 4.319415e-01 -2.574300e-01 3.923787e-02 4.146178e-01 4.698555e-01
<VARIANCE> 39
 8.484267e+01 2.414079e+01 5.719078e+01 4.079009e+01 2.895241e+01 2.026378e+01 4.212675e+01 3.392649e+01 3.110269e+01 2.714696e+01 3.319490e+01 1.481726e+01 1.576899e+01 5.047973e+00 3.134532e+00 5.937471e+00 4.517820e+00 3.945071e+00 2.916303e+00 4.135750e+00 4.570355e+00 4.183184e+00 3.048594e+00 3.738025e+00 2.559346e+00 1.676013e+00 2.801941e+00 5.781182e-01 1.513275e+00 1.207762e+00 8.965496e-01 9.703029e-01 7.675783e-01 9.344680e-01 8.736507e-01 9.822991e-01 1.138538e+00 3.753937e-01 3.014154e-01
<GCONST> 1.315557e+02
<STATE> 3
<MEAN> 39
 -9.495732e+00 -5.634043e+00 -1.276437e+01 -1.080334e+01 -4.636523e+00 -1.660322e+01 -9.464313e+00 -9.238241e+00 -4.258478e+00 -1.423234e+01 -7.095514e+00 -4.426639e+00 7.311551e+01 3.337065e+00 -3.187855e+00 -2.091925e+00 -2.780642e+00 2.088721e+00 -4.799588e-01 7.485682e-01 -7.232518e-01 2.507676e+00 -3.063245e+00 2.635105e-01 -6.464148e-01 2.841722e+00 -2.275647e-01 1.027453e-01 1.377133e-01 5.095105e-01 2.134369e-01 6.531924e-01 4.515730e-01 -8.825017e-01 6.703884e-02 -1.392201e-01 3.943063e-01 -8.088132e-01 -1.862442e-01
<VARIANCE> 39
 8.450828e+01 3.616821e+01 4.384199e+01 7.249429e+01 3.308183e+01 3.685890e+01 3.014040e+01 2.258307e+01 5.186068e+01 7.624377e+01 2.070800e+01 1.589397e+01 3.640712e+01 7.700348e+00 2.219144e+00 3.280998e+00 7.490819e+00 3.175236e+00 6.691884e+00 5.751585e+00 5.678149e+00 4.173982e+00 5.117282e+00 3.496170e+00 4.219917e+00 1.782585e+00 2.985869e+00 7.388276e-01 9.470616e-01 2.137303e+00 6.566520e-01 1.308364e+00 8.806787e-01 5.967971e-01 1.095624e+00 2.028520e+00 6.240377e-01 3.745324e-01 6.304970e-01
<GCONST> 1.375679e+02
<STATE> 4
<MEAN> 39
 -2.175356e+00 -1.045922e+01 -1.671635e+01 -1.231904e+01 1.256227e+00 -7.000606e+00 -5.343239e+00 -2.081433e+01 8.928693e+00 -1.917735e+01 4.769733e+00 -1.495225e+01 7.366309e+01 5.184904e-02 6.313588e-01 8.314883e-01 4.422106e-01 -6.918724e-01 1.864573e-02 -3.624751e-01 2.191978e-01 -1.783156e-01 1.007259e+00 1.383908e-01 1.296301e-01 -1.127184e+00 -4.431855e-02 2.604941e-01 2.514223e-01 -7.833477e-03 -2.157265e-01 -1.837765e-01 -1.741838e-01 2.727436e-01 -4.019566e-01 2.250754e-01 -2.078912e-01 1.981176e-01 -1.435960e-01
<VARIANCE> 39
 6.049866e+00 2.439841e+01 2.437661e+01 1.288595e+01 3.180716e+01 5.074678e+01 2.700944e+01 4.150848e+01 3.474456e+01 4.655286e+01 6.232426e+01 3.118315e+01 5.075782e+01 5.930605e-01 1.066662e+00 3.462506e+00 1.217770e+00 2.744869e+00 6.974617e+00 2.288373e+00 5.421042e+00 6.412997e+00 3.222022e+00 8.015430e+00 4.283185e+00 1.103713e+00 1.283726e-01 2.791035e-01 3.436725e-01 2.686434e-01 3.856858e-01 8.788936e-01 4.290298e-01 5.173312e-01 5.989512e-01 5.429284e-01 1.030807e+00 5.387172e-01 2.140523e-01
<GCONST> 1.172807e+02
<TRANSP> 5
 0.000000e+00 1.000000e+00 0.000000e+00 0.000000e+00 0.000000e+00
 0.000000e+00 8.252616e-01 1.747384e-01 0.000000e+00 0.000000e+00
 0.000000e+00 0.000000e+00 8.048007e-01 1.951993e-01 0.000000e+00
 0.000000e+00 0.000000e+00 0.000000e+00 9.350381e-01 6.496189e-02
 0.000000e+00 0.000000e+00 0.000000e+00 0.000000e+00 0.000000e+00
<ENDHMM>
~h "ai"
<BEGINHMM>
<NUMSTATES> 5
<STATE> 2
<MEAN> 39
 -5.564615e+00 -1.862338e+01 -5.892371e+00 -8.761383e+00 -5.375268e+00 -1.151495e+01 -1.703856e+00 -1.003771e+01 -3.129222e+00 -2.104173e+01 2.526887e+00 -8.411517e+00 7.631126e+01 -2.416538e-01 1.281711e-01 3.094349e-01 2.095503e-01 -9.540299e-01 6.270915e-01 -2.073383e-01 2.049714e-01 -3.941115e-02 4.967696e-01 1.788552e-01 5.494399e-02 -1.132872e+00 -1.014132e-01 2.115893e-01 1.373620e-02 2.115801e-02 -2.340210e-02 9.870116e-03 -8.813038e-02 1.344532e-01 -1.781834e-01 6.621287e-02 -1.595583e-01 1.386148e-01 -3.430617e-01
<VARIANCE> 39
 6.202895e+00 1.210900e+01 1.119702e+01 1.764205e+01 2.380017e+01 1.943089e+01 1.628948e+01 2.422318e+01 1.936746e+01 2.363346e+01 1.526399e+01 1.818331e+01 3.538008e+01 4.906752e-01 8.928446e-01 6.354148e-01 1.042346e+00 8.728001e-01 1.165584e+00 1.072988e+00 1.459616e+00 1.616564e+00 1.318985e+00 1.622764e+00 1.431305e+00 1.786253e+00 7.876970e-02 1.198148e-01 1.063754e-01 2.333400e-01 1.938339e-01 2.524077e-01 2.012082e-01 2.278203e-01 2.232279e-01 2.679362e-01 2.607658e-01 3.151548e-01 1.441616e-01
<GCONST> 8.841200e+01
<STATE> 3
<MEAN> 39
 -1.257103e+01 -1.671364e+01 4.415853e-01 -2.271424e+00 -1.036004e+01 -3.481467e+00 -2.681624e+00 -4.962376e+00 -7.769094e+00 -1.438891e+01 8.750187e-01 -3.104095e+00 5.783227e+01 -6.444154e-01 5.187573e-01 4.023030e-01 8.430337e-01 1.246697e-01 4.624158e-01 3.373946e-01 3.291370e-01 -5.216356e-01 1.090906e+00 -1.938943e-01 8.406113e-01 -1.720443e+00 1.153551e-01 9.785652e-02 -1.995668e-01 -1.228033e-01 1.798305e-01 -2.489456e-01 2.156195e-02 -5.606104e-02 7.834466e-02 3.808647e-02 1.169410e-01 -7.373918e-02 2.055924e-01
<VARIANCE> 39
 1.929514e+01 2.990009e+01 7.311816e+01 3.372174e+01 2.428277e+01 4.523554e+01 2.647332e+01 3.766359e+01 4.447544e+01 4.311353e+01 2.693758e+01 2.435774e+01 3.861899e+01 1.805118e+00 2.593160e+00 5.736398e+00 2.593670e+00 2.232529e+00 4.251494e+00 2.333621e+00 2.743756e+00 3.458104e+00 3.066570e+00 2.762040e+00 2.393351e+00 3.431105e+00 2.967034e-01 4.564611e-01 1.032601e+00 4.826956e-01 4.687585e-01 6.508210e-01 4.574318e-01 5.348420e-01 6.918344e-01 5.892814e-01 5.467961e-01 4.581819e-01 4.810033e-01
<GCONST> 1.229799e+02
<STATE> 4
<MEAN> 39
 -1.307361e+01 -9.547421e+00 -4.637731e+00 -9.409930e-01 -6.779415e+00 -6.962977e+00 -2.141477e+00 -2.516634e+00 -8.149092e+00 -8.048315e+00 5.437701e-01 -8.720851e-01 4.994199e+01 -1.410099e-02 1.617075e+00 -5.144688e-01 -4.567870e-01 5.190548e-01 -3.770553e-02 -5.918571e-01 -2.367633e-01 3.865024e-01 8.805813e-01 -2.957108e-01 -2.053167e-01 -9.229929e-01 5.984419e-03 -1.438217e-01 1.945857e-01 -1.528474e-01 -1.615224e-02 1.606384e-01 -1.282937e-01 -7.136744e-02 1.871225e-01 -1.064665e-01 -1.007864e-01 -1.379258e-01 2.305683e-01
<VARIANCE> 39
 4.207575e+00 1.676372e+01 1.794389e+01 2.004424e+01 1.467661e+01 2.476491e+01 1.589623e+01 2.680655e+01 2.467218e+01 2.539976e+01 1.897918e+01 1.525239e+01 2.838225e+01 3.295224e-01 1.311414e+00 2.018844e+00 1.595005e+00 1.591079e+00 2.242906e+00 1.824416e+00 2.134417e+00 2.619709e+00 2.061385e+00 2.060629e+00 1.606011e+00 4.070005e-01 6.642129e-02 2.080238e-01 2.599261e-01 2.704611e-01 2.760573e-01 3.675429e-01 3.113437e-01 3.512651e-01 4.897955e-01 4.120845e-01 4.080017e-01 3.245839e-01 1.373917e-01
<GCONST> 9.712460e+01
<TRANSP> 5
 0.000000e+00 1.000000e+00 0.000000e+00 0.000000e+00 0.000000e+00
 0.000000e+00 8.696659e-01 1.303341e-01 0.000000e+00 0.000000e+00
 0.000000e+00 0.000000e+00 8.253730e-01 1.746270e-01 0.000000e+00
 0.000000e+00 0.000000e+00 0.000000e+00 7.656054e-01 2.343946e-01
 0.000000e+00 0.000000e+00 0.000000e+00 0.000000e+00 0.000000e+00
<ENDHMM>
~h "an"
<BEGINHMM>
<NUMSTATES> 5
<STATE> 2
<MEAN> 39
 -5.963362e+00 -1.545564e+01 -1.003007e+01 -1.280964e+01 -2.364939e+00 -9.148176e+00 -7.421482e-01 -1.554969e+01 -1.042729e+00 -2.722669e+01 2.493778e+00 -1.250249e+01 8.250344e+01 -1.284095e-01 3.650877e-01 4.269530e-01 -1.588123e-01 -6.985053e-01 1.850746e-01 2.182114e-01 1.118270e-01 -2.903438e-01 4.138139e-01 2.210776e-01 -4.585592e-01 -1.653617e-01 2.992777e-02 2.760668e-01 1.980154e-01 -1.443767e-01 -2.479286e-01 -3.654732e-01 9.894183e-02 1.854606e-01 -9.403133e-02 3.518940e-01 -1.988636e-01 1.703849e-01 -1.421014e-01
<VARIANCE> 39
 2.293659e+00 4.662922e+00 7.315916e+00 1.231279e+01 1.800508e+01 1.005492e+01 1.579866e+01 1.646989e+01 3.109313e+01 7.975383e+00 1.336917e+01 9.258457e+00 4.019948e+00 9.741569e-02 4.302260e-01 8.206623e-01 7.807603e-01 1.107382e+00 1.466717e+00 1.109731e+00 9.661171e-01 1.437786e+00 1.347376e+00 9.534963e-01 1.019056e+00 1.309165e-01 1.968981e-02 7.937068e-02 7.981292e-02 1.187090e-01 9.649497e-02 1.975970e-01 1.665462e-01 2.048920e-01 2.154951e-01 2.939726e-01 1.562340e-01 1.778904e-01 1.962667e-02
<GCONST> 6.783670e+01
<STATE> 3
<MEAN> 39
 -6.926910e+00 -7.348122e+00 -2.499198e+00 -1.630135e+01 -1.370290e+01 -1.235578e+01 1.306708e+00 -1.582106e+01 -7.350188e+00 -1.461146e+01 1.440112e-01 -1.470666e+01 7.905553e+01 4.197627e-02 2.055975e+00 1.162710e+00 1.031369e-01 -1.367043e+00 -1.332424e+00 -1.427420e+00 -2.471183e-01 -1.104522e+00 2.163576e+00 -2.559405e-01 8.914422e-01 -1.114496e+00 -6.857810e-02 1.893352e-01 -1.456273e-01 5.236281e-01 2.615106e-01 1.398357e-01 -5.729213e-01 4.197397e-02 -5.785595e-02 -2.353439e-01 1.102545e-01 3.445916e-01 -1.531718e-01
<VARIANCE> 39
 2.033630e+00 1.926322e+01 9.541685e+00 9.507038e+00 2.045269e+01 2.262756e+01 2.901210e+01 1.287714e+01 1.950708e+01 4.045627e+01 1.447070e+01 9.279558e+00 7.518124e+00 1.365976e-01 3.880576e-01 2.518993e-01 1.370872e+00 5.591125e-01 9.475676e-01 3.296499e+00 1.273082e+00 1.235563e+00 1.815168e+00 2.483265e+00 2.205770e+00 1.672527e-01 9.614153e-02 7.502297e-02 8.096199e-02 2.605791e-01 1.338885e-01 3.661090e-01 3.225751e-01 3.005034e-01 2.633828e-01 3.220733e-01 6.071912e-01 2.237685e-01 2.085140e-02
<GCONST> 8.054688e+01
<STATE> 4
<MEAN> 39
 -1.525300e+01 -1.015057e+00 -6.185890e+00 -6.951849e+00 -9.506878e+00 -1.001889e+01 -7.259263e+00 -7.860786e+00 -7.112047e+00 -7.274094e+00 -2.844730e+00 -5.652030e+00 7.255881e+01 7.929593e-02 -5.767641e-01 -5.263091e-01 -1.919590e-01 4.570386e-01 -2.916041e-01 3.803822e-01 6.335617e-01 2.259055e-02 -6.742710e-01 -1.811629e-01 3.053205e-01 3.460436e-01 6.220256e-02 -3.330728e-01 -7.016406e-02 -2.102032e-01 1.491629e-01 -5.710718e-02 2.764909e-01 -9.577353e-02 1.618225e-02 -3.024901e-01 6.504110e-02 -1.631170e-01 1.984171e-01
<VARIANCE> 39
 7.349934e+01 3.172813e+01 1.932654e+01 4.556478e+01 3.125011e+01 7.321355e+01 2.466644e+01 2.703336e+01 2.407937e+01 7.252668e+01 2.525546e+01 1.307365e+01 1.647117e+01 1.063170e+01 4.294687e+00 1.763652e+00 6.187068e+00 3.696249e+00 8.330974e+00 3.215757e+00 2.408746e+00 2.619389e+00 1.103760e+01 4.153212e+00 1.858570e+00 2.350544e+00 1.539320e+00 5.827790e-01 3.883896e-01 6.052630e-01 6.256499e-01 1.280455e+00 5.288629e-01 4.454500e-01 4.827901e-01 1.230142e+00 9.750542e-01 3.640158e-01 2.174459e-01
<GCONST> 1.281584e+02
<TRANSP> 5
 0.000000e+00 1.000000e+00 0.000000e+00 0.000000e+00 0.000000e+00
 0.000000e+00 8.798069e-01 1.201931e-01 0.000000e+00 0.000000e+00
 0.000000e+00 0.000000e+00 8.089136e-01 1.910864e-01 0.000000e+00
 0.000000e+00 0.000000e+00 0.000000e+00 9.330887e-01 6.691130e-02
 0.000000e+00 0.000000e+00 0.000000e+00 0.000000e+00 0.000000e+00
<ENDHMM>
~h "ao"
<BEGINHMM>
<NUMSTATES> 5
<STATE> 2
<MEAN> 39
 -6.496003e+00 2.537606e+00 7.528927e+00 -1.393084e+01 -1.243741e+01 -1.476090e+01 -6.499302e+00 -1.445740e+01 -1.187418e+01 -5.936644e+00 -3.814831e+00 -9.194618e+00 6.779846e+01 9.236338e-01 -9.082690e-01 1.559192e-01 -7.545913e-01 -9.641263e-01 -1.265090e+00 7.332793e-01 -5.227528e-01 -5.301900e-01 -1.827742e+00 -1.037089e-01 -4.904898e-01 1.675574e+00 -1.356150e-01 -5.778687e-01 -1.395733e+00 3.499852e-01 6.062242e-01 5.644114e-02 1.773371e-01 1.733071e-01 1.176403e+00 -4.287381e-01 1.052805e-01 -4.504213e-02 1.618780e-01
<VARIANCE> 39
 2.802150e+01 3.416532e+01 5.604081e+01 6.352271e+01 5.171595e+01 4.268091e+01 4.719983e+01 4.073754e+01 2.763963e+01 6.114935e+01 3.560145e+01 2.112438e+01 3.738809e+01 6.448396e+00 6.063505e+00 9.386221e+00 8.759200e+00 5.918145e+00 5.970787e+00 7.429657e+00 3.911611e+00 7.138446e+00 1.119182e+01 3.551573e+00 2.688793e+00 5.290337e+00 1.000319e+00 7.870172e-01 1.681928e+00 1.450507e+00 1.485249e+00 1.280160e+00 1.274491e+00 9.536043e-01 7.934641e-01 8.552496e-01 4.791557e-01 5.400605e-01 4.082850e-01
<GCONST> 1.418245e+02
<STATE> 3
<MEAN> 39
 -5.647850e+00 -7.530223e+00 -1.447157e+00 -1.512487e+01 -1.003993e+01 -1.702240e+01 -1.249558e+00 -1.375334e+01 -7.191464e+00 -1.910590e+01 -1.583050e+00 -1.019693e+01 7.722359e+01 8.744876e-01 -2.609877e+00 -3.737369e+00 2.496238e-01 1.987086e+00 5.666539e-03 5.028034e-01 -3.120583e-01 3.321840e+00 -3.165159e+00 -1.265262e-01 -6.474870e-01 1.404849e+00 -3.487251e-01 3.441539e-01 -2.566056e-01 1.912189e-01 7.702179e-01 7.009007e-01 -2.906410e-01 -3.075533e-01 9.347050e-01 7.154695e-01 1.028805e-01 -7.134696e-02 -3.731117e-01
<VARIANCE> 39
 5.256820e+00 1.998216e+01 3.615681e+01 4.578996e+01 3.747992e+01 2.073418e+01 2.768334e+01 2.300161e+01 4.281182e+01 8.200930e+01 2.139952e+01 1.882330e+01 1.229457e+01 8.986937e-01 1.523032e+00 2.594898e+00 3.677040e+00 3.906069e+00 3.299528e+00 3.651515e+00 4.239371e+00 6.710691e+00 3.870809e+00 2.191530e+00 1.877786e+00 1.132785e+00 4.530478e-01 3.023082e-01 6.481856e-01 7.329930e-01 6.286579e-01 4.776482e-01 1.029020e+00 6.807998e-01 1.487933e+00 1.403785e+00 4.290087e-01 5.116762e-01 2.512998e-01
<GCONST> 1.197366e+02
<STATE> 4
<MEAN> 39
 -2.980762e+00 -1.184320e+01 -1.239735e+01 -1.573192e+01 4.310591e-01 -9.914404e+00 -4.194835e+00 -2.087078e+01 7.561271e+00 -2.428161e+01 -9.082246e-01 -1.419163e+01 7.837521e+01 4.329751e-01 -1.838541e-01 -9.060297e-01 -1.340267e-01 9.728688e-01 5.926880e-01 -6.432264e-01 -9.247482e-01 1.689442e+00 5.222118e-01 -4.999101e-02 -4.202771e-01 -1.911797e-01 -1.920907e-02 3.362842e-01 4.145952e-01 -8.543316e-03 -2.314999e-01 3.616102e-03 -1.289088e-01 -3.058539e-02 -5.757175e-01 5.219716e-01 9.294537e-03 6.182785e-02 -2.411077e-01
<VARIANCE> 39
 6.255308e+00 1.717127e+01 2.287550e+01 2.687452e+01 2.590836e+01 5.102840e+01 2.689821e+01 4.435876e+01 3.937858e+01 4.262086e+01 2.604582e+01 2.324941e+01 1.162315e+01 3.670056e-01 1.576790e+00 4.168054e+00 1.871653e+00 4.670455e+00 2.826904e+00 2.753000e+00 3.068884e+00 7.022332e+00 3.589235e+00 2.800812e+00 2.653508e+00 5.619230e-01 4.199444e-02 2.357894e-01 1.811422e-01 4.856474e-01 3.174583e-01 5.863580e-01 3.956653e-01 4.969654e-01 4.603100e-01 6.119093e-01 4.856255e-01 3.348018e-01 7.687388e-02
<GCONST> 1.082067e+02
<TRANSP> 5
 0.000000e+00 1.000000e+00 0.000000e+00 0.000000e+00 0.000000e+00
 0.000000e+00 6.934810e-01 3.065191e-01 0.000000e+00 0.000000e+00
 0.000000e+00 0.000000e+00 5.993826e-01 4.006173e-01 0.000000e+00
 0.000000e+00 0.000000e+00 0.000000e+00 7.787330e-01 2.212670e-01
 0.000000e+00 0.000000e+00 0.000000e+00 0.000000e+00 0.000000e+00
<ENDHMM>
~h "ch"
<BEGINHMM>
<NUMSTATES> 5
<STATE> 2
<MEAN> 39
 4.730735e-01 -4.690420e+00 -9.441017e+00 -7.746802e+00 -1.558296e+00 -8.201552e+00 -1.581195e+01 -1.768695e+01 -2.022289e+00 -6.631256e+00 -7.924778e+00 -1.023930e+01 6.269843e+01 -1.895060e+00 -3.368727e-03 -3.751208e-01 2.073826e+00 -4.918455e-01 -6.792373e-01 5.002133e-01 2.270348e+00 -1.566869e+00 1.295329e+00 1.557462e-01 8.213542e-01 -8.527643e-01 -8.273596e-01 -2.863133e-01 -3.420693e-01 -2.736302e-01 -2.613030e-02 3.990085e-02 5.758016e-01 1.622014e-01 6.665203e-01 -3.863952e-01 5.975513e-01 8.445725e-02 8.551977e-01
<VARIANCE> 39
 2.087222e+01 2.544522e+01 2.137532e+01 5.758022e+01 2.142319e+01 2.830277e+01 2.338403e+01 5.439814e+01 5.196717e+01 2.241573e+01 2.320591e+01 2.028085e+01 4.808599e+01 4.732868e+00 5.781001e+00 5.445105e+00 8.077247e+00 3.318206e+00 4.136529e+00 4.157225e+00 2.362616e+00 8.896219e+00 3.234580e+00 4.109490e+00 2.539406e+00 1.237981e+01 2.479085e-01 1.023339e+00 8.681272e-01 1.565941e+00 7.633711e-01 9.302986e-01 4.098515e-01 4.445920e-01 1.167450e+00 6.919511e-01 4.004974e-01 5.551889e-01 2.029325e+00
<GCONST> 1.318099e+02
<STATE> 3
<MEAN> 39
 -2.415734e+01 -1.082005e+01 -1.091589e+01 -4.904856e-01 -7.502730e+00 -1.327387e+01 -5.749835e+00 -1.249844e+00 2.889549e+00 -3.121582e+00 -2.593151e+00 -2.837802e+00 7.487707e+01 -1.578853e+00 -5.766365e-01 1.395371e+00 8.973646e-01 -5.665507e-01 -6.895940e-01 7.836779e-01 1.484083e+00 1.141626e+00 -2.275968e-01 -2.603107e-01 5.161381e-01 8.232383e-01 1.391177e+00 4.110305e-01 3.883112e-01 -1.019790e-01 3.726935e-01 7.766882e-02 -3.501857e-01 -6.407998e-01 -5.577154e-01 -4.292308e-01 -4.795627e-01 -3.093615e-01 -1.013296e+00
<VARIANCE> 39
 3.105103e+01 9.729969e+00 4.022097e+01 2.160595e+01 1.958281e+01 1.231568e+01 2.291998e+01 2.620472e+01 2.229251e+01 1.745661e+01 1.382218e+01 1.353172e+01 1.045757e+01 1.393046e+01 1.177845e+00 3.111431e+00 1.846819e+00 2.914836e+00 1.931855e+00 2.792720e+00 2.912115e+00 2.528066e+00 2.410212e+00 2.296393e+00 2.024984e+00 9.050184e+00 8.128422e-01 3.445446e-01 1.133625e+00 3.724854e-01 4.125876e-01 4.390784e-01 4.362984e-01 6.438050e-01 5.214857e-01 4.638394e-01 4.393868e-01 3.564141e-01 7.185263e-01
<GCONST> 1.147819e+02
<STATE> 4
<MEAN> 39
 -1.427208e+01 -9.576579e+00 -3.583184e+00 1.503855e+00 -4.151970e+00 -1.534840e+01 -5.410082e+00 -4.153588e+00 5.671884e-01 -1.064405e+01 -7.349660e+00 -3.422577e+00 6.819168e+01 4.437166e+00 1.968163e+00 1.928340e+00 -1.080606e+00 6.706829e-02 -2.163969e+00 -2.394523e-01 -3.913391e+00 -3.215183e+00 -2.637481e+00 -1.313183e+00 -6.235026e-01 -4.174894e-01 -7.538179e-03 3.090085e-01 -1.313897e-01 -9.632708e-01 -5.396265e-01 -5.956925e-01 2.518259e-01 -6.560861e-01 -3.910062e-01 1.554499e-01 4.451554e-01 1.408680e-03 9.006460e-01
<VARIANCE> 39
 4.965711e+01 2.393215e+01 3.955375e+01 3.123037e+01 3.501506e+01 1.979920e+01 2.597942e+01 8.430525e+01 4.751270e+01 4.934183e+01 2.193017e+01 2.083612e+01 9.078694e+00 2.616411e+00 2.132516e+00 1.697759e+00 4.041019e+00 2.407443e+00 3.153723e+00 1.779120e+00 6.275987e+00 3.624168e+00 3.238501e+00 2.319406e+00 1.534330e+00 2.083040e+00 7.375313e-01 6.520314e-01 4.257679e-01 5.890783e-01 2.997524e-01 4.389440e-01 4.760214e-01 1.362276e+00 1.073094e+00 8.284460e-01 4.915214e-01 4.367117e-01 2.305527e-01
<GCONST> 1.210508e+02
<TRANSP> 5
 0.000000e+00 1.000000e+00 0.000000e+00 0.000000e+00 0.000000e+00
 0.000000e+00 8.679787e-01 1.320213e-01 0.000000e+00 0.000000e+00
 0.000000e+00 0.000000e+00 8.444572e-01 1.555428e-01 0.000000e+00
 0.000000e+00 0.000000e+00 0.000000e+00 6.918224e-01 3.081776e-01
 0.000000e+00 0.000000e+00 0.000000e+00 0.000000e+00 0.000000e+00
<ENDHMM>
~h "ei"
<BEGINHMM>
<NUMSTATES> 5
<STATE> 2
<MEAN> 39
 -1.756472e+01 -9.278713e+00 -1.507119e+01 -2.955476e+00 8.097741e+00 -1.916872e+01 -2.836984e+00 2.147409e-01 2.954559e+00 -6.494674e+00 -6.834952e-01 -8.118346e+00 6.966142e+01 -1.336870e+00 -1.351922e+00 1.907396e+00 7.122042e-01 -2.957907e+00 -6.936005e-01 3.081576e+00 1.353482e+00 2.966370e-02 3.742497e-01 4.455396e-01 2.451575e+00 1.009298e-01 6.781276e-01 3.333099e-01 9.096734e-01 -6.950771e-01 -6.479611e-01 1.018337e+00 -5.612826e-01 -1.451368e+00 -5.953069e-01 -5.667596e-01 7.992745e-02 -2.508901e-01 -2.886524e-01
<VARIANCE> 39
 1.095056e+01 1.485739e+01 3.279514e+01 2.214531e+01 7.585958e+01 4.169424e+01 5.741092e+01 4.354027e+01 2.456099e+01 2.537662e+01 2.089709e+01 4.700461e+01 1.233607e+01 1.359345e+00 1.050213e+00 4.765526e+00 3.999079e+00 3.560612e+00 9.857412e+00 2.830881e+00 1.050874e+01 4.422206e+00 4.195467e+00 2.492814e+00 3.979575e+00 1.632215e+00 2.235498e-01 3.422360e-01 2.999072e-01 3.755625e-01 8.899922e-01 7.441462e-01 1.051252e+00 8.108556e-01 6.905804e-01 1.231598e+00 8.042873e-01 9.733724e-01 2.127842e-01
<GCONST> 1.237572e+02
<STATE> 3
<MEAN> 39
 -1.738598e+01 -1.121416e+01 4.377940e+00 -6.818192e+00 -8.379105e+00 -1.091292e+01 2.136909e+00 -7.834449e+00 -3.309872e+00 -6.657841e+00 -9.669501e-02 -3.104631e+00 6.634911e+01 2.905289e+00 2.112741e+00 4.368346e+00 -3.294853e+00 -4.088713e+00 1.026453e+00 -3.707750e+00 -4.713359e+00 -3.496821e+00 6.450765e-01 -2.946239e+00 2.122820e-01 5.335428e-01 5.761054e-01 5.398672e-01 -1.104653e+00 -8.349037e-01 1.802548e-01 -8.484643e-01 -9.503829e-01 2.143487e-02 -3.112728e-01 1.567809e-01 -1.186804e+00 -1.455267e-01 9.324757e-01
<VARIANCE> 39
 1.971809e+01 2.290967e+01 5.218322e+01 1.993900e+01 3.483144e+01 3.794583e+01 6.598155e+01 5.644038e+01 4.269276e+01 1.980292e+01 2.186708e+01 2.150392e+01 8.303414e+00 1.660895e+00 1.478232e+00 3.546222e+00 2.928977e+00 2.826914e+00 4.793440e+00 5.426676e+00 2.536162e+00 3.079957e+00 2.055201e+00 4.109418e+00 3.235869e+00 2.179142e+00 5.782230e-01 6.116360e-01 7.181746e-01 3.093214e-01 4.622995e-01 6.229593e-01 1.998476e+00 1.398216e+00 9.797695e-01 4.168510e-01 5.180284e-01 5.516214e-01 1.766704e-01
<GCONST> 1.221931e+02
<STATE> 4
<MEAN> 39
 -7.821187e+00 -4.682872e+00 7.296666e+00 -2.217286e+01 -1.965262e+01 -1.280210e+01 -9.008066e+00 -1.754217e+01 -1.393410e+01 -4.387308e+00 -1.436041e+01 -2.493331e+00 7.370949e+01 8.569872e-01 4.227891e-01 -4.514922e-01 -3.825065e+00 -1.411337e+00 1.564452e-01 -2.141434e-01 -4.251304e-01 -1.002545e+00 7.838058e-01 -2.842252e+00 -4.021130e-01 2.218921e+00 -9.552876e-01 -6.971307e-01 -5.382214e-01 8.899985e-01 1.177217e+00 8.057362e-02 1.260020e+00 1.071312e+00 1.107570e+00 3.770778e-02 9.974491e-01 -2.715778e-01 -3.036475e-01
<VARIANCE> 39
 4.882083e+00 1.413367e+01 1.654579e+01 2.544306e+01 2.115685e+01 2.267574e+01 4.134004e+01 2.857512e+01 2.247086e+01 1.870909e+01 2.056849e+01 2.840648e+01 1.031388e+01 2.540749e+00 2.215096e+00 2.129980e+00 2.909746e+00 3.669126e+00 2.822305e+00 7.235456e+00 4.715116e+00 5.029586e+00 1.786278e+00 4.417560e+00 2.426104e+00 1.327785e+00 1.494773e-01 2.035075e-01 6.943145e-01 4.979731e-01 3.947551e-01 4.896294e-01 8.889059e-01 1.051091e+00 4.644794e-01 3.300232e-01 4.366104e-01 4.640101e-01 2.652992e-01
<GCONST> 1.131516e+02
<TRANSP> 5
 0.000000e+00 1.000000e+00 0.000000e+00 0.000000e+00 0.000000e+00
 0.000000e+00 8.415260e-01 1.584740e-01 0.000000e+00 0.000000e+00
 0.000000e+00 0.000000e+00 6.599121e-01 3.400879e-01 0.000000e+00
 0.000000e+00 0.000000e+00 0.000000e+00 6.741123e-01 3.258877e-01
 0.000000e+00 0.000000e+00 0.000000e+00 0.000000e+00 0.000000e+00
<ENDHMM>
~h "er"
<BEGINHMM>
<NUMSTATES> 5
<STATE> 2
<MEAN> 39
 -7.138173e+00 -7.627992e+00 -3.225128e+00 -1.160088e+01 -6.568888e+00 -1.398343e+01 -5.403149e+00 -1.125682e+01 1.797454e-01 -1.327629e+01 1.676544e+00 -5.990832e+00 6.862007e+01 9.538199e-01 -1.082888e+00 -3.383475e-01 -1.057616e+00 -3.581935e-02 -4.708616e-01 -1.204661e-01 -8.684645e-01 5.398244e-01 -9.233224e-01 -1.184880e-01 -7.132735e-01 2.766920e+00 9.176561e-02 -5.114335e-01 -3.314803e-01 -1.235366e-01 1.714178e-01 1.708271e-01 4.570452e-01 -3.055090e-01 -1.139591e-01 -2.358261e-01 -2.769931e-01 -1.256323e-01 4.718637e-01
<VARIANCE> 39
 2.071529e+01 9.265356e+01 8.062863e+01 5.633081e+01 3.203696e+01 1.342681e+02 3.106817e+01 1.128644e+02 2.117252e+01 8.032023e+01 2.053227e+01 2.803790e+01 9.384042e+01 2.224902e+00 6.092172e+00 2.446729e+00 3.883957e+00 2.910757e+00 5.106673e+00 5.651688e+00 6.273644e+00 2.384534e+00 5.781514e+00 1.790375e+00 2.060358e+00 9.017059e+00 4.795530e-01 8.448429e-01 2.765638e-01 7.640665e-01 5.823533e-01 1.215074e+00 1.027000e+00 9.882614e-01 5.141331e-01 8.539659e-01 3.902912e-01 3.710826e-01 1.435231e+00
<GCONST> 1.345938e+02
<STATE> 3
<MEAN> 39
 -5.670173e+00 -1.586805e+01 -6.168402e+00 -1.563478e+01 -6.111985e+00 -1.526595e+01 1.500780e+00 -1.483424e+01 -4.269154e-01 -2.150613e+01 8.073721e-01 -1.017058e+01 8.158615e+01 1.377840e-01 -1.751962e+00 -2.295835e+00 1.223215e+00 2.030965e+00 1.481620e+00 -4.372932e-01 8.612631e-02 -3.140661e-02 -2.036322e+00 -6.665269e-01 4.642445e-02 1.219194e+00 -1.634335e-01 6.215705e-01 1.271770e-01 1.248821e-01 1.396329e-01 9.101574e-02 -8.333117e-01 -1.143618e-01 -1.186849e-02 4.790632e-01 -2.959545e-02 8.927212e-02 -4.541796e-01
<VARIANCE> 39
 4.746496e+00 3.369653e+01 2.961294e+01 1.972877e+01 3.934761e+01 3.239826e+01 2.639367e+01 1.978981e+01 9.267177e+00 5.223865e+01 1.087021e+01 1.318057e+01 7.466218e+00 4.067840e-01 2.134774e+00 1.355423e+00 7.209654e-01 2.469800e+00 2.703283e+00 7.509341e+00 2.858393e+00 1.800315e+00 5.137699e+00 1.807859e+00 1.158648e+00 1.659585e+00 1.066436e-01 2.186744e-01 1.454771e-01 3.963090e-01 7.519863e-01 3.963176e-01 8.716267e-01 4.621863e-01 3.799777e-01 8.473238e-01 2.612769e-01 2.578441e-01 1.832173e-01
<GCONST> 1.037005e+02
<STATE> 4
<MEAN> 39
 -4.688102e+00 -1.878540e+01 -1.138592e+01 -1.270953e+01 -1.053394e+00 -6.788291e+00 -3.878795e+00 -1.523850e+01 7.584440e-01 -1.981205e+01 -1.015236e+00 -1.018888e+01 7.886690e+01 1.167265e-01 -1.374706e-01 -6.952545e-02 7.320558e-02 -1.176746e-01 -1.592035e-01 1.857033e-01 -9.640186e-02 -3.197617e-01 8.833273e-02 -4.010868e-01 7.704258e-02 -2.622344e-02 2.137986e-02 4.687316e-02 8.240653e-02 -4.978796e-02 -1.111309e-01 -1.524853e-01 1.194030e-01 6.666268e-02 -6.551751e-02 -9.870357e-03 -2.191612e-02 2.575995e-02 -7.426765e-02
<VARIANCE> 39
 8.559186e+00 2.785823e+01 2.649348e+01 2.363213e+01 2.591549e+01 3.245544e+01 2.112466e+01 3.191342e+01 4.805292e+01 3.970093e+01 2.863992e+01 2.809878e+01 4.113755e+01 5.702621e-01 1.412273e+00 8.847102e-01 1.929620e+00 1.546480e+00 2.986777e+00 1.856107e+00 3.156892e+00 2.743730e+00 2.179347e+00 2.113183e+00 1.497255e+00 4.088094e+00 9.753474e-02 2.893409e-01 1.619905e-01 3.375331e-01 2.252958e-01 3.787113e-01 3.406210e-01 5.483169e-01 4.424987e-01 3.083163e-01 3.969963e-01 2.308798e-01 7.829096e-01
<GCONST> 1.075254e+02
<TRANSP> 5
 0.000000e+00 1.000000e+00 0.000000e+00 0.000000e+00 0.000000e+00
 0.000000e+00 7.371629e-01 2.628371e-01 0.000000e+00 0.000000e+00
 0.000000e+00 0.000000e+00 6.661412e-01 3.338588e-01 0.000000e+00
 0.000000e+00 0.000000e+00 0.000000e+00 9.492464e-01 5.075358e-02
 0.000000e+00 0.000000e+00 0.000000e+00 0.000000e+00 0.000000e+00
<ENDHMM>
~h "iu"
<BEGINHMM>
<NUMSTATES> 5
<STATE> 2
<MEAN> 39
 -2.052051e+00 -9.671000e-01 -1.290225e+01 -1.394606e+01 7.351895e+00 -1.916304e+01 -1.167056e+01 -1.615864e+01 5.981421e+00 -2.036596e+01 -3.996365e+00 -1.167149e+01 7.068282e+01 -1.624704e-02 2.486454e-02 3.255004e+00 1.012215e+00 -2.009929e+00 -1.280356e+00 -1.530278e+00 1.692765e+00 -1.017133e+00 -9.510765e-01 -2.429459e+00 2.408821e+00 -8.268601e-01 2.558898e-01 2.834506e-01 8.350104e-01 -1.218636e-02 -1.119629e+00 9.508341e-01 -1.363248e-01 -4.758803e-01 -3.525747e-01 3.696946e-01 1.529865e-01 6.699913e-01 -4.538640e-01
<VARIANCE> 39
 4.760910e+00 1.784343e+01 3.613044e+01 1.518385e+01 2.614514e+01 4.257082e+01 2.126071e+01 4.097800e+01 3.349597e+01 3.671450e+01 4.790365e+01 6.208492e+01 8.509292e+00 8.107446e-01 1.301956e+00 4.265423e+00 1.324376e+00 6.066236e+00 7.760277e+00 2.210846e+00 4.037573e+00 2.683864e+00 3.392182e+00 2.335204e+00 5.388649e+00 1.530082e+00 1.201636e-01 1.700321e-01 4.908761e-01 2.604485e-01 4.633407e-01 1.194619e+00 3.757978e-01 8.353468e-01 5.912903e-01 5.636167e-01 6.728702e-01 1.072796e+00 1.092110e-01
<GCONST> 1.151207e+02
<STATE> 3
<MEAN> 39
 5.038427e-01 2.696079e+00 5.521592e+00 -1.054403e+01 -1.063093e+01 -1.337757e+01 -2.050490e+01 -1.556693e+01 9.503887e-01 -1.909896e+01 -9.793084e+00 -7.875017e-01 6.336608e+01 1.417881e-02 -4.037064e-01 5.306344e-01 2.599191e-01 -1.358277e+00 -1.015603e-01 2.393213e-01 6.284571e-01 -1.126126e+00 3.939668e-01 -7.339466e-02 4.125539e-01 2.830764e-01 -3.013315e-01 -7.214438e-01 -1.268647e+00 -1.744498e-01 1.061980e+00 -5.892818e-01 9.909842e-01 3.845738e-01 -2.451195e-01 -1.584016e-01 4.077973e-01 -5.571979e-01 8.530073e-01
<VARIANCE> 39
 1.073565e+01 2.451351e+01 1.974381e+01 1.621253e+01 2.354289e+01 2.738389e+01 2.678408e+01 2.031755e+01 2.769881e+01 2.254314e+01 2.169272e+01 2.457920e+01 1.292994e+01 1.461910e+00 3.501893e+00 9.224083e+00 1.412907e+00 7.278061e+00 7.308014e+00 7.372612e+00 3.689951e+00 3.072148e+00 2.389824e+00 1.951514e+00 3.375585e+00 4.221113e+00 2.253601e-01 4.736422e-01 4.439186e-01 2.812812e-01 5.092543e-01 8.714636e-01 6.499982e-01 5.403224e-01 6.017081e-01 5.490277e-01 4.886264e-01 6.098472e-01 2.281683e-01
<GCONST> 1.178859e+02
<STATE> 4
<MEAN> 39
 -2.733454e+00 -7.559465e+00 -6.206783e+00 -1.128493e+01 -4.666411e+00 -2.184872e+01 -8.221171e+00 -7.437918e+00 -8.558572e+00 -1.963009e+01 -6.492364e+00 -2.035883e+00 7.449891e+01 -1.307743e+00 -4.382566e+00 -3.191795e+00 -5.219117e-01 2.797048e+00 -4.950501e-01 4.128358e+00 1.433694e+00 -2.247843e+00 -1.542093e+00 2.398485e+00 -1.329343e+00 3.529627e+00 6.537513e-02 3.780730e-02 8.112471e-01 8.662503e-02 -2.677119e-01 1.118760e+00 -4.422656e-01 -7.701080e-01 8.488538e-01 -1.881105e-01 2.408118e-01 -4.218551e-01 -5.076849e-01
<VARIANCE> 39
 6.977811e+00 2.576325e+01 2.005837e+01 1.099320e+01 2.347836e+01 1.684883e+01 2.541466e+01 2.295418e+01 2.595745e+01 2.794583e+01 1.995561e+01 2.087890e+01 1.319333e+01 7.973293e-01 2.843879e+00 4.090868e+00 1.632328e+00 3.790549e+00 3.469223e+00 3.429052e+00 3.270139e+00 3.214706e+00 2.980546e+00 2.362839e+00 3.588569e+00 1.620178e+00 1.555834e-01 4.777676e-01 5.102123e-01 2.455870e-01 5.916939e-01 4.369870e-01 6.484197e-01 4.420117e-01 5.718093e-01 5.139579e-01 5.622384e-01 4.579892e-01 2.615182e-01
<GCONST> 1.112027e+02
<TRANSP> 5
 0.000000e+00 1.000000e+00 0.000000e+00 0.000000e+00 0.000000e+00
 0.000000e+00 7.453213e-01 2.546786e-01 0.000000e+00 0.000000e+00
 0.000000e+00 0.000000e+00 8.184463e-01 1.815537e-01 0.000000e+00
 0.000000e+00 0.000000e+00 0.000000e+00 5.033942e-01 4.966057e-01
 0.000000e+00 0.000000e+00 0.000000e+00 0.000000e+00 0.000000e+00
<ENDHMM>
~h "si"
<BEGINHMM>
<NUMSTATES> 5
<STATE> 2
<MEAN> 39
 -5.682726e+00 -7.396844e+00 -6.669553e+00 -1.339901e+01 -3.818456e+00 -2.133596e+01 -2.806222e+00 -7.855003e+00 -2.675470e+00 -2.109174e+01 -1.077045e+00 -4.005264e+00 7.098014e+01 8.877473e-01 -1.003278e+00 -1.061283e+00 -6.824587e-01 5.296561e-01 -7.900819e-03 1.488430e-01 -1.304966e+00 7.152144e-01 -2.442474e+00 9.149551e-02 -9.311538e-01 2.929938e+00 -1.817464e-01 -1.564018e-01 2.742946e-03 2.287567e-01 -1.436576e-01 7.228404e-01 -2.949283e-02 -2.327618e-01 9.509417e-02 3.949237e-01 1.503664e-01 -1.007639e-01 -2.152572e-01
<VARIANCE> 39
 1.884560e+01 4.933650e+01 1.972993e+01 3.880815e+01 2.071532e+01 5.135826e+01 3.834313e+01 3.021645e+01 3.989010e+01 6.965309e+01 2.303439e+01 5.172729e+01 1.266040e+02 2.510843e+00 5.947177e+00 1.542601e+00 5.654465e+00 3.018719e+00 1.280334e+01 4.985599e+00 1.739004e+00 4.083020e+00 4.384675e+00 3.031104e+00 2.684903e+00 4.982975e+00 4.102560e-01 1.082681e+00 3.227140e-01 9.666853e-01 4.573165e-01 1.169649e+00 8.819942e-01 3.194987e-01 9.006891e-01 9.569463e-01 4.143139e-01 6.544396e-01 7.776306e-01
<GCONST> 1.307288e+02
<STATE> 3
<MEAN> 39
 -4.763688e+00 -1.225590e+01 -1.076208e+01 -1.541970e+01 -2.373917e+00 -1.216045e+01 -2.307111e+00 -1.858001e+01 3.666705e+00 -2.599540e+01 8.670352e-01 -1.411489e+01 8.018392e+01 4.958503e-02 6.379400e-01 3.083237e-01 -6.536673e-03 -2.938758e-01 -3.099562e-01 -5.179689e-01 -5.986507e-02 -2.474911e-02 4.913306e-01 -1.034251e-01 -4.687924e-03 -3.882681e-01 -3.050488e-02 2.027612e-01 2.216151e-01 4.045133e-02 -2.058479e-01 -2.700540e-01 -8.059815e-02 1.827487e-01 -2.761700e-01 2.519358e-01 -4.851278e-02 1.809882e-01 -1.157875e-01
<VARIANCE> 39
 3.172595e+00 1.751591e+01 2.398471e+01 1.990419e+01 5.620381e+01 1.915353e+01 3.976037e+01 4.428953e+01 6.351448e+01 3.556779e+01 1.831429e+01 2.494758e+01 9.989591e+00 1.514590e-01 7.179657e-01 1.347427e+00 1.141557e+00 1.876890e+00 3.156750e+00 1.790933e+00 2.622256e+00 3.120305e+00 1.594416e+00 1.416692e+00 2.177113e+00 2.092734e-01 2.715891e-02 9.514954e-02 1.399510e-01 2.533721e-01 1.711130e-01 2.644257e-01 3.213577e-01 3.195834e-01 2.859811e-01 3.380454e-01 2.659490e-01 3.237695e-01 1.899463e-02
<GCONST> 9.174995e+01
<STATE> 4
<MEAN> 39
 -1.780238e+01 -1.174785e+00 -6.820944e+00 -3.285587e+00 -9.758310e+00 -1.222337e+01 -9.509293e+00 -8.123190e+00 -6.991827e+00 -8.773059e+00 -3.210861e+00 -2.902254e+00 7.178044e+01 -1.205525e-01 2.025329e-01 -4.766174e-02 4.495713e-01 -2.181051e-01 -5.809883e-02 -3.599721e-01 1.686845e-01 -2.884197e-01 1.530479e-01 -2.605833e-01 5.386760e-01 -9.415087e-02 1.137283e-02 -5.300973e-02 -5.133600e-02 -7.083692e-02 2.085427e-02 8.698256e-02 1.252846e-01 -5.517247e-02 9.215859e-02 -8.791184e-02 3.604535e-02 -9.143356e-02 5.544938e-02
<VARIANCE> 39
 8.217598e+01 1.656494e+01 1.844755e+01 3.057969e+01 2.788710e+01 8.462595e+01 3.842316e+01 3.359275e+01 2.977920e+01 5.644807e+01 3.201741e+01 2.697432e+01 8.851313e+00 6.495253e+00 2.110526e+00 1.717109e+00 3.338094e+00 2.515670e+00 7.689957e+00 4.380083e+00 3.453816e+00 3.851200e+00 5.369025e+00 3.364140e+00 2.281038e+00 6.026548e-01 7.694025e-01 3.664736e-01 3.375873e-01 4.836867e-01 4.374430e-01 1.338405e+00 8.160905e-01 5.873571e-01 6.739741e-01 7.034146e-01 6.509814e-01 4.292518e-01 6.238392e-02
<GCONST> 1.219856e+02
<TRANSP> 5
 0.000000e+00 1.000000e+00 0.000000e+00 0.000000e+00 0.000000e+00
 0.000000e+00 7.084486e-01 2.915514e-01 0.000000e+00 0.000000e+00
 0.000000e+00 0.000000e+00 9.230158e-01 7.698426e-02 0.000000e+00
 0.000000e+00 0.000000e+00 0.000000e+00 9.588394e-01 4.116064e-02
 0.000000e+00 0.000000e+00 0.000000e+00 0.000000e+00 0.000000e+00
<ENDHMM>
~h "sp"
<BEGINHMM>
<NUMSTATES> 3
<STATE> 2
~s "silst"
<TRANSP> 3
 0.000000e+00 6.702502e-02 9.329749e-01
 0.000000e+00 7.865197e-01 2.134803e-01
 0.000000e+00 0.000000e+00 0.000000e+00
<ENDHMM>
~h "un"
<BEGINHMM>
<NUMSTATES> 5
<STATE> 2
<MEAN> 39
 -3.808374e+00 -4.538067e+00 -5.505725e-01 -9.028760e+00 -9.603772e+00 -2.656893e+01 -2.336964e+00 -1.580281e+01 -8.260668e+00 -1.480428e+01 -7.468328e+00 -3.896548e+00 7.419297e+01 5.057521e-01 1.373214e-01 3.550315e-01 -3.245246e+00 -1.036840e+00 -8.023413e-01 2.171609e+00 -9.025782e-01 -9.175124e-01 9.156831e-02 1.365738e+00 1.476630e-01 1.606730e+00 -1.209302e+00 -3.648748e-01 4.692380e-02 2.230665e-01 1.847901e-01 1.167877e+00 1.854079e-01 1.158018e+00 5.680980e-01 7.461479e-01 2.461679e-01 3.959765e-02 -3.201651e-01
<VARIANCE> 39
 2.740391e+00 1.300615e+01 9.397249e+00 2.302701e+01 1.868387e+01 1.492735e+01 3.086895e+01 2.072524e+01 1.735444e+01 1.469442e+01 3.006037e+01 1.551657e+01 8.625761e+00 3.447950e+00 1.809311e+00 1.192234e+00 1.801499e+00 1.305204e+00 4.905206e+00 2.431232e+00 5.954815e+00 3.148706e+00 2.972898e+00 2.051682e+00 2.149344e+00 1.112686e+00 4.246602e-01 4.379209e-01 3.712083e-01 4.944789e-01 2.949232e-01 2.969927e-01 7.645622e-01 7.846493e-01 5.903488e-01 3.096506e-01 6.945854e-01 3.449084e-01 3.539042e-01
<GCONST> 1.070220e+02
<STATE> 3
<MEAN> 39
 -3.802659e+00 1.194828e+00 6.549993e+00 -1.610974e+01 -1.044179e+01 -2.137671e+01 -4.908236e+00 -1.329078e+01 -1.287136e+01 -9.508748e+00 -5.497447e+00 -4.418536e+00 6.904527e+01 7.960937e-01 1.031119e+00 5.758972e-01 -5.215192e-02 -8.232919e-02 2.065559e-01 -1.561185e+00 4.961682e-01 -7.639048e-01 5.049049e-01 -2.612566e-01 -6.427994e-01 -1.259779e+00 1.529033e-01 3.604721e-02 -1.434323e-01 2.189914e-01 -3.065218e-04 -6.762674e-02 -2.060550e-01 3.448091e-03 -2.948779e-02 -1.223643e-02 -1.560572e-01 -1.864081e-01 -8.173911e-02
<VARIANCE> 39
 2.003324e+01 2.685061e+01 1.230915e+01 1.808733e+01 1.703863e+01 2.345437e+01 6.828226e+01 2.267729e+01 2.349491e+01 2.780113e+01 2.106599e+01 1.950685e+01 2.832441e+01 1.516372e+00 1.004070e+00 1.436111e+00 2.304012e+00 1.076075e+00 2.331499e+00 3.166021e+00 2.190993e+00 2.564474e+00 3.410568e+00 1.660644e+00 2.528170e+00 6.247208e-01 2.365631e-01 2.529211e-01 1.976511e-01 3.448092e-01 1.992534e-01 4.504053e-01 7.454941e-01 4.573620e-01 5.213751e-01 6.939506e-01 2.921421e-01 4.147463e-01 1.832829e-01
<GCONST> 1.063435e+02
<STATE> 4
<MEAN> 39
 -1.448825e+00 7.270830e+00 9.462779e+00 -1.932659e+01 -1.314636e+01 -1.802535e+01 -1.143602e+01 -1.379690e+01 -1.673782e+01 -4.851101e+00 -1.023035e+01 -9.825112e+00 6.600065e+01 -6.865112e-01 -8.250854e-01 -5.035170e-01 -4.977778e-03 -2.121216e-01 3.720768e-01 1.065284e+00 -5.834523e-01 7.113945e-01 -4.985712e-01 5.838771e-02 5.846821e-01 1.122095e+00 2.761839e-02 -2.994378e-01 -5.427179e-01 3.144342e-01 4.521885e-01 -1.631705e-01 5.872481e-02 3.324245e-02 5.281352e-01 -4.180451e-01 9.504692e-02 4.034987e-02 1.237746e-01
<VARIANCE> 39
