~h"sil"
<BEGINHMM>
<NUMSTATES> 5
<STATE> 2
<MEAN> 39
 -8.837668e+00 -4.634879e+00 -5.139858e+00 -1.080520e+01 -4.725881e+00 -1.131146e+01 -6.619244e+00 -1.078740e+01 -3.652506e+00 -1.146592e+01 -2.973909e+00 -6.820525e+00 6.542313e+01 3.936675e-03 4.159336e-03 3.985936e-03 -1.512946e-03 1.084303e-03 2.393049e-03 -1.145922e-03 -1.663914e-02 -5.075945e-03 9.826075e-04 -1.601237e-03 1.259639e-03 2.834626e-03 2.236322e-04 7.660557e-04 -3.073169e-04 -1.918842e-04 -7.176076e-04 1.579065e-03 6.787786e-04 -1.882156e-04 8.992801e-04 7.026208e-04 -6.752218e-04 -8.481049e-04 -8.564598e-04
<VARIANCE> 39
 6.555533e+01 9.447430e+01 8.247615e+01 7.216943e+01 6.320332e+01 6.703423e+01 5.408260e+01 9.180781e+01 6.949444e+01 1.083419e+02 5.610213e+01 4.510988e+01 1.516074e+02 3.315702e+00 3.009490e+00 4.303542e+00 3.344780e+00 3.736877e+00 4.115880e+00 3.582441e+00 3.867862e+00 4.253813e+00 4.873307e+00 2.949770e+00 2.764075e+00 2.507631e+00 4.918717e-01 3.995081e-01 6.684682e-01 5.529770e-01 6.173857e-01 7.319671e-01 6.234416e-01 6.594285e-01 7.284790e-01 7.593409e-01 5.007720e-01 4.948074e-01 3.226201e-01
<GCONST> 1.367003e+02
<STATE> 3
<MEAN> 39
 -8.837668e+00 -4.634879e+00 -5.139858e+00 -1.080520e+01 -4.725881e+00 -1.131146e+01 -6.619244e+00 -1.078740e+01 -3.652506e+00 -1.146592e+01 -2.973909e+00 -6.820525e+00 6.542313e+01 3.936675e-03 4.159336e-03 3.985936e-03 -1.512946e-03 1.084303e-03 2.393049e-03 -1.145922e-03 -1.663914e-02 -5.075945e-03 9.826075e-04 -1.601237e-03 1.259639e-03 2.834626e-03 2.236322e-04 7.660557e-04 -3.073169e-04 -1.918842e-04 -7.176076e-04 1.579065e-03 6.787786e-04 -1.882156e-04 8.992801e-04 7.026208e-04 -6.752218e-04 -8.481049e-04 -8.564598e-04
<VARIANCE> 39
 6.555533e+01 9.447430e+01 8.247615e+01 7.216943e+01 6.320332e+01 6.703423e+01 5.408260e+01 9.180781e+01 6.949444e+01 1.083419e+02 5.610213e+01 4.510988e+01 1.516074e+02 3.315702e+00 3.009490e+00 4.303542e+00 3.344780e+00 3.736877e+00 4.115880e+00 3.582441e+00 3.867862e+00 4.253813e+00 4.873307e+00 2.949770e+00 2.764075e+00 2.507631e+00 4.918717e-01 3.995081e-01 6.684682e-01 5.529770e-01 6.173857e-01 7.319671e-01 6.234416e-01 6.594285e-01 7.284790e-01 7.593409e-01 5.007720e-01 4.948074e-01 3.226201e-01
<GCONST> 1.367003e+02
<STATE> 4
<MEAN> 39
 -8.837668e+00 -4.634879e+00 -5.139858e+00 -1.080520e+01 -4.725881e+00 -1.131146e+01 -6.619244e+00 -1.078740e+01 -3.652506e+00 -1.146592e+01 -2.973909e+00 -6.820525e+00 6.542313e+01 3.936675e-03 4.159336e-03 3.985936e-03 -1.512946e-03 1.084303e-03 2.393049e-03 -1.145922e-03 -1.663914e-02 -5.075945e-03 9.826075e-04 -1.601237e-03 1.259639e-03 2.834626e-03 2.236322e-04 7.660557e-04 -3.073169e-04 -1.918842e-04 -7.176076e-04 1.579065e-03 6.787786e-04 -1.882156e-04 8.992801e-04 7.026208e-04 -6.752218e-04 -8.481049e-04 -8.564598e-04
<VARIANCE> 39
 6.555533e+01 9.447430e+01 8.247615e+01 7.216943e+01 6.320332e+01 6.703423e+01 5.408260e+01 9.180781e+01 6.949444e+01 1.083419e+02 5.610213e+01 4.510988e+01 1.516074e+02 3.315702e+00 3.009490e+00 4.303542e+00 3.344780e+00 3.736877e+00 4.115880e+00 3.582441e+00 3.867862e+00 4.253813e+00 4.873307e+00 2.949770e+00 2.764075e+00 2.507631e+00 4.918717e-01 3.995081e-01 6.684682e-01 5.529770e-01 6.173857e-01 7.319671e-01 6.234416e-01 6.594285e-01 7.284790e-01 7.593409e-01 5.007720e-01 4.948074e-01 3.226201e-01
<GCONST> 1.367003e+02
<TRANSP> 5
 0.000000e+00 1.000000e+00 0.000000e+00 0.000000e+00 0.000000e+00
 0.000000e+00 6.000000e-01 4.000000e-01 0.000000e+00 0.000000e+00
 0.000000e+00 0.000000e+00 6.000000e-01 4.000000e-01 0.000000e+00
 0.000000e+00 0.000000e+00 0.000000e+00 7.000000e-01 3.000000e-01
 0.000000e+00 0.000000e+00 0.000000e+00 0.000000e+00 0.000000e+00
<ENDHMM>

~h"yi"
<BEGINHMM>
<NUMSTATES> 5
<STATE> 2
<MEAN> 39
 -8.837668e+00 -4.634879e+00 -5.139858e+00 -1.080520e+01 -4.725881e+00 -1.131146e+01 -6.619244e+00 -1.078740e+01 -3.652506e+00 -1.146592e+01 -2.973909e+00 -6.820525e+00 6.542313e+01 3.936675e-03 4.159336e-03 3.985936e-03 -1.512946e-03 1.084303e-03 2.393049e-03 -1.145922e-03 -1.663914e-02 -5.075945e-03 9.826075e-04 -1.601237e-03 1.259639e-03 2.834626e-03 2.236322e-04 7.660557e-04 -3.073169e-04 -1.918842e-04 -7.176076e-04 1.579065e-03 6.787786e-04 -1.882156e-04 8.992801e-04 7.026208e-04 -6.752218e-04 -8.481049e-04 -8.564598e-04
<VARIANCE> 39
 6.555533e+01 9.447430e+01 8.247615e+01 7.216943e+01 6.320332e+01 6.703423e+01 5.408260e+01 9.180781e+01 6.949444e+01 1.083419e+02 5.610213e+01 4.510988e+01 1.516074e+02 3.315702e+00 3.009490e+00 4.303542e+00 3.344780e+00 3.736877e+00 4.115880e+00 3.582441e+00 3.867862e+00 4.253813e+00 4.873307e+00 2.949770e+00 2.764075e+00 2.507631e+00 4.918717e-01 3.995081e-01 6.684682e-01 5.529770e-01 6.173857e-01 7.319671e-01 6.234416e-01 6.594285e-01 7.284790e-01 7.593409e-01 5.007720e-01 4.948074e-01 3.226201e-01
<GCONST> 1.367003e+02
<STATE> 3
<MEAN> 39
 -8.837668e+00 -4.634879e+00 -5.139858e+00 -1.080520e+01 -4.725881e+00 -1.131146e+01 -6.619244e+00 -1.078740e+01 -3.652506e+00 -1.146592e+01 -2.973909e+00 -6.820525e+00 6.542313e+01 3.936675e-03 4.159336e-03 3.985936e-03 -1.512946e-03 1.084303e-03 2.393049e-03 -1.145922e-03 -1.663914e-02 -5.075945e-03 9.826075e-04 -1.601237e-03 1.259639e-03 2.834626e-03 2.236322e-04 7.660557e-04 -3.073169e-04 -1.918842e-04 -7.176076e-04 1.579065e-03 6.787786e-04 -1.882156e-04 8.992801e-04 7.026208e-04 -6.752218e-04 -8.481049e-04 -8.564598e-04
<VARIANCE> 39
 6.555533e+01 9.447430e+01 8.247615e+01 7.216943e+01 6.320332e+01 6.703423e+01 5.408260e+01 9.180781e+01 6.949444e+01 1.083419e+02 5.610213e+01 4.510988e+01 1.516074e+02 3.315702e+00 3.009490e+00 4.303542e+00 3.344780e+00 3.736877e+00 4.115880e+00 3.582441e+00 3.867862e+00 4.253813e+00 4.873307e+00 2.949770e+00 2.764075e+00 2.507631e+00 4.918717e-01 3.995081e-01 6.684682e-01 5.529770e-01 6.173857e-01 7.319671e-01 6.234416e-01 6.594285e-01 7.284790e-01 7.593409e-01 5.007720e-01 4.948074e-01 3.226201e-01
<GCONST> 1.367003e+02
<STATE> 4
<MEAN> 39
 -8.837668e+00 -4.634879e+00 -5.139858e+00 -1.080520e+01 -4.725881e+00 -1.131146e+01 -6.619244e+00 -1.078740e+01 -3.652506e+00 -1.146592e+01 -2.973909e+00 -6.820525e+00 6.542313e+01 3.936675e-03 4.159336e-03 3.985936e-03 -1.512946e-03 1.084303e-03 2.393049e-03 -1.145922e-03 -1.663914e-02 -5.075945e-03 9.826075e-04 -1.601237e-03 1.259639e-03 2.834626e-03 2.236322e-04 7.660557e-04 -3.073169e-04 -1.918842e-04 -7.176076e-04 1.579065e-03 6.787786e-04 -1.882156e-04 8.992801e-04 7.026208e-04 -6.752218e-04 -8.481049e-04 -8.564598e-04
<VARIANCE> 39
 6.555533e+01 9.447430e+01 8.247615e+01 7.216943e+01 6.320332e+01 6.703423e+01 5.408260e+01 9.180781e+01 6.949444e+01 1.083419e+02 5.610213e+01 4.510988e+01 1.516074e+02 3.315702e+00 3.009490e+00 4.303542e+00 3.344780e+00 3.736877e+00 4.115880e+00 3.582441e+00 3.867862e+00 4.253813e+00 4.873307e+00 2.949770e+00 2.764075e+00 2.507631e+00 4.918717e-01 3.995081e-01 6.684682e-01 5.529770e-01 6.173857e-01 7.319671e-01 6.234416e-01 6.594285e-01 7.284790e-01 7.593409e-01 5.007720e-01 4.948074e-01 3.226201e-01
<GCONST> 1.367003e+02
<TRANSP> 5
 0.000000e+00 1.000000e+00 0.000000e+00 0.000000e+00 0.000000e+00
 0.000000e+00 6.000000e-01 4.000000e-01 0.000000e+00 0.000000e+00
 0.000000e+00 0.000000e+00 6.000000e-01 4.000000e-01 0.000000e+00
 0.000000e+00 0.000000e+00 0.000000e+00 7.000000e-01 3.000000e-01
 0.000000e+00 0.000000e+00 0.000000e+00 0.000000e+00 0.000000e+00
<ENDHMM>

~h"sp"
<BEGINHMM>
<NUMSTATES> 5
<STATE> 2
<MEAN> 39
 -8.837668e+00 -4.634879e+00 -5.139858e+00 -1.080520e+01 -4.725881e+00 -1.131146e+01 -6.619244e+00 -1.078740e+01 -3.652506e+00 -1.146592e+01 -2.973909e+00 -6.820525e+00 6.542313e+01 3.936675e-03 4.159336e-03 3.985936e-03 -1.512946e-03 1.084303e-03 2.393049e-03 -1.145922e-03 -1.663914e-02 -5.075945e-03 9.826075e-04 -1.601237e-03 1.259639e-03 2.834626e-03 2.236322e-04 7.660557e-04 -3.073169e-04 -1.918842e-04 -7.176076e-04 1.579065e-03 6.787786e-04 -1.882156e-04 8.992801e-04 7.026208e-04 -6.752218e-04 -8.481049e-04 -8.564598e-04
<VARIANCE> 39
 6.555533e+01 9.447430e+01 8.247615e+01 7.216943e+01 6.320332e+01 6.703423e+01 5.408260e+01 9.180781e+01 6.949444e+01 1.083419e+02 5.610213e+01 4.510988e+01 1.516074e+02 3.315702e+00 3.009490e+00 4.303542e+00 3.344780e+00 3.736877e+00 4.115880e+00 3.582441e+00 3.867862e+00 4.253813e+00 4.873307e+00 2.949770e+00 2.764075e+00 2.507631e+00 4.918717e-01 3.995081e-01 6.684682e-01 5.529770e-01 6.173857e-01 7.319671e-01 6.234416e-01 6.594285e-01 7.284790e-01 7.593409e-01 5.007720e-01 4.948074e-01 3.226201e-01
<GCONST> 1.367003e+02
<STATE> 3
<MEAN> 39
 -8.837668e+00 -4.634879e+00 -5.139858e+00 -1.080520e+01 -4.725881e+00 -1.131146e+01 -6.619244e+00 -1.078740e+01 -3.652506e+00 -1.146592e+01 -2.973909e+00 -6.820525e+00 6.542313e+01 3.936675e-03 4.159336e-03 3.985936e-03 -1.512946e-03 1.084303e-03 2.393049e-03 -1.145922e-03 -1.663914e-02 -5.075945e-03 9.826075e-04 -1.601237e-03 1.259639e-03 2.834626e-03 2.236322e-04 7.660557e-04 -3.073169e-04 -1.918842e-04 -7.176076e-04 1.579065e-03 6.787786e-04 -1.882156e-04 8.992801e-04 7.026208e-04 -6.752218e-04 -8.481049e-04 -8.564598e-04
<VARIANCE> 39
 6.555533e+01 9.447430e+01 8.247615e+01 7.216943e+01 6.320332e+01 6.703423e+01 5.408260e+01 9.180781e+01 6.949444e+01 1.083419e+02 5.610213e+01 4.510988e+01 1.516074e+02 3.315702e+00 3.009490e+00 4.303542e+00 3.344780e+00 3.736877e+00 4.115880e+00 3.582441e+00 3.867862e+00 4.253813e+00 4.873307e+00 2.949770e+00 2.764075e+00 2.507631e+00 4.918717e-01 3.995081e-01 6.684682e-01 5.529770e-01 6.173857e-01 7.319671e-01 6.234416e-01 6.594285e-01 7.284790e-01 7.593409e-01 5.007720e-01 4.948074e-01 3.226201e-01
<GCONST> 1.367003e+02
<STATE> 4
<MEAN> 39
 -8.837668e+00 -4.634879e+00 -5.139858e+00 -1.080520e+01 -4.725881e+00 -1.131146e+01 -6.619244e+00 -1.078740e+01 -3.652506e+00 -1.146592e+01 -2.973909e+00 -6.820525e+00 6.542313e+01 3.936675e-03 4.159336e-03 3.985936e-03 -1.512946e-03 1.084303e-03 2.393049e-03 -1.145922e-03 -1.663914e-02 -5.075945e-03 9.826075e-04 -1.601237e-03 1.259639e-03 2.834626e-03 2.236322e-04 7.660557e-04 -3.073169e-04 -1.918842e-04 -7.176076e-04 1.579065e-03 6.787786e-04 -1.882156e-04 8.992801e-04 7.026208e-04 -6.752218e-04 -8.481049e-04 -8.564598e-04
<VARIANCE> 39
 6.555533e+01 9.447430e+01 8.247615e+01 7.216943e+01 6.320332e+01 6.703423e+01 5.408260e+01 9.180781e+01 6.949444e+01 1.083419e+02 5.610213e+01 4.510988e+01 1.516074e+02 3.315702e+00 3.009490e+00 4.303542e+00 3.344780e+00 3.736877e+00 4.115880e+00 3.582441e+00 3.867862e+00 4.253813e+00 4.873307e+00 2.949770e+00 2.764075e+00 2.507631e+00 4.918717e-01 3.995081e-01 6.684682e-01 5.529770e-01 6.173857e-01 7.319671e-01 6.234416e-01 6.594285e-01 7.284790e-01 7.593409e-01 5.007720e-01 4.948074e-01 3.226201e-01
<GCONST> 1.367003e+02
<TRANSP> 5
 0.000000e+00 1.000000e+00 0.000000e+00 0.000000e+00 0.000000e+00
 0.000000e+00 6.000000e-01 4.000000e-01 0.000000e+00 0.000000e+00
 0.000000e+00 0.000000e+00 6.000000e-01 4.000000e-01 0.000000e+00
 0.000000e+00 0.000000e+00 0.000000e+00 7.000000e-01 3.000000e-01
 0.000000e+00 0.000000e+00 0.000000e+00 0.000000e+00 0.000000e+00
<ENDHMM>

~h"q"
<BEGINHMM>
<NUMSTATES> 5
<STATE> 2
<MEAN> 39
 -8.837668e+00 -4.634879e+00 -5.139858e+00 -1.080520e+01 -4.725881e+00 -1.131146e+01 -6.619244e+00 -1.078740e+01 -3.652506e+00 -1.146592e+01 -2.973909e+00 -6.820525e+00 6.542313e+01 3.936675e-03 4.159336e-03 3.985936e-03 -1.512946e-03 1.084303e-03 2.393049e-03 -1.145922e-03 -1.663914e-02 -5.075945e-03 9.826075e-04 -1.601237e-03 1.259639e-03 2.834626e-03 2.236322e-04 7.660557e-04 -3.073169e-04 -1.918842e-04 -7.176076e-04 1.579065e-03 6.787786e-04 -1.882156e-04 8.992801e-04 7.026208e-04 -6.752218e-04 -8.481049e-04 -8.564598e-04
<VARIANCE> 39
 6.555533e+01 9.447430e+01 8.247615e+01 7.216943e+01 6.320332e+01 6.703423e+01 5.408260e+01 9.180781e+01 6.949444e+01 1.083419e+02 5.610213e+01 4.510988e+01 1.516074e+02 3.315702e+00 3.009490e+00 4.303542e+00 3.344780e+00 3.736877e+00 4.115880e+00 3.582441e+00 3.867862e+00 4.253813e+00 4.873307e+00 2.949770e+00 2.764075e+00 2.507631e+00 4.918717e-01 3.995081e-01 6.684682e-01 5.529770e-01 6.173857e-01 7.319671e-01 6.234416e-01 6.594285e-01 7.284790e-01 7.593409e-01 5.007720e-01 4.948074e-01 3.226201e-01
<GCONST> 1.367003e+02
<STATE> 3
<MEAN> 39
 -8.837668e+00 -4.634879e+00 -5.139858e+00 -1.080520e+01 -4.725881e+00 -1.131146e+01 -6.619244e+00 -1.078740e+01 -3.652506e+00 -1.146592e+01 -2.973909e+00 -6.820525e+00 6.542313e+01 3.936675e-03 4.159336e-03 3.985936e-03 -1.512946e-03 1.084303e-03 2.393049e-03 -1.145922e-03 -1.663914e-02 -5.075945e-03 9.826075e-04 -1.601237e-03 1.259639e-03 2.834626e-03 2.236322e-04 7.660557e-04 -3.073169e-04 -1.918842e-04 -7.176076e-04 1.579065e-03 6.787786e-04 -1.882156e-04 8.992801e-04 7.026208e-04 -6.752218e-04 -8.481049e-04 -8.564598e-04
<VARIANCE> 39
 6.555533e+01 9.447430e+01 8.247615e+01 7.216943e+01 6.320332e+01 6.703423e+01 5.408260e+01 9.180781e+01 6.949444e+01 1.083419e+02 5.610213e+01 4.510988e+01 1.516074e+02 3.315702e+00 3.009490e+00 4.303542e+00 3.344780e+00 3.736877e+00 4.115880e+00 3.582441e+00 3.867862e+00 4.253813e+00 4.873307e+00 2.949770e+00 2.764075e+00 2.507631e+00 4.918717e-01 3.995081e-01 6.684682e-01 5.529770e-01 6.173857e-01 7.319671e-01 6.234416e-01 6.594285e-01 7.284790e-01 7.593409e-01 5.007720e-01 4.948074e-01 3.226201e-01
<GCONST> 1.367003e+02
<STATE> 4
<MEAN> 39
 -8.837668e+00 -4.634879e+00 -5.139858e+00 -1.080520e+01 -4.725881e+00 -1.131146e+01 -6.619244e+00 -1.078740e+01 -3.652506e+00 -1.146592e+01 -2.973909e+00 -6.820525e+00 6.542313e+01 3.936675e-03 4.159336e-03 3.985936e-03 -1.512946e-03 1.084303e-03 2.393049e-03 -1.145922e-03 -1.663914e-02 -5.075945e-03 9.826075e-04 -1.601237e-03 1.259639e-03 2.834626e-03 2.236322e-04 7.660557e-04 -3.073169e-04 -1.918842e-04 -7.176076e-04 1.579065e-03 6.787786e-04 -1.882156e-04 8.992801e-04 7.026208e-04 -6.752218e-04 -8.481049e-04 -8.564598e-04
<VARIANCE> 39
 6.555533e+01 9.447430e+01 8.247615e+01 7.216943e+01 6.320332e+01 6.703423e+01 5.408260e+01 9.180781e+01 6.949444e+01 1.083419e+02 5.610213e+01 4.510988e+01 1.516074e+02 3.315702e+00 3.009490e+00 4.303542e+00 3.344780e+00 3.736877e+00 4.115880e+00 3.582441e+00 3.867862e+00 4.253813e+00 4.873307e+00 2.949770e+00 2.764075e+00 2.507631e+00 4.918717e-01 3.995081e-01 6.684682e-01 5.529770e-01 6.173857e-01 7.319671e-01 6.234416e-01 6.594285e-01 7.284790e-01 7.593409e-01 5.007720e-01 4.948074e-01 3.226201e-01
<GCONST> 1.367003e+02
<TRANSP> 5
 0.000000e+00 1.000000e+00 0.000000e+00 0.000000e+00 0.000000e+00
 0.000000e+00 6.000000e-01 4.000000e-01 0.000000e+00 0.000000e+00
 0.000000e+00 0.000000e+00 6.000000e-01 4.000000e-01 0.000000e+00
 0.000000e+00 0.000000e+00 0.000000e+00 7.000000e-01 3.000000e-01
 0.000000e+00 0.000000e+00 0.000000e+00 0.000000e+00 0.000000e+00
<ENDHMM>

~h"i"
<BEGINHMM>
<NUMSTATES> 5
<STATE> 2
<MEAN> 39
 -8.837668e+00 -4.634879e+00 -5.139858e+00 -1.080520e+01 -4.725881e+00 -1.131146e+01 -6.619244e+00 -1.078740e+01 -3.652506e+00 -1.146592e+01 -2.973909e+00 -6.820525e+00 6.542313e+01 3.936675e-03 4.159336e-03 3.985936e-03 -1.512946e-03 1.084303e-03 2.393049e-03 -1.145922e-03 -1.663914e-02 -5.075945e-03 9.826075e-04 -1.601237e-03 1.259639e-03 2.834626e-03 2.236322e-04 7.660557e-04 -3.073169e-04 -1.918842e-04 -7.176076e-04 1.579065e-03 6.787786e-04 -1.882156e-04 8.992801e-04 7.026208e-04 -6.752218e-04 -8.481049e-04 -8.564598e-04
<VARIANCE> 39
 6.555533e+01 9.447430e+01 8.247615e+01 7.216943e+01 6.320332e+01 6.703423e+01 5.408260e+01 9.180781e+01 6.949444e+01 1.083419e+02 5.610213e+01 4.510988e+01 1.516074e+02 3.315702e+00 3.009490e+00 4.303542e+00 3.344780e+00 3.736877e+00 4.115880e+00 3.582441e+00 3.867862e+00 4.253813e+00 4.873307e+00 2.949770e+00 2.764075e+00 2.507631e+00 4.918717e-01 3.995081e-01 6.684682e-01 5.529770e-01 6.173857e-01 7.319671e-01 6.234416e-01 6.594285e-01 7.284790e-01 7.593409e-01 5.007720e-01 4.948074e-01 3.226201e-01
<GCONST> 1.367003e+02
<STATE> 3
<MEAN> 39
 -8.837668e+00 -4.634879e+00 -5.139858e+00 -1.080520e+01 -4.725881e+00 -1.131146e+01 -6.619244e+00 -1.078740e+01 -3.652506e+00 -1.146592e+01 -2.973909e+00 -6.820525e+00 6.542313e+01 3.936675e-03 4.159336e-03 3.985936e-03 -1.512946e-03 1.084303e-03 2.393049e-03 -1.145922e-03 -1.663914e-02 -5.075945e-03 9.826075e-04 -1.601237e-03 1.259639e-03 2.834626e-03 2.236322e-04 7.660557e-04 -3.073169e-04 -1.918842e-04 -7.176076e-04 1.579065e-03 6.787786e-04 -1.882156e-04 8.992801e-04 7.026208e-04 -6.752218e-04 -8.481049e-04 -8.564598e-04
<VARIANCE> 39
 6.555533e+01 9.447430e+01 8.247615e+01 7.216943e+01 6.320332e+01 6.703423e+01 5.408260e+01 9.180781e+01 6.949444e+01 1.083419e+02 5.610213e+01 4.510988e+01 1.516074e+02 3.315702e+00 3.009490e+00 4.303542e+00 3.344780e+00 3.736877e+00 4.115880e+00 3.582441e+00 3.867862e+00 4.253813e+00 4.873307e+00 2.949770e+00 2.764075e+00 2.507631e+00 4.918717e-01 3.995081e-01 6.684682e-01 5.529770e-01 6.173857e-01 7.319671e-01 6.234416e-01 6.594285e-01 7.284790e-01 7.593409e-01 5.007720e-01 4.948074e-01 3.226201e-01
<GCONST> 1.367003e+02
<STATE> 4
<MEAN> 39
 -8.837668e+00 -4.634879e+00 -5.139858e+00 -1.080520e+01 -4.725881e+00 -1.131146e+01 -6.619244e+00 -1.078740e+01 -3.652506e+00 -1.146592e+01 -2.973909e+00 -6.820525e+00 6.542313e+01 3.936675e-03 4.159336e-03 3.985936e-03 -1.512946e-03 1.084303e-03 2.393049e-03 -1.145922e-03 -1.663914e-02 -5.075945e-03 9.826075e-04 -1.601237e-03 1.259639e-03 2.834626e-03 2.236322e-04 7.660557e-04 -3.073169e-04 -1.918842e-04 -7.176076e-04 1.579065e-03 6.787786e-04 -1.882156e-04 8.992801e-04 7.026208e-04 -6.752218e-04 -8.481049e-04 -8.564598e-04
<VARIANCE> 39
 6.555533e+01 9.447430e+01 8.247615e+01 7.216943e+01 6.320332e+01 6.703423e+01 5.408260e+01 9.180781e+01 6.949444e+01 1.083419e+02 5.610213e+01 4.510988e+01 1.516074e+02 3.315702e+00 3.009490e+00 4.303542e+00 3.344780e+00 3.736877e+00 4.115880e+00 3.582441e+00 3.867862e+00 4.253813e+00 4.873307e+00 2.949770e+00 2.764075e+00 2.507631e+00 4.918717e-01 3.995081e-01 6.684682e-01 5.529770e-01 6.173857e-01 7.319671e-01 6.234416e-01 6.594285e-01 7.284790e-01 7.593409e-01 5.007720e-01 4.948074e-01 3.226201e-01
<GCONST> 1.367003e+02
<TRANSP> 5
 0.000000e+00 1.000000e+00 0.000000e+00 0.000000e+00 0.000000e+00
 0.000000e+00 6.000000e-01 4.000000e-01 0.000000e+00 0.000000e+00
 0.000000e+00 0.000000e+00 6.000000e-01 4.000000e-01 0.000000e+00
 0.000000e+00 0.000000e+00 0.000000e+00 7.000000e-01 3.000000e-01
 0.000000e+00 0.000000e+00 0.000000e+00 0.000000e+00 0.000000e+00
<ENDHMM>

~h"s"
<BEGINHMM>
<NUMSTATES> 5
<STATE> 2
<MEAN> 39
 -8.837668e+00 -4.634879e+00 -5.139858e+00 -1.080520e+01 -4.725881e+00 -1.131146e+01 -6.619244e+00 -1.078740e+01 -3.652506e+00 -1.146592e+01 -2.973909e+00 -6.820525e+00 6.542313e+01 3.936675e-03 4.159336e-03 3.985936e-03 -1.512946e-03 1.084303e-03 2.393049e-03 -1.145922e-03 -1.663914e-02 -5.075945e-03 9.826075e-04 -1.601237e-03 1.259639e-03 2.834626e-03 2.236322e-04 7.660557e-04 -3.073169e-04 -1.918842e-04 -7.176076e-04 1.579065e-03 6.787786e-04 -1.882156e-04 8.992801e-04 7.026208e-04 -6.752218e-04 -8.481049e-04 -8.564598e-04
<VARIANCE> 39
 6.555533e+01 9.447430e+01 8.247615e+01 7.216943e+01 6.320332e+01 6.703423e+01 5.408260e+01 9.180781e+01 6.949444e+01 1.083419e+02 5.610213e+01 4.510988e+01 1.516074e+02 3.315702e+00 3.009490e+00 4.303542e+00 3.344780e+00 3.736877e+00 4.115880e+00 3.582441e+00 3.867862e+00 4.253813e+00 4.873307e+00 2.949770e+00 2.764075e+00 2.507631e+00 4.918717e-01 3.995081e-01 6.684682e-01 5.529770e-01 6.173857e-01 7.319671e-01 6.234416e-01 6.594285e-01 7.284790e-01 7.593409e-01 5.007720e-01 4.948074e-01 3.226201e-01
<GCONST> 1.367003e+02
<STATE> 3
<MEAN> 39
 -8.837668e+00 -4.634879e+00 -5.139858e+00 -1.080520e+01 -4.725881e+00 -1.131146e+01 -6.619244e+00 -1.078740e+01 -3.652506e+00 -1.146592e+01 -2.973909e+00 -6.820525e+00 6.542313e+01 3.936675e-03 4.159336e-03 3.985936e-03 -1.512946e-03 1.084303e-03 2.393049e-03 -1.145922e-03 -1.663914e-02 -5.075945e-03 9.826075e-04 -1.601237e-03 1.259639e-03 2.834626e-03 2.236322e-04 7.660557e-04 -3.073169e-04 -1.918842e-04 -7.176076e-04 1.579065e-03 6.787786e-04 -1.882156e-04 8.992801e-04 7.026208e-04 -6.752218e-04 -8.481049e-04 -8.564598e-04
<VARIANCE> 39
 6.555533e+01 9.447430e+01 8.247615e+01 7.216943e+01 6.320332e+01 6.703423e+01 5.408260e+01 9.180781e+01 6.949444e+01 1.083419e+02 5.610213e+01 4.510988e+01 1.516074e+02 3.315702e+00 3.009490e+00 4.303542e+00 3.344780e+00 3.736877e+00 4.115880e+00 3.582441e+00 3.867862e+00 4.253813e+00 4.873307e+00 2.949770e+00 2.764075e+00 2.507631e+00 4.918717e-01 3.995081e-01 6.684682e-01 5.529770e-01 6.173857e-01 7.319671e-01 6.234416e-01 6.594285e-01 7.284790e-01 7.593409e-01 5.007720e-01 4.948074e-01 3.226201e-01
<GCONST> 1.367003e+02
<STATE> 4
<MEAN> 39
 -8.837668e+00 -4.634879e+00 -5.139858e+00 -1.080520e+01 -4.725881e+00 -1.131146e+01 -6.619244e+00 -1.078740e+01 -3.652506e+00 -1.146592e+01 -2.973909e+00 -6.820525e+00 6.542313e+01 3.936675e-03 4.159336e-03 3.985936e-03 -1.512946e-03 1.084303e-03 2.393049e-03 -1.145922e-03 -1.663914e-02 -5.075945e-03 9.826075e-04 -1.601237e-03 1.259639e-03 2.834626e-03 2.236322e-04 7.660557e-04 -3.073169e-04 -1.918842e-04 -7.176076e-04 1.579065e-03 6.787786e-04 -1.882156e-04 8.992801e-04 7.026208e-04 -6.752218e-04 -8.481049e-04 -8.564598e-04
<VARIANCE> 39
 6.555533e+01 9.447430e+01 8.247615e+01 7.216943e+01 6.320332e+01 6.703423e+01 5.408260e+01 9.180781e+01 6.949444e+01 1.083419e+02 5.610213e+01 4.510988e+01 1.516074e+02 3.315702e+00 3.009490e+00 4.303542e+00 3.344780e+00 3.736877e+00 4.115880e+00 3.582441e+00 3.867862e+00 4.253813e+00 4.873307e+00 2.949770e+00 2.764075e+00 2.507631e+00 4.918717e-01 3.995081e-01 6.684682e-01 5.529770e-01 6.173857e-01 7.319671e-01 6.234416e-01 6.594285e-01 7.284790e-01 7.593409e-01 5.007720e-01 4.948074e-01 3.226201e-01
<GCONST> 1.367003e+02
<TRANSP> 5
 0.000000e+00 1.000000e+00 0.000000e+00 0.000000e+00 0.000000e+00
 0.000000e+00 6.000000e-01 4.000000e-01 0.000000e+00 0.000000e+00
 0.000000e+00 0.000000e+00 6.000000e-01 4.000000e-01 0.000000e+00
 0.000000e+00 0.000000e+00 0.000000e+00 7.000000e-01 3.000000e-01
 0.000000e+00 0.000000e+00 0.000000e+00 0.000000e+00 0.000000e+00
<ENDHMM>

~h"an"
<BEGINHMM>
<NUMSTATES> 5
<STATE> 2
<MEAN> 39
 -8.837668e+00 -4.634879e+00 -5.139858e+00 -1.080520e+01 -4.725881e+00 -1.131146e+01 -6.619244e+00 -1.078740e+01 -3.652506e+00 -1.146592e+01 -2.973909e+00 -6.820525e+00 6.542313e+01 3.936675e-03 4.159336e-03 3.985936e-03 -1.512946e-03 1.084303e-03 2.393049e-03 -1.145922e-03 -1.663914e-02 -5.075945e-03 9.826075e-04 -1.601237e-03 1.259639e-03 2.834626e-03 2.236322e-04 7.660557e-04 -3.073169e-04 -1.918842e-04 -7.176076e-04 1.579065e-03 6.787786e-04 -1.882156e-04 8.992801e-04 7.026208e-04 -6.752218e-04 -8.481049e-04 -8.564598e-04
<VARIANCE> 39
 6.555533e+01 9.447430e+01 8.247615e+01 7.216943e+01 6.320332e+01 6.703423e+01 5.408260e+01 9.180781e+01 6.949444e+01 1.083419e+02 5.610213e+01 4.510988e+01 1.516074e+02 3.315702e+00 3.009490e+00 4.303542e+00 3.344780e+00 3.736877e+00 4.115880e+00 3.582441e+00 3.867862e+00 4.253813e+00 4.873307e+00 2.949770e+00 2.764075e+00 2.507631e+00 4.918717e-01 3.995081e-01 6.684682e-01 5.529770e-01 6.173857e-01 7.319671e-01 6.234416e-01 6.594285e-01 7.284790e-01 7.593409e-01 5.007720e-01 4.948074e-01 3.226201e-01
<GCONST> 1.367003e+02
<STATE> 3
<MEAN> 39
 -8.837668e+00 -4.634879e+00 -5.139858e+00 -1.080520e+01 -4.725881e+00 -1.131146e+01 -6.619244e+00 -1.078740e+01 -3.652506e+00 -1.146592e+01 -2.973909e+00 -6.820525e+00 6.542313e+01 3.936675e-03 4.159336e-03 3.985936e-03 -1.512946e-03 1.084303e-03 2.393049e-03 -1.145922e-03 -1.663914e-02 -5.075945e-03 9.826075e-04 -1.601237e-03 1.259639e-03 2.834626e-03 2.236322e-04 7.660557e-04 -3.073169e-04 -1.918842e-04 -7.176076e-04 1.579065e-03 6.787786e-04 -1.882156e-04 8.992801e-04 7.026208e-04 -6.752218e-04 -8.481049e-04 -8.564598e-04
<VARIANCE> 39
 6.555533e+01 9.447430e+01 8.247615e+01 7.216943e+01 6.320332e+01 6.703423e+01 5.408260e+01 9.180781e+01 6.949444e+01 1.083419e+02 5.610213e+01 4.510988e+01 1.516074e+02 3.315702e+00 3.009490e+00 4.303542e+00 3.344780e+00 3.736877e+00 4.115880e+00 3.582441e+00 3.867862e+00 4.253813e+00 4.873307e+00 2.949770e+00 2.764075e+00 2.507631e+00 4.918717e-01 3.995081e-01 6.684682e-01 5.529770e-01 6.173857e-01 7.319671e-01 6.234416e-01 6.594285e-01 7.284790e-01 7.593409e-01 5.007720e-01 4.948074e-01 3.226201e-01
<GCONST> 1.367003e+02
<STATE> 4
<MEAN> 39
 -8.837668e+00 -4.634879e+00 -5.139858e+00 -1.080520e+01 -4.725881e+00 -1.131146e+01 -6.619244e+00 -1.078740e+01 -3.652506e+00 -1.146592e+01 -2.973909e+00 -6.820525e+00 6.542313e+01 3.936675e-03 4.159336e-03 3.985936e-03 -1.512946e-03 1.084303e-03 2.393049e-03 -1.145922e-03 -1.663914e-02 -5.075945e-03 9.826075e-04 -1.601237e-03 1.259639e-03 2.834626e-03 2.236322e-04 7.660557e-04 -3.073169e-04 -1.918842e-04 -7.176076e-04 1.579065e-03 6.787786e-04 -1.882156e-04 8.992801e-04 7.026208e-04 -6.752218e-04 -8.481049e-04 -8.564598e-04
<VARIANCE> 39
 6.555533e+01 9.447430e+01 8.247615e+01 7.216943e+01 6.320332e+01 6.703423e+01 5.408260e+01 9.180781e+01 6.949444e+01 1.083419e+02 5.610213e+01 4.510988e+01 1.516074e+02 3.315702e+00 3.009490e+00 4.303542e+00 3.344780e+00 3.736877e+00 4.115880e+00 3.582441e+00 3.867862e+00 4.253813e+00 4.873307e+00 2.949770e+00 2.764075e+00 2.507631e+00 4.918717e-01 3.995081e-01 6.684682e-01 5.529770e-01 6.173857e-01 7.319671e-01 6.234416e-01 6.594285e-01 7.284790e-01 7.593409e-01 5.007720e-01 4.948074e-01 3.226201e-01
<GCONST> 1.367003e+02
<TRANSP> 5
 0.000000e+00 1.000000e+00 0.000000e+00 0.000000e+00 0.000000e+00
 0.000000e+00 6.000000e-01 4.000000e-01 0.000000e+00 0.000000e+00
 0.000000e+00 0.000000e+00 6.000000e-01 4.000000e-01 0.000000e+00
 0.000000e+00 0.000000e+00 0.000000e+00 7.000000e-01 3.000000e-01
 0.000000e+00 0.000000e+00 0.000000e+00 0.000000e+00 0.000000e+00
<ENDHMM>

~h"j"
<BEGINHMM>
<NUMSTATES> 5
<STATE> 2
<MEAN> 39
 -8.837668e+00 -4.634879e+00 -5.139858e+00 -1.080520e+01 -4.725881e+00 -1.131146e+01 -6.619244e+00 -1.078740e+01 -3.652506e+00 -1.146592e+01 -2.973909e+00 -6.820525e+00 6.542313e+01 3.936675e-03 4.159336e-03 3.985936e-03 -1.512946e-03 1.084303e-03 2.393049e-03 -1.145922e-03 -1.663914e-02 -5.075945e-03 9.826075e-04 -1.601237e-03 1.259639e-03 2.834626e-03 2.236322e-04 7.660557e-04 -3.073169e-04 -1.918842e-04 -7.176076e-04 1.579065e-03 6.787786e-04 -1.882156e-04 8.992801e-04 7.026208e-04 -6.752218e-04 -8.481049e-04 -8.564598e-04
<VARIANCE> 39
 6.555533e+01 9.447430e+01 8.247615e+01 7.216943e+01 6.320332e+01 6.703423e+01 5.408260e+01 9.180781e+01 6.949444e+01 1.083419e+02 5.610213e+01 4.510988e+01 1.516074e+02 3.315702e+00 3.009490e+00 4.303542e+00 3.344780e+00 3.736877e+00 4.115880e+00 3.582441e+00 3.867862e+00 4.253813e+00 4.873307e+00 2.949770e+00 2.764075e+00 2.507631e+00 4.918717e-01 3.995081e-01 6.684682e-01 5.529770e-01 6.173857e-01 7.319671e-01 6.234416e-01 6.594285e-01 7.284790e-01 7.593409e-01 5.007720e-01 4.948074e-01 3.226201e-01
<GCONST> 1.367003e+02
<STATE> 3
<MEAN> 39
 -8.837668e+00 -4.634879e+00 -5.139858e+00 -1.080520e+01 -4.725881e+00 -1.131146e+01 -6.619244e+00 -1.078740e+01 -3.652506e+00 -1.146592e+01 -2.973909e+00 -6.820525e+00 6.542313e+01 3.936675e-03 4.159336e-03 3.985936e-03 -1.512946e-03 1.084303e-03 2.393049e-03 -1.145922e-03 -1.663914e-02 -5.075945e-03 9.826075e-04 -1.601237e-03 1.259639e-03 2.834626e-03 2.236322e-04 7.660557e-04 -3.073169e-04 -1.918842e-04 -7.176076e-04 1.579065e-03 6.787786e-04 -1.882156e-04 8.992801e-04 7.026208e-04 -6.752218e-04 -8.481049e-04 -8.564598e-04
<VARIANCE> 39
 6.555533e+01 9.447430e+01 8.247615e+01 7.216943e+01 6.320332e+01 6.703423e+01 5.408260e+01 9.180781e+01 6.949444e+01 1.083419e+02 5.610213e+01 4.510988e+01 1.516074e+02 3.315702e+00 3.009490e+00 4.303542e+00 3.344780e+00 3.736877e+00 4.115880e+00 3.582441e+00 3.867862e+00 4.253813e+00 4.873307e+00 2.949770e+00 2.764075e+00 2.507631e+00 4.918717e-01 3.995081e-01 6.684682e-01 5.529770e-01 6.173857e-01 7.319671e-01 6.234416e-01 6.594285e-01 7.284790e-01 7.593409e-01 5.007720e-01 4.948074e-01 3.226201e-01
<GCONST> 1.367003e+02
<STATE> 4
<MEAN> 39
 -8.837668e+00 -4.634879e+00 -5.139858e+00 -1.080520e+01 -4.725881e+00 -1.131146e+01 -6.619244e+00 -1.078740e+01 -3.652506e+00 -1.146592e+01 -2.973909e+00 -6.820525e+00 6.542313e+01 3.936675e-03 4.159336e-03 3.985936e-03 -1.512946e-03 1.084303e-03 2.393049e-03 -1.145922e-03 -1.663914e-02 -5.075945e-03 9.826075e-04 -1.601237e-03 1.259639e-03 2.834626e-03 2.236322e-04 7.660557e-04 -3.073169e-04 -1.918842e-04 -7.176076e-04 1.579065e-03 6.787786e-04 -1.882156e-04 8.992801e-04 7.026208e-04 -6.752218e-04 -8.481049e-04 -8.564598e-04
<VARIANCE> 39
 6.555533e+01 9.447430e+01 8.247615e+01 7.216943e+01 6.320332e+01 6.703423e+01 5.408260e+01 9.180781e+01 6.949444e+01 1.083419e+02 5.610213e+01 4.510988e+01 1.516074e+02 3.315702e+00 3.009490e+00 4.303542e+00 3.344780e+00 3.736877e+00 4.115880e+00 3.582441e+00 3.867862e+00 4.253813e+00 4.873307e+00 2.949770e+00 2.764075e+00 2.507631e+00 4.918717e-01 3.995081e-01 6.684682e-01 5.529770e-01 6.173857e-01 7.319671e-01 6.234416e-01 6.594285e-01 7.284790e-01 7.593409e-01 5.007720e-01 4.948074e-01 3.226201e-01
<GCONST> 1.367003e+02
<TRANSP> 5
 0.000000e+00 1.000000e+00 0.000000e+00 0.000000e+00 0.000000e+00
 0.000000e+00 6.000000e-01 4.000000e-01 0.000000e+00 0.000000e+00
 0.000000e+00 0.000000e+00 6.000000e-01 4.000000e-01 0.000000e+00
 0.000000e+00 0.000000e+00 0.000000e+00 7.000000e-01 3.000000e-01
 0.000000e+00 0.000000e+00 0.000000e+00 0.000000e+00 0.000000e+00
<ENDHMM>

~h"iu"
<BEGINHMM>
<NUMSTATES> 5
<STATE> 2
<MEAN> 39
 -8.837668e+00 -4.634879e+00 -5.139858e+00 -1.080520e+01 -4.725881e+00 -1.131146e+01 -6.619244e+00 -1.078740e+01 -3.652506e+00 -1.146592e+01 -2.973909e+00 -6.820525e+00 6.542313e+01 3.936675e-03 4.159336e-03 3.985936e-03 -1.512946e-03 1.084303e-03 2.393049e-03 -1.145922e-03 -1.663914e-02 -5.075945e-03 9.826075e-04 -1.601237e-03 1.259639e-03 2.834626e-03 2.236322e-04 7.660557e-04 -3.073169e-04 -1.918842e-04 -7.176076e-04 1.579065e-03 6.787786e-04 -1.882156e-04 8.992801e-04 7.026208e-04 -6.752218e-04 -8.481049e-04 -8.564598e-04
<VARIANCE> 39
 6.555533e+01 9.447430e+01 8.247615e+01 7.216943e+01 6.320332e+01 6.703423e+01 5.408260e+01 9.180781e+01 6.949444e+01 1.083419e+02 5.610213e+01 4.510988e+01 1.516074e+02 3.315702e+00 3.009490e+00 4.303542e+00 3.344780e+00 3.736877e+00 4.115880e+00 3.582441e+00 3.867862e+00 4.253813e+00 4.873307e+00 2.949770e+00 2.764075e+00 2.507631e+00 4.918717e-01 3.995081e-01 6.684682e-01 5.529770e-01 6.173857e-01 7.319671e-01 6.234416e-01 6.594285e-01 7.284790e-01 7.593409e-01 5.007720e-01 4.948074e-01 3.226201e-01
<GCONST> 1.367003e+02
<STATE> 3
<MEAN> 39
 -8.837668e+00 -4.634879e+00 -5.139858e+00 -1.080520e+01 -4.725881e+00 -1.131146e+01 -6.619244e+00 -1.078740e+01 -3.652506e+00 -1.146592e+01 -2.973909e+00 -6.820525e+00 6.542313e+01 3.936675e-03 4.159336e-03 3.985936e-03 -1.512946e-03 1.084303e-03 2.393049e-03 -1.145922e-03 -1.663914e-02 -5.075945e-03 9.826075e-04 -1.601237e-03 1.259639e-03 2.834626e-03 2.236322e-04 7.660557e-04 -3.073169e-04 -1.918842e-04 -7.176076e-04 1.579065e-03 6.787786e-04 -1.882156e-04 8.992801e-04 7.026208e-04 -6.752218e-04 -8.481049e-04 -8.564598e-04
<VARIANCE> 39
 6.555533e+01 9.447430e+01 8.247615e+01 7.216943e+01 6.320332e+01 6.703423e+01 5.408260e+01 9.180781e+01 6.949444e+01 1.083419e+02 5.610213e+01 4.510988e+01 1.516074e+02 3.315702e+00 3.009490e+00 4.303542e+00 3.344780e+00 3.736877e+00 4.115880e+00 3.582441e+00 3.867862e+00 4.253813e+00 4.873307e+00 2.949770e+00 2.764075e+00 2.507631e+00 4.918717e-01 3.995081e-01 6.684682e-01 5.529770e-01 6.173857e-01 7.319671e-01 6.234416e-01 6.594285e-01 7.284790e-01 7.593409e-01 5.007720e-01 4.948074e-01 3.226201e-01
<GCONST> 1.367003e+02
<STATE> 4
<MEAN> 39
 -8.837668e+00 -4.634879e+00 -5.139858e+00 -1.080520e+01 -4.725881e+00 -1.131146e+01 -6.619244e+00 -1.078740e+01 -3.652506e+00 -1.146592e+01 -2.973909e+00 -6.820525e+00 6.542313e+01 3.936675e-03 4.159336e-03 3.985936e-03 -1.512946e-03 1.084303e-03 2.393049e-03 -1.145922e-03 -1.663914e-02 -5.075945e-03 9.826075e-04 -1.601237e-03 1.259639e-03 2.834626e-03 2.236322e-04 7.660557e-04 -3.073169e-04 -1.918842e-04 -7.176076e-04 1.579065e-03 6.787786e-04 -1.882156e-04 8.992801e-04 7.026208e-04 -6.752218e-04 -8.481049e-04 -8.564598e-04
<VARIANCE> 39
 6.555533e+01 9.447430e+01 8.247615e+01 7.216943e+01 6.320332e+01 6.703423e+01 5.408260e+01 9.180781e+01 6.949444e+01 1.083419e+02 5.610213e+01 4.510988e+01 1.516074e+02 3.315702e+00 3.009490e+00 4.303542e+00 3.344780e+00 3.736877e+00 4.115880e+00 3.582441e+00 3.867862e+00 4.253813e+00 4.873307e+00 2.949770e+00 2.764075e+00 2.507631e+00 4.918717e-01 3.995081e-01 6.684682e-01 5.529770e-01 6.173857e-01 7.319671e-01 6.234416e-01 6.594285e-01 7.284790e-01 7.593409e-01 5.007720e-01 4.948074e-01 3.226201e-01
<GCONST> 1.367003e+02
<TRANSP> 5
 0.000000e+00 1.000000e+00 0.000000e+00 0.000000e+00 0.000000e+00
 0.000000e+00 6.000000e-01 4.000000e-01 0.000000e+00 0.000000e+00
 0.000000e+00 0.000000e+00 6.000000e-01 4.000000e-01 0.000000e+00
 0.000000e+00 0.000000e+00 0.000000e+00 7.000000e-01 3.000000e-01
 0.000000e+00 0.000000e+00 0.000000e+00 0.000000e+00 0.000000e+00
<ENDHMM>

~h"er"
<BEGINHMM>
<NUMSTATES> 5
<STATE> 2
<MEAN> 39
 -8.837668e+00 -4.634879e+00 -5.139858e+00 -1.080520e+01 -4.725881e+00 -1.131146e+01 -6.619244e+00 -1.078740e+01 -3.652506e+00 -1.146592e+01 -2.973909e+00 -6.820525e+00 6.542313e+01 3.936675e-03 4.159336e-03 3.985936e-03 -1.512946e-03 1.084303e-03 2.393049e-03 -1.145922e-03 -1.663914e-02 -5.075945e-03 9.826075e-04 -1.601237e-03 1.259639e-03 2.834626e-03 2.236322e-04 7.660557e-04 -3.073169e-04 -1.918842e-04 -7.176076e-04 1.579065e-03 6.787786e-04 -1.882156e-04 8.992801e-04 7.026208e-04 -6.752218e-04 -8.481049e-04 -8.564598e-04
<VARIANCE> 39
 6.555533e+01 9.447430e+01 8.247615e+01 7.216943e+01 6.320332e+01 6.703423e+01 5.408260e+01 9.180781e+01 6.949444e+01 1.083419e+02 5.610213e+01 4.510988e+01 1.516074e+02 3.315702e+00 3.009490e+00 4.303542e+00 3.344780e+00 3.736877e+00 4.115880e+00 3.582441e+00 3.867862e+00 4.253813e+00 4.873307e+00 2.949770e+00 2.764075e+00 2.507631e+00 4.918717e-01 3.995081e-01 6.684682e-01 5.529770e-01 6.173857e-01 7.319671e-01 6.234416e-01 6.594285e-01 7.284790e-01 7.593409e-01 5.007720e-01 4.948074e-01 3.226201e-01
<GCONST> 1.367003e+02
<STATE> 3
<MEAN> 39
 -8.837668e+00 -4.634879e+00 -5.139858e+00 -1.080520e+01 -4.725881e+00 -1.131146e+01 -6.619244e+00 -1.078740e+01 -3.652506e+00 -1.146592e+01 -2.973909e+00 -6.820525e+00 6.542313e+01 3.936675e-03 4.159336e-03 3.985936e-03 -1.512946e-03 1.084303e-03 2.393049e-03 -1.145922e-03 -1.663914e-02 -5.075945e-03 9.826075e-04 -1.601237e-03 1.259639e-03 2.834626e-03 2.236322e-04 7.660557e-04 -3.073169e-04 -1.918842e-04 -7.176076e-04 1.579065e-03 6.787786e-04 -1.882156e-04 8.992801e-04 7.026208e-04 -6.752218e-04 -8.481049e-04 -8.564598e-04
<VARIANCE> 39
 6.555533e+01 9.447430e+01 8.247615e+01 7.216943e+01 6.320332e+01 6.703423e+01 5.408260e+01 9.180781e+01 6.949444e+01 1.083419e+02 5.610213e+01 4.510988e+01 1.516074e+02 3.315702e+00 3.009490e+00 4.303542e+00 3.344780e+00 3.736877e+00 4.115880e+00 3.582441e+00 3.867862e+00 4.253813e+00 4.873307e+00 2.949770e+00 2.764075e+00 2.507631e+00 4.918717e-01 3.995081e-01 6.684682e-01 5.529770e-01 6.173857e-01 7.319671e-01 6.234416e-01 6.594285e-01 7.284790e-01 7.593409e-01 5.007720e-01 4.948074e-01 3.226201e-01
<GCONST> 1.367003e+02
<STATE> 4
<MEAN> 39
 -8.837668e+00 -4.634879e+00 -5.139858e+00 -1.080520e+01 -4.725881e+00 -1.131146e+01 -6.619244e+00 -1.078740e+01 -3.652506e+00 -1.146592e+01 -2.973909e+00 -6.820525e+00 6.542313e+01 3.936675e-03 4.159336e-03 3.985936e-03 -1.512946e-03 1.084303e-03 2.393049e-03 -1.145922e-03 -1.663914e-02 -5.075945e-03 9.826075e-04 -1.601237e-03 1.259639e-03 2.834626e-03 2.236322e-04 7.660557e-04 -3.073169e-04 -1.918842e-04 -7.176076e-04 1.579065e-03 6.787786e-04 -1.882156e-04 8.992801e-04 7.026208e-04 -6.752218e-04 -8.481049e-04 -8.564598e-04
<VARIANCE> 39
 6.555533e+01 9.447430e+01 8.247615e+01 7.216943e+01 6.320332e+01 6.703423e+01 5.408260e+01 9.180781e+01 6.949444e+01 1.083419e+02 5.610213e+01 4.510988e+01 1.516074e+02 3.315702e+00 3.009490e+00 4.303542e+00 3.344780e+00 3.736877e+00 4.115880e+00 3.582441e+00 3.867862e+00 4.253813e+00 4.873307e+00 2.949770e+00 2.764075e+00 2.507631e+00 4.918717e-01 3.995081e-01 6.684682e-01 5.529770e-01 6.173857e-01 7.319671e-01 6.234416e-01 6.594285e-01 7.284790e-01 7.593409e-01 5.007720e-01 4.948074e-01 3.226201e-01
<GCONST> 1.367003e+02
<TRANSP> 5
 0.000000e+00 1.000000e+00 0.000000e+00 0.000000e+00 0.000000e+00
 0.000000e+00 6.000000e-01 4.000000e-01 0.000000e+00 0.000000e+00
 0.000000e+00 0.000000e+00 6.000000e-01 4.000000e-01 0.000000e+00
 0.000000e+00 0.000000e+00 0.000000e+00 7.000000e-01 3.000000e-01
 0.000000e+00 0.000000e+00 0.000000e+00 0.000000e+00 0.000000e+00
<ENDHMM>

~h"wu"
<BEGINHMM>
<NUMSTATES> 5
<STATE> 2
<MEAN> 39
 -8.837668e+00 -4.634879e+00 -5.139858e+00 -1.080520e+01 -4.725881e+00 -1.131146e+01 -6.619244e+00 -1.078740e+01 -3.652506e+00 -1.146592e+01 -2.973909e+00 -6.820525e+00 6.542313e+01 3.936675e-03 4.159336e-03 3.985936e-03 -1.512946e-03 1.084303e-03 2.393049e-03 -1.145922e-03 -1.663914e-02 -5.075945e-03 9.826075e-04 -1.601237e-03 1.259639e-03 2.834626e-03 2.236322e-04 7.660557e-04 -3.073169e-04 -1.918842e-04 -7.176076e-04 1.579065e-03 6.787786e-04 -1.882156e-04 8.992801e-04 7.026208e-04 -6.752218e-04 -8.481049e-04 -8.564598e-04
<VARIANCE> 39
 6.555533e+01 9.447430e+01 8.247615e+01 7.216943e+01 6.320332e+01 6.703423e+01 5.408260e+01 9.180781e+01 6.949444e+01 1.083419e+02 5.610213e+01 4.510988e+01 1.516074e+02 3.315702e+00 3.009490e+00 4.303542e+00 3.344780e+00 3.736877e+00 4.115880e+00 3.582441e+00 3.867862e+00 4.253813e+00 4.873307e+00 2.949770e+00 2.764075e+00 2.507631e+00 4.918717e-01 3.995081e-01 6.684682e-01 5.529770e-01 6.173857e-01 7.319671e-01 6.234416e-01 6.594285e-01 7.284790e-01 7.593409e-01 5.007720e-01 4.948074e-01 3.226201e-01
<GCONST> 1.367003e+02
<STATE> 3
<MEAN> 39
 -8.837668e+00 -4.634879e+00 -5.139858e+00 -1.080520e+01 -4.725881e+00 -1.131146e+01 -6.619244e+00 -1.078740e+01 -3.652506e+00 -1.146592e+01 -2.973909e+00 -6.820525e+00 6.542313e+01 3.936675e-03 4.159336e-03 3.985936e-03 -1.512946e-03 1.084303e-03 2.393049e-03 -1.145922e-03 -1.663914e-02 -5.075945e-03 9.826075e-04 -1.601237e-03 1.259639e-03 2.834626e-03 2.236322e-04 7.660557e-04 -3.073169e-04 -1.918842e-04 -7.176076e-04 1.579065e-03 6.787786e-04 -1.882156e-04 8.992801e-04 7.026208e-04 -6.752218e-04 -8.481049e-04 -8.564598e-04
<VARIANCE> 39
 6.555533e+01 9.447430e+01 8.247615e+01 7.216943e+01 6.320332e+01 6.703423e+01 5.408260e+01 9.180781e+01 6.949444e+01 1.083419e+02 5.610213e+01 4.510988e+01 1.516074e+02 3.315702e+00 3.009490e+00 4.303542e+00 3.344780e+00 3.736877e+00 4.115880e+00 3.582441e+00 3.867862e+00 4.253813e+00 4.873307e+00 2.949770e+00 2.764075e+00 2.507631e+00 4.918717e-01 3.995081e-01 6.684682e-01 5.529770e-01 6.173857e-01 7.319671e-01 6.234416e-01 6.594285e-01 7.284790e-01 7.593409e-01 5.007720e-01 4.948074e-01 3.226201e-01
<GCONST> 1.367003e+02
<STATE> 4
<MEAN> 39
 -8.837668e+00 -4.634879e+00 -5.139858e+00 -1.080520e+01 -4.725881e+00 -1.131146e+01 -6.619244e+00 -1.078740e+01 -3.652506e+00 -1.146592e+01 -2.973909e+00 -6.820525e+00 6.542313e+01 3.936675e-03 4.159336e-03 3.985936e-03 -1.512946e-03 1.084303e-03 2.393049e-03 -1.145922e-03 -1.663914e-02 -5.075945e-03 9.826075e-04 -1.601237e-03 1.259639e-03 2.834626e-03 2.236322e-04 7.660557e-04 -3.073169e-04 -1.918842e-04 -7.176076e-04 1.579065e-03 6.787786e-04 -1.882156e-04 8.992801e-04 7.026208e-04 -6.752218e-04 -8.481049e-04 -8.564598e-04
<VARIANCE> 39
 6.555533e+01 9.447430e+01 8.247615e+01 7.216943e+01 6.320332e+01 6.703423e+01 5.408260e+01 9.180781e+01 6.949444e+01 1.083419e+02 5.610213e+01 4.510988e+01 1.516074e+02 3.315702e+00 3.009490e+00 4.303542e+00 3.344780e+00 3.736877e+00 4.115880e+00 3.582441e+00 3.867862e+00 4.253813e+00 4.873307e+00 2.949770e+00 2.764075e+00 2.507631e+00 4.918717e-01 3.995081e-01 6.684682e-01 5.529770e-01 6.173857e-01 7.319671e-01 6.234416e-01 6.594285e-01 7.284790e-01 7.593409e-01 5.007720e-01 4.948074e-01 3.226201e-01
<GCONST> 1.367003e+02
<TRANSP> 5
 0.000000e+00 1.000000e+00 0.000000e+00 0.000000e+00 0.000000e+00
 0.000000e+00 6.000000e-01 4.000000e-01 0.000000e+00 0.000000e+00
 0.000000e+00 0.000000e+00 6.000000e-01 4.000000e-01 0.000000e+00
 0.000000e+00 0.000000e+00 0.000000e+00 7.000000e-01 3.000000e-01
 0.000000e+00 0.000000e+00 0.000000e+00 0.000000e+00 0.000000e+00
<ENDHMM>

~h"b"
<BEGINHMM>
<NUMSTATES> 5
<STATE> 2
<MEAN> 39
 -8.837668e+00 -4.634879e+00 -5.139858e+00 -1.080520e+01 -4.725881e+00 -1.131146e+01 -6.619244e+00 -1.078740e+01 -3.652506e+00 -1.146592e+01 -2.973909e+00 -6.820525e+00 6.542313e+01 3.936675e-03 4.159336e-03 3.985936e-03 -1.512946e-03 1.084303e-03 2.393049e-03 -1.145922e-03 -1.663914e-02 -5.075945e-03 9.826075e-04 -1.601237e-03 1.259639e-03 2.834626e-03 2.236322e-04 7.660557e-04 -3.073169e-04 -1.918842e-04 -7.176076e-04 1.579065e-03 6.787786e-04 -1.882156e-04 8.992801e-04 7.026208e-04 -6.752218e-04 -8.481049e-04 -8.564598e-04
<VARIANCE> 39
 6.555533e+01 9.447430e+01 8.247615e+01 7.216943e+01 6.320332e+01 6.703423e+01 5.408260e+01 9.180781e+01 6.949444e+01 1.083419e+02 5.610213e+01 4.510988e+01 1.516074e+02 3.315702e+00 3.009490e+00 4.303542e+00 3.344780e+00 3.736877e+00 4.115880e+00 3.582441e+00 3.867862e+00 4.253813e+00 4.873307e+00 2.949770e+00 2.764075e+00 2.507631e+00 4.918717e-01 3.995081e-01 6.684682e-01 5.529770e-01 6.173857e-01 7.319671e-01 6.234416e-01 6.594285e-01 7.284790e-01 7.593409e-01 5.007720e-01 4.948074e-01 3.226201e-01
<GCONST> 1.367003e+02
<STATE> 3
<MEAN> 39
 -8.837668e+00 -4.634879e+00 -5.139858e+00 -1.080520e+01 -4.725881e+00 -1.131146e+01 -6.619244e+00 -1.078740e+01 -3.652506e+00 -1.146592e+01 -2.973909e+00 -6.820525e+00 6.542313e+01 3.936675e-03 4.159336e-03 3.985936e-03 -1.512946e-03 1.084303e-03 2.393049e-03 -1.145922e-03 -1.663914e-02 -5.075945e-03 9.826075e-04 -1.601237e-03 1.259639e-03 2.834626e-03 2.236322e-04 7.660557e-04 -3.073169e-04 -1.918842e-04 -7.176076e-04 1.579065e-03 6.787786e-04 -1.882156e-04 8.992801e-04 7.026208e-04 -6.752218e-04 -8.481049e-04 -8.564598e-04
<VARIANCE> 39
 6.555533e+01 9.447430e+01 8.247615e+01 7.216943e+01 6.320332e+01 6.703423e+01 5.408260e+01 9.180781e+01 6.949444e+01 1.083419e+02 5.610213e+01 4.510988e+01 1.516074e+02 3.315702e+00 3.009490e+00 4.303542e+00 3.344780e+00 3.736877e+00 4.115880e+00 3.582441e+00 3.867862e+00 4.253813e+00 4.873307e+00 2.949770e+00 2.764075e+00 2.507631e+00 4.918717e-01 3.995081e-01 6.684682e-01 5.529770e-01 6.173857e-01 7.319671e-01 6.234416e-01 6.594285e-01 7.284790e-01 7.593409e-01 5.007720e-01 4.948074e-01 3.226201e-01
<GCONST> 1.367003e+02
<STATE> 4
<MEAN> 39
 -8.837668e+00 -4.634879e+00 -5.139858e+00 -1.080520e+01 -4.725881e+00 -1.131146e+01 -6.619244e+00 -1.078740e+01 -3.652506e+00 -1.146592e+01 -2.973909e+00 -6.820525e+00 6.542313e+01 3.936675e-03 4.159336e-03 3.985936e-03 -1.512946e-03 1.084303e-03 2.393049e-03 -1.145922e-03 -1.663914e-02 -5.075945e-03 9.826075e-04 -1.601237e-03 1.259639e-03 2.834626e-03 2.236322e-04 7.660557e-04 -3.073169e-04 -1.918842e-04 -7.176076e-04 1.579065e-03 6.787786e-04 -1.882156e-04 8.992801e-04 7.026208e-04 -6.752218e-04 -8.481049e-04 -8.564598e-04
<VARIANCE> 39
 6.555533e+01 9.447430e+01 8.247615e+01 7.216943e+01 6.320332e+01 6.703423e+01 5.408260e+01 9.180781e+01 6.949444e+01 1.083419e+02 5.610213e+01 4.510988e+01 1.516074e+02 3.315702e+00 3.009490e+00 4.303542e+00 3.344780e+00 3.736877e+00 4.115880e+00 3.582441e+00 3.867862e+00 4.253813e+00 4.873307e+00 2.949770e+00 2.764075e+00 2.507631e+00 4.918717e-01 3.995081e-01 6.684682e-01 5.529770e-01 6.173857e-01 7.319671e-01 6.234416e-01 6.594285e-01 7.284790e-01 7.593409e-01 5.007720e-01 4.948074e-01 3.226201e-01
<GCONST> 1.367003e+02
<TRANSP> 5
 0.000000e+00 1.000000e+00 0.000000e+00 0.000000e+00 0.000000e+00
 0.000000e+00 6.000000e-01 4.000000e-01 0.000000e+00 0.000000e+00
 0.000000e+00 0.000000e+00 6.000000e-01 4.000000e-01 0.000000e+00
 0.000000e+00 0.000000e+00 0.000000e+00 7.000000e-01 3.000000e-01
 0.000000e+00 0.000000e+00 0.000000e+00 0.000000e+00 0.000000e+00
<ENDHMM>

~h"a"
<BEGINHMM>
<NUMSTATES> 5
<STATE> 2
<MEAN> 39
 -8.837668e+00 -4.634879e+00 -5.139858e+00 -1.080520e+01 -4.725881e+00 -1.131146e+01 -6.619244e+00 -1.078740e+01 -3.652506e+00 -1.146592e+01 -2.973909e+00 -6.820525e+00 6.542313e+01 3.936675e-03 4.159336e-03 3.985936e-03 -1.512946e-03 1.084303e-03 2.393049e-03 -1.145922e-03 -1.663914e-02 -5.075945e-03 9.826075e-04 -1.601237e-03 1.259639e-03 2.834626e-03 2.236322e-04 7.660557e-04 -3.073169e-04 -1.918842e-04 -7.176076e-04 1.579065e-03 6.787786e-04 -1.882156e-04 8.992801e-04 7.026208e-04 -6.752218e-04 -8.481049e-04 -8.564598e-04
<VARIANCE> 39
 6.555533e+01 9.447430e+01 8.247615e+01 7.216943e+01 6.320332e+01 6.703423e+01 5.408260e+01 9.180781e+01 6.949444e+01 1.083419e+02 5.610213e+01 4.510988e+01 1.516074e+02 3.315702e+00 3.009490e+00 4.303542e+00 3.344780e+00 3.736877e+00 4.115880e+00 3.582441e+00 3.867862e+00 4.253813e+00 4.873307e+00 2.949770e+00 2.764075e+00 2.507631e+00 4.918717e-01 3.995081e-01 6.684682e-01 5.529770e-01 6.173857e-01 7.319671e-01 6.234416e-01 6.594285e-01 7.284790e-01 7.593409e-01 5.007720e-01 4.948074e-01 3.226201e-01
<GCONST> 1.367003e+02
<STATE> 3
<MEAN> 39
 -8.837668e+00 -4.634879e+00 -5.139858e+00 -1.080520e+01 -4.725881e+00 -1.131146e+01 -6.619244e+00 -1.078740e+01 -3.652506e+00 -1.146592e+01 -2.973909e+00 -6.820525e+00 6.542313e+01 3.936675e-03 4.159336e-03 3.985936e-03 -1.512946e-03 1.084303e-03 2.393049e-03 -1.145922e-03 -1.663914e-02 -5.075945e-03 9.826075e-04 -1.601237e-03 1.259639e-03 2.834626e-03 2.236322e-04 7.660557e-04 -3.073169e-04 -1.918842e-04 -7.176076e-04 1.579065e-03 6.787786e-04 -1.882156e-04 8.992801e-04 7.026208e-04 -6.752218e-04 -8.481049e-04 -8.564598e-04
<VARIANCE> 39
 6.555533e+01 9.447430e+01 8.247615e+01 7.216943e+01 6.320332e+01 6.703423e+01 5.408260e+01 9.180781e+01 6.949444e+01 1.083419e+02 5.610213e+01 4.510988e+01 1.516074e+02 3.315702e+00 3.009490e+00 4.303542e+00 3.344780e+00 3.736877e+00 4.115880e+00 3.582441e+00 3.867862e+00 4.253813e+00 4.873307e+00 2.949770e+00 2.764075e+00 2.507631e+00 4.918717e-01 3.995081e-01 6.684682e-01 5.529770e-01 6.173857e-01 7.319671e-01 6.234416e-01 6.594285e-01 7.284790e-01 7.593409e-01 5.007720e-01 4.948074e-01 3.226201e-01
<GCONST> 1.367003e+02
<STATE> 4
<MEAN> 39
 -8.837668e+00 -4.634879e+00 -5.139858e+00 -1.080520e+01 -4.725881e+00 -1.131146e+01 -6.619244e+00 -1.078740e+01 -3.652506e+00 -1.146592e+01 -2.973909e+00 -6.820525e+00 6.542313e+01 3.936675e-03 4.159336e-03 3.985936e-03 -1.512946e-03 1.084303e-03 2.393049e-03 -1.145922e-03 -1.663914e-02 -5.075945e-03 9.826075e-04 -1.601237e-03 1.259639e-03 2.834626e-03 2.236322e-04 7.660557e-04 -3.073169e-04 -1.918842e-04 -7.176076e-04 1.579065e-03 6.787786e-04 -1.882156e-04 8.992801e-04 7.026208e-04 -6.752218e-04 -8.481049e-04 -8.564598e-04
<VARIANCE> 39
 6.555533e+01 9.447430e+01 8.247615e+01 7.216943e+01 6.320332e+01 6.703423e+01 5.408260e+01 9.180781e+01 6.949444e+01 1.083419e+02 5.610213e+01 4.510988e+01 1.516074e+02 3.315702e+00 3.009490e+00 4.303542e+00 3.344780e+00 3.736877e+00 4.115880e+00 3.582441e+00 3.867862e+00 4.253813e+00 4.873307e+00 2.949770e+00 2.764075e+00 2.507631e+00 4.918717e-01 3.995081e-01 6.684682e-01 5.529770e-01 6.173857e-01 7.319671e-01 6.234416e-01 6.594285e-01 7.284790e-01 7.593409e-01 5.007720e-01 4.948074e-01 3.226201e-01
<GCONST> 1.367003e+02
<TRANSP> 5
 0.000000e+00 1.000000e+00 0.000000e+00 0.000000e+00 0.000000e+00
 0.000000e+00 6.000000e-01 4.000000e-01 0.000000e+00 0.000000e+00
 0.000000e+00 0.000000e+00 6.000000e-01 4.000000e-01 0.000000e+00
 0.000000e+00 0.000000e+00 0.000000e+00 7.000000e-01 3.000000e-01
 0.000000e+00 0.000000e+00 0.000000e+00 0.000000e+00 0.000000e+00
<ENDHMM>

~h"l"
<BEGINHMM>
<NUMSTATES> 5
<STATE> 2
<MEAN> 39
 -8.837668e+00 -4.634879e+00 -5.139858e+00 -1.080520e+01 -4.725881e+00 -1.131146e+01 -6.619244e+00 -1.078740e+01 -3.652506e+00 -1.146592e+01 -2.973909e+00 -6.820525e+00 6.542313e+01 3.936675e-03 4.159336e-03 3.985936e-03 -1.512946e-03 1.084303e-03 2.393049e-03 -1.145922e-03 -1.663914e-02 -5.075945e-03 9.826075e-04 -1.601237e-03 1.259639e-03 2.834626e-03 2.236322e-04 7.660557e-04 -3.073169e-04 -1.918842e-04 -7.176076e-04 1.579065e-03 6.787786e-04 -1.882156e-04 8.992801e-04 7.026208e-04 -6.752218e-04 -8.481049e-04 -8.564598e-04
<VARIANCE> 39
 6.555533e+01 9.447430e+01 8.247615e+01 7.216943e+01 6.320332e+01 6.703423e+01 5.408260e+01 9.180781e+01 6.949444e+01 1.083419e+02 5.610213e+01 4.510988e+01 1.516074e+02 3.315702e+00 3.009490e+00 4.303542e+00 3.344780e+00 3.736877e+00 4.115880e+00 3.582441e+00 3.867862e+00 4.253813e+00 4.873307e+00 2.949770e+00 2.764075e+00 2.507631e+00 4.918717e-01 3.995081e-01 6.684682e-01 5.529770e-01 6.173857e-01 7.319671e-01 6.234416e-01 6.594285e-01 7.284790e-01 7.593409e-01 5.007720e-01 4.948074e-01 3.226201e-01
<GCONST> 1.367003e+02
<STATE> 3
<MEAN> 39
 -8.837668e+00 -4.634879e+00 -5.139858e+00 -1.080520e+01 -4.725881e+00 -1.131146e+01 -6.619244e+00 -1.078740e+01 -3.652506e+00 -1.146592e+01 -2.973909e+00 -6.820525e+00 6.542313e+01 3.936675e-03 4.159336e-03 3.985936e-03 -1.512946e-03 1.084303e-03 2.393049e-03 -1.145922e-03 -1.663914e-02 -5.075945e-03 9.826075e-04 -1.601237e-03 1.259639e-03 2.834626e-03 2.236322e-04 7.660557e-04 -3.073169e-04 -1.918842e-04 -7.176076e-04 1.579065e-03 6.787786e-04 -1.882156e-04 8.992801e-04 7.026208e-04 -6.752218e-04 -8.481049e-04 -8.564598e-04
<VARIANCE> 39
 6.555533e+01 9.447430e+01 8.247615e+01 7.216943e+01 6.320332e+01 6.703423e+01 5.408260e+01 9.180781e+01 6.949444e+01 1.083419e+02 5.610213e+01 4.510988e+01 1.516074e+02 3.315702e+00 3.009490e+00 4.303542e+00 3.344780e+00 3.736877e+00 4.115880e+00 3.582441e+00 3.867862e+00 4.253813e+00 4.873307e+00 2.949770e+00 2.764075e+00 2.507631e+00 4.918717e-01 3.995081e-01 6.684682e-01 5.529770e-01 6.173857e-01 7.319671e-01 6.234416e-01 6.594285e-01 7.284790e-01 7.593409e-01 5.007720e-01 4.948074e-01 3.226201e-01
<GCONST> 1.367003e+02
<STATE> 4
<MEAN> 39
 -8.837668e+00 -4.634879e+00 -5.139858e+00 -1.080520e+01 -4.725881e+00 -1.131146e+01 -6.619244e+00 -1.078740e+01 -3.652506e+00 -1.146592e+01 -2.973909e+00 -6.820525e+00 6.542313e+01 3.936675e-03 4.159336e-03 3.985936e-03 -1.512946e-03 1.084303e-03 2.393049e-03 -1.145922e-03 -1.663914e-02 -5.075945e-03 9.826075e-04 -1.601237e-03 1.259639e-03 2.834626e-03 2.236322e-04 7.660557e-04 -3.073169e-04 -1.918842e-04 -7.176076e-04 1.579065e-03 6.787786e-04 -1.882156e-04 8.992801e-04 7.026208e-04 -6.752218e-04 -8.481049e-04 -8.564598e-04
<VARIANCE> 39
 6.555533e+01 9.447430e+01 8.247615e+01 7.216943e+01 6.320332e+01 6.703423e+01 5.408260e+01 9.180781e+01 6.949444e+01 1.083419e+02 5.610213e+01 4.510988e+01 1.516074e+02 3.315702e+00 3.009490e+00 4.303542e+00 3.344780e+00 3.736877e+00 4.115880e+00 3.582441e+00 3.867862e+00 4.253813e+00 4.873307e+00 2.949770e+00 2.764075e+00 2.507631e+00 4.918717e-01 3.995081e-01 6.684682e-01 5.529770e-01 6.173857e-01 7.319671e-01 6.234416e-01 6.594285e-01 7.284790e-01 7.593409e-01 5.007720e-01 4.948074e-01 3.226201e-01
<GCONST> 1.367003e+02
<TRANSP> 5
 0.000000e+00 1.000000e+00 0.000000e+00 0.000000e+00 0.000000e+00
 0.000000e+00 6.000000e-01 4.000000e-01 0.000000e+00 0.000000e+00
 0.000000e+00 0.000000e+00 6.000000e-01 4.000000e-01 0.000000e+00
 0.000000e+00 0.000000e+00 0.000000e+00 7.000000e-01 3.000000e-01
 0.000000e+00 0.000000e+00 0.000000e+00 0.000000e+00 0.000000e+00
<ENDHMM>

~h"shi"
<BEGINHMM>
<NUMSTATES> 5
<STATE> 2
<MEAN> 39
 -8.837668e+00 -4.634879e+00 -5.139858e+00 -1.080520e+01 -4.725881e+00 -1.131146e+01 -6.619244e+00 -1.078740e+01 -3.652506e+00 -1.146592e+01 -2.973909e+00 -6.820525e+00 6.542313e+01 3.936675e-03 4.159336e-03 3.985936e-03 -1.512946e-03 1.084303e-03 2.393049e-03 -1.145922e-03 -1.663914e-02 -5.075945e-03 9.826075e-04 -1.601237e-03 1.259639e-03 2.834626e-03 2.236322e-04 7.660557e-04 -3.073169e-04 -1.918842e-04 -7.176076e-04 1.579065e-03 6.787786e-04 -1.882156e-04 8.992801e-04 7.026208e-04 -6.752218e-04 -8.481049e-04 -8.564598e-04
<VARIANCE> 39
 6.555533e+01 9.447430e+01 8.247615e+01 7.216943e+01 6.320332e+01 6.703423e+01 5.408260e+01 9.180781e+01 6.949444e+01 1.083419e+02 5.610213e+01 4.510988e+01 1.516074e+02 3.315702e+00 3.009490e+00 4.303542e+00 3.344780e+00 3.736877e+00 4.115880e+00 3.582441e+00 3.867862e+00 4.253813e+00 4.873307e+00 2.949770e+00 2.764075e+00 2.507631e+00 4.918717e-01 3.995081e-01 6.684682e-01 5.529770e-01 6.173857e-01 7.319671e-01 6.234416e-01 6.594285e-01 7.284790e-01 7.593409e-01 5.007720e-01 4.948074e-01 3.226201e-01
<GCONST> 1.367003e+02
<STATE> 3
<MEAN> 39
 -8.837668e+00 -4.634879e+00 -5.139858e+00 -1.080520e+01 -4.725881e+00 -1.131146e+01 -6.619244e+00 -1.078740e+01 -3.652506e+00 -1.146592e+01 -2.973909e+00 -6.820525e+00 6.542313e+01 3.936675e-03 4.159336e-03 3.985936e-03 -1.512946e-03 1.084303e-03 2.393049e-03 -1.145922e-03 -1.663914e-02 -5.075945e-03 9.826075e-04 -1.601237e-03 1.259639e-03 2.834626e-03 2.236322e-04 7.660557e-04 -3.073169e-04 -1.918842e-04 -7.176076e-04 1.579065e-03 6.787786e-04 -1.882156e-04 8.992801e-04 7.026208e-04 -6.752218e-04 -8.481049e-04 -8.564598e-04
<VARIANCE> 39
 6.555533e+01 9.447430e+01 8.247615e+01 7.216943e+01 6.320332e+01 6.703423e+01 5.408260e+01 9.180781e+01 6.949444e+01 1.083419e+02 5.610213e+01 4.510988e+01 1.516074e+02 3.315702e+00 3.009490e+00 4.303542e+00 3.344780e+00 3.736877e+00 4.115880e+00 3.582441e+00 3.867862e+00 4.253813e+00 4.873307e+00 2.949770e+00 2.764075e+00 2.507631e+00 4.918717e-01 3.995081e-01 6.684682e-01 5.529770e-01 6.173857e-01 7.319671e-01 6.234416e-01 6.594285e-01 7.284790e-01 7.593409e-01 5.007720e-01 4.948074e-01 3.226201e-01
<GCONST> 1.367003e+02
<STATE> 4
<MEAN> 39
 -8.837668e+00 -4.634879e+00 -5.139858e+00 -1.080520e+01 -4.725881e+00 -1.131146e+01 -6.619244e+00 -1.078740e+01 -3.652506e+00 -1.146592e+01 -2.973909e+00 -6.820525e+00 6.542313e+01 3.936675e-03 4.159336e-03 3.985936e-03 -1.512946e-03 1.084303e-03 2.393049e-03 -1.145922e-03 -1.663914e-02 -5.075945e-03 9.826075e-04 -1.601237e-03 1.259639e-03 2.834626e-03 2.236322e-04 7.660557e-04 -3.073169e-04 -1.918842e-04 -7.176076e-04 1.579065e-03 6.787786e-04 -1.882156e-04 8.992801e-04 7.026208e-04 -6.752218e-04 -8.481049e-04 -8.564598e-04
<VARIANCE> 39
 6.555533e+01 9.447430e+01 8.247615e+01 7.216943e+01 6.320332e+01 6.703423e+01 5.408260e+01 9.180781e+01 6.949444e+01 1.083419e+02 5.610213e+01 4.510988e+01 1.516074e+02 3.315702e+00 3.009490e+00 4.303542e+00 3.344780e+00 3.736877e+00 4.115880e+00 3.582441e+00 3.867862e+00 4.253813e+00 4.873307e+00 2.949770e+00 2.764075e+00 2.507631e+00 4.918717e-01 3.995081e-01 6.684682e-01 5.529770e-01 6.173857e-01 7.319671e-01 6.234416e-01 6.594285e-01 7.284790e-01 7.593409e-01 5.007720e-01 4.948074e-01 3.226201e-01
<GCONST> 1.367003e+02
<TRANSP> 5
 0.000000e+00 1.000000e+00 0.000000e+00 0.000000e+00 0.000000e+00
 0.000000e+00 6.000000e-01 4.000000e-01 0.000000e+00 0.000000e+00
 0.000000e+00 0.000000e+00 6.000000e-01 4.000000e-01 0.000000e+00
 0.000000e+00 0.000000e+00 0.000000e+00 7.000000e-01 3.000000e-01
 0.000000e+00 0.000000e+00 0.000000e+00 0.000000e+00 0.000000e+00
<ENDHMM>

~h"si"
<BEGINHMM>
<NUMSTATES> 5
<STATE> 2
<MEAN> 39
 -8.837668e+00 -4.634879e+00 -5.139858e+00 -1.080520e+01 -4.725881e+00 -1.131146e+01 -6.619244e+00 -1.078740e+01 -3.652506e+00 -1.146592e+01 -2.973909e+00 -6.820525e+00 6.542313e+01 3.936675e-03 4.159336e-03 3.985936e-03 -1.512946e-03 1.084303e-03 2.393049e-03 -1.145922e-03 -1.663914e-02 -5.075945e-03 9.826075e-04 -1.601237e-03 1.259639e-03 2.834626e-03 2.236322e-04 7.660557e-04 -3.073169e-04 -1.918842e-04 -7.176076e-04 1.579065e-03 6.787786e-04 -1.882156e-04 8.992801e-04 7.026208e-04 -6.752218e-04 -8.481049e-04 -8.564598e-04
<VARIANCE> 39
 6.555533e+01 9.447430e+01 8.247615e+01 7.216943e+01 6.320332e+01 6.703423e+01 5.408260e+01 9.180781e+01 6.949444e+01 1.083419e+02 5.610213e+01 4.510988e+01 1.516074e+02 3.315702e+00 3.009490e+00 4.303542e+00 3.344780e+00 3.736877e+00 4.115880e+00 3.582441e+00 3.867862e+00 4.253813e+00 4.873307e+00 2.949770e+00 2.764075e+00 2.507631e+00 4.918717e-01 3.995081e-01 6.684682e-01 5.529770e-01 6.173857e-01 7.319671e-01 6.234416e-01 6.594285e-01 7.284790e-01 7.593409e-01 5.007720e-01 4.948074e-01 3.226201e-01
<GCONST> 1.367003e+02
<STATE> 3
<MEAN> 39
 -8.837668e+00 -4.634879e+00 -5.139858e+00 -1.080520e+01 -4.725881e+00 -1.131146e+01 -6.619244e+00 -1.078740e+01 -3.652506e+00 -1.146592e+01 -2.973909e+00 -6.820525e+00 6.542313e+01 3.936675e-03 4.159336e-03 3.985936e-03 -1.512946e-03 1.084303e-03 2.393049e-03 -1.145922e-03 -1.663914e-02 -5.075945e-03 9.826075e-04 -1.601237e-03 1.259639e-03 2.834626e-03 2.236322e-04 7.660557e-04 -3.073169e-04 -1.918842e-04 -7.176076e-04 1.579065e-03 6.787786e-04 -1.882156e-04 8.992801e-04 7.026208e-04 -6.752218e-04 -8.481049e-04 -8.564598e-04
<VARIANCE> 39
 6.555533e+01 9.447430e+01 8.247615e+01 7.216943e+01 6.320332e+01 6.703423e+01 5.408260e+01 9.180781e+01 6.949444e+01 1.083419e+02 5.610213e+01 4.510988e+01 1.516074e+02 3.315702e+00 3.009490e+00 4.303542e+00 3.344780e+00 3.736877e+00 4.115880e+00 3.582441e+00 3.867862e+00 4.253813e+00 4.873307e+00 2.949770e+00 2.764075e+00 2.507631e+00 4.918717e-01 3.995081e-01 6.684682e-01 5.529770e-01 6.173857e-01 7.319671e-01 6.234416e-01 6.594285e-01 7.284790e-01 7.593409e-01 5.007720e-01 4.948074e-01 3.226201e-01
<GCONST> 1.367003e+02
<STATE> 4
<MEAN> 39
 -8.837668e+00 -4.634879e+00 -5.139858e+00 -1.080520e+01 -4.725881e+00 -1.131146e+01 -6.619244e+00 -1.078740e+01 -3.652506e+00 -1.146592e+01 -2.973909e+00 -6.820525e+00 6.542313e+01 3.936675e-03 4.159336e-03 3.985936e-03 -1.512946e-03 1.084303e-03 2.393049e-03 -1.145922e-03 -1.663914e-02 -5.075945e-03 9.826075e-04 -1.601237e-03 1.259639e-03 2.834626e-03 2.236322e-04 7.660557e-04 -3.073169e-04 -1.918842e-04 -7.176076e-04 1.579065e-03 6.787786e-04 -1.882156e-04 8.992801e-04 7.026208e-04 -6.752218e-04 -8.481049e-04 -8.564598e-04
<VARIANCE> 39
 6.555533e+01 9.447430e+01 8.247615e+01 7.216943e+01 6.320332e+01 6.703423e+01 5.408260e+01 9.180781e+01 6.949444e+01 1.083419e+02 5.610213e+01 4.510988e+01 1.516074e+02 3.315702e+00 3.009490e+00 4.303542e+00 3.344780e+00 3.736877e+00 4.115880e+00 3.582441e+00 3.867862e+00 4.253813e+00 4.873307e+00 2.949770e+00 2.764075e+00 2.507631e+00 4.918717e-01 3.995081e-01 6.684682e-01 5.529770e-01 6.173857e-01 7.319671e-01 6.234416e-01 6.594285e-01 7.284790e-01 7.593409e-01 5.007720e-01 4.948074e-01 3.226201e-01
<GCONST> 1.367003e+02
<TRANSP> 5
 0.000000e+00 1.000000e+00 0.000000e+00 0.000000e+00 0.000000e+00
 0.000000e+00 6.000000e-01 4.000000e-01 0.000000e+00 0.000000e+00
 0.000000e+00 0.000000e+00 6.000000e-01 4.000000e-01 0.000000e+00
 0.000000e+00 0.000000e+00 0.000000e+00 7.000000e-01 3.000000e-01
 0.000000e+00 0.000000e+00 0.000000e+00 0.000000e+00 0.000000e+00
<ENDHMM>

~h"n"
<BEGINHMM>
<NUMSTATES> 5
<STATE> 2
<MEAN> 39
 -8.837668e+00 -4.634879e+00 -5.139858e+00 -1.080520e+01 -4.725881e+00 -1.131146e+01 -6.619244e+00 -1.078740e+01 -3.652506e+00 -1.146592e+01 -2.973909e+00 -6.820525e+00 6.542313e+01 3.936675e-03 4.159336e-03 3.985936e-03 -1.512946e-03 1.084303e-03 2.393049e-03 -1.145922e-03 -1.663914e-02 -5.075945e-03 9.826075e-04 -1.601237e-03 1.259639e-03 2.834626e-03 2.236322e-04 7.660557e-04 -3.073169e-04 -1.918842e-04 -7.176076e-04 1.579065e-03 6.787786e-04 -1.882156e-04 8.992801e-04 7.026208e-04 -6.752218e-04 -8.481049e-04 -8.564598e-04
<VARIANCE> 39
 6.555533e+01 9.447430e+01 8.247615e+01 7.216943e+01 6.320332e+01 6.703423e+01 5.408260e+01 9.180781e+01 6.949444e+01 1.083419e+02 5.610213e+01 4.510988e+01 1.516074e+02 3.315702e+00 3.009490e+00 4.303542e+00 3.344780e+00 3.736877e+00 4.115880e+00 3.582441e+00 3.867862e+00 4.253813e+00 4.873307e+00 2.949770e+00 2.764075e+00 2.507631e+00 4.918717e-01 3.995081e-01 6.684682e-01 5.529770e-01 6.173857e-01 7.319671e-01 6.234416e-01 6.594285e-01 7.284790e-01 7.593409e-01 5.007720e-01 4.948074e-01 3.226201e-01
<GCONST> 1.367003e+02
<STATE> 3
<MEAN> 39
 -8.837668e+00 -4.634879e+00 -5.139858e+00 -1.080520e+01 -4.725881e+00 -1.131146e+01 -6.619244e+00 -1.078740e+01 -3.652506e+00 -1.146592e+01 -2.973909e+00 -6.820525e+00 6.542313e+01 3.936675e-03 4.159336e-03 3.985936e-03 -1.512946e-03 1.084303e-03 2.393049e-03 -1.145922e-03 -1.663914e-02 -5.075945e-03 9.826075e-04 -1.601237e-03 1.259639e-03 2.834626e-03 2.236322e-04 7.660557e-04 -3.073169e-04 -1.918842e-04 -7.176076e-04 1.579065e-03 6.787786e-04 -1.882156e-04 8.992801e-04 7.026208e-04 -6.752218e-04 -8.481049e-04 -8.564598e-04
<VARIANCE> 39
 6.555533e+01 9.447430e+01 8.247615e+01 7.216943e+01 6.320332e+01 6.703423e+01 5.408260e+01 9.180781e+01 6.949444e+01 1.083419e+02 5.610213e+01 4.510988e+01 1.516074e+02 3.315702e+00 3.009490e+00 4.303542e+00 3.344780e+00 3.736877e+00 4.115880e+00 3.582441e+00 3.867862e+00 4.253813e+00 4.873307e+00 2.949770e+00 2.764075e+00 2.507631e+00 4.918717e-01 3.995081e-01 6.684682e-01 5.529770e-01 6.173857e-01 7.319671e-01 6.234416e-01 6.594285e-01 7.284790e-01 7.593409e-01 5.007720e-01 4.948074e-01 3.226201e-01
<GCONST> 1.367003e+02
<STATE> 4
<MEAN> 39
 -8.837668e+00 -4.634879e+00 -5.139858e+00 -1.080520e+01 -4.725881e+00 -1.131146e+01 -6.619244e+00 -1.078740e+01 -3.652506e+00 -1.146592e+01 -2.973909e+00 -6.820525e+00 6.542313e+01 3.936675e-03 4.159336e-03 3.985936e-03 -1.512946e-03 1.084303e-03 2.393049e-03 -1.145922e-03 -1.663914e-02 -5.075945e-03 9.826075e-04 -1.601237e-03 1.259639e-03 2.834626e-03 2.236322e-04 7.660557e-04 -3.073169e-04 -1.918842e-04 -7.176076e-04 1.579065e-03 6.787786e-04 -1.882156e-04 8.992801e-04 7.026208e-04 -6.752218e-04 -8.481049e-04 -8.564598e-04
<VARIANCE> 39
 6.555533e+01 9.447430e+01 8.247615e+01 7.216943e+01 6.320332e+01 6.703423e+01 5.408260e+01 9.180781e+01 6.949444e+01 1.083419e+02 5.610213e+01 4.510988e+01 1.516074e+02 3.315702e+00 3.009490e+00 4.303542e+00 3.344780e+00 3.736877e+00 4.115880e+00 3.582441e+00 3.867862e+00 4.253813e+00 4.873307e+00 2.949770e+00 2.764075e+00 2.507631e+00 4.918717e-01 3.995081e-01 6.684682e-01 5.529770e-01 6.173857e-01 7.319671e-01 6.234416e-01 6.594285e-01 7.284790e-01 7.593409e-01 5.007720e-01 4.948074e-01 3.226201e-01
<GCONST> 1.367003e+02
<TRANSP> 5
 0.000000e+00 1.000000e+00 0.000000e+00 0.000000e+00 0.000000e+00
 0.000000e+00 6.000000e-01 4.000000e-01 0.000000e+00 0.000000e+00
 0.000000e+00 0.000000e+00 6.000000e-01 4.000000e-01 0.000000e+00
 0.000000e+00 0.000000e+00 0.000000e+00 7.000000e-01 3.000000e-01
 0.000000e+00 0.000000e+00 0.000000e+00 0.000000e+00 0.000000e+00
<ENDHMM>

~h"ai"
<BEGINHMM>
<NUMSTATES> 5
<STATE> 2
<MEAN> 39
 -8.837668e+00 -4.634879e+00 -5.139858e+00 -1.080520e+01 -4.725881e+00 -1.131146e+01 -6.619244e+00 -1.078740e+01 -3.652506e+00 -1.146592e+01 -2.973909e+00 -6.820525e+00 6.542313e+01 3.936675e-03 4.159336e-03 3.985936e-03 -1.512946e-03 1.084303e-03 2.393049e-03 -1.145922e-03 -1.663914e-02 -5.075945e-03 9.826075e-04 -1.601237e-03 1.259639e-03 2.834626e-03 2.236322e-04 7.660557e-04 -3.073169e-04 -1.918842e-04 -7.176076e-04 1.579065e-03 6.787786e-04 -1.882156e-04 8.992801e-04 7.026208e-04 -6.752218e-04 -8.481049e-04 -8.564598e-04
<VARIANCE> 39
 6.555533e+01 9.447430e+01 8.247615e+01 7.216943e+01 6.320332e+01 6.703423e+01 5.408260e+01 9.180781e+01 6.949444e+01 1.083419e+02 5.610213e+01 4.510988e+01 1.516074e+02 3.315702e+00 3.009490e+00 4.303542e+00 3.344780e+00 3.736877e+00 4.115880e+00 3.582441e+00 3.867862e+00 4.253813e+00 4.873307e+00 2.949770e+00 2.764075e+00 2.507631e+00 4.918717e-01 3.995081e-01 6.684682e-01 5.529770e-01 6.173857e-01 7.319671e-01 6.234416e-01 6.594285e-01 7.284790e-01 7.593409e-01 5.007720e-01 4.948074e-01 3.226201e-01
<GCONST> 1.367003e+02
<STATE> 3
<MEAN> 39
 -8.837668e+00 -4.634879e+00 -5.139858e+00 -1.080520e+01 -4.725881e+00 -1.131146e+01 -6.619244e+00 -1.078740e+01 -3.652506e+00 -1.146592e+01 -2.973909e+00 -6.820525e+00 6.542313e+01 3.936675e-03 4.159336e-03 3.985936e-03 -1.512946e-03 1.084303e-03 2.393049e-03 -1.145922e-03 -1.663914e-02 -5.075945e-03 9.826075e-04 -1.601237e-03 1.259639e-03 2.834626e-03 2.236322e-04 7.660557e-04 -3.073169e-04 -1.918842e-04 -7.176076e-04 1.579065e-03 6.787786e-04 -1.882156e-04 8.992801e-04 7.026208e-04 -6.752218e-04 -8.481049e-04 -8.564598e-04
<VARIANCE> 39
 6.555533e+01 9.447430e+01 8.247615e+01 7.216943e+01 6.320332e+01 6.703423e+01 5.408260e+01 9.180781e+01 6.949444e+01 1.083419e+02 5.610213e+01 4.510988e+01 1.516074e+02 3.315702e+00 3.009490e+00 4.303542e+00 3.344780e+00 3.736877e+00 4.115880e+00 3.582441e+00 3.867862e+00 4.253813e+00 4.873307e+00 2.949770e+00 2.764075e+00 2.507631e+00 4.918717e-01 3.995081e-01 6.684682e-01 5.529770e-01 6.173857e-01 7.319671e-01 6.234416e-01 6.594285e-01 7.284790e-01 7.593409e-01 5.007720e-01 4.948074e-01 3.226201e-01
<GCONST> 1.367003e+02
<STATE> 4
<MEAN> 39
 -8.837668e+00 -4.634879e+00 -5.139858e+00 -1.080520e+01 -4.725881e+00 -1.131146e+01 -6.619244e+00 -1.078740e+01 -3.652506e+00 -1.146592e+01 -2.973909e+00 -6.820525e+00 6.542313e+01 3.936675e-03 4.159336e-03 3.985936e-03 -1.512946e-03 1.084303e-03 2.393049e-03 -1.145922e-03 -1.663914e-02 -5.075945e-03 9.826075e-04 -1.601237e-03 1.259639e-03 2.834626e-03 2.236322e-04 7.660557e-04 -3.073169e-04 -1.918842e-04 -7.176076e-04 1.579065e-03 6.787786e-04 -1.882156e-04 8.992801e-04 7.026208e-04 -6.752218e-04 -8.481049e-04 -8.564598e-04
<VARIANCE> 39
 6.555533e+01 9.447430e+01 8.247615e+01 7.216943e+01 6.320332e+01 6.703423e+01 5.408260e+01 9.180781e+01 6.949444e+01 1.083419e+02 5.610213e+01 4.510988e+01 1.516074e+02 3.315702e+00 3.009490e+00 4.303542e+00 3.344780e+00 3.736877e+00 4.115880e+00 3.582441e+00 3.867862e+00 4.253813e+00 4.873307e+00 2.949770e+00 2.764075e+00 2.507631e+00 4.918717e-01 3.995081e-01 6.684682e-01 5.529770e-01 6.173857e-01 7.319671e-01 6.234416e-01 6.594285e-01 7.284790e-01 7.593409e-01 5.007720e-01 4.948074e-01 3.226201e-01
<GCONST> 1.367003e+02
<TRANSP> 5
 0.000000e+00 1.000000e+00 0.000000e+00 0.000000e+00 0.000000e+00
 0.000000e+00 6.000000e-01 4.000000e-01 0.000000e+00 0.000000e+00
 0.000000e+00 0.000000e+00 6.000000e-01 4.000000e-01 0.000000e+00
 0.000000e+00 0.000000e+00 0.000000e+00 7.000000e-01 3.000000e-01
 0.000000e+00 0.000000e+00 0.000000e+00 0.000000e+00 0.000000e+00
<ENDHMM>

~h"w"
<BEGINHMM>
<NUMSTATES> 5
<STATE> 2
<MEAN> 39
 -8.837668e+00 -4.634879e+00 -5.139858e+00 -1.080520e+01 -4.725881e+00 -1.131146e+01 -6.619244e+00 -1.078740e+01 -3.652506e+00 -1.146592e+01 -2.973909e+00 -6.820525e+00 6.542313e+01 3.936675e-03 4.159336e-03 3.985936e-03 -1.512946e-03 1.084303e-03 2.393049e-03 -1.145922e-03 -1.663914e-02 -5.075945e-03 9.826075e-04 -1.601237e-03 1.259639e-03 2.834626e-03 2.236322e-04 7.660557e-04 -3.073169e-04 -1.918842e-04 -7.176076e-04 1.579065e-03 6.787786e-04 -1.882156e-04 8.992801e-04 7.026208e-04 -6.752218e-04 -8.481049e-04 -8.564598e-04
<VARIANCE> 39
 6.555533e+01 9.447430e+01 8.247615e+01 7.216943e+01 6.320332e+01 6.703423e+01 5.408260e+01 9.180781e+01 6.949444e+01 1.083419e+02 5.610213e+01 4.510988e+01 1.516074e+02 3.315702e+00 3.009490e+00 4.303542e+00 3.344780e+00 3.736877e+00 4.115880e+00 3.582441e+00 3.867862e+00 4.253813e+00 4.873307e+00 2.949770e+00 2.764075e+00 2.507631e+00 4.918717e-01 3.995081e-01 6.684682e-01 5.529770e-01 6.173857e-01 7.319671e-01 6.234416e-01 6.594285e-01 7.284790e-01 7.593409e-01 5.007720e-01 4.948074e-01 3.226201e-01
<GCONST> 1.367003e+02
<STATE> 3
<MEAN> 39
 -8.837668e+00 -4.634879e+00 -5.139858e+00 -1.080520e+01 -4.725881e+00 -1.131146e+01 -6.619244e+00 -1.078740e+01 -3.652506e+00 -1.146592e+01 -2.973909e+00 -6.820525e+00 6.542313e+01 3.936675e-03 4.159336e-03 3.985936e-03 -1.512946e-03 1.084303e-03 2.393049e-03 -1.145922e-03 -1.663914e-02 -5.075945e-03 9.826075e-04 -1.601237e-03 1.259639e-03 2.834626e-03 2.236322e-04 7.660557e-04 -3.073169e-04 -1.918842e-04 -7.176076e-04 1.579065e-03 6.787786e-04 -1.882156e-04 8.992801e-04 7.026208e-04 -6.752218e-04 -8.481049e-04 -8.564598e-04
<VARIANCE> 39
 6.555533e+01 9.447430e+01 8.247615e+01 7.216943e+01 6.320332e+01 6.703423e+01 5.408260e+01 9.180781e+01 6.949444e+01 1.083419e+02 5.610213e+01 4.510988e+01 1.516074e+02 3.315702e+00 3.009490e+00 4.303542e+00 3.344780e+00 3.736877e+00 4.115880e+00 3.582441e+00 3.867862e+00 4.253813e+00 4.873307e+00 2.949770e+00 2.764075e+00 2.507631e+00 4.918717e-01 3.995081e-01 6.684682e-01 5.529770e-01 6.173857e-01 7.319671e-01 6.234416e-01 6.594285e-01 7.284790e-01 7.593409e-01 5.007720e-01 4.948074e-01 3.226201e-01
<GCONST> 1.367003e+02
<STATE> 4
<MEAN> 39
 -8.837668e+00 -4.634879e+00 -5.139858e+00 -1.080520e+01 -4.725881e+00 -1.131146e+01 -6.619244e+00 -1.078740e+01 -3.652506e+00 -1.146592e+01 -2.973909e+00 -6.820525e+00 6.542313e+01 3.936675e-03 4.159336e-03 3.985936e-03 -1.512946e-03 1.084303e-03 2.393049e-03 -1.145922e-03 -1.663914e-02 -5.075945e-03 9.826075e-04 -1.601237e-03 1.259639e-03 2.834626e-03 2.236322e-04 7.660557e-04 -3.073169e-04 -1.918842e-04 -7.176076e-04 1.579065e-03 6.787786e-04 -1.882156e-04 8.992801e-04 7.026208e-04 -6.752218e-04 -8.481049e-04 -8.564598e-04
<VARIANCE> 39
 6.555533e+01 9.447430e+01 8.247615e+01 7.216943e+01 6.320332e+01 6.703423e+01 5.408260e+01 9.180781e+01 6.949444e+01 1.083419e+02 5.610213e+01 4.510988e+01 1.516074e+02 3.315702e+00 3.009490e+00 4.303542e+00 3.344780e+00 3.736877e+00 4.115880e+00 3.582441e+00 3.867862e+00 4.253813e+00 4.873307e+00 2.949770e+00 2.764075e+00 2.507631e+00 4.918717e-01 3.995081e-01 6.684682e-01 5.529770e-01 6.173857e-01 7.319671e-01 6.234416e-01 6.594285e-01 7.284790e-01 7.593409e-01 5.007720e-01 4.948074e-01 3.226201e-01
<GCONST> 1.367003e+02
<TRANSP> 5
 0.000000e+00 1.000000e+00 0.000000e+00 0.000000e+00 0.000000e+00
 0.000000e+00 6.000000e-01 4.000000e-01 0.000000e+00 0.000000e+00
 0.000000e+00 0.000000e+00 6.000000e-01 4.000000e-01 0.000000e+00
 0.000000e+00 0.000000e+00 0.000000e+00 7.000000e-01 3.000000e-01
 0.000000e+00 0.000000e+00 0.000000e+00 0.000000e+00 0.000000e+00
<ENDHMM>

~h"o"
<BEGINHMM>
<NUMSTATES> 5
<STATE> 2
<MEAN> 39
 -8.837668e+00 -4.634879e+00 -5.139858e+00 -1.080520e+01 -4.725881e+00 -1.131146e+01 -6.619244e+00 -1.078740e+01 -3.652506e+00 -1.146592e+01 -2.973909e+00 -6.820525e+00 6.542313e+01 3.936675e-03 4.159336e-03 3.985936e-03 -1.512946e-03 1.084303e-03 2.393049e-03 -1.145922e-03 -1.663914e-02 -5.075945e-03 9.826075e-04 -1.601237e-03 1.259639e-03 2.834626e-03 2.236322e-04 7.660557e-04 -3.073169e-04 -1.918842e-04 -7.176076e-04 1.579065e-03 6.787786e-04 -1.882156e-04 8.992801e-04 7.026208e-04 -6.752218e-04 -8.481049e-04 -8.564598e-04
<VARIANCE> 39
 6.555533e+01 9.447430e+01 8.247615e+01 7.216943e+01 6.320332e+01 6.703423e+01 5.408260e+01 9.180781e+01 6.949444e+01 1.083419e+02 5.610213e+01 4.510988e+01 1.516074e+02 3.315702e+00 3.009490e+00 4.303542e+00 3.344780e+00 3.736877e+00 4.115880e+00 3.582441e+00 3.867862e+00 4.253813e+00 4.873307e+00 2.949770e+00 2.764075e+00 2.507631e+00 4.918717e-01 3.995081e-01 6.684682e-01 5.529770e-01 6.173857e-01 7.319671e-01 6.234416e-01 6.594285e-01 7.284790e-01 7.593409e-01 5.007720e-01 4.948074e-01 3.226201e-01
<GCONST> 1.367003e+02
<STATE> 3
<MEAN> 39
 -8.837668e+00 -4.634879e+00 -5.139858e+00 -1.080520e+01 -4.725881e+00 -1.131146e+01 -6.619244e+00 -1.078740e+01 -3.652506e+00 -1.146592e+01 -2.973909e+00 -6.820525e+00 6.542313e+01 3.936675e-03 4.159336e-03 3.985936e-03 -1.512946e-03 1.084303e-03 2.393049e-03 -1.145922e-03 -1.663914e-02 -5.075945e-03 9.826075e-04 -1.601237e-03 1.259639e-03 2.834626e-03 2.236322e-04 7.660557e-04 -3.073169e-04 -1.918842e-04 -7.176076e-04 1.579065e-03 6.787786e-04 -1.882156e-04 8.992801e-04 7.026208e-04 -6.752218e-04 -8.481049e-04 -8.564598e-04
<VARIANCE> 39
 6.555533e+01 9.447430e+01 8.247615e+01 7.216943e+01 6.320332e+01 6.703423e+01 5.408260e+01 9.180781e+01 6.949444e+01 1.083419e+02 5.610213e+01 4.510988e+01 1.516074e+02 3.315702e+00 3.009490e+00 4.303542e+00 3.344780e+00 3.736877e+00 4.115880e+00 3.582441e+00 3.867862e+00 4.253813e+00 4.873307e+00 2.949770e+00 2.764075e+00 2.507631e+00 4.918717e-01 3.995081e-01 6.684682e-01 5.529770e-01 6.173857e-01 7.319671e-01 6.234416e-01 6.594285e-01 7.284790e-01 7.593409e-01 5.007720e-01 4.948074e-01 3.226201e-01
<GCONST> 1.367003e+02
<STATE> 4
<MEAN> 39
 -8.837668e+00 -4.634879e+00 -5.139858e+00 -1.080520e+01 -4.725881e+00 -1.131146e+01 -6.619244e+00 -1.078740e+01 -3.652506e+00 -1.146592e+01 -2.973909e+00 -6.820525e+00 6.542313e+01 3.936675e-03 4.159336e-03 3.985936e-03 -1.512946e-03 1.084303e-03 2.393049e-03 -1.145922e-03 -1.663914e-02 -5.075945e-03 9.826075e-04 -1.601237e-03 1.259639e-03 2.834626e-03 2.236322e-04 7.660557e-04 -3.073169e-04 -1.918842e-04 -7.176076e-04 1.579065e-03 6.787786e-04 -1.882156e-04 8.992801e-04 7.026208e-04 -6.752218e-04 -8.481049e-04 -8.564598e-04
<VARIANCE> 39
 6.555533e+01 9.447430e+01 8.247615e+01 7.216943e+01 6.320332e+01 6.703423e+01 5.408260e+01 9.180781e+01 6.949444e+01 1.083419e+02 5.610213e+01 4.510988e+01 1.516074e+02 3.315702e+00 3.009490e+00 4.303542e+00 3.344780e+00 3.736877e+00 4.115880e+00 3.582441e+00 3.867862e+00 4.253813e+00 4.873307e+00 2.949770e+00 2.764075e+00 2.507631e+00 4.918717e-01 3.995081e-01 6.684682e-01 5.529770e-01 6.173857e-01 7.319671e-01 6.234416e-01 6.594285e-01 7.284790e-01 7.593409e-01 5.007720e-01 4.948074e-01 3.226201e-01
<GCONST> 1.367003e+02
<TRANSP> 5
 0.000000e+00 1.000000e+00 0.000000e+00 0.000000e+00 0.000000e+00
 0.000000e+00 6.000000e-01 4.000000e-01 0.000000e+00 0.000000e+00
 0.000000e+00 0.000000e+00 6.000000e-01 4.000000e-01 0.000000e+00
 0.000000e+00 0.000000e+00 0.000000e+00 7.000000e-01 3.000000e-01
 0.000000e+00 0.000000e+00 0.000000e+00 0.000000e+00 0.000000e+00
<ENDHMM>

~h"z"
<BEGINHMM>
<NUMSTATES> 5
<STATE> 2
<MEAN> 39
 -8.837668e+00 -4.634879e+00 -5.139858e+00 -1.080520e+01 -4.725881e+00 -1.131146e+01 -6.619244e+00 -1.078740e+01 -3.652506e+00 -1.146592e+01 -2.973909e+00 -6.820525e+00 6.542313e+01 3.936675e-03 4.159336e-03 3.985936e-03 -1.512946e-03 1.084303e-03 2.393049e-03 -1.145922e-03 -1.663914e-02 -5.075945e-03 9.826075e-04 -1.601237e-03 1.259639e-03 2.834626e-03 2.236322e-04 7.660557e-04 -3.073169e-04 -1.918842e-04 -7.176076e-04 1.579065e-03 6.787786e-04 -1.882156e-04 8.992801e-04 7.026208e-04 -6.752218e-04 -8.481049e-04 -8.564598e-04
<VARIANCE> 39
 6.555533e+01 9.447430e+01 8.247615e+01 7.216943e+01 6.320332e+01 6.703423e+01 5.408260e+01 9.180781e+01 6.949444e+01 1.083419e+02 5.610213e+01 4.510988e+01 1.516074e+02 3.315702e+00 3.009490e+00 4.303542e+00 3.344780e+00 3.736877e+00 4.115880e+00 3.582441e+00 3.867862e+00 4.253813e+00 4.873307e+00 2.949770e+00 2.764075e+00 2.507631e+00 4.918717e-01 3.995081e-01 6.684682e-01 5.529770e-01 6.173857e-01 7.319671e-01 6.234416e-01 6.594285e-01 7.284790e-01 7.593409e-01 5.007720e-01 4.948074e-01 3.226201e-01
<GCONST> 1.367003e+02
<STATE> 3
<MEAN> 39
 -8.837668e+00 -4.634879e+00 -5.139858e+00 -1.080520e+01 -4.725881e+00 -1.131146e+01 -6.619244e+00 -1.078740e+01 -3.652506e+00 -1.146592e+01 -2.973909e+00 -6.820525e+00 6.542313e+01 3.936675e-03 4.159336e-03 3.985936e-03 -1.512946e-03 1.084303e-03 2.393049e-03 -1.145922e-03 -1.663914e-02 -5.075945e-03 9.826075e-04 -1.601237e-03 1.259639e-03 2.834626e-03 2.236322e-04 7.660557e-04 -3.073169e-04 -1.918842e-04 -7.176076e-04 1.579065e-03 6.787786e-04 -1.882156e-04 8.992801e-04 7.026208e-04 -6.752218e-04 -8.481049e-04 -8.564598e-04
<VARIANCE> 39
 6.555533e+01 9.447430e+01 8.247615e+01 7.216943e+01 6.320332e+01 6.703423e+01 5.408260e+01 9.180781e+01 6.949444e+01 1.083419e+02 5.610213e+01 4.510988e+01 1.516074e+02 3.315702e+00 3.009490e+00 4.303542e+00 3.344780e+00 3.736877e+00 4.115880e+00 3.582441e+00 3.867862e+00 4.253813e+00 4.873307e+00 2.949770e+00 2.764075e+00 2.507631e+00 4.918717e-01 3.995081e-01 6.684682e-01 5.529770e-01 6.173857e-01 7.319671e-01 6.234416e-01 6.594285e-01 7.284790e-01 7.593409e-01 5.007720e-01 4.948074e-01 3.226201e-01
<GCONST> 1.367003e+02
<STATE> 4
<MEAN> 39
 -8.837668e+00 -4.634879e+00 -5.139858e+00 -1.080520e+01 -4.725881e+00 -1.131146e+01 -6.619244e+00 -1.078740e+01 -3.652506e+00 -1.146592e+01 -2.973909e+00 -6.820525e+00 6.542313e+01 3.936675e-03 4.159336e-03 3.985936e-03 -1.512946e-03 1.084303e-03 2.393049e-03 -1.145922e-03 -1.663914e-02 -5.075945e-03 9.826075e-04 -1.601237e-03 1.259639e-03 2.834626e-03 2.236322e-04 7.660557e-04 -3.073169e-04 -1.918842e-04 -7.176076e-04 1.579065e-03 6.787786e-04 -1.882156e-04 8.992801e-04 7.026208e-04 -6.752218e-04 -8.481049e-04 -8.564598e-04
<VARIANCE> 39
 6.555533e+01 9.447430e+01 8.247615e+01 7.216943e+01 6.320332e+01 6.703423e+01 5.408260e+01 9.180781e+01 6.949444e+01 1.083419e+02 5.610213e+01 4.510988e+01 1.516074e+02 3.315702e+00 3.009490e+00 4.303542e+00 3.344780e+00 3.736877e+00 4.115880e+00 3.582441e+00 3.867862e+00 4.253813e+00 4.873307e+00 2.949770e+00 2.764075e+00 2.507631e+00 4.918717e-01 3.995081e-01 6.684682e-01 5.529770e-01 6.173857e-01 7.319671e-01 6.234416e-01 6.594285e-01 7.284790e-01 7.593409e-01 5.007720e-01 4.948074e-01 3.226201e-01
<GCONST> 1.367003e+02
<TRANSP> 5
 0.000000e+00 1.000000e+00 0.000000e+00 0.000000e+00 0.000000e+00
 0.000000e+00 6.000000e-01 4.000000e-01 0.000000e+00 0.000000e+00
 0.000000e+00 0.000000e+00 6.000000e-01 4.000000e-01 0.000000e+00
 0.000000e+00 0.000000e+00 0.000000e+00 7.000000e-01 3.000000e-01
 0.000000e+00 0.000000e+00 0.000000e+00 0.000000e+00 0.000000e+00
<ENDHMM>

~h"ao"
<BEGINHMM>
<NUMSTATES> 5
<STATE> 2
<MEAN> 39
 -8.837668e+00 -4.634879e+00 -5.139858e+00 -1.080520e+01 -4.725881e+00 -1.131146e+01 -6.619244e+00 -1.078740e+01 -3.652506e+00 -1.146592e+01 -2.973909e+00 -6.820525e+00 6.542313e+01 3.936675e-03 4.159336e-03 3.985936e-03 -1.512946e-03 1.084303e-03 2.393049e-03 -1.145922e-03 -1.663914e-02 -5.075945e-03 9.826075e-04 -1.601237e-03 1.259639e-03 2.834626e-03 2.236322e-04 7.660557e-04 -3.073169e-04 -1.918842e-04 -7.176076e-04 1.579065e-03 6.787786e-04 -1.882156e-04 8.992801e-04 7.026208e-04 -6.752218e-04 -8.481049e-04 -8.564598e-04
<VARIANCE> 39
 6.555533e+01 9.447430e+01 8.247615e+01 7.216943e+01 6.320332e+01 6.703423e+01 5.408260e+01 9.180781e+01 6.949444e+01 1.083419e+02 5.610213e+01 4.510988e+01 1.516074e+02 3.315702e+00 3.009490e+00 4.303542e+00 3.344780e+00 3.736877e+00 4.115880e+00 3.582441e+00 3.867862e+00 4.253813e+00 4.873307e+00 2.949770e+00 2.764075e+00 2.507631e+00 4.918717e-01 3.995081e-01 6.684682e-01 5.529770e-01 6.173857e-01 7.319671e-01 6.234416e-01 6.594285e-01 7.284790e-01 7.593409e-01 5.007720e-01 4.948074e-01 3.226201e-01
<GCONST> 1.367003e+02
<STATE> 3
<MEAN> 39
 -8.837668e+00 -4.634879e+00 -5.139858e+00 -1.080520e+01 -4.725881e+00 -1.131146e+01 -6.619244e+00 -1.078740e+01 -3.652506e+00 -1.146592e+01 -2.973909e+00 -6.820525e+00 6.542313e+01 3.936675e-03 4.159336e-03 3.985936e-03 -1.512946e-03 1.084303e-03 2.393049e-03 -1.145922e-03 -1.663914e-02 -5.075945e-03 9.826075e-04 -1.601237e-03 1.259639e-03 2.834626e-03 2.236322e-04 7.660557e-04 -3.073169e-04 -1.918842e-04 -7.176076e-04 1.579065e-03 6.787786e-04 -1.882156e-04 8.992801e-04 7.026208e-04 -6.752218e-04 -8.481049e-04 -8.564598e-04
<VARIANCE> 39
 6.555533e+01 9.447430e+01 8.247615e+01 7.216943e+01 6.320332e+01 6.703423e+01 5.408260e+01 9.180781e+01 6.949444e+01 1.083419e+02 5.610213e+01 4.510988e+01 1.516074e+02 3.315702e+00 3.009490e+00 4.303542e+00 3.344780e+00 3.736877e+00 4.115880e+00 3.582441e+00 3.867862e+00 4.253813e+00 4.873307e+00 2.949770e+00 2.764075e+00 2.507631e+00 4.918717e-01 3.995081e-01 6.684682e-01 5.529770e-01 6.173857e-01 7.319671e-01 6.234416e-01 6.594285e-01 7.284790e-01 7.593409e-01 5.007720e-01 4.948074e-01 3.226201e-01
<GCONST> 1.367003e+02
<STATE> 4
<MEAN> 39
 -8.837668e+00 -4.634879e+00 -5.139858e+00 -1.080520e+01 -4.725881e+00 -1.131146e+01 -6.619244e+00 -1.078740e+01 -3.652506e+00 -1.146592e+01 -2.973909e+00 -6.820525e+00 6.542313e+01 3.936675e-03 4.159336e-03 3.985936e-03 -1.512946e-03 1.084303e-03 2.393049e-03 -1.145922e-03 -1.663914e-02 -5.075945e-03 9.826075e-04 -1.601237e-03 1.259639e-03 2.834626e-03 2.236322e-04 7.660557e-04 -3.073169e-04 -1.918842e-04 -7.176076e-04 1.579065e-03 6.787786e-04 -1.882156e-04 8.992801e-04 7.026208e-04 -6.752218e-04 -8.481049e-04 -8.564598e-04
<VARIANCE> 39
 6.555533e+01 9.447430e+01 8.247615e+01 7.216943e+01 6.320332e+01 6.703423e+01 5.408260e+01 9.180781e+01 6.949444e+01 1.083419e+02 5.610213e+01 4.510988e+01 1.516074e+02 3.315702e+00 3.009490e+00 4.303542e+00 3.344780e+00 3.736877e+00 4.115880e+00 3.582441e+00 3.867862e+00 4.253813e+00 4.873307e+00 2.949770e+00 2.764075e+00 2.507631e+00 4.918717e-01 3.995081e-01 6.684682e-01 5.529770e-01 6.173857e-01 7.319671e-01 6.234416e-01 6.594285e-01 7.284790e-01 7.593409e-01 5.007720e-01 4.948074e-01 3.226201e-01
<GCONST> 1.367003e+02
<TRANSP> 5
 0.000000e+00 1.000000e+00 0.000000e+00 0.000000e+00 0.000000e+00
 0.000000e+00 6.000000e-01 4.000000e-01 0.000000e+00 0.000000e+00
 0.000000e+00 0.000000e+00 6.000000e-01 4.000000e-01 0.000000e+00
 0.000000e+00 0.000000e+00 0.000000e+00 7.000000e-01 3.000000e-01
 0.000000e+00 0.000000e+00 0.000000e+00 0.000000e+00 0.000000e+00
<ENDHMM>

~h"h"
<BEGINHMM>
<NUMSTATES> 5
<STATE> 2
<MEAN> 39
 -8.837668e+00 -4.634879e+00 -5.139858e+00 -1.080520e+01 -4.725881e+00 -1.131146e+01 -6.619244e+00 -1.078740e+01 -3.652506e+00 -1.146592e+01 -2.973909e+00 -6.820525e+00 6.542313e+01 3.936675e-03 4.159336e-03 3.985936e-03 -1.512946e-03 1.084303e-03 2.393049e-03 -1.145922e-03 -1.663914e-02 -5.075945e-03 9.826075e-04 -1.601237e-03 1.259639e-03 2.834626e-03 2.236322e-04 7.660557e-04 -3.073169e-04 -1.918842e-04 -7.176076e-04 1.579065e-03 6.787786e-04 -1.882156e-04 8.992801e-04 7.026208e-04 -6.752218e-04 -8.481049e-04 -8.564598e-04
<VARIANCE> 39
 6.555533e+01 9.447430e+01 8.247615e+01 7.216943e+01 6.320332e+01 6.703423e+01 5.408260e+01 9.180781e+01 6.949444e+01 1.083419e+02 5.610213e+01 4.510988e+01 1.516074e+02 3.315702e+00 3.009490e+00 4.303542e+00 3.344780e+00 3.736877e+00 4.115880e+00 3.582441e+00 3.867862e+00 4.253813e+00 4.873307e+00 2.949770e+00 2.764075e+00 2.507631e+00 4.918717e-01 3.995081e-01 6.684682e-01 5.529770e-01 6.173857e-01 7.319671e-01 6.234416e-01 6.594285e-01 7.284790e-01 7.593409e-01 5.007720e-01 4.948074e-01 3.226201e-01
<GCONST> 1.367003e+02
<STATE> 3
<MEAN> 39
 -8.837668e+00 -4.634879e+00 -5.139858e+00 -1.080520e+01 -4.725881e+00 -1.131146e+01 -6.619244e+00 -1.078740e+01 -3.652506e+00 -1.146592e+01 -2.973909e+00 -6.820525e+00 6.542313e+01 3.936675e-03 4.159336e-03 3.985936e-03 -1.512946e-03 1.084303e-03 2.393049e-03 -1.145922e-03 -1.663914e-02 -5.075945e-03 9.826075e-04 -1.601237e-03 1.259639e-03 2.834626e-03 2.236322e-04 7.660557e-04 -3.073169e-04 -1.918842e-04 -7.176076e-04 1.579065e-03 6.787786e-04 -1.882156e-04 8.992801e-04 7.026208e-04 -6.752218e-04 -8.481049e-04 -8.564598e-04
<VARIANCE> 39
 6.555533e+01 9.447430e+01 8.247615e+01 7.216943e+01 6.320332e+01 6.703423e+01 5.408260e+01 9.180781e+01 6.949444e+01 1.083419e+02 5.610213e+01 4.510988e+01 1.516074e+02 3.315702e+00 3.009490e+00 4.303542e+00 3.344780e+00 3.736877e+00 4.115880e+00 3.582441e+00 3.867862e+00 4.253813e+00 4.873307e+00 2.949770e+00 2.764075e+00 2.507631e+00 4.918717e-01 3.995081e-01 6.684682e-01 5.529770e-01 6.173857e-01 7.319671e-01 6.234416e-01 6.594285e-01 7.284790e-01 7.593409e-01 5.007720e-01 4.948074e-01 3.226201e-01
<GCONST> 1.367003e+02
<STATE> 4
<MEAN> 39
 -8.837668e+00 -4.634879e+00 -5.139858e+00 -1.080520e+01 -4.725881e+00 -1.131146e+01 -6.619244e+00 -1.078740e+01 -3.652506e+00 -1.146592e+01 -2.973909e+00 -6.820525e+00 6.542313e+01 3.936675e-03 4.159336e-03 3.985936e-03 -1.512946e-03 1.084303e-03 2.393049e-03 -1.145922e-03 -1.663914e-02 -5.075945e-03 9.826075e-04 -1.601237e-03 1.259639e-03 2.834626e-03 2.236322e-04 7.660557e-04 -3.073169e-04 -1.918842e-04 -7.176076e-04 1.579065e-03 6.787786e-04 -1.882156e-04 8.992801e-04 7.026208e-04 -6.752218e-04 -8.481049e-04 -8.564598e-04
<VARIANCE> 39
 6.555533e+01 9.447430e+01 8.247615e+01 7.216943e+01 6.320332e+01 6.703423e+01 5.408260e+01 9.180781e+01 6.949444e+01 1.083419e+02 5.610213e+01 4.510988e+01 1.516074e+02 3.315702e+00 3.009490e+00 4.303542e+00 3.344780e+00 3.736877e+00 4.115880e+00 3.582441e+00 3.867862e+00 4.253813e+00 4.873307e+00 2.949770e+00 2.764075e+00 2.507631e+00 4.918717e-01 3.995081e-01 6.684682e-01 5.529770e-01 6.173857e-01 7.319671e-01 6.234416e-01 6.594285e-01 7.284790e-01 7.593409e-01 5.007720e-01 4.948074e-01 3.226201e-01
<GCONST> 1.367003e+02
<TRANSP> 5
 0.000000e+00 1.000000e+00 0.000000e+00 0.000000e+00 0.000000e+00
 0.000000e+00 6.000000e-01 4.000000e-01 0.000000e+00 0.000000e+00
 0.000000e+00 0.000000e+00 6.000000e-01 4.000000e-01 0.000000e+00
 0.000000e+00 0.000000e+00 0.000000e+00 7.000000e-01 3.000000e-01
 0.000000e+00 0.000000e+00 0.000000e+00 0.000000e+00 0.000000e+00
<ENDHMM>

~h"e"
<BEGINHMM>
<NUMSTATES> 5
<STATE> 2
<MEAN> 39
 -8.837668e+00 -4.634879e+00 -5.139858e+00 -1.080520e+01 -4.725881e+00 -1.131146e+01 -6.619244e+00 -1.078740e+01 -3.652506e+00 -1.146592e+01 -2.973909e+00 -6.820525e+00 6.542313e+01 3.936675e-03 4.159336e-03 3.985936e-03 -1.512946e-03 1.084303e-03 2.393049e-03 -1.145922e-03 -1.663914e-02 -5.075945e-03 9.826075e-04 -1.601237e-03 1.259639e-03 2.834626e-03 2.236322e-04 7.660557e-04 -3.073169e-04 -1.918842e-04 -7.176076e-04 1.579065e-03 6.787786e-04 -1.882156e-04 8.992801e-04 7.026208e-04 -6.752218e-04 -8.481049e-04 -8.564598e-04
<VARIANCE> 39
 6.555533e+01 9.447430e+01 8.247615e+01 7.216943e+01 6.320332e+01 6.703423e+01 5.408260e+01 9.180781e+01 6.949444e+01 1.083419e+02 5.610213e+01 4.510988e+01 1.516074e+02 3.315702e+00 3.009490e+00 4.303542e+00 3.344780e+00 3.736877e+00 4.115880e+00 3.582441e+00 3.867862e+00 4.253813e+00 4.873307e+00 2.949770e+00 2.764075e+00 2.507631e+00 4.918717e-01 3.995081e-01 6.684682e-01 5.529770e-01 6.173857e-01 7.319671e-01 6.234416e-01 6.594285e-01 7.284790e-01 7.593409e-01 5.007720e-01 4.948074e-01 3.226201e-01
<GCONST> 1.367003e+02
<STATE> 3
<MEAN> 39
 -8.837668e+00 -4.634879e+00 -5.139858e+00 -1.080520e+01 -4.725881e+00 -1.131146e+01 -6.619244e+00 -1.078740e+01 -3.652506e+00 -1.146592e+01 -2.973909e+00 -6.820525e+00 6.542313e+01 3.936675e-03 4.159336e-03 3.985936e-03 -1.512946e-03 1.084303e-03 2.393049e-03 -1.145922e-03 -1.663914e-02 -5.075945e-03 9.826075e-04 -1.601237e-03 1.259639e-03 2.834626e-03 2.236322e-04 7.660557e-04 -3.073169e-04 -1.918842e-04 -7.176076e-04 1.579065e-03 6.787786e-04 -1.882156e-04 8.992801e-04 7.026208e-04 -6.752218e-04 -8.481049e-04 -8.564598e-04
<VARIANCE> 39
 6.555533e+01 9.447430e+01 8.247615e+01 7.216943e+01 6.320332e+01 6.703423e+01 5.408260e+01 9.180781e+01 6.949444e+01 1.083419e+02 5.610213e+01 4.510988e+01 1.516074e+02 3.315702e+00 3.009490e+00 4.303542e+00 3.344780e+00 3.736877e+00 4.115880e+00 3.582441e+00 3.867862e+00 4.253813e+00 4.873307e+00 2.949770e+00 2.764075e+00 2.507631e+00 4.918717e-01 3.995081e-01 6.684682e-01 5.529770e-01 6.173857e-01 7.319671e-01 6.234416e-01 6.594285e-01 7.284790e-01 7.593409e-01 5.007720e-01 4.948074e-01 3.226201e-01
<GCONST> 1.367003e+02
<STATE> 4
<MEAN> 39
 -8.837668e+00 -4.634879e+00 -5.139858e+00 -1.080520e+01 -4.725881e+00 -1.131146e+01 -6.619244e+00 -1.078740e+01 -3.652506e+00 -1.146592e+01 -2.973909e+00 -6.820525e+00 6.542313e+01 3.936675e-03 4.159336e-03 3.985936e-03 -1.512946e-03 1.084303e-03 2.393049e-03 -1.145922e-03 -1.663914e-02 -5.075945e-03 9.826075e-04 -1.601237e-03 1.259639e-03 2.834626e-03 2.236322e-04 7.660557e-04 -3.073169e-04 -1.918842e-04 -7.176076e-04 1.579065e-03 6.787786e-04 -1.882156e-04 8.992801e-04 7.026208e-04 -6.752218e-04 -8.481049e-04 -8.564598e-04
<VARIANCE> 39
 6.555533e+01 9.447430e+01 8.247615e+01 7.216943e+01 6.320332e+01 6.703423e+01 5.408260e+01 9.180781e+01 6.949444e+01 1.083419e+02 5.610213e+01 4.510988e+01 1.516074e+02 3.315702e+00 3.009490e+00 4.303542e+00 3.344780e+00 3.736877e+00 4.115880e+00 3.582441e+00 3.867862e+00 4.253813e+00 4.873307e+00 2.949770e+00 2.764075e+00 2.507631e+00 4.918717e-01 3.995081e-01 6.684682e-01 5.529770e-01 6.173857e-01 7.319671e-01 6.234416e-01 6.594285e-01 7.284790e-01 7.593409e-01 5.007720e-01 4.948074e-01 3.226201e-01
<GCONST> 1.367003e+02
<TRANSP> 5
 0.000000e+00 1.000000e+00 0.000000e+00 0.000000e+00 0.000000e+00
 0.000000e+00 6.000000e-01 4.000000e-01 0.000000e+00 0.000000e+00
 0.000000e+00 0.000000e+00 6.000000e-01 4.000000e-01 0.000000e+00
 0.000000e+00 0.000000e+00 0.000000e+00 7.000000e-01 3.000000e-01
 0.000000e+00 0.000000e+00 0.000000e+00 0.000000e+00 0.000000e+00
<ENDHMM>

~h"t"
<BEGINHMM>
<NUMSTATES> 5
<STATE> 2
<MEAN> 39
 -8.837668e+00 -4.634879e+00 -5.139858e+00 -1.080520e+01 -4.725881e+00 -1.131146e+01 -6.619244e+00 -1.078740e+01 -3.652506e+00 -1.146592e+01 -2.973909e+00 -6.820525e+00 6.542313e+01 3.936675e-03 4.159336e-03 3.985936e-03 -1.512946e-03 1.084303e-03 2.393049e-03 -1.145922e-03 -1.663914e-02 -5.075945e-03 9.826075e-04 -1.601237e-03 1.259639e-03 2.834626e-03 2.236322e-04 7.660557e-04 -3.073169e-04 -1.918842e-04 -7.176076e-04 1.579065e-03 6.787786e-04 -1.882156e-04 8.992801e-04 7.026208e-04 -6.752218e-04 -8.481049e-04 -8.564598e-04
<VARIANCE> 39
 6.555533e+01 9.447430e+01 8.247615e+01 7.216943e+01 6.320332e+01 6.703423e+01 5.408260e+01 9.180781e+01 6.949444e+01 1.083419e+02 5.610213e+01 4.510988e+01 1.516074e+02 3.315702e+00 3.009490e+00 4.303542e+00 3.344780e+00 3.736877e+00 4.115880e+00 3.582441e+00 3.867862e+00 4.253813e+00 4.873307e+00 2.949770e+00 2.764075e+00 2.507631e+00 4.918717e-01 3.995081e-01 6.684682e-01 5.529770e-01 6.173857e-01 7.319671e-01 6.234416e-01 6.594285e-01 7.284790e-01 7.593409e-01 5.007720e-01 4.948074e-01 3.226201e-01
<GCONST> 1.367003e+02
<STATE> 3
<MEAN> 39
 -8.837668e+00 -4.634879e+00 -5.139858e+00 -1.080520e+01 -4.725881e+00 -1.131146e+01 -6.619244e+00 -1.078740e+01 -3.652506e+00 -1.146592e+01 -2.973909e+00 -6.820525e+00 6.542313e+01 3.936675e-03 4.159336e-03 3.985936e-03 -1.512946e-03 1.084303e-03 2.393049e-03 -1.145922e-03 -1.663914e-02 -5.075945e-03 9.826075e-04 -1.601237e-03 1.259639e-03 2.834626e-03 2.236322e-04 7.660557e-04 -3.073169e-04 -1.918842e-04 -7.176076e-04 1.579065e-03 6.787786e-04 -1.882156e-04 8.992801e-04 7.026208e-04 -6.752218e-04 -8.481049e-04 -8.564598e-04
<VARIANCE> 39
 6.555533e+01 9.447430e+01 8.247615e+01 7.216943e+01 6.320332e+01 6.703423e+01 5.408260e+01 9.180781e+01 6.949444e+01 1.083419e+02 5.610213e+01 4.510988e+01 1.516074e+02 3.315702e+00 3.009490e+00 4.303542e+00 3.344780e+00 3.736877e+00 4.115880e+00 3.582441e+00 3.867862e+00 4.253813e+00 4.873307e+00 2.949770e+00 2.764075e+00 2.507631e+00 4.918717e-01 3.995081e-01 6.684682e-01 5.529770e-01 6.173857e-01 7.319671e-01 6.234416e-01 6.594285e-01 7.284790e-01 7.593409e-01 5.007720e-01 4.948074e-01 3.226201e-01
<GCONST> 1.367003e+02
<STATE> 4
<MEAN> 39
 -8.837668e+00 -4.634879e+00 -5.139858e+00 -1.080520e+01 -4.725881e+00 -1.131146e+01 -6.619244e+00 -1.078740e+01 -3.652506e+00 -1.146592e+01 -2.973909e+00 -6.820525e+00 6.542313e+01 3.936675e-03 4.159336e-03 3.985936e-03 -1.512946e-03 1.084303e-03 2.393049e-03 -1.145922e-03 -1.663914e-02 -5.075945e-03 9.826075e-04 -1.601237e-03 1.259639e-03 2.834626e-03 2.236322e-04 7.660557e-04 -3.073169e-04 -1.918842e-04 -7.176076e-04 1.579065e-03 6.787786e-04 -1.882156e-04 8.992801e-04 7.026208e-04 -6.752218e-04 -8.481049e-04 -8.564598e-04
<VARIANCE> 39
 6.555533e+01 9.447430e+01 8.247615e+01 7.216943e+01 6.320332e+01 6.703423e+01 5.408260e+01 9.180781e+01 6.949444e+01 1.083419e+02 5.610213e+01 4.510988e+01 1.516074e+02 3.315702e+00 3.009490e+00 4.303542e+00 3.344780e+00 3.736877e+00 4.115880e+00 3.582441e+00 3.867862e+00 4.253813e+00 4.873307e+00 2.949770e+00 2.764075e+00 2.507631e+00 4.918717e-01 3.995081e-01 6.684682e-01 5.529770e-01 6.173857e-01 7.319671e-01 6.234416e-01 6.594285e-01 7.284790e-01 7.593409e-01 5.007720e-01 4.948074e-01 3.226201e-01
<GCONST> 1.367003e+02
<TRANSP> 5
 0.000000e+00 1.000000e+00 0.000000e+00 0.000000e+00 0.000000e+00
 0.000000e+00 6.000000e-01 4.000000e-01 0.000000e+00 0.000000e+00
 0.000000e+00 0.000000e+00 6.000000e-01 4.000000e-01 0.000000e+00
 0.000000e+00 0.000000e+00 0.000000e+00 7.000000e-01 3.000000e-01
 0.000000e+00 0.000000e+00 0.000000e+00 0.000000e+00 0.000000e+00
<ENDHMM>

~h"x"
<BEGINHMM>
<NUMSTATES> 5
<STATE> 2
<MEAN> 39
 -8.837668e+00 -4.634879e+00 -5.139858e+00 -1.080520e+01 -4.725881e+00 -1.131146e+01 -6.619244e+00 -1.078740e+01 -3.652506e+00 -1.146592e+01 -2.973909e+00 -6.820525e+00 6.542313e+01 3.936675e-03 4.159336e-03 3.985936e-03 -1.512946e-03 1.084303e-03 2.393049e-03 -1.145922e-03 -1.663914e-02 -5.075945e-03 9.826075e-04 -1.601237e-03 1.259639e-03 2.834626e-03 2.236322e-04 7.660557e-04 -3.073169e-04 -1.918842e-04 -7.176076e-04 1.579065e-03 6.787786e-04 -1.882156e-04 8.992801e-04 7.026208e-04 -6.752218e-04 -8.481049e-04 -8.564598e-04
<VARIANCE> 39
 6.555533e+01 9.447430e+01 8.247615e+01 7.216943e+01 6.320332e+01 6.703423e+01 5.408260e+01 9.180781e+01 6.949444e+01 1.083419e+02 5.610213e+01 4.510988e+01 1.516074e+02 3.315702e+00 3.009490e+00 4.303542e+00 3.344780e+00 3.736877e+00 4.115880e+00 3.582441e+00 3.867862e+00 4.253813e+00 4.873307e+00 2.949770e+00 2.764075e+00 2.507631e+00 4.918717e-01 3.995081e-01 6.684682e-01 5.529770e-01 6.173857e-01 7.319671e-01 6.234416e-01 6.594285e-01 7.284790e-01 7.593409e-01 5.007720e-01 4.948074e-01 3.226201e-01
<GCONST> 1.367003e+02
<STATE> 3
<MEAN> 39
 -8.837668e+00 -4.634879e+00 -5.139858e+00 -1.080520e+01 -4.725881e+00 -1.131146e+01 -6.619244e+00 -1.078740e+01 -3.652506e+00 -1.146592e+01 -2.973909e+00 -6.820525e+00 6.542313e+01 3.936675e-03 4.159336e-03 3.985936e-03 -1.512946e-03 1.084303e-03 2.393049e-03 -1.145922e-03 -1.663914e-02 -5.075945e-03 9.826075e-04 -1.601237e-03 1.259639e-03 2.834626e-03 2.236322e-04 7.660557e-04 -3.073169e-04 -1.918842e-04 -7.176076e-04 1.579065e-03 6.787786e-04 -1.882156e-04 8.992801e-04 7.026208e-04 -6.752218e-04 -8.481049e-04 -8.564598e-04
<VARIANCE> 39
 6.555533e+01 9.447430e+01 8.247615e+01 7.216943e+01 6.320332e+01 6.703423e+01 5.408260e+01 9.180781e+01 6.949444e+01 1.083419e+02 5.610213e+01 4.510988e+01 1.516074e+02 3.315702e+00 3.009490e+00 4.303542e+00 3.344780e+00 3.736877e+00 4.115880e+00 3.582441e+00 3.867862e+00 4.253813e+00 4.873307e+00 2.949770e+00 2.764075e+00 2.507631e+00 4.918717e-01 3.995081e-01 6.684682e-01 5.529770e-01 6.173857e-01 7.319671e-01 6.234416e-01 6.594285e-01 7.284790e-01 7.593409e-01 5.007720e-01 4.948074e-01 3.226201e-01
<GCONST> 1.367003e+02
<STATE> 4
<MEAN> 39
 -8.837668e+00 -4.634879e+00 -5.139858e+00 -1.080520e+01 -4.725881e+00 -1.131146e+01 -6.619244e+00 -1.078740e+01 -3.652506e+00 -1.146592e+01 -2.973909e+00 -6.820525e+00 6.542313e+01 3.936675e-03 4.159336e-03 3.985936e-03 -1.512946e-03 1.084303e-03 2.393049e-03 -1.145922e-03 -1.663914e-02 -5.075945e-03 9.826075e-04 -1.601237e-03 1.259639e-03 2.834626e-03 2.236322e-04 7.660557e-04 -3.073169e-04 -1.918842e-04 -7.176076e-04 1.579065e-03 6.787786e-04 -1.882156e-04 8.992801e-04 7.026208e-04 -6.752218e-04 -8.481049e-04 -8.564598e-04
<VARIANCE> 39
 6.555533e+01 9.447430e+01 8.247615e+01 7.216943e+01 6.320332e+01 6.703423e+01 5.408260e+01 9.180781e+01 6.949444e+01 1.083419e+02 5.610213e+01 4.510988e+01 1.516074e+02 3.315702e+00 3.009490e+00 4.303542e+00 3.344780e+00 3.736877e+00 4.115880e+00 3.582441e+00 3.867862e+00 4.253813e+00 4.873307e+00 2.949770e+00 2.764075e+00 2.507631e+00 4.918717e-01 3.995081e-01 6.684682e-01 5.529770e-01 6.173857e-01 7.319671e-01 6.234416e-01 6.594285e-01 7.284790e-01 7.593409e-01 5.007720e-01 4.948074e-01 3.226201e-01
<GCONST> 1.367003e+02
<TRANSP> 5
 0.000000e+00 1.000000e+00 0.000000e+00 0.000000e+00 0.000000e+00
 0.000000e+00 6.000000e-01 4.000000e-01 0.000000e+00 0.000000e+00
 0.000000e+00 0.000000e+00 6.000000e-01 4.000000e-01 0.000000e+00
 0.000000e+00 0.000000e+00 0.000000e+00 7.000000e-01 3.000000e-01
 0.000000e+00 0.000000e+00 0.000000e+00 0.000000e+00 0.000000e+00
<ENDHMM>

~h"ang"
<BEGINHMM>
<NUMSTATES> 5
<STATE> 2
<MEAN> 39
 -8.837668e+00 -4.634879e+00 -5.139858e+00 -1.080520e+01 -4.725881e+00 -1.131146e+01 -6.619244e+00 -1.078740e+01 -3.652506e+00 -1.146592e+01 -2.973909e+00 -6.820525e+00 6.542313e+01 3.936675e-03 4.159336e-03 3.985936e-03 -1.512946e-03 1.084303e-03 2.393049e-03 -1.145922e-03 -1.663914e-02 -5.075945e-03 9.826075e-04 -1.601237e-03 1.259639e-03 2.834626e-03 2.236322e-04 7.660557e-04 -3.073169e-04 -1.918842e-04 -7.176076e-04 1.579065e-03 6.787786e-04 -1.882156e-04 8.992801e-04 7.026208e-04 -6.752218e-04 -8.481049e-04 -8.564598e-04
<VARIANCE> 39
 6.555533e+01 9.447430e+01 8.247615e+01 7.216943e+01 6.320332e+01 6.703423e+01 5.408260e+01 9.180781e+01 6.949444e+01 1.083419e+02 5.610213e+01 4.510988e+01 1.516074e+02 3.315702e+00 3.009490e+00 4.303542e+00 3.344780e+00 3.736877e+00 4.115880e+00 3.582441e+00 3.867862e+00 4.253813e+00 4.873307e+00 2.949770e+00 2.764075e+00 2.507631e+00 4.918717e-01 3.995081e-01 6.684682e-01 5.529770e-01 6.173857e-01 7.319671e-01 6.234416e-01 6.594285e-01 7.284790e-01 7.593409e-01 5.007720e-01 4.948074e-01 3.226201e-01
<GCONST> 1.367003e+02
<STATE> 3
<MEAN> 39
 -8.837668e+00 -4.634879e+00 -5.139858e+00 -1.080520e+01 -4.725881e+00 -1.131146e+01 -6.619244e+00 -1.078740e+01 -3.652506e+00 -1.146592e+01 -2.973909e+00 -6.820525e+00 6.542313e+01 3.936675e-03 4.159336e-03 3.985936e-03 -1.512946e-03 1.084303e-03 2.393049e-03 -1.145922e-03 -1.663914e-02 -5.075945e-03 9.826075e-04 -1.601237e-03 1.259639e-03 2.834626e-03 2.236322e-04 7.660557e-04 -3.073169e-04 -1.918842e-04 -7.176076e-04 1.579065e-03 6.787786e-04 -1.882156e-04 8.992801e-04 7.026208e-04 -6.752218e-04 -8.481049e-04 -8.564598e-04
<VARIANCE> 39
 6.555533e+01 9.447430e+01 8.247615e+01 7.216943e+01 6.320332e+01 6.703423e+01 5.408260e+01 9.180781e+01 6.949444e+01 1.083419e+02 5.610213e+01 4.510988e+01 1.516074e+02 3.315702e+00 3.009490e+00 4.303542e+00 3.344780e+00 3.736877e+00 4.115880e+00 3.582441e+00 3.867862e+00 4.253813e+00 4.873307e+00 2.949770e+00 2.764075e+00 2.507631e+00 4.918717e-01 3.995081e-01 6.684682e-01 5.529770e-01 6.173857e-01 7.319671e-01 6.234416e-01 6.594285e-01 7.284790e-01 7.593409e-01 5.007720e-01 4.948074e-01 3.226201e-01
<GCONST> 1.367003e+02
<STATE> 4
<MEAN> 39
 -8.837668e+00 -4.634879e+00 -5.139858e+00 -1.080520e+01 -4.725881e+00 -1.131146e+01 -6.619244e+00 -1.078740e+01 -3.652506e+00 -1.146592e+01 -2.973909e+00 -6.820525e+00 6.542313e+01 3.936675e-03 4.159336e-03 3.985936e-03 -1.512946e-03 1.084303e-03 2.393049e-03 -1.145922e-03 -1.663914e-02 -5.075945e-03 9.826075e-04 -1.601237e-03 1.259639e-03 2.834626e-03 2.236322e-04 7.660557e-04 -3.073169e-04 -1.918842e-04 -7.176076e-04 1.579065e-03 6.787786e-04 -1.882156e-04 8.992801e-04 7.026208e-04 -6.752218e-04 -8.481049e-04 -8.564598e-04
<VARIANCE> 39
 6.555533e+01 9.447430e+01 8.247615e+01 7.216943e+01 6.320332e+01 6.703423e+01 5.408260e+01 9.180781e+01 6.949444e+01 1.083419e+02 5.610213e+01 4.510988e+01 1.516074e+02 3.315702e+00 3.009490e+00 4.303542e+00 3.344780e+00 3.736877e+00 4.115880e+00 3.582441e+00 3.867862e+00 4.253813e+00 4.873307e+00 2.949770e+00 2.764075e+00 2.507631e+00 4.918717e-01 3.995081e-01 6.684682e-01 5.529770e-01 6.173857e-01 7.319671e-01 6.234416e-01 6.594285e-01 7.284790e-01 7.593409e-01 5.007720e-01 4.948074e-01 3.226201e-01
<GCONST> 1.367003e+02
<TRANSP> 5
 0.000000e+00 1.000000e+00 0.000000e+00 0.000000e+00 0.000000e+00
 0.000000e+00 6.000000e-01 4.000000e-01 0.000000e+00 0.000000e+00
 0.000000e+00 0.000000e+00 6.000000e-01 4.000000e-01 0.000000e+00
 0.000000e+00 0.000000e+00 0.000000e+00 7.000000e-01 3.000000e-01
 0.000000e+00 0.000000e+00 0.000000e+00 0.000000e+00 0.000000e+00
<ENDHMM>

~h"ong"
<BEGINHMM>
<NUMSTATES> 5
<STATE> 2
<MEAN> 39
 -8.837668e+00 -4.634879e+00 -5.139858e+00 -1.080520e+01 -4.725881e+00 -1.131146e+01 -6.619244e+00 -1.078740e+01 -3.652506e+00 -1.146592e+01 -2.973909e+00 -6.820525e+00 6.542313e+01 3.936675e-03 4.159336e-03 3.985936e-03 -1.512946e-03 1.084303e-03 2.393049e-03 -1.145922e-03 -1.663914e-02 -5.075945e-03 9.826075e-04 -1.601237e-03 1.259639e-03 2.834626e-03 2.236322e-04 7.660557e-04 -3.073169e-04 -1.918842e-04 -7.176076e-04 1.579065e-03 6.787786e-04 -1.882156e-04 8.992801e-04 7.026208e-04 -6.752218e-04 -8.481049e-04 -8.564598e-04
<VARIANCE> 39
