~o
<STREAMINFO> 1 39
<VECSIZE> 39<NULLD><MFCC_D_A_0><DIAGC>
~s "silst"
<MEAN> 39
 -1.440216e+01 -3.982006e+00 -6.510933e+00 -3.810627e+00 -4.918200e+00 -5.929650e+00 -6.827140e+00 -3.205169e+00 -4.593195e+00 -3.908947e+00 -2.493378e+00 -2.814794e+00 4.557550e+01 1.783051e-02 -1.778679e-01 -8.153886e-02 7.153271e-02 1.627865e-01 -4.838137e-01 -2.267384e-01 1.673648e-01 2.664892e-01 -2.622274e-01 5.412711e-02 8.432814e-02 2.421410e-01 6.257331e-03 -1.068753e-01 6.016828e-02 3.302072e-02 6.762691e-02 -9.812710e-02 1.235410e-01 1.463884e-01 2.414891e-02 -1.842259e-01 3.479634e-02 1.005015e-01 1.538146e-01
<VARIANCE> 39
 8.976089e+00 1.324452e+01 1.515361e+01 1.898208e+01 1.936671e+01 2.591715e+01 2.307158e+01 2.892947e+01 2.935308e+01 1.912696e+01 2.170294e+01 1.563417e+01 8.496343e+00 6.788755e-01 1.227621e+00 1.355483e+00 1.809933e+00 1.440834e+00 3.049510e+00 2.312317e+00 3.289723e+00 2.726187e+00 2.564107e+00 2.313820e+00 1.902150e+00 6.698651e-01 1.520821e-01 2.387580e-01 2.717234e-01 3.057028e-01 3.020247e-01 5.357959e-01 4.410667e-01 5.906387e-01 5.353420e-01 5.594590e-01 4.694377e-01 3.957750e-01 1.204241e-01
<GCONST> 1.024106e+02
~h "a"
<BEGINHMM>
<NUMSTATES> 5
<STATE> 2
<MEAN> 39
 -3.665648e+00 -1.124572e+01 -1.110435e+01 -1.485084e+01 -3.453863e+00 -1.907656e+01 -2.434054e+00 -1.084770e+01 1.363985e+00 -2.251525e+01 -9.328691e-01 -9.482221e+00 7.806006e+01 -4.972821e-01 -2.750305e+00 -9.658140e-01 -1.834003e-01 9.601136e-01 2.511945e+00 6.346874e-01 -1.527136e+00 1.001614e+00 -2.836846e+00 4.286609e-01 -9.156239e-01 2.971514e+00 -5.035087e-01 2.989220e-01 2.613180e-01 6.841459e-01 2.710338e-02 8.068783e-01 -3.716199e-01 -7.794424e-02 -4.468341e-01 8.699294e-02 1.956066e-01 3.212460e-01 -1.017860e+00
<VARIANCE> 39
 9.071779e+00 5.909144e+01 1.601768e+01 2.648305e+01 2.524533e+01 7.121667e+01 2.498040e+01 5.922215e+01 1.577311e+01 2.184730e+01 9.895463e+00 1.631169e+01 3.300100e+01 1.064721e+00 1.350541e+00 2.598932e+00 1.599344e+00 2.301733e+00 4.178459e+00 4.641514e+00 4.371103e+00 3.649598e+00 4.067673e+00 1.366465e+00 1.891807e+00 3.380928e+00 2.617063e-01 6.047730e-01 2.444826e-01 3.216807e-01 3.930933e-01 1.049518e+00 4.917927e-01 6.442776e-01 4.956960e-01 8.081963e-01 3.259216e-01 3.078808e-01 8.825755e-01
<GCONST> 1.153957e+02
<STATE> 3
<MEAN> 39
 -5.675424e+00 -1.539177e+01 -1.316660e+01 -1.256075e+01 1.176083e-01 -9.167182e+00 -4.185928e+00 -1.693503e+01 1.770064e+00 -2.664689e+01 2.295281e+00 -1.260725e+01 8.238168e+01 -2.797152e-02 -7.561207e-03 -1.220217e-01 1.824674e-01 2.337140e-02 6.413077e-01 -2.097881e-01 -1.550497e-01 -1.879873e-01 -1.220211e-02 3.698590e-01 -4.229312e-01 2.169564e-02 5.953911e-02 2.457085e-01 1.839324e-01 -7.048903e-02 -2.493016e-01 -2.313445e-01 5.039233e-02 2.492230e-01 -1.442646e-01 2.840895e-01 -8.252008e-02 1.135437e-01 -2.612620e-01
<VARIANCE> 39
 2.909030e+00 1.371079e+01 1.227043e+01 2.077107e+01 1.904689e+01 1.855256e+01 3.287607e+01 2.838010e+01 3.441472e+01 1.681275e+01 1.118683e+01 1.637295e+01 3.121216e+00 2.602729e-01 7.963943e-01 8.219064e-01 9.344194e-01 1.378569e+00 2.055600e+00 1.402047e+00 1.842462e+00 1.106750e+00 1.099902e+00 7.042596e-01 8.821506e-01 5.149161e-01 3.778215e-02 1.362964e-01 1.082797e-01 1.688437e-01 1.016571e-01 2.067373e-01 2.599934e-01 2.935025e-01 2.016064e-01 3.059629e-01 1.257537e-01 1.800400e-01 1.812532e-01
<GCONST> 8.154133e+01
<STATE> 4
<MEAN> 39
 -5.783853e+00 -1.413190e+01 -9.485312e+00 -1.003281e+01 -4.480164e+00 -1.022105e+01 -5.404601e+00 -1.495453e+01 -3.026647e+00 -2.183968e+01 7.931176e-01 -1.109547e+01 7.616889e+01 -8.143261e-02 -9.099543e-02 1.477984e-01 3.691703e-02 -2.232248e-01 -1.880772e-01 6.310962e-02 -7.885368e-02 -2.470186e-01 -1.670552e-01 -2.181142e-01 1.794471e-01 -2.380010e-02 5.761774e-04 6.322472e-02 3.132678e-02 -9.462468e-02 -3.042990e-02 -5.263235e-02 1.499327e-01 -3.623862e-02 -5.983192e-02 2.685855e-02 -8.476852e-02 1.893655e-02 -7.851722e-03
<VARIANCE> 39
 7.395089e+00 3.999358e+01 3.185823e+01 2.621360e+01 3.798382e+01 1.913505e+01 3.370446e+01 3.547716e+01 3.676875e+01 5.671764e+01 2.337110e+01 2.041392e+01 1.119615e+02 8.437611e-01 2.485310e+00 1.977015e+00 3.134778e+00 2.593739e+00 1.869946e+00 3.269541e+00 2.872692e+00 3.704299e+00 5.340465e+00 2.430400e+00 2.267699e+00 9.989502e+00 1.905350e-01 4.079359e-01 2.654282e-01 5.453072e-01 3.376230e-01 4.064957e-01 4.608109e-01 5.458956e-01 6.118581e-01 1.097011e+00 4.135412e-01 3.945988e-01 1.420438e+00
<GCONST> 1.199608e+02
<TRANSP> 5
 0.000000e+00 1.000000e+00 0.000000e+00 0.000000e+00 0.000000e+00
 0.000000e+00 5.434487e-01 4.565513e-01 0.000000e+00 0.000000e+00
 0.000000e+00 0.000000e+00 8.956292e-01 1.043708e-01 0.000000e+00
 0.000000e+00 0.000000e+00 0.000000e+00 9.473203e-01 5.267973e-02
 0.000000e+00 0.000000e+00 0.000000e+00 0.000000e+00 0.000000e+00
<ENDHMM>
~h "b"
<BEGINHMM>
<NUMSTATES> 5
<STATE> 2
<MEAN> 39
 -8.768707e+00 -6.980148e+00 -7.235082e+00 -7.568529e+00 -6.961088e+00 -6.720034e+00 -5.122240e+00 -5.165848e+00 -4.260784e+00 -8.679094e+00 -2.520147e+00 -2.839940e+00 5.498887e+01 -4.337006e-01 -3.032358e-01 -7.778201e-02 -1.178400e-01 -2.891324e-01 -7.447923e-01 -5.342156e-03 1.610344e+00 3.920518e-01 -1.277393e+00 2.565558e-01 8.770720e-01 8.481246e-01 3.511558e-01 -2.354321e-02 -1.795632e-01 -2.510238e-01 3.560980e-01 -8.244625e-01 -4.719680e-02 -6.386331e-01 3.343958e-01 -9.304271e-01 1.409623e-01 -4.819420e-01 1.359951e+00
<VARIANCE> 39
 1.520548e+01 6.120317e+00 1.850456e+01 2.619310e+01 4.000998e+01 3.164959e+01 2.769509e+01 6.291970e+01 3.313791e+01 3.303142e+01 2.385125e+01 3.559726e+01 7.270954e+01 1.314861e+00 1.784347e+00 1.611188e+00 2.982830e+00 2.792789e+00 3.739906e+00 2.584412e+00 1.910372e+00 3.992893e+00 9.293751e+00 2.906453e+00 2.382202e+00 7.233365e+00 2.411812e-01 6.250002e-01 1.840487e-01 2.683460e-01 5.890198e-01 3.842269e-01 6.258540e-01 8.556083e-01 7.602866e-01 8.857069e-01 3.815631e-01 4.617649e-01 1.391742e+00
<GCONST> 1.201110e+02
<STATE> 3
<MEAN> 39
 -1.134171e+01 -4.498003e+00 -3.777243e+00 -7.564902e+00 -6.815966e+00 -1.491267e+01 -4.767718e+00 -1.647557e+00 -2.184953e+00 -1.531947e+01 2.343544e+00 -2.219420e+00 6.005889e+01 1.784539e+00 3.686247e-01 -9.402167e-01 -9.874969e-01 9.122989e-01 -3.333005e+00 -4.304790e-01 -1.962782e+00 3.782750e-01 -2.682458e+00 -9.343760e-02 -1.362815e+00 3.962578e+00 6.499237e-01 -3.958210e-01 -5.589666e-01 -3.743483e-01 2.592149e-01 -8.838187e-02 1.435342e-02 -9.633707e-01 1.030819e-01 1.642367e-01 -5.059912e-01 -5.582157e-01 7.758179e-01
<VARIANCE> 39
 1.239499e+01 1.974183e+01 2.400886e+01 4.257566e+01 3.039375e+01 4.098247e+01 3.803920e+01 9.408286e+01 3.244552e+01 7.183520e+01 4.349044e+01 3.128266e+01 9.210164e+01 2.098612e+00 5.693150e+00 1.752902e+00 3.745727e+00 2.772184e+00 5.514193e+00 3.419221e+00 5.903319e+00 1.910447e+00 4.570482e+00 3.820730e+00 1.905645e+00 5.834776e+00 2.191172e-01 7.132733e-01 2.310469e-01 6.502869e-01 3.726150e-01 7.271822e-01 6.928105e-01 7.820882e-01 3.841894e-01 2.075897e+00 8.958250e-01 6.392630e-01 4.962142e-01
<GCONST> 1.277654e+02
<STATE> 4
<MEAN> 39
 -2.888769e+00 -3.706759e+00 -8.512900e+00 -1.284653e+01 -5.442910e+00 -2.286311e+01 -5.558701e+00 -9.332279e+00 -3.717664e+00 -1.785200e+01 -7.954220e-01 -5.749489e+00 7.035397e+01 1.964655e+00 -1.774472e+00 -1.915264e+00 -1.953170e+00 1.022498e+00 -1.710697e+00 5.863470e-01 -1.847577e+00 1.030158e+00 -1.663046e+00 -3.864965e-01 -1.979195e+00 4.938427e+00 -6.955171e-01 -8.890681e-01 5.760084e-02 1.823719e-01 7.748985e-02 1.501173e+00 3.308327e-01 2.919804e-01 3.514904e-01 -9.703477e-02 1.930609e-01 4.312837e-02 -2.634219e-01
<VARIANCE> 39
 1.962954e+01 5.580335e+01 3.915117e+01 2.838773e+01 2.795404e+01 1.071978e+02 4.595712e+01 5.206379e+01 1.961220e+01 7.295513e+01 1.808816e+01 1.151283e+01 5.120372e+01 1.980865e+00 5.205386e+00 1.198304e+00 3.113022e+00 2.747200e+00 5.031034e+00 4.521341e+00 4.019680e+00 2.442371e+00 7.413973e+00 2.518486e+00 1.744112e+00 5.870968e+00 4.542708e-01 6.890005e-01 3.336129e-01 4.393438e-01 4.619491e-01 1.191824e+00 1.088448e+00 1.031262e+00 4.289557e-01 1.277623e+00 4.394713e-01 3.200760e-01 4.474426e-01
<GCONST> 1.264075e+02
<TRANSP> 5
 0.000000e+00 1.000000e+00 0.000000e+00 0.000000e+00 0.000000e+00
 0.000000e+00 6.209147e-01 3.790853e-01 0.000000e+00 0.000000e+00
 0.000000e+00 0.000000e+00 4.092914e-01 5.907087e-01 0.000000e+00
 0.000000e+00 0.000000e+00 0.000000e+00 3.630438e-01 6.369562e-01
 0.000000e+00 0.000000e+00 0.000000e+00 0.000000e+00 0.000000e+00
<ENDHMM>
~h "e"
<BEGINHMM>
<NUMSTATES> 5
<STATE> 2
<MEAN> 39
 -1.416973e+01 -1.008956e+00 -2.736060e+01 -7.956432e+00 1.640154e+01 -5.463072e+00 -6.605794e+00 -4.092267e+00 -4.577830e-01 3.829194e+00 -2.511621e-03 -1.072549e+01 6.919551e+01 -9.577771e-01 -5.910476e-01 -1.410701e+00 9.891366e-01 1.079201e-01 -6.635430e-01 1.695061e+00 1.162228e+00 1.478852e+00 2.214729e+00 -4.643217e-03 1.534179e+00 1.933899e-01 5.088661e-01 -5.392562e-02 3.646309e-01 -1.185915e-01 -4.089146e-01 8.686772e-02 -3.739445e-01 -1.218509e+00 -1.434300e-01 -1.016556e+00 -9.978044e-02 -1.720641e-01 -3.741569e-01
<VARIANCE> 39
 7.370608e+00 8.173664e+00 1.399092e+01 2.141473e+01 1.617884e+01 2.294977e+01 2.273129e+01 3.240038e+01 3.007448e+01 2.624275e+01 1.809904e+01 2.133018e+01 1.162076e+01 9.989309e-01 8.959370e-01 1.530993e+00 1.500762e+00 1.951774e+00 1.506624e+00 2.338585e+00 6.662931e+00 3.325572e+00 5.318067e+00 2.082518e+00 1.941544e+00 1.486232e+00 2.184215e-01 1.696742e-01 2.263156e-01 3.153602e-01 4.122335e-01 2.647722e-01 5.377168e-01 6.170189e-01 7.751529e-01 5.911189e-01 4.304461e-01 3.576107e-01 1.519544e-01
<GCONST> 1.044993e+02
<STATE> 3
<MEAN> 39
 -9.933898e+00 -1.367488e+00 -2.773431e+01 -7.379871e+00 1.282305e+01 -1.078601e+01 -7.792715e+00 -1.610860e+01 2.732311e+00 1.087118e+00 -4.146286e+00 -6.627492e+00 6.553997e+01 2.455279e+00 9.951025e-01 1.503790e+00 -1.950602e+00 -9.840372e-01 -1.850539e+00 -1.023342e+00 -3.586975e+00 8.329985e-01 -2.627115e+00 -9.040663e-01 1.806372e-01 5.254607e-01 1.927142e-01 3.064512e-02 3.532332e-01 -7.109760e-01 -5.647304e-02 -2.285545e-01 2.146500e-01 1.807646e-01 4.121636e-01 -3.818795e-01 6.551540e-02 -1.638076e-01 6.513221e-01
<VARIANCE> 39
 5.300279e+01 3.240565e+01 2.961783e+01 4.039658e+01 2.460732e+01 5.122925e+01 2.781496e+01 1.096510e+02 3.038557e+01 5.542645e+01 2.815170e+01 2.310106e+01 1.666255e+01 3.756852e+00 3.128778e+00 2.483062e+00 5.732630e+00 2.017560e+00 4.431102e+00 2.454492e+00 5.281151e+00 3.457959e+00 5.114114e+00 2.202739e+00 1.806027e+00 4.473224e+00 1.342206e+00 1.187928e+00 4.968136e-01 5.700223e-01 4.536519e-01 9.073006e-01 9.359826e-01 2.258812e+00 6.563764e-01 1.051586e+00 4.031341e-01 3.385175e-01 4.315909e-01
<GCONST> 1.295822e+02
<STATE> 4
<MEAN> 39
 -2.854245e+00 -4.599564e+00 -1.637343e+01 -2.192189e+01 6.195721e+00 -1.892875e+01 -3.997874e+00 -2.046444e+01 1.450791e+01 -1.350855e+01 -6.938638e+00 -9.246358e+00 7.647619e+01 -5.511149e-01 -1.725049e+00 1.403527e+00 -7.801256e-02 -1.398060e+00 -6.244806e-01 1.467360e+00 1.725708e+00 1.072316e+00 -1.658484e+00 5.448574e-02 -4.064731e-01 1.108849e+00 -1.715488e-01 2.050362e-01 -4.199043e-03 8.702319e-01 -9.304601e-02 1.169920e-02 -1.925909e-01 1.794029e-01 -8.014716e-01 1.529782e-01 2.815646e-02 2.484122e-01 -5.799435e-01
<VARIANCE> 39
 4.674211e+00 2.264011e+01 1.352647e+01 2.086684e+01 2.772320e+01 8.525390e+00 2.085516e+01 3.103609e+01 2.717588e+01 4.028459e+01 3.606182e+01 3.817317e+01 8.960478e+00 3.894464e-01 1.117218e+00 7.292833e-01 4.975213e+00 1.599040e+00 2.034862e+00 1.462178e+00 1.300455e+00 4.469888e+00 1.565288e+00 9.642912e-01 2.477336e+00 1.110925e+00 3.641898e-01 7.301891e-01 1.263842e-01 3.299609e-01 2.815441e-01 6.680618e-01 4.788298e-01 8.931169e-01 5.241357e-01 5.032238e-01 2.091201e-01 6.141902e-01 1.617921e-01
<GCONST> 1.033104e+02
<TRANSP> 5
 0.000000e+00 1.000000e+00 0.000000e+00 0.000000e+00 0.000000e+00
 0.000000e+00 8.244263e-01 1.755737e-01 0.000000e+00 0.000000e+00
 0.000000e+00 0.000000e+00 8.330394e-01 1.669606e-01 0.000000e+00
 0.000000e+00 0.000000e+00 0.000000e+00 8.550917e-01 1.449083e-01
 0.000000e+00 0.000000e+00 0.000000e+00 0.000000e+00 0.000000e+00
<ENDHMM>
~h "g"
<BEGINHMM>
<NUMSTATES> 5
<STATE> 2
<MEAN> 39
 -8.867437e+00 -6.445981e+00 7.769324e+00 -2.618686e+01 -1.688969e+01 -1.399749e+01 -4.095471e+00 -1.896249e+01 -1.115514e+01 -1.168082e+00 -1.651419e+01 -4.251767e+00 7.632015e+01 2.402360e-01 -1.871835e-01 -1.612443e-01 5.671822e-01 3.958055e-01 -1.000280e+00 7.665179e-01 -5.750259e-01 1.004363e-01 3.203198e-02 -1.839938e-01 4.746813e-01 -2.293019e-01 1.523225e-01 9.127134e-02 -2.463054e-01 5.216075e-01 1.788083e-01 -2.864240e-01 -1.083865e-01 1.404852e-02 -1.001338e-02 -2.679605e-01 -7.193171e-03 2.981309e-01 -3.034718e-01
<VARIANCE> 39
 3.698923e+00 1.659160e+01 1.134541e+01 1.434637e+01 1.664474e+01 3.120756e+01 4.130331e+01 2.599776e+01 2.083170e+01 2.585024e+01 1.528321e+01 1.131952e+01 4.821708e+00 3.055117e-01 5.154273e-01 1.495556e+00 2.015666e+00 1.221264e+00 2.133902e+00 1.656569e+00 1.659132e+00 1.542178e+00 1.711976e+00 9.615420e-01 1.769040e+00 2.845083e-01 4.597952e-02 1.191652e-01 3.151433e-01 2.075106e-01 3.770057e-01 3.328180e-01 4.946431e-01 3.519762e-01 3.280224e-01 3.006701e-01 2.889736e-01 2.148684e-01 6.631589e-02
<GCONST> 8.903549e+01
<STATE> 3
<MEAN> 39
 -4.067074e+00 -4.858329e+00 -1.691843e+00 -1.216677e+01 -8.536423e+00 -2.072515e+01 -4.565116e+00 -2.107135e+01 -9.309161e+00 -5.506009e+00 -1.845834e+01 8.975296e-01 6.580566e+01 2.784456e-01 5.911628e-01 -1.687333e+00 2.124745e+00 1.092139e+00 1.621787e+00 -1.325332e+00 6.144574e-01 6.040339e-01 -3.312689e-01 9.065565e-01 -8.281283e-01 -3.194546e+00 -2.457663e-01 -6.817578e-02 9.798529e-02 -6.900860e-01 -5.656853e-01 8.852624e-01 2.238448e-01 3.198055e-01 -8.175799e-02 2.906612e-01 5.647447e-01 -4.140165e-01 -6.302263e-02
<VARIANCE> 39
 7.452743e+00 1.767809e+01 4.236987e+01 3.262537e+01 6.229196e+01 5.926975e+01 4.176827e+01 3.207275e+01 3.112705e+01 2.729928e+01 2.795808e+01 3.495536e+01 4.583556e+01 1.618207e+00 1.504445e+00 4.591251e+00 3.340270e+00 1.090517e+01 1.104978e+01 3.774502e+00 4.996918e+00 3.959929e+00 4.506327e+00 5.855191e+00 5.238202e+00 1.040983e+00 2.398734e-01 2.804114e-01 1.102098e+00 6.673620e-01 1.917194e+00 1.945789e+00 1.373107e+00 1.015853e+00 9.224316e-01 7.671413e-01 7.810993e-01 1.360548e+00 6.598297e-01
<GCONST> 1.322946e+02
<STATE> 4
<MEAN> 39
 -2.334753e+00 7.473950e-01 -1.572868e+01 -1.676779e+01 -7.062450e+00 -1.013756e+01 -1.258041e-01 -1.398995e+01 -1.013701e+01 -4.492957e+00 -1.170617e+01 2.166818e+00 5.792085e+01 1.029701e+00 1.729489e+00 -1.317520e+00 -1.481673e+00 2.807709e-01 -2.549341e-01 6.865941e-01 1.525034e-01 -1.006575e+00 1.893727e-01 -4.731687e-01 1.129011e+00 8.871730e-01 1.778255e-01 2.221474e-01 2.352783e-01 -6.382008e-02 5.227002e-02 -3.766151e-01 -1.848001e-01 -3.519765e-01 -9.990294e-02 5.292182e-02 -3.646076e-01 7.379404e-02 4.433180e-01
<VARIANCE> 39
 2.218806e+01 3.732084e+01 1.023498e+02 5.590870e+01 5.168947e+01 3.323182e+01 4.528736e+01 3.219661e+01 3.947113e+01 2.597472e+01 2.846937e+01 4.231903e+01 2.341705e+01 2.449065e+00 2.891778e+00 1.619036e+01 6.758467e+00 6.770998e+00 5.036243e+00 7.007411e+00 4.935083e+00 5.406514e+00 3.069801e+00 3.823478e+00 4.369335e+00 3.539742e+00 5.211239e-01 4.925673e-01 3.317206e+00 1.571893e+00 1.623603e+00 1.093996e+00 1.396560e+00 7.448580e-01 1.215161e+00 6.298561e-01 7.135636e-01 1.125120e+00 8.164863e-01
<GCONST> 1.397925e+02
<TRANSP> 5
 0.000000e+00 1.000000e+00 0.000000e+00 0.000000e+00 0.000000e+00
 0.000000e+00 8.880572e-01 1.119427e-01 0.000000e+00 0.000000e+00
 0.000000e+00 0.000000e+00 8.217385e-01 1.782615e-01 0.000000e+00
 0.000000e+00 0.000000e+00 0.000000e+00 8.857085e-01 1.142914e-01
 0.000000e+00 0.000000e+00 0.000000e+00 0.000000e+00 0.000000e+00
<ENDHMM>
~h "h"
<BEGINHMM>
<NUMSTATES> 5
<STATE> 2
<MEAN> 39
 -1.838705e+00 -1.250603e+01 -1.526289e+01 -1.742508e+01 4.820927e+00 -4.519694e+00 -3.326877e+00 -2.639865e+01 1.099530e+01 -2.356149e+01 1.011506e+00 -1.621280e+01 7.773323e+01 3.427780e-01 6.624919e-01 -6.541145e-01 -7.947563e-01 4.185345e-01 9.211407e-01 -1.409302e-01 -1.076683e+00 5.494030e-01 1.940479e-01 8.185595e-01 -3.346373e-01 -3.559834e-01 -1.127446e-02 2.552689e-01 1.128036e-01 -2.138219e-02 -2.160637e-01 -7.933129e-02 -8.333566e-02 2.261266e-01 -3.974031e-01 -1.625220e-01 4.693270e-02 1.097494e-01 -1.114418e-01
<VARIANCE> 39
 4.033431e+00 1.088392e+01 8.321330e+00 1.820037e+01 1.041424e+01 1.569499e+01 1.224837e+01 2.193637e+01 1.704409e+01 2.007337e+01 2.543630e+01 1.831751e+01 5.779054e+00 1.216562e-01 6.420236e-01 4.209521e-01 5.109665e-01 1.274177e+00 6.419292e-01 8.750325e-01 1.558955e+00 1.888899e+00 1.374105e+00 9.914837e-01 1.054407e+00 1.142489e-01 2.292381e-02 7.597173e-02 9.469223e-02 9.207783e-02 1.509264e-01 1.180413e-01 1.826881e-01 1.812054e-01 2.801038e-01 1.967724e-01 1.831955e-01 1.885589e-01 1.960731e-02
<GCONST> 7.102821e+01
<STATE> 3
<MEAN> 39
 4.610872e-01 -3.336507e+00 -1.871817e+01 -2.324963e+01 4.104138e+00 1.058241e+00 -7.343257e+00 -2.887999e+01 9.276496e+00 -2.773628e+01 7.033510e+00 -1.672429e+01 7.275356e+01 2.883961e-01 1.908438e+00 1.447972e-01 3.796737e-01 -1.309856e-02 2.279793e-01 -1.961540e+00 1.020194e-01 -1.936213e+00 -6.904719e-01 3.275628e-02 5.911956e-02 -1.594852e+00 -2.756155e-01 -8.349056e-02 2.643467e-01 7.669942e-01 3.076018e-01 -2.869884e-01 -2.879051e-01 3.898659e-01 -6.977781e-01 6.569071e-01 -5.378634e-01 -8.478419e-02 -2.877630e-01
<VARIANCE> 39
 3.850897e+00 1.422759e+01 6.461302e+00 1.499363e+01 1.188673e+01 1.031469e+01 2.230054e+01 1.348088e+01 2.027626e+01 2.921878e+01 3.193177e+01 1.853574e+01 7.697221e+00 1.951510e-01 4.826439e-01 7.686484e-01 2.304137e+00 1.223227e+00 1.046854e+00 1.903077e+00 1.297503e+00 2.811498e+00 1.704734e+00 1.947769e+00 1.143790e+00 5.125046e-01 1.532403e-01 1.359496e-01 1.311624e-01 1.939277e-01 2.433833e-01 2.130539e-01 3.766957e-01 5.991925e-01 3.135454e-01 5.430470e-01 3.774003e-01 2.523574e-01 5.422848e-02
<GCONST> 8.761060e+01
<STATE> 4
<MEAN> 39
 -3.076210e+00 8.824296e-01 -1.642202e+01 -1.408493e+01 9.269073e+00 -2.176225e+00 -1.585464e+01 -2.307590e+01 -3.165234e+00 -2.065402e+01 1.630002e+00 -1.833552e+01 6.549326e+01 -2.859196e+00 -2.195053e-01 -5.708630e-01 2.399788e+00 1.976903e+00 -1.491406e+00 1.858881e-02 4.919456e+00 -1.770509e+00 4.475217e+00 -1.666886e+00 -1.469413e-01 -8.089267e-01 -5.630481e-01 -5.867206e-01 -5.860361e-01 -2.552804e-01 -1.218223e-01 -2.306164e-01 1.215067e+00 1.160123e+00 1.107359e+00 6.951202e-01 3.178799e-01 4.620324e-01 7.182772e-01
<VARIANCE> 39
 2.889856e+01 1.252289e+01 1.420714e+01 2.847289e+01 4.222103e+01 2.878775e+01 3.049992e+01 7.227546e+01 3.553925e+01 8.652735e+01 3.102093e+01 2.081721e+01 7.655867e+00 1.959733e+00 2.062271e+00 2.882637e+00 2.291227e+00 2.628686e+00 4.750729e+00 7.125165e+00 7.850666e+00 8.039567e+00 5.287740e+00 3.587072e+00 3.329183e+00 2.512356e+00 5.612971e-01 2.040851e-01 3.785843e-01 4.680531e-01 9.012382e-01 4.471021e-01 6.768199e-01 1.395776e+00 8.376871e-01 1.763153e+00 7.053020e-01 7.064789e-01 1.515508e-01
<GCONST> 1.248373e+02
<TRANSP> 5
 0.000000e+00 1.000000e+00 0.000000e+00 0.000000e+00 0.000000e+00
 0.000000e+00 9.015564e-01 9.844355e-02 0.000000e+00 0.000000e+00
 0.000000e+00 0.000000e+00 7.528383e-01 2.471617e-01 0.000000e+00
 0.000000e+00 0.000000e+00 0.000000e+00 7.215534e-01 2.784466e-01
 0.000000e+00 0.000000e+00 0.000000e+00 0.000000e+00 0.000000e+00
<ENDHMM>
~h "i"
<BEGINHMM>
<NUMSTATES> 5
<STATE> 2
<MEAN> 39
 -1.786741e+01 7.578855e+00 -5.354715e+00 -3.499387e+00 -7.023602e+00 -1.044152e+01 -8.149856e+00 -1.386159e+01 -9.370254e+00 -1.024288e+01 -7.321683e+00 -9.842644e+00 6.767191e+01 -4.411641e+00 -2.917621e-01 -3.012854e+00 8.828097e-01 5.452328e-01 1.825941e+00 1.836932e+00 2.021014e+00 2.525329e+00 1.762679e+00 1.941489e+00 1.089532e+00 1.000910e+00 4.809315e-01 -1.014697e-01 4.209495e-01 -7.285537e-01 -3.699614e-01 -2.846700e-01 6.747565e-02 9.791645e-02 2.694262e-01 5.084637e-01 3.557816e-01 5.687914e-01 1.197481e-01
<VARIANCE> 39
 4.206440e+01 6.157564e+01 3.737481e+01 2.819201e+01 2.862534e+01 2.621956e+01 2.242959e+01 2.717474e+01 2.481168e+01 2.689732e+01 1.927641e+01 2.500842e+01 2.900419e+01 4.676169e+00 2.821596e+00 5.064117e+00 3.022977e+00 3.124358e+00 2.626600e+00 2.904521e+00 2.407993e+00 3.441988e+00 2.795956e+00 3.501106e+00 2.250757e+00 3.984748e+00 8.650694e-01 1.150943e+00 9.469291e-01 5.197537e-01 5.214635e-01 4.851765e-01 4.962237e-01 5.438147e-01 5.755386e-01 7.598389e-01 5.537260e-01 5.903370e-01 6.302091e-01
<GCONST> 1.248438e+02
<STATE> 3
<MEAN> 39
 -2.711667e+01 8.587379e+00 -8.472676e+00 -3.037172e+00 -7.710589e+00 -6.008102e+00 -4.329037e+00 -8.699680e+00 -2.510004e+00 -4.794761e+00 -1.317776e+00 -5.446207e+00 7.037163e+01 -4.896313e-01 -5.859653e-01 2.972463e-01 -5.399294e-01 2.002236e-02 2.963797e-01 9.195068e-01 6.648590e-01 8.361745e-01 1.056161e+00 1.118055e+00 5.919808e-01 6.754799e-01 1.409670e+00 -3.126489e-01 8.304172e-01 -3.237315e-01 -1.323080e-01 -5.080058e-01 -2.786072e-01 -4.059695e-01 -7.374436e-01 -5.077318e-01 -2.950373e-01 -2.881846e-01 -2.995165e-02
<VARIANCE> 39
 1.367410e+01 2.275461e+01 1.872270e+01 2.750270e+01 2.283347e+01 2.553103e+01 1.976809e+01 2.119891e+01 2.171853e+01 1.898891e+01 1.610163e+01 1.463409e+01 1.181267e+01 5.836149e+00 3.258517e+00 3.082969e+00 2.145448e+00 2.137770e+00 2.125103e+00 2.057132e+00 2.236346e+00 2.761202e+00 2.115942e+00 2.231913e+00 1.791456e+00 1.522757e+00 9.358625e-01 5.094597e-01 7.506030e-01 4.606044e-01 5.073500e-01 4.504325e-01 4.088907e-01 4.501748e-01 6.215121e-01 5.501695e-01 4.158216e-01 3.374577e-01 2.796549e-01
<GCONST> 1.121845e+02
<STATE> 4
<MEAN> 39
 -1.585846e+01 2.731918e+00 -3.565392e+00 -8.678353e+00 -6.620054e+00 -1.273869e+01 -3.777032e+00 -1.396031e+01 -3.736734e+00 -1.451535e+00 -1.244579e+00 -4.674625e+00 7.264277e+01 2.195050e+00 -8.563972e-01 1.397671e+00 -2.437706e-01 -3.376894e-01 -6.005340e-01 -8.677149e-02 -2.154190e-01 -1.064305e+00 -1.053067e+00 -7.993355e-03 -2.287260e-01 1.033096e-01 3.427004e-01 -1.598720e-01 -1.524445e-01 -1.415592e-01 -5.137458e-02 -3.245597e-01 -1.944771e-01 -1.337124e-01 -2.764451e-01 -7.411687e-01 -2.976608e-01 -2.002652e-01 -6.582322e-03
<VARIANCE> 39
 1.425773e+02 4.195857e+01 4.997556e+01 3.211782e+01 3.858924e+01 8.328986e+01 3.447384e+01 7.069032e+01 3.649651e+01 3.393582e+01 3.176640e+01 2.131591e+01 1.654575e+01 1.223249e+01 4.667926e+00 7.886765e+00 3.473048e+00 5.663988e+00 6.485534e+00 2.659030e+00 4.785532e+00 7.160876e+00 5.050906e+00 2.671464e+00 2.458854e+00 9.884939e-01 1.601682e+00 6.019162e-01 1.318908e+00 6.621094e-01 1.099002e+00 1.354024e+00 5.993527e-01 8.124623e-01 1.298386e+00 1.265885e+00 5.762038e-01 5.650985e-01 2.767145e-01
<GCONST> 1.366313e+02
<TRANSP> 5
 0.000000e+00 1.000000e+00 0.000000e+00 0.000000e+00 0.000000e+00
 0.000000e+00 5.577468e-01 4.422531e-01 0.000000e+00 0.000000e+00
 0.000000e+00 0.000000e+00 7.705386e-01 2.294614e-01 0.000000e+00
 0.000000e+00 0.000000e+00 0.000000e+00 6.820079e-01 3.179920e-01
 0.000000e+00 0.000000e+00 0.000000e+00 0.000000e+00 0.000000e+00
<ENDHMM>
~h "j"
<BEGINHMM>
<NUMSTATES> 5
<STATE> 2
<MEAN> 39
 -7.860563e+00 -8.256254e+00 5.956734e-01 -1.781353e+01 -1.221983e+01 -1.932177e+01 1.501465e+00 -1.340890e+01 -2.275768e+00 -1.116790e+01 2.058035e+00 -9.532327e+00 7.843957e+01 2.222139e-01 -1.799901e+00 -2.068002e+00 7.858191e-01 1.928735e+00 9.772399e-02 6.117833e-01 6.642674e-01 -1.948431e-03 -3.767125e+00 1.368406e-02 -1.094256e-01 1.070534e+00 1.146013e-01 1.967948e-01 -1.670680e-01 1.256455e-02 6.979379e-01 -1.921662e-02 -7.243121e-01 -4.603022e-01 7.256073e-02 -4.964415e-01 -2.813587e-01 4.338744e-02 -1.466316e-01
<VARIANCE> 39
 7.042836e+00 2.020898e+01 3.513751e+01 3.856426e+01 3.729138e+01 1.378034e+01 3.895403e+01 5.203480e+01 7.322621e+00 7.926759e+01 1.279345e+01 4.467487e+01 8.846455e+01 3.468938e-01 3.834172e+00 3.907651e+00 2.103338e+00 3.855117e+00 3.122459e+00 5.024459e+00 3.079035e+00 1.827209e+00 4.534995e+00 1.831686e+00 2.493671e+00 6.411565e-01 1.572531e-01 4.752662e-01 3.361157e-01 4.165724e-01 5.103750e-01 3.926646e-01 1.375534e+00 5.150903e-01 5.139073e-01 8.628238e-01 3.043216e-01 7.238100e-01 3.716125e-01
<GCONST> 1.158780e+02
<STATE> 3
<MEAN> 39
 -7.560907e+00 -1.196990e+01 -7.333757e+00 -1.320865e+01 -2.264262e+00 -1.744837e+01 -1.482112e+00 -1.177915e+01 -1.529199e+00 -2.594937e+01 -1.228266e-01 -7.392057e+00 7.754588e+01 7.741176e-01 -7.692799e-02 -1.586727e+00 -2.564132e-01 2.234736e+00 1.267189e-01 -2.121629e+00 -1.588824e+00 1.414818e+00 -2.577415e+00 -1.583600e-01 -7.630904e-01 1.183812e+00 1.218032e-01 3.531685e-01 1.979005e-01 -4.041698e-01 -4.525446e-01 2.206761e-01 -1.226800e-01 -2.422069e-01 4.607849e-01 1.230174e+00 7.765474e-02 -5.158822e-01 1.529739e-02
<VARIANCE> 39
 1.025853e+01 5.569840e+01 1.680034e+01 3.425045e+01 1.281080e+01 2.103100e+01 1.952571e+01 3.983359e+01 2.370618e+01 3.138061e+01 1.940601e+01 2.813808e+01 1.276769e+02 1.757002e+00 2.506722e+00 7.797750e-01 3.048020e+00 2.952998e+00 1.009076e+01 1.716596e+00 1.158737e+00 2.337519e+00 4.015601e+00 9.781195e-01 2.910057e+00 4.242414e+00 1.412796e-01 4.233877e-01 3.268424e-01 2.198887e-01 2.726224e-01 4.075992e-01 5.030656e-01 5.427660e-01 3.332317e-01 5.571622e-01 3.625315e-01 2.408595e-01 2.168606e-01
<GCONST> 1.109630e+02
<STATE> 4
<MEAN> 39
 -4.464411e+00 -1.135651e+01 -1.303301e+01 -1.684431e+01 3.075735e+00 -1.279258e+01 -6.766262e+00 -2.035407e+01 7.365542e+00 -2.497765e+01 6.879141e-01 -1.522541e+01 8.077288e+01 4.761694e-01 3.965705e-01 -4.384492e-01 -3.014764e-01 2.422435e-01 -2.206569e-02 -3.593782e-01 -4.480792e-01 9.011549e-01 6.424972e-01 -4.304934e-02 -6.553441e-01 7.338011e-02 -8.552974e-02 -7.394810e-02 2.734005e-01 1.605129e-01 -3.637080e-01 -2.228670e-01 3.291262e-01 3.094601e-01 -2.233837e-01 3.224025e-01 -1.596408e-01 3.005878e-01 -1.251469e-01
<VARIANCE> 39
 2.951877e+00 3.164654e+01 1.227575e+01 9.812860e+00 1.059193e+01 5.316820e+01 1.136152e+01 3.859001e+01 2.996848e+01 1.310301e+01 1.650409e+01 2.998508e+01 1.785818e+01 4.027739e-01 8.187144e-01 7.042048e-01 1.296066e+00 1.045616e+00 3.441922e+00 1.318618e+00 1.992771e+00 1.447630e+00 1.303772e+00 1.769180e+00 1.558399e+00 2.308046e+00 1.063351e-01 2.916452e-01 8.360805e-02 2.137862e-01 1.286660e-01 9.142620e-01 2.108683e-01 2.252925e-01 2.452806e-01 3.243453e-01 2.682036e-01 2.994718e-01 5.543924e-02
<GCONST> 9.138358e+01
<TRANSP> 5
 0.000000e+00 1.000000e+00 0.000000e+00 0.000000e+00 0.000000e+00
 0.000000e+00 6.735713e-01 3.264287e-01 0.000000e+00 0.000000e+00
 0.000000e+00 0.000000e+00 5.278893e-01 4.721107e-01 0.000000e+00
 0.000000e+00 0.000000e+00 0.000000e+00 8.378422e-01 1.621577e-01
 0.000000e+00 0.000000e+00 0.000000e+00 0.000000e+00 0.000000e+00
<ENDHMM>
~h "l"
<BEGINHMM>
<NUMSTATES> 5
<STATE> 2
<MEAN> 39
 -1.643601e+01 -7.498619e+00 -2.828123e+00 -7.636577e+00 -4.571793e+00 -1.246583e+01 -2.484672e+00 -1.710119e+00 -3.515669e+00 -5.692917e+00 -7.360896e-01 -3.196926e+00 5.714666e+01 2.175510e-02 -7.832842e-01 3.748460e-01 -1.275101e-01 -9.388576e-02 -1.207268e+00 1.340613e-01 8.270938e-01 9.082472e-02 -6.033138e-01 2.684048e-01 2.454377e-01 1.034020e+00 3.175133e-02 -5.422969e-02 -4.068239e-02 2.149558e-03 6.611480e-02 5.403863e-02 -6.585647e-02 3.479879e-02 -4.673332e-02 -8.745432e-02 8.843734e-02 -3.100555e-02 -1.296820e-01
<VARIANCE> 39
 4.995695e+01 4.269249e+01 5.061126e+01 6.053392e+01 4.940904e+01 5.871483e+01 4.626207e+01 6.916554e+01 4.280941e+01 5.919444e+01 2.394356e+01 2.576039e+01 1.050706e+02 4.364168e+00 3.144999e+00 5.253164e+00 5.864633e+00 4.117359e+00 4.701056e+00 5.440961e+00 4.574388e+00 3.494582e+00 4.032439e+00 2.512153e+00 3.034205e+00 5.954867e+00 8.392564e-01 5.566565e-01 9.654925e-01 1.111089e+00 7.865391e-01 9.375074e-01 1.032902e+00 8.716801e-01 6.563451e-01 8.076929e-01 5.641083e-01 5.556313e-01 1.064577e+00
<GCONST> 1.381829e+02
<STATE> 3
<MEAN> 39
 -1.732408e+01 -1.858309e+01 -3.614142e+00 -6.452629e+00 1.389336e+00 -1.574098e+01 -3.125501e+00 5.795749e+00 5.542516e-02 -1.269838e+01 4.117691e+00 -5.946771e+00 5.926764e+01 -3.485488e-03 -1.759553e-02 -8.349553e-02 5.534224e-02 1.494177e-01 9.048113e-02 1.416038e-01 6.126996e-03 -1.969281e-01 -4.839117e-02 -2.990923e-02 7.584510e-03 -5.176995e-02 7.037102e-02 1.546039e-01 -6.136805e-02 2.442000e-02 -1.255648e-01 6.080450e-02 -2.423448e-02 -9.883894e-02 -5.692457e-02 1.089123e-01 -9.374943e-02 7.098217e-02 -6.128555e-02
<VARIANCE> 39
 1.697427e+01 1.510524e+01 1.999489e+01 3.102400e+01 2.310990e+01 2.002234e+01 4.519756e+01 4.843472e+01 2.965474e+01 2.623405e+01 2.481942e+01 2.213744e+01 3.455184e+01 4.730605e-01 7.232524e-01 1.152453e+00 1.444092e+00 1.738030e+00 1.747283e+00 1.886484e+00 2.695511e+00 2.278762e+00 2.270882e+00 2.117887e+00 2.191329e+00 5.542695e-01 5.575108e-02 1.026951e-01 1.742880e-01 2.658529e-01 2.799092e-01 2.927530e-01 3.480123e-01 5.768273e-01 4.414557e-01 4.391491e-01 3.874729e-01 3.521638e-01 5.406157e-02
<GCONST> 9.986100e+01
<STATE> 4
<MEAN> 39
 -8.933083e+00 -7.624960e+00 -6.574877e+00 -1.000951e+01 -2.455996e+00 -1.862104e+01 -4.245334e+00 -4.394542e+00 -1.453523e+00 -1.541843e+01 -5.774205e-01 -2.830107e+00 6.527129e+01 3.445709e-01 5.222392e-01 -1.130079e-02 -1.017003e-01 -5.042977e-01 2.754689e-01 7.029498e-02 -6.343534e-01 -4.112297e-01 -2.761397e-01 6.242726e-02 2.965286e-01 3.548412e-01 -2.903983e-02 -2.112499e-01 -4.410968e-02 -5.078420e-03 5.416691e-02 3.998832e-01 5.703884e-02 -1.634254e-01 8.521142e-02 -3.848612e-02 1.074937e-01 -2.183275e-01 6.157553e-02
<VARIANCE> 39
 3.833083e+01 3.672608e+01 1.657284e+01 4.413338e+01 2.169371e+01 8.756169e+01 2.689417e+01 8.212843e+01 4.836253e+01 6.930352e+01 2.315138e+01 1.986945e+01 1.541116e+02 1.483781e+00 4.300452e+00 1.768251e+00 2.916552e+00 2.250078e+00 9.170111e+00 2.752420e+00 3.248384e+00 3.613658e+00 3.562401e+00 2.328072e+00 3.136532e+00 4.035827e+00 2.642431e-01 5.592907e-01 3.063816e-01 5.651212e-01 3.980206e-01 1.210137e+00 4.624971e-01 5.824998e-01 6.603653e-01 6.525928e-01 4.098592e-01 4.972757e-01 3.063918e-01
<GCONST> 1.253845e+02
<TRANSP> 5
 0.000000e+00 1.000000e+00 0.000000e+00 0.000000e+00 0.000000e+00
 0.000000e+00 7.996424e-01 2.003575e-01 0.000000e+00 0.000000e+00
 0.000000e+00 0.000000e+00 8.986993e-01 1.013007e-01 0.000000e+00
 0.000000e+00 0.000000e+00 0.000000e+00 7.287921e-01 2.712079e-01
 0.000000e+00 0.000000e+00 0.000000e+00 0.000000e+00 0.000000e+00
<ENDHMM>
~h "n"
<BEGINHMM>
<NUMSTATES> 5
<STATE> 2
<MEAN> 39
 -2.514606e+00 -6.529797e+00 -8.420648e+00 -9.991850e+00 -2.146356e+00 -1.889056e+01 -5.751442e+00 -1.261025e+01 -4.282830e-01 -1.530786e+01 -4.731538e+00 -9.284464e+00 7.343505e+01 2.998183e-01 -8.284103e-01 -2.987209e+00 -7.380023e-01 3.203339e+00 1.222219e+00 5.788022e-02 -1.373305e+00 1.406650e+00 -1.698302e-01 1.415756e+00 -1.927060e+00 5.784332e-01 -7.638792e-02 6.958942e-01 1.051664e+00 -5.505388e-01 -7.809274e-01 8.209867e-01 -2.946048e-02 -5.911152e-01 -4.487855e-01 4.840880e-01 2.690547e-01 1.628455e-01 -4.571496e-01
<VARIANCE> 39
 5.941422e+00 3.498382e+01 4.009921e+01 1.445587e+01 2.914257e+01 1.921314e+01 2.394140e+01 4.496482e+01 8.948774e+01 6.866607e+01 2.500385e+01 4.012097e+01 1.807652e+01 1.354766e+00 5.612003e+00 5.474921e+00 2.848454e+00 4.821600e+00 2.619447e+00 6.233803e+00 4.365315e+00 7.788890e+00 3.917474e+00 3.255440e+00 2.509299e+00 2.001151e+00 1.503322e-01 2.936078e-01 4.382757e-01 8.552951e-01 6.675543e-01 5.418867e-01 1.011949e+00 6.884022e-01 2.126714e+00 8.437201e-01 5.084363e-01 6.919990e-01 1.921633e-01
<GCONST> 1.244528e+02
<STATE> 3
<MEAN> 39
 -1.745038e+00 -6.181239e+00 -1.341310e+01 -1.321918e+01 2.749490e+00 -1.456052e+01 -4.414541e+00 -1.754113e+01 4.318962e-01 -1.503457e+01 6.163036e-01 -1.195398e+01 7.361162e+01 -9.054095e-04 -7.432646e-02 -7.695463e-01 -1.044263e+00 9.326166e-01 1.858841e+00 7.410973e-01 -1.264968e+00 1.393971e-02 -7.280440e-01 1.694842e+00 -2.024863e-01 1.926495e-03 -3.441106e-02 2.447079e-01 8.306639e-01 2.882898e-01 -7.539955e-01 -1.597484e-01 -3.154371e-01 2.956724e-01 1.850065e-01 -1.596565e-01 -5.220960e-01 5.125799e-01 -2.826956e-01
<VARIANCE> 39
 7.926088e+00 6.315184e+01 3.020600e+01 1.476162e+01 1.733417e+01 1.635097e+01 1.637630e+01 6.867692e+01 6.551480e+01 8.473709e+01 2.697721e+01 3.747275e+01 1.715684e+01 3.527626e-01 3.599291e+00 1.252152e+00 1.846786e+00 1.092949e+00 1.052853e+00 1.382893e+00 1.426775e+00 2.480803e+00 1.786781e+00 2.053705e+00 3.606068e+00 5.384341e-01 1.250777e-01 3.795564e-01 1.699485e-01 1.667168e-01 2.461965e-01 2.729620e-01 5.552948e-01 6.903008e-01 7.538337e-01 8.030803e-01 2.932234e-01 4.624407e-01 2.505954e-01
<GCONST> 1.056632e+02
<STATE> 4
<MEAN> 39
 -1.916494e+00 -6.572539e+00 -1.314474e+01 -1.453805e+01 2.497360e+00 -1.175414e+01 -3.848427e+00 -1.806125e+01 -3.256693e-01 -1.801499e+01 1.361189e+00 -9.907571e+00 7.337595e+01 -1.377495e-01 -2.205341e-01 -4.208551e-02 -1.887855e-01 4.162386e-01 8.396052e-01 -8.108017e-02 -4.644574e-01 9.296387e-01 -5.304309e-01 4.328857e-01 -2.292566e-01 -3.689501e-02 -1.104826e-02 5.888771e-02 3.239888e-01 4.721219e-01 -1.806655e-01 -6.587202e-01 -5.605680e-01 3.924152e-01 3.477576e-01 2.088483e-01 -5.681853e-01 -2.548248e-02 -1.157577e-01
<VARIANCE> 39
 1.062599e+01 1.029622e+02 4.234479e+01 2.631695e+01 2.379892e+01 2.767196e+01 1.927925e+01 7.332047e+01 6.003441e+01 5.228355e+01 3.570869e+01 3.385268e+01 2.620446e+01 1.932641e-01 1.416831e+00 5.701675e-01 1.487910e+00 1.036088e+00 1.085142e+00 1.651174e+00 1.317375e+00 1.596897e+00 2.368630e+00 1.414448e+00 2.092639e+00 2.229856e-01 9.316266e-02 4.159025e-01 1.583338e-01 1.923252e-01 2.144406e-01 2.926177e-01 2.462348e-01 4.482093e-01 2.957605e-01 4.705038e-01 4.314175e-01 7.342668e-01 1.541178e-01
<GCONST> 1.014926e+02
<TRANSP> 5
 0.000000e+00 1.000000e+00 0.000000e+00 0.000000e+00 0.000000e+00
 0.000000e+00 4.120183e-01 5.879817e-01 0.000000e+00 0.000000e+00
 0.000000e+00 0.000000e+00 4.257696e-01 5.742304e-01 0.000000e+00
 0.000000e+00 0.000000e+00 0.000000e+00 2.514573e-01 7.485427e-01
 0.000000e+00 0.000000e+00 0.000000e+00 0.000000e+00 0.000000e+00
<ENDHMM>
~h "o"
<BEGINHMM>
<NUMSTATES> 5
<STATE> 2
<MEAN> 39
 -1.188276e+01 -1.245821e+01 -1.293648e+01 -2.289446e+00 5.135892e+00 -9.290613e+00 -1.343058e+01 -7.103027e-01 2.522134e+00 -5.723709e+00 -2.531669e+00 -6.321648e+00 5.130090e+01 3.636775e-01 1.197536e+00 -1.445236e-01 -3.250471e-01 -8.623897e-01 1.859888e+00 4.935402e-01 -1.732843e+00 -8.420267e-01 1.824549e+00 -4.792501e-01 2.908682e-01 -9.185593e-01 -2.040575e-01 1.501597e-01 3.664626e-01 -2.387641e-01 -2.389527e-01 -1.062208e-02 4.306647e-01 -3.386509e-02 -1.743929e-01 -1.377478e-01 2.493026e-01 7.298972e-02 3.596336e-02
<VARIANCE> 39
 2.338289e+00 8.061220e+00 1.202822e+01 1.406296e+01 1.791058e+01 1.988608e+01 1.675929e+01 2.710643e+01 1.696584e+01 2.215412e+01 2.275179e+01 1.800846e+01 4.474839e+00 3.895740e-01 4.816212e-01 1.020909e+00 1.345927e+00 1.236843e+00 1.611666e+00 1.910703e+00 1.942467e+00 2.351787e+00 2.190628e+00 1.803043e+00 1.731421e+00 2.556402e-01 4.614001e-02 7.744829e-02 1.647320e-01 2.493976e-01 1.756825e-01 2.992178e-01 3.398019e-01 4.659262e-01 3.861783e-01 4.598582e-01 2.992927e-01 2.951021e-01 1.881304e-02
<GCONST> 8.549794e+01
<STATE> 3
<MEAN> 39
 -1.298630e+01 -5.596435e+00 -8.169121e+00 -5.581840e+00 -1.182675e+00 -2.593380e+00 -6.272406e+00 -5.680756e+00 -3.757652e+00 -1.584766e+00 -1.934355e+00 -3.920151e+00 4.775803e+01 -1.832668e-01 8.368132e-01 7.641170e-01 -5.176825e-01 -1.078087e+00 3.681599e-01 1.119768e+00 -1.095354e-01 -8.922889e-01 -2.830970e-01 4.071721e-02 5.463758e-01 -2.894192e-01 1.304992e-01 -1.561453e-02 -5.322866e-02 -9.311593e-02 5.071167e-02 -3.713943e-01 -1.689331e-01 1.259227e-01 1.249293e-01 -3.984523e-01 5.153611e-03 -3.980498e-02 2.423408e-01
<VARIANCE> 39
 3.996578e+00 5.973703e+00 1.682065e+01 1.363798e+01 1.859901e+01 1.135205e+01 1.814810e+01 1.465944e+01 1.792093e+01 1.390156e+01 1.235453e+01 1.397783e+01 3.257426e+00 3.648732e-01 7.297517e-01 1.501431e+00 1.291882e+00 1.627391e+00 1.623271e+00 1.690554e+00 1.988163e+00 2.017873e+00 1.816106e+00 1.760261e+00 1.615638e+00 3.832002e-01 2.388062e-01 1.732394e-01 3.106243e-01 3.195182e-01 3.432700e-01 3.707662e-01 3.547342e-01 5.972190e-01 3.472443e-01 4.065364e-01 3.301133e-01 2.998261e-01 7.386322e-02
<GCONST> 8.999493e+01
<STATE> 4
<MEAN> 39
 -1.710837e+00 5.519529e-01 -1.363387e+01 -2.112666e+01 -2.178521e+00 -7.734575e+00 -5.651560e+00 -1.530586e+01 -1.660915e+00 -1.283530e+01 -6.780922e-01 -5.719945e+00 6.534438e+01 6.576111e-01 -3.439435e-01 -3.022966e-01 -7.198020e-01 2.997116e-01 -9.383923e-01 -1.996253e-01 -7.642919e-01 1.044705e+00 -1.058830e+00 -2.412224e-01 -5.830061e-01 2.058355e+00 -1.689491e-01 -1.621693e-01 1.454276e-01 2.371527e-01 4.213244e-02 -1.558083e-01 4.737584e-02 2.493857e-01 5.385225e-02 2.173521e-02 -9.709725e-02 9.716856e-02 -8.208638e-02
<VARIANCE> 39
 5.693268e+01 5.064566e+01 3.951332e+01 8.128918e+01 4.775923e+01 2.876949e+01 2.213517e+01 5.651835e+01 6.967192e+01 6.449574e+01 4.768981e+01 4.685103e+01 1.402527e+02 6.410068e+00 6.276795e+00 3.762866e+00 9.090183e+00 4.715908e+00 3.711478e+00 2.271601e+00 5.281662e+00 3.608569e+00 4.609400e+00 4.980042e+00 3.737577e+00 2.586300e+00 8.832791e-01 8.030143e-01 4.991010e-01 1.176213e+00 8.134190e-01 7.099324e-01 4.498409e-01 8.462762e-01 7.614126e-01 8.283939e-01 9.066005e-01 9.355310e-01 3.901174e-01
<GCONST> 1.384432e+02
<TRANSP> 5
 0.000000e+00 1.000000e+00 0.000000e+00 0.000000e+00 0.000000e+00
 0.000000e+00 7.722259e-01 2.277741e-01 0.000000e+00 0.000000e+00
 0.000000e+00 0.000000e+00 8.192479e-01 1.807521e-01 0.000000e+00
 0.000000e+00 0.000000e+00 0.000000e+00 8.608370e-01 1.391630e-01
 0.000000e+00 0.000000e+00 0.000000e+00 0.000000e+00 0.000000e+00
<ENDHMM>
~h "q"
<BEGINHMM>
<NUMSTATES> 5
<STATE> 2
<MEAN> 39
 -5.501660e+00 1.173550e+01 8.545058e+00 -1.957461e+01 -1.377879e+01 -7.333992e+00 -2.004840e+01 -1.171239e+01 -1.408154e+01 1.594393e+00 -1.923254e+01 -4.205712e+00 6.633899e+01 1.257983e+00 -5.680524e-01 -9.227365e-01 1.820626e+00 -6.772031e-01 -1.907821e-01 -3.413360e-01 1.562546e-01 -2.012954e-01 1.828783e-01 -1.654309e-01 3.299894e-01 -7.633857e-01 2.142737e-01 1.701606e-02 -1.465264e-01 1.720165e-01 1.738112e-01 -5.042762e-01 3.087379e-01 -2.185452e-01 1.646305e-01 -2.521613e-01 3.066441e-01 -1.913496e-01 -1.535305e-01
<VARIANCE> 39
 7.259618e+00 3.074364e+01 1.107304e+01 2.515686e+01 2.717488e+01 3.594633e+01 3.705433e+01 3.615036e+01 2.304744e+01 2.927040e+01 2.642195e+01 2.707397e+01 7.449483e+00 7.350950e-01 1.092180e+00 8.455197e-01 1.714986e+00 1.395626e+00 2.717595e+00 2.201948e+00 1.870841e+00 1.671498e+00 2.219542e+00 1.713507e+00 1.312812e+00 4.963759e-01 7.520507e-02 1.625322e-01 1.449698e-01 2.906902e-01 3.633461e-01 4.364905e-01 3.653084e-01 3.674922e-01 3.449446e-01 4.834581e-01 2.724581e-01 2.577397e-01 3.931556e-02
<GCONST> 9.711250e+01
<STATE> 3
<MEAN> 39
 2.590690e+00 9.419733e+00 3.511355e+00 -1.201218e+01 -1.251619e+01 -1.468101e+01 -1.676543e+01 -1.457749e+01 -1.244398e+01 -2.476601e+00 -1.587008e+01 -4.555815e+00 6.177275e+01 9.586836e-01 4.052675e-01 -3.571530e-01 7.285529e-01 8.895285e-01 -1.247912e+00 4.159824e-01 -6.227219e-01 1.398088e-01 -2.079908e+00 1.067561e+00 -9.061265e-01 -1.049984e+00 -7.431878e-01 1.387323e-01 2.969418e-01 -2.096884e-01 1.806647e-01 4.792748e-01 -4.931409e-02 2.229358e-02 -1.425555e-01 -3.879104e-01 -4.984204e-02 -3.288614e-01 2.075145e-01
<VARIANCE> 39
 6.804408e+00 2.100986e+01 9.535599e+00 1.208404e+01 2.677497e+01 2.687209e+01 2.140848e+01 3.119707e+01 2.071734e+01 4.817810e+01 2.828297e+01 2.187793e+01 6.346298e+00 1.157770e+00 1.256178e+00 1.380298e+00 1.389129e+00 1.442835e+00 3.713679e+00 2.550241e+00 2.214891e+00 1.989549e+00 3.759064e+00 2.305158e+00 1.678201e+00 4.749336e-01 3.102464e-01 2.620353e-01 2.996674e-01 3.875095e-01 3.362819e-01 4.709843e-01 4.621268e-01 4.549257e-01 3.764745e-01 8.000109e-01 5.003890e-01 3.121447e-01 8.323923e-02
<GCONST> 1.030990e+02
<STATE> 4
<MEAN> 39
 -5.426063e-01 1.119502e+01 5.937277e+00 -9.729645e+00 -8.440309e+00 -1.482198e+01 -1.608597e+01 -1.701896e+01 -1.490501e+01 -1.183661e+01 -1.382999e+01 -1.072531e+01 5.958879e+01 -4.064790e+00 -5.564175e-01 -1.365987e+00 1.569786e+00 1.531305e+00 9.110397e-01 1.556341e+00 2.492528e-01 2.699774e-01 -1.158330e+00 7.268007e-01 -1.570236e+00 1.066713e+00 -1.454671e+00 -3.826573e-01 -1.283527e+00 1.418199e-01 -1.695541e-01 4.122253e-01 6.657704e-01 5.941548e-01 9.325377e-01 1.109183e+00 5.799297e-01 5.758238e-01 8.875834e-01
<VARIANCE> 39
 2.517903e+01 1.465914e+01 2.203822e+01 1.763348e+01 2.726805e+01 1.394830e+01 1.560997e+01 1.530498e+01 2.300998e+01 2.430666e+01 1.944073e+01 1.958554e+01 5.370382e+00 4.405058e+00 3.915998e+00 7.520420e+00 2.503061e+00 2.305882e+00 2.018997e+00 2.866149e+00 3.304146e+00 4.061033e+00 6.292961e+00 3.309541e+00 3.399428e+00 3.414027e+00 4.046149e-01 4.633528e-01 7.916310e-01 4.697534e-01 5.351247e-01 3.525455e-01 3.473139e-01 4.188189e-01 6.512259e-01 6.042364e-01 5.818486e-01 5.944616e-01 1.844973e-01
<GCONST> 1.154327e+02
<TRANSP> 5
 0.000000e+00 1.000000e+00 0.000000e+00 0.000000e+00 0.000000e+00
 0.000000e+00 7.959166e-01 2.040834e-01 0.000000e+00 0.000000e+00
 0.000000e+00 0.000000e+00 7.577826e-01 2.422173e-01 0.000000e+00
 0.000000e+00 0.000000e+00 0.000000e+00 6.577663e-01 3.422337e-01
 0.000000e+00 0.000000e+00 0.000000e+00 0.000000e+00 0.000000e+00
<ENDHMM>
~h "s"
<BEGINHMM>
<NUMSTATES> 5
<STATE> 2
<MEAN> 39
 -1.304623e+01 -6.317544e+00 -2.720393e+00 -6.006470e+00 -5.049729e+00 -9.590100e+00 -3.485468e+00 -1.973621e+00 -3.916721e+00 -9.969761e+00 -1.371500e+00 1.100677e+00 5.273711e+01 2.122587e+00 1.639016e+00 4.815531e-02 -1.362492e+00 9.973833e-01 -2.619467e+00 -8.305299e-02 -1.055588e+00 -6.479333e-01 -3.112075e+00 -1.370847e-01 4.638708e-01 2.539370e+00 8.820570e-01 4.484990e-01 -4.014475e-01 -1.023328e+00 1.701141e-01 -7.867550e-01 -2.863605e-01 -7.725438e-01 1.102065e-01 -1.901123e-01 -1.272740e-01 -7.142639e-01 1.123751e+00
<VARIANCE> 39
 1.055833e+01 1.184979e+01 1.006390e+01 2.526442e+01 1.932854e+01 3.365171e+01 2.490750e+01 3.986250e+01 2.365503e+01 2.473641e+01 2.463007e+01 3.393553e+01 9.023064e+01 2.915323e+00 3.826867e+00 3.104449e+00 6.373829e+00 3.046675e+00 7.045032e+00 2.284843e+00 5.451576e+00 2.145272e+00 2.972986e+00 1.938300e+00 2.403744e+00 3.106023e+00 2.063579e-01 3.156775e-01 2.745115e-01 6.073654e-01 5.322618e-01 8.372723e-01 3.011698e-01 4.142623e-01 3.888291e-01 5.780324e-01 4.433506e-01 4.088418e-01 3.686472e-01
<GCONST> 1.169258e+02
<STATE> 3
<MEAN> 39
 -2.067555e-01 1.809537e+00 -8.657828e+00 -1.932878e+01 -3.690195e+00 -1.966433e+01 -5.500010e+00 -1.183558e+01 -3.489688e+00 -1.660234e+01 -9.729016e-01 -3.826658e+00 6.637019e+01 1.564728e+00 -9.158494e-01 -1.863417e+00 -2.193746e+00 1.207525e+00 -1.498431e+00 8.688357e-02 -1.619764e+00 1.531718e+00 -1.371075e+00 5.048281e-01 -1.708326e+00 4.279769e+00 -9.238359e-01 -1.158895e+00 4.072562e-02 7.648165e-01 1.014428e-02 1.270593e+00 1.913111e-01 7.667874e-02 3.801887e-01 2.859000e-01 9.264001e-02 -2.059095e-01 -1.993924e-01
<VARIANCE> 39
 1.458977e+01 2.949536e+01 5.677652e+01 5.858678e+01 3.276490e+01 1.299294e+02 2.954404e+01 5.724206e+01 4.942966e+01 2.148102e+01 1.544079e+01 3.006778e+01 5.247892e+01 4.245392e+00 4.768883e+00 1.075721e+00 5.222399e+00 3.505133e+00 8.619715e+00 2.329912e+00 2.772255e+00 1.808841e+00 3.631107e+00 2.706045e+00 1.479013e+00 3.373133e+00 2.857080e-01 4.837780e-01 4.255092e-01 5.616577e-01 7.289159e-01 2.009089e+00 7.528099e-01 7.603011e-01 4.855958e-01 3.462129e-01 5.304506e-01 4.291991e-01 4.047925e-01
<GCONST> 1.254480e+02
<STATE> 4
<MEAN> 39
 -3.661462e+00 -9.644011e+00 -1.027803e+01 -1.568602e+01 -8.408893e-01 -1.997131e+01 -3.611704e+00 -1.359163e+01 4.081426e+00 -2.245818e+01 -1.427441e+00 -8.191464e+00 7.897474e+01 -4.739904e-01 -1.341710e+00 -1.457775e-01 6.631098e-01 5.970564e-02 1.289856e+00 4.195684e-01 -3.781091e-01 2.187893e-03 -1.254931e+00 8.215904e-04 -4.369148e-01 9.482757e-01 -1.758108e-02 2.405002e-01 1.274346e-01 9.232127e-02 -9.320389e-02 1.296455e-01 -1.375158e-01 -9.270309e-03 -2.332116e-01 1.340497e-01 1.114595e-01 5.457868e-02 -3.247634e-01
<VARIANCE> 39
 4.352818e+00 3.035634e+01 2.576436e+01 1.637809e+01 1.451087e+01 6.536457e+01 3.486171e+01 3.106314e+01 3.336369e+01 3.371348e+01 1.906250e+01 5.444619e+01 7.454225e+00 2.825477e-01 3.500724e+00 1.872736e+00 1.236671e+00 1.944820e+00 1.003797e+01 2.653201e+00 4.850231e+00 2.434492e+00 2.784265e+00 2.976996e+00 5.929390e+00 1.507078e+00 7.626010e-02 4.519134e-01 2.204629e-01 2.321082e-01 2.868500e-01 1.072160e+00 4.483107e-01 6.981725e-01 4.004797e-01 6.494298e-01 5.835580e-01 8.927937e-01 2.512812e-01
<GCONST> 1.119162e+02
<TRANSP> 5
 0.000000e+00 1.000000e+00 0.000000e+00 0.000000e+00 0.000000e+00
 0.000000e+00 5.639307e-01 4.360692e-01 0.000000e+00 0.000000e+00
 0.000000e+00 0.000000e+00 6.925607e-01 3.074393e-01 0.000000e+00
 0.000000e+00 0.000000e+00 0.000000e+00 8.608800e-01 1.391199e-01
 0.000000e+00 0.000000e+00 0.000000e+00 0.000000e+00 0.000000e+00
<ENDHMM>
~h "t"
<BEGINHMM>
<NUMSTATES> 5
<STATE> 2
<MEAN> 39
 -8.739745e+00 -6.164186e+00 -6.801728e+00 -8.999600e+00 -1.624599e+00 -1.818426e+01 -1.851877e+00 -1.179641e+01 1.220871e+00 -1.771986e+01 -5.083079e+00 -5.584583e+00 7.294594e+01 -6.505974e-01 -1.197582e-02 7.692264e-01 1.364634e+00 2.724239e-01 1.045434e+00 -6.281065e-01 -7.258286e-02 -2.445265e+00 -6.708270e-01 2.011795e-01 6.877652e-02 -3.540737e-01 1.549794e-01 -1.647152e-01 -2.691063e-01 -3.660163e-01 2.454643e-01 1.518307e-01 -2.031785e-01 -4.475262e-01 1.942704e-01 -2.169992e-01 -1.088850e-02 -4.271461e-01 2.417447e-01
<VARIANCE> 39
 3.051626e+01 2.782073e+01 2.225264e+01 3.079837e+01 2.415169e+01 6.782449e+01 3.374102e+01 3.922364e+01 6.753609e+01 7.260196e+01 3.341843e+01 2.205168e+01 3.460817e+01 3.611172e+00 5.035036e+00 2.855373e+00 2.600658e+00 3.229876e+00 5.881400e+00 6.530097e+00 8.020262e+00 6.607293e+00 1.521627e+01 4.494037e+00 4.016891e+00 6.690146e+00 8.123576e-01 1.011609e+00 5.965486e-01 4.080216e-01 5.642689e-01 1.398331e+00 1.553415e+00 1.458127e+00 1.542645e+00 3.132790e+00 9.276690e-01 4.291629e-01 1.275884e+00
<GCONST> 1.392666e+02
<STATE> 3
<MEAN> 39
 -4.859308e+00 -1.025514e+01 -1.502721e+01 -1.319027e+01 3.735085e+00 -1.047364e+01 -9.804443e+00 -2.387929e+01 2.703760e+00 -2.829192e+01 2.857612e+00 -1.796456e+01 7.816462e+01 7.071911e-01 1.715491e-01 -7.947052e-01 -6.670786e-01 3.714941e-02 6.453122e-02 -6.507648e-01 -4.177811e-01 1.090857e+00 -2.791709e-02 7.701237e-01 -6.743450e-01 1.685750e-02 -1.112110e-01 9.792206e-02 2.811672e-01 1.306885e-01 -1.475864e-01 -1.587696e-01 1.962400e-01 4.241207e-01 -8.653949e-02 3.767840e-01 -2.220603e-01 4.134303e-01 -1.412124e-01
<VARIANCE> 39
 9.175097e+00 1.083250e+01 2.948374e+01 1.852506e+01 1.184035e+01 2.390039e+01 2.598267e+01 2.214348e+01 5.073634e+01 1.975031e+01 5.063713e+01 2.652482e+01 6.363333e+00 5.279009e-01 1.043150e+00 3.008129e+00 1.566511e+00 1.350252e+00 2.804609e+00 1.868601e+00 3.590661e+00 3.346568e+00 2.101712e+00 4.156344e+00 3.446021e+00 7.019322e-01 7.282497e-02 1.261225e-01 4.840806e-01 2.624204e-01 2.854979e-01 4.530004e-01 3.999748e-01 3.129679e-01 1.026067e+00 5.877417e-01 8.721576e-01 4.652990e-01 3.580576e-02
<GCONST> 1.033759e+02
<STATE> 4
<MEAN> 39
 -1.737373e+00 -3.539801e-03 1.893018e+00 -1.314973e+01 -6.071841e+00 -1.212340e+01 -1.196201e+01 -1.562488e+01 -9.085550e+00 -1.201994e+01 -7.109190e+00 -1.023164e+01 6.748724e+01 -4.467754e-01 5.346249e-01 2.113904e+00 -8.191267e-02 -1.635088e+00 2.215724e-01 9.438543e-01 4.077552e-01 -1.374044e+00 1.675801e+00 -1.028024e+00 6.386440e-01 -4.382451e-01 2.288053e-02 -1.852627e-01 -4.895019e-01 1.784034e-01 4.843716e-02 -4.566868e-02 1.830815e-01 -6.833670e-02 3.794482e-01 -3.585052e-01 3.687385e-01 -2.254819e-01 1.768234e-01
<VARIANCE> 39
 2.159859e+01 3.864097e+01 1.039504e+02 4.497997e+01 5.209828e+01 4.402413e+01 3.819683e+01 2.503822e+01 7.358714e+01 8.946553e+01 4.206711e+01 2.581872e+01 2.823903e+01 3.253208e+00 2.590766e+00 7.470407e+00 7.079435e+00 4.739723e+00 5.527461e+00 6.062562e+00 3.453918e+00 7.129916e+00 4.873222e+00 4.615879e+00 4.659223e+00 3.629352e+00 7.738122e-01 3.911036e-01 2.287048e+00 1.758326e+00 1.345837e+00 1.309174e+00 1.026414e+00 6.590105e-01 1.089345e+00 1.140748e+00 5.253686e-01 7.883128e-01 4.373930e-01
<GCONST> 1.397719e+02
<TRANSP> 5
 0.000000e+00 1.000000e+00 0.000000e+00 0.000000e+00 0.000000e+00
 0.000000e+00 8.866919e-01 1.133080e-01 0.000000e+00 0.000000e+00
 0.000000e+00 0.000000e+00 9.209864e-01 7.901358e-02 0.000000e+00
 0.000000e+00 0.000000e+00 0.000000e+00 9.209209e-01 7.907912e-02
 0.000000e+00 0.000000e+00 0.000000e+00 0.000000e+00 0.000000e+00
<ENDHMM>
~h "u"
<BEGINHMM>
<NUMSTATES> 5
<STATE> 2
<MEAN> 39
 3.733839e+00 1.072387e+01 -1.536801e+01 -2.341674e+01 -7.043469e+00 -9.547643e+00 -7.758536e-01 -1.904970e+01 -1.323785e+01 -4.755512e+00 -1.615445e+01 5.332049e+00 6.703225e+01 -2.569934e-01 -6.911673e-01 1.143561e-01 5.429144e-01 5.926460e-01 6.691847e-01 -4.895505e-01 -6.663793e-01 8.829481e-01 2.426039e-01 6.384934e-01 -5.288621e-01 3.563585e-01 -2.300630e-01 -4.169781e-01 1.460195e-01 5.125198e-01 1.836697e-01 -1.736204e-01 -1.871421e-01 2.113913e-01 1.951728e-01 1.517789e-01 2.616601e-01 -3.656321e-01 -1.797215e-01
<VARIANCE> 39
 6.218843e+00 1.667894e+01 1.747738e+01 1.817480e+01 2.104401e+01 4.161501e+01 1.693629e+01 2.033290e+01 3.815702e+01 3.172423e+01 3.685352e+01 2.337981e+01 5.712949e+00 4.688303e-01 1.631693e+00 1.526399e+00 3.436586e+00 3.188030e+00 3.504602e+00 2.917359e+00 2.440863e+00 2.755692e+00 5.514204e+00 3.464382e+00 3.176427e+00 6.854385e-01 1.309849e-01 2.403241e-01 5.306361e-01 3.191725e-01 6.581915e-01 1.007769e+00 5.015813e-01 8.064621e-01 7.028441e-01 1.058480e+00 5.775567e-01 6.091220e-01 1.143790e-01
<GCONST> 1.107461e+02
<STATE> 3
<MEAN> 39
 -5.486350e-01 2.639591e+00 -1.749689e+00 -8.670713e+00 -6.691780e+00 -1.223514e+01 -1.000315e+01 -1.469147e+01 -8.235431e+00 -2.172643e+00 -8.267849e+00 -8.196500e+00 6.444166e+01 -6.929239e-01 -1.556808e-01 3.259763e+00 1.001917e+00 -1.598955e+00 -6.337936e-01 -6.001489e-01 1.763803e+00 -8.009686e-02 -7.381281e-01 7.193047e-01 -1.706734e+00 -4.202771e-01 -3.372946e-02 3.515438e-01 2.458755e-01 -6.847546e-01 -4.808697e-01 5.124901e-01 4.027709e-01 -1.170055e-01 -1.527804e-01 -4.606379e-01 -9.447590e-02 4.992170e-01 3.732439e-03
<VARIANCE> 39
 9.721039e+00 2.080734e+01 1.062558e+02 3.845301e+01 5.966544e+01 4.378395e+01 2.181112e+01 5.315017e+01 2.885333e+01 4.491018e+01 2.441719e+01 3.442098e+01 2.154008e+01 2.101512e+00 2.858809e+00 7.997753e+00 7.974398e+00 7.674267e+00 7.091304e+00 3.255142e+00 5.562160e+00 2.534906e+00 6.485113e+00 2.149496e+00 4.297259e+00 1.201790e+00 4.921830e-01 4.847178e-01 2.099149e+00 9.834476e-01 2.092901e+00 1.241092e+00 6.360807e-01 1.461002e+00 4.480763e-01 1.617990e+00 3.668530e-01 4.930327e-01 3.182624e-01
<GCONST> 1.322410e+02
<STATE> 4
<MEAN> 39
 -5.382912e+00 3.097820e+00 9.950853e+00 -1.115225e+01 -1.505014e+01 -1.195757e+01 -4.901353e+00 -1.356836e+01 -9.849031e+00 -5.954720e+00 -3.639074e+00 -9.967704e+00 6.634059e+01 -2.022273e-01 -7.954798e-01 -8.082022e-01 2.612818e-01 8.843136e-02 -9.885561e-01 1.047983e+00 4.729019e-02 9.076430e-01 -4.307224e-01 2.666222e-01 2.150006e-01 8.477864e-01 3.006920e-01 -1.538326e-01 -1.032865e+00 1.901323e-01 7.992388e-01 -2.448709e-01 -2.457191e-01 -8.222649e-02 5.128777e-01 -2.169502e-02 -1.254243e-01 -1.023736e-01 4.616082e-02
<VARIANCE> 39
 2.286207e+01 2.170340e+01 5.697777e+01 6.108591e+01 4.163530e+01 4.250271e+01 5.955680e+01 2.184320e+01 2.745022e+01 3.644865e+01 2.321042e+01 1.910300e+01 2.058186e+01 4.053756e+00 3.015244e+00 1.642705e+01 1.017291e+01 9.908703e+00 7.011700e+00 7.120831e+00 2.610673e+00 6.714814e+00 5.815976e+00 2.303024e+00 1.487580e+00 2.530025e+00 8.310411e-01 4.382777e-01 2.311641e+00 2.356692e+00 1.939189e+00 1.462031e+00 1.891052e+00 6.994676e-01 9.586838e-01 1.273343e+00 4.235564e-01 3.481099e-01 3.524449e-01
<GCONST> 1.365750e+02
<TRANSP> 5
 0.000000e+00 1.000000e+00 0.000000e+00 0.000000e+00 0.000000e+00
 0.000000e+00 8.979387e-01 1.020613e-01 0.000000e+00 0.000000e+00
 0.000000e+00 0.000000e+00 8.479725e-01 1.520275e-01 0.000000e+00
 0.000000e+00 0.000000e+00 0.000000e+00 8.868188e-01 1.131812e-01
 0.000000e+00 0.000000e+00 0.000000e+00 0.000000e+00 0.000000e+00
<ENDHMM>
~h "w"
<BEGINHMM>
<NUMSTATES> 5
<STATE> 2
<MEAN> 39
 -1.633212e+01 -9.574928e+00 -3.732293e+00 -6.415141e+00 -5.851764e+00 -1.196655e+01 -3.670183e+00 -9.023131e-01 -3.791774e+00 -4.317720e+00 -2.143732e+00 -3.001235e+00 5.323251e+01 9.707206e-03 -1.069489e+00 2.279314e-01 -1.312036e-01 2.882435e-01 -7.963670e-01 4.227934e-02 8.185151e-01 3.945905e-01 -4.280114e-01 1.271672e-02 5.303648e-02 7.790010e-01 1.758570e-02 9.782394e-03 -8.035829e-02 5.497108e-02 1.104660e-01 9.076954e-02 -9.465635e-02 1.947653e-02 5.091237e-02 -1.031630e-01 2.133324e-02 -2.657731e-02 -1.415105e-01
<VARIANCE> 39
 2.537149e+01 6.681554e+01 4.480395e+01 4.998027e+01 4.086741e+01 5.345257e+01 6.192013e+01 6.642683e+01 5.456792e+01 3.247955e+01 2.764945e+01 2.371204e+01 5.913810e+01 3.067895e+00 3.620207e+00 4.155409e+00 5.249343e+00 3.554589e+00 4.874032e+00 6.115375e+00 4.131430e+00 4.240386e+00 3.751801e+00 2.837375e+00 2.628107e+00 5.816420e+00 6.376591e-01 7.398810e-01 6.897603e-01 9.893269e-01 6.147304e-01 9.728202e-01 1.172107e+00 8.243218e-01 8.067553e-01 7.337755e-01 5.605498e-01 5.286110e-01 1.072366e+00
<GCONST> 1.356390e+02
<STATE> 3
<MEAN> 39
 -1.677011e+01 -1.749564e+01 -5.216452e+00 -5.094859e+00 3.914194e+00 -1.729901e+01 -8.069512e+00 6.862147e+00 4.193611e+00 -1.278066e+01 1.847586e+00 -4.537054e+00 5.641817e+01 -1.122189e-01 2.954031e-02 -1.506824e-01 -9.044342e-02 5.198357e-01 -1.857009e-02 -2.157934e-02 -2.232078e-01 2.148145e-01 -2.848443e-01 3.532135e-01 -2.889672e-01 2.126999e-01 4.103590e-02 4.807829e-02 -4.529402e-02 1.684236e-02 -7.592712e-02 4.590544e-02 -3.118004e-03 -6.950621e-02 -5.220565e-02 1.053925e-01 -4.651219e-02 -1.718341e-03 -2.268627e-02
<VARIANCE> 39
 1.215663e+01 7.314653e+00 2.168967e+01 3.300723e+01 2.438569e+01 1.366023e+01 2.988709e+01 3.164668e+01 3.216407e+01 2.719424e+01 2.888240e+01 2.141831e+01 1.408235e+01 2.689402e-01 3.767804e-01 8.739268e-01 1.281234e+00 1.708533e+00 1.323931e+00 1.775299e+00 1.909461e+00 2.567591e+00 2.231462e+00 2.013584e+00 1.506907e+00 2.239771e-01 3.622596e-02 8.211953e-02 1.477639e-01 2.327296e-01 2.980892e-01 2.791596e-01 3.246906e-01 3.993508e-01 5.217981e-01 4.187268e-01 3.925390e-01 3.132577e-01 3.144401e-02
<GCONST> 9.167234e+01
<STATE> 4
<MEAN> 39
 -1.694655e+01 -1.430205e+01 -8.242861e+00 -6.147615e+00 8.420568e+00 -1.514180e+01 -1.000527e+01 3.571013e+00 3.763376e+00 -1.028241e+01 2.496425e+00 -7.311370e+00 5.620449e+01 6.862185e-01 3.443786e-01 -8.008468e-01 5.323178e-01 1.193838e-01 7.085680e-01 -8.604195e-01 -4.215316e-01 -2.807556e-01 6.700649e-01 -5.999464e-01 -1.326936e-01 -6.673183e-01 1.045834e-01 1.220141e-01 -2.847268e-02 1.027181e-02 -1.325500e-01 2.572810e-01 1.384290e-02 -1.618219e-01 -1.260174e-01 2.324202e-01 -1.708332e-01 1.234626e-01 -1.398413e-01
<VARIANCE> 39
 1.256225e+01 3.073598e+01 2.218739e+01 2.461537e+01 1.933767e+01 1.976754e+01 2.907887e+01 2.643674e+01 4.231135e+01 4.640455e+01 2.788286e+01 2.114652e+01 1.627948e+01 4.612025e-01 5.394305e-01 1.001180e+00 1.299505e+00 1.207868e+00 1.599267e+00 1.677675e+00 1.899441e+00 2.104854e+00 1.984892e+00 1.856156e+00 1.809888e+00 3.394558e-01 6.077688e-02 9.864418e-02 1.643186e-01 2.488386e-01 2.845058e-01 3.072880e-01 3.249158e-01 4.264864e-01 4.263749e-01 4.235714e-01 3.163939e-01 3.762539e-01 2.953996e-02
<GCONST> 9.544072e+01
<TRANSP> 5
 0.000000e+00 1.000000e+00 0.000000e+00 0.000000e+00 0.000000e+00
 0.000000e+00 8.812947e-01 1.187053e-01 0.000000e+00 0.000000e+00
 0.000000e+00 0.000000e+00 9.318554e-01 6.814460e-02 0.000000e+00
 0.000000e+00 0.000000e+00 0.000000e+00 7.990478e-01 2.009522e-01
 0.000000e+00 0.000000e+00 0.000000e+00 0.000000e+00 0.000000e+00
<ENDHMM>
~h "x"
<BEGINHMM>
<NUMSTATES> 5
<STATE> 2
<MEAN> 39
 -5.043267e+00 -8.833154e+00 -5.805390e+00 -1.502487e+01 -8.627662e+00 -1.799429e+01 -1.808813e+00 -1.599004e+01 -8.072279e+00 -1.593834e+01 -5.869728e+00 -6.195778e+00 7.815036e+01 6.772426e-02 7.375965e-01 4.711818e-01 -3.459730e-01 -3.624224e-01 -6.536689e-01 1.961415e-01 -2.388999e-01 -3.573311e-01 6.476618e-01 2.678267e-02 -1.485382e-02 -3.320791e-01 -1.527483e-01 3.341937e-01 1.221699e-01 1.780262e-01 -3.525280e-02 3.613507e-02 -3.155886e-01 6.088547e-02 4.410853e-02 1.100038e-01 1.251245e-01 -5.707837e-02 -1.507044e-01
<VARIANCE> 39
 1.407673e+01 7.294523e+01 5.314688e+01 2.167890e+01 3.972100e+01 6.147170e+01 5.321256e+01 3.932084e+01 3.935147e+01 8.558455e+01 6.213468e+01 3.027075e+01 1.473193e+01 5.678917e-01 2.313402e+00 3.264551e+00 2.221959e+00 2.905923e+00 3.129282e+00 3.654854e+00 2.429980e+00 3.397943e+00 3.147624e+00 3.041804e+00 1.827805e+00 5.176176e-01 1.559595e-01 2.349595e-01 3.132363e-01 4.037302e-01 4.383775e-01 5.784119e-01 6.932721e-01 4.619471e-01 4.872478e-01 6.231960e-01 4.552881e-01 4.004618e-01 7.049716e-02
<GCONST> 1.161005e+02
<STATE> 3
<MEAN> 39
 -5.802662e+00 7.567105e-02 1.695849e+00 -1.542980e+01 -1.185110e+01 -2.074523e+01 -6.065427e+00 -1.716602e+01 -1.230437e+01 -9.025460e+00 -6.478840e+00 -5.270995e+00 7.339823e+01 -1.255645e+00 2.145151e+00 7.012137e-01 1.330873e+00 -7.524511e-01 6.121557e-01 -1.113101e+00 -4.659908e-01 -5.620682e-01 -2.213728e-01 2.371287e-01 -5.265561e-01 -7.103658e-01 -6.518774e-01 3.973191e-01 -5.160024e-01 7.856751e-01 2.566331e-01 7.272094e-01 -9.611279e-02 5.862254e-02 2.089384e-01 -3.460739e-01 -9.624500e-02 -2.847089e-01 -5.982473e-02
<VARIANCE> 39
 2.177904e+01 4.161552e+01 3.885967e+01 2.826851e+01 4.625861e+01 8.089113e+01 4.491330e+01 3.224928e+01 3.717610e+01 5.884238e+01 7.181882e+01 3.966950e+01 1.352648e+01 1.706091e+00 4.423909e+00 3.875038e+00 3.430053e+00 2.726096e+00 4.078467e+00 3.800837e+00 2.603081e+00 3.854933e+00 4.498533e+00 3.798079e+00 2.387606e+00 1.192212e+00 2.045924e-01 3.131648e-01 5.533658e-01 5.637653e-01 7.082721e-01 8.516009e-01 7.575006e-01 5.579314e-01 7.587659e-01 6.188974e-01 9.233540e-01 5.753260e-01 9.660366e-02
<GCONST> 1.247814e+02
<STATE> 4
<MEAN> 39
 -1.282448e+01 9.316823e+00 3.776555e-01 -6.321483e+00 -1.417020e+01 -1.554248e+01 -9.788815e+00 -1.885439e+01 -1.283612e+01 -1.276512e+01 -5.087173e+00 -8.320168e+00 7.160757e+01 -3.236789e+00 2.278977e+00 -1.298366e+00 3.262881e+00 1.083186e+00 2.706027e+00 -3.494768e-01 3.911062e-01 1.960397e-01 -5.054575e-01 -4.449034e-01 -1.119064e+00 -8.337733e-01 -2.941888e-01 -8.531109e-01 -5.891210e-01 -2.036522e-01 5.978756e-01 2.148858e-01 6.029170e-01 8.204381e-01 6.586791e-01 5.348905e-01 5.743605e-02 4.223846e-01 2.207751e-02
<VARIANCE> 39
 2.680114e+01 2.323978e+01 2.439713e+01 3.601912e+01 2.527271e+01 4.199762e+01 2.137569e+01 2.252562e+01 2.012681e+01 2.801102e+01 2.531688e+01 1.872430e+01 7.886316e+00 2.487109e+00 3.190489e+00 2.031376e+00 2.696155e+00 2.322279e+00 4.235781e+00 3.813556e+00 2.956167e+00 2.982765e+00 4.179775e+00 4.154086e+00 3.897070e+00 1.500992e+00 2.341856e-01 4.256741e-01 5.455980e-01 5.382231e-01 4.592002e-01 5.087501e-01 4.836003e-01 4.237053e-01 5.637854e-01 5.272571e-01 5.424244e-01 5.046861e-01 9.054457e-02
<GCONST> 1.153084e+02
<TRANSP> 5
 0.000000e+00 1.000000e+00 0.000000e+00 0.000000e+00 0.000000e+00
 0.000000e+00 7.658174e-01 2.341826e-01 0.000000e+00 0.000000e+00
 0.000000e+00 0.000000e+00 6.565877e-01 3.434122e-01 0.000000e+00
 0.000000e+00 0.000000e+00 0.000000e+00 5.392033e-01 4.607967e-01
 0.000000e+00 0.000000e+00 0.000000e+00 0.000000e+00 0.000000e+00
<ENDHMM>
~h "y"
<BEGINHMM>
<NUMSTATES> 5
<STATE> 2
<MEAN> 39
 -1.531394e+01 -1.048430e+01 -4.337939e+00 -6.251155e+00 -4.571567e+00 -1.162531e+01 -4.955359e+00 9.267980e-01 -4.152184e+00 -5.064238e+00 -7.548746e-01 -3.026926e+00 5.392933e+01 -9.234519e-02 -6.757271e-01 3.871097e-01 -4.590506e-01 -4.599506e-02 -5.836104e-01 2.657464e-01 3.295466e-01 2.071857e-01 -1.039965e-01 2.783714e-01 -6.854969e-02 9.217336e-01 2.311737e-02 -2.710765e-02 -5.864919e-02 4.393436e-02 1.652779e-02 1.944854e-02 -8.528933e-03 3.721967e-03 6.440614e-02 -4.939272e-02 2.108648e-02 -9.382341e-03 -9.021241e-02
<VARIANCE> 39
 2.624648e+01 5.485682e+01 3.591605e+01 4.509352e+01 3.347474e+01 5.542433e+01 3.685150e+01 8.289418e+01 3.914860e+01 4.858569e+01 2.531973e+01 1.678852e+01 5.295861e+01 2.344378e+00 2.956437e+00 3.447769e+00 3.813896e+00 3.770541e+00 3.518994e+00 3.448256e+00 4.971954e+00 3.762617e+00 4.173660e+00 2.126704e+00 1.964687e+00 5.106767e+00 4.554147e-01 5.063487e-01 6.331013e-01 7.350132e-01 6.366393e-01 6.488423e-01 6.647854e-01 9.524386e-01 7.649116e-01 8.110708e-01 3.920082e-01 4.205664e-01 9.164944e-01
<GCONST> 1.292756e+02
<STATE> 3
<MEAN> 39
 -1.709050e+01 -1.667437e+01 -1.031298e+00 -6.256816e+00 -2.668901e+00 -1.404845e+01 -1.320979e+00 2.977981e+00 -1.303495e+00 -9.039260e+00 2.803406e+00 -3.524781e+00 5.655285e+01 8.364154e-02 3.819861e-01 -1.199372e-01 1.481177e-01 -2.276999e-02 3.586244e-01 -2.485213e-02 -3.600106e-01 -5.419097e-02 1.272788e-01 -1.577335e-01 2.033667e-02 -3.646885e-01 3.236447e-02 1.118791e-01 -1.175733e-02 -3.586408e-02 2.136792e-02 3.022034e-02 -3.865408e-02 -8.317705e-02 -2.326123e-02 5.152315e-03 -3.781625e-02 -1.528997e-02 1.192588e-02
<VARIANCE> 39
 8.437204e+00 3.438757e+01 1.727763e+01 2.788462e+01 3.415005e+01 2.948384e+01 2.990104e+01 3.314631e+01 3.615008e+01 3.642847e+01 2.352408e+01 1.787215e+01 2.903776e+01 4.061657e-01 1.447439e+00 1.062469e+00 1.705578e+00 2.264180e+00 1.692644e+00 1.972628e+00 2.577451e+00 2.602560e+00 2.221166e+00 1.832977e+00 1.692154e+00 6.068937e-01 1.004756e-01 1.481373e-01 2.131567e-01 3.080705e-01 3.676832e-01 2.980663e-01 3.664985e-01 4.916120e-01 4.677658e-01 3.775082e-01 3.449094e-01 3.340135e-01 8.365536e-02
<GCONST> 1.021199e+02
<STATE> 4
<MEAN> 39
 -1.491391e+01 -2.502518e+00 -2.873032e+00 -6.322899e+00 -3.369471e+00 -5.181488e+00 -5.044093e+00 -6.846416e+00 -3.856678e+00 -4.274476e+00 -2.248949e+00 -3.060148e+00 4.928574e+01 1.131986e+00 2.135740e+00 1.304819e+00 -2.061313e+00 -5.531215e-01 -1.497783e+00 -6.933434e-01 -2.038479e+00 -7.715460e-01 -4.271162e-01 -2.458966e-01 -5.934091e-01 1.749655e+00 5.152275e-01 2.801301e-01 3.539430e-01 -8.258280e-01 -6.464159e-01 -8.947502e-01 -5.598820e-02 -5.407831e-01 -2.647106e-01 -1.446566e-01 2.409355e-02 -1.855016e-01 9.875532e-01
<VARIANCE> 39
 1.618240e+01 1.674715e+01 2.660201e+01 2.223432e+01 2.390629e+01 2.312141e+01 2.016210e+01 2.275565e+01 1.911827e+01 1.765927e+01 1.568010e+01 1.571570e+01 1.604860e+01 3.750714e+00 3.649343e+00 5.419009e+00 4.916967e+00 5.106935e+00 7.532946e+00 2.418067e+00 4.855749e+00 3.013800e+00 2.620064e+00 1.889768e+00 1.976962e+00 4.155170e+00 3.926575e-01 7.930725e-01 7.755778e-01 5.373738e-01 9.289570e-01 7.454193e-01 3.635237e-01 8.072358e-01 4.446324e-01 3.766067e-01 3.668904e-01 3.625169e-01 5.485404e-01
<GCONST> 1.189906e+02
<TRANSP> 5
 0.000000e+00 1.000000e+00 0.000000e+00 0.000000e+00 0.000000e+00
 0.000000e+00 8.416184e-01 1.583816e-01 0.000000e+00 0.000000e+00
 0.000000e+00 0.000000e+00 9.301099e-01 6.989007e-02 0.000000e+00
 0.000000e+00 0.000000e+00 0.000000e+00 7.613989e-01 2.386012e-01
 0.000000e+00 0.000000e+00 0.000000e+00 0.000000e+00 0.000000e+00
<ENDHMM>
~h "z"
<BEGINHMM>
<NUMSTATES> 5
<STATE> 2
<MEAN> 39
 -1.080146e+01 7.309422e+00 -2.057138e+00 -4.184253e+00 -8.838418e+00 -1.455045e+01 -1.257519e+01 -1.522842e+01 -1.261491e+01 -1.087928e+01 -8.832727e+00 -9.922731e+00 6.112469e+01 -3.948338e+00 -8.064755e-01 -1.993556e+00 2.146725e+00 -3.215877e-01 3.821769e-01 2.122076e+00 7.607391e-01 1.116369e-01 1.486617e+00 9.755963e-01 3.430654e-01 8.668801e-01 5.153914e-01 -5.837881e-01 -1.593858e-01 -6.540368e-01 1.542073e-01 7.868747e-02 -4.224134e-01 5.007929e-01 4.186944e-01 -1.559528e-01 1.331931e-01 4.683487e-01 4.677367e-01
<VARIANCE> 39
 8.196422e+01 2.186430e+01 5.702460e+01 4.289731e+01 3.034638e+01 2.031378e+01 4.173898e+01 3.250015e+01 2.916228e+01 2.575912e+01 2.987525e+01 1.263716e+01 1.563568e+01 4.223636e+00 2.801759e+00 5.929624e+00 3.896195e+00 3.798999e+00 2.866031e+00 4.107251e+00 4.735789e+00 4.234880e+00 3.029809e+00 3.883774e+00 2.504105e+00 1.642405e+00 2.597326e+00 5.030544e-01 1.549608e+00 1.195502e+00 9.427588e-01 9.070750e-01 7.609615e-01 8.963538e-01 8.067396e-01 9.478734e-01 1.113676e+00 3.199924e-01 3.003604e-01
<GCONST> 1.300435e+02
<STATE> 3
<MEAN> 39
 -1.097505e+01 -4.623167e+00 -1.214060e+01 -9.419885e+00 -5.207118e+00 -1.629458e+01 -9.581763e+00 -9.058622e+00 -5.087417e+00 -1.304076e+01 -6.633755e+00 -4.345452e+00 7.195302e+01 3.058289e+00 -3.270201e+00 -2.091508e+00 -2.783773e+00 2.080774e+00 -4.431749e-01 6.893176e-01 -3.978995e-01 2.320138e+00 -2.803826e+00 2.766434e-01 -3.144994e-01 2.958480e+00 8.190480e-02 6.210165e-02 1.074920e-01 2.704176e-01 2.475776e-01 4.837950e-01 3.702318e-01 -8.565134e-01 1.443084e-01 -2.959571e-01 2.789308e-01 -7.922993e-01 -1.079312e-01
<VARIANCE> 39
 9.402072e+01 3.972195e+01 4.515749e+01 8.036216e+01 3.089269e+01 3.720786e+01 2.799994e+01 2.248837e+01 5.430278e+01 7.492750e+01 2.353975e+01 1.594110e+01 4.090313e+01 9.336046e+00 1.975874e+00 3.559511e+00 7.312953e+00 3.119771e+00 5.907045e+00 5.417033e+00 5.727151e+00 4.863224e+00 5.893829e+00 3.256584e+00 4.559467e+00 1.330812e+00 3.631037e+00 7.620179e-01 9.963450e-01 2.534662e+00 6.111432e-01 1.432591e+00 9.579482e-01 6.342134e-01 1.195915e+00 1.903105e+00 7.557784e-01 4.152030e-01 6.401442e-01
<GCONST> 1.389338e+02
<STATE> 4
<MEAN> 39
 -2.584647e+00 -6.994200e+00 -1.095185e+01 -1.208642e+01 -2.400053e+00 -8.877174e+00 -6.705849e+00 -1.833178e+01 3.457647e+00 -1.446561e+01 1.975912e+00 -1.394077e+01 7.084499e+01 -5.897023e-02 6.533503e-01 1.119726e+00 1.834920e-01 -8.017112e-01 6.116456e-02 1.611255e-02 4.012742e-02 -4.861298e-01 9.659224e-01 -2.790860e-02 3.985398e-02 -6.486074e-01 -2.402256e-02 1.095334e-01 9.844959e-03 5.344809e-02 -1.056313e-01 -1.955594e-01 -3.286016e-02 1.602646e-01 -9.233455e-02 6.352465e-02 -9.050839e-02 1.542596e-01 -4.793141e-02
<VARIANCE> 39
 1.602601e+01 6.134505e+01 1.263761e+02 2.499286e+01 7.123622e+01 5.651057e+01 3.534071e+01 4.853878e+01 1.103351e+02 1.043755e+02 7.876243e+01 3.388753e+01 6.550049e+01 1.919029e+00 2.161598e+00 4.531053e+00 2.860063e+00 3.213413e+00 6.852086e+00 4.106655e+00 4.684534e+00 6.971766e+00 3.501950e+00 6.868458e+00 4.399905e+00 2.053689e+00 4.114941e-01 4.415951e-01 1.045303e+00 6.723186e-01 6.602304e-01 1.093728e+00 6.939149e-01 5.709980e-01 8.529963e-01 6.751376e-01 9.411117e-01 6.588556e-01 2.820950e-01
<GCONST> 1.355486e+02
<TRANSP> 5
 0.000000e+00 1.000000e+00 0.000000e+00 0.000000e+00 0.000000e+00
 0.000000e+00 8.117463e-01 1.882536e-01 0.000000e+00 0.000000e+00
 0.000000e+00 0.000000e+00 8.037191e-01 1.962809e-01 0.000000e+00
 0.000000e+00 0.000000e+00 0.000000e+00 9.499822e-01 5.001782e-02
 0.000000e+00 0.000000e+00 0.000000e+00 0.000000e+00 0.000000e+00
<ENDHMM>
~h "ai"
<BEGINHMM>
<NUMSTATES> 5
<STATE> 2
<MEAN> 39
 -5.901191e+00 -1.863023e+01 -5.405545e+00 -8.390123e+00 -6.133033e+00 -1.120323e+01 -2.097582e+00 -9.605734e+00 -3.340280e+00 -2.061388e+01 2.512035e+00 -8.196766e+00 7.489108e+01 -3.426645e-01 1.302313e-01 3.744347e-01 2.822593e-01 -9.203245e-01 7.622142e-01 -2.216853e-01 2.074063e-01 -8.509755e-02 5.370474e-01 1.380705e-01 1.248004e-01 -1.292343e+00 -9.829962e-02 1.843609e-01 2.919194e-02 5.737863e-02 2.756026e-02 2.480584e-02 -6.064402e-02 1.184668e-01 -1.752103e-01 9.319914e-02 -1.585489e-01 1.617827e-01 -3.142312e-01
<VARIANCE> 39
 9.115617e+00 1.338816e+01 1.413540e+01 1.758218e+01 2.675687e+01 2.377126e+01 1.724142e+01 2.514910e+01 2.392161e+01 2.266270e+01 1.684953e+01 1.805075e+01 4.454961e+01 7.015963e-01 9.545442e-01 9.493158e-01 1.163154e+00 9.608456e-01 1.318168e+00 1.136548e+00 1.565646e+00 1.881501e+00 1.455834e+00 1.795741e+00 1.490521e+00 1.985525e+00 1.004876e-01 1.567838e-01 1.417165e-01 2.585554e-01 2.378183e-01 2.755288e-01 2.323893e-01 2.587427e-01 2.679336e-01 2.946015e-01 2.929950e-01 3.297748e-01 1.757732e-01
<GCONST> 9.391461e+01
<STATE> 3
<MEAN> 39
 -1.327724e+01 -1.627064e+01 9.302649e-01 -1.384914e+00 -1.010172e+01 -3.335526e+00 -2.032903e+00 -4.248428e+00 -8.205290e+00 -1.303423e+01 8.033172e-01 -2.198628e+00 5.621808e+01 -4.594853e-01 7.339599e-01 8.870286e-02 7.280449e-01 2.629271e-01 1.625206e-01 3.859498e-01 2.672142e-01 -4.270911e-01 1.197108e+00 -1.147918e-01 7.765240e-01 -1.577759e+00 1.383707e-01 1.528053e-01 -2.383865e-01 -2.001507e-01 1.401831e-01 -2.494275e-01 -4.868522e-02 -8.291340e-02 9.041033e-02 -6.283484e-04 1.035480e-01 -1.451643e-01 2.063184e-01
<VARIANCE> 39
 1.582039e+01 3.131705e+01 7.225707e+01 3.169146e+01 2.392023e+01 4.758759e+01 2.403369e+01 3.757870e+01 3.987379e+01 4.043771e+01 2.586428e+01 2.263391e+01 2.949835e+01 1.756279e+00 2.853678e+00 6.196049e+00 2.720050e+00 2.292106e+00 4.204931e+00 2.236112e+00 2.674440e+00 3.311342e+00 2.932119e+00 2.638869e+00 2.500887e+00 3.172436e+00 2.830686e-01 4.467862e-01 1.057974e+00 4.346265e-01 4.588702e-01 6.423051e-01 4.465757e-01 5.178565e-01 6.816249e-01 5.502157e-01 5.365451e-01 4.503275e-01 4.487075e-01
<GCONST> 1.216764e+02
<STATE> 4
<MEAN> 39
 -1.303101e+01 -8.960602e+00 -5.271159e+00 -1.187095e+00 -6.303945e+00 -7.083415e+00 -2.575434e+00 -2.522221e+00 -7.605668e+00 -7.757066e+00 4.964047e-01 -8.735200e-01 4.963529e+01 -5.141027e-02 1.450260e+00 -2.707844e-01 -3.775236e-01 4.632261e-01 -9.085298e-03 -5.288957e-01 -2.602954e-01 2.906647e-01 7.178670e-01 -2.068574e-01 -1.139583e-01 -7.910669e-01 3.418627e-02 -1.550519e-01 1.921384e-01 -1.848035e-01 -4.425295e-02 1.806732e-02 -1.189476e-01 -2.043413e-02 1.805660e-01 -2.035223e-01 -9.085885e-02 -1.262757e-01 3.051215e-01
<VARIANCE> 39
 4.251538e+00 1.485780e+01 1.459264e+01 1.993547e+01 1.391728e+01 2.539740e+01 1.522642e+01 2.525359e+01 2.514406e+01 2.660964e+01 1.938753e+01 1.476911e+01 2.654268e+01 3.535946e-01 1.390451e+00 1.780200e+00 1.712630e+00 1.532252e+00 2.466446e+00 1.941153e+00 2.231065e+00 2.707187e+00 2.570235e+00 2.163332e+00 1.751088e+00 5.645095e-01 9.107074e-02 2.222689e-01 2.572119e-01 2.985401e-01 2.689976e-01 5.123146e-01 3.268209e-01 3.658815e-01 4.633117e-01 5.048088e-01 4.221561e-01 3.277895e-01 1.680968e-01
<GCONST> 9.887142e+01
<TRANSP> 5
 0.000000e+00 1.000000e+00 0.000000e+00 0.000000e+00 0.000000e+00
 0.000000e+00 8.754460e-01 1.245540e-01 0.000000e+00 0.000000e+00
 0.000000e+00 0.000000e+00 8.098959e-01 1.901041e-01 0.000000e+00
 0.000000e+00 0.000000e+00 0.000000e+00 7.514324e-01 2.485677e-01
 0.000000e+00 0.000000e+00 0.000000e+00 0.000000e+00 0.000000e+00
<ENDHMM>
~h "an"
<BEGINHMM>
<NUMSTATES> 5
<STATE> 2
<MEAN> 39
 -6.003053e+00 -1.541258e+01 -9.890429e+00 -1.280966e+01 -2.286156e+00 -9.497529e+00 -8.308989e-01 -1.543564e+01 -1.128180e+00 -2.729731e+01 2.391826e+00 -1.228423e+01 8.241938e+01 -1.224309e-01 3.781938e-01 3.802445e-01 -6.993785e-02 -7.030724e-01 1.657187e-01 1.483411e-01 1.513653e-01 -3.689440e-01 3.724715e-01 2.434705e-01 -3.757054e-01 -1.790741e-01 3.041124e-02 3.127700e-01 1.873741e-01 -1.145863e-01 -2.519252e-01 -3.390028e-01 6.285480e-02 1.756435e-01 -8.643162e-02 3.711858e-01 -1.947004e-01 1.736307e-01 -1.599147e-01
<VARIANCE> 39
 2.039176e+00 4.736374e+00 6.205133e+00 1.203448e+01 1.702798e+01 1.387633e+01 1.565808e+01 1.747739e+01 2.987953e+01 7.149798e+00 1.302168e+01 8.662554e+00 4.348893e+00 9.706169e-02 6.179762e-01 8.827631e-01 8.748450e-01 1.127224e+00 1.894806e+00 1.177946e+00 1.085781e+00 1.551241e+00 1.328528e+00 9.456561e-01 1.281330e+00 1.818030e-01 2.139519e-02 9.319608e-02 8.001671e-02 1.460778e-01 9.657054e-02 2.327069e-01 1.969625e-01 2.292460e-01 2.191372e-01 2.807316e-01 1.544733e-01 1.872609e-01 2.527228e-02
<GCONST> 7.046870e+01
<STATE> 3
<MEAN> 39
 -6.964736e+00 -7.394940e+00 -2.395473e+00 -1.624707e+01 -1.391931e+01 -1.212441e+01 1.671692e+00 -1.582854e+01 -7.322805e+00 -1.465184e+01 2.996083e-01 -1.467831e+01 7.920632e+01 6.860823e-02 2.027427e+00 1.159347e+00 6.676751e-02 -1.404630e+00 -1.340096e+00 -1.372140e+00 -3.336869e-01 -1.100292e+00 2.284018e+00 -3.036625e-01 7.956028e-01 -1.104907e+00 -5.304059e-02 1.855119e-01 -1.383384e-01 4.850371e-01 2.455776e-01 1.451049e-01 -5.956590e-01 3.684602e-02 -6.339466e-02 -2.256669e-01 1.266458e-01 3.128093e-01 -1.503515e-01
<VARIANCE> 39
 2.209703e+00 1.815590e+01 7.850625e+00 9.439086e+00 1.772022e+01 2.363723e+01 2.766126e+01 1.304265e+01 1.881642e+01 3.884233e+01 1.455268e+01 1.096696e+01 7.308388e+00 1.280195e-01 3.812922e-01 2.604466e-01 1.443007e+00 5.361333e-01 6.804137e-01 3.343380e+00 1.100278e+00 1.262473e+00 1.604241e+00 2.562807e+00 2.207843e+00 1.818903e-01 7.415727e-02 5.219291e-02 7.947174e-02 2.419618e-01 1.330272e-01 4.741943e-01 3.018414e-01 2.996829e-01 2.639142e-01 3.528899e-01 6.051168e-01 2.609628e-01 1.666484e-02
<GCONST> 7.930061e+01
<STATE> 4
<MEAN> 39
 -1.510342e+01 -1.130556e+00 -6.194298e+00 -7.128975e+00 -9.597723e+00 -1.016392e+01 -7.216537e+00 -7.804872e+00 -7.255893e+00 -7.413893e+00 -2.811658e+00 -5.683799e+00 7.265551e+01 5.220694e-02 -6.012957e-01 -5.095928e-01 -1.867720e-01 5.104644e-01 -2.534043e-01 4.016884e-01 6.208300e-01 1.987801e-02 -7.034523e-01 -1.579991e-01 2.916554e-01 3.646368e-01 3.572788e-02 -3.279922e-01 -6.753008e-02 -1.865887e-01 1.641421e-01 -5.254832e-02 2.804354e-01 -1.009335e-01 1.537814e-02 -2.796222e-01 6.818584e-02 -1.568820e-01 1.849963e-01
<VARIANCE> 39
 7.354555e+01 3.276934e+01 1.985900e+01 4.671667e+01 3.010977e+01 7.339960e+01 2.451933e+01 2.800634e+01 2.303123e+01 7.452802e+01 2.512242e+01 1.389313e+01 1.694203e+01 1.047589e+01 4.284257e+00 1.766728e+00 6.083487e+00 3.743517e+00 8.175379e+00 3.352843e+00 2.399639e+00 2.550882e+00 1.087892e+01 4.138004e+00 1.830381e+00 2.320076e+00 1.549482e+00 5.771975e-01 3.854694e-01 6.313887e-01 6.157637e-01 1.236499e+00 5.155982e-01 4.504353e-01 4.774002e-01 1.271414e+00 9.699370e-01 3.605797e-01 2.288965e-01
<GCONST> 1.282559e+02
<TRANSP> 5
 0.000000e+00 1.000000e+00 0.000000e+00 0.000000e+00 0.000000e+00
 0.000000e+00 8.835061e-01 1.164939e-01 0.000000e+00 0.000000e+00
 0.000000e+00 0.000000e+00 8.018409e-01 1.981591e-01 0.000000e+00
 0.000000e+00 0.000000e+00 0.000000e+00 9.342101e-01 6.578994e-02
 0.000000e+00 0.000000e+00 0.000000e+00 0.000000e+00 0.000000e+00
<ENDHMM>
~h "ao"
<BEGINHMM>
<NUMSTATES> 5
<STATE> 2
<MEAN> 39
 -6.780623e+00 9.927571e-01 5.612890e+00 -1.145646e+01 -1.140889e+01 -1.425933e+01 -4.348362e+00 -1.247474e+01 -1.245418e+01 -9.732969e+00 -2.936822e+00 -8.486917e+00 6.898190e+01 1.947744e+00 -1.343959e+00 -8.215370e-01 -9.273863e-01 -2.262014e-01 -1.956581e+00 1.092368e-02 -9.603497e-01 -3.512078e-01 -3.618924e+00 -5.086228e-01 -7.211153e-01 1.648621e+00 -4.042205e-01 -3.870575e-01 -1.450143e+00 -1.981513e-02 7.027291e-01 2.846769e-01 -6.331061e-02 -1.296900e-01 1.428694e+00 -1.410931e-01 3.880867e-02 -1.198130e-01 2.466258e-01
<VARIANCE> 39
 2.624480e+01 3.896998e+01 5.251704e+01 4.480428e+01 4.909445e+01 3.304848e+01 4.888824e+01 3.057458e+01 2.859691e+01 7.614560e+01 2.608215e+01 1.862134e+01 4.426807e+01 6.486258e+00 4.943029e+00 1.224782e+01 9.908319e+00 6.279292e+00 4.809393e+00 5.299677e+00 4.552106e+00 9.300674e+00 9.377213e+00 3.067388e+00 1.944528e+00 4.873501e+00 1.051620e+00 8.646773e-01 1.306570e+00 1.051978e+00 1.476137e+00 8.478937e-01 1.512372e+00 8.457382e-01 8.915969e-01 9.415403e-01 4.556210e-01 5.042143e-01 3.736877e-01
<GCONST> 1.394930e+02
<STATE> 3
<MEAN> 39
 -4.503145e+00 -5.324981e+00 -2.846114e+00 -1.582831e+01 -8.764840e+00 -1.688782e+01 -3.159823e+00 -1.477490e+01 -5.999067e+00 -1.888927e+01 -2.717426e+00 -9.438843e+00 7.514559e+01 8.416113e-01 -2.420376e+00 -3.404519e+00 -4.798422e-01 1.913664e+00 1.245152e-01 3.953033e-01 -7.988483e-01 3.910346e+00 -2.060578e+00 2.369968e-01 -9.536622e-01 1.950287e+00 -4.645927e-01 1.037100e-01 -1.452372e-01 3.273107e-01 6.269814e-01 9.218460e-01 2.701612e-02 -8.708275e-02 7.083486e-01 9.224920e-01 2.590732e-01 -1.363945e-01 -4.735763e-01
<VARIANCE> 39
 1.403077e+01 4.268798e+01 6.788567e+01 6.924256e+01 3.788728e+01 2.648320e+01 1.985767e+01 2.793868e+01 5.701658e+01 8.846914e+01 2.151674e+01 1.846429e+01 1.957284e+01 1.086461e+00 2.596668e+00 4.246068e+00 3.670805e+00 6.887108e+00 2.712534e+00 4.263950e+00 4.128840e+00 4.989056e+00 3.809082e+00 2.207287e+00 2.192517e+00 3.328407e+00 4.373816e-01 7.899675e-01 9.556065e-01 1.304341e+00 6.080384e-01 5.760083e-01 6.871756e-01 1.191892e+00 1.614359e+00 1.238285e+00 3.986519e-01 4.172101e-01 2.615744e-01
<GCONST> 1.280122e+02
<STATE> 4
<MEAN> 39
 -2.979783e+00 -9.700063e+00 -1.074043e+01 -1.676785e+01 -8.137923e-01 -1.157575e+01 -3.779542e+00 -2.165366e+01 6.441892e+00 -2.107055e+01 -5.708658e-01 -1.339554e+01 7.763717e+01 2.237882e-01 -1.934020e-01 -4.547131e-01 4.151184e-04 5.159377e-01 4.154392e-01 -4.476328e-01 -6.681893e-01 1.092676e+00 5.366915e-01 1.814047e-02 -3.005866e-01 -9.883001e-02 -2.385039e-02 2.728979e-01 3.246037e-01 4.351481e-02 -1.835622e-01 4.147813e-04 -1.144578e-01 3.876421e-02 -5.055233e-01 3.297642e-01 -3.135905e-02 1.084295e-01 -2.286670e-01
<VARIANCE> 39
 9.543666e+00 3.221574e+01 5.601070e+01 3.449823e+01 4.836244e+01 6.384182e+01 3.060910e+01 4.087999e+01 5.364221e+01 7.569674e+01 3.033739e+01 2.964506e+01 1.196180e+01 5.346358e-01 2.538287e+00 5.036444e+00 2.799441e+00 5.120718e+00 3.565776e+00 3.273225e+00 3.877425e+00 7.234226e+00 4.289208e+00 3.793746e+00 3.040858e+00 8.050807e-01 4.935024e-02 3.025604e-01 3.746017e-01 5.766424e-01 5.812856e-01 6.327542e-01 5.621779e-01 5.272930e-01 7.327543e-01 7.094325e-01 6.221038e-01 4.307146e-01 9.360255e-02
<GCONST> 1.194995e+02
<TRANSP> 5
 0.000000e+00 1.000000e+00 0.000000e+00 0.000000e+00 0.000000e+00
 0.000000e+00 5.751441e-01 4.248559e-01 0.000000e+00 0.000000e+00
 0.000000e+00 0.000000e+00 5.748341e-01 4.251659e-01 0.000000e+00
 0.000000e+00 0.000000e+00 0.000000e+00 7.878614e-01 2.121385e-01
 0.000000e+00 0.000000e+00 0.000000e+00 0.000000e+00 0.000000e+00
<ENDHMM>
~h "ch"
<BEGINHMM>
<NUMSTATES> 5
<STATE> 2
<MEAN> 39
 4.629018e-01 -4.625383e+00 -9.348165e+00 -7.571238e+00 -1.618694e+00 -8.253900e+00 -1.585614e+01 -1.764236e+01 -2.193293e+00 -6.557383e+00 -8.001877e+00 -1.025715e+01 6.257222e+01 -1.922688e+00 1.555385e-02 -3.961806e-01 2.064590e+00 -4.652222e-01 -6.510748e-01 5.423781e-01 2.294488e+00 -1.552514e+00 1.250918e+00 1.993963e-01 8.150541e-01 -8.769634e-01 -8.345317e-01 -3.003941e-01 -3.585671e-01 -3.030460e-01 -2.165860e-02 4.580484e-02 5.825760e-01 1.681225e-01 6.888623e-01 -3.837285e-01 5.996876e-01 9.957653e-02 8.745098e-01
<VARIANCE> 39
 2.099482e+01 2.550137e+01 2.089161e+01 5.543826e+01 2.140807e+01 2.819370e+01 2.318159e+01 5.359252e+01 5.075017e+01 2.177575e+01 2.307764e+01 2.040519e+01 4.761051e+01 4.650908e+00 5.841200e+00 5.474542e+00 8.196948e+00 3.329254e+00 4.134353e+00 4.070601e+00 2.343583e+00 8.902418e+00 3.110586e+00 3.943260e+00 2.565965e+00 1.236793e+01 2.461888e-01 1.028095e+00 8.527883e-01 1.538578e+00 7.709532e-01 9.379868e-01 4.084644e-01 4.417544e-01 1.153787e+00 6.986146e-01 4.006100e-01 5.438232e-01 2.040450e+00
<GCONST> 1.315367e+02
<STATE> 3
<MEAN> 39
 -2.399049e+01 -1.088225e+01 -1.090172e+01 -4.578545e-01 -7.420901e+00 -1.329896e+01 -5.767844e+00 -1.205672e+00 2.960628e+00 -3.133967e+00 -2.643450e+00 -2.846836e+00 7.469669e+01 -1.462078e+00 -5.639766e-01 1.390619e+00 8.899830e-01 -5.258980e-01 -6.764058e-01 7.600920e-01 1.387475e+00 1.069409e+00 -2.723858e-01 -2.723801e-01 5.084238e-01 7.735626e-01 1.365870e+00 4.273285e-01 4.024210e-01 -1.106995e-01 3.529988e-01 6.354110e-02 -3.329399e-01 -6.668802e-01 -5.751168e-01 -4.361706e-01 -4.688595e-01 -3.082878e-01 -9.659559e-01
<VARIANCE> 39
 3.219946e+01 9.776458e+00 3.991792e+01 2.143520e+01 2.057516e+01 1.239485e+01 2.265153e+01 2.600653e+01 2.251543e+01 1.753608e+01 1.381976e+01 1.367287e+01 1.170651e+01 1.426938e+01 1.210355e+00 3.129400e+00 1.818769e+00 2.973878e+00 1.985221e+00 2.765524e+00 3.217284e+00 2.746203e+00 2.483859e+00 2.346395e+00 2.013628e+00 9.164035e+00 8.315855e-01 3.475787e-01 1.121856e+00 3.745972e-01 4.236391e-01 4.402028e-01 4.423397e-01 6.689426e-01 5.344401e-01 4.627598e-01 4.367429e-01 3.555291e-01 7.711385e-01
<GCONST> 1.154938e+02
<STATE> 4
<MEAN> 39
 -1.386972e+01 -9.372807e+00 -3.306375e+00 1.507997e+00 -4.039603e+00 -1.536524e+01 -5.389323e+00 -4.434361e+00 2.789775e-01 -1.102660e+01 -7.498288e+00 -3.488152e+00 6.806941e+01 4.475082e+00 2.052328e+00 1.936396e+00 -1.168089e+00 3.647931e-03 -2.283024e+00 -2.400425e-01 -3.995004e+00 -3.292764e+00 -2.665885e+00 -1.319550e+00 -6.565182e-01 -3.224810e-01 -5.638701e-02 2.726580e-01 -1.716352e-01 -9.849443e-01 -5.559886e-01 -6.056875e-01 2.461686e-01 -6.009442e-01 -3.426932e-01 2.001705e-01 4.743591e-01 2.090758e-02 9.221799e-01
<VARIANCE> 39
 4.955265e+01 2.407472e+01 3.916136e+01 3.222702e+01 3.462448e+01 2.051056e+01 2.695400e+01 8.625579e+01 4.654082e+01 4.855410e+01 2.249829e+01 2.111013e+01 9.144204e+00 2.724157e+00 2.046810e+00 1.699739e+00 4.076511e+00 2.329376e+00 2.845661e+00 1.838648e+00 6.404863e+00 3.616014e+00 3.325599e+00 2.314647e+00 1.529482e+00 2.014929e+00 7.185807e-01 6.528624e-01 3.977456e-01 5.960246e-01 2.900831e-01 4.465319e-01 4.892787e-01 1.331387e+00 1.052114e+00 8.121319e-01 4.952741e-01 4.384566e-01 2.306213e-01
<GCONST> 1.209615e+02
<TRANSP> 5
 0.000000e+00 1.000000e+00 0.000000e+00 0.000000e+00 0.000000e+00
 0.000000e+00 8.655050e-01 1.344950e-01 0.000000e+00 0.000000e+00
 0.000000e+00 0.000000e+00 8.492202e-01 1.507799e-01 0.000000e+00
 0.000000e+00 0.000000e+00 0.000000e+00 6.747519e-01 3.252481e-01
 0.000000e+00 0.000000e+00 0.000000e+00 0.000000e+00 0.000000e+00
<ENDHMM>
~h "ei"
<BEGINHMM>
<NUMSTATES> 5
<STATE> 2
<MEAN> 39
 -1.795699e+01 -9.717243e+00 -1.436676e+01 -2.514795e+00 7.130269e+00 -1.949996e+01 -1.723488e+00 1.032454e+00 2.988932e+00 -6.812990e+00 -4.373023e-01 -7.054456e+00 6.988091e+01 -1.172649e+00 -1.299050e+00 2.248182e+00 5.119593e-01 -3.210918e+00 -2.895218e-01 3.021518e+00 9.238763e-01 -2.149303e-01 1.467315e-01 5.677805e-01 2.342822e+00 -3.471630e-02 6.928298e-01 3.718530e-01 8.951091e-01 -7.468911e-01 -5.656256e-01 1.054397e+00 -7.005124e-01 -1.514725e+00 -6.356042e-01 -4.111435e-01 -3.544986e-04 -3.890953e-01 -2.993883e-01
<VARIANCE> 39
 9.688093e+00 1.356061e+01 3.234169e+01 1.940037e+01 7.410291e+01 4.046392e+01 4.811547e+01 3.329372e+01 2.501254e+01 2.391628e+01 1.943866e+01 3.812683e+01 1.180165e+01 1.298086e+00 1.056956e+00 4.288011e+00 3.851934e+00 2.872781e+00 9.278764e+00 2.978348e+00 9.577037e+00 4.072779e+00 3.576174e+00 2.199481e+00 4.286672e+00 1.532851e+00 2.300386e-01 3.537053e-01 3.097648e-01 3.423290e-01 8.720835e-01 7.531990e-01 9.641072e-01 7.523890e-01 6.651736e-01 1.071152e+00 7.993962e-01 7.979850e-01 2.154337e-01
<GCONST> 1.211383e+02
<STATE> 3
<MEAN> 39
 -1.666630e+01 -1.049857e+01 5.291716e+00 -7.441867e+00 -9.192262e+00 -1.098958e+01 1.233514e+00 -8.957438e+00 -4.090576e+00 -6.476573e+00 -7.255642e-01 -3.286854e+00 6.637318e+01 3.006173e+00 2.251845e+00 4.110352e+00 -3.439020e+00 -4.078208e+00 8.167784e-01 -3.936765e+00 -4.672164e+00 -3.601061e+00 6.625402e-01 -3.183194e+00 2.916016e-01 7.340930e-01 4.537147e-01 4.238535e-01 -1.194478e+00 -7.945035e-01 2.385245e-01 -8.268799e-01 -7.394407e-01 1.968762e-01 -2.064070e-01 1.486445e-01 -1.094667e+00 -1.137746e-01 9.240739e-01
<VARIANCE> 39
 2.442614e+01 2.724153e+01 5.194909e+01 2.394997e+01 3.717945e+01 3.869300e+01 7.683147e+01 6.241476e+01 4.530614e+01 1.930668e+01 2.674475e+01 2.214386e+01 8.196250e+00 1.441489e+00 1.239266e+00 4.016538e+00 2.949397e+00 2.881769e+00 4.667027e+00 4.803415e+00 2.721686e+00 3.072675e+00 1.922926e+00 3.926773e+00 3.133582e+00 2.349330e+00 6.617864e-01 6.785308e-01 6.747347e-01 3.426641e-01 4.725724e-01 6.266202e-01 2.247766e+00 1.515427e+00 1.048557e+00 4.068857e-01 6.403624e-01 5.251387e-01 1.717543e-01
<GCONST> 1.237146e+02
<STATE> 4
<MEAN> 39
 -7.833591e+00 -4.906183e+00 6.908061e+00 -2.274334e+01 -1.981875e+01 -1.267337e+01 -8.880155e+00 -1.730788e+01 -1.413282e+01 -4.165042e+00 -1.482546e+01 -2.358223e+00 7.414913e+01 6.680823e-01 2.448572e-01 -5.536826e-01 -3.715201e+00 -1.209223e+00 2.221565e-01 9.735429e-02 -2.314886e-01 -7.307319e-01 8.022766e-01 -2.676256e+00 -5.056212e-01 2.165442e+00 -9.482991e-01 -6.776919e-01 -4.380940e-01 9.645299e-01 1.183686e+00 8.716553e-02 1.216804e+00 1.001670e+00 1.112449e+00 8.236041e-03 1.058771e+00 -2.793719e-01 -3.726258e-01
<VARIANCE> 39
 4.333364e+00 1.449600e+01 1.400197e+01 2.191483e+01 2.119508e+01 2.139040e+01 3.981927e+01 2.792332e+01 2.322393e+01 1.875272e+01 1.949480e+01 2.790210e+01 8.543289e+00 2.303936e+00 1.913033e+00 1.988687e+00 3.058680e+00 3.313794e+00 2.814172e+00 5.996159e+00 4.222173e+00 4.411100e+00 1.833640e+00 4.326655e+00 2.372962e+00 1.314206e+00 1.556869e-01 2.218477e-01 6.295727e-01 4.199058e-01 3.895619e-01 5.065851e-01 9.472644e-01 1.026272e+00 4.665904e-01 3.206875e-01 3.915920e-01 4.704535e-01 2.250125e-01
<GCONST> 1.112105e+02
<TRANSP> 5
 0.000000e+00 1.000000e+00 0.000000e+00 0.000000e+00 0.000000e+00
 0.000000e+00 8.322405e-01 1.677595e-01 0.000000e+00 0.000000e+00
 0.000000e+00 0.000000e+00 6.673536e-01 3.326464e-01 0.000000e+00
 0.000000e+00 0.000000e+00 0.000000e+00 6.591782e-01 3.408217e-01
 0.000000e+00 0.000000e+00 0.000000e+00 0.000000e+00 0.000000e+00
<ENDHMM>
~h "er"
<BEGINHMM>
<NUMSTATES> 5
<STATE> 2
<MEAN> 39
 -6.498307e+00 -1.947391e-01 -2.260740e+00 -1.586897e+01 -8.044956e+00 -1.666674e+01 -5.905463e+00 -1.206041e+01 -1.679164e+00 -1.445867e+01 1.353161e+00 -5.880207e+00 6.579088e+01 1.711964e+00 2.327660e-01 -7.860759e-01 -2.291598e+00 2.651719e-01 -1.127106e+00 5.227007e-02 -1.189796e+00 6.189588e-01 -1.909383e+00 2.606596e-01 -1.199796e+00 3.108427e+00 -6.003169e-02 -6.322339e-01 -4.196757e-01 9.077220e-02 2.944932e-01 3.823431e-01 3.521785e-01 -4.071248e-02 -2.237032e-02 2.862213e-02 -9.881150e-02 -1.534278e-02 1.595066e-01
<VARIANCE> 39
 4.608606e+01 3.763199e+01 8.100970e+01 9.111527e+01 4.085646e+01 6.533406e+01 2.680560e+01 1.142213e+02 3.293279e+01 7.701940e+01 2.222053e+01 2.736814e+01 1.106091e+02 3.651142e+00 5.620353e+00 2.488693e+00 4.480757e+00 4.083286e+00 4.347809e+00 4.277664e+00 4.871656e+00 2.201221e+00 3.923208e+00 1.918221e+00 1.577299e+00 4.357810e+00 8.389710e-01 6.629766e-01 2.944031e-01 9.358340e-01 8.307920e-01 1.071915e+00 6.901998e-01 7.588336e-01 5.500560e-01 8.389131e-01 3.668913e-01 4.102798e-01 5.415130e-01
<GCONST> 1.330762e+02
<STATE> 3
<MEAN> 39
 -3.664423e+00 -9.653510e+00 -8.448620e+00 -2.094905e+01 -3.320428e+00 -1.480845e+01 5.354437e-02 -1.649438e+01 1.275244e+00 -2.090990e+01 2.945479e+00 -1.068474e+01 7.972273e+01 -2.144479e-01 -2.176258e+00 -1.889375e+00 1.311235e+00 2.073748e+00 1.125969e+00 -2.409069e-01 -3.762470e-02 5.075849e-01 -1.719318e+00 -6.076456e-01 -4.677655e-01 1.292804e+00 -1.620635e-01 2.767604e-01 2.636149e-01 2.973315e-01 -1.438918e-01 5.096756e-02 -6.892529e-01 6.178452e-02 -1.209821e-02 3.922828e-01 -3.178070e-01 9.664486e-02 -3.806789e-01
<VARIANCE> 39
 1.535053e+01 6.326279e+01 5.307686e+01 4.461596e+01 6.029642e+01 2.986869e+01 3.356193e+01 2.716166e+01 1.971803e+01 4.678068e+01 1.810552e+01 1.446570e+01 1.848898e+01 5.828319e-01 1.620268e+00 2.492019e+00 1.355083e+00 3.320443e+00 2.389538e+00 6.283710e+00 2.776647e+00 2.184771e+00 5.625264e+00 3.468577e+00 2.121732e+00 1.058413e+00 9.150143e-02 2.925164e-01 1.418213e-01 4.976160e-01 7.618608e-01 4.924068e-01 7.608528e-01 6.112911e-01 2.863099e-01 7.912431e-01 4.637840e-01 4.615113e-01 1.101386e-01
<GCONST> 1.133504e+02
<STATE> 4
<MEAN> 39
 -4.803478e+00 -1.762605e+01 -1.075140e+01 -1.324854e+01 -1.148191e+00 -8.131604e+00 -2.931388e+00 -1.469095e+01 7.819061e-01 -2.087082e+01 -1.099030e+00 -9.235322e+00 7.884899e+01 7.545000e-02 -2.436191e-01 -3.236756e-04 1.683382e-01 -1.395414e-01 -4.882939e-03 1.391875e-01 2.356628e-02 -2.784151e-01 1.462958e-01 -2.825183e-01 1.867348e-01 -3.741758e-02 2.454562e-02 5.286031e-02 4.225437e-02 -5.525157e-02 -5.932710e-02 -1.014392e-01 7.934982e-02 1.063459e-02 -5.812138e-02 -4.162290e-03 9.948011e-03 1.103261e-02 -2.913394e-02
<VARIANCE> 39
 7.745765e+00 3.184614e+01 2.291611e+01 2.176650e+01 2.161791e+01 4.594857e+01 2.396999e+01 3.469944e+01 4.327128e+01 4.432148e+01 3.112867e+01 3.246956e+01 4.298063e+01 5.521067e-01 1.653049e+00 9.459437e-01 1.682023e+00 1.490482e+00 3.173611e+00 1.990275e+00 3.164421e+00 2.385678e+00 2.209354e+00 2.211870e+00 1.886438e+00 4.354243e+00 9.660605e-02 3.398471e-01 1.524887e-01 2.956758e-01 2.235275e-01 3.923324e-01 3.590883e-01 5.318745e-01 4.086622e-01 3.167852e-01 3.932916e-01 2.921894e-01 8.002994e-01
<GCONST> 1.085537e+02
<TRANSP> 5
 0.000000e+00 1.000000e+00 0.000000e+00 0.000000e+00 0.000000e+00
 0.000000e+00 7.484994e-01 2.515007e-01 0.000000e+00 0.000000e+00
 0.000000e+00 0.000000e+00 7.788069e-01 2.211931e-01 0.000000e+00
 0.000000e+00 0.000000e+00 0.000000e+00 9.687191e-01 3.128096e-02
 0.000000e+00 0.000000e+00 0.000000e+00 0.000000e+00 0.000000e+00
<ENDHMM>
~h "iu"
<BEGINHMM>
<NUMSTATES> 5
<STATE> 2
<MEAN> 39
 -1.508375e+00 -1.418421e-01 -1.222098e+01 -1.459751e+01 5.885653e+00 -1.628106e+01 -1.127206e+01 -1.814079e+01 5.725176e+00 -1.934981e+01 -2.853647e+00 -1.068548e+01 6.987344e+01 1.573033e-02 7.053566e-02 2.621232e+00 8.152299e-01 -1.532219e+00 -7.585139e-01 -1.694229e+00 1.173862e+00 -4.796202e-01 -8.792521e-01 -1.890807e+00 1.547419e+00 -7.620854e-01 1.295038e-01 8.875699e-02 5.425323e-01 1.243142e-01 -7.306154e-01 3.474969e-01 -1.152878e-01 -1.297513e-01 -2.277223e-01 2.766757e-01 -3.760066e-02 3.306202e-01 -2.335575e-01
<VARIANCE> 39
 5.447424e+00 1.777546e+01 6.078573e+01 2.000642e+01 3.869936e+01 5.402734e+01 2.921281e+01 4.490141e+01 3.209411e+01 3.960205e+01 6.013184e+01 6.821561e+01 1.154579e+01 7.500534e-01 1.082384e+00 5.200172e+00 1.398894e+00 7.314363e+00 7.647209e+00 1.945628e+00 4.055154e+00 3.003496e+00 3.080350e+00 2.547386e+00 6.539382e+00 1.415508e+00 1.368756e-01 2.323454e-01 7.050194e-01 3.059797e-01 7.183480e-01 1.721673e+00 3.595573e-01 9.443266e-01 5.395028e-01 5.422658e-01 7.896376e-01 1.193110e+00 1.853120e-01
<GCONST> 1.205178e+02
<STATE> 3
<MEAN> 39
 6.174419e-01 2.513320e+00 5.351067e+00 -1.044633e+01 -1.109428e+01 -1.377094e+01 -2.036076e+01 -1.503174e+01 3.696196e-01 -1.882098e+01 -9.938120e+00 -6.905391e-01 6.352245e+01 -1.779379e-01 -8.196285e-01 -2.264568e-01 1.627924e-01 -6.806541e-01 -6.086975e-01 8.510882e-01 9.716111e-01 -1.364808e+00 3.285950e-01 1.157562e-01 1.359338e-01 8.083421e-01 -3.334108e-01 -7.951949e-01 -1.217085e+00 -1.728609e-01 1.105960e+00 -5.664858e-01 1.045506e+00 3.885935e-01 -2.718656e-01 -2.536845e-01 4.090070e-01 -5.050842e-01 8.779802e-01
<VARIANCE> 39
 1.082809e+01 2.683881e+01 2.249630e+01 1.628233e+01 2.128382e+01 2.911343e+01 3.023788e+01 2.310331e+01 2.982288e+01 2.232248e+01 2.015861e+01 2.392016e+01 1.464679e+01 1.513103e+00 4.433860e+00 8.820718e+00 1.419275e+00 7.270557e+00 6.114202e+00 7.660344e+00 3.424153e+00 3.224131e+00 2.493947e+00 2.279622e+00 2.986185e+00 4.365925e+00 2.218985e-01 4.410079e-01 5.685311e-01 2.861084e-01 4.875214e-01 9.609869e-01 6.411200e-01 5.683994e-01 5.901014e-01 5.344544e-01 4.861828e-01 5.958382e-01 2.284519e-01
<GCONST> 1.187853e+02
<STATE> 4
<MEAN> 39
 -3.098350e+00 -7.984385e+00 -6.335456e+00 -1.114093e+01 -4.789188e+00 -2.127226e+01 -7.839391e+00 -7.984070e+00 -8.629342e+00 -1.941723e+01 -5.694022e+00 -2.779921e+00 7.496479e+01 -1.172563e+00 -4.043121e+00 -2.823895e+00 -3.684821e-01 2.405599e+00 -2.931778e-01 3.783030e+00 1.193440e+00 -2.149261e+00 -1.371584e+00 2.077435e+00 -1.165573e+00 3.148988e+00 7.226340e-02 5.592629e-02 7.267832e-01 5.361834e-02 -2.206351e-01 9.638901e-01 -4.090075e-01 -6.548164e-01 6.975245e-01 -1.713205e-01 1.864899e-01 -3.756014e-01 -4.937839e-01
<VARIANCE> 39
 6.089488e+00 2.616693e+01 1.780401e+01 1.201316e+01 1.877411e+01 2.997836e+01 2.066245e+01 2.226378e+01 2.688992e+01 2.828300e+01 1.977738e+01 2.414310e+01 9.590706e+00 8.819945e-01 3.890712e+00 5.280221e+00 1.709467e+00 5.182655e+00 4.113676e+00 4.869038e+00 3.655485e+00 3.086604e+00 3.428710e+00 2.792298e+00 3.795081e+00 2.949362e+00 1.236236e-01 3.660220e-01 3.866370e-01 2.442258e-01 4.382090e-01 6.760131e-01 4.459848e-01 4.434555e-01 6.372524e-01 4.817583e-01 5.541535e-01 5.159518e-01 1.648189e-01
<GCONST> 1.122860e+02
<TRANSP> 5
 0.000000e+00 1.000000e+00 0.000000e+00 0.000000e+00 0.000000e+00
 0.000000e+00 8.322220e-01 1.677780e-01 0.000000e+00 0.000000e+00
 0.000000e+00 0.000000e+00 8.063979e-01 1.936022e-01 0.000000e+00
 0.000000e+00 0.000000e+00 0.000000e+00 3.043374e-01 6.956626e-01
 0.000000e+00 0.000000e+00 0.000000e+00 0.000000e+00 0.000000e+00
<ENDHMM>
~h "si"
<BEGINHMM>
<NUMSTATES> 5
<STATE> 2
<MEAN> 39
 -6.662214e+00 -6.417206e+00 -4.094645e+00 -1.522967e+01 -7.531545e+00 -2.033607e+01 -1.589922e+00 -9.387865e+00 -3.312761e+00 -1.589699e+01 -7.660096e-01 -6.373134e+00 7.270617e+01 7.431996e-01 -1.479195e+00 -1.572633e+00 -5.039509e-02 1.183938e+00 -2.691958e-02 8.082459e-01 -5.070973e-01 5.180775e-01 -2.975385e+00 2.364089e-01 -7.268460e-01 2.166344e+00 -8.002060e-02 -4.722043e-02 -3.252717e-02 2.576083e-01 2.022468e-01 5.000728e-01 -2.451146e-01 -3.662918e-01 5.357827e-02 -9.611452e-02 2.677645e-02 3.543251e-02 -2.038388e-01
<VARIANCE> 39
 1.815203e+01 5.875197e+01 3.076709e+01 4.142683e+01 4.033965e+01 4.887339e+01 4.808633e+01 3.082811e+01 3.975048e+01 8.399883e+01 2.903278e+01 5.456419e+01 1.210392e+02 1.702718e+00 4.968040e+00 2.249922e+00 4.843643e+00 4.816521e+00 8.546885e+00 4.649111e+00 2.694577e+00 3.245046e+00 4.659338e+00 3.006409e+00 2.887259e+00 4.135214e+00 3.046815e-01 1.023599e+00 2.579920e-01 7.936090e-01 5.924767e-01 9.708189e-01 1.222492e+00 6.066478e-01 8.452969e-01 9.669384e-01 4.514303e-01 7.146149e-01 6.525183e-01
<GCONST> 1.326679e+02
<STATE> 3
<MEAN> 39
 -4.804734e+00 -1.274919e+01 -1.055227e+01 -1.492077e+01 -2.586272e+00 -1.221154e+01 -1.732133e+00 -1.801362e+01 2.933239e+00 -2.580738e+01 9.747800e-01 -1.386387e+01 8.027774e+01 2.626004e-02 5.443041e-01 2.185892e-01 1.107481e-02 -2.353509e-01 -1.918526e-01 -4.869502e-01 -1.407369e-01 -4.293909e-03 3.797180e-01 -1.316438e-01 -7.710272e-02 -3.320811e-01 -2.624797e-02 2.212593e-01 2.261136e-01 1.030577e-02 -2.069460e-01 -2.552298e-01 -1.004828e-01 1.553742e-01 -2.358273e-01 2.958987e-01 -5.622603e-02 1.706601e-01 -1.203287e-01
<VARIANCE> 39
 3.043173e+00 1.773720e+01 2.200088e+01 2.281984e+01 5.330689e+01 1.943039e+01 3.993639e+01 4.263983e+01 6.291237e+01 3.483922e+01 1.681002e+01 2.449692e+01 8.924270e+00 1.502829e-01 8.182330e-01 1.436542e+00 1.255942e+00 2.070515e+00 3.252981e+00 1.834478e+00 2.557170e+00 3.089543e+00 2.081632e+00 1.350932e+00 2.045228e+00 2.270415e-01 2.591912e-02 1.019869e-01 1.378789e-01 2.455318e-01 1.876554e-01 2.851824e-01 3.261492e-01 3.119480e-01 2.847073e-01 3.919932e-01 2.522086e-01 3.129724e-01 2.148301e-02
<GCONST> 9.240451e+01
<STATE> 4
<MEAN> 39
 -1.744391e+01 -1.206569e+00 -6.805532e+00 -3.388976e+00 -9.878590e+00 -1.252675e+01 -9.573112e+00 -8.217289e+00 -7.003911e+00 -9.032207e+00 -3.350745e+00 -2.771557e+00 7.186728e+01 -1.195287e-01 2.289858e-01 -2.668585e-02 4.280767e-01 -2.393569e-01 -4.557635e-02 -3.215350e-01 1.387531e-01 -3.056102e-01 1.435505e-01 -2.266771e-01 5.268887e-01 -9.502483e-02 -1.769701e-03 -3.801635e-02 -4.460851e-02 -6.060989e-02 1.461459e-02 9.325284e-02 1.190813e-01 -6.392957e-02 7.992075e-02 -7.556163e-02 4.751213e-02 -1.076823e-01 4.847199e-02
<VARIANCE> 39
 8.304202e+01 1.670087e+01 1.821223e+01 3.058773e+01 2.792910e+01 8.508894e+01 3.814445e+01 3.370687e+01 2.956222e+01 5.728218e+01 3.210861e+01 2.798127e+01 8.872157e+00 6.280208e+00 2.081692e+00 1.698628e+00 3.266392e+00 2.467976e+00 7.482820e+00 4.375639e+00 3.398228e+00 3.764957e+00 5.245525e+00 3.319613e+00 2.272102e+00 5.904747e-01 7.519358e-01 3.632414e-01 3.315611e-01 4.765085e-01 4.283391e-01 1.301462e+00 7.974339e-01 5.842172e-01 6.603585e-01 6.966495e-01 6.424994e-01 4.391306e-01 6.204534e-02
<GCONST> 1.216486e+02
<TRANSP> 5
 0.000000e+00 1.000000e+00 0.000000e+00 0.000000e+00 0.000000e+00
 0.000000e+00 8.228888e-01 1.771112e-01 0.000000e+00 0.000000e+00
 0.000000e+00 0.000000e+00 9.316182e-01 6.838187e-02 0.000000e+00
 0.000000e+00 0.000000e+00 0.000000e+00 9.602574e-01 3.974266e-02
 0.000000e+00 0.000000e+00 0.000000e+00 0.000000e+00 0.000000e+00
<ENDHMM>
~h "sp"
<BEGINHMM>
<NUMSTATES> 3
<STATE> 2
~s "silst"
<TRANSP> 3
 0.000000e+00 9.644276e-02 9.035572e-01
 0.000000e+00 6.409211e-01 3.590789e-01
 0.000000e+00 0.000000e+00 0.000000e+00
<ENDHMM>
~h "un"
<BEGINHMM>
<NUMSTATES> 5
<STATE> 2
<MEAN> 39
 -3.803958e+00 -4.636071e+00 -5.786404e-01 -8.943187e+00 -9.542112e+00 -2.661847e+01 -2.400448e+00 -1.577748e+01 -8.196737e+00 -1.497334e+01 -7.551000e+00 -4.044479e+00 7.411657e+01 5.423905e-01 1.540026e-01 3.665102e-01 -3.282446e+00 -1.072547e+00 -8.536916e-01 2.162804e+00 -9.540217e-01 -8.903430e-01 6.619462e-02 1.365943e+00 1.380561e-01 1.621001e+00 -1.222959e+00 -3.703803e-01 3.410367e-02 1.969839e-01 1.778458e-01 1.178010e+00 1.984922e-01 1.172408e+00 5.795408e-01 7.668979e-01 2.616382e-01 6.038735e-02 -3.118634e-01
<VARIANCE> 39
 2.772369e+00 1.283788e+01 9.317801e+00 2.374483e+01 1.846098e+01 1.422173e+01 3.150309e+01 2.086644e+01 1.678961e+01 1.437585e+01 2.990280e+01 1.492895e+01 8.466031e+00 3.487210e+00 1.881940e+00 1.220998e+00 1.744770e+00 1.264641e+00 4.883755e+00 2.491020e+00 5.997154e+00 3.180115e+00 2.938011e+00 2.090406e+00 2.147570e+00 1.131200e+00 4.247435e-01 4.450511e-01 3.767512e-01 4.882357e-01 2.956297e-01 2.990335e-01 7.675356e-01 7.973503e-01 5.996194e-01 2.978438e-01 6.876324e-01 3.215646e-01 3.579592e-01
<GCONST> 1.069180e+02
<STATE> 3
<MEAN> 39
 -5.298130e+00 1.137547e-01 6.551220e+00 -1.681512e+01 -1.006913e+01 -2.140697e+01 -2.754045e+00 -1.427962e+01 -1.279857e+01 -9.173203e+00 -4.614460e+00 -3.696909e+00 7.070950e+01 6.174704e-01 1.200097e+00 8.321609e-01 -1.932225e-01 -7.083309e-02 2.576444e-01 -1.607761e+00 4.382126e-01 -7.858569e-01 6.902629e-01 -2.365478e-01 -2.334982e-01 -1.313089e+00 2.824228e-01 1.644836e-02 -1.750842e-01 3.534102e-01 6.197356e-03 -1.377096e-01 -3.525218e-01 9.923930e-02 4.218118e-02 -1.586252e-01 -2.012497e-01 -2.172042e-01 -1.787371e-01
<VARIANCE> 39
 1.248593e+01 2.460899e+01 1.359671e+01 1.767801e+01 1.685520e+01 2.466040e+01 6.214516e+01 2.009229e+01 2.450005e+01 2.455111e+01 1.673603e+01 1.653947e+01 2.291842e+01 1.603942e+00 8.601823e-01 1.325943e+00 2.579885e+00 9.417356e-01 2.466652e+00 3.672009e+00 2.209929e+00 2.446975e+00 2.592477e+00 1.385993e+00 1.969465e+00 7.119586e-01 1.866145e-01 2.686195e-01 2.138944e-01 2.981627e-01 1.833931e-01 4.373682e-01 7.629022e-01 4.415287e-01 5.077890e-01 5.272436e-01 2.520968e-01 4.108257e-01 1.844426e-01
<GCONST> 1.035691e+02
<STATE> 4
<MEAN> 39
 -9.325796e-01 6.768268e+00 8.812746e+00 -1.818493e+01 -1.295525e+01 -1.863424e+01 -1.155967e+01 -1.308734e+01 -1.605169e+01 -5.987617e+00 -9.915399e+00 -9.213667e+00 6.562256e+01 -3.046628e-01 -6.429302e-01 -5.758703e-01 1.130924e-01 -1.057263e-01 3.023350e-01 6.371098e-01 -3.442220e-01 5.303435e-01 -4.850284e-01 -1.536927e-02 9.037900e-02 7.557409e-01 -3.757849e-02 -2.094441e-01 -4.422847e-01 1.889484e-01 3.890297e-01 -8.014636e-02 8.729860e-02 -4.415789e-02 3.935428e-01 -2.319440e-01 7.100790e-02 -1.312248e-03 1.382042e-01
<VARIANCE> 39
