~o
<STREAMINFO> 1 39
<VECSIZE> 39<NULLD><MFCC_D_A_0><DIAGC>
~h "a"
<BEGINHMM>
<NUMSTATES> 5
<STATE> 2
<MEAN> 39
 -3.340834e+00 -7.765775e+00 -9.931036e+00 -1.565730e+01 -3.740629e+00 -1.818968e+01 -2.358605e+00 -1.254510e+01 -3.787085e-01 -2.222953e+01 4.549522e-01 -8.703555e+00 7.524193e+01 8.014381e-02 -1.286696e+00 -9.880170e-01 -4.122475e-01 8.773838e-01 1.244240e+00 2.838917e-01 -8.248031e-01 8.531082e-01 -1.231921e+00 9.914171e-02 -8.451513e-01 1.765267e+00 -4.013147e-01 -1.338168e-01 1.393704e-01 3.124827e-01 -2.725899e-02 6.351276e-01 -5.179353e-02 8.781631e-02 -3.652405e-02 1.329434e-01 1.134309e-01 1.435676e-01 -3.050126e-01
<VARIANCE> 39
 1.704866e+01 7.435741e+01 2.868309e+01 4.794487e+01 3.569928e+01 7.530618e+01 3.456297e+01 5.333838e+01 2.868508e+01 4.116080e+01 1.786123e+01 1.973316e+01 6.269701e+01 1.898311e+00 3.688337e+00 2.290765e+00 4.278451e+00 2.447325e+00 5.891979e+00 4.258361e+00 3.069447e+00 2.626082e+00 4.519101e+00 1.794668e+00 2.034088e+00 6.652003e+00 4.207155e-01 7.283126e-01 2.514233e-01 5.586703e-01 4.686401e-01 1.505265e+00 6.185732e-01 5.956983e-01 4.620187e-01 7.311071e-01 3.571446e-01 3.809771e-01 5.640239e-01
<GCONST> 1.255273e+02
<STATE> 3
<MEAN> 39
 -4.668889e+00 -1.145207e+01 -1.131488e+01 -1.481343e+01 -1.901521e+00 -1.303715e+01 -2.057047e+00 -1.446694e+01 1.171737e+00 -2.471296e+01 1.131652e+00 -1.028784e+01 7.862204e+01 -2.676922e-01 -8.560628e-01 -5.432571e-01 1.962494e-01 5.908139e-01 1.467455e+00 -1.234807e-01 -5.960497e-01 4.171350e-01 -6.433781e-01 2.321317e-01 -5.253031e-01 8.841702e-01 -4.039256e-02 1.554282e-01 1.465051e-01 9.899926e-02 -1.167422e-01 -6.526194e-02 -8.994459e-02 9.644664e-02 -1.302329e-01 2.478034e-01 1.028637e-02 5.489952e-02 -2.288632e-01
<VARIANCE> 39
 9.712352e+00 4.395343e+01 1.788175e+01 4.057968e+01 3.507133e+01 4.601938e+01 2.849401e+01 4.491353e+01 3.510548e+01 3.737006e+01 1.802853e+01 2.227681e+01 5.084266e+01 5.573924e-01 2.594758e+00 1.693804e+00 1.885683e+00 2.248862e+00 3.675768e+00 2.707003e+00 2.759095e+00 2.481813e+00 3.402910e+00 1.392370e+00 1.685763e+00 4.082587e+00 1.802707e-01 3.656125e-01 1.602720e-01 4.034804e-01 2.702184e-01 7.221608e-01 4.481210e-01 4.630060e-01 3.814969e-01 5.735958e-01 2.707259e-01 3.440108e-01 6.028019e-01
<GCONST> 1.129478e+02
<STATE> 4
<MEAN> 39
 -5.515946e+00 -1.383215e+01 -1.046575e+01 -1.132082e+01 -3.190864e+00 -1.001917e+01 -4.882004e+00 -1.517758e+01 -1.385084e+00 -2.235106e+01 5.480321e-01 -1.118430e+01 7.719383e+01 -5.054620e-02 -4.514810e-02 1.052329e-01 2.728629e-02 -2.078518e-01 -5.511775e-02 8.569289e-02 -1.450506e-02 -2.921841e-01 -9.131640e-03 -1.393254e-01 3.442018e-02 3.685534e-03 4.829924e-03 9.810892e-02 5.620847e-02 -4.625042e-02 -6.179795e-02 -7.491672e-02 5.577496e-02 2.441945e-02 -7.667955e-02 6.567347e-02 -4.677126e-02 2.584758e-02 -5.325736e-02
<VARIANCE> 39
 6.892333e+00 3.400990e+01 2.835624e+01 2.902587e+01 3.934502e+01 2.487392e+01 3.311242e+01 3.954018e+01 4.751960e+01 5.435727e+01 2.258601e+01 2.201036e+01 9.095004e+01 7.613787e-01 2.473783e+00 1.665754e+00 2.623934e+00 2.169783e+00 2.287498e+00 2.882557e+00 2.757435e+00 3.134836e+00 4.452917e+00 2.016975e+00 2.115216e+00 8.005765e+00 1.625225e-01 3.694231e-01 2.193819e-01 4.551193e-01 2.723440e-01 3.911125e-01 4.713892e-01 4.991251e-01 5.001189e-01 8.612033e-01 3.176436e-01 3.611716e-01 1.170979e+00
<GCONST> 1.167838e+02
<TRANSP> 5
 0.000000e+00 1.000000e+00 0.000000e+00 0.000000e+00 0.000000e+00
 0.000000e+00 5.508221e-01 4.491778e-01 0.000000e+00 0.000000e+00
 0.000000e+00 0.000000e+00 6.769856e-01 3.230144e-01 0.000000e+00
 0.000000e+00 0.000000e+00 0.000000e+00 9.719881e-01 2.801192e-02
 0.000000e+00 0.000000e+00 0.000000e+00 0.000000e+00 0.000000e+00
<ENDHMM>
~h "b"
<BEGINHMM>
<NUMSTATES> 5
<STATE> 2
<MEAN> 39
 -1.101514e+01 -6.857208e+00 -5.541878e+00 -8.744018e+00 -7.594513e+00 -1.064708e+01 -3.428630e+00 -4.509478e+00 -3.900966e+00 -1.042352e+01 6.470600e-01 -2.822131e+00 5.883101e+01 4.898516e-01 -1.204408e-02 -7.775407e-02 -4.895568e-01 -3.080114e-01 -1.047303e+00 -2.041872e-01 5.566460e-01 7.953256e-01 -2.360240e+00 8.973444e-01 1.470918e-02 1.523262e+00 4.229438e-01 2.825800e-01 -9.390032e-02 -1.103819e-01 2.507949e-01 -6.463906e-01 -2.262288e-01 -4.410562e-01 7.577362e-02 -6.792396e-01 -1.297174e-01 -2.921304e-01 4.679670e-01
<VARIANCE> 39
 1.080178e+01 2.410318e+01 3.228942e+01 5.510760e+01 3.173424e+01 5.452170e+01 3.087353e+01 9.255432e+01 3.029284e+01 7.068851e+01 2.383827e+01 3.442895e+01 2.126495e+02 1.362645e+00 3.629673e+00 2.363500e+00 3.187197e+00 4.181716e+00 5.011114e+00 3.770876e+00 4.200536e+00 3.223383e+00 6.793194e+00 3.286909e+00 2.593273e+00 1.728768e+00 3.214973e-01 5.776685e-01 1.918850e-01 5.102070e-01 6.518096e-01 6.716986e-01 6.691160e-01 1.110680e+00 4.840790e-01 1.221634e+00 7.396922e-01 5.079154e-01 5.959110e-01
<GCONST> 1.279233e+02
<STATE> 3
<MEAN> 39
 -9.561557e+00 -5.961436e+00 -4.941622e+00 -9.967016e+00 -7.427227e+00 -1.394109e+01 -3.961120e+00 -4.778795e+00 -2.244822e+00 -1.617360e+01 2.161592e+00 -3.284148e+00 6.291912e+01 1.612912e+00 6.419960e-01 -6.551086e-01 -6.921701e-01 5.783999e-01 -2.307877e+00 -4.230923e-01 -1.192489e+00 4.123440e-01 -2.600111e+00 9.086194e-02 -6.319365e-01 2.209697e+00 3.903998e-01 2.718950e-02 -3.426194e-01 -2.544802e-01 3.182676e-01 -2.564804e-01 -5.596508e-02 -5.990915e-01 -1.229268e-02 2.010143e-01 -3.922601e-01 -4.156204e-01 3.500108e-01
<VARIANCE> 39
 2.148345e+01 4.178519e+01 3.451874e+01 5.180692e+01 3.160867e+01 6.116535e+01 4.487898e+01 1.102412e+02 3.112554e+01 7.995634e+01 2.843075e+01 3.698270e+01 1.758320e+02 3.279033e+00 4.813254e+00 2.276658e+00 4.900508e+00 4.356738e+00 8.122948e+00 3.621234e+00 6.059788e+00 1.915763e+00 6.596101e+00 4.041293e+00 2.657141e+00 3.533366e+00 4.696733e-01 8.308259e-01 2.585409e-01 6.493141e-01 5.569260e-01 1.129005e+00 7.957852e-01 1.033574e+00 4.427690e-01 1.521538e+00 7.600399e-01 5.520548e-01 5.735706e-01
<GCONST> 1.347809e+02
<STATE> 4
<MEAN> 39
 -4.319422e+00 -4.427190e+00 -7.361963e+00 -1.328808e+01 -5.693033e+00 -1.943787e+01 -4.051828e+00 -1.029842e+01 -2.281011e+00 -1.994387e+01 6.595460e-01 -5.885602e+00 6.961396e+01 1.485787e+00 -3.742168e-01 -1.265299e+00 -1.252264e+00 9.237458e-01 -1.109787e+00 1.311081e-01 -1.323590e+00 6.480938e-01 -1.425306e+00 -2.928936e-01 -1.274925e+00 2.588500e+00 -3.897902e-01 -4.931222e-01 -6.246587e-02 2.411020e-02 8.362875e-02 8.401861e-01 1.948988e-01 1.270170e-01 1.514479e-01 2.537425e-01 1.069240e-02 -7.493747e-02 -3.462593e-02
<VARIANCE> 39
 2.824982e+01 7.755016e+01 4.238997e+01 5.683369e+01 3.209891e+01 7.298811e+01 4.884256e+01 7.428658e+01 3.008813e+01 5.410431e+01 2.084146e+01 2.487624e+01 1.105678e+02 3.943667e+00 5.926005e+00 2.078433e+00 5.546977e+00 3.011813e+00 1.017259e+01 4.312419e+00 4.073200e+00 2.418412e+00 5.995462e+00 2.701095e+00 2.298546e+00 6.813618e+00 6.062442e-01 8.969832e-01 3.688123e-01 6.798197e-01 6.071528e-01 1.483792e+00 8.363432e-01 8.002003e-01 4.065339e-01 1.155677e+00 4.802164e-01 4.499651e-01 5.294120e-01
<GCONST> 1.343449e+02
<TRANSP> 5
 0.000000e+00 1.000000e+00 0.000000e+00 0.000000e+00 0.000000e+00
 0.000000e+00 3.984857e-01 6.015143e-01 0.000000e+00 0.000000e+00
 0.000000e+00 0.000000e+00 3.896192e-01 6.103808e-01 0.000000e+00
 0.000000e+00 0.000000e+00 0.000000e+00 5.000416e-01 4.999584e-01
 0.000000e+00 0.000000e+00 0.000000e+00 0.000000e+00 0.000000e+00
<ENDHMM>
~h "e"
<BEGINHMM>
<NUMSTATES> 5
<STATE> 2
<MEAN> 39
 -4.899031e+00 -6.406027e+00 -1.986372e+01 -1.438321e+01 8.559351e+00 -4.025899e+00 -6.242473e+00 -2.130152e+01 4.400811e+00 -1.481705e+01 1.014861e+00 -1.486390e+01 7.268617e+01 -2.265741e-01 5.239221e-01 -5.427280e-01 1.144514e-01 4.654430e-01 7.429369e-03 -1.591270e-01 2.226535e-01 -7.886729e-02 9.136125e-01 -4.785853e-04 1.884931e-01 -4.531944e-01 1.553700e-02 4.192095e-02 8.282550e-02 -1.311743e-02 -8.672027e-02 -8.372443e-02 -4.665191e-03 2.700992e-02 -8.056752e-02 -5.125191e-02 -4.082441e-02 5.239412e-02 -4.819538e-03
<VARIANCE> 39
 4.226439e+01 4.532705e+01 3.616445e+01 4.213041e+01 3.844156e+01 2.734055e+01 3.260092e+01 1.210686e+02 5.674672e+01 1.684086e+02 2.833966e+01 3.332747e+01 3.428058e+01 2.756581e+00 1.685742e+00 1.774646e+00 2.668651e+00 2.259819e+00 1.797216e+00 3.399775e+00 8.047907e+00 4.734020e+00 6.772082e+00 2.169725e+00 2.010058e+00 1.365043e+00 4.077645e-01 2.653368e-01 3.035663e-01 3.826018e-01 3.714809e-01 2.311354e-01 6.340989e-01 1.086031e+00 7.769831e-01 9.449105e-01 3.723471e-01 3.366020e-01 2.588175e-01
<GCONST> 1.234637e+02
<STATE> 3
<MEAN> 39
 -7.315305e+00 -1.861295e+00 -2.340763e+01 -1.275403e+01 1.135801e+01 -1.034268e+01 -7.456791e+00 -1.733035e+01 4.516320e+00 -5.670061e+00 -2.695208e+00 -9.900278e+00 6.941322e+01 4.796711e-01 1.278057e-02 5.540521e-01 -6.659334e-01 -4.023435e-01 -1.043007e+00 7.776621e-02 -4.745507e-01 7.229304e-01 -5.875367e-01 -5.506547e-01 2.278815e-01 3.892584e-01 -3.624330e-03 -9.715370e-02 1.371270e-01 -7.338794e-02 -1.036524e-01 -2.870335e-02 8.550949e-02 9.604242e-02 7.546248e-02 -1.739683e-01 2.669170e-02 -6.286858e-02 1.410447e-01
<VARIANCE> 39
 4.746774e+01 2.523397e+01 4.450099e+01 7.134348e+01 3.403233e+01 6.148059e+01 3.104346e+01 1.211603e+02 6.017691e+01 1.377959e+02 3.997077e+01 4.086983e+01 3.095114e+01 5.389486e+00 3.470243e+00 3.535324e+00 6.142632e+00 2.754571e+00 3.421319e+00 4.207322e+00 1.277274e+01 5.306820e+00 1.088532e+01 2.329017e+00 2.397361e+00 3.365495e+00 8.695454e-01 6.856946e-01 4.302469e-01 8.910045e-01 4.296250e-01 6.848591e-01 8.312992e-01 1.938551e+00 9.243373e-01 1.263246e+00 4.381809e-01 4.142870e-01 5.876582e-01
<GCONST> 1.374799e+02
<STATE> 4
<MEAN> 39
 -6.015052e+00 -5.708244e+00 -1.390744e+01 -1.423071e+01 3.708510e+00 -1.640866e+01 -4.538801e+00 -1.778400e+01 6.489389e+00 -1.567710e+01 -5.327512e+00 -8.873543e+00 7.447957e+01 -1.505204e-03 -5.105314e-01 6.583271e-01 1.404828e-02 -5.451595e-01 -7.057044e-02 1.891377e-01 6.703954e-02 -2.955365e-02 -1.065113e+00 2.172234e-01 -2.913279e-01 4.723189e-01 -5.861245e-02 1.253664e-02 -7.677647e-02 1.356140e-01 3.405499e-02 8.578546e-02 -3.566750e-02 6.227770e-02 -1.237947e-01 6.896941e-02 6.406686e-02 -4.120025e-03 -8.277299e-02
<VARIANCE> 39
 2.662826e+01 3.264059e+01 5.712922e+01 6.292738e+01 4.224844e+01 4.678710e+01 3.216234e+01 6.724231e+01 8.261913e+01 1.010035e+02 3.763189e+01 4.323703e+01 3.288913e+01 3.332586e+00 3.478278e+00 2.968225e+00 5.439301e+00 2.610624e+00 4.799458e+00 4.072813e+00 7.642577e+00 7.762330e+00 7.826679e+00 2.545229e+00 3.169258e+00 4.051601e+00 6.301653e-01 7.776884e-01 3.458865e-01 7.084581e-01 3.925387e-01 9.040385e-01 8.739514e-01 1.360998e+00 1.262006e+00 1.592112e+00 4.543002e-01 5.589182e-01 7.854030e-01
<GCONST> 1.367125e+02
<TRANSP> 5
 0.000000e+00 1.000000e+00 0.000000e+00 0.000000e+00 0.000000e+00
 0.000000e+00 9.553297e-01 4.467036e-02 0.000000e+00 0.000000e+00
 0.000000e+00 0.000000e+00 8.550000e-01 1.450000e-01 0.000000e+00
 0.000000e+00 0.000000e+00 0.000000e+00 9.107150e-01 8.928493e-02
 0.000000e+00 0.000000e+00 0.000000e+00 0.000000e+00 0.000000e+00
<ENDHMM>
~h "g"
<BEGINHMM>
<NUMSTATES> 5
<STATE> 2
<MEAN> 39
 -8.089921e+00 -6.459136e+00 6.248047e+00 -2.411673e+01 -1.557939e+01 -1.545101e+01 -3.972547e+00 -1.920801e+01 -1.099791e+01 -2.175290e+00 -1.655058e+01 -2.923541e+00 7.478150e+01 3.530561e-01 3.358357e-02 -5.608219e-01 4.100127e-01 5.474144e-01 -6.051662e-01 4.358358e-01 -4.173544e-01 1.663169e-01 -1.083152e-01 -3.248242e-01 3.123825e-01 -4.058584e-01 -2.700451e-03 1.220714e-02 -2.036267e-01 4.118393e-01 1.610482e-01 1.520601e-03 -8.553766e-03 9.644759e-02 6.595037e-02 -1.166528e-01 1.581874e-01 8.212692e-02 -3.021381e-01
<VARIANCE> 39
 7.441637e+00 1.629674e+01 3.273863e+01 3.714225e+01 3.343061e+01 4.255719e+01 4.052108e+01 2.764027e+01 2.259581e+01 2.870868e+01 2.019727e+01 2.127810e+01 2.257613e+01 7.510224e-01 9.273746e-01 2.750084e+00 4.315012e+00 3.155002e+00 3.939679e+00 3.185487e+00 2.544137e+00 2.249196e+00 2.324966e+00 2.289291e+00 2.500255e+00 2.091204e+00 1.918220e-01 2.003567e-01 4.648328e-01 4.660071e-01 7.354119e-01 8.687889e-01 7.681186e-01 5.709171e-01 5.311311e-01 4.253218e-01 5.189830e-01 5.260398e-01 1.767399e-01
<GCONST> 1.137964e+02
<STATE> 3
<MEAN> 39
 -5.794050e+00 -5.013499e+00 4.128232e-01 -1.869507e+01 -1.183170e+01 -1.672293e+01 -2.919791e+00 -1.956461e+01 -1.018114e+01 -3.757782e+00 -1.646899e+01 -8.287468e-01 6.878667e+01 4.763032e-01 4.457005e-01 -1.411064e+00 1.025092e+00 7.008886e-01 5.680398e-02 9.423870e-02 1.584806e-01 1.277128e-01 -2.614968e-01 1.273609e-01 3.770674e-01 -1.360126e+00 -9.665522e-05 8.693207e-02 -1.095508e-01 -3.676550e-02 -2.705931e-02 1.610050e-01 -3.020595e-02 1.219684e-01 -5.770418e-03 1.555537e-02 9.445348e-02 -4.184726e-02 -8.869792e-02
<VARIANCE> 39
 1.301410e+01 2.297142e+01 9.893304e+01 6.681467e+01 6.098295e+01 6.048475e+01 4.460579e+01 3.686614e+01 2.733311e+01 3.068861e+01 3.243813e+01 3.471676e+01 7.126231e+01 1.213770e+00 1.491635e+00 5.179263e+00 5.603867e+00 6.238173e+00 8.177532e+00 5.147677e+00 4.175467e+00 3.303202e+00 3.193566e+00 3.948240e+00 4.530473e+00 3.573604e+00 2.664043e-01 2.576359e-01 1.094608e+00 9.061763e-01 1.424919e+00 1.645562e+00 1.117631e+00 7.978463e-01 7.441187e-01 6.499054e-01 8.314662e-01 1.026642e+00 5.606402e-01
<GCONST> 1.338792e+02
<STATE> 4
<MEAN> 39
 -1.052480e+00 2.480586e+00 -1.191792e+01 -1.819831e+01 -7.738456e+00 -1.237592e+01 -1.433749e+00 -1.679814e+01 -1.096727e+01 -4.222305e+00 -1.473690e+01 2.486895e+00 6.238770e+01 4.704379e-01 8.112832e-01 -8.148521e-01 -3.017654e-01 2.824125e-01 3.684568e-01 1.085404e-01 8.384111e-02 -1.716156e-01 4.925024e-02 4.752149e-02 2.857565e-01 -3.097668e-02 -2.537046e-02 -3.673589e-02 1.369546e-01 -3.530185e-02 -2.920120e-02 -2.120389e-02 -3.487280e-02 -4.483660e-02 8.037249e-04 1.624893e-02 -1.152794e-03 -4.707447e-02 1.353168e-01
<VARIANCE> 39
 2.636235e+01 5.873265e+01 1.106688e+02 6.289013e+01 4.847607e+01 5.328326e+01 4.156792e+01 3.700996e+01 4.072916e+01 3.051408e+01 3.733971e+01 4.214075e+01 4.434047e+01 2.017238e+00 3.112506e+00 1.025579e+01 6.742689e+00 6.492062e+00 6.493565e+00 5.432002e+00 4.369029e+00 4.997746e+00 3.838071e+00 4.266042e+00 4.796889e+00 4.693679e+00 4.099565e-01 4.848004e-01 2.053005e+00 1.224359e+00 1.485102e+00 1.337268e+00 1.139318e+00 8.361930e-01 1.037188e+00 8.312184e-01 7.916251e-01 9.971905e-01 6.683154e-01
<GCONST> 1.409998e+02
<TRANSP> 5
 0.000000e+00 1.000000e+00 0.000000e+00 0.000000e+00 0.000000e+00
 0.000000e+00 7.848573e-01 2.151428e-01 0.000000e+00 0.000000e+00
 0.000000e+00 0.000000e+00 8.172307e-01 1.827693e-01 0.000000e+00
 0.000000e+00 0.000000e+00 0.000000e+00 9.300916e-01 6.990841e-02
 0.000000e+00 0.000000e+00 0.000000e+00 0.000000e+00 0.000000e+00
<ENDHMM>
~h "h"
<BEGINHMM>
<NUMSTATES> 5
<STATE> 2
<MEAN> 39
 -2.013142e+00 -1.147746e+01 -1.451185e+01 -1.736598e+01 3.777722e+00 -4.641654e+00 -3.968830e+00 -2.520435e+01 1.025401e+01 -2.465044e+01 1.177174e+00 -1.595800e+01 7.713080e+01 3.908675e-01 4.623170e-01 -7.895256e-01 -8.161775e-01 5.197447e-01 9.189652e-01 -2.159142e-01 -1.132543e+00 7.081305e-01 -1.363650e-02 7.685404e-01 -3.129485e-01 -2.921777e-01 -5.520802e-02 2.238745e-01 1.398951e-01 4.474674e-02 -1.409269e-01 -8.372181e-02 -7.892327e-02 2.061604e-01 -3.490373e-01 -1.847888e-02 3.933040e-02 1.077512e-01 -1.131036e-01
<VARIANCE> 39
 9.068495e+00 1.725396e+01 1.668001e+01 1.942600e+01 1.884291e+01 2.062938e+01 1.736539e+01 3.459708e+01 4.289957e+01 2.560153e+01 2.871221e+01 2.024609e+01 8.885555e+00 4.783065e-01 1.305627e+00 1.124128e+00 7.793997e-01 1.388842e+00 8.554768e-01 1.313862e+00 1.977417e+00 3.642680e+00 2.226421e+00 1.307212e+00 1.219309e+00 3.975204e-01 1.023121e-01 1.176539e-01 2.051234e-01 1.420255e-01 2.153683e-01 1.622584e-01 2.474627e-01 2.803245e-01 5.641230e-01 4.712802e-01 2.315096e-01 2.131188e-01 4.336509e-02
<GCONST> 9.113427e+01
<STATE> 3
<MEAN> 39
 -1.285458e+00 -7.678425e+00 -1.609480e+01 -1.966379e+01 4.609107e+00 -2.212687e+00 -6.235718e+00 -2.653255e+01 8.990244e+00 -2.530302e+01 4.050179e+00 -1.613045e+01 7.476800e+01 8.748606e-03 8.223820e-01 -4.173630e-01 -1.614524e-01 4.988343e-01 3.464797e-01 -8.686181e-01 -1.120245e-01 -3.194827e-01 -6.169983e-02 3.671062e-01 -2.164561e-01 -6.857457e-01 -1.714669e-01 4.542039e-02 1.008270e-01 2.736151e-01 6.068331e-02 -1.939069e-01 -7.046870e-02 2.978458e-01 -2.010966e-01 2.491385e-01 -1.699291e-01 2.248569e-02 -9.881879e-02
<VARIANCE> 39
 1.046720e+01 2.700997e+01 1.776302e+01 2.735573e+01 2.141140e+01 2.295514e+01 3.933045e+01 3.832342e+01 5.083507e+01 3.927609e+01 3.851546e+01 2.127906e+01 1.815378e+01 1.275166e+00 1.861879e+00 1.508272e+00 2.482452e+00 1.786885e+00 1.680797e+00 2.793419e+00 4.075371e+00 5.099387e+00 4.461359e+00 2.080735e+00 1.254933e+00 8.692745e-01 1.886503e-01 2.134291e-01 2.608466e-01 2.925408e-01 2.765411e-01 2.385821e-01 5.229423e-01 5.483515e-01 7.611685e-01 7.640755e-01 3.583975e-01 2.501290e-01 1.292805e-01
<GCONST> 1.091387e+02
<STATE> 4
<MEAN> 39
 -5.237159e+00 -5.012462e+00 -1.631879e+01 -1.478499e+01 8.252298e+00 -5.272333e+00 -1.037533e+01 -1.927223e+01 4.314312e+00 -1.981107e+01 2.614916e+00 -1.630820e+01 7.101077e+01 -1.348164e+00 -1.177743e-01 -1.193688e-01 1.311055e+00 5.508082e-01 -1.337356e+00 3.959341e-01 2.106445e+00 -2.489562e-01 1.663648e+00 -6.453672e-01 5.046400e-01 -3.696547e-01 -1.311225e-01 -1.537392e-01 1.474921e-01 9.810828e-02 -3.190987e-01 -1.609806e-01 4.281394e-01 2.161637e-01 7.231793e-02 4.588344e-02 -4.527960e-03 3.011317e-01 6.004050e-02
<VARIANCE> 39
 4.650103e+01 2.914382e+01 2.070448e+01 6.873428e+01 4.366554e+01 5.293989e+01 6.604073e+01 1.613201e+02 5.455584e+01 1.122507e+02 3.990453e+01 2.897095e+01 2.793089e+01 3.519807e+00 3.165389e+00 2.613879e+00 3.680126e+00 4.612638e+00 5.696384e+00 7.915480e+00 1.198873e+01 7.334392e+00 9.523351e+00 3.859094e+00 3.774227e+00 2.188244e+00 4.664474e-01 3.529903e-01 5.255972e-01 4.917925e-01 7.409962e-01 6.406485e-01 1.136385e+00 1.871713e+00 1.372034e+00 1.585826e+00 6.587054e-01 5.864146e-01 3.919015e-01
<GCONST> 1.382176e+02
<TRANSP> 5
 0.000000e+00 1.000000e+00 0.000000e+00 0.000000e+00 0.000000e+00
 0.000000e+00 7.881533e-01 2.118467e-01 0.000000e+00 0.000000e+00
 0.000000e+00 0.000000e+00 6.778688e-01 3.221312e-01 0.000000e+00
 0.000000e+00 0.000000e+00 0.000000e+00 6.904995e-01 3.095005e-01
 0.000000e+00 0.000000e+00 0.000000e+00 0.000000e+00 0.000000e+00
<ENDHMM>
~h "i"
<BEGINHMM>
<NUMSTATES> 5
<STATE> 2
<MEAN> 39
 -1.479317e+01 5.529565e+00 -4.528131e+00 -8.770201e+00 -7.980673e+00 -1.246192e+01 -7.538519e+00 -1.441239e+01 -7.578063e+00 -9.142805e+00 -6.025133e+00 -8.125422e+00 7.054950e+01 -1.998413e+00 -4.856348e-02 -1.058479e+00 5.310216e-01 1.321014e-01 7.567605e-01 6.846000e-01 4.712900e-01 9.216668e-01 6.961146e-01 8.788725e-01 3.576576e-01 5.821441e-01 4.834329e-01 -2.140251e-01 3.396028e-01 -2.733997e-01 -8.971389e-02 -1.508811e-01 2.461469e-02 6.011952e-02 -4.807100e-02 9.361235e-02 8.007754e-02 1.497583e-01 -3.419631e-02
<VARIANCE> 39
 1.060122e+02 7.260497e+01 5.946382e+01 6.556800e+01 4.616714e+01 5.096886e+01 3.313003e+01 3.804654e+01 5.360046e+01 5.886172e+01 4.628526e+01 2.907900e+01 3.163188e+01 1.110423e+01 4.012951e+00 6.822333e+00 4.138851e+00 3.487568e+00 4.112617e+00 4.738699e+00 3.777218e+00 5.853560e+00 4.199017e+00 4.906819e+00 2.988894e+00 3.104017e+00 1.501913e+00 8.167174e-01 1.165247e+00 6.865494e-01 6.828084e-01 7.360585e-01 6.215446e-01 6.691474e-01 1.003121e+00 9.288184e-01 6.428736e-01 6.078385e-01 3.190095e-01
<GCONST> 1.384813e+02
<STATE> 3
<MEAN> 39
 -1.776922e+01 5.171073e+00 -5.669174e+00 -7.995448e+00 -7.512955e+00 -1.146512e+01 -6.018548e+00 -1.335072e+01 -5.803104e+00 -7.368524e+00 -3.809709e+00 -7.157084e+00 7.136122e+01 -4.689428e-01 -6.233983e-01 -1.170122e-02 -3.383297e-02 4.718609e-02 2.256148e-01 6.426735e-01 4.408770e-01 5.906265e-01 4.496627e-01 9.423178e-01 3.587745e-01 5.587236e-01 8.298750e-01 -2.784998e-01 4.585831e-01 -2.246955e-01 -2.810839e-02 -2.539055e-01 -1.045437e-01 -5.480029e-02 -3.054855e-01 -2.928185e-01 -1.464538e-01 -7.251959e-02 -6.879897e-02
<VARIANCE> 39
 1.216187e+02 6.269352e+01 5.171370e+01 5.591598e+01 4.459367e+01 4.896161e+01 3.500352e+01 4.242171e+01 5.360976e+01 6.471612e+01 4.550305e+01 2.724337e+01 2.509982e+01 1.171309e+01 4.258837e+00 6.140128e+00 3.701808e+00 3.694872e+00 4.378276e+00 3.667719e+00 3.687702e+00 5.591577e+00 5.229858e+00 3.609068e+00 2.709126e+00 1.994099e+00 1.870799e+00 6.914289e-01 1.283618e+00 6.475465e-01 7.125733e-01 7.902334e-01 6.059321e-01 6.695262e-01 1.221491e+00 1.084740e+00 6.602046e-01 5.607717e-01 3.062996e-01
<GCONST> 1.375429e+02
<STATE> 4
<MEAN> 39
 -1.447706e+01 2.389352e+00 -4.249558e+00 -8.783028e+00 -6.835778e+00 -1.327315e+01 -5.095071e+00 -1.457633e+01 -5.170465e+00 -6.461680e+00 -3.011613e+00 -6.353635e+00 7.235044e+01 6.571887e-01 -8.219376e-01 4.412630e-01 -1.421583e-01 5.230857e-02 -2.889931e-02 3.641016e-01 3.017656e-01 -4.270326e-02 -7.938590e-01 3.785755e-01 -8.611953e-02 3.229727e-01 2.960999e-01 -1.290188e-01 -5.097324e-02 -7.578804e-02 4.518531e-02 -8.794553e-02 -8.462894e-02 -7.397898e-02 -1.027954e-01 -3.762694e-01 -1.778353e-01 -9.819765e-02 -1.292013e-02
<VARIANCE> 39
 1.376544e+02 5.570869e+01 5.932334e+01 4.280691e+01 4.283093e+01 6.282417e+01 3.860638e+01 6.213272e+01 5.469317e+01 8.733173e+01 4.522740e+01 2.936559e+01 1.919261e+01 1.226230e+01 4.564658e+00 7.593011e+00 3.778065e+00 4.155277e+00 5.384044e+00 3.282742e+00 4.275322e+00 7.582976e+00 7.841809e+00 3.549834e+00 2.854615e+00 1.436269e+00 1.675556e+00 5.592774e-01 1.571406e+00 5.965832e-01 8.336542e-01 9.525276e-01 6.484833e-01 7.676519e-01 1.686120e+00 1.367265e+00 6.610342e-01 5.966561e-01 2.445827e-01
<GCONST> 1.400925e+02
<TRANSP> 5
 0.000000e+00 1.000000e+00 0.000000e+00 0.000000e+00 0.000000e+00
 0.000000e+00 5.091057e-01 4.908943e-01 0.000000e+00 0.000000e+00
 0.000000e+00 0.000000e+00 5.600026e-01 4.399975e-01 0.000000e+00
 0.000000e+00 0.000000e+00 0.000000e+00 7.606665e-01 2.393335e-01
 0.000000e+00 0.000000e+00 0.000000e+00 0.000000e+00 0.000000e+00
<ENDHMM>
~h "j"
<BEGINHMM>
<NUMSTATES> 5
<STATE> 2
<MEAN> 39
 -9.423222e+00 -8.385101e+00 -3.195353e+00 -1.357702e+01 -7.088314e+00 -1.507780e+01 -1.877465e+00 -1.142634e+01 -2.322394e+00 -1.245954e+01 8.499434e-01 -6.092413e+00 7.026817e+01 3.058288e-01 -4.754838e-01 -1.396795e+00 2.359857e-01 1.165660e+00 -4.533443e-01 -8.446831e-02 -4.952205e-01 3.876995e-01 -2.946630e+00 3.076904e-01 -2.785963e-01 1.069420e+00 2.772478e-01 3.412082e-01 -5.899673e-02 -2.877518e-01 2.150960e-01 -1.291144e-01 -2.234497e-01 -2.893054e-01 1.530182e-01 -2.283909e-01 -8.617657e-02 -3.569739e-01 1.243009e-01
<VARIANCE> 39
 1.593047e+01 3.098319e+01 5.641528e+01 7.036147e+01 5.215742e+01 4.487519e+01 2.437542e+01 8.415370e+01 1.600186e+01 9.116061e+01 1.733805e+01 3.165269e+01 2.280125e+02 6.520824e-01 5.584842e+00 4.593854e+00 3.170939e+00 4.797857e+00 5.020923e+00 2.941259e+00 5.326441e+00 2.685133e+00 7.302245e+00 2.041865e+00 1.460552e+00 2.850964e+00 2.317504e-01 5.381749e-01 4.254844e-01 6.183870e-01 7.655097e-01 5.836289e-01 8.254237e-01 6.908787e-01 4.303875e-01 1.202949e+00 4.773351e-01 2.848446e-01 7.865405e-01
<GCONST> 1.279149e+02
<STATE> 3
<MEAN> 39
 -8.055248e+00 -8.809422e+00 -5.934404e+00 -1.405448e+01 -4.054972e+00 -1.596796e+01 -2.678594e+00 -1.351768e+01 -3.145130e-01 -1.915545e+01 1.502630e+00 -7.913993e+00 7.346718e+01 9.286561e-01 7.232752e-02 -1.357413e+00 -5.359165e-01 1.300547e+00 -4.520433e-01 -3.977666e-01 -9.728000e-01 8.186599e-01 -2.489684e+00 2.463378e-01 -1.137727e+00 1.545627e+00 2.121749e-01 1.567020e-01 1.131564e-02 -2.676784e-01 2.520117e-03 4.774775e-02 -6.655303e-02 -1.373779e-01 1.888650e-01 4.175042e-01 -6.797379e-02 -2.576411e-01 1.133720e-01
<VARIANCE> 39
 1.585231e+01 5.386839e+01 5.017033e+01 4.657361e+01 4.977427e+01 4.453510e+01 2.399666e+01 7.589425e+01 3.633402e+01 9.882676e+01 1.800067e+01 3.636791e+01 1.860332e+02 1.703360e+00 5.080709e+00 2.531106e+00 3.837717e+00 3.920369e+00 7.285331e+00 2.948401e+00 4.169101e+00 2.326748e+00 7.592392e+00 1.924671e+00 1.231302e+00 4.653556e+00 2.741919e-01 6.215609e-01 4.439528e-01 4.948446e-01 5.113524e-01 7.174411e-01 7.216823e-01 5.996591e-01 4.429620e-01 1.145943e+00 5.004096e-01 2.980641e-01 5.625930e-01
<GCONST> 1.285740e+02
<STATE> 4
<MEAN> 39
 -4.766453e+00 -5.612738e+00 -8.634220e+00 -1.572231e+01 -1.553892e+00 -1.815031e+01 -4.316521e+00 -1.466326e+01 8.833668e-01 -2.226872e+01 2.031357e+00 -1.041474e+01 7.499528e+01 9.274327e-01 -3.166111e-01 -1.011880e+00 -1.051443e+00 5.724406e-01 -8.886307e-02 -1.179180e-01 -9.133999e-01 1.031025e+00 -8.890991e-01 2.173083e-01 -1.179034e+00 2.001604e+00 -3.049512e-01 -3.522102e-01 1.020866e-01 2.353591e-01 -1.068501e-01 5.438715e-01 9.593143e-02 2.102147e-01 4.959720e-03 4.245110e-01 -1.553771e-02 1.670474e-01 -2.449712e-01
<VARIANCE> 39
 1.670482e+01 9.255154e+01 4.626302e+01 3.316655e+01 4.477519e+01 8.968674e+01 2.222930e+01 6.564873e+01 5.360735e+01 5.941607e+01 2.003356e+01 3.223722e+01 9.413173e+01 2.789744e+00 5.950330e+00 2.162905e+00 4.678927e+00 3.170611e+00 1.024298e+01 3.435132e+00 3.138616e+00 2.814063e+00 4.985589e+00 3.551608e+00 1.487888e+00 5.848072e+00 4.056771e-01 1.117195e+00 4.281907e-01 5.418155e-01 4.330503e-01 1.569882e+00 5.892413e-01 6.962404e-01 6.129378e-01 7.978133e-01 4.552168e-01 3.824593e-01 3.871850e-01
<GCONST> 1.311344e+02
<TRANSP> 5
 0.000000e+00 1.000000e+00 0.000000e+00 0.000000e+00 0.000000e+00
 0.000000e+00 4.785916e-01 5.214084e-01 0.000000e+00 0.000000e+00
 0.000000e+00 0.000000e+00 5.178575e-01 4.821425e-01 0.000000e+00
 0.000000e+00 0.000000e+00 0.000000e+00 6.970269e-01 3.029731e-01
 0.000000e+00 0.000000e+00 0.000000e+00 0.000000e+00 0.000000e+00
<ENDHMM>
~h "l"
<BEGINHMM>
<NUMSTATES> 5
<STATE> 2
<MEAN> 39
 -1.689143e+01 -1.200745e+01 -3.840230e+00 -5.323738e+00 -1.083029e+00 -1.361244e+01 -4.575305e+00 3.258360e+00 -2.122487e+00 -8.763622e+00 1.096077e+00 -3.988535e+00 5.534821e+01 -1.112097e-01 -4.080667e-01 2.940404e-01 -2.945896e-01 8.043920e-02 -4.710413e-01 3.041044e-01 2.757944e-01 -1.190006e-02 -2.627875e-01 2.787863e-01 -5.419098e-02 6.845013e-01 6.363552e-02 1.699474e-02 -2.082640e-02 -2.097128e-02 -4.166177e-02 9.954276e-03 -1.155027e-03 -1.988261e-02 -5.742942e-02 -1.244467e-03 3.907419e-03 2.307001e-04 -2.852576e-02
<VARIANCE> 39
 3.117449e+01 5.696580e+01 4.119644e+01 4.515683e+01 4.352993e+01 4.480587e+01 4.718617e+01 8.012803e+01 3.335600e+01 5.562964e+01 3.097222e+01 2.466503e+01 5.291158e+01 2.539111e+00 2.149886e+00 3.374388e+00 3.858900e+00 2.917801e+00 3.909741e+00 3.690603e+00 4.282328e+00 2.857760e+00 3.254069e+00 2.540409e+00 2.339511e+00 3.217495e+00 4.902219e-01 3.313801e-01 6.349231e-01 7.632098e-01 5.356445e-01 6.670173e-01 7.192557e-01 8.105835e-01 5.697209e-01 6.173236e-01 5.085470e-01 4.379095e-01 5.578224e-01
<GCONST> 1.280323e+02
<STATE> 3
<MEAN> 39
 -1.698304e+01 -1.566364e+01 -3.512670e+00 -7.590285e+00 -8.990645e-02 -1.470244e+01 -2.724097e+00 2.967497e+00 -6.095953e-01 -1.077787e+01 3.108023e+00 -5.306045e+00 5.932669e+01 8.743881e-02 -2.931889e-02 -3.458452e-02 -5.041805e-02 -3.221331e-03 -1.576859e-01 1.664573e-01 -6.771308e-02 -9.017681e-02 -1.922811e-01 8.712798e-02 6.467317e-02 1.347156e-01 4.387176e-02 8.340159e-02 -4.365506e-02 3.368991e-02 -3.137554e-02 1.859705e-02 -5.311586e-02 -2.106485e-02 -2.008397e-02 -6.469583e-03 -3.393739e-02 2.584853e-02 -5.363413e-02
<VARIANCE> 39
 2.357254e+01 4.192447e+01 2.688955e+01 3.195707e+01 3.512606e+01 3.265480e+01 3.844048e+01 6.109879e+01 3.326453e+01 4.332702e+01 3.197068e+01 2.736287e+01 5.005533e+01 1.278817e+00 1.915597e+00 1.748006e+00 2.352829e+00 2.369857e+00 3.045419e+00 2.546291e+00 3.695232e+00 2.878586e+00 2.738348e+00 2.280551e+00 2.245770e+00 2.041821e+00 2.183672e-01 2.499032e-01 3.345301e-01 4.574302e-01 3.938597e-01 4.764177e-01 4.485071e-01 7.026745e-01 5.262261e-01 5.102034e-01 4.571834e-01 4.181159e-01 2.866891e-01
<GCONST> 1.172041e+02
<STATE> 4
<MEAN> 39
 -1.379579e+01 -1.354186e+01 -5.530673e+00 -9.730953e+00 -9.538540e-01 -1.595328e+01 -1.593951e+00 -8.891668e-01 9.506655e-02 -1.390453e+01 1.917374e+00 -4.969917e+00 6.401779e+01 2.919861e-01 8.388117e-02 -2.118301e-01 2.220345e-02 -1.925524e-01 3.186910e-01 3.180740e-02 -2.505720e-01 -2.349341e-01 -2.263340e-01 -3.325993e-02 9.438011e-02 2.367913e-01 8.130888e-03 5.475778e-03 -3.346808e-03 9.300662e-02 -2.557159e-02 2.003822e-01 -5.453197e-02 -6.597388e-02 -6.654743e-02 6.909535e-02 -2.196018e-02 -1.880336e-02 -1.263562e-01
<VARIANCE> 39
 5.070564e+01 5.509835e+01 2.433957e+01 3.268675e+01 2.981493e+01 5.308051e+01 3.951851e+01 7.851312e+01 3.777298e+01 6.756790e+01 3.105588e+01 2.703042e+01 9.542311e+01 1.383399e+00 3.282828e+00 1.483697e+00 2.405348e+00 2.280393e+00 5.486218e+00 2.674062e+00 3.342658e+00 3.041414e+00 3.102933e+00 2.217826e+00 2.580301e+00 3.374591e+00 2.397504e-01 4.455438e-01 2.694982e-01 4.645223e-01 4.078733e-01 8.804265e-01 4.860571e-01 6.088181e-01 5.601906e-01 5.258206e-01 4.074394e-01 4.422542e-01 2.906773e-01
<GCONST> 1.228140e+02
<TRANSP> 5
 0.000000e+00 1.000000e+00 0.000000e+00 0.000000e+00 0.000000e+00
 0.000000e+00 8.640440e-01 1.359561e-01 0.000000e+00 0.000000e+00
 0.000000e+00 0.000000e+00 7.739109e-01 2.260891e-01 0.000000e+00
 0.000000e+00 0.000000e+00 0.000000e+00 7.988884e-01 2.011116e-01
 0.000000e+00 0.000000e+00 0.000000e+00 0.000000e+00 0.000000e+00
<ENDHMM>
~h "n"
<BEGINHMM>
<NUMSTATES> 5
<STATE> 2
<MEAN> 39
 -2.437239e+00 -5.110470e+00 -4.606138e+00 -1.058235e+01 -3.679466e+00 -1.532106e+01 -1.043287e+01 -1.322003e+01 -1.094059e+00 -1.806733e+01 -4.904793e+00 -6.576657e+00 6.940832e+01 -2.690956e-01 -9.454074e-01 -2.506287e-01 -1.033426e-01 4.104630e-01 3.609214e-01 6.192966e-01 3.751848e-01 -7.664368e-01 -2.777721e-01 4.938595e-01 1.847678e-02 4.590213e-01 -3.345471e-02 1.403215e-02 2.139440e-01 -7.274278e-02 -1.545670e-01 3.447332e-01 1.287973e-01 -1.891578e-01 -5.357642e-02 8.472036e-02 2.259198e-01 3.229002e-02 -3.008545e-02
<VARIANCE> 39
 1.971595e+01 7.119757e+01 9.382995e+01 2.339120e+01 7.434613e+01 5.876566e+01 6.343760e+01 4.588474e+01 6.647080e+01 4.466719e+01 4.402574e+01 5.382317e+01 3.942297e+01 1.463050e+00 5.124222e+00 1.192362e+01 2.602093e+00 9.139658e+00 5.293299e+00 7.632951e+00 4.493984e+00 5.053551e+00 3.385906e+00 4.947425e+00 5.589082e+00 4.678171e+00 2.445456e-01 5.927653e-01 1.380935e+00 4.759218e-01 1.293478e+00 1.224393e+00 1.026221e+00 8.289939e-01 1.067828e+00 7.105595e-01 6.082530e-01 7.951528e-01 5.582641e-01
<GCONST> 1.393448e+02
<STATE> 3
<MEAN> 39
 -3.666367e+00 -8.445227e+00 -4.975002e+00 -1.048133e+01 -2.963423e+00 -1.285936e+01 -7.919988e+00 -1.276230e+01 -3.129983e+00 -1.868951e+01 -2.447233e+00 -7.089598e+00 7.038464e+01 -2.473270e-01 -7.191967e-01 3.421488e-01 5.463762e-02 4.432041e-02 1.141082e+00 4.777214e-01 -6.988946e-02 -3.004648e-01 -6.899416e-02 7.093577e-01 -1.748288e-02 3.820658e-03 4.097089e-02 1.786147e-01 1.638310e-01 1.166594e-01 -2.225924e-01 -3.559501e-02 -1.510324e-01 -5.015205e-02 3.156112e-01 1.661361e-01 -8.085269e-02 3.803082e-02 -1.769543e-01
<VARIANCE> 39
 2.341830e+01 9.229389e+01 9.664105e+01 3.393660e+01 5.298882e+01 6.462330e+01 5.430304e+01 5.425813e+01 6.792180e+01 4.815759e+01 4.184575e+01 4.278209e+01 5.284238e+01 1.157208e+00 4.393288e+00 6.689850e+00 2.114884e+00 5.767338e+00 3.259954e+00 5.114902e+00 3.081467e+00 3.693341e+00 3.192419e+00 3.556033e+00 4.360465e+00 3.207313e+00 1.979657e-01 4.781466e-01 1.160615e+00 3.677979e-01 7.341546e-01 9.159210e-01 8.174965e-01 7.110112e-01 7.843049e-01 6.179058e-01 6.250023e-01 6.845819e-01 4.529732e-01
<GCONST> 1.329562e+02
<STATE> 4
<MEAN> 39
 -5.811420e+00 -1.251944e+01 -2.115327e+00 -8.168672e+00 -5.669340e+00 -8.638708e+00 -6.112129e+00 -1.114130e+01 -4.999029e+00 -1.717368e+01 -8.003770e-01 -6.533817e+00 6.849632e+01 -3.162855e-01 -2.260793e-01 4.344377e-01 2.523325e-01 -2.259082e-01 5.498546e-01 2.391643e-01 1.330253e-01 1.234362e-01 4.105790e-01 2.662786e-01 1.434424e-01 -5.268756e-01 4.031166e-03 1.661869e-01 -1.363019e-01 3.961847e-02 -2.992886e-02 -3.617763e-01 -8.182459e-02 7.362702e-02 1.461722e-01 7.634450e-02 -1.389305e-01 5.347273e-02 -7.024805e-02
<VARIANCE> 39
 3.617395e+01 1.073136e+02 1.070254e+02 4.160064e+01 5.652953e+01 6.808528e+01 5.379792e+01 4.896270e+01 6.397655e+01 5.043662e+01 3.591728e+01 3.575334e+01 7.648536e+01 9.161350e-01 2.164547e+00 4.418758e+00 1.697619e+00 2.571003e+00 3.026359e+00 2.882816e+00 2.226443e+00 3.272867e+00 2.733713e+00 2.481324e+00 2.721110e+00 1.734448e+00 1.966507e-01 4.703795e-01 1.062091e+00 3.848663e-01 5.656359e-01 6.089720e-01 6.015832e-01 5.022678e-01 5.900223e-01 5.026735e-01 5.290753e-01 5.853279e-01 3.861374e-01
<GCONST> 1.264339e+02
<TRANSP> 5
 0.000000e+00 1.000000e+00 0.000000e+00 0.000000e+00 0.000000e+00
 0.000000e+00 5.064179e-01 4.935822e-01 0.000000e+00 0.000000e+00
 0.000000e+00 0.000000e+00 3.630649e-01 6.369351e-01 0.000000e+00
 0.000000e+00 0.000000e+00 0.000000e+00 5.483404e-01 4.516596e-01
 0.000000e+00 0.000000e+00 0.000000e+00 0.000000e+00 0.000000e+00
<ENDHMM>
~h "o"
<BEGINHMM>
<NUMSTATES> 5
<STATE> 2
<MEAN> 39
 -1.353440e+01 -1.107258e+01 -1.055958e+01 -4.643183e+00 4.292991e+00 -8.348608e+00 -1.104747e+01 -1.723544e+00 5.226257e-01 -5.417791e+00 -3.071226e-01 -6.740548e+00 5.173894e+01 2.134092e-01 9.721371e-01 -2.669616e-01 -1.557737e-01 -6.497891e-01 1.297429e+00 4.317780e-01 -1.091872e+00 -8.847678e-01 1.061432e+00 -4.387995e-01 3.365825e-01 -6.902993e-01 -5.029818e-02 1.015211e-01 1.538041e-01 -1.461743e-01 -1.678971e-01 -6.512239e-03 2.917663e-01 -7.142343e-02 -2.068553e-02 -9.771341e-02 2.876715e-02 1.234038e-01 4.472272e-02
<VARIANCE> 39
 9.887880e+00 2.560636e+01 2.191716e+01 2.122116e+01 3.444769e+01 3.947439e+01 3.496887e+01 2.855660e+01 3.951541e+01 3.698721e+01 2.705169e+01 2.017036e+01 1.716638e+01 1.123632e+00 8.877538e-01 1.505494e+00 1.569086e+00 1.705501e+00 2.336650e+00 2.594984e+00 2.841390e+00 2.083218e+00 3.258226e+00 1.987382e+00 1.752546e+00 6.079311e-01 1.287195e-01 1.339830e-01 2.079484e-01 2.836054e-01 3.188981e-01 4.422275e-01 4.461054e-01 5.223224e-01 3.764353e-01 5.268824e-01 3.914128e-01 3.230297e-01 5.642961e-02
<GCONST> 1.039433e+02
<STATE> 3
<MEAN> 39
 -1.337312e+01 -8.856993e+00 -1.117097e+01 -4.843212e+00 2.862913e+00 -5.682122e+00 -9.320234e+00 -4.148787e+00 -1.192398e+00 -3.589860e+00 -9.076422e-01 -5.265831e+00 5.034202e+01 1.108472e-01 1.136511e+00 3.698457e-02 -4.537381e-01 -9.862584e-01 1.026665e+00 1.007561e+00 -1.113211e+00 -7.192922e-01 6.618938e-01 -3.930848e-01 5.537974e-01 -5.128081e-01 1.060837e-01 9.953149e-02 2.826484e-01 -2.143472e-01 -2.570963e-01 -2.523870e-01 7.897381e-02 9.076374e-02 4.016439e-02 -3.362086e-01 4.349211e-02 5.582867e-02 1.861102e-01
<VARIANCE> 39
 1.507540e+01 2.917291e+01 2.513764e+01 2.046846e+01 3.237395e+01 3.421353e+01 3.830045e+01 2.316443e+01 3.297389e+01 2.360661e+01 1.874866e+01 2.020894e+01 1.176132e+01 1.543026e+00 8.018690e-01 1.729055e+00 1.354257e+00 1.691868e+00 2.558495e+00 2.699648e+00 2.711074e+00 2.150196e+00 4.397014e+00 2.178468e+00 1.726336e+00 1.103364e+00 3.708634e-01 4.139909e-01 3.640041e-01 3.920522e-01 3.589211e-01 5.116937e-01 5.303949e-01 5.453073e-01 3.825738e-01 5.325838e-01 3.877849e-01 3.319191e-01 9.727477e-02
<GCONST> 1.083259e+02
<STATE> 4
<MEAN> 39
 -5.765854e+00 -4.326261e+00 -1.215035e+01 -1.632484e+01 -1.028255e+00 -8.569069e+00 -6.642270e+00 -1.060271e+01 -4.958820e-01 -1.031421e+01 -1.259008e+00 -5.257597e+00 6.222878e+01 5.400087e-01 -9.632021e-03 -7.412255e-03 -5.307230e-01 -1.350860e-01 -3.608015e-01 -2.315691e-02 -6.143619e-01 4.330901e-01 -5.001392e-01 -2.849942e-01 -9.518582e-02 1.147758e+00 -9.499895e-02 -6.819533e-02 1.755456e-01 1.409001e-01 -7.172706e-03 -1.463332e-01 3.673200e-02 1.786247e-01 -4.368625e-03 -5.466076e-02 -2.151879e-02 6.417644e-02 -5.460716e-02
<VARIANCE> 39
 8.912250e+01 8.147876e+01 3.280715e+01 9.986725e+01 4.914976e+01 4.789807e+01 2.787198e+01 6.994168e+01 5.865533e+01 6.272144e+01 3.336802e+01 3.375990e+01 1.335573e+02 5.203868e+00 5.188385e+00 3.311952e+00 5.765022e+00 4.833263e+00 4.247471e+00 2.761289e+00 4.219433e+00 4.361296e+00 3.801648e+00 3.745040e+00 3.695491e+00 3.781584e+00 8.069103e-01 6.242242e-01 4.597965e-01 7.659063e-01 7.317423e-01 6.001330e-01 4.527227e-01 7.633467e-01 7.463788e-01 6.832273e-01 7.185585e-01 7.594549e-01 3.324709e-01
<GCONST> 1.366261e+02
<TRANSP> 5
 0.000000e+00 1.000000e+00 0.000000e+00 0.000000e+00 0.000000e+00
 0.000000e+00 5.434693e-01 4.565307e-01 0.000000e+00 0.000000e+00
 0.000000e+00 0.000000e+00 3.691068e-01 6.308932e-01 0.000000e+00
 0.000000e+00 0.000000e+00 0.000000e+00 7.669604e-01 2.330396e-01
 0.000000e+00 0.000000e+00 0.000000e+00 0.000000e+00 0.000000e+00
<ENDHMM>
~h "q"
<BEGINHMM>
<NUMSTATES> 5
<STATE> 2
<MEAN> 39
 -4.531374e+00 9.543814e+00 7.596445e+00 -1.927846e+01 -1.259328e+01 -1.070702e+01 -1.705469e+01 -1.186364e+01 -1.235184e+01 1.627312e-01 -1.660112e+01 -4.622304e+00 6.563832e+01 7.202373e-01 2.956104e-01 -3.226099e-01 7.250090e-01 -3.453308e-02 -2.751961e-01 -8.654784e-02 -2.407484e-01 -1.281969e-01 -3.675452e-01 -8.553638e-02 -8.398055e-02 -5.435064e-01 4.848123e-03 2.861218e-03 -6.118524e-02 3.304147e-02 1.210412e-01 -1.085153e-01 5.066745e-02 -1.076915e-01 2.350886e-02 -2.306511e-01 1.454301e-01 -1.406825e-01 1.271023e-02
<VARIANCE> 39
 2.331597e+01 5.513506e+01 2.313617e+01 4.807753e+01 3.106469e+01 4.132858e+01 4.430257e+01 4.292644e+01 2.476077e+01 4.151099e+01 4.182074e+01 2.879608e+01 2.004863e+01 1.354846e+00 2.265202e+00 1.756857e+00 2.734888e+00 2.242859e+00 3.632890e+00 2.632931e+00 2.732101e+00 2.001809e+00 4.245690e+00 2.529053e+00 1.805751e+00 1.171842e+00 2.462629e-01 2.373433e-01 2.739626e-01 4.130568e-01 4.301365e-01 6.337939e-01 4.562462e-01 5.097285e-01 3.934416e-01 6.380267e-01 3.889728e-01 3.315861e-01 2.013056e-01
<GCONST> 1.153548e+02
<STATE> 3
<MEAN> 39
 -1.800994e+00 1.026370e+01 6.251073e+00 -1.660787e+01 -1.238414e+01 -1.151283e+01 -1.725337e+01 -1.355150e+01 -1.287002e+01 -1.767547e+00 -1.646892e+01 -5.138993e+00 6.392551e+01 5.656948e-01 1.558429e-01 -4.493242e-01 9.504657e-01 3.190154e-01 -4.955649e-01 1.292766e-01 -4.919598e-01 -1.155204e-01 -1.081648e+00 4.264588e-01 -5.304391e-01 -5.643746e-01 -3.633441e-01 -1.948940e-02 -5.155580e-02 5.535505e-02 1.379605e-01 7.924856e-02 1.111909e-01 -1.451391e-02 4.639883e-02 -1.392418e-01 1.227206e-01 -1.565817e-01 1.101155e-01
<VARIANCE> 39
 2.918277e+01 3.159175e+01 2.248969e+01 4.902304e+01 2.703975e+01 4.297530e+01 3.502827e+01 3.833379e+01 2.408582e+01 5.150483e+01 3.563236e+01 2.682552e+01 1.955477e+01 2.809792e+00 1.854195e+00 1.691288e+00 2.333519e+00 2.079478e+00 3.570390e+00 2.480247e+00 2.564048e+00 2.086756e+00 4.535407e+00 2.560366e+00 2.253474e+00 1.039219e+00 5.890714e-01 2.737738e-01 3.922567e-01 3.917553e-01 3.364697e-01 6.281071e-01 4.746907e-01 4.887600e-01 4.510111e-01 7.924780e-01 4.438166e-01 3.619932e-01 1.974614e-01
<GCONST> 1.164529e+02
<STATE> 4
<MEAN> 39
 -2.663186e+00 1.004958e+01 3.583826e+00 -1.131566e+01 -9.316366e+00 -1.287928e+01 -1.527906e+01 -1.596470e+01 -1.330121e+01 -7.363588e+00 -1.343054e+01 -8.666662e+00 6.230785e+01 -2.329893e+00 -1.981975e-01 -1.395101e+00 1.215698e+00 8.001211e-01 2.184923e-01 1.155682e+00 1.129444e-01 6.593634e-01 -8.196397e-01 1.136624e+00 -8.025259e-01 6.227691e-01 -7.464738e-01 -1.133678e-01 -3.658560e-01 -8.883193e-03 -7.019619e-02 2.327137e-01 3.050963e-01 2.753684e-01 3.931146e-01 4.259410e-01 2.669066e-01 2.614432e-01 4.012725e-01
<VARIANCE> 39
 6.269096e+01 2.749458e+01 4.633620e+01 4.085046e+01 3.114041e+01 3.008438e+01 3.045330e+01 2.819225e+01 3.067461e+01 5.810569e+01 3.321852e+01 3.069156e+01 2.092947e+01 1.096813e+01 3.004843e+00 6.432031e+00 2.423214e+00 2.600141e+00 3.411573e+00 3.487024e+00 3.142143e+00 4.428264e+00 6.660703e+00 3.398901e+00 3.483125e+00 3.190473e+00 1.139652e+00 5.079529e-01 1.394359e+00 4.808081e-01 5.234503e-01 5.099443e-01 5.277385e-01 5.453290e-01 8.402185e-01 1.227873e+00 6.361359e-01 7.160075e-01 3.582320e-01
<GCONST> 1.302664e+02
<TRANSP> 5
 0.000000e+00 1.000000e+00 0.000000e+00 0.000000e+00 0.000000e+00
 0.000000e+00 7.168633e-01 2.831367e-01 0.000000e+00 0.000000e+00
 0.000000e+00 0.000000e+00 7.273862e-01 2.726138e-01 0.000000e+00
 0.000000e+00 0.000000e+00 0.000000e+00 8.037362e-01 1.962638e-01
 0.000000e+00 0.000000e+00 0.000000e+00 0.000000e+00 0.000000e+00
<ENDHMM>
~h "s"
<BEGINHMM>
<NUMSTATES> 5
<STATE> 2
<MEAN> 39
 -8.337151e+00 -1.009121e+01 -7.225320e+00 -1.191958e+01 -2.704598e+00 -1.141957e+01 -2.824864e+00 -8.996357e+00 6.233056e-01 -1.552725e+01 -1.517083e+00 -7.246502e+00 6.523804e+01 7.077086e-01 5.661032e-01 -5.327566e-02 -3.842208e-01 6.589723e-01 -5.190446e-01 -1.277072e-01 -7.561739e-01 1.296221e-01 -1.634632e+00 1.359579e-01 -4.227328e-02 1.100607e+00 4.115682e-01 3.117298e-01 2.398141e-02 -4.457069e-01 -1.971676e-02 -4.989882e-01 -1.947835e-03 -2.892039e-01 -1.152425e-01 -1.144656e-01 2.430566e-02 -1.173809e-01 5.863623e-01
<VARIANCE> 39
 3.405014e+01 3.878615e+01 5.308604e+01 4.755214e+01 3.335916e+01 3.805328e+01 2.513683e+01 9.864639e+01 3.795885e+01 7.594904e+01 2.173847e+01 7.909267e+01 2.410869e+02 2.370769e+00 2.834464e+00 2.436000e+00 3.938533e+00 1.943848e+00 4.690901e+00 1.714461e+00 4.032796e+00 1.698164e+00 4.376375e+00 1.259855e+00 2.737669e+00 2.839437e+00 4.453044e-01 4.176293e-01 3.523381e-01 7.070675e-01 4.378752e-01 7.675215e-01 2.769912e-01 6.570114e-01 3.023153e-01 6.328824e-01 3.343178e-01 5.636882e-01 6.280646e-01
<GCONST> 1.255041e+02
<STATE> 3
<MEAN> 39
 -4.668012e+00 -7.006042e+00 -8.565436e+00 -1.470285e+01 -1.086588e+00 -1.591264e+01 -4.132616e+00 -1.284172e+01 1.796855e+00 -2.040699e+01 -7.464027e-01 -7.302490e+00 7.175140e+01 7.568660e-01 -1.365635e-02 -3.447895e-01 -7.094485e-01 3.067051e-01 -9.899825e-01 9.894852e-02 -6.612922e-01 6.601419e-02 -1.188936e+00 8.631162e-02 -4.298052e-01 1.915655e+00 -7.420779e-02 -1.236596e-01 -5.138686e-02 -9.433322e-03 -1.359877e-01 7.250339e-02 2.888896e-02 4.473802e-02 -1.740794e-02 1.729051e-01 -1.436250e-03 -7.546706e-02 1.889967e-02
<VARIANCE> 39
 2.553518e+01 5.489290e+01 4.572698e+01 4.569997e+01 2.526922e+01 8.044530e+01 2.739101e+01 5.465413e+01 5.065583e+01 5.011111e+01 1.829002e+01 6.730519e+01 1.307483e+02 3.725973e+00 4.464009e+00 2.709301e+00 5.337615e+00 2.488833e+00 9.866201e+00 2.254068e+00 4.825366e+00 2.844819e+00 3.275704e+00 2.212891e+00 4.418789e+00 5.244002e+00 4.391941e-01 6.350237e-01 3.453535e-01 7.496154e-01 3.910749e-01 1.331413e+00 4.285190e-01 6.662223e-01 4.674949e-01 4.473196e-01 4.439650e-01 7.906843e-01 5.099007e-01
<GCONST> 1.307440e+02
<STATE> 4
<MEAN> 39
 -3.979618e+00 -8.708517e+00 -9.701389e+00 -1.530941e+01 -1.720294e+00 -1.650149e+01 -3.919729e+00 -1.372871e+01 1.169939e+00 -2.274569e+01 4.836372e-02 -8.092732e+00 7.764465e+01 -3.835675e-02 -6.921570e-01 -2.078932e-01 1.792051e-02 -9.494384e-02 3.947117e-01 2.113849e-01 -2.842025e-01 -1.646799e-02 -6.318968e-01 2.649492e-01 -5.019294e-01 1.219562e+00 -1.590598e-01 5.818869e-03 9.328404e-02 1.692363e-01 -9.506653e-02 1.641774e-01 -1.652225e-02 9.953943e-02 -7.182121e-02 1.669064e-01 -2.297998e-02 2.878995e-02 -2.577647e-01
<VARIANCE> 39
 1.096509e+01 5.544292e+01 2.142403e+01 3.592932e+01 1.847612e+01 9.342940e+01 2.790101e+01 3.120515e+01 3.790721e+01 4.188479e+01 1.832253e+01 3.756728e+01 5.184520e+01 1.438425e+00 3.491316e+00 1.718705e+00 3.549124e+00 2.199942e+00 8.942833e+00 2.017730e+00 3.228044e+00 2.483647e+00 2.798339e+00 2.559022e+00 4.008639e+00 3.901140e+00 2.439742e-01 6.106007e-01 1.901017e-01 4.502131e-01 3.440646e-01 1.441247e+00 3.838942e-01 5.396032e-01 3.573241e-01 4.518349e-01 5.127128e-01 6.395907e-01 2.407841e-01
<GCONST> 1.197119e+02
<TRANSP> 5
 0.000000e+00 1.000000e+00 0.000000e+00 0.000000e+00 0.000000e+00
 0.000000e+00 5.591773e-01 4.408227e-01 0.000000e+00 0.000000e+00
 0.000000e+00 0.000000e+00 7.664906e-01 2.335094e-01 0.000000e+00
 0.000000e+00 0.000000e+00 0.000000e+00 8.870912e-01 1.129087e-01
 0.000000e+00 0.000000e+00 0.000000e+00 0.000000e+00 0.000000e+00
<ENDHMM>
~h "t"
<BEGINHMM>
<NUMSTATES> 5
<STATE> 2
<MEAN> 39
 -6.496136e+00 -8.054677e+00 -1.113850e+01 -1.269359e+01 1.409027e+00 -1.612685e+01 -4.296760e+00 -1.763890e+01 4.370937e+00 -2.154019e+01 -2.941921e+00 -1.077144e+01 7.590369e+01 -6.147901e-02 -1.065524e-01 1.864085e-01 4.910723e-01 -2.021632e-01 4.089833e-01 -3.575203e-01 -7.621732e-02 -7.026203e-01 -6.491107e-01 4.769235e-01 -2.706534e-01 -6.238470e-02 2.280192e-02 9.066705e-02 -6.705514e-02 6.403072e-03 8.423194e-02 5.948269e-02 -1.201147e-01 -5.089665e-02 -5.779884e-02 9.303204e-02 -2.255545e-03 4.940360e-03 -6.895005e-02
<VARIANCE> 39
 2.138455e+01 2.456694e+01 3.762584e+01 4.180547e+01 2.837959e+01 5.911608e+01 3.812669e+01 6.000832e+01 8.841402e+01 7.807802e+01 4.405813e+01 5.165656e+01 2.502666e+01 2.357544e+00 3.644439e+00 3.350672e+00 3.540601e+00 2.798899e+00 4.545618e+00 4.653427e+00 5.595430e+00 8.508721e+00 9.002917e+00 3.518761e+00 3.649500e+00 3.509947e+00 4.312688e-01 7.942733e-01 4.735432e-01 4.916556e-01 4.427103e-01 9.220045e-01 1.025386e+00 1.008072e+00 1.457375e+00 1.994614e+00 7.001296e-01 5.870340e-01 7.031127e-01
<GCONST> 1.352605e+02
<STATE> 3
<MEAN> 39
 -6.169154e+00 -8.612915e+00 -1.178277e+01 -1.165196e+01 1.899050e+00 -1.331554e+01 -6.995036e+00 -1.943103e+01 2.024129e+00 -2.455668e+01 -3.652580e-01 -1.330780e+01 7.615060e+01 2.246224e-01 9.629281e-02 -1.544886e-01 8.728062e-02 4.237320e-02 3.869490e-01 -6.769696e-01 -2.585668e-01 -2.862535e-01 -4.164124e-01 4.535975e-01 -4.661942e-01 -5.445160e-02 2.270878e-02 3.729453e-02 5.710468e-02 -4.058303e-02 -2.845771e-02 -6.963113e-02 2.098398e-02 6.337170e-02 -1.360207e-03 1.282726e-01 -9.090356e-02 6.597162e-02 -2.792721e-02
<VARIANCE> 39
 2.054980e+01 2.036701e+01 4.572569e+01 2.889610e+01 2.390085e+01 5.116986e+01 4.372960e+01 5.895699e+01 6.713925e+01 6.692636e+01 5.342043e+01 5.626564e+01 2.126280e+01 1.844830e+00 2.575507e+00 4.037110e+00 2.841648e+00 2.478841e+00 3.968544e+00 4.078739e+00 5.205090e+00 7.767903e+00 7.344565e+00 4.779904e+00 3.870587e+00 2.596253e+00 3.133657e-01 5.049620e-01 6.430919e-01 4.137865e-01 4.726225e-01 7.669777e-01 9.696755e-01 8.830225e-01 1.271499e+00 1.522692e+00 9.190912e-01 6.206580e-01 4.962076e-01
<GCONST> 1.316568e+02
<STATE> 4
<MEAN> 39
 -2.655894e+00 -3.841282e+00 -7.179019e+00 -1.299569e+01 -1.564050e+00 -1.286544e+01 -9.040935e+00 -1.810863e+01 -5.476476e-01 -1.851846e+01 -9.202088e-01 -1.388339e+01 7.161636e+01 1.337433e-01 3.209897e-01 1.669496e-01 4.033321e-02 -7.809974e-02 -1.033565e-01 -1.167595e-01 1.652317e-01 -4.527077e-03 2.461939e-01 -1.623772e-01 1.675891e-01 -3.002440e-01 -9.175693e-03 9.809945e-03 6.994715e-02 7.615784e-03 -3.424123e-02 1.107572e-02 -9.867761e-03 1.752319e-02 -3.908191e-02 1.811311e-02 -4.784154e-02 4.309826e-02 -2.700760e-02
<VARIANCE> 39
 1.563255e+01 3.132693e+01 1.381778e+02 3.277248e+01 6.917464e+01 4.026784e+01 4.982081e+01 3.786042e+01 1.087905e+02 8.607102e+01 7.003142e+01 4.702574e+01 2.665553e+01 1.943588e+00 2.015226e+00 1.175415e+01 5.139349e+00 6.818905e+00 5.524622e+00 5.125906e+00 4.276034e+00 9.202783e+00 6.534790e+00 6.358578e+00 5.253560e+00 1.964248e+00 3.951724e-01 3.365731e-01 1.623212e+00 1.118703e+00 1.222430e+00 1.182850e+00 9.962024e-01 8.022357e-01 1.314740e+00 1.092849e+00 8.868845e-01 9.356049e-01 2.916099e-01
<GCONST> 1.404213e+02
<TRANSP> 5
 0.000000e+00 1.000000e+00 0.000000e+00 0.000000e+00 0.000000e+00
 0.000000e+00 8.154615e-01 1.845386e-01 0.000000e+00 0.000000e+00
 0.000000e+00 0.000000e+00 8.096881e-01 1.903120e-01 0.000000e+00
 0.000000e+00 0.000000e+00 0.000000e+00 9.601647e-01 3.983529e-02
 0.000000e+00 0.000000e+00 0.000000e+00 0.000000e+00 0.000000e+00
<ENDHMM>
~h "u"
<BEGINHMM>
<NUMSTATES> 5
<STATE> 2
<MEAN> 39
 1.799042e+00 7.786222e+00 -1.245374e+01 -1.948319e+01 -6.662069e+00 -1.020371e+01 -2.760540e+00 -1.783536e+01 -1.170215e+01 -4.101034e+00 -1.391258e+01 2.024597e+00 6.591544e+01 -1.868352e-01 -2.983609e-01 8.298819e-01 6.548916e-01 6.007856e-02 1.328191e-01 -5.243742e-01 -1.967411e-02 3.293766e-01 -3.465563e-03 5.796564e-01 -8.086210e-01 1.993852e-01 -9.739430e-02 -1.454823e-01 1.681660e-01 1.778643e-01 -4.462821e-02 -5.776617e-02 -5.609169e-02 1.038713e-01 5.174669e-02 3.195598e-03 1.130932e-01 -1.581240e-01 -8.467707e-02
<VARIANCE> 39
 1.520651e+01 3.540233e+01 9.046468e+01 5.497115e+01 3.514139e+01 4.021626e+01 3.587491e+01 3.307667e+01 4.021939e+01 3.670946e+01 4.199147e+01 5.100975e+01 1.602769e+01 1.475320e+00 3.056553e+00 6.779463e+00 5.241650e+00 5.526473e+00 5.177502e+00 3.519837e+00 4.715078e+00 3.847967e+00 5.697330e+00 3.264317e+00 4.090974e+00 1.352514e+00 2.770306e-01 4.332914e-01 1.448322e+00 9.123233e-01 1.281327e+00 1.098949e+00 7.128008e-01 1.022104e+00 7.108488e-01 1.302428e+00 5.549138e-01 7.056424e-01 2.279090e-01
<GCONST> 1.314630e+02
<STATE> 3
<MEAN> 39
 -8.642304e-01 5.004257e+00 -3.185465e+00 -1.369100e+01 -8.162881e+00 -1.069117e+01 -6.294385e+00 -1.624582e+01 -9.497837e+00 -3.998587e+00 -8.893750e+00 -4.854163e+00 6.583344e+01 -5.021729e-01 -5.228795e-01 1.441967e+00 8.737337e-01 -4.360470e-01 -2.846185e-01 -3.029724e-01 4.310863e-01 3.619487e-01 -1.094417e-01 7.799522e-01 -1.057690e+00 5.852979e-03 2.776527e-02 1.679489e-02 -5.455955e-02 -3.542826e-02 -4.974016e-02 -5.431594e-02 8.943301e-02 4.149427e-02 2.542961e-02 -1.024014e-01 -1.827903e-02 5.574618e-02 2.904574e-03
<VARIANCE> 39
 2.278457e+01 2.739497e+01 1.637851e+02 6.962569e+01 5.934186e+01 4.297323e+01 4.028654e+01 4.298293e+01 3.674825e+01 3.842950e+01 3.845559e+01 5.864850e+01 1.731624e+01 2.285637e+00 2.759209e+00 1.070423e+01 7.588478e+00 8.434549e+00 6.185837e+00 4.935344e+00 5.535154e+00 3.400584e+00 6.279557e+00 2.582269e+00 4.307913e+00 1.736949e+00 5.278981e-01 4.775430e-01 2.244228e+00 1.470104e+00 1.954510e+00 1.409145e+00 9.259687e-01 1.222166e+00 6.784117e-01 1.458735e+00 4.541899e-01 7.247412e-01 2.677321e-01
<GCONST> 1.386183e+02
<STATE> 4
<MEAN> 39
 -2.685878e+00 2.725140e+00 -1.257563e-01 -1.134544e+01 -7.465683e+00 -1.336311e+01 -7.758394e+00 -1.521593e+01 -4.478794e+00 -7.510780e+00 -5.785569e+00 -8.377518e+00 6.703770e+01 -2.895431e-02 -3.151979e-01 -3.687186e-01 4.767140e-02 3.661295e-01 -3.740199e-01 8.028701e-03 3.788162e-02 6.352660e-01 -4.414608e-01 2.730025e-01 -1.843959e-01 2.543185e-01 4.430046e-02 5.173521e-03 -2.147646e-01 -9.044131e-02 1.582473e-01 6.580877e-02 -1.133871e-03 -8.709393e-02 2.859349e-04 -6.940991e-03 1.283125e-02 3.765255e-02 2.387083e-02
<VARIANCE> 39
 1.923878e+01 2.583263e+01 1.569328e+02 4.915215e+01 1.064716e+02 4.694508e+01 5.896629e+01 4.019689e+01 6.421468e+01 4.591656e+01 3.120867e+01 3.675090e+01 2.368338e+01 2.474131e+00 2.797585e+00 1.502526e+01 6.908408e+00 1.047878e+01 6.243859e+00 6.170588e+00 4.393423e+00 6.260457e+00 5.302146e+00 2.522403e+00 3.103836e+00 2.077796e+00 5.126925e-01 4.884103e-01 2.078747e+00 1.502184e+00 1.745479e+00 1.437752e+00 1.285123e+00 8.908705e-01 1.168229e+00 1.190867e+00 4.525478e-01 6.285911e-01 3.038857e-01
<GCONST> 1.403637e+02
<TRANSP> 5
 0.000000e+00 1.000000e+00 0.000000e+00 0.000000e+00 0.000000e+00
 0.000000e+00 8.367530e-01 1.632471e-01 0.000000e+00 0.000000e+00
 0.000000e+00 0.000000e+00 8.316517e-01 1.683483e-01 0.000000e+00
 0.000000e+00 0.000000e+00 0.000000e+00 9.413824e-01 5.861755e-02
 0.000000e+00 0.000000e+00 0.000000e+00 0.000000e+00 0.000000e+00
<ENDHMM>
~h "w"
<BEGINHMM>
<NUMSTATES> 5
<STATE> 2
<MEAN> 39
 -1.629754e+01 -1.112366e+01 -3.554587e+00 -5.696229e+00 -4.201417e+00 -1.333827e+01 -5.142102e+00 1.873942e+00 -2.334553e+00 -5.796687e+00 -1.825111e+00 -2.861467e+00 5.287852e+01 -5.671947e-02 -8.844141e-01 2.808201e-01 -1.493525e-01 3.607241e-01 -6.881799e-01 5.955270e-03 6.151189e-01 3.703046e-01 -4.034220e-01 1.592877e-01 -1.446205e-02 7.221223e-01 2.652269e-02 4.415767e-02 -1.023972e-01 5.084448e-02 7.529276e-02 1.142684e-01 -8.140279e-02 -5.604529e-02 2.917692e-02 -4.009999e-02 5.308345e-03 -3.016657e-02 -1.235098e-01
<VARIANCE> 39
 2.003571e+01 5.697305e+01 4.396769e+01 4.695233e+01 5.018658e+01 4.653131e+01 6.576595e+01 8.063783e+01 6.546212e+01 4.009282e+01 3.113918e+01 2.351159e+01 4.238219e+01 2.141472e+00 2.217748e+00 3.478424e+00 4.686912e+00 3.268867e+00 4.025783e+00 5.658172e+00 3.810779e+00 4.101302e+00 3.483913e+00 2.822336e+00 2.500313e+00 4.285326e+00 4.362930e-01 4.216017e-01 5.700711e-01 8.890920e-01 5.619212e-01 7.734209e-01 1.060616e+00 7.824195e-01 7.695004e-01 6.661638e-01 5.519736e-01 5.270911e-01 8.011701e-01
<GCONST> 1.314462e+02
<STATE> 3
<MEAN> 39
 -1.659512e+01 -1.617770e+01 -5.442777e+00 -5.002143e+00 4.274968e+00 -1.613523e+01 -8.737622e+00 5.915989e+00 3.445366e+00 -1.150098e+01 1.149419e+00 -4.698365e+00 5.551567e+01 -1.149169e-02 4.486450e-02 -2.310997e-01 -2.487343e-02 3.859139e-01 8.535480e-02 -7.371359e-02 -2.632267e-01 1.270318e-01 -9.352222e-02 1.694803e-01 -2.135009e-01 5.752508e-02 2.243794e-02 5.140367e-02 -2.846109e-02 1.061641e-02 -5.872354e-02 4.645550e-02 6.013948e-03 -4.562416e-02 -4.526281e-02 7.834861e-02 -4.292993e-02 2.304276e-03 -2.783287e-02
<VARIANCE> 39
 1.148665e+01 1.982882e+01 2.145863e+01 2.517402e+01 2.854186e+01 2.394879e+01 2.898909e+01 3.541448e+01 3.397118e+01 3.912577e+01 2.839918e+01 1.768409e+01 1.494394e+01 3.691179e-01 5.416867e-01 8.568363e-01 1.271197e+00 1.645490e+00 1.411777e+00 1.843082e+00 2.043347e+00 2.467591e+00 2.446530e+00 2.126677e+00 1.444931e+00 3.765832e-01 5.034168e-02 9.941128e-02 1.392061e-01 2.277232e-01 2.857161e-01 2.703702e-01 3.383877e-01 3.945678e-01 5.053461e-01 4.319187e-01 3.956755e-01 2.836544e-01 5.348908e-02
<GCONST> 9.560248e+01
<STATE> 4
<MEAN> 39
 -1.591932e+01 -1.457889e+01 -8.229800e+00 -6.508597e+00 5.439875e+00 -1.394895e+01 -8.551317e+00 1.747832e+00 3.432374e+00 -1.041835e+01 2.064456e+00 -7.100145e+00 5.633468e+01 2.786069e-01 3.623314e-01 -4.005240e-01 1.563874e-01 -4.325978e-02 6.101592e-01 -2.324400e-01 -4.312076e-01 -2.379340e-01 5.001379e-01 -1.678099e-01 -1.144282e-01 -3.584638e-01 2.721142e-02 7.113694e-02 5.465921e-03 -1.004734e-02 -8.058481e-02 1.068681e-01 4.921609e-02 -7.573926e-02 -9.021208e-02 1.025569e-01 -4.778641e-02 4.934740e-02 -6.659506e-02
<VARIANCE> 39
 1.393102e+01 2.951583e+01 2.146539e+01 3.087794e+01 3.275186e+01 3.161717e+01 3.305906e+01 2.929650e+01 3.855238e+01 4.238317e+01 2.896873e+01 1.972171e+01 2.626273e+01 5.974553e-01 7.979680e-01 1.018366e+00 1.543110e+00 1.666299e+00 1.894279e+00 1.916233e+00 2.415835e+00 2.108856e+00 2.540302e+00 1.843390e+00 1.693650e+00 7.259172e-01 1.174878e-01 1.139891e-01 1.617765e-01 2.678940e-01 2.892045e-01 3.231232e-01 3.625322e-01 4.808788e-01 3.887498e-01 4.377596e-01 3.444801e-01 3.345503e-01 9.241412e-02
<GCONST> 1.020337e+02
<TRANSP> 5
 0.000000e+00 1.000000e+00 0.000000e+00 0.000000e+00 0.000000e+00
 0.000000e+00 8.831698e-01 1.168302e-01 0.000000e+00 0.000000e+00
 0.000000e+00 0.000000e+00 9.170403e-01 8.295963e-02 0.000000e+00
 0.000000e+00 0.000000e+00 0.000000e+00 8.540234e-01 1.459765e-01
 0.000000e+00 0.000000e+00 0.000000e+00 0.000000e+00 0.000000e+00
<ENDHMM>
~h "x"
<BEGINHMM>
<NUMSTATES> 5
<STATE> 2
<MEAN> 39
 -6.193264e+00 -7.551595e+00 -7.328323e+00 -1.407608e+01 -5.956422e+00 -1.414069e+01 -2.044373e+00 -1.479709e+01 -4.134641e+00 -1.920548e+01 -1.150424e+00 -8.479976e+00 7.741407e+01 -2.687395e-01 3.220170e-01 1.286936e-01 9.482367e-02 -2.853879e-01 2.159869e-01 1.151551e-01 -3.721597e-02 -1.767220e-01 3.342306e-01 -1.585493e-02 -1.266020e-01 -8.142236e-02 -1.177926e-01 1.263732e-01 2.892144e-02 6.394851e-02 -1.535314e-02 -5.707564e-03 -1.144527e-01 3.603768e-02 2.668795e-02 1.273489e-01 3.788886e-02 2.784461e-03 -4.550250e-02
<VARIANCE> 39
 3.336318e+01 8.447636e+01 4.713715e+01 3.854309e+01 4.403749e+01 7.586584e+01 4.112609e+01 3.032018e+01 5.866027e+01 7.873335e+01 3.888503e+01 3.440656e+01 4.434244e+01 1.838990e+00 3.394777e+00 2.409940e+00 2.574482e+00 2.324173e+00 4.608018e+00 3.032251e+00 2.434807e+00 2.769761e+00 3.659126e+00 2.358567e+00 2.181141e+00 1.942250e+00 2.475881e-01 3.878546e-01 2.810628e-01 4.143436e-01 3.446696e-01 6.008202e-01 5.482678e-01 3.972762e-01 4.108456e-01 5.241199e-01 4.244036e-01 4.086247e-01 2.475850e-01
<GCONST> 1.221661e+02
<STATE> 3
<MEAN> 39
 -9.191206e+00 -2.888913e+00 -4.088556e+00 -1.250166e+01 -9.466288e+00 -1.499877e+01 -3.063965e+00 -1.415629e+01 -6.941234e+00 -1.329987e+01 -2.807358e+00 -7.850141e+00 7.434446e+01 -8.318560e-01 1.185520e+00 6.505053e-02 4.546700e-01 -2.504693e-01 1.053311e-01 -4.032197e-01 1.049718e-01 -2.723948e-02 8.261104e-01 -3.790721e-03 1.792484e-01 -4.091711e-01 -1.833104e-01 1.043439e-01 -6.789263e-02 2.082938e-01 7.843191e-02 1.756969e-01 -1.632839e-01 2.364196e-02 5.895618e-02 -7.543406e-03 2.180197e-02 3.242007e-02 -1.443798e-02
<VARIANCE> 39
 6.671514e+01 9.013055e+01 4.165262e+01 5.183989e+01 4.809127e+01 8.489909e+01 4.366661e+01 3.587904e+01 5.086357e+01 6.904484e+01 3.824968e+01 3.402817e+01 4.590255e+01 3.407758e+00 4.176162e+00 3.521497e+00 3.974104e+00 2.622961e+00 4.720913e+00 3.859305e+00 2.574221e+00 3.245435e+00 3.611211e+00 3.004040e+00 2.455976e+00 2.761376e+00 4.057277e-01 5.175126e-01 4.287625e-01 6.285278e-01 4.640925e-01 7.018797e-01 6.577182e-01 4.493149e-01 5.531619e-01 5.156291e-01 5.596989e-01 4.459788e-01 4.080485e-01
<GCONST> 1.297201e+02
<STATE> 4
<MEAN> 39
 -1.463585e+01 1.309844e+00 -4.884969e+00 -9.133406e+00 -9.059192e+00 -1.331510e+01 -4.427228e+00 -1.226399e+01 -5.729146e+00 -1.088581e+01 -1.939709e+00 -6.291794e+00 7.401955e+01 -3.345560e-01 3.090030e-01 -1.597980e-01 2.328596e-01 3.715982e-01 2.902758e-01 -3.570027e-01 -4.986560e-02 2.639240e-01 -4.456671e-02 -1.742021e-02 -4.326963e-02 -5.126433e-02 6.692802e-02 -1.182476e-01 -3.043012e-02 -2.560317e-02 5.535444e-02 4.800698e-02 -2.404347e-02 -2.184484e-02 1.207889e-02 -6.854168e-02 -4.607914e-02 -5.158321e-02 -1.731609e-02
<VARIANCE> 39
 1.080733e+02 8.606312e+01 3.816110e+01 7.173161e+01 4.730563e+01 1.009619e+02 3.547277e+01 4.389709e+01 4.173612e+01 7.106054e+01 2.840397e+01 2.543096e+01 3.038555e+01 6.362840e+00 5.662790e+00 2.923403e+00 5.572052e+00 3.264021e+00 6.437894e+00 3.823100e+00 3.243496e+00 3.412434e+00 4.317645e+00 2.619626e+00 2.355646e+00 1.984574e+00 7.416346e-01 6.360044e-01 4.378230e-01 7.827733e-01 5.980085e-01 9.539608e-01 6.576487e-01 5.479020e-01 5.641611e-01 5.766621e-01 4.829308e-01 4.240791e-01 2.519797e-01
<GCONST> 1.321850e+02
<TRANSP> 5
 0.000000e+00 1.000000e+00 0.000000e+00 0.000000e+00 0.000000e+00
 0.000000e+00 7.401007e-01 2.598992e-01 0.000000e+00 0.000000e+00
 0.000000e+00 0.000000e+00 5.947314e-01 4.052686e-01 0.000000e+00
 0.000000e+00 0.000000e+00 0.000000e+00 8.270379e-01 1.729621e-01
 0.000000e+00 0.000000e+00 0.000000e+00 0.000000e+00 0.000000e+00
<ENDHMM>
~h "y"
<BEGINHMM>
<NUMSTATES> 5
<STATE> 2
<MEAN> 39
 -1.616099e+01 -1.283204e+01 -2.774955e+00 -5.405448e+00 -3.156089e+00 -1.150065e+01 -3.712722e+00 2.150584e+00 -2.703568e+00 -6.932637e+00 1.281880e+00 -3.010934e+00 5.399039e+01 -2.171186e-02 -2.735406e-03 2.322743e-01 -2.113825e-01 -7.836704e-03 -8.776824e-02 2.262606e-01 -9.132937e-02 2.153703e-02 2.577628e-02 -4.102729e-03 -5.277983e-02 2.810583e-01 6.611171e-02 1.632225e-02 -1.257797e-02 -6.144680e-02 7.902980e-03 -3.053146e-02 -3.111612e-02 -6.361687e-02 -7.634264e-03 8.309841e-03 -1.045463e-03 -3.889441e-02 4.698349e-02
<VARIANCE> 39
 1.586735e+01 6.155450e+01 2.527970e+01 2.728119e+01 3.006082e+01 4.703435e+01 2.904394e+01 5.914161e+01 3.460318e+01 4.052427e+01 2.731188e+01 1.681603e+01 3.894038e+01 1.146428e+00 2.011181e+00 1.917221e+00 2.663938e+00 2.517660e+00 2.484867e+00 2.383415e+00 3.573852e+00 2.785010e+00 2.829568e+00 1.894375e+00 1.824362e+00 2.927750e+00 2.273747e-01 2.949041e-01 3.489703e-01 4.760385e-01 4.143431e-01 4.594893e-01 4.430958e-01 6.811077e-01 5.276162e-01 5.080588e-01 3.330448e-01 3.662219e-01 4.661514e-01
<GCONST> 1.161207e+02
<STATE> 3
<MEAN> 39
 -1.639819e+01 -1.379044e+01 -1.622770e+00 -7.596463e+00 -3.367354e+00 -1.224116e+01 -2.038411e+00 1.192681e+00 -1.797017e+00 -6.639266e+00 1.181124e+00 -3.262314e+00 5.580663e+01 1.456557e-01 2.646168e-01 1.407347e-01 -1.932897e-01 -2.269854e-02 3.134428e-02 -6.717090e-02 -2.789443e-01 -4.177202e-02 -1.985501e-02 -7.310989e-02 -3.849160e-02 3.857613e-02 9.873712e-02 1.477815e-01 3.610320e-02 -1.146489e-01 -6.621686e-02 -1.127970e-01 -6.120761e-02 -1.645325e-01 -4.642201e-02 -6.924489e-02 -8.137492e-03 -3.953977e-02 1.072642e-01
<VARIANCE> 39
 1.239236e+01 5.628629e+01 2.308039e+01 3.016539e+01 3.463759e+01 4.442194e+01 3.341163e+01 4.373166e+01 3.671789e+01 3.993640e+01 2.595819e+01 1.686749e+01 4.164154e+01 1.004780e+00 2.540600e+00 2.225902e+00 2.778614e+00 2.864217e+00 2.641660e+00 2.462596e+00 3.576593e+00 3.042473e+00 2.764131e+00 1.984799e+00 1.643123e+00 2.125788e+00 2.499666e-01 3.070793e-01 4.490650e-01 5.560966e-01 5.390900e-01 5.365796e-01 4.715888e-01 7.112573e-01 5.775645e-01 4.940864e-01 3.800876e-01 3.445248e-01 4.239266e-01
<GCONST> 1.170894e+02
<STATE> 4
<MEAN> 39
 -1.660936e+01 -1.205018e+01 -2.187271e+00 -8.011189e+00 -3.202867e+00 -1.081424e+01 -7.820284e-01 -2.705820e+00 -1.244801e+00 -7.301626e+00 6.842746e-01 -3.709656e+00 5.577467e+01 5.362430e-01 9.761112e-01 3.261282e-01 -5.077868e-01 -3.268826e-01 -4.799161e-01 -3.237460e-01 -9.092320e-01 -2.526829e-01 -2.623882e-01 -1.017875e-01 -1.823968e-01 4.786477e-01 1.931257e-01 1.744077e-01 5.817704e-02 -2.599683e-01 -1.926271e-01 -2.755883e-01 -9.133228e-02 -2.260638e-01 -9.002416e-02 -7.971808e-02 -2.347627e-02 -5.744626e-02 3.255987e-01
<VARIANCE> 39
 1.337704e+01 7.829333e+01 2.542298e+01 3.103607e+01 3.880579e+01 4.240381e+01 3.221955e+01 3.503102e+01 3.911209e+01 4.325677e+01 2.387112e+01 1.760879e+01 4.472181e+01 2.226590e+00 3.942462e+00 3.534493e+00 4.574477e+00 4.351512e+00 4.959156e+00 2.848804e+00 4.772308e+00 3.425638e+00 2.840883e+00 1.776736e+00 2.229559e+00 3.758980e+00 3.583678e-01 4.797707e-01 5.090317e-01 5.972769e-01 9.096041e-01 7.281862e-01 4.858698e-01 7.285720e-01 6.272194e-01 4.749709e-01 3.348674e-01 4.534628e-01 6.164120e-01
<GCONST> 1.246433e+02
<TRANSP> 5
 0.000000e+00 1.000000e+00 0.000000e+00 0.000000e+00 0.000000e+00
 0.000000e+00 8.865750e-01 1.134250e-01 0.000000e+00 0.000000e+00
 0.000000e+00 0.000000e+00 8.600155e-01 1.399845e-01 0.000000e+00
 0.000000e+00 0.000000e+00 0.000000e+00 7.862802e-01 2.137197e-01
 0.000000e+00 0.000000e+00 0.000000e+00 0.000000e+00 0.000000e+00
<ENDHMM>
~h "z"
<BEGINHMM>
<NUMSTATES> 5
<STATE> 2
<MEAN> 39
 -5.361509e+00 2.990448e+00 -3.132728e+00 -9.522636e+00 -6.418788e+00 -1.293236e+01 -1.452265e+01 -1.395023e+01 -8.947569e+00 -1.341131e+01 -6.674047e+00 -8.166299e+00 6.388926e+01 -1.291918e+00 -2.997415e-01 -6.484420e-01 8.041352e-01 -4.742838e-02 -4.084471e-01 7.577946e-01 1.124295e-01 2.636691e-01 3.773541e-01 -1.034617e-01 -1.156244e-02 3.317605e-01 9.541853e-02 -2.361773e-01 -2.208756e-01 -1.594028e-01 4.460265e-02 1.083781e-01 1.183939e-01 7.684839e-02 1.559086e-01 -1.448094e-01 1.156725e-01 1.688970e-02 2.020687e-01
<VARIANCE> 39
 9.955247e+01 5.616787e+01 7.520113e+01 6.012566e+01 3.330235e+01 3.167165e+01 6.461224e+01 3.909076e+01 5.995973e+01 4.467874e+01 4.437306e+01 2.830808e+01 3.718879e+01 1.050567e+01 4.271180e+00 6.344790e+00 6.152361e+00 3.324531e+00 3.741705e+00 6.397700e+00 5.095403e+00 4.427060e+00 5.707264e+00 5.340606e+00 3.088759e+00 2.830116e+00 2.052306e+00 5.515591e-01 1.134314e+00 1.164946e+00 6.591661e-01 7.815309e-01 1.100829e+00 1.000923e+00 8.118101e-01 1.181529e+00 1.124758e+00 5.870042e-01 3.620272e-01
<GCONST> 1.410729e+02
<STATE> 3
<MEAN> 39
 -8.201224e+00 -2.086588e+00 -9.177191e+00 -8.775536e+00 -4.683341e+00 -1.251434e+01 -9.953020e+00 -1.438052e+01 -4.412665e+00 -1.436267e+01 -4.370343e+00 -9.008113e+00 6.863557e+01 -5.021581e-02 -1.046656e+00 -1.082385e+00 -1.973749e-01 4.094867e-01 5.256216e-02 6.368513e-01 -6.657278e-02 9.975610e-01 -3.274069e-01 4.908615e-01 -1.406364e-01 9.664448e-01 2.601064e-01 -9.852949e-02 -8.443281e-03 -1.775958e-01 9.515417e-02 4.228031e-02 -2.896482e-02 -7.630548e-02 1.229408e-01 -1.251180e-01 4.971842e-02 -5.574455e-02 8.568189e-02
<VARIANCE> 39
 8.697083e+01 8.349996e+01 8.683103e+01 6.035767e+01 4.918332e+01 4.786371e+01 5.121278e+01 4.885606e+01 1.005800e+02 6.138905e+01 6.564925e+01 4.015317e+01 6.611410e+01 1.253153e+01 4.845698e+00 5.283074e+00 8.306993e+00 4.307868e+00 5.226478e+00 4.797474e+00 5.200877e+00 5.192016e+00 6.759772e+00 4.971066e+00 3.792213e+00 3.843842e+00 2.251426e+00 6.915052e-01 9.681466e-01 1.517179e+00 7.461042e-01 1.058006e+00 9.423854e-01 9.084213e-01 8.775952e-01 1.225511e+00 9.942088e-01 6.686801e-01 4.901641e-01
<GCONST> 1.469642e+02
<STATE> 4
<MEAN> 39
 -3.509845e+00 -4.121328e+00 -7.003513e+00 -1.131360e+01 -5.216779e+00 -1.256821e+01 -6.696872e+00 -1.624857e+01 3.069842e-02 -1.116746e+01 -1.363183e+00 -1.167001e+01 6.977940e+01 2.465881e-01 2.324636e-02 -1.190123e-01 -3.160597e-02 1.872878e-01 -1.117953e-01 2.220415e-01 -2.675888e-01 3.289416e-01 1.838869e-01 9.846982e-02 -1.260086e-01 2.900135e-02 -1.366029e-02 6.640488e-02 -3.014596e-02 -1.643318e-02 5.439068e-02 7.078513e-02 -2.223796e-02 -6.379940e-02 -2.530095e-02 -1.715098e-03 3.555094e-02 -5.129105e-05 -5.035140e-02
<VARIANCE> 39
 2.972441e+01 6.346504e+01 1.505238e+02 3.681754e+01 8.002110e+01 6.632545e+01 4.484755e+01 4.688776e+01 1.262978e+02 1.020493e+02 7.771338e+01 3.793093e+01 5.060738e+01 4.051026e+00 4.125557e+00 1.093883e+01 5.694191e+00 7.105774e+00 6.965469e+00 5.333291e+00 4.703035e+00 9.596629e+00 5.758342e+00 5.694552e+00 4.124892e+00 2.824350e+00 8.479783e-01 5.758803e-01 1.585614e+00 1.258975e+00 1.086503e+00 1.356265e+00 1.068881e+00 7.456201e-01 1.249067e+00 8.787810e-01 8.591430e-01 7.897173e-01 3.045333e-01
<GCONST> 1.463751e+02
<TRANSP> 5
 0.000000e+00 1.000000e+00 0.000000e+00 0.000000e+00 0.000000e+00
 0.000000e+00 8.024932e-01 1.975068e-01 0.000000e+00 0.000000e+00
 0.000000e+00 0.000000e+00 8.333646e-01 1.666354e-01 0.000000e+00
 0.000000e+00 0.000000e+00 0.000000e+00 9.620513e-01 3.794872e-02
 0.000000e+00 0.000000e+00 0.000000e+00 0.000000e+00 0.000000e+00
<ENDHMM>
~h "ai"
<BEGINHMM>
<NUMSTATES> 5
<STATE> 2
<MEAN> 39
 -9.114235e+00 -1.806359e+01 -3.800782e+00 -5.428771e+00 -6.483883e+00 -9.403000e+00 -2.106854e+00 -6.560634e+00 -4.184866e+00 -1.760882e+01 2.309150e+00 -5.583609e+00 6.721014e+01 -3.513298e-01 2.600598e-01 1.632906e-01 4.969327e-01 -5.010318e-01 5.232067e-01 2.663462e-02 2.523180e-01 -1.337676e-01 6.598631e-01 1.216911e-01 3.459005e-01 -1.355326e+00 -5.496209e-03 1.673358e-01 -5.539258e-02 -2.802896e-02 2.989287e-02 -6.948069e-02 -6.722760e-02 6.430337e-02 -9.501014e-02 5.081598e-02 -9.295309e-02 4.053479e-02 -1.461215e-01
<VARIANCE> 39
 2.707230e+01 2.188964e+01 3.410762e+01 2.882800e+01 3.138874e+01 4.261641e+01 1.783719e+01 3.522692e+01 2.939351e+01 4.484551e+01 1.939951e+01 2.484462e+01 1.206095e+02 1.121153e+00 1.687749e+00 2.531336e+00 1.522502e+00 1.705037e+00 2.258396e+00 1.488026e+00 2.045228e+00 2.327531e+00 2.015329e+00 2.099837e+00 1.826520e+00 2.493109e+00 1.822253e-01 2.787947e-01 4.348551e-01 2.891485e-01 3.260173e-01 3.935917e-01 2.855530e-01 3.616339e-01 4.046265e-01 4.041216e-01 3.847947e-01 3.700636e-01 3.639199e-01
<GCONST> 1.108524e+02
<STATE> 3
<MEAN> 39
 -1.161926e+01 -1.493619e+01 -3.938234e+00 -3.593540e+00 -6.505804e+00 -8.161241e+00 -2.248902e+00 -2.937250e+00 -5.855165e+00 -1.276269e+01 1.460977e+00 -3.336884e+00 5.851913e+01 -1.644126e-01 9.627495e-01 -4.627847e-01 3.702397e-01 -3.883112e-02 2.532051e-01 -3.431391e-02 1.813798e-01 -3.354172e-01 9.015927e-01 -1.803674e-01 3.406325e-01 -1.580472e+00 3.430778e-04 1.062910e-01 -1.702879e-02 -9.375185e-02 1.271934e-01 -1.668738e-02 -6.935109e-02 -6.336508e-02 2.942882e-02 -9.640056e-03 -3.948237e-02 -6.704886e-02 5.590422e-02
<VARIANCE> 39
 1.814075e+01 3.126121e+01 2.841228e+01 3.447269e+01 2.697006e+01 3.718090e+01 2.129438e+01 4.507547e+01 3.213783e+01 5.266732e+01 2.079156e+01 2.551759e+01 1.155890e+02 8.207654e-01 1.882636e+00 2.328505e+00 2.140560e+00 2.088409e+00 2.565376e+00 1.677886e+00 2.120919e+00 2.104128e+00 2.290454e+00 1.998597e+00 2.044885e+00 2.566914e+00 1.110739e-01 2.319940e-01 3.398666e-01 3.564261e-01 3.342510e-01 4.392667e-01 3.403454e-01 3.991110e-01 4.498742e-01 4.386603e-01 4.106170e-01 3.821342e-01 3.167270e-01
<GCONST> 1.117437e+02
<STATE> 4
<MEAN> 39
 -1.235899e+01 -1.002133e+01 -5.379989e+00 -3.378883e+00 -5.603901e+00 -6.797444e+00 -2.978241e+00 -3.234877e+00 -6.576117e+00 -9.077446e+00 4.055160e-02 -2.342147e+00 5.339722e+01 -4.783891e-02 9.429590e-01 -2.806383e-01 -1.710058e-01 1.406669e-01 -2.580095e-02 -6.880015e-02 -1.907479e-01 -7.239379e-02 4.652231e-01 -7.048925e-02 1.376858e-01 -6.746668e-01 8.256514e-02 1.251777e-02 9.616264e-02 -1.913131e-01 1.994839e-02 -2.166512e-01 -8.328381e-02 -1.501906e-02 1.293182e-01 -2.504995e-01 1.850293e-02 -7.855590e-02 3.271572e-01
<VARIANCE> 39
 9.414401e+00 3.083022e+01 1.757455e+01 2.910421e+01 1.739211e+01 2.809642e+01 2.022687e+01 3.561806e+01 2.353406e+01 5.250442e+01 1.935347e+01 2.317767e+01 1.126691e+02 4.670750e-01 1.656481e+00 1.562918e+00 1.915781e+00 1.594946e+00 2.793163e+00 1.856922e+00 2.089199e+00 2.071871e+00 3.082442e+00 1.827364e+00 1.957878e+00 1.669184e+00 1.374354e-01 2.484898e-01 2.381859e-01 3.020714e-01 2.676893e-01 5.441810e-01 3.404718e-01 4.281726e-01 3.861788e-01 5.203621e-01 3.925159e-01 3.531515e-01 2.197426e-01
<GCONST> 1.066809e+02
<TRANSP> 5
 0.000000e+00 1.000000e+00 0.000000e+00 0.000000e+00 0.000000e+00
 0.000000e+00 8.488509e-01 1.511491e-01 0.000000e+00 0.000000e+00
 0.000000e+00 0.000000e+00 6.358201e-01 3.641798e-01 0.000000e+00
 0.000000e+00 0.000000e+00 0.000000e+00 6.709192e-01 3.290808e-01
 0.000000e+00 0.000000e+00 0.000000e+00 0.000000e+00 0.000000e+00
<ENDHMM>
~h "an"
<BEGINHMM>
<NUMSTATES> 5
<STATE> 2
<MEAN> 39
 -6.099106e+00 -1.347018e+01 -8.517550e+00 -1.318038e+01 -4.157050e+00 -1.107397e+01 -1.056370e+00 -1.440776e+01 -2.579072e+00 -2.593965e+01 1.917582e+00 -1.127666e+01 8.158640e+01 -2.035352e-01 6.870474e-01 4.808636e-01 3.135675e-02 -1.114148e+00 1.465952e-01 6.470440e-02 6.188472e-02 -7.079594e-01 6.771280e-01 -1.190049e-01 -2.797017e-01 -3.166071e-01 -6.506294e-02 2.675957e-01 9.097500e-02 -5.218158e-03 -1.572172e-01 -9.445960e-02 -1.457552e-02 1.187679e-02 -1.501006e-02 3.103228e-01 -2.388969e-01 1.363245e-03 -1.584661e-01
<VARIANCE> 39
 3.176611e+00 1.684086e+01 9.224686e+00 1.182838e+01 2.017155e+01 4.560265e+01 2.425399e+01 1.947815e+01 2.098207e+01 2.261425e+01 1.738750e+01 1.794550e+01 1.183899e+01 3.969223e-01 2.055351e+00 7.833499e-01 1.743089e+00 1.108957e+00 3.430527e+00 1.976350e+00 1.699309e+00 1.589243e+00 2.359208e+00 1.986937e+00 2.010219e+00 7.537985e-01 1.422668e-01 1.471499e-01 9.906673e-02 2.403483e-01 1.299292e-01 7.370880e-01 3.193141e-01 3.465938e-01 2.077462e-01 3.332221e-01 3.314573e-01 3.369291e-01 4.841090e-02
<GCONST> 9.274584e+01
<STATE> 3
<MEAN> 39
 -7.018418e+00 -1.018736e+01 -6.249051e+00 -1.345784e+01 -8.678949e+00 -1.105538e+01 -4.413538e-01 -1.434691e+01 -4.902146e+00 -2.175139e+01 7.972693e-01 -1.250295e+01 7.990681e+01 -4.523147e-01 1.419265e+00 8.130682e-01 4.815286e-02 -1.487354e+00 -1.439357e-01 -6.271026e-02 -5.735584e-03 -7.434090e-01 1.792926e+00 -7.052711e-01 -2.157821e-01 -7.311448e-01 -1.137027e-01 1.035159e-01 1.876474e-02 7.304971e-02 1.374747e-02 8.174153e-03 -1.225965e-01 -3.828358e-02 8.461072e-03 2.369659e-01 -2.518967e-02 5.900719e-02 -8.406724e-02
<VARIANCE> 39
 9.801611e+00 3.516703e+01 1.348789e+01 1.881245e+01 2.649519e+01 3.608562e+01 4.209129e+01 1.764548e+01 1.460960e+01 5.503615e+01 2.763538e+01 2.337070e+01 2.165599e+01 1.614139e+00 1.459764e+00 6.239892e-01 2.169899e+00 8.250210e-01 3.737820e+00 2.841375e+00 1.502089e+00 1.551851e+00 2.592120e+00 2.976397e+00 1.723214e+00 4.021198e-01 2.535467e-01 2.150092e-01 1.108944e-01 2.837424e-01 1.437457e-01 6.322106e-01 4.428903e-01 3.221360e-01 2.799374e-01 4.673068e-01 6.258577e-01 3.997818e-01 3.271946e-02
<GCONST> 1.010653e+02
<STATE> 4
<MEAN> 39
 -1.083797e+01 -4.898631e+00 -5.641033e+00 -1.192604e+01 -9.022527e+00 -1.518885e+01 -2.733910e+00 -9.508904e+00 -9.827583e+00 -1.310334e+01 -8.592850e-01 -7.929992e+00 7.583077e+01 6.494498e-02 2.763892e-01 1.195537e-01 -8.298484e-02 -6.569698e-02 -3.657110e-01 -4.095120e-02 1.564059e-01 -4.512238e-01 1.812035e-01 -1.132797e-02 8.539462e-02 -1.857126e-01 9.940306e-03 1.723051e-02 -7.284080e-03 4.647131e-02 2.679866e-02 3.143643e-02 -3.624303e-02 -1.570600e-02 7.883909e-03 -6.446864e-02 -2.599237e-03 -1.634768e-03 -1.705345e-02
<VARIANCE> 39
 5.863827e+01 5.090691e+01 1.771586e+01 5.103540e+01 3.249176e+01 8.190251e+01 3.880444e+01 2.933669e+01 3.252576e+01 9.801207e+01 2.524001e+01 2.135245e+01 2.518956e+01 5.375518e+00 4.023947e+00 1.654639e+00 3.539254e+00 3.216783e+00 4.412508e+00 3.088092e+00 2.272640e+00 2.152154e+00 7.728192e+00 2.716494e+00 1.604202e+00 1.772706e+00 8.262811e-01 4.913619e-01 2.788272e-01 5.184419e-01 4.919293e-01 6.777709e-01 4.834386e-01 3.801217e-01 3.620869e-01 1.060343e+00 6.128955e-01 2.640761e-01 1.881074e-01
<GCONST> 1.232143e+02
<TRANSP> 5
 0.000000e+00 1.000000e+00 0.000000e+00 0.000000e+00 0.000000e+00
 0.000000e+00 6.601848e-01 3.398152e-01 0.000000e+00 0.000000e+00
 0.000000e+00 0.000000e+00 6.682315e-01 3.317685e-01 0.000000e+00
 0.000000e+00 0.000000e+00 0.000000e+00 9.664145e-01 3.358554e-02
 0.000000e+00 0.000000e+00 0.000000e+00 0.000000e+00 0.000000e+00
<ENDHMM>
~h "ao"
<BEGINHMM>
<NUMSTATES> 5
<STATE> 2
<MEAN> 39
 -6.040846e+00 -1.997363e+00 -3.896521e+00 -1.189551e+01 -4.523564e+00 -1.200131e+01 -4.816347e+00 -1.407789e+01 -5.033338e+00 -1.442017e+01 -1.701922e+00 -8.805140e+00 6.930011e+01 1.580790e+00 -6.631632e-01 -3.569989e-01 -1.277056e+00 3.125317e-01 -4.092088e-01 -2.736377e-01 -1.279451e+00 1.837221e-01 -1.990355e+00 -2.752129e-01 -5.784915e-01 1.176125e+00 -3.553814e-01 -1.130960e-01 -4.026201e-01 -6.379453e-03 7.421081e-02 9.689835e-02 4.341893e-02 -1.042524e-01 5.559670e-01 7.630936e-02 -2.695249e-02 -5.692281e-02 1.603939e-01
<VARIANCE> 39
 5.554745e+01 5.559433e+01 8.668819e+01 4.362069e+01 4.291814e+01 3.451199e+01 3.806071e+01 5.447313e+01 8.980914e+01 9.925420e+01 3.440956e+01 3.201360e+01 8.234154e+01 5.328323e+00 5.877677e+00 9.097510e+00 4.906341e+00 5.100207e+00 5.569420e+00 2.809607e+00 4.541747e+00 9.766250e+00 8.045136e+00 2.997569e+00 2.707604e+00 5.154901e+00 7.942301e-01 6.796739e-01 1.618754e+00 6.914305e-01 7.951301e-01 7.833468e-01 5.535610e-01 8.632684e-01 1.707631e+00 1.266912e+00 6.000940e-01 5.332102e-01 4.728668e-01
<GCONST> 1.417996e+02
<STATE> 3
<MEAN> 39
 -4.064034e+00 -4.254900e+00 -6.338340e+00 -1.498397e+01 -3.323576e+00 -1.225230e+01 -4.826573e+00 -1.754401e+01 -1.936365e+00 -1.807362e+01 -1.698751e+00 -1.047929e+01 7.256913e+01 6.655682e-01 -9.711412e-01 -9.012633e-01 -9.697927e-01 5.683531e-01 -4.646936e-04 -5.763223e-02 -1.145650e+00 1.446840e+00 -1.199801e+00 -3.986271e-02 -6.355301e-01 1.238574e+00 -3.074319e-01 -8.804438e-02 -1.420622e-01 2.247144e-01 7.466636e-02 1.733127e-01 8.005370e-02 1.343559e-01 3.669109e-01 3.343900e-01 5.833866e-02 -3.013157e-03 -8.734971e-02
<VARIANCE> 39
 3.170364e+01 7.396557e+01 9.838934e+01 5.414898e+01 6.045039e+01 3.851667e+01 3.386269e+01 5.631316e+01 1.059721e+02 9.819995e+01 3.049020e+01 3.396861e+01 5.611335e+01 3.032017e+00 3.939070e+00 7.017279e+00 4.072897e+00 5.327693e+00 4.627174e+00 2.826032e+00 3.997482e+00 8.383723e+00 6.699127e+00 2.767863e+00 2.583885e+00 4.790358e+00 5.096959e-01 7.678572e-01 1.336651e+00 7.147090e-01 7.444912e-01 8.305678e-01 5.390702e-01 8.781092e-01 1.517350e+00 1.009704e+00 5.127473e-01 4.840793e-01 3.836308e-01
<GCONST> 1.384317e+02
<STATE> 4
<MEAN> 39
 -3.171327e+00 -6.754960e+00 -8.864702e+00 -1.705379e+01 -1.677802e+00 -1.215798e+01 -4.728337e+00 -2.111416e+01 4.100126e+00 -1.806900e+01 -7.652942e-01 -1.251533e+01 7.553889e+01 1.712408e-01 -5.185860e-01 -2.708818e-01 -7.930135e-03 1.882604e-01 -8.000335e-02 -1.958415e-01 -1.992978e-01 7.848855e-01 -7.320470e-02 -9.483595e-02 -1.873113e-01 3.808259e-01 -4.827726e-02 8.857281e-02 1.151398e-01 2.149012e-01 -5.350288e-02 1.956021e-02 -7.350630e-02 1.567411e-01 -1.993492e-01 1.582152e-01 -7.032602e-02 1.408465e-01 -2.314299e-01
<VARIANCE> 39
 1.744313e+01 5.441997e+01 9.779259e+01 4.074928e+01 8.387730e+01 6.665720e+01 3.468372e+01 5.069459e+01 8.772729e+01 9.101410e+01 3.525700e+01 3.552631e+01 3.000222e+01 1.195240e+00 3.599767e+00 6.197390e+00 3.723330e+00 5.757489e+00 4.508364e+00 4.146663e+00 4.834776e+00 6.774043e+00 5.924706e+00 4.081325e+00 3.185390e+00 2.643936e+00 2.021826e-01 5.047823e-01 8.757147e-01 7.145772e-01 1.000029e+00 8.460339e-01 6.715376e-01 7.528418e-01 1.029012e+00 9.018549e-01 6.566074e-01 5.742641e-01 2.264076e-01
<GCONST> 1.343900e+02
<TRANSP> 5
 0.000000e+00 1.000000e+00 0.000000e+00 0.000000e+00 0.000000e+00
 0.000000e+00 4.925905e-01 5.074095e-01 0.000000e+00 0.000000e+00
 0.000000e+00 0.000000e+00 5.406326e-01 4.593674e-01 0.000000e+00
 0.000000e+00 0.000000e+00 0.000000e+00 8.001943e-01 1.998058e-01
 0.000000e+00 0.000000e+00 0.000000e+00 0.000000e+00 0.000000e+00
<ENDHMM>
~h "ch"
<BEGINHMM>
<NUMSTATES> 5
<STATE> 2
<MEAN> 39
 -6.498930e+00 -6.896657e+00 -1.042982e+01 -6.199772e+00 -2.996739e+00 -9.653061e+00 -1.277561e+01 -1.380401e+01 9.561348e-02 -6.076549e+00 -6.112864e+00 -8.530262e+00 6.700377e+01 -1.879498e+00 -4.023599e-02 4.066792e-01 1.824929e+00 -5.832489e-01 -8.173819e-01 4.728147e-01 2.022693e+00 -8.884102e-01 9.632274e-01 -2.036455e-01 7.230943e-01 -3.471687e-01 -1.479305e-01 -3.446028e-02 -7.486283e-02 -1.804117e-01 9.546140e-02 9.741463e-02 2.841145e-01 -1.768141e-02 2.540832e-01 -3.757815e-01 2.704760e-01 -5.186680e-02 1.548427e-01
<VARIANCE> 39
 1.515729e+02 2.667557e+01 2.943867e+01 6.718771e+01 2.559995e+01 2.782236e+01 4.110147e+01 1.018700e+02 5.239059e+01 2.902892e+01 2.600655e+01 2.890092e+01 6.256907e+01 8.369205e+00 4.039605e+00 4.965926e+00 6.466293e+00 2.865982e+00 3.289403e+00 3.829342e+00 3.112582e+00 9.294461e+00 3.780240e+00 3.983469e+00 2.339475e+00 1.175598e+01 1.456748e+00 8.368221e-01 1.057166e+00 1.301175e+00 6.121858e-01 7.181666e-01 5.801578e-01 6.015416e-01 1.337660e+00 6.224500e-01 6.646788e-01 4.997778e-01 2.263644e+00
<GCONST> 1.387070e+02
<STATE> 3
<MEAN> 39
 -1.620869e+01 -8.768373e+00 -8.811157e+00 -1.661833e+00 -5.459053e+00 -1.290295e+01 -8.000936e+00 -5.167461e+00 8.617158e-01 -5.162825e+00 -5.038773e+00 -4.691899e+00 6.952798e+01 -4.424020e-01 -1.316655e-01 6.965243e-01 4.322574e-01 -3.430501e-01 -8.327780e-01 7.048354e-01 6.462607e-01 -2.081724e-01 -4.770372e-01 -1.390999e-01 4.728980e-01 2.650978e-01 5.224546e-01 1.265505e-01 6.799412e-02 -3.263959e-01 6.641757e-02 -9.162339e-02 -2.998818e-03 -4.806645e-01 -1.610718e-01 -2.853580e-01 -3.130749e-02 -1.113610e-01 2.633027e-02
<VARIANCE> 39
 1.320107e+02 2.674725e+01 3.673958e+01 3.654650e+01 2.897151e+01 2.850814e+01 4.133197e+01 7.712549e+01 4.101116e+01 3.083683e+01 2.512056e+01 2.543537e+01 5.808252e+01 1.490935e+01 3.776803e+00 4.916915e+00 4.893800e+00 3.023988e+00 3.195088e+00 3.127289e+00 7.798589e+00 6.634489e+00 4.161199e+00 3.206444e+00 2.345383e+00 9.599592e+00 1.734148e+00 7.647398e-01 1.022428e+00 8.111766e-01 6.433744e-01 7.152878e-01 6.121002e-01 8.880522e-01 1.170419e+00 6.025341e-01 6.509741e-01 4.347751e-01 2.104801e+00
<GCONST> 1.376103e+02
<STATE> 4
<MEAN> 39
 -1.250827e+01 -7.823106e+00 -4.059649e+00 -3.082517e+00 -6.818434e+00 -1.795409e+01 -4.712475e+00 -7.353660e+00 -2.216588e+00 -1.018224e+01 -6.250350e+00 -3.636987e+00 7.129817e+01 1.844121e+00 6.995177e-01 1.108135e+00 -1.171840e+00 -2.401514e-01 -1.253008e+00 6.807507e-01 -1.624204e+00 -1.449389e+00 -1.226502e+00 -1.580159e-01 -1.622967e-01 3.343629e-01 -1.307447e-01 5.434995e-02 -8.866788e-03 -3.322740e-01 -1.067702e-01 4.047652e-02 1.181170e-01 -1.056586e-01 -4.931121e-02 1.896464e-01 1.756755e-01 -2.862630e-02 1.773532e-01
<VARIANCE> 39
 8.561967e+01 2.501385e+01 3.728135e+01 5.128141e+01 2.999412e+01 5.049554e+01 3.912082e+01 8.683378e+01 4.815745e+01 4.647672e+01 2.772474e+01 1.851341e+01 3.036548e+01 9.484430e+00 3.380567e+00 2.833077e+00 5.205812e+00 2.481460e+00 4.248118e+00 3.307782e+00 9.657998e+00 5.284621e+00 4.198993e+00 3.448514e+00 1.986348e+00 4.821227e+00 1.480468e+00 7.359167e-01 5.836195e-01 7.362869e-01 5.334490e-01 9.430543e-01 6.696231e-01 1.690466e+00 1.015674e+00 7.889789e-01 6.633220e-01 3.787667e-01 1.062209e+00
<GCONST> 1.354342e+02
<TRANSP> 5
 0.000000e+00 1.000000e+00 0.000000e+00 0.000000e+00 0.000000e+00
 0.000000e+00 8.808441e-01 1.191559e-01 0.000000e+00 0.000000e+00
 0.000000e+00 0.000000e+00 8.236464e-01 1.763537e-01 0.000000e+00
 0.000000e+00 0.000000e+00 0.000000e+00 7.592736e-01 2.407265e-01
 0.000000e+00 0.000000e+00 0.000000e+00 0.000000e+00 0.000000e+00
<ENDHMM>
~h "ei"
<BEGINHMM>
<NUMSTATES> 5
<STATE> 2
<MEAN> 39
 -1.780767e+01 -9.737062e+00 -1.002997e+01 -3.740410e+00 3.802797e+00 -1.795361e+01 -9.151974e-01 -1.857990e+00 1.292967e+00 -7.229688e+00 -9.125710e-01 -6.537658e+00 6.880457e+01 -4.096097e-01 -6.403373e-01 2.663445e+00 -3.566005e-01 -3.372912e+00 -7.218054e-02 1.532880e+00 -2.918608e-01 -1.066021e+00 3.608935e-01 -2.536345e-01 1.729714e+00 -9.155799e-02 6.625709e-01 3.752457e-01 4.589417e-01 -7.470657e-01 -4.653030e-01 7.062889e-01 -7.470744e-01 -1.036897e+00 -5.178876e-01 -2.412669e-01 -1.907497e-01 -3.179463e-01 1.000212e-02
<VARIANCE> 39
 1.702638e+01 2.001036e+01 8.618581e+01 3.157048e+01 1.284440e+02 5.737886e+01 7.023791e+01 6.417352e+01 4.170354e+01 2.542778e+01 2.842506e+01 4.379223e+01 1.180599e+01 4.093438e+00 2.988667e+00 5.449785e+00 5.621099e+00 4.205215e+00 9.325693e+00 1.116635e+01 1.436080e+01 5.806089e+00 4.533284e+00 5.066374e+00 5.230239e+00 1.427410e+00 3.564553e-01 4.661990e-01 9.607258e-01 3.962629e-01 1.112878e+00 1.421462e+00 1.641994e+00 1.482971e+00 9.890674e-01 1.006640e+00 1.226479e+00 8.951740e-01 4.042829e-01
<GCONST> 1.386451e+02
<STATE> 3
<MEAN> 39
 -1.474961e+01 -9.116650e+00 1.691718e+00 -1.053310e+01 -9.560939e+00 -1.425816e+01 -1.756863e+00 -9.337616e+00 -6.094166e+00 -5.959907e+00 -4.754477e+00 -3.012539e+00 6.905701e+01 1.563715e+00 8.318999e-01 2.673848e+00 -2.821943e+00 -3.180755e+00 8.875328e-01 -1.389901e+00 -2.482197e+00 -2.181532e+00 6.033987e-01 -2.091086e+00 4.365774e-01 7.188378e-01 1.732782e-01 1.850316e-01 -5.047400e-01 -3.886533e-01 3.801955e-01 -1.167499e-01 -2.716080e-01 2.897023e-02 8.002862e-02 1.178174e-01 -3.490449e-01 -2.764454e-01 3.436678e-01
<VARIANCE> 39
 3.199414e+01 2.794076e+01 9.254346e+01 8.648455e+01 1.024079e+02 5.524525e+01 8.398672e+01 7.956719e+01 6.487409e+01 2.271441e+01 6.174158e+01 2.568080e+01 2.063012e+01 3.714290e+00 3.500940e+00 6.982852e+00 4.588562e+00 4.569715e+00 5.124343e+00 1.122219e+01 7.964847e+00 5.194308e+00 2.143622e+00 6.576046e+00 3.476031e+00 2.549232e+00 8.425516e-01 7.410023e-01 1.277803e+00 8.767328e-01 7.226161e-01 1.186179e+00 2.461293e+00 1.923244e+00 1.162085e+00 4.746250e-01 1.308387e+00 6.646942e-01 4.962477e-01
<GCONST> 1.423610e+02
<STATE> 4
<MEAN> 39
 -9.485016e+00 -6.506783e+00 6.935023e+00 -2.273556e+01 -1.715245e+01 -1.282514e+01 -6.285909e+00 -1.672175e+01 -1.173837e+01 -2.463999e+00 -1.406709e+01 -3.271906e+00 7.447811e+01 6.070087e-01 2.388091e-01 3.622649e-01 -1.774253e+00 -5.772216e-01 -1.577546e-01 -1.542969e-01 -9.251543e-01 -4.247409e-01 5.527335e-01 -1.375223e+00 -1.638357e-01 9.209842e-01 -2.467823e-01 -1.771912e-01 -3.391856e-01 4.881727e-01 4.965218e-01 -1.892989e-01 3.725420e-01 3.053763e-01 3.672414e-01 -1.008854e-01 3.503603e-01 -8.055346e-03 -1.793419e-01
<VARIANCE> 39
 1.102213e+01 1.776933e+01 2.070697e+01 5.443618e+01 3.215645e+01 3.113308e+01 4.381172e+01 3.398975e+01 3.133197e+01 2.574451e+01 3.827670e+01 2.056483e+01 1.965395e+01 2.176695e+00 1.853692e+00 3.352517e+00 5.641259e+00 4.674655e+00 2.893178e+00 5.198111e+00 4.184162e+00 4.185262e+00 1.839839e+00 4.462914e+00 2.187604e+00 2.051888e+00 4.279837e-01 3.485095e-01 6.796262e-01 6.074335e-01 6.065359e-01 5.232146e-01 1.031320e+00 9.361210e-01 7.344035e-01 3.286265e-01 7.353335e-01 4.683354e-01 3.368870e-01
<GCONST> 1.220481e+02
<TRANSP> 5
 0.000000e+00 1.000000e+00 0.000000e+00 0.000000e+00 0.000000e+00
 0.000000e+00 7.922417e-01 2.077583e-01 0.000000e+00 0.000000e+00
 0.000000e+00 0.000000e+00 6.839194e-01 3.160806e-01 0.000000e+00
 0.000000e+00 0.000000e+00 0.000000e+00 7.886230e-01 2.113769e-01
 0.000000e+00 0.000000e+00 0.000000e+00 0.000000e+00 0.000000e+00
<ENDHMM>
~h "er"
<BEGINHMM>
<NUMSTATES> 5
<STATE> 2
<MEAN> 39
 -5.663562e+00 -1.608624e+00 -4.731992e+00 -1.735144e+01 -6.759053e+00 -1.467638e+01 -4.018001e+00 -1.172311e+01 -1.870400e+00 -1.558331e+01 1.864887e+00 -5.933887e+00 6.648103e+01 1.486082e+00 2.851447e-02 -1.179896e+00 -1.566337e+00 9.733858e-01 -8.029274e-01 -8.753199e-02 -9.583068e-01 6.769283e-01 -2.323371e+00 2.267790e-01 -9.511899e-01 2.694944e+00 -2.015693e-02 -3.610056e-01 -2.128506e-01 1.990641e-02 1.856061e-01 2.741495e-01 -3.462216e-02 -2.062623e-01 5.487581e-02 1.646617e-01 -1.753379e-01 -1.322589e-01 1.689517e-01
<VARIANCE> 39
 5.211479e+01 6.351060e+01 7.293574e+01 1.063754e+02 4.401508e+01 5.711915e+01 3.187246e+01 9.433237e+01 3.054186e+01 6.446958e+01 2.163252e+01 2.847741e+01 1.350128e+02 3.862787e+00 5.838606e+00 2.422575e+00 6.273150e+00 5.634688e+00 4.746549e+00 3.744478e+00 4.022200e+00 2.599541e+00 4.427566e+00 2.191650e+00 1.790721e+00 3.241634e+00 7.251312e-01 6.872573e-01 3.209718e-01 9.189050e-01 8.453302e-01 8.017593e-01 8.741251e-01 6.196197e-01 4.840851e-01 8.532122e-01 4.199686e-01 4.173414e-01 4.746716e-01
<GCONST> 1.340222e+02
<STATE> 3
<MEAN> 39
 -4.024183e+00 -8.306524e+00 -8.590760e+00 -1.900909e+01 -2.569848e+00 -1.520395e+01 -2.809672e+00 -1.518594e+01 1.416731e+00 -2.167543e+01 2.111195e+00 -9.689417e+00 7.764095e+01 2.851337e-01 -1.636877e+00 -1.441749e+00 2.969913e-01 1.382825e+00 8.742248e-01 -1.552964e-01 -7.268292e-01 7.715941e-01 -1.124588e+00 -3.510413e-01 -7.742316e-01 1.775768e+00 -1.968795e-01 -1.192002e-02 1.671780e-01 2.881795e-01 -1.818468e-01 1.857671e-01 -1.601994e-01 3.542325e-02 -3.120748e-02 3.926373e-01 -1.375000e-01 2.798950e-02 -2.894717e-01
<VARIANCE> 39
 1.835585e+01 7.499931e+01 5.559000e+01 6.156168e+01 4.744770e+01 4.121769e+01 4.365549e+01 4.358684e+01 2.079890e+01 4.701720e+01 2.491561e+01 1.888035e+01 4.765440e+01 1.640718e+00 2.760497e+00 2.205393e+00 4.199760e+00 3.446097e+00 3.899116e+00 5.275764e+00 4.023988e+00 2.036155e+00 4.300722e+00 2.752485e+00 2.082513e+00 3.706355e+00 2.284756e-01 6.533723e-01 2.275985e-01 5.695860e-01 6.181055e-01 7.453343e-01 1.089371e+00 4.893021e-01 3.152047e-01 7.029656e-01 5.401384e-01 3.953164e-01 1.883399e-01
<GCONST> 1.236215e+02
<STATE> 4
<MEAN> 39
 -4.391889e+00 -1.765475e+01 -1.031986e+01 -1.350036e+01 -1.722648e+00 -9.502973e+00 -2.158649e+00 -1.474378e+01 1.732421e-02 -2.096947e+01 -1.779356e+00 -8.933518e+00 7.881639e+01 5.691930e-02 -1.766004e-01 5.963118e-02 1.023490e-01 -1.380863e-01 -1.763150e-01 1.904581e-01 7.779416e-02 -3.092540e-01 1.213518e-01 -1.996310e-01 1.093566e-01 2.496624e-02 -7.203775e-03 9.055765e-02 5.660489e-02 -2.477357e-02 -5.299564e-02 -7.104255e-02 5.224582e-03 1.484048e-02 -4.011443e-02 3.076658e-02 4.575563e-02 3.154996e-02 -5.796994e-02
<VARIANCE> 39
 8.482430e+00 3.371628e+01 2.389785e+01 2.277113e+01 2.485028e+01 5.899150e+01 2.894258e+01 3.452414e+01 4.556839e+01 4.296143e+01 3.744489e+01 3.127106e+01 3.823945e+01 5.867987e-01 2.097192e+00 1.197212e+00 1.864485e+00 1.541674e+00 3.364633e+00 2.264060e+00 3.138200e+00 2.338584e+00 2.342019e+00 2.659056e+00 1.883976e+00 4.071948e+00 1.044094e-01 3.361306e-01 1.652187e-01 3.274234e-01 2.370223e-01 4.069891e-01 4.021386e-01 5.678276e-01 4.033938e-01 3.634470e-01 4.445748e-01 3.022022e-01 7.170314e-01
<GCONST> 1.111102e+02
<TRANSP> 5
 0.000000e+00 1.000000e+00 0.000000e+00 0.000000e+00 0.000000e+00
 0.000000e+00 7.231418e-01 2.768582e-01 0.000000e+00 0.000000e+00
 0.000000e+00 0.000000e+00 6.469454e-01 3.530545e-01 0.000000e+00
 0.000000e+00 0.000000e+00 0.000000e+00 9.729277e-01 2.707230e-02
 0.000000e+00 0.000000e+00 0.000000e+00 0.000000e+00 0.000000e+00
<ENDHMM>
~h "iu"
<BEGINHMM>
<NUMSTATES> 5
<STATE> 2
<MEAN> 39
 -1.535999e+00 -8.789673e-01 -5.625035e+00 -1.388310e+01 -2.003030e+00 -1.545150e+01 -1.210388e+01 -1.646257e+01 1.902838e+00 -1.773811e+01 -4.579927e+00 -7.587414e+00 6.941287e+01 -6.420283e-02 -4.240649e-01 7.810453e-01 3.558357e-01 -5.892006e-01 -6.481135e-01 -2.374024e-01 7.034613e-01 -4.612374e-01 -4.460655e-01 -6.079289e-01 6.831576e-01 1.546714e-01 -3.474007e-02 -1.817611e-01 -8.050731e-02 6.457457e-02 1.538637e-02 1.847859e-02 2.063602e-01 6.225042e-02 -1.564940e-01 2.477424e-02 5.837372e-02 3.181770e-02 7.818609e-02
<VARIANCE> 39
 1.203206e+01 4.534598e+01 1.169435e+02 2.967751e+01 1.026152e+02 5.094140e+01 6.574235e+01 3.933865e+01 5.901872e+01 5.249555e+01 5.610933e+01 7.096229e+01 3.997787e+01 1.328995e+00 3.697698e+00 9.126318e+00 2.536515e+00 7.944034e+00 6.836021e+00 5.922950e+00 3.848351e+00 4.416028e+00 3.846826e+00 4.014910e+00 5.529635e+00 3.263438e+00 2.521961e-01 5.940261e-01 1.405482e+00 4.752382e-01 1.434401e+00 1.512331e+00 9.258996e-01 7.657021e-01 7.380205e-01 6.965554e-01 7.098526e-01 1.085697e+00 4.644283e-01
<GCONST> 1.379735e+02
<STATE> 3
<MEAN> 39
 -2.023630e+00 -4.468818e+00 -1.517563e+00 -1.134150e+01 -5.750616e+00 -1.675107e+01 -1.261409e+01 -1.276551e+01 -1.780161e+00 -1.993459e+01 -6.010528e+00 -3.843742e+00 7.016962e+01 -2.906109e-01 -1.247684e+00 -8.146183e-02 2.869501e-01 -1.719098e-01 -3.694355e-03 9.231563e-01 5.422104e-01 -1.056040e+00 -2.248276e-01 2.144868e-01 1.839908e-01 6.325803e-01 -6.771417e-02 -2.024446e-01 -2.551041e-01 -5.493659e-02 2.123632e-01 1.751241e-01 2.196395e-01 -9.515448e-02 1.067044e-01 -7.829820e-03 1.992501e-01 -2.717789e-01 1.076985e-01
<VARIANCE> 39
 1.479497e+01 6.508165e+01 6.528217e+01 1.747512e+01 5.644270e+01 4.113141e+01 7.575512e+01 3.369591e+01 5.622556e+01 3.130207e+01 3.567698e+01 4.484070e+01 4.939589e+01 1.392862e+00 6.017238e+00 9.646837e+00 1.575791e+00 7.919128e+00 6.021251e+00 7.767054e+00 3.733349e+00 3.945428e+00 3.172093e+00 3.837933e+00 5.470895e+00 5.429750e+00 2.261091e-01 7.274534e-01 1.209269e+00 2.774485e-01 1.128803e+00 1.221442e+00 1.061243e+00 7.283167e-01 7.549752e-01 6.363373e-01 6.263275e-01 7.867122e-01 6.490625e-01
<GCONST> 1.345679e+02
<STATE> 4
<MEAN> 39
 -4.268396e+00 -1.328413e+01 -3.271830e+00 -8.899343e+00 -6.445947e+00 -1.316802e+01 -6.163361e+00 -1.088538e+01 -4.346051e+00 -2.022340e+01 -1.791023e+00 -5.806249e+00 7.243388e+01 -4.472656e-01 -7.947458e-01 6.046015e-02 2.851800e-01 -3.310539e-01 7.169608e-01 4.607848e-01 2.299990e-01 -3.894178e-01 7.240076e-02 3.845510e-01 -1.307244e-01 -2.663477e-01 -7.567932e-02 2.787274e-02 5.856603e-02 -1.450547e-02 4.603121e-02 6.653678e-02 -1.956166e-02 1.309934e-02 2.167847e-02 3.110539e-02 1.888274e-04 -3.663895e-02 -6.386820e-02
<VARIANCE> 39
 1.800011e+01 7.652488e+01 3.552499e+01 1.900658e+01 3.101344e+01 4.556319e+01 6.181635e+01 2.551400e+01 3.655532e+01 3.060905e+01 3.463621e+01 3.089623e+01 5.493102e+01 1.234717e+00 3.755822e+00 4.408774e+00 1.336195e+00 3.806683e+00 3.041840e+00 4.556809e+00 2.328896e+00 3.100068e+00 2.212381e+00 2.499449e+00 3.038723e+00 4.402052e+00 2.117396e-01 4.428022e-01 6.545432e-01 2.571958e-01 5.733476e-01 6.737517e-01 6.227149e-01 4.726399e-01 5.665838e-01 4.311340e-01 4.607303e-01 5.270825e-01 4.754243e-01
<GCONST> 1.217014e+02
<TRANSP> 5
 0.000000e+00 1.000000e+00 0.000000e+00 0.000000e+00 0.000000e+00
 0.000000e+00 8.252461e-01 1.747539e-01 0.000000e+00 0.000000e+00
 0.000000e+00 0.000000e+00 5.823966e-01 4.176034e-01 0.000000e+00
 0.000000e+00 0.000000e+00 0.000000e+00 7.065097e-01 2.934904e-01
 0.000000e+00 0.000000e+00 0.000000e+00 0.000000e+00 0.000000e+00
<ENDHMM>
~h "si"
<BEGINHMM>
<NUMSTATES> 5
<STATE> 2
<MEAN> 39
 -6.577600e+00 -9.657948e+00 -7.063577e+00 -1.384853e+01 -5.294744e+00 -1.697411e+01 -1.327296e+00 -1.130048e+01 -1.923583e+00 -1.978630e+01 5.728550e-01 -7.467126e+00 7.463453e+01 5.684717e-01 -7.519067e-01 -9.316124e-01 -1.737123e-01 7.357715e-01 6.843878e-02 6.766138e-02 -6.661780e-01 5.825346e-01 -1.869475e+00 3.215980e-02 -6.161844e-01 1.526631e+00 -3.064479e-02 9.284626e-02 7.713673e-02 3.062176e-02 -6.264502e-03 1.830214e-01 -1.306008e-01 -1.292734e-01 1.637410e-02 1.695144e-01 -1.123605e-02 -5.696374e-02 -1.419659e-01
<VARIANCE> 39
 1.480692e+01 5.114936e+01 3.171987e+01 3.750213e+01 3.794796e+01 6.110487e+01 3.698075e+01 5.372785e+01 4.470059e+01 8.683257e+01 2.542470e+01 5.920152e+01 1.365685e+02 1.427835e+00 4.305282e+00 2.556072e+00 3.984586e+00 3.909938e+00 7.406675e+00 3.835691e+00 2.747347e+00 3.854620e+00 5.910402e+00 2.210550e+00 2.791976e+00 4.395573e+00 2.519073e-01 7.390277e-01 2.491455e-01 6.959875e-01 5.167100e-01 9.775645e-01 7.902323e-01 5.507231e-01 7.035930e-01 8.774456e-01 4.096148e-01 5.976657e-01 4.954007e-01
<GCONST> 1.299732e+02
<STATE> 3
<MEAN> 39
 -4.897380e+00 -1.301311e+01 -1.035639e+01 -1.503931e+01 -2.923320e+00 -1.313399e+01 -9.312150e-01 -1.743494e+01 2.031430e+00 -2.537675e+01 1.346131e+00 -1.296061e+01 8.059018e+01 8.692621e-02 1.075011e-01 -1.031240e-01 1.497198e-02 1.136441e-01 3.726825e-01 -2.845783e-01 -5.580161e-01 3.923059e-01 -8.422579e-02 -3.998537e-02 -4.519099e-01 -3.166199e-02 -7.110027e-02 2.119385e-01 1.889705e-01 1.633017e-03 -1.782043e-01 -1.290176e-01 -8.769365e-02 1.254532e-01 -1.511264e-01 2.938350e-01 -5.845288e-02 9.991990e-02 -1.509827e-01
<VARIANCE> 39
 4.205742e+00 1.972119e+01 2.355905e+01 2.072229e+01 4.535156e+01 3.132639e+01 3.110192e+01 5.081870e+01 5.884098e+01 3.180122e+01 1.765791e+01 3.277517e+01 1.468713e+01 3.587218e-01 1.878718e+00 1.863708e+00 1.917640e+00 2.181948e+00 2.874314e+00 2.591592e+00 2.401244e+00 2.940995e+00 3.207304e+00 1.496807e+00 2.170768e+00 9.590763e-01 8.276668e-02 1.951464e-01 1.922585e-01 3.276900e-01 1.879620e-01 4.910796e-01 4.401890e-01 3.415756e-01 3.415119e-01 3.812779e-01 2.532725e-01 3.589700e-01 6.555532e-02
<GCONST> 1.030878e+02
<STATE> 4
<MEAN> 39
 -1.516221e+01 -2.076328e+00 -7.479528e+00 -5.308506e+00 -8.914208e+00 -1.231325e+01 -8.012155e+00 -1.061767e+01 -5.404560e+00 -1.259921e+01 -2.334657e+00 -4.841353e+00 7.355849e+01 -2.975555e-01 3.770565e-01 7.820448e-02 3.270485e-01 -2.519324e-01 -2.174781e-02 -1.495715e-01 2.084700e-01 -2.936178e-01 3.646902e-01 -1.315789e-01 2.906058e-01 -1.874081e-01 8.243619e-03 -1.833438e-02 -3.901105e-03 -1.685043e-02 9.932239e-03 2.230607e-03 2.674951e-02 -7.501226e-03 1.210465e-02 -1.374004e-02 1.131939e-02 -1.480998e-02 1.604369e-02
<VARIANCE> 39
 8.791055e+01 3.943662e+01 1.822358e+01 5.467570e+01 3.839597e+01 7.372363e+01 4.383931e+01 4.838832e+01 5.591142e+01 8.966438e+01 2.541280e+01 4.907524e+01 1.612795e+01 5.048983e+00 2.106061e+00 1.534400e+00 2.898060e+00 2.333124e+00 6.945010e+00 3.703748e+00 3.252603e+00 3.787035e+00 4.390234e+00 2.742422e+00 2.577806e+00 5.888056e-01 6.048428e-01 3.293162e-01 2.862176e-01 4.338303e-01 3.869543e-01 1.080488e+00 6.970330e-01 5.588204e-01 6.680592e-01 5.692545e-01 5.261568e-01 4.367868e-01 6.514286e-02
<GCONST> 1.234538e+02
<TRANSP> 5
 0.000000e+00 1.000000e+00 0.000000e+00 0.000000e+00 0.000000e+00
 0.000000e+00 8.546725e-01 1.453275e-01 0.000000e+00 0.000000e+00
 0.000000e+00 0.000000e+00 8.098643e-01 1.901357e-01 0.000000e+00
 0.000000e+00 0.000000e+00 0.000000e+00 9.689974e-01 3.100266e-02
 0.000000e+00 0.000000e+00 0.000000e+00 0.000000e+00 0.000000e+00
<ENDHMM>
~h "un"
<BEGINHMM>
<NUMSTATES> 5
<STATE> 2
<MEAN> 39
 -6.229954e+00 -4.674403e+00 1.350111e+00 -1.016117e+01 -8.679057e+00 -2.298697e+01 -1.151815e+00 -1.387562e+01 -8.222974e+00 -1.322781e+01 -6.049553e+00 -4.423308e+00 7.327189e+01 7.459276e-01 8.608103e-01 1.076571e+00 -2.023583e+00 -5.520943e-01 -4.244232e-01 6.144748e-01 -1.074294e+00 -1.333515e+00 2.185358e-01 4.032958e-01 -5.572414e-02 3.089404e-01 -4.651062e-01 -1.097154e-02 -4.650183e-02 8.780862e-02 3.707615e-03 4.004368e-01 -2.039360e-01 4.780220e-01 1.982643e-01 4.404397e-01 8.241053e-02 1.106864e-01 -1.955440e-01
<VARIANCE> 39
 1.816936e+01 1.843591e+01 2.442093e+01 6.576691e+01 2.397961e+01 3.282939e+01 4.314039e+01 4.200172e+01 3.348291e+01 2.691980e+01 2.631922e+01 1.634217e+01 1.410730e+01 4.310727e+00 2.176060e+00 1.683326e+00 3.503374e+00 1.631139e+00 4.814547e+00 5.068531e+00 6.712679e+00 3.603559e+00 3.524593e+00 2.933847e+00 1.922924e+00 2.388567e+00 8.128247e-01 4.742935e-01 3.830186e-01 6.812001e-01 3.426505e-01 8.762593e-01 8.433893e-01 1.198262e+00 7.394949e-01 5.775584e-01 6.073658e-01 3.742655e-01 4.334793e-01
<GCONST> 1.226444e+02
<STATE> 3
<MEAN> 39
 -5.047990e+00 -1.301628e+00 4.808504e+00 -1.505096e+01 -9.886169e+00 -2.225100e+01 -2.232584e+00 -1.444504e+01 -1.187738e+01 -1.049736e+01 -5.191462e+00 -4.532724e+00 7.171828e+01 3.279741e-01 9.942381e-01 8.635467e-01 -1.011940e+00 -2.676582e-01 3.148831e-01 -6.549585e-01 6.143630e-02 -8.834727e-01 7.650654e-01 9.311160e-02 -3.519554e-03 -6.545269e-01 -6.566878e-03 1.709516e-02 -8.638508e-02 3.121431e-01 7.502554e-02 1.100963e-01 -3.297969e-01 2.536249e-01 1.305533e-01 2.478644e-02 -1.056079e-01 -4.072687e-02 -2.319206e-01
<VARIANCE> 39
 1.375889e+01 2.490941e+01 2.158763e+01 3.736017e+01 2.037179e+01 2.524574e+01 5.877810e+01 2.434505e+01 3.212500e+01 3.012859e+01 2.242277e+01 2.314535e+01 2.308291e+01 2.065351e+00 1.464531e+00 1.612056e+00 3.862499e+00 1.446121e+00 2.968440e+00 5.507945e+00 3.437291e+00 2.830329e+00 2.843106e+00 2.051062e+00 2.256813e+00 1.826410e+00 4.970928e-01 3.426766e-01 3.262880e-01 5.144159e-01 2.800603e-01 7.133787e-01 7.644835e-01 7.381618e-01 5.900397e-01 6.499830e-01 3.860477e-01 4.579318e-01 2.384814e-01
<GCONST> 1.156733e+02
<STATE> 4
<MEAN> 39
 -1.983200e+00 4.171323e+00 6.332892e+00 -1.686516e+01 -1.117606e+01 -1.926993e+01 -9.422672e+00 -1.370814e+01 -1.351823e+01 -7.931609e+00 -8.648537e+00 -7.599664e+00 6.754198e+01 1.317150e-01 -1.994916e-01 -8.280025e-01 1.350545e-01 4.873182e-01 2.579243e-01 -1.723550e-01 -1.926593e-01 7.157469e-01 -3.015741e-01 -1.921347e-02 -3.488725e-01 1.646416e-01 1.319264e-02 -3.170188e-02 -2.200800e-01 1.371422e-03 1.919582e-01 4.951832e-02 1.094013e-02 -8.507874e-02 1.726626e-01 -4.671942e-02 7.196683e-02 -9.753148e-02 2.715882e-02
<VARIANCE> 39
 2.347446e+01 4.166654e+01 5.701184e+01 4.962450e+01 4.384956e+01 3.010872e+01 5.079711e+01 3.232589e+01 5.258249e+01 4.739569e+01 3.370424e+01 3.768244e+01 3.188651e+01 2.853397e+00 4.073771e+00 9.079201e+00 8.131805e+00 8.377876e+00 3.454664e+00 5.168658e+00 3.893323e+00 6.553504e+00 6.370619e+00 3.038052e+00 4.719126e+00 2.286952e+00 4.627030e-01 6.764689e-01 1.295098e+00 1.792452e+00 1.616116e+00 7.848046e-01 8.627740e-01 7.796921e-01 9.268059e-01 1.267190e+00 5.455769e-01 8.351459e-01 2.372146e-01
<GCONST> 1.373314e+02
<TRANSP> 5
 0.000000e+00 1.000000e+00 0.000000e+00 0.000000e+00 0.000000e+00
 0.000000e+00 6.458310e-01 3.541690e-01 0.000000e+00 0.000000e+00
 0.000000e+00 0.000000e+00 7.177891e-01 2.822109e-01 0.000000e+00
 0.000000e+00 0.000000e+00 0.000000e+00 9.495698e-01 5.043022e-02
 0.000000e+00 0.000000e+00 0.000000e+00 0.000000e+00 0.000000e+00
<ENDHMM>
~h "wu"
<BEGINHMM>
<NUMSTATES> 5
<STATE> 2
<MEAN> 39
 -9.702613e+00 -5.541562e+00 -3.974360e+00 -9.765442e+00 -7.386004e+00 -1.482609e+01 -4.116789e+00 -7.155127e+00 -1.936843e+00 -1.419042e+01 1.017706e+00 -2.221442e+00 6.407389e+01 1.419204e+00 3.071156e-01 -6.721268e-01 -5.603960e-01 1.083623e+00 -1.470637e+00 -1.273515e-01 -6.433502e-01 7.594489e-01 -2.776411e+00 -6.579272e-02 -1.664694e-01 2.360169e+00 3.165159e-01 3.465968e-02 -1.741201e-01 -5.671582e-01 1.138644e-01 -1.484558e-01 -1.678762e-01 -6.074726e-01 1.033106e-01 1.418660e-01 -1.598607e-01 -5.469284e-01 5.106003e-01
<VARIANCE> 39
